{"algorithm": "ppo", "env": "pendulum", "checkpoint_pct": 25, "architecture": {"input_dim": 3, "hidden_layers": [64, 64], "output_dim": 1, "activation": "relu", "output_activation": "tanh", "action_scale": 2.0}, "action_scale": 2.0, "layers": [{"w": [[0.0263205749522502, -0.32006353920363695, -0.31052478717166915], [-0.401835223894954, 0.25150797493822763, 0.28888071398614074], [0.057299308433332787, 0.42229993309292574, 0.07981083637890152], [0.42698226832782316, 0.14027484320814212, -0.32344305081357433], [0.3193265583084498, -0.4202745250487594, 0.12522227216522885], [-0.10365287085165731, 0.3903784266354278, 0.028019948004934084], [-0.22626817070635186, -0.15818948212580616, -0.3388966209864531], [-0.29956521003355696, 0.24554010976403795, 0.039919729396098544], [0.1644535741891157, -0.1902547098493243, 0.2634348634354017], [0.4018803801242611, 0.2941785119522496, 0.10341389489160416], [0.1674299235253587, -0.1800397754845442, -0.20606943725107355], [0.32715041923025945, 0.04920747974281021, -0.10390336159100019], [0.07374413831329436, 0.5873823184080169, 0.24203220505464765], [0.04261379005109313, 0.09820064767356242, -0.09381585863289958], [0.1443713697139321, -0.42536144509386864, -0.07500824023667926], [0.2181916876124165, -0.2511066734312846, 0.15199600579483274], [-0.3465501525235772, 0.3905398845797632, 0.16897519490596374], [-0.12117823340951538, 0.37460819073558677, -0.271864637069122], [-0.22569812150317944, -0.3775424265227935, -0.08287933206314967], [0.2058095377683344, -0.4637434035850661, -0.30205337333666227], [-0.18346316006497693, -0.3511756914326585, -0.2442091491703186], [0.0944862549537752, 0.16426191483186395, 0.14603393267676082], [-0.23249841467019958, 0.3028953197675447, -0.015152025880472174], [-0.34490945224148295, 0.19132834210509111, 0.26884511935332267], [0.07614202157025791, 0.48964251335328474, -0.019022086240465055], [0.020596303129516987, 0.2874258928426707, 0.29982402683656206], [0.35621802731563357, -0.08227861012961678, 0.11282301157461372], [-0.14162898455040393, 0.08304292205894198, 0.17092945080257016], [0.08466846862212214, 0.4452049858564932, 0.09895080687655003], [0.3142365728006655, -0.22657572104575524, 0.16194327176367043], [0.3291971047254014, 0.18603690152195795, -0.2991020693838603], [0.25462621458301016, 0.63743838903977, 0.24281046816888763], [-0.38446956503000934, 0.3115778355157792, 0.23849969523407671], [0.03219234856344047, -0.047539626804313284, -0.16795298393049068], [0.31767385937470394, 0.4779340056652476, -0.07219333316096609], [0.1288218055685617, -0.09865546523522464, 0.2259086410671307], [-0.41546246833976264, 0.22524896728869173, 0.005727568772610882], [-0.29383849111605265, 0.3673880486748186, -0.2727877058581452], [0.22564847993231535, -0.1749853482964483, 0.22573891578234653], [-0.39219483311520625, 0.29367801918210584, -0.20862163324018831], [-0.27852702999673845, 0.034518665623157925, 0.2999271206806792], [0.03778347639246858, -0.356768717588431, -0.15553147810701687], [0.31140243058837075, -0.38896073878750903, -0.21621109295705684], [-0.23196629427400953, -0.07014994864473567, -0.03593875676794502], [0.202801355309837, -0.4476525658077816, -0.11958144754722605], [0.04846164633479222, 0.4721795760771304, 0.0910634948062738], [0.36031730989169203, -0.13425822343499405, -0.06325421372966754], [0.057868041805498836, 0.3541998673964692, -0.16628355938868855], [0.0062637048717249216, 0.1715381255734917, -0.25930800112948366], [0.2655904087969693, 0.029867770602193817, 0.20237410139914636], [-0.4492188433607781, -0.17427489572146798, -0.25421183317159324], [0.19307299272746917, -0.04618038273053619, 0.1205583100949617], [0.336037798374554, -0.34655018155378214, 0.2270350409305443], [-0.35570458650185366, -0.12214804672182304, -0.05806309403564269], [-0.18501223161953315, 0.3381100982841872, 0.1950730410966455], [-0.21362485973337866, -0.19045985922572276, 0.21712361517554046], [0.3705245059325602, -0.15842585214319846, -0.11660683982205426], [0.4286662564347706, -0.21151674480977486, -0.18836984450313812], [0.34568148486142936, 0.057860031849344226, 0.0716838793143232], [0.4777618053543724, 0.2994393295258204, 0.12994213727312692], [0.27489463659546504, -0.4100636984449883, -0.2165922588278925], [0.03831290706744812, 0.2756451054706181, -0.16219628584042445], [-0.09110467650172677, 0.38007147178871237, 0.1307946023265039], [-0.07797621830700198, -0.3550291667714718, -0.054904867428858355]], "b": [0.10116180224080196, 0.07978144737627527, 0.08656299399984652, -0.06039609362826464, 0.07116294028355935, 0.13229590965876661, 0.10252186746033082, 0.11570177855000591, 0.059547639054982775, 0.008966770475777791, -0.05775344988933436, -0.07364946503328448, 0.002803331642260752, -0.09695605982889755, 0.04837416843208183, -0.008337042158473796, 0.05341494050476222, 0.0661941967139465, 0.04251756453433057, -0.0010598636910102242, 0.05678635589854573, -0.05241836004730242, 0.09140102254924064, 0.03396681185603165, 0.051406932236445026, 0.006435721130454558, 0.011829611947613077, 0.014619562861150931, 0.05187311676585526, 0.14491309166885094, -0.125405812803038, -0.08704014924616069, 0.09791598735567791, 0.077125786914331, -0.00914813275087442, 0.08408825986083755, 0.19785208345900945, 0.10297881719283539, 0.01596098087226045, 0.09921303658743662, 0.06386294914869622, 0.13122161634884796, -0.06416842670023541, 0.16816873421027392, 0.012315010975760071, 0.09686738756012211, 0.0026477641296367006, 0.06476349884072867, -0.11149335571626608, -0.061291064076554734, 0.15711123152652381, -0.02819638530554449, 0.10407575313822715, 0.11807512950028706, 0.05322197360936604, 0.09212297680174272, -0.07714899909385066, -0.08740653821738333, 0.02667414643802419, -0.0038833214802783196, 0.03714023046725982, 0.06924569310884746, 0.09869375769264412, -0.010169981343914813]}, {"w": [[0.03580632795660163, -0.2834356787556098, 0.363020638506152, 0.022672431591755027, -0.1988717921726771, 0.16792028641375095, 0.24791114630623484, 0.01173394423418813, -0.07094865555978613, -0.08645597220668606, 0.07345471240994299, -0.17186420599799312, -0.018406425494622028, 0.05140350279251604, 0.20974962319560542, -0.1754624493943036, -0.10898766299738746, 0.12966334323523498, -0.0027574749190854508, -0.03984222241891166, -0.14677260240694348, 0.06727491555471733, -0.14360742026788825, -0.14868594607076557, 0.1726976917585965, -0.059250840939723784, 0.17944147094025298, 0.0156909756456369, 0.20542152883085046, -0.11830335162771988, -0.19359973769680291, -0.18301583893101098, 0.05223767408728387, 0.06874404726666287, -0.022727520127354232, -0.13621302747735428, 0.1262128285037738, -0.04372400422879566, 0.1043890968141607, 0.023680088712972173, -0.08848654822736579, 0.16497041296858747, -0.19304419469485817, 0.12620207132362593, -0.1495392170804078, 0.25452146907724815, -0.05305468037854734, 0.2199584473042288, -0.11648002089727194, 0.22224770136197272, 0.18893070339901968, 0.01495524598306888, 0.15398751599000227, 0.1316762826893311, -0.04186853682780703, 0.14073462460406885, -0.25678762037165004, 0.10977095185366383, 0.0007761920105672401, -0.014490754748981038, 0.20852428059998682, 0.12876656262668792, -0.08819269288212148, 0.1264746997239807], [0.1693522056758185, -0.2338337725240287, 0.3914495265161081, 0.1005107794673663, 0.0882954671357419, 0.007456666694075294, 0.1664322832116264, -0.17108357270222874, -0.05327603425486893, 0.0586500344627087, -0.004596665024101818, -0.22998379604153826, 0.030427166816220264, -0.2099291873019464, 0.05275200781018517, 0.15798064273699147, -0.2313320514422616, 0.11079918420622768, 0.25742637096757287, 0.18488335329722907, 0.19019555989461306, 0.01302446741754167, 0.23680012521168234, 0.1682163592946973, 0.04519683611320529, 0.13210303271953638, 0.17497535136190737, -0.015053733469993781, 0.2944721427938371, 0.07620398969755326, -0.10968395847407916, 0.2319119710176269, -0.025589495706133506, -0.18648762742561403, -0.06501290297163127, -0.1719943318697568, 0.04799485237779416, 0.005316113479212493, -0.012262185769906954, 0.07795331075103644, -0.17576025127161543, 0.1916242110372164, 0.025314801244629256, 0.21835982560156064, 0.10466748602593814, 0.30579059966879313, -0.2631079289886531, 0.09624152573561874, 0.046800737657470594, 0.17392335544876408, 0.07568565386200216, 0.13914543263449863, 0.2078109999679676, 0.023236798141217804, -0.1385885289566646, -0.06265048356411, 0.002726216092573173, -0.09485807459233471, 0.09848185497320386, -0.059049083149794256, 0.05732326681043178, -0.0933684913274918, -0.12308382684023214, 0.2692554273275571], [-0.1495513394951376, 0.07195251983096553, 0.2638880870691676, -0.25307592368169096, 0.05724600495337486, 0.06540455225575836, -0.249575426971907, 0.2020753692875692, -0.04392128367820497, -0.1507016933448145, 0.10213186457224062, -0.18193767510015377, 0.03595764990566444, -0.2237798906882787, -0.206053919634559, 0.1486890950422467, 0.2157329499976076, 0.051294939849216716, -0.0056120928435871315, -0.11326004104310683, -0.30953956135416916, 0.10095194297006127, 0.19681981898624043, 0.12898790383730066, 0.18724105439544594, -0.15496442291729653, -0.17370180298070337, 0.07252782103660259, -0.0006622263095102391, 0.19755464989919122, 0.11521164406407709, -0.14303956770780718, 0.11807340228499912, -0.14974225846130412, -0.049910035860246366, -0.0627203730042348, 0.23259946332412176, 0.1915454092775281, -0.0631016113536286, -0.09782628691370876, 0.19049272931358244, -0.099259066674115, -0.058287873650218515, 0.0485948892493272, -0.2536394902357012, -0.11315458107695174, -0.046573268824491, -0.09781540925319755, 0.13340213429334552, -0.1815209489661675, -0.03914111964961834, -0.05976986378156879, -0.10788083156810198, 0.21046033600280734, 0.11159100900342622, 0.147605815040384, -0.21993087867163977, -0.07752188283343721, -0.04308335896138652, -0.07871529071433062, -0.3071750988177305, -0.10487973211150738, 0.2701883913693379, -0.058323733279349074], [0.15886001336112393, 0.06654456379630695, 0.1299520297047147, -0.03959047129147177, 0.1014383720289656, 0.09229895843571118, 0.181529221407478, 0.021338077208441764, 0.0650833187438176, 0.2708080158087641, 0.11781714222772256, -0.20197803444485263, 0.13095762566159916, -0.1758132817856348, -0.08559035522026556, -0.04314953290263526, -0.21103554882375158, 0.21079929902314887, -0.09810219767122565, -0.23774250545241324, -0.03951721734510015, 0.2279334388006942, -0.08895530879360872, 0.0841013254236886, -0.10443415252732252, 0.027940981503093945, 0.20954868108950628, 0.0594843714631557, 0.26907459788927457, 0.016914765129855087, 0.18968182553082433, 0.21317101342298606, 0.05260206554799098, 0.15935942299978412, 0.04010956775264628, -0.07647294409818173, -0.014815077086938515, -0.089553638664916, 0.12208690629579479, -0.10949951430435885, -0.013513845991875644, 0.018871211698989993, 0.02131146561362842, 0.11721652318744485, -0.23349813495628213, 0.18760984066595135, -0.10659848116348788, 0.05497565046135255, 0.1004832341579316, 0.05731175265068451, 0.15145173767541753, 0.004326085846180348, -0.035084593176288974, -0.05458309503633875, -0.1448797279832822, 0.03320829185087245, -0.02343697598419981, -0.2005355491376004, 0.26022513424857635, 0.16177912422584212, -0.024657577386305037, 0.1504631281334274, -0.03058656853573764, 0.09544856783949052], [-0.14306376411277474, -0.19182112152789937, 0.3141281496032072, 0.14320331745493492, 0.06686332837270398, 0.020310436696163676, 0.05629456458012239, -0.043961931360540676, 0.19971238602429012, 0.11707704701303204, -0.19996514797567094, 0.12185320673406878, 0.20902523892690691, -0.17122510129782392, -0.2844356218708619, 0.09634881886761668, 0.06618880173371103, 0.09488799945372192, -0.16461643654021624, -0.2542946931821878, -0.0032342031317442047, 0.18351081701427432, -0.07087261338038846, -0.21511270636790877, 0.1606755016494431, -0.12124218006670291, -0.1360989997354188, 0.11080011632737823, 0.21261382619904623, -0.021641338084632238, -0.0834846885512516, -0.009034859445905066, -0.10384008435483316, 0.015711264771614324, 0.0750826024825352, -0.050063181656611506, 0.061037586029217834, 0.12460145482011052, 0.052070470311877594, 0.0025181430749530763, 0.03708582605400994, -0.027651351103872242, -0.1926881622328451, -0.10835198760160401, -0.1210067375710544, 0.21477063981092617, -0.009440629846081749, -0.011833812974936552, 0.06642911629015832, 0.2558989230398592, 0.006245400055765519, 0.1722019240516926, -0.16702665950126608, 0.1880092238939763, 0.18084626820472838, -0.11702312325982273, -0.33105834661139755, -0.10744538310249913, -0.043555992108384206, 0.3402043865273066, 0.07997222432660556, 0.2279753115265123, 0.04762513409746536, -0.10054724951907221], [0.1826052567675945, 0.013344926906525745, -0.04941759326383717, 0.15839845817061834, 0.04513906850241293, 0.16731617281699854, 0.0460114046914179, 0.0817982506925923, -0.09346905894248524, -0.10616522837131859, -0.1545635663819622, -0.2794157456073456, -0.24407218946812442, 0.09373768679233753, 0.08493593186033245, -0.047029579073433456, 0.053726207033615615, 0.006518613025706327, 0.39238032640304116, 0.1428983678901336, 0.20712505017130603, -0.1040291507683023, -0.1043999335772284, -0.2320914539612754, -0.10457338777619457, -0.10160260680049561, -0.1260680397449205, 0.04084134606434773, 0.09864612810910793, -0.07911590169703729, -0.02797350753165254, -0.12857508899193046, 0.02705122759985954, -0.14160514879701802, -0.18497106457500567, 0.06406041604684122, 0.19793158139345707, 0.20723547809838505, -0.04031787854753397, 0.0001440226456278388, -0.13191043244537856, -0.05389523967715751, 0.06177534595075762, 0.13767045399795638, 0.16315901102837851, 0.012757970378274024, 0.021291291477932253, 0.019959463555388975, 0.0581458912221877, 0.16141952983215932, -0.06108062097495527, -0.08681312664531811, -0.08299279118752781, -0.01958599792641454, -0.16285800566997527, -0.025749284897867725, 0.06223614033851515, -0.24364475737904734, -0.18475091689226666, -0.20781118553409267, -0.11695416176295964, -0.07085591493093293, -0.22443388303026574, 0.062409899565539245], [0.12028208179284842, 0.04130022224400334, -0.048706408638977954, 0.05892988761373585, 0.08277173463445858, 0.19204926169220787, -0.3188215066972669, 0.16084535262796493, 0.11977504474891439, 0.07103463127774222, 0.04924896206216552, -0.08341399784088602, -0.17588121438829088, -0.108223282687231, 0.2250972549908246, -0.020831851746103296, 0.2618098010491674, -0.021192380270796396, 0.14252572643084643, -0.008543077980658634, -0.02857689684173296, -0.07821726923133845, 0.2513338464434968, -0.036611665326043215, -0.11660915306112915, 0.11399644755953955, 0.049939697319075015, 0.10326979602307422, 0.09131257946825619, 0.0445618846999028, -0.1742929673208411, 0.04099777936754204, -0.13823966270081361, -0.14896641285618437, -0.025154641841733747, -0.03530065562332987, -0.04393067161066865, -0.06254231968633765, 0.05642118064683419, -0.08953651353882813, 0.14108812448639393, -0.15837328795076755, -0.08819730403931274, 0.20095587392857886, 0.14209096126919857, 0.02662023080311735, -0.09465585457378954, 0.08631833850391213, 0.004584262161140925, -0.16127428653901538, 0.005115207906186128, -0.06173890390259769, 0.19455351928319922, 0.15038666076137644, -0.06356448377043471, 0.24471352694293386, 0.0006748502847427218, -0.03811892876015801, -0.15129593867236285, 0.04980215030900467, 0.05843525320131687, -0.014587463613244249, -0.0629444889205601, 0.1608782973466095], [-0.1207926678969092, -0.10409615357233853, -0.28326642996732704, 0.05773679377975434, 0.35076144280169613, -0.12213274472724327, 0.1325351449547221, -0.3342408742187941, -0.0024492375510002926, -0.03663899467279107, 0.06272588057241657, 0.10617007608580394, -0.06607282142416979, -0.11940181840506395, 0.24884661522216234, 0.27021665562172115, -0.21968606921662212, -0.20386208683476556, -0.1893641798195592, 0.027354892158792363, 0.20373122827629792, -0.21567567585259179, 0.09724368093410404, 0.017283431993520195, -0.1731137821844887, -0.09780611193291869, 0.06198495052734943, -0.06651754476544212, -0.46690082537593125, 0.09817584034831492, 0.27332855747719464, -0.21767261030125945, 0.19688271552995998, -0.13252854345868795, -0.11381992910378899, -0.16505422782980633, -0.11214152894450344, -0.12742579421246045, 0.0578607188380673, 0.11640018582601488, -0.012936727417741125, -0.061408502155112094, 0.19171009406389017, -0.17749325278246356, -0.04124086012320955, -0.6599021840041503, 0.2394566703877097, 0.19229560688079358, 0.186746098294315, 0.048795054016140677, -0.17271000842299328, -0.014356401185500885, 0.08494196286158279, 0.08058037504152998, 0.021917721760875728, 0.023746740735891603, 0.2633063913440233, 0.08772206566979253, 0.24018080999721383, -0.04008130309285154, 0.23194851849839987, -0.16846420972817294, -0.08440521575349043, -0.13042510678090147], [0.016307114696116443, -0.15256046361827247, -0.2646397963000397, -0.09058264430573455, 0.1259612071088508, -0.16480766659405757, 0.1357961623309969, -0.17870773443811516, 0.1577763505809634, -0.044636544282885555, 0.23089245582310106, 0.17211075552144459, 0.040502863792333345, 0.18723299431773216, 0.2114536537872614, -0.12489937174608626, -0.2251948396093008, 0.028817354773075742, -0.24055992152462566, -0.008700578464750749, -0.16046863260427432, 0.06588808345752686, 0.09449377024848192, -0.16993238902241767, -0.08840984712016234, -0.09733627525806875, 0.17931035120746658, -0.03326439694823039, -0.15588564736834815, 0.08707074000956859, 0.241307566279966, -0.1953155722100919, 0.17244595619136707, -0.005433811265301029, -0.11260872174566672, 0.12640583668697572, -0.2515560190370578, -0.007420673339448517, 0.07056285057275981, -0.16842148424936365, -0.20160064228297303, 0.23850779384678927, 0.20168683738064191, -0.2849973003672085, 0.24002021729230225, -0.5368350807176088, -0.004092488138104363, 0.1200724228524802, 0.10283989846878006, 0.15058157504234346, -0.20285274326908023, 0.14707829527891822, 0.03754931713334403, -0.1662097097268903, 0.03681704000083016, 0.172411123615509, 0.04371287230719839, -0.06960203658012303, 0.18369428698201773, 0.11874690075454558, -0.03482216823781517, 0.1430552060134829, -0.35146219855088257, 0.0522290115757747], [0.17968168305611967, -0.19551566837214768, -0.1693375900970203, 0.0607640243457894, -0.07798714994490456, -0.0014169990611363203, 0.09827990472060645, -0.11964527879849933, -0.001463900278543135, -0.2923724374159035, -0.12688245379772695, -0.14556717902449345, -0.11651179302604484, -0.28267495917874164, 0.2721363429167225, -0.13688562159455614, -0.1683288341548594, -0.09451862152797555, 0.3329870577897776, -0.0069323906717764835, 0.053357714305118986, -0.12262953488013054, 0.1582423216017591, -0.1204706447017503, -0.3696596231276927, 0.016263917780732516, 0.033056924686643153, -0.12632380344895155, -0.1690845730446358, -0.07646720670889397, -0.026134652263352535, 0.13641857622108441, 0.08483980174829446, 0.09925588369393226, -0.22520198311966325, 0.02339878959157074, 0.11591692631549111, -0.14617520552656313, -0.11520855581007768, -0.04039464140257931, -0.016958170459297366, 0.162167262097939, -0.08839348301651483, 0.06328738022904284, 0.27873481155499896, -0.25962210459365714, -0.008292820474475009, -0.11415229834305658, -0.06717695771152568, 0.09977183383320744, 0.05820661363519051, 0.12226826646389839, -0.012884620376834422, 0.054323880667129475, -0.21928477957073167, 0.11747432476291271, 0.09322623429750522, -0.07661257255892417, -0.2508311601078865, -0.31117069338363434, 0.22572884737683635, -0.036947337567384275, 0.024834335385257714, 0.3333325523452885], [-0.10876189396640885, -0.20871164651285973, -0.6926383805999062, 0.15693251238566025, 0.006610038246207277, -0.17090407252395415, -0.16111273466373388, 0.0074894282321099, 0.0814350396637485, 0.015243467683552439, -0.05490652654795678, 0.07017587686561037, -0.4283651101131703, 0.12769632549316076, 0.25709818633324527, 0.24675096380891484, -0.046537510837440246, 0.11644768431314093, -0.2926435431745316, 0.11207018744346092, 0.0890212700911192, -0.034742239870906466, 0.08415286603937598, -0.21154547843514968, -0.03418472445850501, -0.13090342146050696, 0.17840292403896882, -0.11447668840938251, -0.5811256111824716, 0.22100155012349806, 0.028857807291924394, -0.38776129228508727, 0.13527173445541762, 0.193952595598352, 0.0475074111525249, 0.1280032198364042, -0.15445289754986571, 0.08794288344034419, 0.1734929479218373, 0.0661338767593696, -0.07449485061518156, -0.18402897357305006, 0.14220934237768898, -0.12192467443002311, 0.259123437562069, -0.3881539800592695, 0.1582521074451125, -0.06139245848675391, 0.0717460089142725, 0.17256658429987234, 0.028864625522330548, 0.304412979160645, 0.18926187930520752, -0.06298813742367981, -0.13245625635034447, 0.23594458365243473, 0.0848217692272605, 0.2426431725908203, 0.015449011805613557, -0.2266348974027111, 0.037894621978709686, -0.09375018674325308, -0.1403985219571417, 0.07258777393285197], [-0.08506486793843036, -0.012507043784879456, -0.4184933081588754, 0.19368687110369212, 0.3529543323982986, -0.14714381883224564, 0.20237370174202726, -0.2815855351164164, 0.20043774657013363, 0.10978049181815694, 0.09352413860579781, -0.02800599533693528, -0.31105369674116695, -0.05662979853738349, 0.30111444416344135, 0.16878029739278605, 0.12308038005545278, -0.07336042199533015, -0.1484039835629284, 0.10475177934420582, -0.04993800199890464, -0.07444470588700944, 0.023433315960514733, -0.17639757391363758, -0.10263135818981345, -0.3396111749509178, 0.09926676155804404, 0.07256381695912398, -0.6011654345842277, 0.004540235237003495, 0.20129506928553795, -0.07384391797655512, -0.05142309689678169, 0.2036948637307094, -0.03536885898601383, 0.12413153722362094, -0.14469541608467054, -0.023109486201394334, 0.09079577751119712, -0.21436005003295108, -0.11596068787655767, -0.03355904905454802, 0.1737666526807943, -0.07306173967394083, 0.18516529175167035, -0.38391935446112063, -0.05863437394562421, -0.13212519759144165, 0.17875178393264732, -0.025259855382984774, 0.020561155093179757, 0.09865062583880743, 0.15260120990264436, -0.2474125260028301, 0.06976762776008963, -0.0854069359955978, 0.22443561536991016, 0.07031444546069104, 0.010140124505627719, 0.04608482746483212, 0.03136523520417199, -0.1532274083401531, 0.0014496683401221588, -0.11347047645501052], [0.15544436916316573, -0.04052026661506868, -0.02900396315715421, 0.03747130465208242, -0.09641149277424939, -0.02396227423639637, -0.10402318114520906, 0.07260688123751577, 0.11145583496933513, 0.14676967544552516, 0.09397420223220415, -0.13284190124393983, -0.08278908597888392, 0.17921843507026952, 0.14404417448129217, -0.014912905167193966, -0.023610205070051623, 0.2089039082185216, 0.11213821871550977, -0.007953992473859164, 0.21474699078506956, 0.14612543860613714, 0.12370345351909304, -0.19983844696807343, -0.16746709471122032, 0.09130670564542806, -0.09098061869771117, -0.19658181282898143, -0.10235536717643257, 0.1935506476835388, 0.07523559050905534, -0.1687645376074042, -0.04016216026842992, -0.18165870203868756, -0.012121528636997614, 0.15997472325028392, -0.2529808170622438, -0.01273826761655616, -0.14101914674289298, -0.04217074311676146, -0.21057226927291794, 0.19393167132390934, 0.046551729761300766, -0.06240348070451243, 0.0470733418592583, -0.01793976364875086, -0.07617731370217237, -0.08271683445220328, -0.18826604122976204, -0.09321833844045269, -0.13404354781642394, -0.14328569200199534, 0.08720406817601412, -0.09823040356860481, -0.26011329854832643, 0.21904070787719954, -0.13793372423408387, -0.16335925502295445, 0.19356777324746605, 0.034287639820579745, 0.13910216286768254, 0.04617852694021998, -0.31260661145611945, 0.18996895131613276], [-0.08067161139832645, 0.01837048345118524, -0.23259779068018954, -0.16937005217182996, 0.05773401596723195, 0.09441056877099564, -0.11138354198024714, 0.16840497021108547, 0.18497296187957513, -0.03601823384781087, -0.06270253200174102, -0.05182984858478971, -0.10437586491567083, -0.0678577389554021, 0.17701289177684745, -0.014764416682636712, -0.1301871894223724, -0.2212139443115991, -0.16583113702178637, -0.06751011046873835, -0.026517526966315406, 0.03576079182555058, 0.14908938458809826, 0.035334341009603726, -0.22520604059860128, -0.07825256052716913, 0.008816448431688217, 0.03019404407655378, -0.14728735211026658, 0.17730614551493282, -0.051356646190030844, 0.0970359358829219, -0.04576886750840646, 0.20595473949280108, -0.18479916761028317, 0.13736181063324684, -0.06375535608766372, -0.2191092456407542, 0.17199627189518152, -0.16955084966770884, 0.23184608329455528, 0.1719494352567988, 0.16922982967523037, 0.06865489481970807, 0.20807592881871262, -0.051514346925590336, -0.08345700969413287, 0.0992993590663374, 0.024485333362356004, -0.16010893203610643, 0.07516317476272295, 0.026930709558409194, 0.13816586460616495, -0.02235492654505583, -0.10529612137440042, 0.2064998975313952, 0.15570469092599729, -0.09249339085188085, -0.0766132355120933, 0.11896539044666869, 0.01814567998559279, -0.11091800951709414, -0.0585416233730935, 0.12938390813109615], [-0.17551854614791954, 0.2663710701538821, 0.00171805479340452, 0.023137131888189024, -0.1620360687960606, 0.22766188742811636, -0.2973951690299737, -0.054016022093160684, -0.10613653981229111, 0.1267683591643031, -0.1381215195869128, -0.10140213179283405, -0.13568744097033802, 0.022399996978785395, -0.22183957303250063, -0.16976721435237563, 0.21571966695378844, -0.08593815652128739, -0.1610543612144869, -0.09227861306649943, -0.234894127953907, -0.18740521889046136, 0.24350509438502577, 0.016486608411218996, 0.2528307358394792, 0.12983369608120873, -0.19299916002562334, -0.14410251413764927, -0.09077609103111382, -0.041067711157903725, -0.13633172570107746, 0.16082029781583174, 0.060723069998088304, -0.14448497289526024, 0.013982169365476763, 0.10950767328461276, 0.19907509494435335, 0.11006173324756735, 0.1005742675499321, -0.01857677666914148, -0.1179323162130793, 0.017081097388457304, -0.11663559997451357, 0.18283150773123222, 0.17361762162511246, 0.1681577596953873, 0.11439273129205481, -0.20022384003459442, -0.01774354349090304, -0.2033228311307718, 0.16321876701694857, 0.1533224129608055, -0.22181364621251146, -0.07784180176166564, 0.1955744810731482, 0.1230845825087105, 0.13025336991392214, 0.038057051630715, -0.01927256557640179, -0.01488942748306408, -0.30315801365240214, 0.12497464532940274, 0.03305616517783224, -0.1399466652415932], [0.03608573401406292, -0.17217333469741808, 0.29645667086152966, -0.2165687814231293, -0.17436722037634164, 0.0917138519763942, 0.09077846042053718, -0.23171944056888713, 0.038351132275078824, 0.3134879663421784, -0.10489654024022224, -0.028657476108508714, 0.2460806224294703, 0.09810316966092851, -0.14672605302593703, 0.1944370515574701, -0.19344383864624043, 0.1711047162831158, 0.12191602924058749, 0.11510672517302535, 0.2246763110420483, 0.2259313034606082, 0.16650172390317242, -0.1827586159740939, 0.2282641539298866, -0.1285457216292411, -0.056232138728539285, 0.0076440858209589155, 0.2481892332909352, -0.19070926969097646, -0.10533113027968793, 0.04534538213044516, 0.03336432152825011, -0.20883373927834534, 0.17302266225108642, -0.04705790258666018, 0.11225392351974486, 0.23058996564449502, -0.15027395981538283, 0.06616681238991476, -0.204671634011411, 0.10605911143032398, 0.09920860343439053, 0.01756399070352104, 0.11427747878519234, 0.08646396163808637, -0.06815604417055983, -0.14226652644852655, -0.05552172603969813, 0.008460537806785235, 0.15029548911234758, -0.07899795834812988, 0.0020292199445140803, 0.17691138352937516, 0.0705156002237462, -0.1533206781878308, -0.2720776637364972, -0.16158476239642022, 0.12445567916841893, 0.303153704705753, 0.046763221731374344, 0.061803591072242224, -0.23242002407158205, 0.1311848489556918], [-0.12827509951628663, -0.0893671594061342, 0.20878338289172932, -0.12352215838679223, -0.2514646371210275, -0.0520049089016344, 0.022521390864301688, -0.11150509543917167, 0.04728261590382707, 0.08172097015637485, -0.07513520950677599, 0.16236132945631473, -0.08522938045184579, 0.028789925258057122, -0.05508682647277275, -0.21880549161423996, -0.06790802755346749, 0.03528195995133392, 0.19288677662006495, 0.032902857543290545, -0.021227355676105578, -0.19622042791845115, -0.06513380609364826, -0.2335435021832668, 0.04858932073913879, -0.05612106468347697, 0.0497694046502906, -0.011966815892503148, -0.043025755848086676, -0.1274743472678146, -0.1668968705982412, 0.20274711758773542, -0.19156221646589405, -0.19488950292237234, -0.08322465631963376, -0.19203206085599595, 0.11769543547245204, -0.13382271233477544, -0.08942565271897827, -0.17781428978474564, 0.14454040992390182, -0.0974086889804892, 0.0727870650992231, 0.19665996174862876, 0.08202626911831666, -0.09303335045513625, -0.010112829254970123, 0.14623303151029035, 0.09182847464905895, 0.11523738536640635, 0.005531221702950473, 0.006427231369147089, -0.10946397908070457, -0.14656207212332545, 0.08545503487267891, -0.3031295733733903, 0.11635863319541642, -0.23373283719905064, 0.04483094480997444, 0.036261045603975896, -0.21810752982456683, 0.04684473308126192, 0.11694938965547207, 0.00782158351317104], [0.14937585448796578, 0.07815028164429857, -0.04797063299159759, 0.24001120879937635, -0.08251036064874716, 0.08976524336083255, -0.08545721840193136, 0.29226061391127783, 0.00459839011695092, -0.0716505644520533, -0.054462440257649736, -0.19015265428224637, -0.16282205266819272, 0.21979422386199088, -0.10137119906348743, -0.2473134495925903, 0.03580395321332939, 0.18274757285993093, 0.20608333906830315, 0.17419601689469166, 0.21106105967637404, -0.0512788408017399, 0.09612943341269489, 0.10402542394709889, -0.1082834750227752, -0.24996989332816097, -0.061792909487621644, -0.16387865581422037, -0.15930272276730303, -0.020460353470763467, 0.006294417071449849, 0.07276240746501675, -0.0948103696961528, 0.12251559216278861, 0.08956279299591471, -0.16699497084178774, 0.07546830729218855, 0.0393268420659742, -0.198979514950796, -0.0870011948994781, -0.24396452955180875, -0.010164093479968755, -0.260959490354805, -0.08314844085106878, -0.2128663758941726, -0.0059352085069454335, -0.13586784066407948, -0.15139688033998056, -0.1007074944197166, 0.18513074094234322, -0.012789015893706705, -0.1926201054203105, 0.014179848642321267, 0.09294465075163195, -0.13912091867908274, 0.0582514274785857, 0.1871076617806931, -0.08143850319677004, -0.11760125598594598, -0.05270181409782993, -0.15563140008985926, -0.12993032737655053, -0.05792507511665765, 0.1439175058926154], [-0.21654399204175087, -0.08608374655311961, -0.03462260525302289, -0.04660948295872071, 0.06794679038060802, -0.20857249504653988, -0.015181321005771123, -0.12006580731278857, -0.10813130277350623, -0.1033117971565074, 0.032561227579322505, -0.09606312570086094, -0.03835813399481668, 0.11432152766628915, 0.1420286473642489, -0.0572260561797215, 0.07824648783197001, 0.10639648509440813, -0.18900442579133833, -0.13260408916212663, 0.1642001290118303, 0.14834338078212533, 0.1423265536870723, 0.0500692312598206, -0.23421163794666205, 0.11542843887386117, 0.12036351075444005, 0.23534286385627673, -0.2560439352370196, 0.15516184814082046, -0.050195943993429595, 0.00976704815451974, 0.24059874887878052, -0.0956663323129876, 0.23675281172659368, -0.18437962843612798, -0.14924257826213622, -0.043118910090029154, 0.09588081544650137, 0.14607250925637058, 0.19836756542606024, 0.20003707524077913, 0.028730748927359752, -0.05000587835257259, 0.1052026909918699, -0.04524959918884795, 0.24965046266776222, 0.03567581737218751, 0.15667666330188376, -0.05404547943499929, 0.061516868703967525, 0.2236917165158495, -0.16100119826341797, 0.04577840208480238, 0.20085024215795041, 0.22212092948039439, 0.27118928637811873, -0.0254433612843462, -0.08800380633058623, -0.07393979152027091, 0.24432940063839184, -0.10261241826885861, 0.09182865261264858, 0.009363653049310588], [-0.10707769690249687, 0.19362940654393007, -0.458432944768313, 0.24535123191365626, 0.34435361803201686, 0.024292074741768862, -0.13755756641279981, 0.12845036714981736, 0.24000811732606675, 0.19940811731981636, 0.1246352303805325, 0.01778149986894782, -0.17320182688446298, -0.14342964683669238, 0.3224070067487101, 0.20532078117622668, -0.06295064942342089, 0.16412046479404727, 0.030448269671017634, -0.0010165881205482527, 0.19589657901494237, -0.13599071638733856, -0.10720911633887238, -0.1582933893911224, -0.018962129838723345, -0.24093740764329571, -0.08529156494482429, 0.11320419679813648, -0.16252544764084878, -0.07940994391914691, 0.15228567702292, -0.3187949890683528, 0.1829793800320426, -0.16041455792998893, -0.12186629405897868, 0.2562616220642868, 0.02254725791552088, -0.17624328235298167, -0.16645423646460275, -0.059936778980318885, 0.023304040878471828, 0.07564148545504709, 0.167021047248917, -0.17075704997667288, 0.018007086888622983, -0.6581025645336487, 0.3340835578444566, -0.024151460424115274, 0.07598725045596841, -0.056349544744636645, -0.1687301273348984, -0.050142510674531425, -0.11488059096964191, 0.05159750234410853, 0.21489882868459786, -0.12941314084315578, -0.036794452813003954, 0.2220647828032206, 0.07772084326864435, 0.17141418557628169, 0.01897508271982811, -0.016383598555326923, -0.2464574820067507, 0.08414775528523347], [-0.11168253798234307, -0.026935678336266523, -0.41068232084930295, 0.23618031040632842, 0.31588490024894, -0.3685347972421705, 0.14513736907587424, -0.021465437829083465, 0.03219293746557207, 0.045712614330927326, 0.022442963302513056, -0.09459882653897866, -0.3144119200804756, 0.18526542612464827, 0.12324146709073105, -0.05591772428948621, -0.029614545958527725, 0.042764077709743276, 0.023484711173332763, 0.08464716777512528, -0.1482445096222653, 0.18457516635955712, -0.13138662975403254, 0.12446859152235909, 0.0387120590633442, 0.15102670967854623, 0.23463833726657277, -0.025263589223585636, -0.7371341138142591, 0.20502578449185108, -0.1600842950081594, -0.41763567024927795, -0.18679337448174219, 0.07839545664840011, 0.17363055986510786, -0.16272820502564714, -0.24156409992042532, -0.07724582725009048, 0.19268942132923442, 0.03508337038389463, -0.016552387925037097, 0.21246140916114462, 0.15793598948244, -0.06628830152102048, 0.1848782250594122, -0.5500443064695606, 0.1186592659210019, 0.2228638072600502, 0.034180536097801154, 0.011448652740632259, -0.2184442711703341, -0.028471884226524663, 0.3211448534875011, 0.11501119434035688, -0.28569176523345685, -0.13308667919885306, 0.2216716465279809, -0.023232477024572627, 0.11756919562428439, -0.1391800458729438, 0.021435197848679595, -0.053164462642412855, -0.30925009449203406, 0.018594166766294964], [-0.10482761721917815, 0.2466625901443943, -0.2471739007622167, 0.1814636506666206, -0.1653077492686759, -0.07915360254436354, 0.17506206561268475, -0.10697546275089406, 0.15282071914835813, -0.27104463817704694, 0.011613249992185133, 0.24560953085442228, -0.1620510542174327, -0.059481404101477876, 0.013019554186305923, 0.040953711111269234, 0.00909479110454705, -0.1322023559437568, 0.10637729616299028, -0.21433996768860133, 0.17439446982066953, -0.15443102128719005, -0.13248794465257294, 0.15641447562597988, 0.09203607378926972, 0.023034306464426755, -0.2692346064853108, -0.08888942966128158, -0.14059496918257727, 0.14470259622833265, -0.008828541174785633, 0.07565053095624331, 0.24276345868368945, -0.0542708324121197, 0.20403177954356785, 0.08342211716432846, 0.07463765338541234, -0.05308176343867462, -0.04197177449739938, -0.11139487906567683, -0.05284221541441277, -0.034320620441875206, -0.015939970067844294, -0.09148907436521994, -0.15931855429238542, 0.13097484356411188, 0.0592590880617673, -0.08018578270487908, 0.13047360039347797, -0.04051820610774162, 0.09517782861116321, -0.1664284049242179, -0.16047577277353178, -0.14452601800336773, 0.18485968695671764, 0.158225262899381, 0.0004912022192576967, 0.22893164366059646, 0.05220668624039571, -0.16866812728754707, 0.0548475159549008, 0.20292207634186843, 0.12954699917307905, -0.2229023501973469], [0.08332298025700204, 0.18278986830764501, -0.4709514637316856, 0.05645676454142367, 0.29081589871759855, -0.1817886948888285, 0.06941142275436159, -0.33208550443576706, 0.21528656966165577, 0.17143080389022675, 0.20939611161232502, 0.23464481291104658, -0.2552056557161057, 0.13331417141299665, 0.0806101784103436, -0.056979012217726575, -0.22847658947293642, -0.05103745403446423, 0.044985730120596784, 0.04882459346804492, -0.16619994740598878, -0.20315445421620845, 0.0020594466872229044, -0.0698731562021293, 0.02865282885173389, -0.11000657741155866, 0.066528895618978, -0.08177407485616876, -0.5342431633518636, 0.16495668428204982, 0.07946108667214, -0.417290355843217, 0.19445064362944378, 0.1486548601249589, -0.09952479114226884, -0.12077337863960325, -0.33370163025364996, -0.03588793189974116, -0.10588046025586818, -0.1169391446834492, 0.14201778361820278, -0.12342928934177726, -0.044369496899545134, 0.03206180696852133, -0.06343374841156929, -0.6832017902795142, 0.2860286813254448, 0.1588980774620263, 0.0054249316883275495, 0.23628118697954759, -0.08821450504206915, 0.16040554375482505, -0.00888128151680849, -0.07183799719256437, -0.16386348805369408, 0.2338360203555298, -0.004549542670551898, 0.2621573551997933, 0.16022340314431033, 0.054330792067794564, 0.2382658859294942, -0.046089038095408874, -0.3698071898588656, 0.07625434089518529], [0.023147240284560864, -0.3330928679655105, 0.44457112359022527, -0.0954930335116341, 0.154510676308575, 0.3361779306849521, 0.07860803676085912, 0.12357459117463955, -0.03454584623601688, -0.006526293635941489, 0.0608811895389186, -0.023737618049019856, -0.12538186055040065, -0.05505900720133383, -0.28946733189381546, -0.07619954741371249, -0.17987671138927827, -0.027266558239582118, 0.15756486907849063, -0.2509555663822328, 0.22137911742902502, -0.042513800044864325, -0.12339962692488504, -0.050431332204156645, 0.18060830716959494, -0.06288885107332297, 0.1795754185970807, -0.20990072197138315, 0.02576239461930101, 0.149039973411129, -0.03270446258062583, 0.1629902007878112, -0.030549005312963125, -0.01932088375819555, 0.19914514252722523, -0.08324501592227819, 0.07972372557454928, -0.10007612012212681, -0.06998156489413374, 0.09857125614981611, 0.01152788117120518, -0.06412620000229007, -0.2953382791479503, 0.10150474601294475, -0.18434589754249434, 0.5291894867867368, -0.03350529685983447, 0.1850567874521036, 0.10464960983633798, -0.12937238286020544, 0.05750338086673188, 0.21082192199017907, 0.021883986750750775, -0.040093648415406045, 0.04337125920130644, 0.12331391974197708, -0.0021863162903004436, -0.009514648600596491, 0.23054808884761166, 0.08599508989397961, -0.12698603507896528, 0.18243139245583878, -0.1916400138424622, 0.32788226106660046], [-0.141525350493001, -0.12336280100592706, 0.36378691122233003, -0.11247828149632867, -0.09299220866115178, 0.11459796843900485, -0.048309826928511025, 0.0864106794856313, -0.09700928105730951, 0.24979468872295305, -0.07578762546393902, -0.14988013202434014, -0.059450036582232246, 0.15291929599761922, -0.1854345252208817, -0.05467381797219626, 0.10497089943659477, 0.22197041442318527, -0.039501256277773386, -0.2002844104206625, -0.1073120126993858, 0.14803134434951665, -0.017742493793942715, 0.14306430334935372, 0.0782694559678951, 0.21460626348400993, 0.1237404505564763, -0.1139166391934571, 0.09713759096997482, 0.12424973372760313, -0.0531067256928537, -0.008136641197389625, -0.08640238734383333, -0.012650711277083618, 0.3007490622219189, 0.06107738416093345, 0.030791113924982374, 0.22738470626668714, -0.03197717031197555, 0.11764614301057662, -0.17581380513018902, 0.10925049409483308, -0.1340051980532905, -0.04558605099702416, -0.29081381151775765, 0.020748176146739322, 0.15118922771537588, 0.1291395033928828, -0.17530751384838528, 0.13994414202368638, 0.07473855059073631, 0.19280250454090658, 0.1703544632340602, -0.03048979423533256, -0.18041615891972587, -0.07093279194676129, -0.1521347456895448, -0.05542353269232185, -0.009272879196092241, 0.07881732378660403, -0.22188206783833506, 0.16625075252342605, -0.10549377686607218, -0.05987164303997376], [-0.0966794814671076, 0.14781405666452152, -0.11334288524707947, -0.16428353092597087, 0.12167941905715507, -0.11774037456478051, -0.14091745914897252, 0.030724500166574076, -0.18945731234826613, 0.02533715563137473, -0.20855376500892092, -0.031006414691232193, -0.036680937823400844, -0.17950960412732445, -0.18096901263897966, 0.03769130690663014, -0.21472241300836065, 0.10033817754436725, -0.056916416629531785, -0.10269948274250082, 0.19530733170033604, -0.20681925113890165, 0.054977185762550895, -0.2087699934171212, -0.05109437583869911, -0.08116429664670413, -0.181717246670806, 0.12262477620984907, 0.03111596041956452, -0.18301873083205766, 0.2066204817706352, -0.16855397054904497, -0.0034301395702140414, -0.203295307703251, -0.04078093265974575, -0.003647790407631357, 0.15428565090831808, 0.07687952514115237, -0.0639656942851479, -0.1367016324226566, -0.196925981584261, -0.07425626263012541, -0.18930181307732605, -0.14033691248231267, 0.06527551906308804, -0.12923241629023263, -0.054594943695621206, -0.2134371949325652, 0.17869379420337322, 0.14759546246991484, -0.17553475805658061, 0.07992055746873622, -0.0035564716220569115, 0.1393832652385143, -0.1391085467276394, -0.13851890049032528, 0.19658893917691994, -0.12632561350439941, -0.02814890924241384, -0.14409594435879863, -0.07578341888999865, -0.07341884657783015, 0.04663827620507993, 0.012613539048531935], [0.04044407020145807, 0.2120173585919678, 0.19319119158949224, -0.1489194736713902, -0.07029582215045849, 0.12076395398418474, -0.22402262781168114, -0.014458519602263466, -0.10141749042244379, -0.10009969778722307, -0.13477949536384146, 0.15202469884108172, 0.08032721060654582, 0.1477213118848018, -0.2115233546636547, -0.17849734531771985, 0.23470447471483438, -0.013637675651274252, 0.08124140268892206, -0.20868799894502765, -0.14229453088522295, -0.12873429178427495, 0.3062309189594253, 0.089032374428555, -0.026797780762998595, 0.190300794148253, -0.050635527892501586, 0.10698164982416153, -0.1004195185127272, -0.020069108122041275, -0.05856052998395878, 0.015908667333174954, 0.2184990773376567, -0.19091115688234078, 0.08256500826602944, -0.07093713242654881, 0.038138431443363124, -0.01694470888119514, -0.0807315753276491, -0.21282869885416794, -0.07244560455568273, -0.09297770789702388, -0.14103833463399715, 0.039825943201413624, -0.18329045432122837, -0.07424921684569709, -0.11129372443653075, -0.07179231427309087, 0.07683479305144414, -0.110164644689707, 0.08397703410811845, 0.12179676304193815, 0.2407493543533254, 0.16422470053020574, -0.11582665978708513, 0.2469320185301179, 0.16076850074693846, -0.04396624200873351, -0.07955205323869649, -0.2383864374784296, -0.20853873104522427, 0.11475015816903635, -0.0894556646719594, 0.29705905493007756], [-0.212122405227199, 0.1186312618381713, 0.11381883946441348, 0.0891085264839759, 0.023001780160943033, -0.01887467736924927, -0.12424614543583674, -0.30400219773805387, 0.12568695445595887, 0.36556409311289656, -0.14665205819589192, 0.26376604949088617, 0.10491276955551386, 0.13505408248859824, -0.13235146770166428, -0.2490297515386523, -0.027129730517833333, 0.24140831910795552, 0.045528457611293115, -0.14869067466892538, -0.03532349047719009, -0.13862600902617625, 0.11975100279734469, -0.006769711230488146, 0.12849642413995052, -0.23015104044833412, -0.14146814244942787, 0.015992138419638684, 0.14294812701295745, 0.03250144374171359, -0.005028995301249186, 0.11890731022926315, -0.26949511131217074, 0.16485251709316143, 0.19066583833541959, -0.0648467917622024, -0.1597277518658769, 0.11054927202317587, -0.13934494639345424, -0.13415140952890012, -0.006087691717996059, 0.01637499163300032, -0.2780092353152498, -0.1351675583169344, -0.1652821611316487, 0.34573832741220634, -0.24712583780098624, 0.024485884610438113, -0.08671131766137946, 0.0035232736564662376, 0.161316840587696, 0.08730475550340835, -0.08222562782018007, -0.1753101483720901, 0.01497557580645625, -0.029996781739673788, 0.14477700328839405, -0.16079603147894414, -0.0532468867056664, 0.04813538428577823, -0.030400530164274842, 0.12710670296969273, -0.0335986461731881, 0.06892937129319435], [-0.12039115913695682, 0.04046567837610002, 0.03370009131999928, -0.07260422918759049, -0.18406555651399448, 0.22651462659478552, 0.076778005350582, -0.09136614045401714, 0.13722204231389734, -0.11605661946148946, -0.1254937828920041, -0.26205813358006297, 0.24526523158023572, 0.008285150957551118, -0.23195328970774723, -0.05660187346747497, 0.29770721199762284, -0.1979321201837142, 0.19888192446756192, -0.1985683013280157, -0.28699581507865546, 0.07305602767164981, 0.2458284374100793, 0.00712050750388062, 0.06828234810558896, -0.06997025597448389, -0.11767670367550605, -0.14458384995041515, 0.062038883622127186, -0.038543793579857495, -0.2252199086901768, 0.12427516899969779, 0.25113402209983215, -0.031483229760338426, -0.03125556766075448, 0.19520221418874997, 0.055425329844940245, 0.16172800893560776, -0.17660984453831538, 0.1874812300681656, -0.12196556960692741, -0.014795467278576393, 0.06662459784489339, 0.19092755288361843, -0.19403054704493997, 0.20929632848379903, -0.04367988889604441, -0.19637072852106155, -0.24584695317440394, -0.10055328302011572, 0.09092943555182052, -0.04328153086748214, -0.08128213237390687, 0.04640973785536432, -0.012272522097554696, -0.037579781879428384, -0.14917799128121773, -0.0809552397312342, -0.1696112515313956, 0.026016851256509054, -0.11753581841660832, -0.21444648897475155, -0.030757142266218885, 0.05990896685829344], [-0.2834352039924672, 0.2162258204986005, -0.11087269659813177, -0.013069992675222018, 0.11029298672810028, 0.3056329265670724, -0.11422055592024068, 0.06643431532507454, -0.21953687105055214, -0.09680672892612273, -0.03482371237182722, -0.12142141977389383, -0.14362538324599605, -0.0280344605208128, -0.17430547230144536, -0.014363195933301832, 0.0485870604314697, 0.2587166092609423, 0.01729828150332761, -0.13896221280530016, -0.24122740347251861, -0.05195343968562547, 0.2225049375201723, 0.03543781920272138, 0.07557505926131397, 0.16519799905367208, 0.08387022322064189, -0.04021202276364984, -0.15091656315285273, -0.10261965505884223, -0.21398977109447415, 0.08545006341954896, 0.11159404373195748, -0.21854814021000882, -0.051250184829341426, 0.18251059847419515, -0.08199625983798402, 0.04539405465762284, -0.0661206634057478, -0.07240868925485194, 0.1906444066369928, -0.18010649918142294, -0.05045279888911745, -0.0037730825849056895, -0.30163181363510444, 0.2296352213601349, -0.26895462889312927, -0.10383644480768137, -0.0053398041005877335, -0.17121478664998968, 0.11676105551383058, -0.2317091773426638, -0.23016444685879792, 0.06526597633163778, 0.18231239692399545, -0.1363978761328098, -0.2723552782203879, -0.04505300465501424, -0.12124653483064006, -0.1063078294397605, -0.24874089534867114, 0.13613436628671716, 0.20820176448451141, 0.21000891733245697], [0.240897289534228, 0.13636284876089252, -0.5458133060752661, 0.2587357635934798, 0.11532441907406235, -0.10773524838433679, -0.1279139611185366, -0.011323901856435972, -0.0635486573731504, 0.08671908283811809, -0.011388356292075298, 0.30343611363808304, -0.3562782039786977, 0.0406809499152069, -0.025290162875513326, 0.0021680549379817274, 0.15106534138423494, 0.001920013515654764, -0.22180989015117683, 0.17396041449325558, -0.027728101527397745, -0.24731580079266724, -0.010856033447240175, 0.03745535497068707, -0.0444479737432467, -0.0879657864719752, 0.14455729998724287, 0.1582199339651344, -0.05522492049752817, 0.11966745020620109, 0.03167616178937161, -0.09384662650853691, 0.2060131797597833, -0.1302077007177699, -0.16920469273557057, 0.24157500403954107, 0.006873660842124187, -0.18505239384329478, 0.10544387407868196, -0.17314251773266143, -0.10536464103919585, 0.035499091062585086, 0.1576930838711349, 0.0843985782055372, 0.25249694567715547, -0.37627021908247155, 0.32665372151821376, -0.12919108029397197, 0.08140996778761736, -0.08986795042318559, 0.07455611772926625, 0.058726611705769656, -0.12583070224480425, -0.24362885179473898, -0.07948833995436402, -0.14341463251840533, 0.18642267058938072, 0.08199987388695515, 0.07527450888910395, 0.061720362815923004, -0.11469256056646879, -0.00040173727825822846, -0.06338326398751327, 0.18040031523282704], [0.20027470222621335, -0.10923895259311983, 0.2296683816336502, 0.16604826041147663, -0.2553041868528466, 0.28269031721289584, 0.020593972166102738, 0.12724426565659347, -0.1405921610178001, 0.24656019705305765, 0.09871381794915084, 0.007908377210354232, -0.11113220365188353, -0.01687723710039134, 0.006300237325679063, -0.06984604451217587, 0.10133118373162517, 0.04838332882921341, -0.01250760956181654, 0.14107065816289727, -0.038550160185861805, -0.11700486839269858, 0.10244444076162937, 0.08408246024110284, -0.037214792343977676, 9.00136198204532e-05, 0.1850201837508547, -0.06269476081249893, 0.015612552002013738, -0.01158894738025181, 0.07172727249474817, 0.12144016233408338, -0.2593273010173867, 0.18472732326432692, -0.035852397434270065, 0.10284761467136874, 0.10420290930435507, -0.10496341152819239, 0.22795691783345315, 0.1703511666771501, 0.037898038155515526, -0.08851053849647278, -0.18056510658529015, -0.06155607391545619, -0.028770600263407, 0.04942055913614206, -0.10489139953642786, 0.1187778565784094, 0.06579834507272504, -0.06561765419284094, -0.10734718398659264, -0.09970066157079673, -0.1671613286106154, 0.13272035777919078, -0.07486772574319771, -0.0802406507103462, -0.14312346868866835, -0.09931440808074325, 0.0034474486325107856, -0.012538335621394385, 0.07932601894574197, 0.015090039417266748, -0.23611522927807674, 0.12186086002398878], [-0.08909828635419224, -0.002812364419370941, 0.29404559980592615, 0.08357455625819528, -0.17669208437524286, 0.023500999001056545, 0.04080033801681697, -0.08242672459719155, -0.047955291584728936, 0.17766026671026802, -0.16973287643155902, -0.2496809545938833, 0.11005010904416992, -0.11800570266546981, -0.08318636696241605, 0.2023787328633545, -0.21579117619425278, 0.17805552414992354, 0.09920007000245418, -0.13241455811255287, 0.2791464282631082, 0.08671946709923381, -0.11080889011731256, 0.08043235969104387, -0.06728359441173516, 0.031467852720465164, -0.029902739008479486, -0.15033706262819851, 0.22794845374863057, 0.0971834756437383, -0.12673000326657965, 0.10099917140380242, -0.25351934898875816, 0.15038899900521968, -0.1583478869900424, -0.07099453171128994, 0.19274387889710048, -0.08921460246772718, 0.10019582937305184, -0.14988681023460027, 0.01359944079804946, 0.15277422039331054, 0.0009902307662325342, 0.28602475601114263, -0.01559352451282842, 0.09679022169539529, -0.11246067971829321, 0.06275810646645474, 0.11695573818204427, -0.002703149530661596, 0.2737998032819459, 0.09521866010595703, 0.05110819298092816, 0.006817273290028773, 0.20344259674324985, -0.13268686480543446, -0.09507441471647506, -0.06614118426812957, 0.05375566358352204, 0.03517935227211541, 0.07363145380385892, 0.14112503105987725, -0.17612257719465502, -0.05565502895616281], [-0.2480747125311978, 0.173871412862813, 0.16162121501601096, 0.09766875225688207, -0.04208621971532907, 0.07795559357863852, -0.1386491658890944, -0.05080628794581742, 0.13146655913058589, 0.07571441251279938, -0.11926839588526539, -0.03691684557722151, 0.011504406274208031, 0.16445391472650614, -0.46040526081962857, -0.18101987993270888, -0.04596974448241724, -0.0786903027453468, -0.3161631746685858, -0.23458868245344222, -0.019042099888759212, 0.12698619479878587, -0.2557294949815736, 0.12480583800499115, 0.25281318402873576, 0.03604680391467067, -0.10797451317832507, -0.04709471554963061, -0.13703433768127435, 0.20733485319680645, -0.08338271294400795, 0.23469124007810965, -0.03143331238996396, -0.09611837471478266, -0.03635809808354459, 0.027913619266675436, -0.1789784766571758, -0.24653427075625298, -0.16662151656848076, -0.13462027967950171, -0.1859502748955801, -0.3401030099272555, 0.07554486267216018, -0.10419081030198028, -0.05186613566528753, 0.2664314327467324, -0.11850318389221294, 0.2650969423519169, -0.05312455778324335, 0.10785738113693046, -0.21981824739560288, 0.15610988135561396, 0.17164053825452252, -0.1869481036774234, -0.062362901441649826, -0.09227141473338343, 0.1692793663098294, 0.11804538204055738, 0.24606983185777362, 0.1906999192192611, -0.29674057046784147, 0.046485540605067106, 0.1677491001854977, -0.35097350288496554], [-0.09084635164086732, 0.10909632991390755, 0.11267517141633511, 0.14944292910929396, -0.10756694027966343, -0.005654350338434814, -0.12442583294748683, 0.04399358006631608, 0.1756484411423873, 0.2647979561202699, 0.14093107851748396, -0.04073340836459139, 0.24211486942742252, 0.18073954472952944, -0.06379319068439776, -0.1698954912225896, 0.0925441427401221, 0.18268214312153766, -0.3266102302831915, -0.07511522360029153, -0.20667026399231953, -0.07116559281497221, -0.03312901360048383, -0.10713486637601226, 0.26350873172350914, 0.16429837402667524, 0.041365088048462735, -0.17614752290768407, 0.24251985169554488, -0.1436393405709053, 0.08404345868275051, 0.08641519440436093, -0.10645438566203684, -0.14374672675078504, 0.14203643815841988, 0.17674290238027424, -0.20444756039463777, 0.21818123993216487, 0.02420729651816069, 0.11731544893892114, -0.03785351048796581, -0.23087306191027412, -0.26278974927188187, -0.3610346345875965, -0.2980439191256695, 0.11817077931779632, -0.03347525169375542, 0.13761273195872026, 0.00042529904622183785, 0.029402489942088213, -0.16123399781570946, 0.1036177050121955, -0.08967187706444969, -0.008446959584608256, 0.05658971911468046, 0.009626247188395765, -0.2510936059427305, 0.098541479131859, 0.1571941810742217, 0.1994157312584602, 0.09241319832060847, -0.08526146096323915, 0.018314652252801874, -0.05316209787258201], [0.1204928030411512, 0.13323454211499602, 0.0833775687856595, -0.2021686647720278, 0.08296717081080467, 0.11696652609355136, -0.08724791561588327, -0.12120742461707897, -0.10148321697475163, -0.0362790137977893, 0.12402947376498882, 0.051493913448417014, 0.026270995634394438, 0.1430150320743444, -0.15245390265528336, 0.10477251146011175, 0.13459982418776456, 0.1280116967383418, 0.10949248154996934, 0.12398881611428152, -0.06512147950133879, -0.04651209015249543, -0.2638338467329483, 0.04202799885256088, 0.19244279515723028, -0.04635994826830234, 0.21518462990376863, 0.11183742629802498, 0.1529604314359973, -0.03320216185386757, 0.10707713694896075, 0.10033769360523041, 0.14653884771506842, -0.1733082245413922, 0.1219589966843948, -0.033218833912455045, -0.22449578596238026, -0.2083031719870972, 0.19816604313612754, -0.20728305303010558, 0.12164877014179991, -0.07049503465185591, 0.13562014930659724, -0.1795198129944415, 0.03776600533448366, -0.0027149218766438334, -0.0648620483132911, 0.044950047175454755, 0.11784607623569394, -0.12126028206765072, -0.17013131543704432, -0.09471113617952148, -0.14408457726301993, -0.19757178342207352, 0.15678807975815376, 0.140652471348956, 0.014155730277868681, 0.14179451768574863, -0.01296565974566216, -0.07970343513883867, -0.0877658980748634, 0.14604227825851904, -0.22846552925842809, 0.22570188880212347], [-0.010804607802757106, 0.09025839665362277, 0.008260937432861201, -0.2173318038013269, 0.12471617748950953, -0.21943815179134818, 0.19157030652956752, -0.05101518619507883, 0.0625297206986879, -0.09451850627484742, -0.14833069782039435, 0.058776805842790526, -0.17321524028556867, -0.19100849182675345, -0.20327185786012855, -0.10446125941227367, 0.09068426675130357, 0.08268650952083824, -0.043563621792212404, 0.14068909373110816, -0.20753700050789586, -0.08942719322519833, 0.15940247216287395, 0.0014174001630539747, 0.05447074378395239, 0.2092617773343328, 0.24063931573236985, 0.1824566332941419, -0.0030361532182516444, 0.04036734082812323, -0.23801525476267651, -0.16106268146550956, 0.0008333520644290309, -0.12729996491662582, -0.008003651770697279, -0.10885962179684018, -0.09828562099102342, 0.18995863457622175, -0.1080514223942759, -0.18468769850525205, 0.18330365993869452, 0.053409229612474886, -0.09601403818019301, -0.17223467561055228, -0.29302354087295257, -0.08808701693012436, -0.191042324823554, -0.14407211817652854, 0.004426510421909547, -0.1538015378741307, -0.11565078833654861, 0.06296439391571515, 0.16508101049809615, -0.2712980111448076, -0.05430825555352144, -0.11875723878876239, -0.21051109814309166, 0.10909561433269806, 0.028069817057526297, 0.2135905812690992, -0.19814224764410288, -0.024739789485238087, -0.006934596585487078, -0.10114191495526578], [0.11964391024824045, -0.08598572899814497, -0.07071930557090181, 0.1799054789224063, -0.0644515255662728, -0.16463013944885452, 0.07063824864479504, -0.1471915411321726, 0.11832573740385645, 0.12318005016840476, 0.05579282317510423, -0.25327648325664937, -0.00901513426563947, 0.021453925114278637, 0.13208562624069778, -0.06804989980976557, 0.1527169542753991, 0.002947002506901582, -0.08554428431926935, 0.0008905434254630611, 0.21502822401214697, -0.1298955358273179, -0.053787314683250396, 0.17154608893251855, -0.21916079341377748, -0.06995562813348942, -0.008233421147592755, -0.024005051790955457, 0.07532390197009989, 0.06834768516137162, -0.06456732811341842, -0.15284212758686452, -0.10202305843047363, -0.19384961077384805, -0.053215050007207665, 0.14909015558385297, -0.1538861836278022, 0.0003878516270950609, 0.1773303329439828, 0.18621087903483644, 0.07322423684529018, 0.15070979925118627, -0.20905128018546948, 0.019052943196875494, 0.15892286190427443, 0.1448614805069094, -0.07533566386138624, 0.03446951960582074, 0.06772536992344277, 0.16717293810102749, 0.0921650521462745, 0.14995422561157412, 0.08457599954850623, 0.28433448851886534, -0.06842984723065934, -0.03373399543505315, -0.00888734771399907, -0.23428906065982832, 0.04430747931380688, 0.02570487222185627, -0.08661812758463884, 0.06030755123179971, 0.10125758238234386, 0.19061318838931796], [0.2240141080361683, -0.11366952788312296, 0.0789592152842047, -0.16011850100569558, 0.05685483278701537, -0.15773016687516767, 0.182570625900139, 0.14143609452196854, -0.15460035114104248, 0.032506332753605365, 0.005538926999236706, 0.1062821695575789, 0.04750084975608857, -0.058670472992576425, 0.13320229737538886, 0.16466608372006988, 0.1012613603575077, -0.083799655732522, 0.2886971726827114, -0.020072003812812808, -0.1187163466029838, -0.15222640415335043, -0.11930584727205688, 0.005919975082331925, -0.05082314713292166, -0.2104986935959347, -0.02299684706753795, -0.2395495145430008, -0.02874618017461228, -0.08965949361017793, 0.08916047637791873, -0.10020104104505521, 0.030647742824066276, -0.053337824113979256, -0.12824237457267335, -0.10467620914309195, 0.1612181949211027, 0.22394022149491588, -0.18626125853206218, 0.07934360313286465, -0.043683243036323094, 0.2167308405064453, -0.016537563697261403, 0.19768736506449586, -0.09752222294847139, 0.06137442087521527, 0.038109621653565615, -0.16438862459243975, 0.09303030807540452, -0.19704392838268817, 0.2017588301538027, 0.01945944273312106, 0.062492832736234155, 0.08357247492481888, -0.13531304448597412, -0.1281600322718842, 0.0414963961650424, -0.15405942261792593, -0.0755564978053013, -0.07430831918316799, -0.08475352910290924, -0.16223923572525256, -0.28089509871790524, 0.01356810137481561], [0.06782779563005349, -0.04100573398187978, -0.5781010497611155, 0.24756963026861586, 0.01573520912110746, -0.4248542603315475, -0.052816085813887616, -0.2364863073001154, 0.02790405299772321, -0.11194570630603788, 0.031052432529994616, 0.11423751814808662, -0.418313922555707, -0.12587588475765168, 0.03391736441581477, 0.07511038153042277, -0.04182530606374965, -0.05981164733955911, -0.29366084743833876, 0.2724986456519014, -0.08145767282940689, -0.032679896862337694, -0.12302151991885979, -0.11211349618914719, -0.04646741994743889, -0.2065903086700772, 0.12660950850537983, 0.05349020213892743, -0.3724235851235672, 0.2702600158634158, 0.051933176383917215, -7.242354417042482e-05, 0.053564329251502105, 0.18562140801814295, -0.005070236387514212, 0.09175669517764075, 0.14891588882764523, 0.07437546444956514, 0.12668138004913532, -0.11867959407263305, -0.13891569162521436, 0.2929285011113411, -0.015712635400467995, -0.21203003755847935, 0.0804972885908201, -0.32574144360518265, 0.01010878437046685, -0.11644318901125067, 0.021724579187063355, 0.18801968471263117, -0.2142731712563894, 0.10557036961787278, 0.1870467786636825, -0.14325372095622396, 0.11289141582829225, -0.017300218436081854, 0.2013287601931492, -0.031228033883688368, -0.11644967458847359, 0.05315301733523333, 0.07796275788339796, 0.058042493342419454, -0.14633507059779113, -0.1522511657771632], [0.005597534755052113, 0.1319238489800714, -0.6585228829191775, 0.07050340917157025, 0.3232282018910195, -0.3735801648904193, 0.07614888467272489, -0.23030042808549428, -0.02037518481710456, -0.217750470283004, -0.03709445152494299, 0.2278134358340522, -0.3852400227424307, 0.17880751956181315, 0.034607729857036224, 0.12482500464730507, -0.1443412623635563, 0.16898840217003833, -0.2297757697667835, 0.15499408569133843, -0.009894220796065868, -0.08164602124561302, 0.024249082216097628, 0.11679943121898553, 0.09151364023037764, -0.24904566844369816, -0.09467604473248784, -0.12489939258723831, -0.48594838796705037, 0.04521603729985625, -0.10135979847564044, -0.3142609841514853, 0.06438296832399809, -0.03130378813410325, 0.06604268544275209, 0.042043882357044766, 0.030115064009001345, 0.040877084901933564, 0.16869192676168582, -0.011671763119849415, -0.1894724316524064, -0.044370281322960684, -0.03445030054456609, -0.2051587749471161, 0.14509454221103443, -0.3294501778968204, 0.2560818537569662, -0.08372497056945848, -0.02894518128946879, -0.016510740215333775, -0.0985065252118693, 0.08903658006507938, 0.32530717881438953, -0.25162119975230457, -0.16300927980595398, 0.21033233245303729, 0.16671659432535574, 0.023663938239679033, 0.1514115827548692, 0.18394463066620134, 0.16074141948177914, 0.1837138005145051, -0.12164311711688194, -0.19785737976514084], [-0.17661238372859067, 0.1425091124960268, -0.01717177979443373, 0.10841101794673774, 0.0006458168096464367, -0.07609168347737726, -0.07733593867912353, -0.3134009553891545, 0.16063436925080063, 0.11653485249577863, 0.09197498788171714, 0.04561534901186876, 0.1990261828814667, -0.17694787882137775, 0.02989864018234227, 0.09087133655780835, -0.07106539914786927, -0.14567058555446563, 0.004783760410705306, -0.2386313730459086, 0.10748427016199175, 0.2272690645497073, 0.09276408367987729, -0.04345073355300303, 0.10720967229555405, -0.08271366088178383, -0.053367261708704684, -0.07809569463861733, 0.18704705093026977, -0.0769362369768623, 0.02481549345339352, 0.1981344444624126, 0.13810972174726902, 0.0662051787166555, 0.01278709719833364, 0.12522824426012802, -0.17006333361370182, -0.024960058501458493, 0.1571852296980372, -0.20171151806133716, 0.10910975042065588, 0.10049191594341249, 0.1701732271568694, -0.18400031537926118, -0.004625907200273103, 0.26643618429031374, -0.22561506359966477, 0.12464428234153185, 0.13531831731711857, 0.08537312969070751, 0.04222310394758895, 0.19350281331317337, -0.062334528286115784, -0.09656177970331785, -0.07925577023290985, -0.040799010577516025, 0.04831944976579604, -0.05688528992460571, 0.03265671445502716, -0.04548636470221277, -0.009411455288647372, -0.1383572618499091, 0.03816764285691627, 0.2810402540190673], [-0.004975263645555039, -0.26881214526869895, 0.47712985233176936, -0.056392707236779804, -0.05946613528905471, 0.21678888300379712, 0.1369107642697122, -0.09683296435369783, 0.1311552370193598, -0.036437594376449396, -0.1478161802055873, 0.023037076109583225, -0.007750062376670807, 0.026074972108057266, 0.08804072223767598, -0.04264942089282125, 0.057616465963915516, -0.12130897950290455, 0.2818323486161333, 0.11509559674579346, -0.11848199296568149, 0.042188781967212215, 0.1474382952470055, -0.13973389660832644, 0.03850030398025521, 0.10297094573573315, 0.12796244983796085, -0.12648838232369333, 0.2518004387787932, 0.09712856374906897, -0.17087826975295956, 0.15945227090042188, 0.018395392989721045, 0.15152431076501333, -0.03725943484986814, -0.13905824305161898, -0.12406637149747898, 0.19219864764972783, -0.07411092454590659, 0.1757784346212638, -0.03540653993495392, -0.10212343843082548, -0.07358811977442406, 0.21144263064807228, 0.11627634956325877, 0.15482074890317266, 0.07695264868001873, -0.17478063280190548, 0.03944483970612343, -0.1509407490908453, 0.261486774641035, 0.052159026472099385, -0.10609649576852041, 0.281249785397246, -0.2598455145347501, -0.08316791281180051, -0.16523175375425758, 0.16300891402053144, -0.13191136600155517, 0.09385874073537077, -0.14266156967913882, 0.10004547449424485, -0.07834840659341824, 0.31145939481496754], [0.09358260034242838, 0.10571943522650323, -0.08023063429147079, -0.148819585093387, -0.05645011848235262, -0.2007616825800186, -0.11107687983664212, 0.04233920842087399, -0.13646505315457955, -0.19976489679596127, 0.02744191327437548, 0.1214636619198971, -0.13460345530955303, 0.18322323331480445, -0.06853286175115167, 0.006398651783939932, 0.0503999208487677, 0.020963322937433387, 0.02832224337346423, -0.17170731045729667, -0.007066234616729803, 0.1011242400401, -0.15524785792040569, 0.17823867055866838, -0.18903398095190194, 0.11410994430428059, -0.04894949034990198, -0.09632825925402318, 0.1513543001686074, 0.13174418687275868, 0.04634299933286723, -0.05143261182533679, 0.11810583921929088, -0.15125745734261514, -0.04331168641826699, -0.04137307696524071, -0.15500933958328084, -0.047048944313365704, -0.057313685099736916, -0.15441760609319935, -0.1597168852327474, 0.19442333848179155, -0.18673376696192676, -0.17017410599004273, 0.2021223034844959, 0.19499718364539304, -0.07126978966802827, -0.17199723590670934, 0.047051272560387214, -0.02680469108717784, 0.18831077860301315, -0.16799271925157896, 0.11320569369913365, -0.2131667031518337, -0.1265899864254805, -0.09380544215964991, -0.14530724424862385, 0.12772592496710716, -0.1413404207664185, -0.016997339347149698, -0.1604995779955593, 0.11951822965017045, 0.07416263004039192, -0.2024798571366913], [-0.11666360246814154, -0.0011315132998776128, 0.17015407295457247, -0.06421340246547137, 0.021481185377703785, 0.20840188010571337, 0.03927226245206303, -0.1840965259711787, 0.003322839632608533, 0.2088824399687905, -0.12910681604839547, 0.07737237421268461, 0.047340023078857624, 0.09551521684219112, -0.07645098374748646, -0.016913872436979706, -0.19235650058078807, 0.22269449875915465, -0.07019633532036157, -0.12159832449166738, -0.01607011198971527, 0.21992945635618197, 0.07473168584227186, -0.198841748218349, 0.24737133821800858, -0.09209265553000848, -0.15675421876105217, 0.07751262234480281, 0.270143188168704, 0.16149717354589083, -0.17059766259482026, 0.050994022410064246, -0.18758280143355333, -0.06454505819111517, -0.07962140589750787, 0.11723618849952043, -0.08186465174526321, 0.25647363992417316, 0.014077059354555816, 0.09027272694113929, 0.09108190664988133, 0.08860118178703232, 0.10349969089856655, -0.12055351140913216, -0.06438367022901365, 0.17139526873571034, -0.1787856377108615, 0.15342651314685693, 0.02953559451956012, 0.07310635642593179, 0.2242447567278529, 0.08254521281902356, 0.1003018103353058, -0.016309535160043236, -0.0424321469828731, 0.15024360548053578, -0.1511681394771639, -0.07137567340653868, -0.08468630009553377, 0.19667215014784675, -0.1467756272398471, -0.0985471367791021, 0.1504346814056024, -0.10722812812541867], [0.01714335122872045, -0.12306569884777945, 0.2862467382127437, 0.17246675656225338, 0.0977766170490145, 0.2510002343473566, -0.15277168809441338, -0.24139240363223938, 0.13994939567016038, 0.07769995417530995, 0.11715786291208667, -0.08484762723450476, 0.13005634848341566, -0.07300392373543922, -0.14308731894155016, 0.02525432966196383, -0.17230831665503102, -0.01916069565616186, 0.012716620327566819, -0.16254617319686074, 0.12690848221393103, 0.11059643927562107, -0.003728665278632465, 0.025428174631974047, 0.0877413984101555, -0.04065222276753929, -0.11362479551935098, 0.09743563876381332, -0.06482551383359554, -0.16267849724154224, 0.03087924718031874, 0.022697676601919507, -0.11002767492271788, 0.10222349264844907, 0.24249007799417274, 0.04067927483018014, -0.20578678958826485, 0.07772396352337349, 0.14254621391143718, -0.10179263712762333, -0.10130679137850428, -0.1678994823926195, 0.055370294025032164, 0.16386884945605762, 0.054617158287785184, 0.2608707316515808, 0.05923233385423798, 0.03793163561652349, -0.00877218911531194, 0.02366714868435533, -0.12088925928123175, 0.22853346844216968, 0.15359302058144006, -0.10058980554314678, 0.07084768962987775, -0.16307470540527597, -0.2496557129537615, -0.21119822047548353, 0.08295146767335645, 0.020789669951302464, 0.09412056287037691, 0.05997824263587525, 0.2034535569928154, 0.26974098008307834], [-0.20433673171083383, -0.08605659716977145, -0.059611366835548824, -0.09764989376256336, -0.18236773457713776, 0.09870643580230654, -0.17971458246696087, 0.07133774701566975, -0.07670932521146147, -0.017682763622874666, 0.004146366219021411, 0.015321169770425832, -0.1248589046801939, -0.05013460708579959, -0.10146734055427298, 0.1587814322448526, 0.06246698529590864, -0.09290985254502324, -0.12525257902293666, -0.2501228481699833, -0.18870935716443846, 0.07745538392377872, -0.11651577019950825, 0.04852873641960838, 0.18033012583042848, -0.1801475271679842, 0.15011993037319582, -0.14718674854728234, 0.15769096543042793, 0.036813637556167254, 0.11123229663456743, -0.08231372610883678, -0.08812703714926963, -0.006846736697075117, 0.028256225247989583, 0.129730032164572, -0.19385801505582168, -0.054438719782195756, -0.1450253693972482, -0.07296663568510713, -0.1204494155406313, -0.16413428282593848, -0.15315364163467657, 0.21342770635339248, 0.04167817083112436, 0.03388945227134107, 0.08707253718209426, 0.028883502253205066, -0.029974732339469283, -0.02766581737411566, -0.2070996239765759, 0.04754695494939924, -0.11190510941805576, 0.14266967645257733, -0.04176097944749321, 0.04246965096292648, -0.08070844045916872, -0.2143486620863188, -0.016436709221120144, 0.1745345166117103, -0.19117703105532646, -0.17319020680584407, 0.1437117414620516, -0.07764463650744273], [0.02306269712792263, 0.1009645518415115, -0.1456480085092101, 0.17076464283807366, 0.0015039774481520488, -0.013227375641227434, -0.19291947430937778, 0.26344592681200407, 0.0946830843578098, -0.16623730687611077, -0.10110039797498253, 0.08605672359252746, -0.16574460348376563, -0.05023582622912636, 0.10505603358306737, -0.005058518488848929, 0.10593961185800156, 0.20929332888805752, -0.15223243218462587, 0.02203485321909761, -0.2013845672841246, 0.11870387151879609, 0.0349508598968268, 0.24540145761244223, 0.0265150987097891, -0.002165148225429836, 0.0016781380600342376, 0.013113146966857517, -0.13526642075004536, 0.06218257594968188, -0.0036426638872855484, 0.06933763636879425, 0.2281617515649623, -0.04197267222706591, 0.10524469607204207, -0.014539533203422125, -0.05915501113997495, 0.20078694305436537, -0.11509766857068823, 0.05492828779977812, 0.16389626512537053, 0.11407670407953503, -0.1063966982252827, -0.04825286814096452, 0.16721300265302114, -0.24468105984852098, 0.2741220394359531, -0.01700295158473447, 0.019286154688730094, -0.018858558916747214, -0.0507134557452532, -0.012299616741394393, 0.19973799052340072, -0.19573389137820696, 0.23003538402787127, -0.10845489267042681, 0.08708065642130935, 0.16756740947658014, 0.0718291018102687, -0.02146025877437872, 0.054468145459954126, 0.1814501597365103, -0.0053092028216047285, -0.16777645031683333], [-0.1080379517346518, 0.03063170838640343, -0.033483494891552404, -0.05125727463039746, -0.16496619122689513, -0.022073582707117713, -0.05902508589057106, 0.009239556414771486, 0.07380456638189627, 0.3547514810518341, -0.33293612192952454, 0.16289944593222194, -0.01201589073380078, -0.07682039706428574, -0.23269209686682144, 0.06908716749436469, -0.10485837163616595, 0.0636059731140656, -0.4727083709701426, -0.25228209406803237, 0.027858164056093666, 0.24505664482635897, 0.005434131983094403, 0.15217917523754662, 0.2981799545012424, 0.054466048303343874, 0.06919859590581941, -0.14761034797169809, 0.09977308835205755, 0.044255291151922505, 0.07008992523859991, 0.34964970033341514, -0.1751957170350455, -0.09498856549571447, 0.12016890918470062, 0.19936797651369817, -0.06216475208741564, 0.055203307969473266, -0.10501275108325109, -0.1978947798954902, -0.16042642191278006, -0.12062234266546953, -0.0010688889013975651, -0.2685123546450315, -0.13708961790169324, -0.12987018554933397, 0.16240856373143678, 0.2551733436007386, 0.051384207010048824, 0.16553852308643593, -0.10459725716058241, 0.1258108890876333, 0.07435124176258245, -0.21696967073773976, 0.09264273020706175, -0.15137926465291904, -0.17311221293944973, -0.09638518012963004, -0.046089332818695934, 0.10765557581861751, -0.2534758273497016, -0.10994955220209778, 0.10420803515928352, -0.5843488322962973], [0.05270064322209858, -0.08188337542973442, -0.3871574506229133, 0.16849190903031494, 0.04309204977274572, -0.23539549093319478, -0.08114001335287566, -0.05493756542586254, -0.030454446178520406, 0.0630071664518734, 0.1787743129911365, 0.007283379494673576, -0.15318391223544175, 0.13327905023047557, 0.2735787331025152, 0.3173680998259135, 0.15921810276925638, 0.18879729479364024, -0.32600140816396006, 0.0802371511150511, -0.23459834202790145, -0.17479932481778238, -0.2105970992208061, 0.20011647449128142, -0.01622326840936095, 0.003495753245442749, -0.050766107303259915, -0.036628621181814154, -0.26612961549255837, 0.15273204164166404, -0.1702148945387305, -0.24554589234603152, -0.2329674628955837, -0.07219648702609151, 0.17492500820536658, 0.1118151916022472, -0.22003329152384077, -0.01240206774170177, 0.010583077896484813, 0.0507112469656133, -0.027857965648558993, 0.1772762954718008, 0.2494593785432718, 0.05044513661240181, -0.08280621775868773, -0.5827197671262019, 0.32467207091826394, 0.1889992545438579, 0.18774049158622333, -0.12438162575784047, -0.11445185968664255, 0.09176756275090527, 0.0871029205776739, -0.2967730505968654, -0.16623797566278845, 0.20080855043673318, 0.30611912462382745, -0.07642423935495318, -0.14652662846432193, 0.08971107494105644, -0.08717158877920497, -0.08256410614536532, 0.06509923294693507, 0.03180550231223567], [-0.3048380334367274, 0.013476129768906643, 0.027780448263721978, -0.28317048605490464, -0.018308442691106635, -0.01740768471107065, 0.0001031572494475572, 0.2714232327313687, 0.06735839225173347, -0.21621824731966344, -0.060582770538244, -0.08883294542530058, 0.20723570824373336, 0.1640684286869609, -0.009818780523489046, -0.1187175044454827, -0.03037284067496158, -0.14468357621407443, 0.033869602853987574, -0.004490728395350011, -0.3137716734037849, 0.10078634422022592, -0.011419920982363645, -0.0026364386602528087, 0.33267195984527503, -0.1116121937687395, 0.053009134884850796, -0.013434817972127444, 0.1971253830596569, 0.12306957676485414, -0.21943580709150168, -0.21179190515195298, 0.28051657072884006, 0.017703344874124796, 0.01699029979696996, -0.09317087550008589, 0.22037296452989003, 0.10782347779337656, -0.026049666999294927, 0.07280715977037602, 0.24247490948879066, 0.015558192880873269, -0.05193077147346071, 0.267879236368072, -0.13151955701487936, -0.11086616115677805, -0.2999172671555203, 0.1216006937709452, -0.18843412357465078, -0.056408237702025105, 0.019884126331845473, -0.2131923833235454, 0.013850720124351071, -0.11828479703497713, -0.12294097796971158, 0.07676206877172084, 0.03299241667290446, -0.08318387293626558, -0.18567592603845362, -0.07425074481337432, -0.11246412652467001, -0.023320966129797224, 0.25174335833957123, 0.12174612898776822], [-0.1734950989245493, -0.20350030922154588, -0.024719248405446016, 0.020671801978298304, 0.07032599049741363, 0.025621150877885863, -0.004218559661100452, 0.10805075997901312, -0.2058460093595901, 0.29719714817503584, 0.03634858715030842, 0.07823267384414585, 0.15245147328875613, 0.1725440969320073, -0.23474678358999387, -0.07319122891193496, -0.01197823473548129, -0.06566509955909033, 0.12496387056806475, 0.14459372496589543, 0.10945495327627511, -0.1702826858800003, -0.1410494092375672, 0.17419188550216488, -0.14144826705690033, 0.15893473887856321, 0.2232582913083008, -0.15744370111935177, 0.15222083053315505, 0.11651507305602776, 0.17588715900067242, 0.22452337315590595, 0.07115737676842059, 0.10641353242857612, 0.1031012134627094, -0.1739162248469897, -0.06826683369270015, 0.1875205264966367, 0.1200498464502917, 0.2335508098283441, 0.12453568197211802, 0.0612174056208773, -0.04122660692403532, -0.13674379593500993, -0.09980625727518361, 0.3398521133490513, -0.2738127818040875, 0.206382070625621, -0.15768694288161914, 0.143591295110284, -0.10459808373141172, -0.0812116017710999, -0.09727969821840214, 0.0007617857210007317, 0.15163866915847676, -0.16467240280527212, 0.05260528618359323, -0.12394710641386848, -0.11934546524937936, 0.25578439580382073, 0.072382644642799, -0.020659742652291965, 0.07096080788131116, 0.16253529292421542], [-0.042953995203250404, 0.09712702549251317, -0.20647640269906362, 0.033475168613439, 0.14167870961689968, -0.04338758978156589, -0.07432934036661423, 0.22533184994085034, -0.07125038677640123, -0.13952208101634708, 0.004603822081644379, -0.03740858977800422, 0.13213355803321966, -0.03927616287747648, -0.009563926816097251, -0.1854015971509109, -0.028129215763543748, 0.0327208786297633, -0.28784166875119954, 0.23759081338182403, 0.17602169653930677, -0.17011209322050538, -0.1964541971282419, 0.028406749977466634, -0.11730059803381591, -0.13754789160680883, -0.1719797978355817, 0.03130323134836553, 0.09072533728835164, 0.23526710762778644, -0.03068118246742887, -0.11825641253965721, 0.14173284915644177, -0.025135544078991743, 0.21769169549757122, 0.140421063306967, 0.07605888470495485, 0.043804783125855215, 0.08811056990148888, 0.04086839734398886, -0.013873718622059555, 0.01918636376223453, -0.02204478316184942, -0.09866738892262839, 0.16046128010465963, -0.16750608695202907, 0.2330627107866292, -0.10903565744694074, -0.10982391606171557, 0.13718878996511347, -0.11586808025815497, 0.21272686184542827, -0.13470498501503939, 0.11127660161219317, 0.05874290614354256, 0.07027263723191463, 0.14020255030641984, -0.052655429903889654, 0.06847495377461718, -0.12089657456995825, 0.10779642259044855, 0.07536580975074791, 0.19867268940268631, 0.08373102549958585], [-0.1727007687256801, -0.11560886402951923, 0.21030974424191667, 0.24079384374197965, -0.12370480506714826, -0.05955860205475774, 0.22418492358701766, 0.10100885830527292, -0.08249745076567426, 0.24427393092530633, 0.12039262020043862, 0.0793112846996277, 0.29438009055228614, 0.18899499470410244, -0.17315924438069494, -0.12512669614083813, -0.13277521010054816, 0.0295711949802862, -0.3056892854070774, -0.33849044274764806, -0.1008466596397943, 0.23121135585618693, -0.1811483665719134, -0.16400273332289966, 0.08691552944637171, -0.02922505344794137, -0.07283611040424275, -0.039726948764418776, 0.06750287555891715, 0.13739013818658127, -0.0024366987309369465, 0.26190754125692706, 0.10086283171991912, -0.07496854335686484, 0.026556194635800657, 0.2643747691403775, -0.02444354733308052, -0.24856670581313764, 0.18693950195213432, -0.34256197933426574, 0.08394058610560703, -0.11602118905447724, -0.3060903388217246, -0.13485167959776007, -0.3590466524719687, 0.326661649258624, 0.164336021975298, -0.08734951581859586, 0.09530960760606808, -0.018787827804433693, -0.050128931236805715, 0.05243725762576667, -0.06957608862741223, -0.2714649049169511, -0.10240955684326358, -0.15883109647972857, 0.13650264901916678, -0.15076870397164116, 0.3043732117401472, 0.2208426034358491, -0.13592441147708037, -0.03099429860207281, 0.009575798824101664, -0.433435638435661], [-0.07968564741076675, -0.13357475981948413, -0.20797575995432316, -0.009869515891151454, 0.10570704392295915, 0.1355499734247353, -0.09274036528597125, 0.14314772572333856, 0.09782645811439311, 0.08937910832202828, -0.014563063071482224, 0.012902603305870064, -0.16111483774687407, 0.1545978218531353, 0.06742678515857425, -0.056481102466116845, -0.044399713631482846, -0.03252589768153874, -0.03546045025609712, -0.1422043775677868, -0.11719489306644615, -0.14536815120768343, 0.09664021212110241, -0.19693637579276935, -0.02945058481426549, -0.19780389211580718, -0.15381943920133945, -0.04173163667327609, -0.11282468247907439, -0.13537972990743974, -0.019785399725616742, -0.06134847843663335, -0.13223054268826057, -0.09550242969284466, -0.15499692364121875, 0.0418324216943356, -0.026716855312329146, 0.016050381959491794, 0.03171051712026146, 0.15897752531862347, -0.06593362469076042, 0.025719462019271333, -0.08722577592943204, -0.08957049011841128, -0.042961039415824326, -0.06380792748928193, 0.08129047904776338, -0.0332822619426941, -0.19484014219772217, -0.21639876084884202, -0.033081348937425176, -0.03903120977724428, 0.041590405831326394, -0.06894869190568967, 0.16053560450693816, 0.04837469426467739, 0.0992828985948368, -0.15138247453724296, -0.11317000574483643, -0.04106985240599614, 0.04817296128059867, -0.1396254401531408, 0.12188275893158784, -0.07520853777685146], [0.07494606532202855, 0.1547820359328182, -0.1968455655702015, 0.006097348108645317, 0.12085151754267673, 0.25899580034481506, -0.09072461187638416, -0.1400777743945336, -0.06863652699127563, 0.01568786560566535, 0.016175312948705185, -0.26429493952328537, -0.1886309149411524, -0.04669584464586162, 0.13959200018891188, -0.20490637692562627, 0.22304483538858622, 0.0005297319566420377, 0.18308146864181002, -0.08871553644973804, 0.12697816470643988, 0.012991180858652206, -0.1280325654008838, -0.04481946029291053, 0.20623023274059252, -0.010082390386556114, -0.3094292290347739, 0.04683700864162524, 0.05649881764694265, 0.06836928929468915, -0.2911976604946057, -0.1528810903597745, -0.12756097497978733, -0.17513901042450047, 0.05221155986077358, -0.07917684985917214, -0.08577040990113208, 0.10484662563003497, -0.01447894956965056, 0.05473545948537317, 0.1981783217385633, -0.1444022119521157, -0.18284962213187797, 0.09935764186420527, 0.09499328555448522, 0.046471248154492995, 0.13953630428748243, -0.09681296525135304, 0.03391610910901559, -0.04403805499511428, -0.07009381258996053, 0.03423581966099767, -0.17599522132868045, 0.02840425497908603, 0.12834274185970485, 0.1410538218446878, -0.10927199199838712, 0.11437020429771425, -0.21443144195967606, 0.09068017220422232, 0.05656461480342186, -0.16379167091785699, 0.09725429895548332, 0.1808863937972208], [-0.2086766972251618, 0.1616469420545342, -0.04465921059988475, 0.06289558007824209, 0.033345333659080004, -0.07445839138203596, -0.23576122371672453, 0.03722072014155843, 0.16095879154250828, -0.14063381189009602, -0.08990931237642427, -0.07650293793863687, 0.010967720213425512, 0.12955072500827047, -0.1691335036824162, -0.2141302365497321, 0.0743431605130445, 0.09405347890865126, 0.023872861157923836, 0.06843732678766636, 0.10592102471729471, -0.13151600032101826, 0.004883927541322993, 0.022487669046720903, 0.11046103323757521, 0.21894177041238816, 0.060507970958450806, 0.060631685263483386, 0.16320600512947941, -0.20562654139794814, 0.042249090270464765, 0.12508123851595496, 0.1335352782026828, 0.0367464964105088, 0.015724462329171192, -0.17554628448921197, -0.13688631412146682, 0.07769716872694818, -0.13426367999807987, 0.0962725319648823, -0.1313120528438676, 0.09853728798807943, 0.00705311945778227, 0.14433512780917343, -0.1720006465875279, 0.028620805153061684, -0.02744531833155729, 0.1908878165246955, -0.12381338638366948, -0.08266118001817041, 0.02816920847841217, 0.06119498685043898, 0.06339127412347907, 0.11687268325307168, 0.2185625236405048, 0.14214290657287934, 0.07951402618500653, 0.14949455967391972, 0.08486510183891961, -0.35476277824609476, 0.13291101892633975, -0.038210014688345055, 0.1201544988158289, -0.18646509786681795], [-0.3033018643453273, 0.19495470026053172, 0.19922017169807593, 0.04667907024656876, -0.20809942689001232, 0.1101168500481614, -0.21830631481708004, -0.06635588750289369, -0.10940292582481566, -0.006639029126532877, -0.1315900251555722, 0.11820347325408923, 0.1266762434126288, -0.11680508869536725, 0.11935024385990137, -0.19253396052097155, 0.03343564709754953, 0.061407241788213746, 0.11727501739134784, -0.3587033017955233, -0.023449513820559726, 0.2107653937167245, 0.1989137907868112, 0.1065093403202039, 0.03746253841531299, -0.0319645687443562, -0.253079905735184, -0.056675505046423484, 0.09055902807975064, 0.010178631833940105, -0.190304279047987, -0.05542167924229933, 0.10037940643190874, -0.20862875625511298, -0.04200196879092744, 0.1642889442685993, 0.2858803983259192, 0.17283288871513675, 0.06695628899579097, 0.12782849731836896, 0.17791667386912788, -0.14844963602760988, -0.18942217366988454, 0.0933083421972109, -0.013397008324612615, 0.19695985404327446, -0.24501725578246245, -0.10782862739794713, -0.12381171878574496, 0.20197630452017865, -0.19153560193428107, -0.20360380582841534, -0.11628352490442644, 0.19078099612662142, 0.24288044372310164, -0.15224452784504983, -0.16079984590364788, 0.09277942264526075, -0.08025191310556755, -0.1964461386817546, 0.0061738005765811215, -0.11324575504788173, 0.06219808287457501, -0.0645683028902262], [0.1589061573591864, -0.1159984390826268, 0.4572347860547597, 0.04692720123902283, -0.26102389467206666, 0.06097709008748405, 0.19966820693306342, -0.25035556029942685, 0.08910972287975505, 0.2913476263586542, -0.1356409233283354, -0.20566996656066489, 0.11014892001593456, -0.17096275121560806, 0.051764186870086985, -0.1968105250802789, -0.08789045911976412, -0.17842716371827003, 0.05039435349540184, 0.04927883736262117, 0.11275500532827776, -0.13109374301715926, -0.11370696664449413, 0.022473057692643125, 0.26973233565532484, -0.1015361664800915, 0.08832792562060211, -0.24982215694256182, 0.0928646876957471, 0.11273075751252051, 0.023470014879118706, 0.03227420421036433, -0.007674377978431718, 0.025976101038621847, -0.0057974297925223565, 0.11020571970251365, 0.13305880324442776, 0.018427065233088107, 0.05514257952072569, 0.08409707585633294, -0.12980269800523536, -0.14277784606252936, -0.04943721106998648, 0.022403865659267226, 0.03970218610591219, 0.3820316311542666, -0.020824008951845868, -0.09902858641493842, 0.010955896910376467, 0.18614925752960412, 0.05831182809609377, -0.14108826301689778, 0.060724660073823905, 0.31840053686830283, -0.032402751171949795, 0.009637322847969552, -0.07994057955999494, -0.03217547334850261, 0.15120200946267662, 0.042517181429018086, -0.04754405103817089, -0.15944285941466785, -0.05715892561176887, 0.31029558172831445], [-0.3481855720678366, 0.1271918783334515, -0.13035003993814456, 0.041214007822447885, 0.06941663074715303, 0.14674253761912487, 0.04019865206954352, -0.04588469040033486, 0.05312540840533843, 0.07163024159382005, 0.006830546808517556, 0.2248210838980935, -0.08136219457252157, -0.20222031537676105, -0.13028923649407964, -0.15818808347340033, 0.10506532762882276, -0.08661250960116137, -0.026031754244987697, -0.028116215775362944, -0.23274564667633582, 0.17811725168395912, -0.1924559680482144, 0.05262862153722649, -0.17461632988310663, -0.21691175584320263, 0.010945003470671238, -0.004662661156000876, 0.17031123819729624, 0.23634594809872367, -0.12076172700010505, -0.08696359988984592, 0.0013602075775690382, -0.045596009235939206, 0.12524164562359158, 0.15269224140637433, 0.021405326696031783, -0.05887609015612094, -0.11129874175718793, -0.2340053489421021, -0.1052311935461952, 0.08441445397443093, -0.2050265997384602, -0.05479329265027179, -0.243526953122144, 0.18623441905006005, -0.05778969982978645, 0.013781972250520694, -0.0745631533510665, 0.2500521606220819, -0.1073024829408705, 0.13328717789468758, -0.053329793298753835, -0.18752898345314892, 0.04609688073785336, -0.043511279114131884, -0.08105203405122702, -0.15496489764803562, 0.2822686515664606, 0.14933865525424003, -0.0555017691080388, 0.05984679670610454, 0.16768214652585992, -0.2500774721329975], [-0.10713727824019434, -0.0042608981548554695, -0.011064203617579453, 0.015969568773072925, -0.1358857529790963, 0.22852136002491236, 0.16816297624900417, 0.13461272277466682, -0.24219506671203864, -0.15068278314840464, -0.19990667599033213, -0.11879338220866754, -0.1955932185092035, 0.15320025234765391, 0.1253589385593552, 0.07664595237187564, -0.11420742985335984, 0.04226166967066836, 0.06449191642927678, -0.0664720095077604, -0.1576418484495244, 0.04410413645390375, 0.06273832550111803, -0.07544196470296229, 0.03268888983015025, -0.2417858356751198, 0.08487281868830689, -0.024608901896499887, -0.1086395200593447, -0.11613463867631438, -0.19903556065405825, 0.056120732428505585, -0.04618100074455701, 0.11809298381317054, 0.13372874797495254, -0.1157247012933286, 0.025858604044449847, 0.2052904511855692, -0.2083764785581137, 0.00575264283444164, -0.025159295790632967, -0.1355383846843083, -0.1113555204875283, -0.02653817199164913, 0.14640340262499077, -0.17836336210409937, -0.23851978861955406, 0.21114638332168903, -0.07988276773280864, -0.11323975430866216, 0.1811946942596167, 0.11817214015175997, -0.08108477360099778, 0.04392566916711716, -0.1986914616141955, 0.11192641044288919, -0.239783914546479, -0.047296666982584896, -0.06310179527582403, -0.1612923031769077, 0.14444401861867853, -0.05974409507419433, -0.11281447299179433, 0.054026663573886316], [-0.17136137359440293, -0.05559247436836798, 0.1489724400772309, 0.08381562176468837, 0.10780468903028642, 0.07174316992978076, -0.17189499904293645, -0.2090935196877444, -0.1466139693806871, -0.07994686119938771, 0.054303311815156914, -0.11265635025985567, 0.03162274702314627, 0.016865015923772566, -0.15082818418681262, 0.20145994473653292, -0.05607045285095069, -0.14563500629910817, -0.2539790640451282, -0.06567053409634106, -0.1719395357568029, 0.0666014635051544, -0.008690225802155388, 0.0998569132553173, 0.11895948529448251, 0.17083862131745, 0.1016573869447255, 0.10821998538196537, 0.08904538618105685, -0.004313059678364711, 0.11482932264087585, 0.2252521082630059, -0.04008400809619627, 0.14646709352898263, 0.022402255224705972, 0.08782122043804985, -0.1667172246750363, 0.1527508315817357, -0.17790150855944561, 0.0787044705321921, 0.10840862574832613, -0.19550129155189688, -0.2199995530724265, -0.35209035128020383, -0.16023364656511038, 0.04606842703879297, 0.12394990365491212, 0.17533553666663043, 0.08757876288609244, 0.08681796388193629, 0.17807336467260235, 0.0819850851640165, -0.1565089075888982, -0.22425067826961265, -0.10205438362603349, 0.09991197066853853, 0.0747930085491178, 0.037251525806988664, 0.1982761647683666, -0.06636179803453066, -0.01405402797188138, 0.033410168327951906, -0.10865452932547291, 0.17072930685588586], [-0.26221593511501645, -0.016211690912142293, 0.21910772255234715, -0.11608345531984958, -0.24488570663367384, 0.14264510148780876, -0.06479500630542984, -0.01775439600878318, -0.1932986406021398, 0.1797507580682078, 0.024916192871858193, 0.1612244907495213, 0.24544311746665828, -0.11837618172983132, -0.14972486206680774, 0.15221315389604972, 0.13093233032471827, -0.029996731628663103, -0.1500526728724664, -0.007509101219665277, 0.03278222813264571, -0.21849606434213117, -0.03613431638632963, -0.11626711264152442, 0.23638294894331122, 0.0031340403220860387, 0.08055031033132071, 0.11779975390059551, -0.06134619889779579, -0.0013242949291775304, -0.200940650686647, -0.05814797822586906, 0.16544981053938157, -0.12095624224390299, 0.1470476270318586, -0.13316606751698665, 0.22202758724532431, 0.13916863996595008, 0.09931102499895764, 0.2165236218538488, 0.04582839719464859, -0.11834247498922303, -0.01569999034028025, -0.15824947592793662, -0.03651519786862711, 0.03673327686612431, -0.25919386715139064, -0.1206454314255672, 0.03839564257338775, -0.21487568411209898, -0.021731565184741272, -0.13219311891965252, -0.24933058043479, -0.15022593210809512, 0.21364175514041334, 0.08351669528913382, -0.09121666285299676, 0.09021017865239814, -0.1795680934590112, 0.0893010890938466, -0.18676951355259538, 0.09477437135496304, 0.29953271714831514, 0.14882889889019993], [-0.22261213579400052, 0.10574072604379178, -0.05230509274406423, -0.24215468709615084, 0.11181047818728831, 0.08420968166552469, -0.0896768244772568, -0.041746218604957044, -0.1199629292147319, -0.000718191036303543, 0.2103649871567652, -0.09970914580459533, 0.18937316285164407, -0.15399236191403176, -0.04146733015870584, 0.09016002477066153, -0.02580967467725954, 0.15727832857206736, -0.19987969674579412, 0.07417771387599341, 0.000777768963562739, 0.08456798366190725, 0.2958595148576532, -0.06416226526861483, 0.037053751755888986, -0.15597777112184527, -0.1891694478995558, 0.13390155167514686, 0.05533888397576129, 0.12846019989190277, 0.10242940717301445, -0.19122346599214735, 0.1585445231913817, 0.11673492628973978, -0.19392869262356885, 0.004405910935197878, 0.044344158548583826, -0.19438804696488562, 0.15203356393538817, 0.09227672144118312, -0.17054944519923393, -0.03741139163596389, 0.21675984210457136, 0.2860643354117235, -0.02441136213905849, 0.18432360580271026, -0.02074525293074916, -0.23931428794205406, -0.32212569195615876, -0.19712880007555747, -0.06242605080482811, 0.21451963835567114, 0.1595354234690437, 0.24605355224286976, 0.21787780680697, 0.21369130994204547, 0.16267742491304682, 0.07219081031688601, 0.03523137838666556, 0.11875686890913856, 0.11844694597053407, -0.23387299606784706, 0.05922102247173148, 0.1289462698699021]], "b": [0.07659496789598493, 0.0444669544600679, 0.09959632429919922, -0.010281762115249168, 0.04198136684367831, 0.12448551321463167, 0.10160604687994237, 0.007857830149775645, -0.06230761892649891, 0.04421399608244864, 0.002336468904380784, -0.013604678013114409, 0.014067126841322686, 0.10077605411379523, 0.07693295243115203, 0.10582184052955934, 0.006490153076380957, 0.04654038058488947, 0.0055210362116415845, 0.037837619093290566, -0.017499599585989387, -0.028811686011426724, -0.011146736931669388, 0.09686741712916999, 0.022733489736695863, 0.0, 0.09333268187767567, 0.05300280200081457, 0.06404664027229114, 0.08814166824084026, 0.06740933660324895, 0.07228452147642449, 0.039818426687136775, -0.04965107089331014, -0.012299459406769487, -0.027703762943310516, -0.07604272398910622, 0.010668543495333067, 0.06023968837529508, 0.04051520066116571, -0.008436661889993405, -0.04593485428326006, 0.05201383532755334, -0.0075118941846159595, 0.04443946521019213, 0.014969671426248861, -0.032152396277086256, 0.0298950096807518, -0.024872002865466623, -0.029891138536881873, 0.07524912913286015, 0.0077773894061298, 0.022685535104781062, 0.0148216274457412, 0.0, 0.02840405132019191, -0.03431386839587035, 0.08729441861611327, 0.029592171911203956, -0.04642765358487423, 0.0689105213587715, -0.024575296867333948, 0.03718656863536702, 0.06972562703396278]}, {"w": [[-0.31768945824722666, -0.308084305832537, 0.3537625828687501, -0.28160372559546215, -0.5526446422642417, -0.14498965679096545, 0.10151663857285227, 0.42077836310846845, 0.3108354346492945, -0.4490255640385364, 0.18076557111540106, 0.32060276305539187, 0.40367109168102777, 0.21101409503773808, 0.3925298147075614, -0.23713118674238762, 0.07341048530535421, -0.4070576841045402, 0.19717581043944246, 0.26771343835049505, 0.38796467430504405, 0.3567611433894547, 0.4367518417917419, -0.5258740727407353, -0.4714971763785718, -0.09765046815347184, 0.22294646514738697, -0.6702288337404986, 0.2790950455965906, 0.1717164292229719, 0.4301254937429859, -0.1045422757059049, -0.35593292702929136, -0.31467025079380406, -0.3311407126490912, -0.07387921739478451, -0.1041679743554901, -0.09683311881454276, -0.14668480836089792, 0.5733686729236122, 0.492183918851938, -0.26347415492827636, -0.3275178549932876, 0.025378225707029058, -0.26847531717082984, -0.17907728182375848, 0.3071866130223139, 0.3573323037844388, -0.5146229849012618, 0.2980484822016045, 0.41846306782797305, -0.21038507008944293, 0.11549606708716673, -0.3674265078636252, -0.19988560508763162, 0.23550348688982445, 0.2520236134095314, 0.356094694577556, -0.11532783664286245, -0.13934357406865935, -0.15823883780477754, -0.06491796897109313, 0.22229881331505943, 0.16022861317913692]], "b": [-0.0008560719238014645]}]}