{"algorithm": "ppo", "env": "pendulum", "checkpoint_pct": 75, "architecture": {"input_dim": 3, "hidden_layers": [64, 64], "output_dim": 1, "activation": "relu", "output_activation": "tanh", "action_scale": 2.0}, "action_scale": 2.0, "layers": [{"w": [[-0.04480237543942092, -0.291883964394441, -0.37948278102879446], [-0.413078944917186, 0.2832225433435158, 0.314020141617505], [0.07122884522534584, 0.4501786241079464, 0.07095973075841616], [0.4101862327604873, 0.20426080937066707, -0.3471108451459776], [0.3128631914988587, -0.4364697873880028, 0.15897744600224104], [-0.09325294109046155, 0.3938277667901942, 0.07462921700597064], [-0.30683500483094306, -0.1720611680551648, -0.3703521830688581], [-0.39566925080977955, 0.24354171128436614, 0.013585324328969086], [0.18744076680988064, -0.21467955154709317, 0.293438299786796], [0.44238656676764826, 0.2692643791105506, 0.11679267192675628], [0.1695965786465773, -0.19632176387441366, -0.20305854574732748], [0.35759266745830265, 0.06802568801379973, -0.11731935208329915], [0.08293982539314132, 0.6251424568260648, 0.23274518989348503], [0.026788022325237363, 0.11495377406686359, -0.12488730349023451], [0.14349828766619493, -0.44571597742472324, -0.08306688579080866], [0.22429429676161064, -0.25293905833423336, 0.16468722715929351], [-0.35979123552065223, 0.4425517469665182, 0.1668900076062577], [-0.14197163788907252, 0.36382655603288344, -0.2968225570930725], [-0.32681540502551165, -0.4418454968064665, -0.045647407447222364], [0.18655875901871893, -0.5025143040072939, -0.3025795609993362], [-0.2594113339416977, -0.35009110554546885, -0.27741692629340187], [0.12132254049033078, 0.16773063865658472, 0.14824606638202378], [-0.24856500424966843, 0.3500227067626199, -0.017484917371690122], [-0.33382822665025086, 0.24090708612532866, 0.2901366510532698], [0.07156560854393898, 0.5100575591395395, -0.017835949110130592], [0.03927142473891798, 0.3518248590074088, 0.2897025313280604], [0.40795760722023466, -0.08598623710860642, 0.1305546008414951], [-0.13695939537926416, 0.17999756626361668, 0.14968742367529705], [0.09746136217832099, 0.4725640567264051, 0.09422525355906138], [0.31852080924577775, -0.2437528772578193, 0.19006634419614113], [0.32858143717856764, 0.22383422680914514, -0.3195174658784431], [0.27717295283382976, 0.6533104496764524, 0.23407493266288185], [-0.42850273134120476, 0.3418356939781256, 0.22700620811905828], [-0.04606108280580537, -0.09780447702820745, -0.18473762945973135], [0.315232140702552, 0.49553569597350394, -0.09529306306206016], [0.12858492628054155, -0.1680856755883867, 0.24332080038066267], [-0.5175742434263, 0.2485982425779932, 0.031794252353285195], [-0.3338084841301322, 0.3618793307891674, -0.24658968242248192], [0.22314247412760047, -0.27137386566913424, 0.23585357102948343], [-0.5211490704146134, 0.2254046696230368, -0.183557700884099], [-0.29357255749506644, 0.09494181407581935, 0.2785807369299661], [0.002535675482408427, -0.31872369550156027, -0.16936360077384321], [0.31850958624646203, -0.41892744747248334, -0.21357593549835166], [-0.3453348012446166, -0.05606719462759633, -0.04064353528145081], [0.201193621728756, -0.48234084227454194, -0.11403685892624643], [0.06271975110863309, 0.5058408341508586, 0.08046543454966706], [0.3595273487614834, -0.17907033867305885, -0.07000701852729578], [0.07145505343421121, 0.312732041087822, -0.20422639980656843], [-0.04040257716771849, 0.1833751027858151, -0.2810632675050182], [0.3199590720462706, 0.06274023036790147, 0.22630032016225887], [-0.5117832497796159, -0.20487548471222056, -0.2468879697788962], [0.24268557064413407, -0.01427895208323504, 0.1490146320011591], [0.329203435217484, -0.4053149789164535, 0.2591918627449317], [-0.5084753146420551, -0.11446862949755057, -0.02761279831665074], [-0.18357275164599418, 0.38092691504627096, 0.210512948972675], [-0.26770674726816357, -0.16218232030877952, 0.2006910707512282], [0.36303896148858367, -0.1704259262773349, -0.13958482373728415], [0.4240146105230623, -0.22786781545796267, -0.19783392784247195], [0.47678639363042846, -0.0033454723207715694, 0.09603467911517397], [0.51903485603826, 0.2740126979551309, 0.14484899781548904], [0.26554895672762574, -0.4164007826825966, -0.23335215564141776], [0.048169720544336846, 0.2475661084890149, -0.18093943804986717], [-0.09469865606950922, 0.42834152983539237, 0.14826902820540996], [-0.1362192850857331, -0.43293015989802097, -0.04487126060608468]], "b": [0.15299477447374718, 0.08888925352225031, 0.1030963111143439, -0.04446891618856309, 0.07073257155861448, 0.1434854228904053, 0.16683974709010424, 0.16981311439650143, 0.09483286331467215, -0.02019640750022365, -0.08357408372758343, -0.09669580705029375, -0.0200956511891932, -0.11328138265446655, 0.06425552894015091, -0.02114654847524291, 0.06001485317942576, 0.04532272236918511, 0.04591224577154625, -0.02201579718932972, 0.12083571166515551, -0.07991083448449246, 0.09302635726527249, 0.03623846786933709, 0.04175011256264253, 0.017949226494736136, -0.05500314689878391, -0.007819345289416937, 0.055839340781363885, 0.1518279936470472, -0.12593532365076063, -0.11200351903272195, 0.09934029595577026, 0.1403442670839381, -0.03802950404238042, 0.11678522628598778, 0.2472864693602166, 0.1441488121413994, 0.037213314612279655, 0.22011664636531778, 0.07735239163874819, 0.18924201960798373, -0.07453665637453578, 0.2338190672562002, 0.009713471616686908, 0.1114743234112255, 0.01225814914259538, 0.05410001816474077, -0.1354111468366468, -0.07038311497174222, 0.18196207751015067, -0.03653183031235982, 0.10405373901948564, 0.19369487263840465, 0.06005655987937551, 0.13052257980499563, -0.09850558698106497, -0.11466019123614375, 0.008266014229518776, -0.045084063365640845, 0.010366913284836908, 0.07718472866841594, 0.07842182162320817, 0.032282657585129604]}, {"w": [[0.06288561947357918, -0.32312117580604127, 0.3365882539661232, 0.021074107647418967, -0.22173638261552572, 0.15000482544765487, 0.28129012545958726, 0.02330526204804883, -0.11350454798544732, -0.12365126358347073, 0.06782964707535015, -0.1899441879745013, -0.09688464167324361, 0.038304141761606084, 0.21763739452052194, -0.21581037257136843, -0.14071691029163766, 0.12761766683726383, 0.05157840710596973, -0.03778659316549156, -0.1081494244481589, -0.043401945636527474, -0.1399210147268523, -0.1940315044343068, 0.1520748815265378, -0.20082248286433657, 0.15307128290472757, -0.050657161650020634, 0.16178954860441494, -0.14649791977619706, -0.19965265335367177, -0.27628878646121585, 0.02154402384481676, 0.09483427125091735, -0.045609370404248104, -0.1775754593725367, 0.15085938593681958, -0.036625072599841435, 0.061510158507794066, 0.04246098726355635, -0.13275316238123352, 0.19163221060356775, -0.2003693081089212, 0.17931298893605982, -0.15083441160652358, 0.2276726961069541, -0.06785268567873866, 0.21175549878773559, -0.11619871537295418, 0.17432778062697268, 0.23941205712043964, -0.03165519550381215, 0.12150602054682494, 0.19131856323610089, -0.09900659544008676, 0.11178980905105522, -0.27054777704979766, 0.0985091657317256, -0.03146447625641432, -0.0532662759370401, 0.20919127832874865, 0.12351486027205037, -0.135804631294901, 0.175851906186987], [0.19835073219224655, -0.24682838112503433, 0.3956326271276569, 0.1032884291806601, 0.09818833844302655, -0.0061255002133470075, 0.1998362366709711, -0.18136165604779386, -0.04490246157480214, 0.07741129816771058, -0.007372477979536496, -0.24661843763303565, 0.025070059980085622, -0.22268963277387577, 0.0524282851138886, 0.16872214095287036, -0.2539010597492573, 0.10848828439715419, 0.2783218444080377, 0.18859296455363786, 0.22868508009679772, 0.030205168470319115, 0.2295069871327556, 0.15532584920175052, 0.03223672485659698, 0.12076431896375, 0.19295925019385912, -0.022459696064789442, 0.29574314858574274, 0.08494843876699122, -0.11189120142098624, 0.24035751606192177, -0.044494948836559765, -0.1586640004531683, -0.07606428172452623, -0.1640548136910718, 0.042160196612627286, 0.010325106493233545, -0.0014523570481583, 0.09148700692848909, -0.18030280135394866, 0.22022825047621677, 0.01682956686922245, 0.23387227309396968, 0.10315337323616415, 0.30791619258435066, -0.2696222964662793, 0.09187850644160393, 0.0472586840105758, 0.19386667232191115, 0.12468562583083449, 0.15285815991505886, 0.21571733671741586, 0.03655920704551472, -0.15689034513497835, -0.06304693787305782, -0.009620269871498385, -0.10764829609500796, 0.11357413134971271, -0.03892710791566983, 0.05482402305965228, -0.09504657949884172, -0.14050082819280366, 0.2840548429447114], [-0.33780480630604504, 0.08184375263541614, 0.2817189184506267, -0.3582193989022868, 0.006641285614182441, 0.09988710599206214, -0.3723499363934404, 0.23021960144066425, -0.08388110590521074, -0.22280797345116093, 0.07941549243051145, -0.30391268589993964, 0.03736918583641815, -0.4480788547137022, -0.22185245193982372, 0.098958097006089, 0.23825474979837993, 0.03795236765720005, 0.018091838139239584, -0.20783474476765532, -0.4342088315499726, 0.06204829780856313, 0.21966944508659386, 0.13716481585073723, 0.21093967908062683, -0.1582966435877823, -0.2568426194228272, 0.07567883728043799, 0.009726864391098473, 0.1491623034781845, 0.002031312895989648, -0.15432326918364916, 0.13257923207842562, -0.2961694933710975, -0.017022966583286656, -0.10004870299934737, 0.2594847515584484, 0.1777319043727072, -0.10805162080633537, -0.11685114282387168, 0.1881799799933855, -0.1666624056506251, -0.1165032204256262, 0.06990584667592142, -0.27341585011967706, -0.09418376149219339, -0.035621753708806894, -0.09170903941505716, 0.001666100799778912, -0.23770408922937755, -0.11364443835500579, -0.11579935262372285, -0.1548465548067139, 0.23576512345269932, 0.12721856499626003, 0.12909113829359914, -0.2402944881782139, -0.12051592730076523, -0.14708366259869052, -0.15869043779014225, -0.3425733863091619, -0.10201382681490351, 0.29190390381709613, -0.03838778320428464], [0.19328551290207174, 0.0490951731942404, 0.13317231564814144, -0.03594478272726648, 0.11219749967877865, 0.0765764258778906, 0.21882736489264787, 0.006697628205421605, 0.07107864859117179, 0.28923015719271544, 0.11921295362569286, -0.21840771852439475, 0.12383137294034029, -0.18848130084823048, -0.07805218937874149, -0.033289544157134456, -0.23757847430938708, 0.2086484142704186, -0.07205870821718617, -0.2279474995076529, 0.0048715462300204255, 0.24336421540349812, -0.09869966097688242, 0.06682383170636784, -0.11760309731443004, 0.013815519750383053, 0.22716754988742224, 0.04800996020304197, 0.26945562521297645, 0.025371936737709225, 0.18782772157284577, 0.22051573652887688, 0.029295446418715138, 0.1910717352843633, 0.02887338476508227, -0.07115279848342315, -0.024828049229446834, -0.08449458480423365, 0.13097618159142377, -0.09647646895793083, -0.0223280462292869, 0.05470725282314471, 0.018559967186862477, 0.1326704411672448, -0.22702574669788148, 0.18866442481882933, -0.11040817114652829, 0.05059786116773936, 0.10126311300956753, 0.07586676425113224, 0.20350305876240837, 0.016708988677817675, -0.027877646348210296, -0.04237435240564182, -0.1667595383301073, 0.028900271309152233, -0.03278993107584968, -0.21000502641281693, 0.2749998967347573, 0.1815282767367821, -0.021150199158181063, 0.14887355880526695, -0.05077514632801725, 0.11783976587665283], [-0.12247545262561031, -0.20247550228780734, 0.321581155599955, 0.1707381820887802, 0.08077196525106066, 0.011714124235736985, 0.07773155936993999, -0.0716318266300797, 0.2160770981332, 0.13742558041553946, -0.1999573363407411, 0.13180615185067018, 0.2075535289059571, -0.1487684242879062, -0.3354330409696659, 0.11623481750009583, 0.046916885455670736, 0.10825441063847463, -0.35540165111928435, -0.2647144494464153, 0.0035816065979571935, 0.20571205085915897, -0.08422809692510501, -0.2246865193741454, 0.16918321836577033, -0.12161168013955895, -0.11195626189936027, 0.11148815010371815, 0.21552893698709052, -0.005816140278725641, -0.054097467296287415, 0.0010314848862198315, -0.12184553202829258, 0.04168963139179534, 0.0892733150029293, -0.03462653658018712, 0.026606004474393513, 0.134265055784311, 0.07103993547641477, 0.005793673330200571, 0.03500660241744324, -0.039303435367343736, -0.21516334507024265, -0.15899616258375432, -0.172924788264686, 0.22034701426908027, -0.010046063194245307, 0.00924224383008305, 0.09528443931068846, 0.2823085823202353, 0.022457365710355, 0.1935677284664475, -0.15157454201601833, 0.10779773653169727, 0.17226874245676582, -0.11436201443625273, -0.33704578126512164, -0.11604792312980837, -0.02278965723888061, 0.36245253861719573, 0.060253957725543775, 0.24739988588449838, 0.039057378550648725, -0.36979548000060264], [0.20837369249350846, -0.02038880056142176, -0.010934732265542316, 0.1487336520596711, 0.029319370061767967, 0.1956159295789737, 0.08002530001967996, 0.11859281008593339, -0.14037045031935577, -0.11940140055870915, -0.1650254771937035, -0.3088020860661866, -0.2786704731892724, 0.07952870138894629, 0.10437182185837086, -0.09647513512071268, 0.04697864849111788, 0.014280987701679402, 0.4407045230708838, 0.14251857919826727, 0.24705878413585158, -0.14656720929769174, -0.0703049246080087, -0.2757150247088637, -0.09894830273244241, -0.1873525559884583, -0.17895782128641935, -0.02677663475827457, 0.12121136791340878, -0.11509893663614303, -0.042501543454995294, -0.19123245283193227, 0.009516159607375903, -0.11734100858931225, -0.20034354568472032, 0.01178034736378552, 0.2424443243525071, 0.2244349041591828, -0.09010111605748554, 0.031047183479911568, -0.177713350576015, -0.023697223135376574, 0.05297874610504394, 0.19267293200501193, 0.16898315528386462, 0.049633139815652746, 0.012853985786463164, 0.017507126892254917, 0.057196910297393745, 0.06933440047728325, -0.012569878666562992, -0.13602533520238697, -0.11991041855628426, 0.03642905897024614, -0.1947621631228998, -0.056465194420261135, 0.044026512324567786, -0.25982802728115956, -0.23593468035768891, -0.2326070785332619, -0.11649985349674181, -0.06982340331901608, -0.2355672267771559, 0.1079688376692721], [0.027739025718576688, 0.05740413779081139, -0.0313410200581103, -4.268670851758353e-05, 0.07606087749157463, 0.22963754355500116, -0.42223629683753394, 0.19248087999311125, 0.11015219789360396, 0.04293043274755558, -0.007696045486599477, -0.09980136066934765, -0.16890852695675326, -0.2912087925163475, 0.23970921382591104, -0.03186724431350624, 0.29046916345620605, -0.03263499862181204, 0.16327513053291764, -0.0299143630321964, -0.1063058250810648, -0.09714770094688323, 0.28192025035566415, -0.02133278987609822, -0.09540515437990714, 0.12457596804254119, 0.025638437561562376, 0.1120960629073952, 0.10092175688196488, 0.03529130397229953, -0.2515734828221074, 0.0317008686069594, -0.11460729227480064, -0.24352851389949617, -0.020483552958639475, -0.044345295674836874, -0.012257514081067991, -0.07740947185433834, 0.043970781699221424, -0.10849550063724409, 0.1470132219924515, -0.19337537146619255, -0.10318477525318737, 0.21836983991533196, 0.1441839846993827, 0.0458584730930039, -0.0998972455175337, 0.07744129567218394, -0.12564823968795347, -0.18606938733877718, -0.06750368499507445, -0.08012187499279039, 0.18696883756587757, 0.1664794660370077, -0.04197508421392671, 0.24831621885731658, -0.014190390484417722, -0.055281038408892536, -0.17797626072637032, 0.019331202811596213, 0.05056573841802698, -0.030635674956184775, -0.03984605668172496, 0.19495765839742524], [-0.11663080857656646, -0.13184574186104844, -0.3404980955218486, 0.0703213934204544, 0.35061516139940235, -0.19958133456834679, 0.14120519704253168, -0.3956938144675222, -0.00544894448931165, -0.042303771972681516, 0.07045730234477714, 0.13039264569597014, -0.10920861927615369, -0.08797146461776109, 0.2612818933290161, 0.26670161621394567, -0.26444340475063477, -0.18325772618366215, -0.18863599265569334, 0.031125351687455338, 0.21169437405542152, -0.2371480632653778, 0.06588267315487298, -0.0076249215327528555, -0.17226806771966352, -0.11829553792857413, 0.05951573748010282, -0.09577795033230076, -0.519858559113285, 0.09805073808385012, 0.2922140684357107, -0.26438429931840407, 0.17495941055907993, -0.12688667434257808, -0.10348728757931173, -0.1685896679612144, -0.1326706023938412, -0.11365326365522778, 0.052517691266656355, 0.12713244517016442, -0.03411154718382874, -0.059945002131944064, 0.20298697765329768, -0.17828007001364116, -0.03057822556108501, -0.7204396481292629, 0.25088020697227775, 0.20696113925778353, 0.2120136228891547, 0.03805685383462826, -0.16906472197535333, -0.019697361793037778, 0.08462542302492163, 0.08867511335474994, -0.019297750256999063, 0.022603188608404295, 0.28044902476009964, 0.10531262424982772, 0.24517819040763317, -0.04536348926073447, 0.2411959746007537, -0.15511272733540563, -0.14498379826529445, -0.13031715947421657], [0.013065909446613127, -0.1798422125666669, -0.3225443152021486, -0.07931765805348916, 0.10995565974361342, -0.2369546402373786, 0.14047835214856758, -0.2640732979851519, 0.1450724024477493, -0.05068618759539435, 0.241579140139103, 0.19293647529137317, 0.0025424108744590366, 0.21843974063951918, 0.19291035617766536, -0.13752104170845308, -0.26590037386827253, 0.050607954813448784, -0.29498785487948354, -0.012901288292047538, -0.1678505599409847, 0.049342113861754786, 0.06243187639190324, -0.19476271307072454, -0.09254840883596128, -0.11210060306217304, 0.17936206320044606, -0.0604021251575969, -0.21065863736249116, 0.07584049223040555, 0.25897264108477247, -0.23451792377375094, 0.15311486634031565, -0.006189564152783565, -0.10683018046256981, 0.11305020218446687, -0.31469269885182494, 0.009815610627452787, 0.05719246108877272, -0.1562997347136766, -0.2312082343177956, 0.21406681544364467, 0.20861713433457416, -0.33705959355620163, 0.2262512195952964, -0.5959519993343515, 0.002969373623567419, 0.13313412056697285, 0.12940834364792564, 0.1438595877434284, -0.21524059426928957, 0.1440592849653562, 0.024720478889408447, -0.21703923900777305, 0.0020338806908007205, 0.14588415220977072, 0.05983312011461598, -0.051771045526375487, 0.18856806529377132, 0.11421490211633654, -0.03633667053841989, 0.15547725078062138, -0.4117156213752177, -0.0018988203775536967], [0.21118184687868505, -0.23289344924868843, -0.23507816341288937, 0.04049242480127474, -0.08378335615141322, -0.08876707227589486, 0.13043830557613584, -0.12278550712474608, -0.032535405304063875, -0.4913939245086583, -0.11370881185758851, -0.22092874766528, -0.19132825408225956, -0.3113189739907614, 0.3128301108850183, -0.1723408987952392, -0.251410773153571, -0.10937469332318717, 0.3930570236810641, 0.01856436276938924, 0.09768234209337104, -0.13737986436673394, 0.12682182566173442, -0.15794966986791723, -0.48263573688067013, -0.012001240764790496, 0.06186065263813523, -0.18293295659255787, -0.2824132712414964, -0.09829431141088296, -0.05613714367685681, 0.13634926425960564, 0.036381813988474676, 0.12217435327820227, -0.31762299298019114, -0.011566207180757931, 0.12673961931009672, -0.15242597631866314, -0.14999189659725926, -0.035688647985501754, -0.03375990518157271, 0.2084795246741542, -0.07046001121896384, 0.10300847048219262, 0.3129042734833544, -0.3204208751607557, -0.0269070926466561, -0.15060359093791736, -0.0769702710538172, 0.1010761951891585, 0.10034705543246171, 0.10083022323792593, -0.03695195344686495, 0.1031823750284911, -0.3229743274167426, 0.10471713777919907, 0.08634342375699387, -0.07618896640128608, -0.35820224661320144, -0.5702790935186787, 0.24989260754776088, -0.06397971050431252, -0.09406614886589917, 0.39167999911104795], [-0.10760233529699681, -0.1681168073100786, -0.7481868743293346, 0.16707847798716707, 0.03150363624289809, -0.20244336970304266, -0.15559836291668333, 0.023552509153191334, 0.11579496461070139, 0.009713973834745445, -0.049465764971587826, 0.093154268942222, -0.42242209761890515, 0.15687504222110116, 0.26963324706345126, 0.2757212383088514, 0.00511281775334494, 0.1340193770848342, -0.27721649502864815, 0.11319856581113487, 0.09194508181775593, -0.011638081970445668, 0.05025536397122171, -0.16981691348825934, -0.036276421508306976, -0.09803225404940849, 0.1897378853128558, -0.08039617111126264, -0.6246994443634757, 0.24500188800114314, 0.045118192867590445, -0.4053093050392713, 0.18525705775344076, 0.19697616579784683, 0.05584270058351085, 0.16333121562429648, -0.13428545257571528, 0.09949968231563726, 0.20353432192049606, 0.07109651922880136, -0.03610118287285911, -0.18566454372477575, 0.15214538020395502, -0.10896364619626789, 0.26810040556791154, -0.4461873044612197, 0.16949377507152083, -0.04967357628930175, 0.09437311608020026, 0.1936920197178516, 0.025769627836001834, 0.3281774851230529, 0.21862598308894596, -0.030160011003949796, -0.10116375201991262, 0.2845712936060267, 0.10127403895216594, 0.2589363473209117, 0.025812487404330047, -0.2282898185844218, 0.044684883664922716, -0.08337995460495778, -0.12574443868861304, 0.08623581669343414], [-0.08125919651251214, -0.05223120323384835, -0.4743368682569002, 0.20622505354989198, 0.3487708683467468, -0.2248716325523792, 0.2110061315810746, -0.3614487889775327, 0.1909402563333735, 0.10552873652103464, 0.10088847069802867, -0.0039047779109243, -0.3581807936663223, -0.0250907558527608, 0.312006287542674, 0.1603321621339244, 0.05913678153176278, -0.05284491077397728, -0.15187218392052373, 0.10800284313635068, -0.04160841087768299, -0.10153461695067796, -0.007761875085505212, -0.213870216263242, -0.10189426371356874, -0.3670840458473271, 0.09478927191070047, 0.034096299240664804, -0.6505554030136503, 0.0004891077282209279, 0.22017986085367755, -0.12096064419978918, -0.0868510266588262, 0.20941685368227667, -0.02518901931033061, 0.11444889497222108, -0.1715912746990339, -0.009329563984026297, 0.07992462177742937, -0.20281490930185714, -0.14758074041823097, -0.031548237920724816, 0.18465833825977385, -0.07804047966743213, 0.19643711998634755, -0.44395577617795323, -0.04735984034170541, -0.11740443394449816, 0.20402320930465495, -0.040710918327735345, 0.02509995558867932, 0.08854358493564937, 0.1476253933357664, -0.2456159734409317, 0.018746386836878348, -0.09501973377749653, 0.24140297113691436, 0.08768741294841408, 0.014639470472750212, 0.04140716884258037, 0.04008738603773921, -0.13991328871872263, -0.0707604843489938, -0.1154700643809201], [0.1533293107973954, -0.04449893229316461, -0.07904492484474603, 0.048093350155914816, -0.08360276180051154, -0.10437817392028474, -0.104095790383874, -0.022047881384448232, 0.1289078547811367, 0.15050780259146815, 0.09985606341583703, -0.1111462808034932, -0.0897685895613029, 0.2103134254654044, 0.14747663792762802, 0.0037310049600247064, -0.056895093702559525, 0.2273943682445386, 0.07586859629716004, -0.009014751213028582, 0.20815394238457396, 0.163094354832393, 0.07483121099613305, -0.2011884380545415, -0.1704301660781656, 0.10833603258154044, -0.07545157739082335, -0.1962890788640607, -0.14295910384238958, 0.20816329690174587, 0.09245879647020597, -0.1853135896769537, -0.0409749609876591, -0.18202255868234415, -0.005174061071238664, 0.17574664459550965, -0.3309505342901202, -0.0032110605603085257, -0.12367563810439633, -0.043740653575100825, -0.21263978777538373, 0.18100585779365116, 0.055912580224797684, -0.1052942130129007, 0.048698189665208697, -0.07184594102400403, -0.0671632427112293, -0.0701570762932024, -0.16400959845820465, -0.07538037593004646, -0.15080364096052362, -0.12284679412869726, 0.10371552275875863, -0.13955925654641155, -0.25798746993908045, 0.22621785648530718, -0.12283231997942556, -0.14769576691561082, 0.2113279107786308, 0.03996481033903691, 0.14315351756356173, 0.05700176510478344, -0.33978734976499664, 0.1637840052639502], [-0.1410172207810651, 0.017652470708914934, -0.24337692498384636, -0.21799232344750216, 0.048255618243274415, 0.11920253273972048, -0.168502133566647, 0.20500073315987552, 0.18007144885493384, -0.06365784256442436, -0.1416635143094933, -0.06590390535637232, -0.12192106476151991, -0.024585501783172727, 0.17561786650717592, -0.025025630048562376, -0.1179774251893817, -0.23737384763050515, -0.15034500538072215, -0.10896206937975919, -0.06925953050286385, 0.019147554703167605, 0.19137648496892748, 0.034332019613372886, -0.226735383336421, -0.08151852551189513, -0.011820949194307949, 0.02380274583792563, -0.16478682631223435, 0.16931953048382664, -0.10680962868987388, 0.06428678226827252, -0.039210938705832137, 0.1327658417814046, -0.20335019595181122, 0.1330033589458227, -0.020181846952523917, -0.3024660737157223, 0.1628542122998419, -0.2877135086390678, 0.22582553047497908, 0.13145655663458433, 0.13441149154117618, 0.09575574229603566, 0.19318849749043163, -0.061244360904715876, -0.09252304012004489, 0.06123934011144777, -0.07495814657906852, -0.1773048255121901, 0.024514219141650865, 0.013646528793563656, 0.13142020448336594, 0.00822441846751065, -0.10440588156008711, 0.20689463843088796, 0.13385825468378612, -0.11939387758113373, -0.09798281826418657, 0.0906056229238279, -0.006541328495549922, -0.15727661892152878, -0.058740721744067984, 0.14796969247678773], [-0.35867205243268135, 0.30470951518183204, 0.028248334684760294, -0.09897364259030941, -0.176909953260408, 0.26461958470486385, -0.40645367685805894, -0.013101805966729082, -0.11040283038822829, 0.08008282199615033, -0.15194549726241496, -0.21493374842653507, -0.11598731917003928, -0.20582720838553253, -0.1724807855756886, -0.185764511317841, 0.2537424654508703, -0.09947464950583729, -0.10229253513788805, -0.2181204884893833, -0.33897223129787735, -0.20177206925086105, 0.2693515517866584, 0.05351891206919655, 0.2760154304064729, 0.15124336269160693, -0.2581638232611434, -0.112134686025408, -0.06926594369703425, -0.05574657726920504, -0.2628077320358137, 0.17086953049965084, 0.10021139316539036, -0.2757616552076127, 0.04469781249985868, 0.10793792826111807, 0.24008896985700692, 0.09830416880548713, 0.08995783054310683, -0.027268824103093732, -0.0857368991630477, -0.02261338654216562, -0.11865160807050704, 0.22354250687896304, 0.1957302057602602, 0.19627568274461865, -0.01616888590186893, -0.19504487170636173, -0.1497736659543265, -0.23533663521488982, 0.10757700642937679, 0.12196025616266544, -0.23300781577697216, -0.026710421900921776, 0.230360216948912, 0.14762951013657427, 0.02922748828409441, -0.059928803521850205, -0.11100784906997084, -0.06863162520074861, -0.39607026883457835, 0.12726681078410287, 0.06723638202944239, -0.07578807420979577], [0.06661048903782674, -0.1831285081531377, 0.286667380574467, -0.21382854518608702, -0.16632136582780496, 0.08311444400118083, 0.12429481285882478, -0.2156608197118797, 0.04404556441517652, 0.29993452954907196, -0.10744805391673919, -0.0415039161812057, 0.20530632796692233, 0.08480791080174566, -0.11453941494594908, 0.1863284335028797, -0.21704934216307184, 0.168262424610811, 0.20408216881745797, 0.12099825254216119, 0.26922307786496136, 0.19871435725741574, 0.17153714002089082, -0.19252207042363298, 0.21634035436158894, -0.1806087047877497, -0.0703339169610147, -0.006306821475676229, 0.23056416344891908, -0.19001719931361288, -0.1077069698840834, 0.005814516967989361, 0.017433590627764214, -0.1805002628827704, 0.16062621377220584, -0.03658919671113583, 0.1418010762424691, 0.2351809068862784, -0.1521475144458241, 0.08086386023651139, -0.19229932708208303, 0.15236700549443474, 0.09597776686348303, 0.087208357285765, 0.13186808266188402, 0.0748226112874882, -0.07339583250808683, -0.14730700924892098, -0.05530796625501795, -0.010341717233211225, 0.20826312569651473, -0.10188651638939758, 0.0026498374981992773, 0.2561544696320303, 0.0356180842148253, -0.11784099902680475, -0.2811515735884143, -0.1689488521242559, 0.10974059338201363, 0.28841983569253105, 0.05381691512056321, 0.05962749851418906, -0.2624702230006247, 0.2068023312002173], [-0.1778267378073629, -0.07579313057934195, 0.2676052399800029, -0.005570888322567427, -0.28897114414133745, -0.0020321217964813306, 0.02635243325279423, -0.078112888227993, -0.0025937366725608778, 0.13290069991500658, -0.16925044749841028, 0.1776129119084378, -0.034215848948657285, 0.05732833807762723, -0.10380065443863337, -0.24301043805420813, -0.0326278690400124, 0.10615300817804811, 0.19190562990577217, -0.050176954308545366, -0.05571160411369242, -0.21684395265059522, -0.023632082432556656, -0.22829239280673327, 0.10797572876425214, -0.020371447040032676, -0.014758089075148872, 0.0014904729802295892, 0.017581237132584943, -0.15386007867498172, -0.05858995165587981, 0.2654423698819251, -0.16698913191900505, -0.12845332247638624, -0.015395779537515737, -0.22175143949661208, 0.15328968877546684, -0.07774518094377805, -0.14376365604122707, -0.12958716366821293, 0.11732939155746404, -0.16612426484642215, -0.007997208988439374, 0.22963976113838483, 0.038934127688552256, -0.03486790611807413, -0.0914707130861647, 0.2103259205568287, 0.13401401866413556, 0.11219659408675332, 0.014277369506926083, -0.00240136742910138, -0.193709255434897, -0.13038518150742467, 0.12132858344289359, -0.3620572483537951, 0.0269673172357551, -0.326027296960657, 0.059015868821644786, 0.06543274453187721, -0.3067089909382456, 0.11331050376254377, 0.16221594964641775, -0.030944162638653322], [0.16659569173371677, 0.06990865343111294, -0.0170002599749054, 0.22592888558359836, -0.0679887879962918, 0.11501305682555091, -0.058088473710959924, 0.34360827432038715, 0.0021157015866732987, -0.09487011323477651, -0.07134904513905854, -0.2286803859310845, -0.22270544830592884, 0.20142932710627276, -0.0725026792192334, -0.2747511559605683, 0.03011092251993503, 0.18651522502299808, 0.28424803145239147, 0.16100539032947572, 0.24959830387380483, -0.10156984592692637, 0.12980992003161856, 0.08874101671180158, -0.11066766880509536, -0.40647631876952617, -0.21500614789749442, -0.2061969743925373, -0.14704229958574921, -0.03753453924086116, -0.012266681037363263, -0.01456628561593118, -0.09511361224946528, 0.1371300212980026, 0.06716688452634093, -0.17820730071762195, 0.1348313642221319, 0.0529398107319377, -0.23069924777313325, -0.058907768761677394, -0.24032006579035872, 0.0194404590201395, -0.28590788692341595, -0.007086347282290674, -0.211152657069815, 0.024877115984727558, -0.16435025157314512, -0.15908970290371877, -0.10432517890073292, 0.14581201660265503, 0.03914312586920488, -0.13327081257102633, 0.008998233930648726, 0.17664569371557118, -0.17572339543689514, 0.08728638722876327, 0.15858571233662602, -0.10725050301062691, -0.17068394633386955, -0.07966787718770865, -0.1673816932742596, -0.13400363760250358, -0.06981957101714942, 0.21321379768409907], [-0.2454144817529955, -0.07033387872434374, -0.03499888489411068, -0.047886825029556754, 0.05735740510072261, -0.18918943063321875, -0.04740290421405982, -0.10323468058480023, -0.11627789095515097, -0.12168207317067875, 0.03428204390585071, -0.07905788156939834, -0.031297560598909785, 0.12815368658259155, 0.14093930960475323, -0.06856903326368784, 0.10495921401207581, 0.1124089298544583, -0.20739979807898007, -0.13739349828238875, 0.12541399641208076, 0.13059835994574487, 0.1562551176792363, 0.06530436360217635, -0.21597086343984218, 0.1273855381109693, 0.10155046624343733, 0.24473648168607826, -0.25415194198004015, 0.14612485442759246, -0.04644159062472486, 0.0021421327653789292, 0.2629907571031805, -0.12208416833894824, 0.2520198871063663, -0.19189897604491268, -0.13598021391470708, -0.044197358549586285, 0.0848299532169874, 0.13715696173476094, 0.20486485134593221, 0.1706663229517261, 0.03594039067424037, -0.058761687936772014, 0.10525187396482373, -0.043445254422100975, 0.25589543892511996, 0.044242231388245144, 0.15786868519963415, -0.07482031035765926, 0.01520921706673366, 0.20904669096644268, -0.16928895606988542, 0.03922214337259649, 0.221943315481138, 0.22465157768623725, 0.28291090210366726, -0.01334481548656835, -0.1036815006685901, -0.09408329032299495, 0.24578462526227304, -0.09696174986425948, 0.11301927809260653, -0.004602279882284542], [-0.10960348691227123, 0.20545396090856485, -0.520833532096076, 0.2613354952067281, 0.35391740291715107, -0.0036962688991843294, -0.13958849947110175, 0.12496230388595393, 0.2558325894705943, 0.1837022784186605, 0.1351498768173515, 0.04340645414000537, -0.19226672506008258, -0.10626941043443044, 0.3201841838377849, 0.21760345314946403, -0.041522225965357026, 0.1897817405469699, 0.015664002679897086, 0.0008956433971093282, 0.18399230178267123, -0.137648830368895, -0.13956236780713485, -0.14424934414355972, -0.014588749680500036, -0.2268184123064014, -0.08662428466185465, 0.12425105195423226, -0.21880613518063446, -0.06861160689531491, 0.17534244943253682, -0.3602992988849528, 0.20053790392214738, -0.16062499574249856, -0.1094560385244542, 0.27152265406589515, 0.017088749993665754, -0.162613147174604, -0.15419572715358884, -0.06398738940630974, 0.03357256642016702, 0.05723260773318621, 0.17877737150478165, -0.1827680862055152, 0.017359125578474417, -0.7224050278951171, 0.3439822589688865, -0.004850754475724664, 0.10669073745590303, -0.05451764522698393, -0.190670800677638, -0.044055970007328596, -0.10133711490648908, 0.04816388399806383, 0.22750131308459695, -0.1125731239922136, -0.019330087019861074, 0.24059386712234943, 0.07741440063774996, 0.15797615788262467, 0.02532154127906166, 0.001458114384843557, -0.24818609531843341, 0.06993965725129137], [-0.10980638171416138, 0.019853432246843463, -0.46234506327073327, 0.24845549544669787, 0.3431159951925742, -0.39456860213437495, 0.15152227830821202, 0.007149651177878256, 0.07041643185709041, 0.041341927696739875, 0.029418503897570204, -0.07018143222952437, -0.30660144177494775, 0.21634122812103407, 0.1344991225917308, -0.024266134251331718, 0.030914512100313242, 0.06269808125854529, 0.04123530594333518, 0.08641194306004835, -0.14495732325694094, 0.20933125411203388, -0.16099600009504855, 0.17196071537779173, 0.03942465835372261, 0.1869452803824008, 0.24708576326964257, 0.01353738357649878, -0.7755767137764076, 0.23171016988483628, -0.14160834456064939, -0.4333238075701647, -0.12924724070812832, 0.08267134841664718, 0.18405786504952876, -0.12348804398123521, -0.21356240470012763, -0.06357834722365358, 0.22602691850902748, 0.04281866205446687, 0.027628208130694863, 0.2110439643693913, 0.16853924442039647, -0.04947770106857457, 0.19267893466151004, -0.6037659836757368, 0.13032425353560986, 0.23707120911043308, 0.05885551082986658, 0.03464529093201593, -0.22024340991294442, -0.0025528008609882235, 0.3534415786807217, 0.15222973223730785, -0.24921592704695794, -0.07882081291094185, 0.2390056694368442, -0.005695561580960991, 0.12892256047232367, -0.1398069289758679, 0.02855956379844013, -0.04027447395187846, -0.29117622375528496, 0.032837793873021034], [-0.11595599089114915, 0.26928517731931456, -0.25080902823876344, 0.19137908678015159, -0.1857996706808491, -0.0626553081661396, 0.15343838549555727, -0.08861539759952647, 0.13879143780847766, -0.3148513141049893, 0.035287341353880994, 0.2698168123132875, -0.15309160879109837, -0.047249884683739446, 0.03496886173915771, 0.020650044648366308, 0.03619895006890829, -0.1297731087773909, 0.11262287933253606, -0.19412150376636333, 0.15209181573261657, -0.17634557873362308, -0.12259344063928203, 0.17789794719381763, 0.10757739342668647, 0.03539384033561303, -0.3209097255415697, -0.07109432040051093, -0.1401948643574802, 0.12276366105171671, 0.003020464204284483, 0.07098758418554524, 0.2672248551463659, -0.0687454307077275, 0.22300777233961436, 0.07137703446664127, 0.08880763580469335, -0.05502528533858867, -0.059283500139620846, -0.11922326814329014, -0.03782912276926899, -0.04896730945420978, 0.012778046249703589, -0.08472476979487695, -0.12741891720079376, 0.12982394604410255, 0.08891932035555655, -0.07163592941094603, 0.13151235063729688, -0.07288091709354388, 0.061176739120046966, -0.19588258437757572, -0.17863337327370238, -0.13295934007343588, 0.20999828671081988, 0.16186683467601368, 0.03407022368819479, 0.25876572901652883, -0.004319017201762589, -0.21711978899196754, 0.07506051979982073, 0.21021671860303054, 0.15618850661654257, -0.21686274800157657], [0.08530919024803926, 0.21304314832110352, -0.5284526328441477, 0.06723763347407295, 0.31035953738138516, -0.22219946030919982, 0.07628164743986458, -0.3282126291905829, 0.2415899904329829, 0.16670235187749685, 0.2161172605682938, 0.25687565603975915, -0.2576020630114216, 0.16335231722116914, 0.09455754331495177, -0.035326365506704704, -0.18220631688507544, -0.031893895531676306, 0.06229145008034265, 0.05057376676174458, -0.159997526409158, -0.18882083383935722, -0.030252218899959635, -0.03880350529381229, 0.026379896506882536, -0.08634051223671366, 0.07427522431077928, -0.05913761511477951, -0.5786145530349408, 0.18349814739915626, 0.0965591120479741, -0.4392832723302037, 0.23618838283349414, 0.1528051750636879, -0.09183068772413268, -0.09405744898071078, -0.3089007358477361, -0.02268309285621957, -0.08366450189933343, -0.10697588931290862, 0.1705735650101567, -0.1226559823812895, -0.033858071185564255, 0.05017750052609507, -0.05524353321105344, -0.7443757542737116, 0.2961555316028695, 0.17167777535312703, 0.02953190491582897, 0.24953704948953376, -0.08526907786288566, 0.17701368864460987, 0.014197654119392925, -0.03275697915830483, -0.14278149648413732, 0.2727184311409658, 0.011229458363473822, 0.27836465120874515, 0.16988781826739183, 0.05253214588722891, 0.24496372926611534, -0.03460568696215241, -0.36667630457958883, 0.09045248175987615], [0.04004997126969048, -0.38630835572070404, 0.4156668640770473, -0.09520229729151702, 0.14638258192340386, 0.30473654913461784, 0.10367427481132538, 0.12320845852653832, -0.04901584051993144, -0.030894861485548205, 0.04188302546216337, -0.03713098148841304, -0.20485282624138249, -0.06609810029108529, -0.2967022765888597, -0.09225363355693322, -0.22997549032229914, -0.03026693200904157, 0.20377871982322576, -0.2660441694543858, 0.24990840768872774, -0.09590232560387704, -0.12928655357651797, -0.10822311114576111, 0.15699048052072684, -0.15413863104223807, 0.1615106565513039, -0.277629628970044, -0.013891137863927329, 0.13541547927417932, -0.035069300268353434, 0.08613588552381798, -0.08045732852287323, -0.001110984837110719, 0.1826342280065597, -0.09823958324299441, 0.09424802957665616, -0.09544086410508304, -0.08697863608633248, 0.11327314812558147, -0.028440076003153597, -0.04789119728360931, -0.3247809912216736, 0.1438112354599011, -0.20914438716234232, 0.4968632811738159, -0.04730690880104986, 0.18316283056047603, 0.10399965019171516, -0.1619490063942098, 0.10274664578928513, 0.17628255167764068, 0.007808036222930229, 0.009082229491861039, -0.027469235858291797, 0.1162590111390598, -0.026414758301713474, -0.03475710255499435, 0.21259494647576618, 0.0603167186323111, -0.14877565346683985, 0.1813974154182277, -0.2509199449678479, 0.36045693682274327], [-0.1213478797589846, -0.13830773395195453, 0.3692221533938884, -0.0905050202004598, -0.08370134031942982, 0.10699846299855326, -0.026351284713903893, 0.06443802010826598, -0.08551843075287358, 0.26981715996056616, -0.08296867946581389, -0.1419282313687433, -0.06358149568331621, 0.1645697352302796, -0.23973093058967299, -0.039731513473842475, 0.08458339704893167, 0.23384995484474566, -0.19534850949348026, -0.21697856907132057, -0.09687121677968526, 0.1670927520312457, -0.025099598421843762, 0.12885495172358977, 0.08418697338435714, 0.20933484766152005, 0.14487439942188543, -0.11846807707769612, 0.09901150249317175, 0.13602995861935796, -0.03033292638229771, 0.0007383239982759293, -0.1078569875124952, 0.010762278962583957, 0.3133664519061459, 0.07130865029845644, 0.005052492512549317, 0.23808326519320436, -0.017890522597169497, 0.12315848726155874, -0.1834242104165436, 0.10347347567790628, -0.1609466205293482, -0.07711587585441045, -0.34545162535628116, 0.023913342084363395, 0.15048599217800993, 0.1446974474004957, -0.15533055753676941, 0.1625040464395456, 0.09733884027626107, 0.21025593836290976, 0.18112724459141205, -0.08399628871155694, -0.1937594298400542, -0.0737158880796949, -0.15947208340972685, -0.06666325475572865, 0.009785041223238913, 0.1002323739307489, -0.24510203656520274, 0.1818706147456176, -0.11813561168060716, -0.27376323740830255], [-0.0966794814671076, 0.14781405666452152, -0.11334288524707947, -0.16428353092597087, 0.12167941905715507, -0.11774037456478051, -0.14091745914897252, 0.030724500166574076, -0.18945731234826613, 0.02533715563137473, -0.20855376500892092, -0.031006414691232193, -0.036680937823400844, -0.17950960412732445, -0.18096901263897966, 0.03769130690663014, -0.21472241300836065, 0.10033817754436725, -0.056916416629531785, -0.10269948274250082, 0.19530733170033604, -0.20681925113890165, 0.054977185762550895, -0.2087699934171212, -0.05109437583869911, -0.08116429664670413, -0.181717246670806, 0.12262477620984907, 0.03111596041956452, -0.18301873083205766, 0.2066204817706352, -0.16855397054904497, -0.0034301395702140414, -0.203295307703251, -0.04078093265974575, -0.003647790407631357, 0.15428565090831808, 0.07687952514115237, -0.0639656942851479, -0.1367016324226566, -0.196925981584261, -0.07425626263012541, -0.18930181307732605, -0.14033691248231267, 0.06527551906308804, -0.12923241629023263, -0.054594943695621206, -0.2134371949325652, 0.17869379420337322, 0.14759546246991484, -0.17553475805658061, 0.07992055746873622, -0.0035564716220569115, 0.1393832652385143, -0.1391085467276394, -0.13851890049032528, 0.19658893917691994, -0.12632561350439941, -0.02814890924241384, -0.14409594435879863, -0.07578341888999865, -0.07341884657783015, 0.04663827620507993, 0.012613539048531935], [-0.15416542503975506, 0.22014742202740778, 0.21139896381223905, -0.24324623060975914, -0.12446238148034172, 0.15725431363855688, -0.3502147276329789, 0.012752555728478977, -0.14415434060659735, -0.1700424119674247, -0.19394616175481938, 0.03839976901127439, 0.08145810878098479, -0.051536630245310196, -0.2280573361874698, -0.23135676747349873, 0.2587323204679349, -0.020258931747087337, 0.09073108397523395, -0.27776926967526483, -0.2738718372956489, -0.1665637555589842, 0.3337799817215263, 0.09586395850501656, 0.0005798760008660848, 0.18804479557984485, -0.12597861675331834, 0.10890282839253526, -0.0887855932411764, -0.07158362588346266, -0.1597763115961859, 0.0033365737378931778, 0.23291281050765145, -0.3489480284668898, 0.1189371789962675, -0.11132206169803156, 0.06467309167142163, -0.024665769124673224, -0.12864314870837118, -0.22843677750425753, -0.07794349106044313, -0.170440721452951, -0.15369538511092962, 0.052755133483067505, -0.19396417248107548, -0.05460284642421357, -0.08825099075124025, -0.05953065778451756, -0.04277751749948066, -0.16314831083695924, 0.0028273222278404706, 0.06990233923233206, 0.18958582035131033, 0.1798609078256445, -0.09922439541127699, 0.2214642397896188, 0.15568231032066246, -0.04521930625744331, -0.1741811684416934, -0.3155634798969101, -0.26055389501781306, 0.1240210294096898, -0.06641470058261502, 0.3097221822801823], [-0.20013390318223043, 0.13593552671105558, 0.13011607537096526, 0.11848348722593507, 0.05937824643117421, -0.015073991015577217, -0.12072993119065313, -0.3168942491002098, 0.18233507857211545, 0.39897484001710787, -0.1440207727646996, 0.2870652752194547, 0.11570770053604928, 0.15402750706557264, -0.13109378793722723, -0.20566877394714522, -0.03255017306792207, 0.23574157412296404, -0.08683508123266723, -0.1567867401667313, -0.04382702925371987, -0.08758494250259241, 0.11131391684222311, 0.014012181366493919, 0.1350137022582985, -0.2039131185544807, -0.10233497475807206, 0.043627538249103544, 0.1569109279043608, 0.0780027486932498, 0.025239639828022343, 0.14237020450652957, -0.2666183221750956, 0.17894454417338213, 0.2077691269523684, -0.005005023880961681, -0.17957739911188575, 0.09825001220933775, -0.0883186538570069, -0.15681299960516662, 0.03151024165396666, 0.020431583156421074, -0.2859062210990014, -0.17681046158207867, -0.17554193070014004, 0.3595287004616857, -0.21932795805487293, 0.02997538838642113, -0.07161564473349014, 0.0639311518836805, 0.15290028145146634, 0.13650202183790713, -0.03630963618604262, -0.24600461090104475, 0.023573912925340206, 0.03024891617532031, 0.15869310296816197, -0.1532882550709399, -0.01946997097198843, 0.08326064134844535, -0.03313915085084544, 0.13200928733836625, -0.028911560793036035, -0.11595245428540506], [-0.33233917674885954, 0.04131235239566838, 0.0616495915313321, -0.1794427382788655, -0.3152960815164154, 0.2600128679498797, -0.05710693752711331, -0.07932505313229193, 0.06666633680401676, -0.14587142838074132, -0.12164253100189705, -0.36136914810549814, 0.25532373130796077, -0.2152422230004524, -0.3129736961153724, -0.15880923459918303, 0.31570636502763455, -0.21367340965933232, 0.17266986063704576, -0.33561120102663883, -0.4403446158152712, 0.03298113515145077, 0.26797053257551756, 0.0056628170622667505, 0.0917659609201429, -0.0739492509168735, -0.24786704958920214, -0.14773248148547977, 0.08506510866534027, -0.1259651827142294, -0.340371058103271, 0.13052055407967195, 0.2580106107649786, -0.18913889397506622, 0.0013918516715591112, 0.12981317704827006, 0.06590679516065909, 0.14497149494022094, -0.259324551766889, 0.16531540928832233, -0.1372290818957992, -0.12081555440742492, 0.009258553882235869, 0.1783271583351592, -0.2632709638582913, 0.23771836488923462, -0.14581598945479446, -0.19152872095152604, -0.381936383607474, -0.1681971370921909, -0.0003425543205060847, -0.11923031280938258, -0.17640142088573293, 0.02809694446716614, 0.0015405484461836695, -0.08137620795864911, -0.17412721840927528, -0.09327511159085278, -0.29960157382929453, -0.019983699187907395, -0.17529449967081853, -0.2131173721343752, -0.008035003731229146, 0.037774817704387224], [-0.4566336479324641, 0.21753699336596855, -0.087936421481597, -0.11957581397485223, 0.00839405288028732, 0.33803242898024155, -0.223677657890334, 0.08870527459250058, -0.2842577039515224, -0.14066519546933148, -0.02592950606121012, -0.2572514509510019, -0.14027642542874494, -0.25539208702929406, -0.16455267842619334, -0.10640194045154244, 0.06551238007879437, 0.24542832980014234, 0.04610049555576759, -0.21373319053918494, -0.3516050892354288, -0.10039953598126851, 0.24763556132088785, 0.03395523782265021, 0.09879159296253988, 0.15373549153040134, -0.044307492732220316, -0.04677695488744827, -0.13419060336620367, -0.18027123344664858, -0.32840262275872306, 0.08212112297056008, 0.11970713950266451, -0.3523760297014424, -0.018605314675730445, 0.12349855586331128, -0.05642113638175243, 0.03269215297588032, -0.1433284189142477, -0.08452215590176562, 0.1783383755759929, -0.22537426493551438, -0.055531220588883, 0.01665849950182453, -0.26838427949640037, 0.2536762298481088, -0.37237480550684493, -0.09821848644288596, -0.13760402482478926, -0.245856885292281, 0.05603319211077026, -0.3129083383178569, -0.3114790470978365, 0.08548113586642773, 0.1918805186003795, -0.16714503786287685, -0.341526415702416, -0.12627117716691905, -0.25874489737741374, -0.16753680041982869, -0.21978376350749543, 0.1389253502264365, 0.22674430797008613, 0.2521927439193789], [0.23647591117829053, 0.1684678724488231, -0.6119682204171987, 0.2669930501453385, 0.12964758343652907, -0.13588583229628884, -0.12987482057902924, 0.026360523102115282, -0.03966584548129902, 0.07005689674800823, -0.0061668983484021575, 0.32208295400316245, -0.36527257741460173, 0.07051185146964585, -0.023333968205663483, 0.02067136742041148, 0.19878828730416276, 0.0202184933702705, -0.22162372458272434, 0.17261458461210194, -0.03543343064892072, -0.23941342234045884, -0.038065284855036186, 0.07026004844179926, -0.05142521164976028, -0.06408636782237434, 0.14634922649095652, 0.18472313171412696, -0.11364466229046545, 0.13445484389552345, 0.04668132802392484, -0.1283944473224596, 0.2466436365132621, -0.13354336803914257, -0.16606187998935162, 0.26523948930398494, 0.033459559402272125, -0.17520811885570775, 0.12504525299235195, -0.17526297337274033, -0.07774844530105908, 0.020938718740533976, 0.16613784206216475, 0.09137501529217, 0.25273863126598545, -0.4441415945214456, 0.3332123076950803, -0.11869175886967614, 0.10520116278784516, -0.08127281825759342, 0.0605558877153384, 0.07066009638183737, -0.10640020181452378, -0.22189341982044702, -0.05072463727500435, -0.10940468985264548, 0.19909435750408414, 0.09552089691574162, 0.07542255782474665, 0.04833414101880423, -0.11162067732534554, 0.008809181412931907, -0.05093886663884299, 0.17801836736525412], [0.22880369169368947, -0.14146406002234138, 0.20678486573437085, 0.1685948918614047, -0.23013027410223091, 0.259454168814934, 0.05497202680313438, 0.14052720010645978, -0.1374535409121395, 0.23646608511010023, 0.09502935026095127, 0.0020508821710281434, -0.18892046816260238, -0.03237963199578992, 0.047055003089512444, -0.06280526172999933, 0.06223673693983807, 0.04547054847207711, 0.07060495634413105, 0.14415479727909927, 0.006206566149999425, -0.20299360618586476, 0.10020520087337544, 0.047787266559696846, -0.058644507533059075, -0.1330802575082506, 0.19343005218220807, -0.11874366424727739, -0.022793063718538113, 9.464126382454227e-05, 0.06762908759542909, 0.04096587746689735, -0.2875356242924881, 0.21150819295233658, -0.050128526018281924, 0.10773396410237357, 0.1351815251582779, -0.09862853891926927, 0.22878475853275626, 0.18916795929788788, 0.013836217117695003, -0.04555633707614014, -0.1818451882754437, 0.011884957027673978, -0.008876352965404998, 0.024768675637848504, -0.09201043965287468, 0.1131129997986466, 0.06391452938635787, -0.07897170168468573, -0.047109891413788164, -0.10981398651527303, -0.1543907625301857, 0.21854452915240757, -0.14001248305788278, -0.0752831213268166, -0.13925233956398683, -0.09863384041140383, 0.005931676394910594, -0.022191774321534217, 0.08773807628322798, 0.012108594372158733, -0.2908147284569684, 0.19825527474959306], [-0.05934807320153615, -0.011050069143530815, 0.2992231720646925, 0.08702036148998982, -0.16168911961353472, 0.01036277136727568, 0.07463970474364241, -0.09231321580278645, -0.03377642389525104, 0.198144349367585, -0.1718789636133954, -0.26550871999732156, 0.10922624171668993, -0.13063211050010673, -0.08192227965020424, 0.21905735984586994, -0.23534379216315815, 0.1756841345076734, 0.1198650845218896, -0.12789654971509584, 0.3179816750546812, 0.11005559813647837, -0.11897136575231224, 0.0725056874177713, -0.08014540846708791, 0.025856677515628413, -0.007569235182683889, -0.1521428937539374, 0.23062567971873363, 0.1109022953299331, -0.12837128492448804, 0.11387914874374014, -0.268371989529665, 0.17898446461790196, -0.16904921320497412, -0.05729196534646679, 0.18517981486386817, -0.0845339397743465, 0.11690736846240067, -0.13737326227823554, 0.014659377710801433, 0.1821645166168781, -0.006587056422631744, 0.29961277316335144, -0.01604580015583544, 0.10032510082220727, -0.1180417489014782, 0.0584827123747794, 0.11764901366675266, 0.023115721192245253, 0.32196291829060913, 0.11464973159842871, 0.06453446792826142, 0.018240577380105406, 0.18959430400566857, -0.12739939812509798, -0.1064215921953242, -0.07801756221444259, 0.0716496578623123, 0.05764480131435185, 0.07213139616302128, 0.13960295530084602, -0.19064734773118472, -0.040190509594415454], [-0.2274631934800949, 0.17564373129057603, 0.16052971600634688, 0.10717133086752866, -0.03550899199414268, 0.05676104788902342, -0.22541755330302776, -0.09675067843883577, 0.14266903711421006, 0.09579502625272918, -0.1066972964435937, -0.040470912598274844, 0.03115971702430603, 0.16513875702758327, -0.5005540198019519, -0.16693518725715625, -0.053052765240073005, -0.16260753726059143, -0.628871749985555, -0.22642685228894474, -0.11793171355762012, 0.15123245273905198, -0.2997141944398248, 0.127751308165181, 0.22745479037587824, 0.0486925286404538, -0.0914886644907221, -0.03419175050833526, -0.12924632934695568, 0.21554046323522896, -0.07190081977599123, 0.2669084466168496, -0.03830312492489131, -0.08663424609987921, -0.04984260911469204, 0.03889524395826903, -0.2517445279983879, -0.31239991773421943, -0.1535143194943901, -0.21288349298800105, -0.17798321378941068, -0.3477116418749793, 0.06589065988127814, -0.3134011956253308, -0.07513980614946841, 0.2649958983704116, -0.12638202938985804, 0.23312642947473183, -0.08711077128530803, 0.12980235881735222, -0.2830656552446574, 0.17084147438408528, 0.18031299112022195, -0.4347781278499371, -0.055531237747561656, -0.08817878673421457, 0.16197453858290012, 0.1086294015582109, 0.263294024446193, 0.2133455487636407, -0.3101614979185536, 0.011283856448309391, 0.1759868448288157, -0.5783868353518477], [-0.07381310363683623, 0.09999475889316765, 0.11149495849060138, 0.17840424305946886, -0.09090377623677907, -0.025847080665411474, -0.11518378319592876, -0.0001812178638367863, 0.19471968478176738, 0.2857895454317122, 0.14588740816924786, -0.02421241750966511, 0.23839348452514572, 0.2030175326288858, -0.11012596490636675, -0.1472264635354099, 0.0677221919726783, 0.17906555597596546, -0.6403646005459774, -0.08162289932404931, -0.20663861701634004, -0.047032658868768555, -0.06390048307738816, -0.11405277283867801, 0.257486853301733, 0.1668159049865712, 0.06741135416833466, -0.1731261114140713, 0.23838001664847208, -0.12545859538690868, 0.11540796674463197, 0.09925426641486723, -0.1264332859032059, -0.12552404685775756, 0.15462067762099424, 0.19504049036788482, -0.26082602202927524, 0.20837930472322624, 0.04591424525895707, 0.09769911373394713, -0.03507240804337186, -0.23691853531456677, -0.2767530994518989, -0.44570567503604763, -0.3402686122061224, 0.11512757744605533, -0.029347571616550123, 0.14465045708376673, 0.01883975707995072, 0.05804852191245584, -0.16094338448770365, 0.12727476254170259, -0.0715243220348131, -0.14684641967187875, 0.04643461180370587, 0.018613206011622502, -0.2509292712614053, 0.09725445084061202, 0.1793219285926472, 0.22252764381279316, 0.07852290803710069, -0.07895974111058149, 0.0045922598605062795, -0.27903350654970605], [0.15430063292448193, 0.124978113929126, 0.09800873786008885, -0.16015076503814568, 0.08708357905802792, 0.10454557053425013, -0.05995766998411946, -0.18096058009634444, -0.09500332650642694, -0.01223963467477046, 0.15832028193986805, 0.07551010771845615, 0.035349526391960026, 0.18065050622386108, -0.18940998015358593, 0.11486693512642446, 0.11137069733708521, 0.13628398448215823, 0.00798568869660115, 0.14858188615582982, -0.04681370202787719, -0.028868470922611276, -0.2988391989260988, 0.035698277562270266, 0.20121691498614877, -0.041729066481729894, 0.2338297651662539, 0.11565647398058397, 0.1646192259399862, -0.026855253261502298, 0.15226634841460313, 0.12776093279114792, 0.12746631073728662, -0.1422290864696655, 0.14697215447651002, -0.02692943586458558, -0.3056300109689978, -0.20736327128561247, 0.20796470291679958, -0.22008370390143359, 0.12089334026214685, -0.05733161882752686, 0.14308993440374257, -0.29819893992013974, 0.019009231547558004, 0.01049585064569886, -0.05844691581055508, 0.063236658014381, 0.1519036058918261, -0.10072053855798152, -0.15062627728690847, -0.07951174463504318, -0.1387211567060578, -0.3994874867744478, 0.1510890663217297, 0.13678864862568477, 0.025888721381554878, 0.15446852946384915, 0.004316540784246333, -0.05463763975881896, -0.08257924873269867, 0.16389894171687494, -0.2338484200927329, 0.1570989241989817], [-0.04115316283321726, 0.09909688136010057, 0.04979750477953863, -0.22922453749449906, 0.14012798728695836, -0.20847044573953727, 0.16585777534749072, -0.0724300287639858, 0.08310795782415074, -0.019335107076917758, -0.10101758908245918, -0.13040143278997018, -0.12804251764598498, -0.2363705917618756, -0.2586042193083387, -0.0826976884783011, 0.09760100389725061, 0.1239267838733883, -0.35355529330277985, 0.08527529502855824, -0.24627079251025738, -0.04525839204118578, 0.14659989163787565, 0.010155959969884817, 0.07113081204867883, 0.23997291540680826, 0.2765067226258699, 0.20187758639252112, 0.04585661307411967, 0.06177419717040137, -0.2882851877096532, -0.0942671291676039, 0.002598842479160524, -0.1475825240101368, 0.00012191634069760038, -0.08992899019092758, -0.13702989982347502, 0.2297322980374426, -0.08457383831825843, -0.16396936654571176, 0.19436955900959843, -0.12828250681817385, -0.2923216928150113, -0.30772703412243724, -0.343102688497456, -0.04844247816922471, -0.21424746746554707, -0.09453527150488446, -0.04190881912536133, -0.11591416173212914, -0.14336882901252404, 0.09767273059305354, 0.18362766834111394, -0.4896529549727624, -0.03337013030935929, -0.1126841628712062, -0.29820917787834095, -0.05482249511865169, 0.07372105573550479, 0.2831651549302284, -0.35606348969121776, 0.024499433489817087, 0.01967399558952291, -0.33783264885295206], [0.1480454762910541, -0.0937024284316568, -0.03589956248427148, 0.18031551056113493, -0.05843175116873388, -0.1432984044760627, 0.10353870355012065, -0.13444169323138982, 0.12227340570851351, 0.1491829938650112, 0.05155512614055143, -0.27203920229894135, 0.002990956358540455, 0.007518973357037102, 0.1293212577260202, -0.06112471117831289, 0.14632492620248552, 0.015421106269392205, -0.06918938512891072, 0.0033993401786654577, 0.2528969984417155, -0.10976887894554965, -0.026738568408878338, 0.16218352188747415, -0.19724519021151501, -0.07598605104428487, 0.007357173441379927, -0.029100090021044647, 0.10597207945078015, 0.0742146312018143, -0.06918239291016938, -0.12837854241082086, -0.11180036077832076, -0.1668617187122753, -0.04504414048559704, 0.15186711826406424, -0.13746188627689937, 0.022772678439944377, 0.18520696149584026, 0.2194088988837723, 0.06784596624017764, 0.17757950675594122, -0.2193323053052097, 0.04381877164724563, 0.15530734231238558, 0.17785924815482776, -0.08491865122919601, 0.046200551761972575, 0.06756112911718384, 0.184177328766852, 0.14179879975644372, 0.162195602632991, 0.08856451489669498, 0.3015116291148425, -0.07363086234430137, -0.04126330199022374, -0.024047956955685196, -0.2494894060058216, 0.05831971569583163, 0.05032555614830967, -0.09097276401830674, 0.07399464603351279, 0.10671146795232789, 0.2025624693662571], [0.24823091553692914, -0.15498350943139422, 0.09952932752690906, -0.1759870355541089, 0.04272751023994336, -0.1398946180568966, 0.21421563297064455, 0.1781972387212106, -0.19498991749686076, -0.0056187841846451324, -0.008468222379460965, 0.06626799895675084, -0.05205517942867234, -0.08005677597391958, 0.15313888554147365, 0.1168664530566375, 0.08169326843746412, -0.08119800282187097, 0.3391920111279201, -0.021850374534776687, -0.07860134567420873, -0.21905166357379166, -0.08892847676006771, -0.044580623470038425, -0.05650264031468271, -0.44476160041259877, -0.08579420414108743, -0.32022248296745603, -0.033344103292251924, -0.1225405580308351, 0.0683261506921507, -0.2834216566811544, 0.004507671066809928, -0.03254660418249273, -0.15266256324782, -0.1480665596089487, 0.2106561798805944, 0.23716417406553186, -0.23095664559012208, 0.10859533170561307, -0.08532453501505188, 0.24609791839927928, -0.027020348074035562, 0.256893271618256, -0.09410246288889342, 0.07796126491886261, 0.02607207835361928, -0.1716093867479906, 0.08600508158754334, -0.3872300604540909, 0.2504842501502568, -0.08796704046194573, 0.028413471744109645, 0.14390868281643965, -0.19705960051672558, -0.14721324088128204, 0.018714232959969875, -0.17466732519935865, -0.1887935674500649, -0.12329172152914503, -0.08496713750781387, -0.16636292821970844, -0.3258829656478684, 0.05959938343123647], [0.07447866452798575, -0.005704923485274326, -0.6311190269704584, 0.25904775373330224, 0.0418709469102945, -0.46583922487069956, -0.04051836983224396, -0.2078430699498676, 0.06165364939771464, -0.11565171567970425, 0.0400973981956484, 0.13713896135800718, -0.41696291318082745, -0.09556440611680177, 0.05335283113287799, 0.10375601460370652, -0.003840800389795738, -0.03969670856759431, -0.2668720636158535, 0.2800155468307036, -0.0671354890007689, -0.013723015534617317, -0.1548316138657545, -0.07594519943971346, -0.04791840098464138, -0.17946425369554855, 0.13869846619786447, 0.0802126117945891, -0.41318597563941406, 0.2939378479790441, 0.06960164459975657, -0.017165535019418053, 0.09940865260495774, 0.19446885551492366, 0.003406995326163099, 0.12600899075048477, 0.18991469124358462, 0.08860033476896634, 0.15650194848092916, -0.10359463813902416, -0.10321051803958459, 0.3008183194795205, -0.0013545995544581237, -0.18349085490004147, 0.0975094626714229, -0.38065615420024046, 0.021064634820448267, -0.10312958151860839, 0.0463644805084143, 0.20635999366884605, -0.2028754993061862, 0.1267077982426446, 0.2167685987073575, -0.08955603529966824, 0.13467973050781765, 0.03388093129225806, 0.21821089575208752, -0.013477918775012396, -0.10479779623256402, 0.05312865672198073, 0.0899363557625436, 0.07017383766698931, -0.1426319620903469, -0.13005346598078085], [0.010653167137225203, 0.16535925618106603, -0.7154312170768807, 0.07866252095908136, 0.3460687820600049, -0.42000718872267295, 0.08636367032362317, -0.22097041631658532, 0.009806584940073916, -0.22251356460926494, -0.029287086692860963, 0.2480909311361757, -0.3844556147716995, 0.20605016363930218, 0.05492178566850911, 0.14961639397857876, -0.0995119605899031, 0.18572029764294853, -0.20193772105704852, 0.161253031914971, 0.0035841947100580104, -0.0646695445604024, -0.012291215964978251, 0.15138974097620042, 0.0855604886224877, -0.22285088669481876, -0.0848918838689538, -0.09934627397505451, -0.5289232745077029, 0.06666362177154989, -0.08724652749027079, -0.3336025558896178, 0.11017955212964346, -0.024936030386693283, 0.07102699698918247, 0.07271738574611529, 0.06969840112185982, 0.05225162827999623, 0.1945088793785629, 0.00022501795232593224, -0.15700224340274, -0.03732588092497193, -0.02066719559222309, -0.17683433419576042, 0.16169130766644918, -0.3895882776293764, 0.26638609163181975, -0.07418268189083059, -0.007377533695147215, -0.0005713898429386511, -0.08784932747034131, 0.10836539339339599, 0.35149816787551813, -0.19804436099181594, -0.14123135090154493, 0.2556621707145095, 0.1823241807722289, 0.04001494584715641, 0.16208958867751763, 0.18243830932972668, 0.17140844235483707, 0.1921594609656864, -0.12030775706026567, -0.1754678626043377], [-0.14863572395196867, 0.13727679954560743, -0.01326328730079376, 0.13636329046928636, 0.007621799451797029, -0.09940789520705844, -0.0968916267480275, -0.36815402263544644, 0.1679244087404337, 0.14715907785906882, 0.11976215722047338, 0.058418839507343286, 0.2153682248395292, -0.17094322793730485, 0.0016044379767743496, 0.10246414909115402, -0.08374870951945038, -0.2035511862172004, -0.15119342431440638, -0.21561432250211807, 0.06452370978927972, 0.24787713418023063, 0.036294503702447384, -0.047079746382337785, 0.0891859753916212, -0.07377252645250124, -0.028747464945417783, -0.07077536220042609, 0.19889093847732675, -0.0656656313177393, 0.05867065272075385, 0.23122328747178406, 0.12435701170137957, 0.08817627443428905, 0.015022103105701987, 0.13180612794716123, -0.25346335972593714, -0.08725369339283505, 0.16741996146324292, -0.3079056420206128, 0.11102171449602719, 0.09694267761984784, 0.17521399946189536, -0.35872008543614137, -0.01748936882699576, 0.26938295236258797, -0.22185141446116474, 0.11727275176997455, 0.13181531501215335, 0.1053711631479751, -0.023323773455697437, 0.20864058414629422, -0.05484299124500727, -0.27588692453963914, -0.07753690024908355, -0.04262084411301361, 0.0531494746474408, -0.05310904466058393, 0.05935642294991525, -0.012409786430278343, -0.009111758780013185, -0.14762317122692656, 0.041832187677137096, 0.15193682366993508], [0.021201685318575622, -0.2971468631025051, 0.46390929874466064, -0.059232374702320026, -0.12473885808312826, 0.2130693105819827, 0.17032672623056494, -0.08272444697313101, 0.05279948308754347, -0.10175294901212409, -0.15528234151370315, -0.006133221947423605, -0.05181679631221191, 0.012710308894336214, 0.07966551615979833, -0.12874999144778237, 0.03796688514368794, -0.12371510178155219, 0.33288998308118556, 0.11541133060222959, -0.08006774401097026, -0.01767327965643942, 0.1595960185704676, -0.17191968828212373, 0.0353207223682073, 0.026563181224316078, 0.07666106762677147, -0.16852028934597224, 0.22425752378756583, 0.03349778110109586, -0.17760700777145041, 0.09822919592937598, -0.002598061387378592, 0.17699878676390676, -0.05377849945415681, -0.2119699445435894, -0.10637816238370645, 0.1967333681757682, -0.15382508539118528, 0.18943944428268827, -0.07093808294281764, -0.08156952855119455, -0.08693123198993805, 0.2518644928423757, 0.10153460411298706, 0.1436421931501819, 0.03681156113456638, -0.18144442089343019, 0.03947775789882618, -0.22857324647246782, 0.31007512493108347, -0.027843788156811697, -0.17993565033413805, 0.32288361024454043, -0.29324910970363355, -0.12287574491130383, -0.19399601675142386, 0.14235664722577185, -0.19438932740819975, 0.025340089686705185, -0.15024853407822822, 0.09568602787262499, -0.1048331172987019, 0.3596309672828082], [0.09358260034242838, 0.10571943522650323, -0.08023063429147079, -0.148819585093387, -0.05645011848235262, -0.2007616825800186, -0.11107687983664212, 0.04233920842087399, -0.13646505315457955, -0.19976489679596127, 0.02744191327437548, 0.1214636619198971, -0.13460345530955303, 0.18322323331480445, -0.06853286175115167, 0.006398651783939932, 0.0503999208487677, 0.020963322937433387, 0.02832224337346423, -0.17170731045729667, -0.007066234616729803, 0.1011242400401, -0.15524785792040569, 0.17823867055866838, -0.18903398095190194, 0.11410994430428059, -0.04894949034990198, -0.09632825925402318, 0.1513543001686074, 0.13174418687275868, 0.04634299933286723, -0.05143261182533679, 0.11810583921929088, -0.15125745734261514, -0.04331168641826699, -0.04137307696524071, -0.15500933958328084, -0.047048944313365704, -0.057313685099736916, -0.15441760609319935, -0.1597168852327474, 0.19442333848179155, -0.18673376696192676, -0.17017410599004273, 0.2021223034844959, 0.19499718364539304, -0.07126978966802827, -0.17199723590670934, 0.047051272560387214, -0.02680469108717784, 0.18831077860301315, -0.16799271925157896, 0.11320569369913365, -0.2131667031518337, -0.1265899864254805, -0.09380544215964991, -0.14530724424862385, 0.12772592496710716, -0.1413404207664185, -0.016997339347149698, -0.1604995779955593, 0.11951822965017045, 0.07416263004039192, -0.2024798571366913], [-0.08368606141934773, -0.013401896645930902, 0.17349210214451646, -0.0604904667690504, 0.032378516864706476, 0.1941733000771371, 0.07777430877954057, -0.19149373819484936, 0.014355940143507861, 0.22776370611985167, -0.13651945031503487, 0.0637834220132313, 0.04037315990827342, 0.08914867171834173, -0.07551064792890713, -0.0037627259667518402, -0.2145351744269522, 0.22452826716865834, -0.0259096950090589, -0.12151736497887157, 0.034780642075051826, 0.23549828893740923, 0.06908036782854335, -0.2111478107762937, 0.2342872318892283, -0.10517991229732046, -0.13744286198737946, 0.07028090066385739, 0.2705152031612424, 0.17270536351515564, -0.16779979822854307, 0.0582566174524976, -0.20572522771878426, -0.0351263023545904, -0.0902472186482951, 0.1273592610642098, -0.08309326900244346, 0.2656812256908741, 0.02604577667080232, 0.10936452033864377, 0.08745315412255586, 0.1257439821537804, 0.08615935054300139, -0.0907613153462094, -0.0708141065161116, 0.17258879691140674, -0.18868213841535764, 0.15408226457465732, 0.03544313254390876, 0.09191845249565272, 0.28749956248991587, 0.0953607750879819, 0.11055152266591001, 0.01544162955291711, -0.06134230788224746, 0.1563142531495473, -0.1697209914242634, -0.09024612392188595, -0.06827502885566276, 0.2168674869023734, -0.15555067755812177, -0.0964677245404163, 0.1317480360679505, -0.07361644945133092], [0.014148691514522723, -0.12946699006074763, 0.2643901388331069, 0.1639834463542803, 0.10673015791688602, 0.2001206427068029, -0.21590492693408003, -0.3107130418374123, 0.15308131910934242, 0.09781842402153502, 0.11219356612552306, -0.09794269769246096, 0.13272846206663547, -0.11837158104332283, -0.1731024179801635, 0.040103387865703284, -0.19632293300147005, -0.11722801260354813, -0.24104730432766378, -0.17125856089107863, 0.04995338582738214, 0.1315083997061843, -0.08894488343531268, 0.02175687456651159, 0.030481284600313185, -0.03515960793870924, -0.0927866791816053, 0.10419406968337483, -0.0760780585364188, -0.15032115487879696, 0.022967164751730943, 0.04184598247948997, -0.12885038819369338, 0.08200202747713836, 0.21017440512048924, 0.05294253628659694, -0.3027633097751405, -0.03428714599861992, 0.15715812758206776, -0.24780925843527177, -0.09539144657711433, -0.19399910709270998, 0.030959295523547974, -0.035040166471041495, 0.03025892293081041, 0.2380748080823909, 0.05227239318173784, -0.015691272605616167, -0.06314335628643401, 0.04666956273780668, -0.2650736580452051, 0.24567337066509368, 0.16449084870004757, -0.29768726885254077, 0.06367964014716344, -0.15542512414437745, -0.2620585434660004, -0.23161845338050274, 0.10670446122913532, 0.045531821783843685, 0.0687073541699552, 0.008135549378037687, 0.1916973441913983, 0.08139184808308841], [-0.21294289571225092, -0.0799200538749944, -0.053729967442587595, -0.09843194588549234, -0.21937219700709826, 0.10153977994153317, -0.1661192523683248, 0.06170246622119755, -0.08683234081995869, -0.014003135130496907, -0.0100869319512507, 0.009824341062978923, -0.11709875664769875, -0.04918394116616552, -0.11200845198580624, 0.1423801480032968, 0.06570186023772287, -0.08322255984932328, -0.12525257902293666, -0.25978351615768386, -0.18870935716443846, 0.07673053587252984, -0.11050256513268258, 0.05289222166710308, 0.1865753131746318, -0.17508283338442157, 0.14611828804311894, -0.14462210909399004, 0.16208076132522034, 0.032151121799159396, 0.11503227990999272, -0.07454179761091502, -0.09115353035667458, -0.012242254511434488, 0.03422118422314148, 0.1270313730194386, -0.20616087670491406, -0.05262520482079017, -0.166041759795554, -0.09158564827403219, -0.12041713262265795, -0.17707113799107146, -0.1681473026086545, 0.2064176920172192, 0.03230656724623524, 0.04022871500876159, 0.079620484919139, 0.031189671471252227, -0.029287646189642, -0.026833612979582828, -0.2070996239765759, 0.04525673975689976, -0.1405484331709441, 0.14266967645257733, -0.034194280707069265, 0.03702618490472498, -0.08813772357898096, -0.22066566216071073, -0.016411366786110944, 0.1781830859323203, -0.2108749926148839, -0.17107070229046464, 0.1483831883480247, -0.07764463650744273], [0.00924117144676444, 0.11664203532178534, -0.15057069460029107, 0.1720173011703056, -0.008166333628070227, 0.0011415564176383301, -0.21255249875499657, 0.2746148122172397, 0.08737307208739964, -0.1865945834849084, -0.08307708592040329, 0.1013567810704561, -0.16026601236686766, -0.03647487563544999, 0.12409151119642099, -0.015290602789727943, 0.13058431374478052, 0.21680101127977608, -0.15507975381399947, 0.03780072389893427, -0.2242076256448728, 0.10148649748071106, 0.04373873503932199, 0.261025820118401, 0.03802766543678777, 0.010254729741879395, -0.01654606073998253, 0.02276676398258889, -0.13738178836331266, 0.05297977055621493, 0.0006785255078009949, 0.06013531137739184, 0.24954885002903163, -0.058219129892139725, 0.11456967198492801, -0.02135225444849892, -0.04916917825217048, 0.20224738113008414, -0.12465942356096282, 0.047278127588296234, 0.16988221017170463, 0.09940137600367056, -0.07763131587785999, -0.048329385212363275, 0.1913636164899688, -0.2473994701127772, 0.28614914841968686, -0.011504271621130534, 0.023767259638121502, -0.039296990030361106, -0.08658784724849576, -0.025918612493596196, 0.1911989693533324, -0.19088456934651993, 0.25024995431777036, -0.11146908602562443, 0.10939918868801392, 0.19271334121156283, 0.055366856977541325, -0.04314212113614324, 0.07641685416031263, 0.18591393515445118, 0.013510285166478639, -0.16576861210955532], [-0.05276839897439518, 0.03798094714735453, -0.04446544649364912, -0.010162352020204065, -0.14466148532518272, -0.05833136177020761, -0.04110980129798025, -0.046730633182412495, 0.09944998346725886, 0.38280069808665984, -0.2829330757855894, 0.18392021735020214, -0.00047223635428487933, -0.00612750260010483, -0.25864859241630794, 0.09644757288736984, -0.11839227564273117, -0.008375893949336735, -0.7313159114168214, -0.21408248890181691, 0.07474864465095248, 0.275950104839938, -0.06423702988565251, 0.1623391001490828, 0.26690876363764987, 0.07180449201141675, 0.1005153669828594, -0.12728025254773676, 0.09660218951960915, 0.06768284527532545, 0.12229964501135947, 0.3764021651331504, -0.18100590992465548, -0.05550215069393328, 0.11913141376603269, 0.22443828882939937, -0.14327339407078438, -0.027426764259258087, -0.07801583279492846, -0.3099522319112082, -0.141657075505733, -0.1090519574280475, 0.011837627679344317, -0.44203337807807586, -0.14728487714681548, -0.1417430637103284, 0.17146579450934965, 0.23709495948879286, 0.0693355583410877, 0.1995070090037969, -0.21520704885719616, 0.15361082835713086, 0.09694885454933275, -0.42688510032087734, 0.09736811074619812, -0.13014170867826474, -0.15988177369302248, -0.08290064170960956, -0.014409359192904397, 0.13978846677977602, -0.24562092763336066, -0.12669408014970712, 0.1021970948473721, -0.7719083111628458], [0.05397052546367462, -0.10599634562746493, -0.4525441716433021, 0.17700620994947955, 0.03883362354879564, -0.31980783285522374, -0.07337267789587469, -0.14934184766005096, -0.034071987345495054, 0.056391303757597044, 0.1890711390551823, 0.02596312319767219, -0.19132216764978283, 0.16143234628879694, 0.2744466014603906, 0.3124454541479084, 0.1181811798361716, 0.207051944915332, -0.350454722286718, 0.08216662393125575, -0.23089373665716695, -0.1898646404235363, -0.24755850584907987, 0.17884407571275499, -0.024873796241825553, -0.010354627571440757, -0.049756678896779934, -0.06417750095699538, -0.32273776182056874, 0.15015215169422289, -0.1559577947592511, -0.2877695342951445, -0.24831648040802476, -0.07057484351535338, 0.1775030013060602, 0.1082690205786425, -0.26171261881058344, 0.0019459260208513377, 0.004947095314405414, 0.061120444906080304, -0.04913881869891104, 0.16867626008257985, 0.26095749561316695, 0.027153298185097572, -0.07967802717928317, -0.6518005161337042, 0.33165944665390135, 0.19844972843544756, 0.21111233160243473, -0.13040013133395467, -0.1157038712146631, 0.09066867703693123, 0.08366554985217778, -0.31092532193188205, -0.2018140994625124, 0.19020945386813318, 0.3213580048539736, -0.05984635752248118, -0.1401029079895525, 0.08465430058609708, -0.08168225629299727, -0.07382365866212759, 0.006851327903330783, 0.01043956735890965], [-0.41183555843639397, 0.023887286205467092, 0.04681889975810238, -0.3876855025858161, -0.033759565760985384, 0.016139612003977358, -0.10458990725667643, 0.3000625383547921, 0.044999158958820104, -0.2828671251217163, -0.0007236310997707024, -0.197188693787256, 0.20962470625049623, -0.05731956526732989, 0.07203157923981603, -0.14541526007261985, -0.008502411708445822, -0.15836400782785345, 0.0955834438615229, 0.12333162495853367, -0.38188438979169553, 0.0657423451615813, 0.011767668506951755, 0.006048875959258787, 0.3565660874892333, -0.11116768150145448, -0.014864463259019974, -0.008724755818867886, 0.20802078108791394, 0.10009429154865658, -0.3322436364367856, -0.22211962268164379, 0.2944025003531557, -0.10054944939834146, 0.050188126197665585, -0.11293258946983153, 0.25138175719096484, 0.0931752114506722, -0.051238307963182364, 0.05611498216346554, 0.24680383407555023, 0.027208001624963476, 0.12588292948292584, 0.30571996159484705, -0.03811345370139875, -0.09110551461800628, -0.09909332519671768, 0.12789196605087555, -0.32048670642687455, -0.10550848785655727, -0.03381032182438706, -0.2593952165154849, -0.006786460756120836, -0.07684120448394023, -0.10631631634344897, 0.07824820894129154, 0.04404331376865613, 0.007721537105362243, -0.2772847094502884, -0.14808186651396657, 0.01982624481416456, -0.020376806075646316, 0.273602955377954, 0.19920673179751708], [-0.13613671255657345, -0.2116435459317726, -0.022285438045447137, 0.02419415118811937, 0.09274531846413857, 0.009243294362786475, 0.0356866187578573, 0.10364074413018708, -0.1895496019114986, 0.31560095884742245, 0.03916937812782733, 0.06171957435084605, 0.14498521488591543, 0.15953255594043098, -0.20418973349235015, -0.05476261003220608, -0.03441813505188536, -0.06842708345744879, 0.19590269300415927, 0.15657959503594818, 0.16510232587569187, -0.15488971526516454, -0.14955770711447944, 0.1660379032298798, -0.15538995173137768, 0.1451505931952293, 0.2417886007435346, -0.16080360880902209, 0.15193276333520758, 0.13406022444877155, 0.1737760402020111, 0.23147887296756728, 0.05628176145456336, 0.1388414156239527, 0.09127207935010706, -0.15799522555087842, -0.06481123307916527, 0.19107728205891852, 0.13690044117784028, 0.24619872481141739, 0.12730137887705087, 0.11391108415266783, -0.041834980984309295, -0.09270452533657195, -0.07768547721095635, 0.3401094165929007, -0.275846604909997, 0.20133974485641323, -0.15729512101511778, 0.16283154652249804, -0.03850145241489474, -0.06780497976002196, -0.08011108776805032, 0.04810204543770267, 0.131586760118476, -0.15083770735356125, 0.044443031850057345, -0.13258282066504465, -0.10370181244329292, 0.27561000081735443, 0.08077454690998684, -0.022882023289322463, 0.050525435713795114, 0.22867533058389425], [-0.07072260550859104, 0.11174473356677204, -0.21110257944284727, 0.032005930746061347, 0.1299120001020475, -0.027996449744611383, -0.10598107769804846, 0.23950341717893753, -0.08054370851695633, -0.160926341263722, 0.00789037868460135, -0.02071917547160321, 0.13649287007232558, -0.02389820122408554, -0.01126506194582557, -0.19778612137012022, -0.0037030994844700895, 0.03809379611596811, -0.30619375678321414, 0.23411723726650574, 0.1387237586931641, -0.18919987110370712, -0.18579529724867824, 0.04277134747521296, -0.10312526554281712, -0.1268304754187702, -0.19267268291841624, 0.03983262025334471, 0.08852842284691162, 0.22472427642351547, -0.026800753537715674, -0.12872319564368243, 0.16247942267789417, -0.05151000959871094, 0.22979773565245534, 0.1316690502354513, 0.08710734710187143, 0.04181068685157063, 0.07596111826789607, 0.030927032014835567, -0.008072755986191915, -0.009376639199358517, -0.014437639803340202, -0.10824724219402633, 0.1596380587884884, -0.16998595040289644, 0.23748998421394932, -0.10194198651699576, -0.10784254134254179, 0.11474158907724469, -0.16194527548035723, 0.1964731481059418, -0.14417658557613813, 0.10431708603552842, 0.07806190519426746, 0.07221772111217302, 0.15118111343136137, -0.04077167515569178, 0.05043450159821083, -0.14385228435585398, 0.10939354325649478, 0.0795802089458547, 0.21685104232298386, 0.06981909818104927], [-0.14334912006591294, -0.10574547295942421, 0.20191901077317012, 0.2671340294304686, -0.10199336907362767, -0.09257941629502968, 0.21051954993392305, 0.0475324132327785, -0.05560159238705886, 0.2705539829971553, 0.15034415370792711, 0.08988282708221393, 0.31077126717158676, 0.19372699757444709, -0.20200343436415985, -0.09620887213475077, -0.14194758540248134, -0.046085175561567035, -0.5624663993912379, -0.31773017051981545, -0.1370005792173135, 0.26337679179667883, -0.2546152302036454, -0.15159343727969107, 0.05399213649417901, -0.009343204407697621, -0.041095996371738545, -0.017861915320320488, 0.06847933746891782, 0.16187356801139355, 0.030142499349235446, 0.29238410869055054, 0.09868032519737444, -0.05181008481474885, 0.016526158405033284, 0.2906009905014907, -0.10515326688738456, -0.32918691704683045, 0.21540967419303886, -0.4539459149381728, 0.10434783222430527, -0.11645558347614118, -0.303952220492261, -0.3358832867249447, -0.37491208102621887, 0.31781949786387065, 0.1674011093621224, -0.11387029336583739, 0.08791681838637981, 0.01628407718386174, -0.10109628211739033, 0.08139976134216792, -0.04556966160958764, -0.49969144789860453, -0.09386400408566564, -0.13648452993056445, 0.14112774546862317, -0.14722224766766595, 0.3350476301357786, 0.251929064766585, -0.13860101334292732, -0.05912172364326823, 0.012708197533703352, -0.6159274841328878], [-0.07968564741076675, -0.13357475981948413, -0.20797575995432316, -0.009869515891151454, 0.10570704392295915, 0.1355499734247353, -0.09274036528597125, 0.14314772572333856, 0.09782645811439311, 0.08937910832202828, -0.014563063071482224, 0.012902603305870064, -0.16111483774687407, 0.1545978218531353, 0.06742678515857425, -0.056481102466116845, -0.044399713631482846, -0.03252589768153874, -0.03546045025609712, -0.1422043775677868, -0.11719489306644615, -0.14536815120768343, 0.09664021212110241, -0.19693637579276935, -0.02945058481426549, -0.19780389211580718, -0.15381943920133945, -0.04173163667327609, -0.11282468247907439, -0.13537972990743974, -0.019785399725616742, -0.06134847843663335, -0.13223054268826057, -0.09550242969284466, -0.15499692364121875, 0.0418324216943356, -0.026716855312329146, 0.016050381959491794, 0.03171051712026146, 0.15897752531862347, -0.06593362469076042, 0.025719462019271333, -0.08722577592943204, -0.08957049011841128, -0.042961039415824326, -0.06380792748928193, 0.08129047904776338, -0.0332822619426941, -0.19484014219772217, -0.21639876084884202, -0.033081348937425176, -0.03903120977724428, 0.041590405831326394, -0.06894869190568967, 0.16053560450693816, 0.04837469426467739, 0.0992828985948368, -0.15138247453724296, -0.11317000574483643, -0.04106985240599614, 0.04817296128059867, -0.1396254401531408, 0.12188275893158784, -0.07520853777685146], [-0.07011118146428555, 0.1934657130686148, -0.16704271128348538, -0.060833895699667344, 0.11307904852011308, 0.30165510978542787, -0.22110351332909906, -0.09888588633233733, -0.07027001603636603, -0.0355461210047326, -0.045708939204016294, -0.2360718100709642, -0.16790909942367074, -0.18768649591605246, 0.11305520046434359, -0.20786076433778264, 0.2656063443488963, -0.0045727724005389155, 0.16635404380358926, -0.1367609654122408, -0.0006438968901927598, 0.0005785924918264236, -0.09603970651494524, -0.0075059959963615875, 0.2410959104645472, 0.01581095938627751, -0.35147355127073066, 0.08166259205096589, 0.07802257061454788, 0.06517023159395882, -0.3535980218380854, -0.14737486751035292, -0.08609875020135836, -0.3069964871907754, 0.10297900039218826, -0.0820941913501496, -0.05380463482736978, 0.09284467091111182, -0.01972587174830328, 0.034130947201937635, 0.22761049210016673, -0.2262156624930264, -0.21004541058822473, 0.10171505355646321, 0.0516202511109768, 0.07770564267727667, 0.1382567525379306, -0.07205941376276409, -0.07690585099158267, -0.06906474775920089, -0.16543377765233136, 0.016098365515032836, -0.17809302268680766, 0.029775318312113087, 0.16883646381111686, 0.1569145641649305, -0.14112804742640933, 0.0665832435302775, -0.29270279167319585, 0.034313008691810074, 0.003339665997226205, -0.14576685133862616, 0.13702405337468127, 0.16380967699426047], [-0.21431778853977607, 0.194554769513745, -0.04285599820135251, 0.082222208988741, 0.009943155613177376, -0.05305217415207222, -0.2524787121599279, 0.052043213875847164, 0.1549115827968147, -0.16486930431495894, -0.0555114213414945, -0.04110054767983519, 0.029512556069865293, 0.1455368609798618, -0.16903834733858408, -0.22825545431925837, 0.10943335042483107, 0.10180377167340252, 0.016545643153961315, 0.09699981781537842, 0.0865987720768215, -0.13946489176005922, 0.014033357176007814, 0.05513896161186743, 0.1292608056622492, 0.2448889904149225, 0.017722984693972002, 0.09004474237762683, 0.1716675496648963, -0.22330769970445788, 0.06224075436444845, 0.13270623760133776, 0.1660678795773339, 0.027578684979720783, 0.042382822568835944, -0.17980539088371122, -0.12345682812163057, 0.08080751648193579, -0.14373644238841912, 0.0921279880694864, -0.10648817852586041, 0.0806331020853249, 0.047890093672144175, 0.14563009408458558, -0.14771725243598546, 0.03247203499268259, 0.009237923379054094, 0.20432736478552627, -0.1175513863098974, -0.1020974065769411, -0.003876751688120671, 0.04188250370163176, 0.04885555685340215, 0.1260622875570047, 0.2542793498242773, 0.1514901002616649, 0.1259193405439352, 0.19116582119862918, 0.041861914735832464, -0.3831303742254793, 0.1613184389442436, -0.02442042977388176, 0.153872161439351, -0.1946235064097696], [-0.4654325750020971, 0.2149177188503745, 0.22199454724528722, -0.05889104899716818, -0.22444546077047148, 0.14653843815147855, -0.3313829996698233, -0.041041720927693905, -0.12501514561446614, -0.04820225785738219, -0.13822248687898012, -0.018174096646954033, 0.13917780373927072, -0.3402844103423777, 0.1504143919211703, -0.20993618313422388, 0.059895314867978694, 0.04780453358326797, 0.1527010120420299, -0.3489099900445873, -0.12144314574014628, 0.19090679894402476, 0.22210133742858884, 0.1248963743507616, 0.06131900498641075, -0.02048182954538491, -0.2996014264772033, -0.0430847846899682, 0.1128392832641927, -0.010082215038224453, -0.3037384724112753, -0.052160862585211965, 0.12180358218911629, -0.34088340172796966, -0.008998705295528993, 0.15027398521397076, 0.3158411714251942, 0.1589847714328905, 0.04842961718679934, 0.11197451163541618, 0.19006465887196763, -0.18550364033659628, -0.06325567522586269, 0.1210564165263962, 0.036250701995860994, 0.21921896780298533, -0.2645051613083448, -0.1017084717853172, -0.2555389057797406, 0.1699758590193323, -0.2517421533243063, -0.23371468355710995, -0.13448881924446462, 0.22159282267101615, 0.26697527713365127, -0.15170633785652154, -0.27639637646941406, -0.03553230967980682, -0.1496657285204447, -0.2481335872069194, 0.004219716339760726, -0.1104325417536389, 0.09079238856241982, -0.017082475621253635], [0.18795079545092427, -0.11143764266466516, 0.4641462371967892, 0.04878892598550112, -0.23696778508768512, 0.04870931255629568, 0.23329140611272323, -0.25565624712682583, 0.11665735244527853, 0.3124284508258792, -0.13947484638253066, -0.22361362784729086, 0.11651327617366229, -0.18423551584708311, 0.052440630524674674, -0.16852963890715716, -0.09854308122790205, -0.18204000521942668, 0.07182250902450421, 0.05229768812375375, 0.1514893585684639, -0.09678476586647147, -0.12226184001299024, 0.02796801184411642, 0.25555699011205957, -0.09568196602208447, 0.11693998331059059, -0.23757753467750242, 0.09772212104996361, 0.13565761722124636, 0.020633553040963377, 0.05076252307370686, -0.011088287256811135, 0.05366103584614225, -0.018446571398932424, 0.13698909253550923, 0.1290155423794438, 0.0218995285730513, 0.08454528567608459, 0.09546154289104886, -0.11418049097599318, -0.1146756514056099, -0.05933976368414289, 0.03968098574473049, 0.0370987754878456, 0.38759603319394687, -0.02927036978725781, -0.10493496961351655, 0.011043111724703644, 0.2231798784375107, 0.10637561913420049, -0.11100794144617884, 0.08483443293469822, 0.3325560621072339, -0.03609180673505697, 0.031273795436275946, -0.09391006176734347, -0.046577945882209204, 0.17139369993023545, 0.06647247390214786, -0.051091806175602425, -0.16254792275461338, -0.06482874981857685, 0.326257508175801], [-0.2648942874961813, 0.12950723439686046, -0.10668794741416242, 0.09214784715173167, 0.0748313776056471, 0.14508474018827988, 0.1219749781837901, -0.08280425540421162, 0.05937095943684857, 0.1138394049592472, 0.0793333065068713, 0.2531666161994531, -0.057104235338072656, -0.09151817646963507, -0.158955712693946, -0.14831558777639245, 0.10204543024679463, -0.07161186259978239, -0.34785732568466154, 0.02611658603248614, -0.20960835819088203, 0.2024994408997455, -0.22580320412287866, 0.05502007977992251, -0.15536698709874097, -0.20530424961085542, 0.03420333448210719, 0.005371280553172094, 0.19922501773437662, 0.24647818141858274, -0.0537427445528735, -0.04613179684999646, -0.003629028396259902, 0.011139293978103412, 0.162160433788311, 0.15872888850398606, -0.034288055125037284, -0.05517616739201732, -0.10247622383872663, -0.2679223598437113, -0.1003083791389846, 0.10069453399944969, -0.1847966903804118, -0.22941307580081646, -0.25069613628427373, 0.2081132145589637, -0.04488442917349119, 0.06069401687584978, -0.024978052282565347, 0.26908679523337314, -0.17648644159481494, 0.1466408349884034, -0.04735051930308818, -0.4242748686027363, 0.055743161150642526, -0.04559701355830575, -0.06230689612033037, -0.1347751319398789, 0.31282174907047544, 0.19082032031028512, -0.041814649620409546, 0.10626393684486718, 0.18206985690044367, -0.4883604388778949], [-0.11031787065609025, -0.012214760610267801, -0.07277316076084941, -0.012830181000112073, -0.19939805915422087, 0.19248783500753233, 0.18660006659625936, 0.182660682201216, -0.2513465003246247, -0.32102894448158387, -0.24785429120697727, -0.20229627749876866, -0.30690526478517327, 0.14278232447066636, 0.06622906104018599, 0.02046057722072825, -0.13364372268372982, 0.046769719364270546, 0.0976420387370773, -0.13239634569227193, -0.13169371699865653, -0.06810785584842705, 0.07142680475321529, -0.08595839962958834, -0.02901117662744502, -0.47465142102842606, 0.049687684554080146, -0.0602666208448432, -0.17614071513542034, -0.17324413446778422, -0.2231324493703895, -0.15046599787423393, -0.04984980524087265, 0.10534686555744556, 0.0429344125898461, -0.129514551016204, 0.08101551084167592, 0.21772299062642012, -0.2501852585523258, 0.028479318085693744, -0.013626509903914055, -0.16034319155852608, -0.20842842275629075, 0.03253533470171033, 0.04841277956314126, -0.23986341191293747, -0.4937712141108006, 0.19597581397700134, -0.07309477654556261, -0.16916941688039006, 0.2250659982412721, 0.08074155195034889, -0.12966936849843844, 0.12693590435816346, -0.26278556013400783, 0.13784163652244635, -0.3523860542327449, -0.1332888699337267, -0.1703140918501824, -0.21578385290658628, 0.06151108420768789, -0.07175169682936328, -0.17176454534667454, 0.04859253602905347], [-0.16738550414392311, -0.04758770508850078, 0.15384372905532306, 0.09623242008807609, 0.12007577845297288, 0.04893691634614347, -0.22328691113170487, -0.25484780017041064, -0.12940602072750426, -0.04629811199827027, 0.06719592038806607, -0.10895564292199306, 0.0555509106613246, -0.022741450002191254, -0.18177888442739373, 0.21993043775229165, -0.05881640569877598, -0.21603121635831796, -0.5677747215878551, -0.05865259361942991, -0.2594631869490759, 0.09600021065095106, -0.07107295660511254, 0.10940212552444463, 0.09266250904646871, 0.18891082513125682, 0.1277040426170869, 0.12806555995307134, 0.10409832516182396, 0.012506267012192004, 0.1275799806720092, 0.264094157893277, -0.041345408387545725, 0.14646871942635237, 0.014962922786374535, 0.10543258490561855, -0.2463249742714806, 0.07229986625365667, -0.15902013567979784, -0.05615080741681519, 0.12352637416124587, -0.20716210786303976, -0.2259697315767899, -0.5927364714895491, -0.17447367953450685, 0.0501194611744923, 0.12987823385280925, 0.1525075518416988, 0.04665282313572004, 0.1153189546579348, 0.04065811105498109, 0.10368364947757808, -0.14220869755350884, -0.4519127674996522, -0.09024552346694083, 0.11321749849445878, 0.07801331660356625, 0.035023713353444244, 0.22967602002308024, -0.029388376301326805, -0.023870690980867897, 0.009202838550019465, -0.09648491405528693, -0.060702586544019034], [-0.3754649873134279, 0.0008776007389149569, 0.24413102038792156, -0.17723454753066264, -0.3413469040444586, 0.16820050067124334, -0.12534547602474033, 0.0034114328029223634, -0.2400754850439705, 0.14601316346569462, -0.03664347344152292, 0.07770477993153761, 0.26096030014949084, -0.24603281039793137, -0.18625866532274385, 0.07474221210171796, 0.15672602072972677, -0.03499174980477135, -0.14078813822617406, -0.07635682346199751, -0.04741168255347782, -0.24736722093042746, -0.013804683238765488, -0.10053964543987717, 0.25081468072442625, 0.010117307566929409, -0.03273949595460045, 0.13067694639619173, -0.04128575498616269, -0.06369650467979043, -0.2654701552280196, -0.046564226406305996, 0.1867143657037947, -0.17730465752751717, 0.16450624151587132, -0.17491939808896312, 0.24076055319395834, 0.13587754461645127, 0.04097502790344134, 0.21583834604765265, 0.05298954744200194, -0.1363701430558913, -0.05604717395545086, -0.1528039051446123, -0.04538900842495667, 0.06261667000711431, -0.388302455687243, -0.1165867960301244, -0.018387052065491183, -0.2707705554466948, -0.06760105080250728, -0.192422915690548, -0.31676386597498574, -0.1500328732500943, 0.23605522525337136, 0.07329425568137632, -0.1815863779254597, 0.014122296230394175, -0.3080374103819361, 0.04223370952358526, -0.25321664748271977, 0.09867041519863227, 0.32417072424275756, 0.19089600331897846], [-0.3281212539550132, 0.12127904684315292, -0.03581028760532984, -0.30084661466423585, 0.10528000940530917, 0.12039698672604028, -0.2021136948210403, -0.012033602561532318, -0.12800290768110073, -0.02621817191297417, 0.14311655925761457, -0.11241015628444119, 0.19649027390481133, -0.32353791010819966, -0.03398594201755323, 0.08065136045412813, 0.0013120075029691809, 0.14341840748375861, -0.18628970232859768, 0.04141216050930153, -0.08852505424228257, 0.06715707238901349, 0.3247023076063991, -0.04913623774585016, 0.05699513438278066, -0.14407365005199593, -0.21128508030106466, 0.14295362602980002, 0.06455776517714867, 0.12042434364516888, 0.027101620360404144, -0.1990640555176764, 0.18104995486555003, 0.013597486592675638, -0.18866309287590333, -0.0030220900090352745, 0.07369766447877885, -0.2113227268801351, 0.14128438610868077, 0.07065235390583754, -0.16424512583491416, -0.08011039464722554, 0.19488458935239164, 0.29733913435809317, -0.02926660890527663, 0.20264910351442508, -0.02612017041197268, -0.2491476440372904, -0.458166390746548, -0.219972764688013, -0.14271772903420607, 0.1980732759512742, 0.15315378053029075, 0.25677916795917904, 0.23869359026177286, 0.21819099117250232, 0.14625097332473203, 0.052332926026003056, 0.01081260538353698, 0.09083165043762255, 0.1036059380595535, -0.2518607252538294, 0.08139448642722769, 0.1537751076926891]], "b": [0.08323727974486979, 0.05044971014004847, 0.10447686889215381, -0.004073388956193435, 0.030290565848321432, 0.16760537225449426, 0.11572871446292278, 0.005312819802286497, -0.08688517370955212, 0.06814593387141425, 0.010020610705401464, -0.01869178556424612, 5.202819217369308e-05, 0.10283823938746621, 0.10828926510213581, 0.13835624398999277, 0.05848747808143374, 0.10213030235243602, 0.00350824176542118, 0.030732779152449673, -0.006582002917413054, -0.026394922320821426, -0.005419333111913066, 0.100465571796943, 0.015205554735653387, 0.0, 0.09567604878319207, 0.07038895528445874, 0.05366086439248936, 0.09659999617949411, 0.06588091582995342, 0.1090362288659952, 0.047107477614194426, -0.08079867518944749, -0.02916521934392823, -0.04774164254001319, -0.10189548099917743, 0.027955740705730734, 0.10251958867283337, 0.052561606149976195, 0.0010832676960235111, -0.07224463203000182, 0.04448398228962762, -0.0075118941846159595, 0.0532187572327901, -0.025335056659364214, -0.025189094319384736, 0.029797355546282375, -0.044683108289415324, -0.04324766662807766, 0.10747018859349998, 0.03078113735182941, 0.017681984640124253, -0.008933755742615129, 0.0, 0.04441791690576227, -0.04130065512390278, 0.10648499958290893, 0.04040670237531531, -0.0526601722737118, 0.06834972512024776, -0.05051499472565504, 0.03909873883815765, 0.08140401874966575]}, {"w": [[-0.36320120281480145, -0.3326825944161622, 0.41855873933001786, -0.2981985882817347, -0.5853109787095155, -0.20991075581069615, 0.13368860355907602, 0.4668873886383972, 0.35972295972843427, -0.5238692509082526, 0.24660999257277366, 0.3582569329538463, 0.4104534571694401, 0.2086938813455229, 0.4561982258507113, -0.26082516026878394, 0.20665195982811188, -0.4742462985930392, 0.1907347761546045, 0.3158001233296459, 0.4455144999201115, 0.3881631470187635, 0.5012309413809396, -0.5521924852795882, -0.4980266459858382, -0.09765046815347184, 0.2914346936813101, -0.6986076575063722, 0.34051009605212373, 0.24679768354975515, 0.45906556367118245, -0.12798987067291753, -0.3912096816635861, -0.3797092841621774, -0.3630586317941727, -0.10122583032615085, -0.17266933093253942, -0.11588289034349236, -0.23123539160894116, 0.619057526752394, 0.5571011444429491, -0.2944025773536305, -0.38173180537927376, 0.025378225707029058, -0.2853661334143185, -0.20619414945105713, 0.32977328744808293, 0.37039680767654637, -0.5796175294283564, 0.35105971943365427, 0.4753558442850455, -0.2038466668408437, 0.11461648530593536, -0.4302540910816964, -0.19988560508763162, 0.32160842615559654, 0.2927615017883217, 0.4102993733991348, -0.13917917701342286, -0.17802758444837566, -0.36200737185541093, -0.15233223588117017, 0.26948329013307937, 0.19395979279560982]], "b": [-0.005471389395474669]}]}