{"algorithm": "ppo", "env": "pendulum", "checkpoint_pct": 5, "architecture": {"input_dim": 3, "hidden_layers": [64, 64], "output_dim": 1, "activation": "relu", "output_activation": "tanh", "action_scale": 2.0}, "action_scale": 2.0, "layers": [{"w": [[0.05047599646397427, -0.1642099124907971, -0.2748988706839962], [-0.310043308367679, 0.19267250077691236, 0.2601158929285814], [0.05888556932263107, 0.1876025622575202, 0.024057805442585515], [0.3218304200296527, 0.18003567983530125, -0.29916266702955424], [0.22582783587987168, -0.28678054475366543, 0.13112388168892566], [-0.20189347001102265, 0.2631876395194892, 0.0028494811341892596], [-0.12223426625039975, 0.0005735158680372325, -0.31136332207552814], [-0.2176468592490654, 0.15306813077673856, 0.04928704135786214], [0.06392447228021689, -0.13959090449746747, 0.2920473167452531], [0.3420411266015433, 0.15092930242224364, 0.07846680373281141], [0.13147449488777152, -0.05955492291856575, -0.21011160674118318], [0.21385386534656364, 0.04592201449812987, -0.10535453343557206], [0.007242736112627043, 0.2753910728454616, 0.2528409286732658], [-0.03456414284349781, 0.06753120254505587, -0.09712932030012295], [0.05021149651502038, -0.1042453715088608, -0.09306637447264153], [0.21919209305307324, -0.12247729702834699, 0.12293282405261784], [-0.22694870137187906, 0.289243437277623, 0.150904071711381], [-0.13827469714545762, 0.2638723555065797, -0.26209424166059286], [-0.13211551940967595, -0.28115762372989794, -0.045195738912287904], [0.13393216145661846, -0.2141865210357277, -0.27105119372752573], [-0.08694431849264038, -0.23399750937032393, -0.2405928377846528], [0.06715347476050301, -0.07688408480656822, 0.11651618529111805], [-0.1803322984283467, 0.25214781535811476, -0.0794952821452401], [-0.2162109581324547, 0.08334155518918608, 0.27046322541681206], [-0.015271688969676143, 0.2556191139437793, -0.01286274665596499], [-0.006208530411556728, 0.10212390364203071, 0.2778008719225956], [0.29935461341774644, -0.043456930757945884, 0.11803746307800676], [-0.008053276330504448, 0.01426228887798229, 0.17692366454634548], [-0.023267279607777445, 0.18497906119096943, 0.1123176226549442], [0.25215459380259236, -0.23648909125791437, 0.1451745439280336], [0.30082380935518266, 0.2507670183651476, -0.29546450100807387], [0.2405816959138177, 0.29159078877403305, 0.2529841826807039], [-0.23656768688360647, 0.2633600442005847, 0.22805538125465966], [0.12667478018009448, -0.0018557462264324274, -0.16372706906355877], [0.2188779423883668, 0.28324309868440417, -0.12871314786605115], [0.038130878151250144, -0.02022243484708544, 0.2420074755369061], [-0.3143038988567718, 0.1702541312036281, 0.010736613793039862], [-0.3001589067790951, 0.22870125109499007, -0.27907642050395276], [0.1741262836844261, 0.04288949877529023, 0.24636809332240792], [-0.28117019209665123, 0.2572498239268694, -0.2517615898976235], [-0.11452196856948144, -0.03505126113683223, 0.29079670234619126], [0.002843178688276612, -0.2011915460525364, -0.14630702231612105], [0.2357744165766501, -0.2160656507120002, -0.21989169287489768], [-0.15794145691265088, 0.01856695627598959, 0.00382446703949689], [0.15423513386440948, -0.031966395915798064, -0.11608096178454633], [-0.041249038502063934, 0.263376612799713, 0.03022762837979014], [0.28913366244781, -0.04733696387297119, 0.0007389268892002191], [0.05165477626277628, 0.21503573571090775, -0.23598092171871007], [-0.031129953671724254, 0.21818108423259253, -0.26378573821324136], [0.21974775787388376, -0.041044601201579704, 0.19315523583148758], [-0.36864849391756516, -0.12059171181838815, -0.25455988123662265], [0.11015287299070292, -0.12782965635156368, 0.11401692909070613], [0.23394565921264654, -0.23594411111489932, 0.24627412099633078], [-0.2869144785325107, -0.07608857613988954, -0.05161517417127078], [-0.020547092121164547, 0.26606963505324427, 0.17291862948924078], [-0.13961116325356832, -0.1865372858142255, 0.21933735944032096], [0.286699419062592, -0.019684192505553717, -0.10096695454127289], [0.3495164938135718, -0.09132538855122581, -0.19740657621559748], [0.21407689627776005, 0.1453283333343496, 0.10947953678586039], [0.30625196199972077, 0.22546086024312914, 0.12689067590623967], [0.21003811000258127, -0.1386822577289493, -0.2254862957129838], [0.08455838749785817, 0.14757006393825062, -0.19018591632019147], [-0.06700944096296128, 0.20392927274494999, 0.07830971849110291], [0.024018529435619416, -0.2502918934054837, -0.029224697633458138]], "b": [0.02202659087073577, 0.012720212965750414, 0.020266396146812853, -0.058568976394503154, 0.008767691649555416, 0.014663208990395636, -0.0005509812678062907, 0.0022978897082406744, -0.0016066002264080957, 0.011426657516251945, 0.013950880312210399, -0.0650462373104406, 0.011884128227326363, -0.051888357157583324, 0.006499757274290643, 0.012337598890053402, -0.009810005571465568, -0.02655135292863611, 0.05496110308251559, 0.0130152276560896, 0.025084696295424785, 0.0007005637557305556, 0.005249413512341279, 0.003686662523221975, -0.018689701743508445, -0.01847307398547149, 0.007697004728114082, -0.013605022165827143, -0.006660443094974883, 0.02338843305874367, -0.02844167066435512, -0.005054146154643999, 0.021051545652154533, 0.040872442834360756, -0.03757770225235735, -0.004469011029562528, 0.047899952083038606, 0.021070187266392756, -0.0056398877592418375, 0.031971622956748505, -0.006089204221959711, 0.02891020576880292, -0.0029493624873680314, 0.024471477338414656, -0.016184725873079762, 0.0014876641128646647, 0.0006173398309875269, -0.0028603496692810996, -0.034985052531077046, -0.002945751069365844, 0.06632595908469109, 0.006266842144622479, 0.03714708660690411, 0.024807653785503633, -0.0029758735774959998, 0.0016367996474456509, -0.05781052997793418, -0.02835807851849412, -0.011774516701483476, -0.030837548127224133, 0.032218292384801624, 0.008456271388888405, -0.0027038980141771995, 0.012021689442418623]}, {"w": [[0.0149468033428442, -0.20817046954867277, 0.2240407126569527, 0.025976454271896116, -0.22542189268829435, 0.12262465381486072, 0.214330582952181, 0.01948319607736095, -0.09504640609417117, -0.13071281283614708, 0.07454291933558238, -0.15426193508978778, 0.01739715447064215, 0.0513235765772412, 0.20227220316904956, -0.19961364145523486, -0.02765800471946372, 0.11471171944804444, -0.12188225376528079, -0.0468761802062773, -0.18344820217291383, 0.07943402786021041, -0.16952270249033669, -0.07264299860831203, 0.16153693919987389, -0.029596339949698215, 0.16884447285740536, 0.09779061346575144, 0.16611196184472618, -0.17475022159464915, -0.1884155039448392, -0.20436635637408118, 0.13374042969022054, 0.053175527504867426, -0.013332552175628712, -0.16313717629969454, 0.07771095120252643, -0.06899834108155346, 0.07333186754935375, -0.006942168336195255, -0.020670227767344323, 0.13307653365627398, -0.18625263984345092, 0.030291781081753795, -0.145504903862474, 0.13793319457602088, -0.03546598032732572, 0.21639096930516172, -0.1291781048619254, 0.1833928261371546, 0.14018969654761043, -0.0256040858680334, 0.11543266001908419, 0.05292478270839574, 0.057370200066540804, 0.15656968843824795, -0.22992854772636334, 0.12414350166795445, -0.0523581056535731, -0.08004167665262006, 0.20606586775860872, 0.12287754514790207, -0.0075131384130088, 0.012186845478232079], [0.16572526513818983, -0.21164067606715917, 0.14408891001666738, 0.1188871262424923, 0.13964192746849935, -0.052507602992572205, 0.13619414234529464, -0.13438875909095954, -0.05657006753708886, -0.004998144519446033, 0.01655075728720891, -0.18998474578640048, -0.0449745525020823, -0.20938842836261706, 0.1056389165698252, 0.16283917397199674, -0.19369114216663522, 0.09646677975757807, 0.18271027624164385, 0.20722114008929934, 0.15651467316153372, -0.029151223738409233, 0.22192733580416893, 0.18359242145745197, 0.006674304451685351, 0.10412636361335345, 0.19340388147062287, -0.011979851436166948, 0.15123983009895706, 0.09904272252621636, -0.09525614719848592, 0.11644290382460674, -0.0006835327746882779, -0.18280625532608938, -0.060054620498663815, -0.1834842087278812, 0.014348459792917507, -0.018089503529210068, -0.03146697920897905, 0.04993037598934486, -0.16630918222039123, 0.19323850731510556, 0.06705268697582921, 0.1557132756109647, 0.15549852019934918, 0.06828985633024841, -0.19271933252533463, 0.09542613129691581, 0.03627776180028853, 0.14700773946207388, 0.028365959834943135, 0.14015513606352115, 0.22185552982209075, -0.040643039618026754, -0.13888577792945084, -0.051449203568361655, 0.0702559850535942, -0.04770283629060184, 0.05462154841193849, -0.14210999346194722, 0.08845155569094561, -0.09476625124444954, -0.12859422062976533, 0.21589214968657636], [-0.013071171097240356, 0.019816962340049885, 0.17739226533336233, -0.22460524133219828, 0.08241479545654558, -0.055349599826026524, -0.14955011176797953, 0.10055809568942986, -0.05009212243116953, -0.11304399935785964, 0.14683268418141596, -0.16258526629907794, 0.014265041178864355, -0.2129493588732093, -0.2208776469261715, 0.15964047095536837, 0.15130427719362713, 0.017695791763154018, -0.11403944808705023, -0.03296868933806765, -0.2188985949754067, 0.10139466955116645, 0.10769647781837273, 0.08583223894093668, 0.057676264762596394, -0.17279174658240223, -0.13055101869387825, 0.04303991052614314, -0.03608745929624438, 0.2129468874130298, 0.1437388493125117, -0.14253813004586408, 0.061884366061277854, -0.005351010538343993, -0.19388663012246896, -0.07046203363127634, 0.11590969809225324, 0.17646606057302702, -0.060639705450601857, -0.10879711661965183, 0.15614869241888632, -0.01683555884156631, -0.08821627898162361, -0.08496245595272227, -0.2344167207972058, -0.20142917933640497, -0.03871432556669283, -0.152017421578322, 0.1895752312095102, -0.16476368846654743, -0.02253048289342944, -0.0396988447395934, -0.10555794485141819, 0.11999503465117199, 0.06728408128822833, 0.11528912223366032, -0.17440072844793789, -0.05787605501516959, -0.004384895395106168, -0.04030733642889143, -0.25953370014589766, -0.164269828899113, 0.2096592503988072, -0.19939890918987874], [0.15331803375253264, 0.11328708322707058, -0.010437719228093568, -0.019859980117110064, 0.14305093044231426, 0.08220090174715443, 0.14910980744569988, 0.08986711461134683, 0.07704432998045545, 0.2178215189922096, 0.138627130604458, -0.16080152404433973, 0.10423026656216286, -0.17501015379070703, -0.033379186558746055, -0.0340295808497715, -0.15286978050234248, 0.19623154199140402, -0.16730672829914295, -0.2167070118569198, -0.07613486042508497, 0.2097874662336083, -0.09697387737997865, 0.12381259062290291, -0.1372625213888583, 0.029323907383161953, 0.21927017500839235, 0.08670486543712136, 0.20472320414794837, 0.040369959814640644, 0.20462292156568665, 0.14982241279210828, 0.10188066850825274, 0.1619676291449557, 0.04460991819783196, -0.0684648900771904, 0.008836805703938216, -0.11282195147337828, 0.11987732864297777, -0.1369340136416561, 0.02062550803958404, 0.01831105764787796, 0.06263294911740358, 0.09961836025443017, -0.18381272153644723, 0.07233792078436622, -0.0350537667845003, 0.05377658687254138, 0.09024382853697893, 0.042818556367717184, 0.10458390562019666, 0.008236317374212758, -0.014932815084364736, -0.0930662538278902, -0.1138047452721046, 0.06677883021017647, 0.04605257056388175, -0.15227022977628, 0.23158570338854342, 0.10141277904344645, 0.005470524317427564, 0.14887262424629708, 0.00038728143477540373, 0.043900548653230176], [-0.10817330956415692, -0.1690360843863647, 0.14618996087704078, 0.15414778614755956, 0.09620177687572559, -0.0326521564588962, 0.045893862654064733, 0.012516828982039808, 0.1883479144257711, -0.0010352252396997942, -0.14918848267165655, 0.14210938506994422, 0.164293091900902, -0.17655709278930057, -0.12420954315189091, 0.08472061046073472, 0.10553611700931963, 0.07233276719195536, -0.09790729988847709, -0.17649544144422036, 0.008542238517135136, 0.1463111015527807, -0.0906058742716246, -0.2003330517338033, 0.05899259322807984, -0.14141850824309518, -0.15919697663552843, 0.11289681678625, 0.13083583873309645, -0.020178526458950814, -0.07938739498217443, -0.08942713311877935, -0.07717832434573793, 0.028124950311748848, 0.025663756364782325, -0.06613483686188319, 0.069520292981723, 0.10302543033030544, 0.028768513550300096, -0.020779025067903897, 0.04573118578747123, 0.042424871676196595, -0.09538399061416096, -0.08578967958540609, 0.0035987424724614895, 0.07067892192171833, 0.05198764017733995, -0.02754453364262103, 0.052777834177151046, 0.22349326301750044, -0.009651579329903496, 0.16001213334833514, -0.16594361401456692, 0.17893236855685782, 0.19088303959854075, -0.10851771806987463, -0.2516133236131212, -0.03994421401521846, -0.10417694970886705, 0.23662905829106437, 0.15470859735489723, 0.2149040808467714, 0.05591173465387554, 0.06211155911846987], [0.1414376004689136, 0.0597358519328864, -0.1329850315316654, 0.18151070529252275, -0.04012784734102289, 0.1561923425177948, 0.005211936960219551, -0.09894824541977511, -0.08242241671781443, -0.020636072021377846, -0.1593819385690728, -0.22632114623963562, -0.06763645014279292, 0.11989964805554301, 0.04459339985059667, -0.07943528489176784, 0.10778670934242923, 0.0011914680617936687, 0.2189673410070975, 0.11452021816847466, 0.1441668875292862, -0.08133151680666251, -0.12945843591869147, -0.17462175396520457, -0.03500710145428983, -0.02242668079782748, -0.1452422238819789, 0.10754068195708988, 0.13278814919903234, -0.11971274572718898, -0.000754230145265988, -0.00371580250870854, 0.08857984635404792, -0.1565371678663685, -0.10325599792722472, 0.09781007316774278, 0.09159623877721636, 0.1847032729712967, -0.02695792818562116, -0.02850203242209806, -0.08875563134122123, -0.12000281370119649, 0.05453710527029554, -0.04325889757690412, 0.1474616772501362, -0.06188839362992306, 0.07470735083270114, 0.03299589786987682, 0.06075569761814566, 0.17679057344971283, -0.1325514898872176, -0.16484535611809856, -0.17143476319731565, -0.16190168960829215, -0.009009755391385299, -0.10604132409884057, 0.10717198764260084, -0.22136674575258078, -0.09211110807546706, -0.04957161137460812, -0.13177739508773303, -0.06363232177019651, -0.1263549582296293, -0.1024641573658563], [0.15510626232408312, -0.007689227824597163, -0.10125511688314104, -0.012986969083402246, 0.06767995167017433, 0.08716451321128989, -0.19117561090892052, 0.06385846786242419, 0.10732364869077313, 0.07200038260727994, 0.004193904782801394, -0.23217216837486232, -0.18000094069503642, -0.08425695756456794, 0.14947611305222336, -0.02866844703247337, 0.19913042107351225, -0.026630727570146895, 0.12516368023725896, -0.042602582029876664, 0.08164398134760176, -0.07327828796179738, 0.17633574162721422, -0.07781105778933041, -0.21769039598815632, 0.10323681035849042, 0.050846862502689556, 0.07419368415357439, 0.0838386580139578, 0.027894997547916373, -0.22475900270946342, 0.05836726649046631, -0.1906971251734952, -0.1847405478169458, -0.08012331563692106, -0.04746677500023958, -0.1422040794645827, -0.03388193886793642, 0.04943072750769919, -0.05545268957859655, 0.10654142522995697, -0.14825720394913822, -0.17381840164258422, 0.1320420401560125, 0.03405847865429329, -0.030450663410761452, -0.19432133868806203, 0.04762344289520697, 0.0929242325741434, -0.15591678358130276, 0.08298469365365999, -0.06161620027454858, 0.17626993749515613, 0.12436250899598175, -0.10308068115647272, 0.2113803969403006, -0.2150010672919694, -0.1791477319179528, -0.15222685168817335, 0.05968774453090239, -0.015567226187370218, -0.051621039499589724, -0.1063552309019328, 0.10441225086389819], [-0.14592987614211558, -0.10686668101883297, 0.12150206843940194, 0.01293936555064899, 0.1638064071552178, -0.015270997640493852, 0.13360494210317456, -0.19276933148411937, -0.07564669588111127, -0.0485065782074889, 0.02242228010943037, 0.03459926624622731, 0.16131790526142378, -0.1362008488406561, 0.1763930738068657, 0.1645934154281758, -0.16938194488045225, -0.20741007884921173, -0.12625974830004455, -0.017160257028894014, 0.2120694099626193, -0.18879472037656483, 0.11782951366264624, -0.004181498096930016, -0.13757135030032674, -0.03771812771559119, -0.049878810441298674, -0.09518786593451044, -0.06409323791393369, -0.0392421280681033, 0.23472919380570398, -0.006423850753715589, 0.2072201479459448, -0.16728784301521962, -0.1452587114223093, -0.19566569986834328, -0.03875741445266811, -0.12154811106953763, 0.04508933243541412, 0.12708957258534354, -0.07088123414336196, -0.09303190999593303, 0.13103252140139976, -0.11385282378426627, -0.11090868997645888, -0.23313075916701673, 0.12107020507779703, 0.17401225487017394, 0.17831041831720426, 0.014046333754464043, -0.15229821782515507, -0.1222593649797292, -0.02036573242476356, 0.12626654431485393, 0.08090515142093883, -0.10235458808638916, 0.16658840578530873, 0.01601440510502479, 0.21126133751984172, -0.02992610713503029, 0.17814928951365303, -0.18697802257967683, 0.05304912382135166, -0.08123064795123956], [-0.0051881928353318075, -0.12999925915979832, 0.11650070499001997, -0.12160252541681381, 0.023867763486062607, -0.035810739411723996, 0.14094911431922336, -0.04107293511578671, 0.14454385430327013, -0.03749173540490151, 0.1980212556806051, 0.11785317054958411, 0.17004608559188164, 0.1772383802864466, 0.1274626343992225, -0.17360026476726398, -0.17165175498415158, 0.035633448158953356, -0.1875364216346568, -0.05029679532150482, -0.15709664578828794, 0.11443830435997955, 0.1234500087829202, -0.1543980315746129, -0.021978726969445733, -0.04591873513782154, 0.10630921911727216, -0.015919452882596358, 0.08895551866433242, 0.01873858799925522, 0.21516146936177932, -0.05283726330674898, 0.2049449785652642, -0.029175088199513012, -0.1207040328069949, 0.12260879438083078, -0.1792732420064351, 0.0054026133879078704, 0.058052533840083916, -0.1525702092351677, -0.19776784381094475, 0.2015285478424923, 0.14554257190162168, -0.2292846591652586, 0.16604874769247782, -0.17055206119320807, -0.10852986249333714, 0.11394860855904365, 0.10105953224147309, 0.1432382005080087, -0.18548457559533565, 0.1070889494052669, -0.015976631069268794, -0.13481123115909904, 0.08386793706790562, 0.15665013407451986, -0.037301725809856065, -0.12894581772477318, 0.17196578391630865, 0.140868852322514, -0.08467633401347305, 0.1366023362613338, -0.23557460141035083, 0.09175144628770378], [0.11669551039753719, -0.1468575342699451, -0.0985132715081451, 0.056085867998724594, -0.05111145828417002, 0.07563238431875917, 0.037286220254842614, -0.14727952319769155, 0.03992974048688506, -0.18184925744159958, -0.16750171308571185, -0.12390746837358099, -0.08859764245171632, -0.2766825373520815, 0.20283368207778332, -0.09683082070274585, -0.1233634166931082, -0.11969645153617621, 0.21438881879999905, -0.06272640577700711, -0.024589368262083397, -0.09033543186179536, 0.16244774352390098, -0.07169606682971255, -0.18761288958753672, 0.05000980285580002, 0.10338792995697368, -0.06904843442032141, -0.15379278106331207, -0.029477996051026113, -0.025536518157194692, 0.18563217848614733, 0.13351402917509742, 0.05850634950422397, -0.14670515634555958, 0.06997743053562962, 0.09727133267834213, -0.18195534768471905, -0.0671953548631331, -0.0816781424195824, 0.022533089606726838, 0.08787857560754016, -0.1332489510763746, -0.020993061120603212, 0.2270001111338765, -0.23209679095855223, -0.011590103602647112, -0.12803455692075588, -0.0906850575066328, 0.15225590765967548, -0.012683517834722937, 0.1639487114360083, 0.029839954493643978, -0.029267153617690955, -0.13747516390663952, 0.1359342941541725, 0.09153993340493576, -0.09782479347883002, -0.16436335384887152, -0.17081309169263945, 0.17804069202236364, -0.05894352474403358, 0.09926764993246467, 0.21500909094259005], [-0.12094590353180952, -0.18481970951704443, -0.210951801057899, 0.1218105759548962, -0.22278900889312334, -0.008326681108767539, -0.1394395471352928, 0.1112312095566692, -0.03809940952698698, -0.0059999606615250235, -0.08861155743924731, 0.0006655433422759724, -0.24417173794424174, 0.12586245638544866, 0.17758623531181056, 0.09476075871173226, 0.004771229826421601, 0.13779990810038092, -0.23409027989581654, 0.0728242632370852, 0.11222651219475585, -0.09179911198472239, 0.1340503994940396, -0.19866161070825106, 0.03263108115805807, -0.11258937752210525, 0.030867728532624414, -0.15092075726969217, -0.16558566051673324, 0.03773832582363958, 0.001348398704749539, -0.18405219779579501, 0.17380859915165417, 0.17064625512228732, 0.029627267877430464, 0.04881557311892261, -0.04867207288639542, 0.11880607958808422, 0.1177029576293375, 0.10146038643545857, -0.0961160214096401, -0.2088376396105773, 0.07992342617858358, -0.053666479658635455, 0.18448249512345835, 0.09726535048111273, 0.020869452517673883, -0.05979235757182474, 0.08233184281484408, 0.07375452744283342, 0.07031741394681776, 0.13155990972787635, 0.01663191952764796, -0.006189221654561582, -0.0631494714795237, 0.19390337717617812, -0.019696800674445146, 0.16776220192994798, -0.03517118309024117, -0.2250527773122539, -0.01395116798609548, -0.09258180021972902, -0.029994191349378984, 0.11379882732254239], [-0.10755275452441715, -0.024593182201676143, -0.010851632586629837, 0.1537242289825136, 0.16331825292409602, -0.027501142566430915, 0.20620808881863112, -0.1091999863984991, 0.10594585952826374, 0.09490089687862752, 0.05585465548366766, -0.09426306316677663, -0.057596344636904134, -0.07065879494117307, 0.23130537739517557, 0.046567675671947036, 0.1502645135921099, -0.07191529654511965, -0.07619067819627526, 0.06263948395961388, -0.03990668397911104, -0.03431777568636671, 0.047536123204168446, -0.21215311579283305, -0.05522849707296549, -0.22100135624008677, -0.019990575746493745, 0.04193246949398614, -0.19022305400649073, -0.13466319944583546, 0.1672830394537909, 0.13295055843801226, -0.06485218911365988, 0.1734109099060111, -0.058810429112880626, 0.0810215492932388, -0.0629519724138158, -0.013255065289913593, 0.06047588062127654, -0.2000563407282389, -0.15717843810650062, -0.062267986494381575, 0.11530751965197523, 0.0018520611195057335, 0.1190582546373464, 0.043933662002559125, -0.17477943060499118, -0.14554655899867142, 0.17383152921633208, -0.06937111257460252, 0.04327536132295907, -0.017434663324882815, 0.040529625357307024, -0.19611273215711958, 0.09737071940695886, -0.182179072366099, 0.13168642655301477, 0.002179983515230841, -0.02305882647999714, 0.051650090386024625, -0.01933016768733555, -0.16676148729159157, 0.14064333794770378, -0.055462448303984876], [0.14427948655340675, -0.012517220213622693, 0.12760096368227267, 0.009955475113525571, -0.12968553350771994, 0.03293977994763338, -0.10948745131869748, 0.10394945799450346, 0.08866185074001083, 0.19338810426236455, 0.07029469193245244, -0.1449689605031563, 0.01123808834109646, 0.1319440024096686, 0.12907460423471193, -0.04338507527831175, 0.043776886740463795, 0.1663489432776352, 0.13175579539445165, -0.021245638082710582, 0.22501369399014978, 0.16144477104699945, 0.11286234269268261, -0.1880013774413724, -0.11303418835320651, 0.11423380496529469, -0.08651994695292516, -0.1952929285814723, 0.06728897150183044, 0.16020945861740718, 0.0410835253505629, -0.07486241930319332, 0.0033371457031089015, -0.2039692852216125, 0.0007796584834455138, 0.14601997104448194, -0.21397767542486595, -0.04198288815409893, -0.15140640019870596, -0.06501941971179558, -0.21649561647032384, 0.18858788811080202, 0.028757626835708868, -0.014143426920129471, 0.030787186028968835, 0.1351315829473492, -0.08110551354595898, -0.12390210809885206, -0.21739134165119997, -0.10189368454814603, -0.13037386217015234, -0.16963019026137346, 0.05367006637332505, -0.07729244280466391, -0.197789821505963, 0.20420688352622812, -0.15967395806934273, -0.18577046290328061, 0.19891332806803602, 0.06818689448442082, 0.1244553033091186, 0.010300392027299213, -0.20343850670437708, 0.19452345373950666], [-0.05153274678313066, -0.01956727101791854, -0.21263176813040002, -0.20481060570731247, 0.008211053177348307, 0.051166003084536574, -0.009427023963479544, 0.08665785595795, 0.17002923644853354, -0.05090413336835561, -0.0736505794682425, -0.12662349919889118, -0.0822509539683864, 0.0035438543770522505, 0.11209148165056339, -0.036450712847482795, -0.1747663909607022, -0.15946202899085002, -0.16331998307774676, -0.08733379696643787, 0.06997754293411725, 0.04565837893951512, 0.08848055406097542, 0.0030564909954641983, -0.21546922973192634, -0.07838863786467089, -0.018907286580137586, 0.0072412408086818, -0.1075322404032999, 0.13423212378050392, -0.06898416697594452, 0.1343268290966729, -0.08449873275197947, 0.17490634459860058, -0.18387006163397426, 0.12360007983651265, -0.16702324606036298, -0.12418465742671185, 0.1588062848649946, -0.07509126023223955, 0.2028777176198957, 0.1695412896595307, 0.11610745308334797, 0.0020373854305294104, 0.13719474234770718, -0.03629266074043244, -0.19241511921252685, 0.12322191029909244, 0.10906644629708184, -0.16518484405607056, 0.1568509218490585, 0.01191165530002572, 0.10459814471344275, -0.0654232690854454, -0.12824378465925818, 0.17436087569708472, 0.03412235432800275, -0.17848546591220477, -0.09613837223802559, 0.11616115937684321, -0.02963436109713929, -0.1010385300401262, -0.0771239605434491, 0.11546750391745997], [-0.04979837254992899, 0.19443061575292725, -0.0901654804976361, 0.07358818479228603, -0.11835547018942756, 0.12555672125788453, -0.21322532097475566, -0.15314335800511333, -0.12915714573648748, 0.1465873593824352, -0.11312924399219192, -0.03055709838148069, -0.18523566994748478, 0.02511080814168759, -0.2095822185943815, -0.17566153291529335, 0.13334054691832475, -0.11952886764497936, -0.1763382591975734, 0.009154676621937695, -0.14621389272916877, -0.22859000875707552, 0.15465401420878594, -0.04994542780017783, 0.1573948349817596, 0.08782510455311206, -0.1398379706662806, -0.20014690059637244, -0.1559401817596575, -0.02612438416476948, -0.09929418024886606, 0.13334577585336446, -0.01592931560824013, -0.01529006455500133, -0.08280612609893777, 0.08839005951578434, 0.08950934881204277, 0.08685066678426981, 0.09765469095487606, -0.03828091739576754, -0.1801238399319103, 0.10921074719801396, -0.08618160469517151, 0.09074434170412438, 0.18607594170837005, 0.08329434451245035, 0.1855390256619348, -0.2390673786130079, 0.023865004007931494, -0.19704791920525083, 0.17237459711313036, 0.1656070668748076, -0.23013062736076467, -0.14674862631251925, 0.12699723400274132, 0.06477226516031653, 0.19868389595006244, 0.09678139263799429, 0.02807415715180252, 0.00754591291405417, -0.23800916181766996, 0.08551719210521488, -0.05329492250817616, -0.177191499126234], [0.021097099331691432, -0.09039245423255932, 0.0676805542542581, -0.21559336247192606, -0.18270133984902392, 0.03709539284245698, 0.05361795846885452, -0.19007747181417028, -0.011019737085897893, 0.1520596756441316, -0.09518545838362513, -0.015851127403363363, 0.15403734429067334, 0.0951324315582534, -0.13144375039775613, 0.12252093846726918, -0.09922802300032092, 0.14972240560821956, 0.0010345691067811188, 0.1221245906856566, 0.18475346279742874, 0.11756931382650376, 0.14656498060710865, -0.11232083351451917, 0.18161745774922544, -0.1815908803818981, -0.1454694186253299, 0.03642114410855428, 0.09446623258250988, -0.2551938438849554, -0.10491129880606509, -0.09419134953005087, 0.11624697772942605, -0.22383049655742399, 0.1560298517613985, -0.11501528786197032, 0.07375967868767964, 0.20097275191456695, -0.2484034686633984, 0.03212247368869819, -0.15934653707033494, 0.0887701975622562, 0.12136895703266688, -0.09520756094705395, 0.13761243243611423, -0.12082309159252713, -0.06633447731458927, -0.15488578002803255, -0.07497080551957837, -0.1072064479079373, 0.09538287571636839, -0.14563076438144845, -0.06607527714628675, 0.08280260049584191, 0.11856807949042159, -0.12486154522496634, -0.2403683922637355, -0.13935265479186162, 0.0032449855817728566, 0.14571805410014416, 0.055737370013853024, 0.046835311220891906, -0.19557053325503307, 0.021833322435892446], [-0.10465822904240324, -0.07995711647636312, 0.21142229287328318, -0.1297927368699238, -0.20863390299661988, -0.05307800029402872, 0.053155751672511097, -0.10290457925455686, 0.062071941196909806, 0.08815188114691527, -0.08748316386377533, 0.16229066784737892, -0.07763567318237935, 0.04618807065766226, -0.024002335989981357, -0.2069974483930619, -0.06616215560878981, 0.02790806604724768, 0.19288677662013004, 0.0607833085787579, -0.021227355676040508, -0.16954632359395488, -0.07344816335483105, -0.2235866076455718, 0.05062596879923849, -0.0446699300906974, 0.06132520671602992, -0.0010174551484302032, -0.03463918756051717, -0.08991249199586475, -0.17658265016921554, 0.2090567890893186, -0.18764090058076727, -0.2034760209260101, -0.08576781554298138, -0.1782930370046139, 0.1267118999789126, -0.14614133265866305, -0.08085031580384015, -0.18873044286163873, 0.15410879230814326, -0.09690006631999613, 0.10259970528711594, 0.19364443726272154, 0.08947011499476523, -0.0914395621251441, -0.0012267285502652965, 0.136367888747766, 0.07313989298163208, 0.12838524534090334, 0.005531221703016209, 0.03573742106960181, -0.08573141003454204, -0.14656207212325978, 0.0873507811994976, -0.2853309912465763, 0.12099666362311375, -0.2256164109793193, 0.051642995172687736, 0.04317992113020622, -0.20813111765343079, 0.03737833451840326, 0.11933988456408649, 0.007821583530015167], [0.0394845422301216, 0.10479768939008308, -0.1273447564280672, 0.17352358077620497, -0.04587652884151061, 0.03435975125265448, -0.20628793686170468, 0.2363261183854896, 0.09346463235999022, -0.011636869591475616, -0.0732248821948796, -0.21595174203681208, -0.15641085472077418, 0.19043636865549843, -0.16121358564929916, -0.17323429632365878, 0.03261304507522286, 0.08499295437630301, 0.17423299965769637, 0.09546006478990858, 0.1250548889907522, -0.043423891052722735, 0.017132323864327212, 0.14749260190128893, -0.15872410196344797, -0.1947118597164127, -0.028297554826936674, -0.07952334612507504, -0.23896851306044417, 0.04058644691344951, -0.05500223623182998, 0.1137674750470821, -0.07587231359612358, -0.014786380329499384, 0.029478803449715013, -0.07330255793814919, 0.017062560767789153, -0.051210427488016436, -0.10723166685214977, -0.1828226934915956, -0.17727607776221732, -0.08245345318929842, -0.2791813501328205, -0.12317829905240904, -0.23739573521440865, -0.056002409257068266, -0.12782496872327667, -0.21459725582754696, -0.23500101617328667, 0.19511117561563063, -0.0832650442007404, -0.1727099241090841, 0.08335309463730309, 0.0487218271150543, -0.09371321803914232, 0.11808938778507168, 0.17755820655692214, -0.10335876224696257, -0.014794579528293845, -0.0005014521821064758, -0.21968134005910891, -0.14117343775432875, -0.047899283737353436, 0.11006154113779902], [-0.2127742052582002, -0.13195792973637502, 0.09669122351917742, -0.06763347798813997, 0.023076249864369163, -0.2038675971526086, 0.015465466933411312, -0.18779693826300017, -0.11982304325023409, -0.06142505548887519, 0.011208856411858132, -0.14102545036783598, -0.014206866421391899, 0.11397427175230927, 0.08884883100166718, -0.0673828276600704, 0.020992284782017808, 0.1200926170237873, -0.12596815775884582, -0.15487955621603008, 0.19821424632977172, 0.16514862615868922, 0.15081876284361137, 0.011239043635800219, -0.20929024726672327, 0.11403992180406572, 0.1047937872379148, 0.20925953256803848, -0.19859127733587592, 0.12775038290273238, -0.06639055736513909, 0.06870661854660029, 0.19228379590505593, -0.10126779446145466, 0.22562448476204083, -0.19269140910515026, -0.17254112463709517, -0.01985416798079475, 0.09726972005787417, 0.17333737271109836, 0.16552240099902582, 0.19812344063022608, -0.013524909962834597, -0.03804112168238587, 0.0540987257706786, 0.061772592681868715, 0.17207791435640699, 0.03484329571738172, 0.16735451184399472, -0.041981180705415407, 0.10543239113181485, 0.21796239422319147, -0.18321152827014592, 0.07778734411756988, 0.1705087654736798, 0.18907994318725416, 0.19951226423750776, -0.0752556941801192, -0.06822141446588503, -0.02433768210584063, 0.21219469401233226, -0.10293610650140322, 0.05974628811553428, 0.05742256933902823], [-0.14318834474242528, 0.15277269565198895, 0.007283355175365091, 0.20637846335719864, 0.15333588089299452, 0.18789346268420795, -0.14237200798725735, 0.14018805329842443, 0.1456604353947236, 0.19310305968985816, 0.07448842509111683, -0.03954234488670798, 0.03430850960767071, -0.16046426139037567, 0.2277380447451338, 0.08133330944897241, -0.07491454413074342, 0.1683402271341589, 0.0692421244611954, -0.05962096850183223, 0.19116694283436883, -0.09699540667839121, -0.07798132585512192, -0.21179284307264637, 0.08410890459007028, -0.1765873811071463, -0.202462936522351, 0.05958833851598981, 0.19940808366536938, -0.20529979605583348, 0.11974821962723646, -0.11640680126133134, 0.1498243637060613, -0.19719178732951928, -0.12048284651950765, 0.19630885198985776, 0.02670844327154726, -0.16836654439177995, -0.22190583287481558, -0.04769252780635436, -0.038579755267347894, 0.023566743727082888, 0.09432802107098873, -0.1546185676806456, -0.06382136218127102, -0.19774468101587608, 0.22871549206075611, -0.03422006092867377, 0.06647094281861336, -0.10262652024396121, -0.16356721713912012, -0.15261897144555825, -0.22510108329150777, 0.06742189075707183, 0.20750048150088737, -0.19311835049531242, -0.1253119694118253, 0.14982185311934978, 0.05516628844798395, 0.19226271616477442, -0.04314284407468493, -0.027630973787994267, -0.10233252336129879, 0.1106020965062941], [-0.1288452375673276, -0.06242162160395286, 0.0387064093192381, 0.19751076259297137, 0.12401824997043841, -0.2414396906810865, 0.15519956691380926, 0.08775637048737024, -0.03923118910086288, 0.024493639833338247, -0.013069457239582345, -0.16209925782873985, -0.0969087697521164, 0.1755447178988767, 0.05266767770187647, -0.18924580270989874, 0.010745294374374886, 0.04901388003303039, 0.07802704272501414, 0.04614642279672158, -0.1331399663539027, 0.18246223464046504, -0.10228171390224451, 0.0791208292708665, 0.08805483553286106, 0.15684956825171648, 0.0972017705545865, -0.08081418259679242, -0.2087016902292364, 0.05138875860869578, -0.19281445383174595, -0.2172697153582928, -0.21483828154878262, 0.050124996098749285, 0.1497706936678339, -0.2166282441302344, -0.16680570851272128, -0.06217826996894782, 0.14456311123636256, 0.05413649989603981, -0.06869156859114994, 0.18688739854416273, 0.10056303836544325, -0.010746289065516827, 0.11727395151929002, -0.079299461115513, -0.00669991224883549, 0.2130774388854605, 0.03309294641911482, -0.059700937055264164, -0.18983695283200963, -0.1484879872084274, 0.19370829297584838, 0.16083540608092467, -0.24577967839635695, -0.2025600792226092, 0.12482136565650458, -0.0928721554035169, 0.06247907801344229, -0.1413490387873464, -0.027679524424484344, -0.063190696622596, -0.1887733161619723, 0.060049245438378925], [-0.08820053387300351, 0.2024635830552389, -0.17247147638410792, 0.17617916282096094, -0.1359958331331862, -0.09903103997849645, 0.20270491584479824, -0.18050001605669191, 0.15745407081355517, -0.18197424546621818, 0.00907984094151353, 0.22028971489679655, -0.160700734398066, -0.06045195966080022, 0.0040596445156699515, 0.07030362354703149, -0.0496305466256979, -0.11817739641725847, 0.15524936492394004, -0.2124652509209645, 0.20293660689141738, -0.13762955096221513, -0.12694734261226162, 0.12056032267221191, 0.10164407920042068, 0.016072282683830118, -0.21884257216496542, -0.10978491037926753, -0.12270487722063582, 0.17741381146768873, -0.013570458897154636, 0.11397112228538735, 0.19431905443977124, -0.040132139109868556, 0.1956598190135781, 0.08887191384259598, 0.039484113290421605, -0.03223848550594531, -0.018076486880420968, -0.08709506064530498, -0.07915405316519981, -0.012798479291625685, -0.027765422152217133, -0.10160076004352801, -0.16910150646017894, 0.1855742998908584, 0.0407463872985944, -0.07605432319248122, 0.1388818693632321, -0.0011771412104744827, 0.133963396797886, -0.13218749131024077, -0.1408706131495469, -0.12578763929879516, 0.15275910057716513, 0.1339662261263582, -0.03423210322383275, 0.20912880581696888, 0.12985761911685062, -0.07420049074160122, 0.052508391835432634, 0.20874515395365914, 0.08201644320728893, -0.17360543427733832], [0.06788165996273922, 0.15488487272973084, -0.014939413126504115, 0.029385670464232013, 0.09604374710959669, -0.044988101826684605, 0.0784359938469001, -0.29215989792389874, 0.10960737074025488, 0.1898213910517051, 0.17964703206469781, 0.1843942386355781, -0.012722548093717609, 0.12592496247163323, 0.013715982257625835, -0.17800075089292167, -0.230028112586117, -0.04082036970344076, 0.09072329307255649, 0.014315324274144179, -0.15484321524581376, -0.2063835290784873, 0.030924500244614305, -0.1255569108545561, 0.09673179010410915, -0.09392553391534661, -0.04079461656480431, -0.16008511401121867, -0.03519996800701897, 0.018573373306950264, 0.057075619581627574, -0.1834582393942928, 0.1633086652864224, 0.12888548422620452, -0.10485978109653425, -0.1792318302437008, -0.2710455452264153, -0.019774911560363984, -0.12476099556061657, -0.09816750183070114, 0.041664191991687576, -0.14799498108762682, -0.09464744179508557, 0.07290750811520749, -0.12425801218662547, -0.20762694524059672, 0.18512499123521878, 0.15666047225794055, 0.006824169231695629, 0.19087611450296213, -0.06435695638463776, 0.03470415263864546, -0.13433825812218134, -0.036547068924338136, -0.11316750814020829, 0.0974575670850733, -0.083874769378804, 0.20576178974387319, 0.15792620604394791, 0.10041312873695127, 0.19661943449914782, -0.04807519694472214, -0.2695014309073254, 0.11046596034516042], [0.03563583531666453, -0.2319723325420741, 0.16719545712798808, -0.07131831484767151, 0.2134051816627449, 0.25830091668986394, 0.06004002053504984, 0.18582009696982615, -0.041078675798576145, -0.08541279242754829, 0.10109688534062851, 0.009848919906370142, -0.22520607659049738, -0.04850742763229503, -0.21962978803867, -0.06983661167157319, -0.04894455120796129, -0.03668946052515548, 0.059753261135403454, -0.20734332561619298, 0.20321722759314378, -0.09677926874018375, -0.14358931322591795, 0.03376469361886837, 0.1139130444057137, -0.09806745728074182, 0.19215898664158634, -0.15015654060001035, -0.159760099384157, 0.16484351098709524, -0.011974773375610731, 0.016487784566460693, 0.07898844444182188, -0.008732620752962581, 0.18214174164172636, -0.10743294231765067, 0.049233117706413386, -0.11707338478882684, -0.11341135108899336, 0.0762271106277791, 0.06697250022804485, -0.0478854456446063, -0.23216701224776476, 0.01894368243537136, -0.11047748561845191, 0.2553973770784649, 0.018141466860279964, 0.18671417906289933, 0.10380094547315012, -0.16885084632751463, 0.02206760999384439, 0.21510886623353614, 0.029783795400037696, -0.11542139231684292, 0.11044354476050156, 0.14793072115440606, 0.06573708469850853, 0.04693821700724431, 0.1589220080831329, -0.020469592569765566, -0.07978568052723019, 0.18532471281172125, -0.14849953851874584, 0.2541002295723154], [-0.10719096138030139, -0.09352312584379922, 0.18636207797492035, -0.10595870920892349, -0.0526779524379744, 0.07975090655680946, -0.05242087239776226, 0.1362023045625766, -0.09558122048163892, 0.09232954259667425, -0.02791486041589497, -0.14222565430685394, -0.09793282193527443, 0.15937194036804178, -0.03594840975758714, -0.0525579903029936, 0.1479624216168563, 0.20942637178256085, 0.02729859046592468, -0.1274483846709593, -0.09071156052391709, 0.11963552725989796, -0.023252058044520227, 0.16649457251451796, -0.018400225494965356, 0.2030435561271181, 0.09156644155056021, -0.10228601521952672, 0.01841839110701794, 0.13880706520884434, -0.05211604161051727, -0.0818123879264785, -0.05347546195676524, -0.004056212123506917, 0.24378113942840235, 0.05737792008624418, 0.04772968302811808, 0.21767848692347241, -0.04243572020910774, 0.10688401516274933, -0.15735237139125088, 0.17682681227347302, -0.04711702884055982, -0.00840858109700343, -0.17551667899821138, -0.12734311426010847, 0.1471840342893735, 0.11675057527961746, -0.18108713818614752, 0.11788880093119546, 0.07104910082030225, 0.19241975918579582, 0.18681865405992545, -0.02578483922201745, -0.1630325206219709, -0.05146751615289462, -0.09467963552375822, -0.0018257958104493073, -0.075856571135933, -0.04203568019027343, -0.15480846734519282, 0.1544999763235061, -0.08927783993057299, 0.08271559707341468], [-0.0966794814671076, 0.14781405666452152, -0.11334288524707947, -0.16428353092597087, 0.12167941905715507, -0.11774037456478051, -0.14091745914897252, 0.030724500166574076, -0.18945731234826613, 0.02533715563137473, -0.20855376500892092, -0.031006414691232193, -0.036680937823400844, -0.17950960412732445, -0.18096901263897966, 0.03769130690663014, -0.21472241300836065, 0.10033817754436725, -0.056916416629531785, -0.10269948274250082, 0.19530733170033604, -0.20681925113890165, 0.054977185762550895, -0.2087699934171212, -0.05109437583869911, -0.08116429664670413, -0.181717246670806, 0.12262477620984907, 0.03111596041956452, -0.18301873083205766, 0.2066204817706352, -0.16855397054904497, -0.0034301395702140414, -0.203295307703251, -0.04078093265974575, -0.003647790407631357, 0.15428565090831808, 0.07687952514115237, -0.0639656942851479, -0.1367016324226566, -0.196925981584261, -0.07425626263012541, -0.18930181307732605, -0.14033691248231267, 0.06527551906308804, -0.12923241629023263, -0.054594943695621206, -0.2134371949325652, 0.17869379420337322, 0.14759546246991484, -0.17553475805658061, 0.07992055746873622, -0.0035564716220569115, 0.1393832652385143, -0.1391085467276394, -0.13851890049032528, 0.19658893917691994, -0.12632561350439941, -0.02814890924241384, -0.14409594435879863, -0.07578341888999865, -0.07341884657783015, 0.04663827620507993, 0.012613539048531935], [0.183854044037903, 0.16014397603053182, 0.1029043587584939, -0.12667572090193382, -0.05409034916574599, 0.001237342518373131, -0.08854020776147616, -0.10985505880893325, -0.11143384207357819, -0.07301942200390682, -0.0886102742485911, 0.1458540493065243, 0.056241161787964136, 0.1588865305932085, -0.19885289703558293, -0.17359607194759158, 0.1714521322628214, -0.02569090212692793, 0.04398755419292795, -0.12103079529998315, -0.024211663569413733, -0.13292864490230918, 0.22744300374366913, 0.04548831902181741, -0.16793578376708088, 0.16925295917925381, -0.018298022205054065, 0.07602061192441824, -0.1382632450795866, -0.013893506473170905, -0.03349165452861626, 0.013161194476430238, 0.16240362561116425, -0.03137163653790017, -0.10537071097253452, -0.08233441892570839, -0.06116375754518909, -0.005936344758249847, -0.08341348921946105, -0.1959566497754616, -0.10768102203993063, 0.015539226740823918, -0.10648071887840124, -0.04997887719955726, -0.13201107614172522, -0.16768865630166496, -0.12258354923514693, -0.11321237446746793, 0.14241013626225582, -0.10011187015469462, 0.14962567705694507, 0.13331968180447892, 0.23729109546824287, 0.1266932929150241, -0.16082269496230728, 0.21547656432558734, 0.1286961656094038, -0.05599731188523028, -0.05087682231408256, -0.20965113873121394, -0.13286172898456766, 0.07597336200087972, -0.1508149611298919, 0.23003827386840045], [-0.1870410443350784, 0.20635182140121472, -0.06399994608721706, 0.0597442252573077, 0.017391115717330378, -0.09142502318266443, -0.13653330007618777, -0.1995555135819725, 0.14078405368161878, 0.22026063401735674, -0.12662963852419593, 0.2373074870138735, 0.09485962970285321, 0.10601526869195102, -0.033160728817457824, -0.2376385323747995, 0.07662828566882422, 0.2089913255808643, 0.06987903962792495, -0.09575797662133778, -0.012654986417342553, -0.15766557019285415, 0.08933333174128164, 0.07026014909349643, -0.0009256767276469264, -0.21458004931609553, -0.20726689112057534, 0.07744226825536257, 0.08340504149694389, 0.015862327333818555, -0.039364334764728275, 0.06751991766227405, -0.17487216793008664, 0.14493058320072305, 0.10095999782745123, -0.06290911558420482, -0.12500272803001808, 0.08625046517097804, -0.1444642252103391, -0.15955361885008265, 0.05706529713359278, 0.07891168650569572, -0.2199512176363943, -0.10777080362299876, -0.09832754251429293, 0.19414956788742543, -0.27261096129534834, -0.014479034690839635, -0.12102027360839607, -0.017640855419112308, 0.16507078275105078, 0.09043303114907865, -0.06743767343136214, -0.14485823282561058, 0.09355992848755446, 0.020072345177157898, 0.15513844626186005, -0.14696491221021993, -0.12704615348240653, -0.06702481866408606, 0.00178826077123432, 0.08895003048304825, 0.036026631467404965, 0.07612043803303195], [0.0102230398241511, -0.025954011689107416, -0.059911585080081334, -0.0369743471687427, -0.16893665573799074, 0.12444500207599123, 0.19656434034741918, -0.1788201636579335, 0.1119848796143397, -0.11028216226017086, -0.09185148443215146, -0.25434023127943056, 0.2005847476463412, 0.02575902979982832, -0.20007310283415997, -0.07263873677397027, 0.22033179263417907, -0.1913920566657644, 0.200187934818542, -0.1200542947359922, -0.18082061638162825, 0.040728220903814547, 0.18601391148564403, -0.05327291487913243, -0.049218680294992045, -0.1087203589029262, -0.10342109937763919, -0.1950642624780293, 0.0015769309541747033, -0.05053870989453404, -0.19018607013135344, 0.10144042197977571, 0.17989342721324653, 0.09881192123145568, -0.19721099625897476, 0.17061667320690038, -0.028290790268111078, 0.18500247117829732, -0.18860106763357, 0.21584951646373246, -0.1766981465592795, 0.08853145461703124, 0.08867842192996338, 0.12251048687310004, -0.13951856929220588, 0.12134799262663383, 0.028732868128087785, -0.20845464208334735, -0.18260699574399014, -0.104915266098257, 0.15649626711300033, -0.04393226290893123, -0.10242005180771362, 0.025224852433901976, -0.07506749666165824, -0.08636654952193014, -0.12119635825003995, -0.07281042602170419, -0.1360708685298193, 0.042660955484123256, -0.06269068274850113, -0.22226284527374826, -0.10897711874137476, 0.03699513820507125], [-0.12369909685877545, 0.16524034528955625, -0.19888228795530805, 0.023150242688785946, 0.14009793678773755, 0.1898022114712675, -0.008821302802858252, -0.035601747765891284, -0.2173043074286425, -0.045870935348871246, 0.02919423499257495, -0.10162858049919013, -0.16290806608320083, -0.014066332172558699, -0.19201832173278255, -0.0016525868297373898, -0.01839178947814286, 0.2137474854746866, -0.12762498273473463, 0.01697981187067223, -0.12544565033818755, -0.0549217414952487, 0.12180495744206124, -0.006291592112004153, -0.05464730336835805, 0.15210477015083318, 0.13311060281730502, -0.06783104750862355, -0.19087618106400073, -0.08842706781503293, -0.17706100521278575, 0.09059734766315353, 0.055814605508056295, -0.07686451893757294, -0.24750619138396457, 0.1852932379883117, -0.20161912611384233, 0.020525477171240664, -0.04924275684365523, -0.09368575430451073, 0.15792907089415978, -0.09111677395465867, -0.002359081634794434, -0.15064364157168328, -0.2288105255887709, 0.14387492938752652, -0.1687793978957632, -0.1736390052794238, 0.05737906007749786, -0.14511027383116154, 0.1299564649031872, -0.20402420565422727, -0.2219487587976229, -0.03839866341542531, 0.14048420226865435, -0.16736956934190977, -0.23364544208105945, -0.0048873722405845576, -0.0484224226845316, -0.04960123083065281, -0.14845195254698473, 0.05948665519405447, 0.14722831323991986, -0.020112376792173696], [0.20168171055272077, 0.08963877850781268, -0.19778911499449023, 0.19760812020164623, -0.07187017718980986, 0.05989651124258669, -0.13099591048471873, 0.011029564529746023, -0.13691631866840692, 0.03945139121349169, -0.07083275371061307, 0.22997091423096358, -0.17793452158096992, 0.02535167010361123, -0.11163479559588636, -0.11500893409553198, 0.15360970226573778, -0.008997239558002187, -0.16856055179266066, 0.11418939318016004, -0.016605575120480956, -0.20756909294160159, 0.0005475532465426968, -0.029936364114432998, 0.03000540299585987, -0.038331016872243176, 0.019985423823761412, 0.07711534087284051, 0.20600901599520816, -0.0010847283315324214, -0.02366106076285669, 0.07953338145104959, 0.17451265710172395, -0.18806095903901954, -0.2042977603372824, 0.1933489162619475, 0.02405539974705113, -0.18774635203769366, 0.053663840963557266, -0.16682389449465787, -0.18057193919962153, -0.011407114404848802, 0.08531379201103288, 0.14257271039775637, 0.1690060260046618, -0.05005147229266931, 0.2100359821304643, -0.16334105020906928, 0.0598845833850771, -0.13848577338665058, 0.09709327322224005, -0.041425114055311164, -0.2289568197389256, -0.1943560355566576, -0.09708310831346983, -0.18865451068092862, 0.09320507066378725, 0.002055361920779192, 0.03733583256815549, 0.050187747458682416, -0.1837906923825671, -0.03720107377758775, 0.07442812169880679, 0.2043652322883269], [0.19582505466320005, -0.038095541705615896, 0.0706832314567052, 0.1827158160574285, -0.19443789660882752, 0.25061120698602773, -0.009465674539001438, 0.1713992437184033, -0.12409118376269221, 0.2125996395088277, 0.11785808918637324, 0.04462962786309615, -0.1156414694986944, -0.015659004554995876, 0.03518060298753785, -0.036942192669642056, 0.18533711751427975, 0.034617618224942304, -0.13586034351380843, 0.16127766266266794, -0.07273656829048315, -0.12366508736756408, 0.0854256588668497, 0.15060095551939376, -0.0749029957610221, 0.01737774638392906, 0.2109937691846292, -0.003167700526044647, -0.026712971948752415, 0.02798249332445652, 0.08552961289387857, 0.08259887610371051, -0.18364837518664714, 0.18431287059191986, -0.029323328985457198, 0.10932296041438559, 0.085236701218221, -0.12797836992601794, 0.23139300028224752, 0.14172179708149976, 0.09502169289029645, -0.09494572581979178, -0.14515032243848128, -0.14355346941501282, 0.009638533936733607, -0.08394144662891952, -0.05814374494310957, 0.1185017140577047, 0.05597927890997197, -0.0664545653283462, -0.15673521794910752, -0.07183568884164643, -0.1272714203954749, 0.05334781883506066, -0.0024072795937021283, -0.04222389055989028, -0.08956434163312699, -0.06107103106993952, -0.00829428220723205, -0.049707343474178496, 0.10435202200518762, 0.014149410969131554, -0.1734091272473436, 0.0053126954698598326], [-0.10671819398343409, 0.02454731027725501, 0.159753802585546, 0.09273017341643444, -0.14642869216002133, 0.011376235086537605, 0.0006709843440949571, -0.03781216966674276, -0.048209329339723404, 0.11789788416610207, -0.15938162191675745, -0.22267038868620706, 0.07075267373150948, -0.11731747718467057, -0.04800626823433141, 0.20242290797995982, -0.1747057206299968, 0.16110628406355615, 0.00969611399049555, -0.1250822887596527, 0.23056859511274116, 0.05746570026622719, -0.11262028443704601, 0.10236138718660398, -0.08674069156160982, 0.018868549343744892, -0.03614739384272651, -0.13932420274536983, 0.14891077187480203, 0.10896494217148743, -0.11911400831962417, 0.030888591904044266, -0.22282924106244015, 0.14188574684986524, -0.15694402023097492, -0.07523413297030737, 0.1897627679463577, -0.11414592294931461, 0.08891603482505775, -0.17745701946590808, 0.029649347170013888, 0.13655719945879205, 0.025996894158445753, 0.2298512904404541, 0.020818990512145148, -0.019462392055617034, -0.07908539513378259, 0.056983490502954544, 0.1024163003443898, -0.023255067754070376, 0.21975497972393004, 0.0939691251991756, 0.06257453876228945, -0.0602157550478194, 0.21977790151727555, -0.11881134535017332, -0.044661256827948435, -0.03488257989183352, 0.01826019417460978, -0.027596698281986253, 0.08968284480111674, 0.13323939803346316, -0.16136019329128742, -0.1273620503224135], [-0.041926421616282884, 0.20416350549951642, 0.08453216085778063, 0.07844950756410074, -0.018442227311279976, 0.12158728720494946, -0.19145623996391437, 0.036939125693907025, 0.12962572908552436, -0.021254955019080226, 0.008290091570188715, -0.06809786823188975, -0.02258725796328063, 0.07582614659307843, -0.20243368073526063, -0.18597636162566072, -0.0014755453647307723, -0.12436101324184864, -0.1314528962632484, -0.025925343810381068, 0.004888509159634426, 0.10168834460905977, -0.1399303262962944, 0.14802361220569096, 0.15804772483101803, 0.027049836225181454, -0.14014408096417474, -0.035666111109319526, -0.19236824017391294, 0.21052543387052824, -0.11523941520219268, 0.16729335013777907, 0.001972847804952763, -0.06682115052211958, -0.15942629658817004, 0.021217572677262174, -0.06151604456220541, -0.17470653920829557, -0.181690279411055, -0.02615008190991286, -0.16761219134534522, -0.09126394773016783, 0.22728261583482356, 0.07308676578734306, 0.11109849785583277, 0.21073789464399945, -0.11492211561740145, 0.21605455450629946, -0.1516520639096512, 0.08279032642273972, -0.09905091619909287, 0.14801928884770374, 0.1775559604556962, -0.0002512679791688221, -0.04633414778166263, -0.07170878745045373, 0.20339656513464338, 0.1664119981377841, 0.18626542797206308, 0.1003055550673895, -0.18268081820893808, 0.017213352485661568, 0.18428821775685017, -0.1411191724097933], [-0.06621276797994204, 0.151143727103462, -0.040177403828565515, 0.1254025160425205, -0.10324256706492559, -0.037214419769682004, -0.1465211885431546, 0.1405010468854622, 0.17559540674234955, 0.10926953509569874, 0.16520726765540847, -0.05992262037091491, 0.21099859469321933, 0.14140844372093572, 0.08455845161604428, -0.1894975743079188, 0.15102920029894587, 0.14527550733140537, -0.1053146924635647, -0.01707224008860579, -0.19993900132592973, -0.1010222646252287, -0.047572527248818074, -0.07304142652446093, 0.1431080033012648, 0.16104830385901767, -0.02196489061939149, -0.15625892610074618, 0.17208241232161, -0.16082733840903451, 0.05316308486819823, 0.009304519821710312, -0.06077833884694078, -0.15630108398839132, 0.06014844537652774, 0.1726136530435049, -0.13320974963669818, 0.1865468647960921, 0.004612281440792108, 0.08610529568350048, -0.009775130222355332, -0.1587301976600574, -0.19414700384092426, -0.23177751422749493, -0.20395093824785515, -0.005012189423937059, -0.03957238876867541, 0.10064982249685687, -0.0388337804428055, -0.008622635555096337, -0.17479437099058753, 0.08328156666810688, -0.09370379978811844, 0.08539278180748586, 0.08209148585033324, 0.040129587176272755, -0.22068963297368444, 0.12491023954547206, 0.0778265866534909, 0.07225986791981634, 0.13762593510093798, -0.12022709153787241, 0.04695193709236154, 0.21333028141340202], [0.11973633726740689, 0.17657314816612737, 0.020632028454295976, -0.20739367070219367, 0.07842747019092215, 0.14455239241501167, -0.11332844896669315, -0.022573982994328758, -0.0986381608244339, -0.09221089118198574, 0.13023390967416718, 0.053303342638212785, 0.015113518533390012, 0.12434952948219653, -0.13275507394390876, 0.09472968489801228, 0.19033192965368534, 0.11298482911886693, 0.09961300413959259, 0.13137399344625053, -0.09081915654740065, -0.06230002122840337, -0.23211451969511798, 0.07761445144109384, 0.14323058274200617, -0.03999749153454067, 0.1938570907271393, 0.13508110092178297, 0.11570616942506992, -0.0442597023129114, 0.10063372242788762, 0.05653832656994178, 0.1932474615607244, -0.1785140840515118, 0.1009574626546316, -0.03180001579450395, -0.11036103831352213, -0.22108719180906317, 0.18835474869438132, -0.2175761762854739, 0.1504480722612142, -0.07085996526153567, 0.14929259695198446, -0.0859140798452219, 0.04968921979284674, -0.046263941647097656, -0.05377095540330606, 0.038345794835417654, 0.09765704402405069, -0.14552315121194007, -0.1920565361779871, -0.11032792210204662, -0.14724538815230412, -0.11173770246131697, 0.18840906989009823, 0.16879854889523146, 0.030694064073625644, 0.15314719775382732, -0.05467289433037836, -0.14198448065983493, -0.08105364756074944, 0.14084309896103778, -0.1927060457625088, 0.21631442362714834], [-0.0027464133723754214, 0.08599449312310217, -0.003088393981012251, -0.2057849278272016, 0.09687099081198489, -0.16852102376032413, 0.1906957555920475, -0.009664726121214905, 0.040184668596144016, -0.2105710869861756, -0.1308232770393988, 0.12424016091619249, -0.21406520274086446, -0.1909275729577264, -0.13049908805340402, -0.14174261509229694, 0.08992674862984625, 0.08002645483054312, 0.10775531726505398, 0.1617286751716875, -0.19619260066120217, -0.1296853404052695, 0.18910112956501354, -0.006977113630254053, 0.10007890186392418, 0.18267228404886776, 0.17868531047500083, 0.16145580976684953, -0.05868095448017742, 0.009124192119034214, -0.2182611959423843, -0.22947992618340923, -0.004741605526238345, -0.09919971169087488, -0.04610257028031056, -0.13157444391601628, -0.026689709248005018, 0.18586468116571292, -0.14207367027804385, -0.17879984529304274, 0.17219882330947878, 0.09598822309824649, -0.05140434327683335, -0.013305054241636315, -0.2188784098502456, -0.08477041754552724, -0.17370997675480182, -0.14285912255205438, 0.004930310742462375, -0.20224464115335672, -0.08170863730708389, 0.024233667058054183, 0.1387163573881711, -0.12780914690866405, -0.0803317765635449, -0.1200730612737138, -0.08914995717866009, 0.18646761734695405, -0.05549586182991506, 0.11270010016121446, -0.14851715758480508, -0.021455566066402913, -0.022078243325429996, 0.06782391294880302], [0.07766570725024094, -0.05874610338117612, -0.10969909255478366, 0.17977873689628485, -0.05748036954155838, -0.14795542765044037, 0.02142112537301139, -0.1336396052496554, 0.12929960324869252, 0.1112749316794574, 0.04090588004616736, -0.23530796687278133, -0.025704741646475286, 0.02422970214307767, 0.11831482238739156, -0.06192136346972155, 0.1786128050909795, -0.022252400288574746, -0.16065071683731144, -0.027075139228704394, 0.15350268278121626, -0.13999724332230742, -0.07170155025949902, 0.19681565964453412, -0.19013830525319644, -0.06886471829949853, -0.012898786201444324, -0.007025564007414245, 0.02921091867513404, 0.08207410323553106, -0.06161381879726885, -0.1898166284508716, -0.0767853430790521, -0.21730078295848212, -0.02825168113869845, 0.16058343306713832, -0.16734995118953505, -0.03549583532193891, 0.18365592430902325, 0.14747386415419622, 0.09693373262440749, 0.09978513323562367, -0.2223256568229804, -0.022077826929710442, 0.15069971552754058, 0.11755333865333584, -0.06043420204190745, 0.021048981190268715, 0.05133248699156786, 0.16282141558268148, 0.028789070865643928, 0.150400433846385, 0.1010682105532932, 0.227003435275544, -0.055286961911510564, -0.005896921091438465, 0.016184433487360633, -0.22994732506373514, 0.038845280377896446, 0.009675152614397017, -0.10398928863882513, 0.043075015859258416, 0.1109154273201306, 0.12712930010146944], [0.18339416663846078, -0.029829135242580577, 0.05065344627596655, -0.14805801006145375, 0.04114401161524623, -0.16258797285818566, 0.13507331118206406, 0.12370456619172537, -0.15178798250797293, 0.16120197208995563, -0.00330999503018091, 0.15184481537651434, 0.1558576766574326, -0.058341556219611575, 0.104157755819248, 0.13380412985798373, 0.19665104903432276, -0.10190950353159446, 0.14767340530790532, -0.0449908503036946, -0.1786476560695524, -0.0928013828017846, -0.14904103688842615, 0.086661557083439, -0.010402651483073377, -0.15155488540816234, 0.0264626857270932, -0.1464809712906297, 0.027618011304079877, -0.09206449949106237, 0.10145831519245926, -0.013287651219213083, 0.12480588556241552, -0.07263074490216208, -0.07158578863632434, -0.09475333038361672, 0.09348517001242719, 0.19169729206877262, -0.1878434351170925, 0.04173517783867717, 0.012994021136932887, 0.16046659914308908, -0.01920066672770757, 0.06531049038332819, -0.10683847797995655, 0.041255008910193805, 0.11357946971691078, -0.16442769187213763, 0.07911946090770042, -0.1709217265044665, 0.13264323063953315, 0.001562397040713184, 0.030593992401035473, -0.028116088470934216, -0.009530313257630705, -0.1396511023360091, 0.09119360495353791, -0.13145724655278562, 0.028305004508446915, 0.06329869460952843, -0.0963217365205728, -0.16620809727164157, -0.15647282421732198, -0.11414010220243255], [0.008909692375374263, -0.08273060123338669, -0.168733078056166, 0.180369918029582, -0.12041718452768303, -0.19105175587963003, -0.08905481122381496, -0.10334811188918845, -0.06399274285198979, -0.13054925793401675, -0.058594575038974715, 0.034357182862572284, -0.2046216691272597, -0.2000330770294149, -0.08846890771932867, -0.04067373737270862, 0.0004186262269286048, -0.09907546567590944, -0.19817047384771727, 0.175292797002516, -0.08512898273030163, -0.025428918693761817, -0.16052242122972105, -0.1752332738424596, 0.060071032654992106, -0.13050531943270988, 0.03299851590035524, -0.006467869501946076, 4.934168376954466e-05, 0.15862786848233645, -0.004990892375969371, 0.1601907812273958, 0.0311853977115966, 0.11694650380928574, -0.016203740509626103, 0.038269406269420096, 0.1733735609785044, 0.020683900724236988, 0.06495227695233527, -0.1604614572757969, -0.20503474474139133, 0.21752676124279605, -0.12439232930961362, -0.08001083049320795, -0.02948011472688755, 0.12262422452791007, -0.09768993663369512, -0.145342180655786, -0.030842815672215147, 0.1209169288714529, -0.21622875280390283, -0.007449207006827593, 0.06966860820867048, -0.01450086276274798, 0.14674109075805875, -0.07795090379448164, 0.09126852489734684, -0.13276958155043317, -0.17192407797757545, 0.04232372778963012, -0.0194730444900246, 0.024273166412126013, 0.03902405179046558, -0.08497250607976911], [-0.0186246212682947, 0.15568271518036036, -0.2385591238500225, 0.0327930002477207, 0.14028448623376724, -0.24896870391357595, 0.07741585383616646, -0.14109834400715285, -0.059602503927950384, -0.24456123138567215, -0.0762776045253025, 0.16461674550895952, -0.22052642502064174, 0.16732919044512987, -0.04351478623918106, -0.004884842316352256, -0.0917143706202056, 0.17269880570573495, -0.19309539229577344, 0.11030008215124111, -0.007007966133803203, -0.07764739789643647, 0.05287548773442703, 0.1344666791711381, 0.1434872499865759, -0.20300375883641378, -0.22293426455818047, -0.11533205009533114, -0.11181625014273446, -0.10390641331298625, -0.1331829006184399, -0.13413964167660136, 0.09980515032987525, -0.06297273480470866, 0.04803535339837969, 0.021443016887583786, 0.09730153699656112, 0.0509491307929193, 0.14650566863959252, 0.0017133854179992786, -0.1859995783024504, -0.07872720081689627, -0.09648038560580594, -0.16225566927237497, 0.07367755740137891, 0.08763030459331574, 0.13701197081506195, -0.09407500119017985, -0.03372259934449507, -0.0849436042554952, -0.082327194178942, -0.020719946209402047, 0.21513429094187464, -0.2169573726084508, -0.10112133631539164, 0.19385663649210497, 0.07223593424913927, -0.046373267722098065, 0.07874923919770517, 0.16736188979836106, 0.10720147578834616, 0.17241997601248146, -0.0140373822415471, -0.17433964952122474], [-0.17209714282705021, 0.1820157551409441, -0.13347805656424627, 0.11533434099962211, 0.040805231787150203, -0.04579820247578533, -0.096071146883311, -0.22177321765622518, 0.16985056175338653, 0.06265948967282163, 0.10484693794524577, 0.05666567475257435, 0.16577174753309876, -0.18113967110130885, 0.07035465362779365, 0.09852797752621341, -0.02238801190759732, -0.14525578235369674, -0.031072826351331313, -0.222358458990014, 0.08036355242806731, 0.20784460338158753, 0.13034271668165542, -0.011040685845196352, 0.07899093388885452, -0.0847356452840898, -0.04654745641018763, -0.05784610958356557, 0.11710900920573389, -0.05617037296227786, 0.030786737406198503, 0.13033994649031205, 0.17882630431865054, 0.07327928086766705, -0.0020276576932045233, 0.13046019442297202, -0.05884456169865117, -0.028027937027286495, 0.15337639506083664, -0.20610317453529012, 0.13700270409656146, 0.10839306210596024, 0.19214963694027967, -0.10616120271193429, 0.02970087163375071, 0.1741411445314157, -0.1908099018492296, 0.12489053091025651, 0.1248231037271968, 0.0709776257438183, 0.021818521333534797, 0.1970130223085061, -0.04435663046154466, -0.059374144344834415, -0.05894220031162723, -0.009749942652672426, 0.07931117500789929, -0.036028670480703226, -0.0031729217778733287, -0.11007615350190925, 0.009404725037326058, -0.1369036520060525, 0.05768030866301675, 0.2547975561071172], [-0.01860337446461017, -0.1746071738896248, 0.22087271936735456, -0.05023781978602223, -0.0014210336885291813, 0.16867212271364795, 0.09930668570747517, -0.030468679923223087, 0.15070593262583712, -0.10827854522511943, -0.1362205732581249, 0.04659192446416904, -0.06537576399625446, 0.02412353791339557, 0.11062467537225441, -0.012216412334611399, 0.16544894300625893, -0.14181756881450114, 0.1689026464202388, 0.12631811812546206, -0.15908634630234206, 0.016723979963659173, 0.1326159490791131, -0.056625848984236955, -0.008763905802837193, 0.09404983859029227, 0.15148963556741304, -0.0557971718738674, 0.132257859313397, 0.1336513215139232, -0.1671150795440087, 0.055920282554413045, 0.11777152240226228, 0.14245514485973262, -0.04543869867311255, -0.13134056317274867, -0.1345605518096185, 0.16510371830730944, -0.07985295657931046, 0.14484400355568647, 0.033862025309280265, -0.11539236140978601, -0.04528953678089478, 0.13565323371158908, 0.1468682329354235, -0.05631262537652194, 0.11422280822050773, -0.18448784639605886, 0.022670993199260258, -0.1591934723204519, 0.21216248874126922, 0.08092036591541335, -0.06741317270924162, 0.21305300148979747, -0.18375540676156565, -0.03479694581775314, -0.12060290500564713, 0.19401796308258304, -0.18911293778066987, 0.004923297907166698, -0.1268231958883144, 0.08860586681852278, -0.015274048677025589, 0.20463571697142818], [0.09358260034242838, 0.10571943522650323, -0.08023063429147079, -0.148819585093387, -0.05645011848235262, -0.2007616825800186, -0.11107687983664212, 0.04233920842087399, -0.13646505315457955, -0.19976489679596127, 0.02744191327437548, 0.1214636619198971, -0.13460345530955303, 0.18322323331480445, -0.06853286175115167, 0.006398651783939932, 0.0503999208487677, 0.020963322937433387, 0.02832224337346423, -0.17170731045729667, -0.007066234616729803, 0.1011242400401, -0.15524785792040569, 0.17823867055866838, -0.18903398095190194, 0.11410994430428059, -0.04894949034990198, -0.09632825925402318, 0.1513543001686074, 0.13174418687275868, 0.04634299933286723, -0.05143261182533679, 0.11810583921929088, -0.15125745734261514, -0.04331168641826699, -0.04137307696524071, -0.15500933958328084, -0.047048944313365704, -0.057313685099736916, -0.15441760609319935, -0.1597168852327474, 0.19442333848179155, -0.18673376696192676, -0.17017410599004273, 0.2021223034844959, 0.19499718364539304, -0.07126978966802827, -0.17199723590670934, 0.047051272560387214, -0.02680469108717784, 0.18831077860301315, -0.16799271925157896, 0.11320569369913365, -0.2131667031518337, -0.1265899864254805, -0.09380544215964991, -0.14530724424862385, 0.12772592496710716, -0.1413404207664185, -0.016997339347149698, -0.1604995779955593, 0.11951822965017045, 0.07416263004039192, -0.2024798571366913], [-0.12185121051787733, 0.03597216778256518, 0.01646535876003796, -0.06180063472823642, 0.055736180080511205, 0.18794650640998153, 0.0069015351675576824, -0.12916959022230803, 0.009531924866628598, 0.08197889229271381, -0.10908310055752891, 0.09361196399842661, 0.016578470937516025, 0.09206993620903456, -0.00788188376151281, -0.015106128766024877, -0.14261795529220755, 0.19987166373588847, -0.12907379651602272, -0.09465677668791254, -0.048729266003939425, 0.19894791976655293, 0.05766273325313736, -0.16815366087095737, 0.18634699708495844, -0.09621238569166421, -0.18610255858336802, 0.09661271317392892, 0.1994583680534666, 0.1761282140753123, -0.17293630311702665, -0.015854051830745425, -0.14788979097741137, -0.07341997415550225, -0.11422614974722413, 0.11853611382981495, -0.07871395791014933, 0.23009418970672507, 0.0073401138125322495, 0.06070079061211235, 0.11520612295837171, 0.09211374294546505, 0.14958104201896014, -0.15313530531592226, -0.005339350467934983, 0.046356787536611, -0.15058392468572393, 0.13488452927773567, 0.01226216501804502, 0.05622459192417462, 0.17798486225028468, 0.08569299942726487, 0.1173555969309077, -0.07443141133066797, -0.018367350906796684, 0.1722083213303056, -0.09499898524789818, -0.032107231490892285, -0.13691787681572093, 0.09542236020028919, -0.11636282467815676, -0.11698191114419615, 0.1734955727883066, -0.13433983759349924], [0.017012123890192236, -0.10004314754357574, 0.03183325794418069, 0.1691154341855148, 0.15566492164618773, 0.17068306368017125, -0.19040740316592997, -0.16562982774345894, 0.14141944051800256, 0.014431012687133288, 0.1324468449102052, -0.07133365222501414, 0.06050736846202633, -0.10950987019526236, -0.07086156874564103, 0.035108276260423565, -0.13750761646244178, -0.05296854984205692, -0.04596488442562292, -0.13607652361367858, 0.09021416481824976, 0.07755914567744515, -0.01779545223824613, 0.042421740882280685, 0.004083342705584305, -0.06145458377556788, -0.08988003988894536, 0.1037341297119197, -0.20647238427898845, -0.13550338007895116, 0.0193123464918012, -0.0833709155855234, -0.08619920148629862, 0.09952571114231971, 0.20712321108371437, 0.034901075702776646, -0.18437878723792844, 0.04004813818776029, 0.12993257800739202, -0.13969602140001589, -0.0895308943576521, -0.15324414447673712, 0.09703869146729822, 0.1743344465209439, 0.11313364430845108, 0.007848839916599059, 0.11883081598312362, 0.013871782017916792, -0.04472452587203175, 0.005770487314963144, -0.17288892132169217, 0.237541228645883, 0.17133378595027804, -0.1435019666169705, 0.06976135849050079, -0.1495810034219426, -0.19951195861160534, -0.1761249918164164, 0.046496315187161276, -0.05676149022822267, 0.1241191670488943, 0.03818430427846272, 0.19325537520233096, 0.2375599226382024], [-0.18939531988610792, -0.08830681967026345, -0.04841876635985172, -0.07382391551722349, -0.14364699677076334, 0.0926762006783754, -0.1572485680975507, 0.07048746190395394, -0.06458299947640296, 0.002326654586202196, 0.02417563610353345, 0.05097146127909503, -0.11696077120748125, -0.034233127249895995, -0.08538414667377245, 0.18383196119149042, 0.05166017384072804, -0.08943144244496365, -0.12522694315103527, -0.2344704987218339, -0.18870935716443846, 0.10773390566362999, -0.12320503496546467, 0.0468639609371172, 0.18844414309619928, -0.17266193133860863, 0.17348898509751615, -0.14422050243260795, 0.16591509068765062, 0.07318100343499383, 0.12648695529871817, -0.0703568212453754, -0.09552756121606626, 0.019591400255994505, 0.04491243452076204, 0.1420252111303745, -0.1853223903560932, -0.05229068424754863, -0.1311821811541125, -0.07336622413938967, -0.12171367431426236, -0.16346253819451428, -0.1208947434814906, 0.2118904532678834, 0.06569301132835406, 0.039558145079462835, 0.11535907931701718, 0.039049391105203474, -0.034112802227760405, -0.008048980962066616, -0.20742787739628288, 0.0782193397362689, -0.08448184209993317, 0.14266967645257733, -0.04179233734855961, 0.04925793660454436, -0.044522796498961466, -0.17200121203254273, -0.0011244965536947077, 0.19170782345035714, -0.1501349055038271, -0.15794945144357167, 0.1425734856787484, -0.07755329364744613], [0.009113883568566336, 0.05188317866129433, -0.0019842275059267557, 0.14600440776173523, -0.04274903593866387, -0.006355440450490994, -0.1789933991293919, 0.1809789629854127, 0.08167530529685174, -0.11198450595376405, -0.13172356149061148, 0.04178955496207938, -0.13784628651304756, -0.05699017320086, 0.02790380480821947, -0.015224864742928577, 0.045864152846306835, 0.21388103267582023, -0.13619178708067645, -0.015996127746363536, -0.18992841770956545, 0.13764353433548993, 0.033202271316784035, 0.20455155165495764, 0.06071828410671538, -0.0027149856535453754, -0.008020401583904394, -0.014043176491076673, -0.06885123478416223, 0.03781175701214974, -0.023830602801747782, 0.13443012282425829, 0.17698961525125176, -0.05639741864589199, 0.1000185739970355, -0.022947025023742053, -0.10960416494672723, 0.21000763740757492, -0.1131550736970522, 0.06698604574802476, 0.1280218399021938, 0.08620259485222112, -0.15955277575224963, -0.0842300542094361, 0.10250288194384957, -0.1258364300068038, 0.20441146206551733, -0.023605644254767983, 0.021453402528502603, -0.0034822964357846893, -0.03141444093950189, -0.015589883811897885, 0.17824603724566626, -0.20792321051694246, 0.19959680553558368, -0.1489762663026344, 0.014741128035977711, 0.11317283555248592, 0.10185832826320838, 0.04026624018843799, 0.010889003629037882, 0.1745666667438991, -0.03613248206170665, -0.16765304827813482], [0.10195964144567815, 0.03401036722858129, -0.127406641904983, -0.11069926713397023, -0.16736784535646457, 0.005548981427465236, -0.16864813883526264, 0.0827029996287908, 0.0480187254801187, 0.23576610493404113, -0.21591874067310082, 0.08074539293341251, -0.07473381551519571, -0.21350163582430726, 0.03888809054786207, 0.03422796203275827, -0.08275242801367438, -0.012898244982912047, -0.20546090641747453, -0.03751634037119379, 0.014040871705441115, 0.19175824522736387, 0.13049661606536941, 0.1476250318846891, 0.18072257211805293, 0.01819557334812376, 0.005233864401213921, -0.16385930545667585, 0.015290553468497246, 0.01606801498627077, -0.004951979839427137, 0.25566600201322115, -0.16776377283855592, -0.10787605435112115, -0.04344454729363156, 0.1679818032079384, 0.04986231368644059, 0.1123728657609417, -0.14574442954518677, -0.09573200027649653, -0.16966862103211836, 0.1662934986708086, 0.10893940007707657, -0.07888721960917042, 0.001510267521720083, -0.20402586301681594, 0.12433364065276471, 0.16469111620687407, -0.11630427902677941, 0.11262380125307732, -0.010060919019880018, 0.09285526049238473, 0.05403067235293188, -0.004741509876610494, 0.0828542120493844, -0.15893728893499312, -0.18865448610150426, -0.10533088224657325, -0.12859458289258918, -0.004456854235174623, -0.18196303589414223, -0.17945650136516098, 0.09437508475460508, -0.2398778180481604], [0.028067430545829535, -0.07149106530023086, 0.05521415132339361, 0.13312299660702906, -0.15412147711490237, -0.09068311832216781, -0.08087090246192317, 0.038397295027600795, -0.07583733226476015, 0.036527597720836934, 0.1390567723462465, -0.049561434886610474, 0.03128566176253442, 0.12083377898158729, 0.20047512168979378, 0.16155484743714757, 0.19414008041720535, 0.19300993541228678, -0.2628206965648589, 0.03520099581528972, -0.22980865337972892, -0.17284084070837683, -0.18099438912049573, 0.20290707170590572, 0.05266332097618458, 0.05651583861706847, -0.19610317685205822, -0.03152051247057699, 0.11540280091963308, -0.007984276107679345, -0.2002571175851784, -0.06367121693100443, -0.21504949332829357, -0.10184486345083597, 0.1675558514707294, 0.08761459573148403, -0.1490373521055057, -0.004040514550400363, -0.0426795037896462, 0.062073301428673795, -0.02848951729436675, 0.1465236924480058, 0.1876798170638671, 0.10841849816811192, -0.15123653449423702, -0.14145691273246766, 0.2089665998737082, 0.18113812567965304, 0.18180530471890488, -0.2062570502273931, -0.09767009445095443, -0.02521637694014719, -0.032333053385295345, -0.2507979526014042, -0.12912965222461098, 0.18839398311143654, 0.21757545318515528, -0.1431186527544335, -0.22033524387951284, 0.06695785899491008, -0.13913983479422193, -0.09206079887360448, 0.1766396292193053, 0.08273918842731429], [-0.17524397680755913, -0.03296719008387971, -0.03898518961489401, -0.2436510937316395, 0.0010290095569988709, -0.12150292145970068, 0.12874952122924993, 0.18841191633267812, 0.06082422289056232, -0.152626291587921, -0.02048854305918009, -0.09068187360334488, 0.19045893092585528, 0.1815448016318617, -0.01703090764431539, -0.10585372442780126, -0.08681158560360963, -0.1389254771904962, -0.012875130170824657, 0.06332640101386146, -0.2083195168558376, 0.10166369192855527, -0.07171768773600401, -0.04110758978915782, 0.2142862078037978, -0.12675379498276143, 0.09874910519445393, -0.0383274860084161, 0.16530493196030643, 0.13505155559670995, -0.1805034999484508, -0.20469011256417471, 0.23073793258622127, 0.16830146651856184, -0.1568173958200349, -0.09985271462394864, 0.13514555221257724, 0.1307720039142319, -0.020763553251933735, 0.10108331152598171, 0.21144448418608164, 0.10229441404002126, -0.03918438621202042, 0.17691902933949194, -0.11470306003080667, -0.1881298317540868, -0.24740288706835456, 0.10771189374854133, -0.12176883447787822, -0.03814208038259242, 0.08420541770453151, -0.19740489249717144, 0.015230575300693966, -0.15350713578638667, -0.15998304069316935, 0.04659935430693582, 0.06410114036971641, -0.08317110595283268, -0.13698927812922393, -0.023845578222349173, -0.06081236070223449, -0.03369446195310431, 0.19940521631665936, 0.044566494981072624], [-0.1739605282624516, -0.18581591243639206, -0.16634895859755697, 0.040275704230861686, 0.0962628259580138, 0.01224410807698965, -0.03318931352750738, 0.15517840953583822, -0.2195909929534109, 0.24108437099970975, 0.059088410957041426, 0.11922353415309091, 0.11282125933703482, 0.17304186775680966, -0.1749375039529096, -0.08642760145654096, 0.02494449242698082, -0.08034377815345281, 0.05044727216653624, 0.17111949613437785, 0.07855343808212428, -0.2085832176580593, -0.15019457222105473, 0.185232144898843, -0.17399040227145735, 0.13719388511814803, 0.22047995182058003, -0.1584635907488396, 0.0855272964423771, 0.11999261940660419, 0.19093322728196543, 0.15300396890768367, 0.0933760175132573, 0.110765696675352, 0.10790322554726248, -0.19032924523622038, -0.06421133358221932, 0.1648635118873304, 0.09654125217783845, 0.2070084159753071, 0.12834184135897211, 0.06864948912395773, 0.0032380797131584004, -0.17342283791596722, -0.044458566341781726, 0.22304789132408442, -0.19895238163359322, 0.20543844184780777, -0.16821213850139485, 0.11031566358490479, -0.15002606400185664, -0.0971700747867413, -0.09856722177175913, -0.054354752302584436, 0.16021077838597156, -0.16227504545205879, 0.12197516487941383, -0.07521822717577023, -0.15709063159809342, 0.19119011642387648, 0.10684612918347197, -0.02213951184990339, 0.0813399679668019, 0.11117102816674547], [-0.04003805797472769, 0.042104125227564626, -0.06134238635436919, 0.006532541603904993, 0.09127647478594864, -0.03922007016988921, -0.04143400366374113, 0.13585244437322114, -0.08386418000844095, -0.10300722312423775, -0.023610277134123815, -0.0892401873236293, 0.16356635483035284, -0.043600711027723435, -0.06997921477406993, -0.19699779667937958, -0.09820902260325554, 0.04455851567520078, -0.21209168677405868, 0.21074701540096172, 0.21543281130011988, -0.15037743975449236, -0.19518249177561184, -0.017419833016245785, -0.09281044314606865, -0.13831210015133236, -0.19061103431379298, 0.001051473607577537, 0.16764563287188436, 0.20679601944073622, -0.05346942386096335, -0.04710751105172308, 0.08381505540483546, -0.03481004788755359, 0.20195017710350374, 0.13255393056627252, 0.03878117965096924, 0.06574249949152497, 0.09197693088293367, 0.06698209684665885, -0.05189590576047141, 0.016983359398146238, -0.07219082244458754, -0.08869336263897047, 0.09938230906914076, -0.041463047009004925, 0.14514990199781339, -0.11375737427462905, -0.10212206223272817, 0.15310467068660924, -0.0663165364760584, 0.2076948081286816, -0.15788771094341822, 0.14705779077957057, 0.022675312024636112, 0.03187757686236641, 0.05654668418909212, -0.11201989129748262, 0.0957910147457434, -0.06548150228581286, 0.06876577561909865, 0.07113459965323328, 0.16076325317224233, 0.14244219718585127], [0.08595962207033574, -0.1028986643955628, 0.037010103056689475, 0.22000233616897133, -0.0805264665178742, -0.11993085512095847, 0.10364436193222376, 0.16574415924143818, -0.10533319692890489, 0.12973451108181178, 0.2906283670798348, 0.040484138029776365, 0.1905766046641623, 0.0431713214325737, 0.13255977686755535, -0.13443559602424154, -0.09740741743951144, -0.17212340199741832, -0.04164636654384703, -0.08645463391852318, -0.1572127710434083, 0.16780453650128507, -0.12382739943139126, -0.16038256147496055, -0.12969262885538177, -0.08299089596535814, -0.11513101786489384, -0.04600930655750849, -0.06441601133662124, 0.14127104999812107, -0.04588079450346325, 0.13754382027787204, 0.11612339801423227, -0.04161017173268143, -0.139761525975381, 0.22892532805548446, 0.05568167188354894, -0.26702628498894326, 0.1441358532326303, -0.28857102055224587, 0.08123174378522044, 0.21706685103707501, -0.13312782561331923, 0.0015805293256909276, -0.1602122518514523, 0.16195507073475424, 0.14599857251691067, -0.1840124490763492, -0.08993173510293519, -0.06795761747281906, -0.006532935580444231, 0.03954270627119574, -0.06915053622835525, -0.045071304608924286, -0.11080193186537822, -0.1623182079466277, 0.1644827771101029, -0.10501018106852238, 0.22640011547754618, 0.10822167608973081, -0.0016012182122925542, -0.0970453990240956, -0.0135395518328631, -0.1107721748105508], [-0.07968564741076675, -0.13357475981948413, -0.20797575995432316, -0.009869515891151454, 0.10570704392295915, 0.1355499734247353, -0.09274036528597125, 0.14314772572333856, 0.09782645811439311, 0.08937910832202828, -0.014563063071482224, 0.012902603305870064, -0.16111483774687407, 0.1545978218531353, 0.06742678515857425, -0.056481102466116845, -0.044399713631482846, -0.03252589768153874, -0.03546045025609712, -0.1422043775677868, -0.11719489306644615, -0.14536815120768343, 0.09664021212110241, -0.19693637579276935, -0.02945058481426549, -0.19780389211580718, -0.15381943920133945, -0.04173163667327609, -0.11282468247907439, -0.13537972990743974, -0.019785399725616742, -0.06134847843663335, -0.13223054268826057, -0.09550242969284466, -0.15499692364121875, 0.0418324216943356, -0.026716855312329146, 0.016050381959491794, 0.03171051712026146, 0.15897752531862347, -0.06593362469076042, 0.025719462019271333, -0.08722577592943204, -0.08957049011841128, -0.042961039415824326, -0.06380792748928193, 0.08129047904776338, -0.0332822619426941, -0.19484014219772217, -0.21639876084884202, -0.033081348937425176, -0.03903120977724428, 0.041590405831326394, -0.06894869190568967, 0.16053560450693816, 0.04837469426467739, 0.0992828985948368, -0.15138247453724296, -0.11317000574483643, -0.04106985240599614, 0.04817296128059867, -0.1396254401531408, 0.12188275893158784, -0.07520853777685146], [0.08265666587530264, 0.09260124332228085, -0.2258758989823309, 0.017149250070014107, 0.11394358937907213, 0.2260797765782269, -0.07679582988900341, -0.18345580822463256, -0.07671760959947181, 0.003567370777945213, -0.011874165315519698, -0.2600531176241209, -0.23291706522197933, -0.033200226351347194, 0.13797882560530453, -0.2056921374427071, 0.16414041171184368, 0.006025550374655282, 0.17983840937343223, -0.09148005227368945, 0.13185476111090727, 0.010379623501069784, -0.14730590548141975, -0.11193241840493504, 0.192220033580507, -0.08059230633601111, -0.25495671994560326, -0.035440639559100144, 0.025330667423451757, 0.06486008468847677, -0.2733041077063441, -0.18695285158681846, -0.19322238717457024, -0.16263755555332587, 0.0008462913191729695, -0.09420821893853572, -0.12123092246368306, 0.1113507346326868, -0.011033740564310302, 0.056552857942368, 0.14656541557624067, -0.13942194160570243, -0.20110091352232795, 0.08501670105638981, 0.09461982782344264, 0.00956561419293074, 0.10596549316405957, -0.08614121172578679, 0.07409276535091185, -0.0203214972722501, -0.07109878512961453, 0.05796598026291764, -0.18114096299094432, 0.010900486062732447, 0.04091468561371023, 0.1147913366261152, -0.16379111776632402, 0.07705370749266821, -0.17310660877592268, 0.08538735695156816, 0.05260866532475839, -0.14858012439014526, 0.03371261881088942, 0.18409381264754565], [-0.19625128707309758, 0.1140047873022617, 0.03963824508267522, 0.06012733895867689, 0.06609427677849924, -0.09002388301776072, -0.21265779158194958, -0.034374542998500734, 0.16496446404950732, -0.029562054420354675, -0.09600410205313993, -0.09356247499053445, 0.013068433006688298, 0.12898105542814675, -0.19522165023439714, -0.17930023751633603, 0.012520384851256039, 0.10954131967137908, 0.056864669234242896, 0.06434501056119894, 0.125733990808658, -0.11431530866617147, 0.01202040263806571, -0.015831309372489846, 0.12759216083807107, 0.2112259964242348, 0.12403089007876907, 0.036647354049693937, 0.18442096617494533, -0.1647196298784325, 0.039827141419316356, 0.16624538976289197, 0.08224897989529856, 0.04993702792284883, 0.01630104397023432, -0.17012845068455495, -0.16729631576928536, 0.09904482894318535, -0.10921425560553723, 0.1193222189660394, -0.16025582491598492, 0.1139423753948432, -0.01004826575216678, 0.13318902367702184, -0.19284811816305533, 0.08894648138882574, -0.03158066701988631, 0.19904407238502891, -0.11547709918650224, -0.04096445421048065, 0.061334408595879734, 0.0979658671578023, 0.0879571948005841, 0.13324072461242673, 0.18534801797178665, 0.11496352159074473, 0.04720444684797075, 0.130201400186165, 0.18058656429322054, -0.2422452749122802, 0.12535720342043408, -0.02952464059937012, 0.07168816602474154, -0.15999364894051823], [-0.13500914682281318, 0.14137098047411364, 0.11594929636739658, 0.054846624147747464, -0.17333903536719325, -0.005992443776052219, -0.100350385534923, -0.16485382372486432, -0.11570710746426427, 0.03776121813476862, -0.0967379863867358, 0.10454843085254861, 0.10027538028330854, -0.11262763536502164, 0.11977021807318161, -0.17547575899988493, -0.03520083184014599, 0.03228599395278643, 0.03905534575965346, -0.20472163602298502, 0.09748026900730404, 0.20932970055412073, 0.1164819577669728, 0.06260056894715393, -0.08240134111938914, -0.052009843228469785, -0.20090656856848335, -0.08710721239720551, 0.04593559289039906, 0.030809526093257232, -0.17576816430984912, -0.0599288861468642, 0.042220638878379256, -0.050015298935204844, -0.17308249357031721, 0.15586685779777956, 0.17865835262290555, 0.16629549370121632, 0.07081114572906591, 0.12661214417708297, 0.14320875378248965, -0.030520891529899057, -0.1747923530788689, -0.023018906767484262, 0.03561329208732896, 0.10841059097761853, -0.12315450393268723, -0.1644332058744542, -0.07243570950357349, 0.21970350868914665, -0.15024585166032037, -0.1826707783729516, -0.11046078551096267, 0.12166943370002774, 0.19593192044329133, -0.18296279272531799, -0.21098705020242564, 0.0882056067376571, -0.03599455277890243, -0.1576415439110426, 0.12122484202051216, -0.17389870999958504, -0.0015814067564991088, -0.17973933608221884], [0.15305562543590012, -0.03920463753005227, 0.2087890350146957, 0.07462290312637385, -0.1690875201210214, 0.0029327974916858075, 0.15420475382448012, -0.15855303575161606, 0.11002975827640245, 0.24158516097264476, -0.10237152003568857, -0.14580361032038777, 0.04788198131298671, -0.16422989067265825, 0.12363222156221344, -0.15207924475483078, 0.015902532445578328, -0.20084334544928883, -0.09874714262729613, 0.08390395923813768, 0.05933273964385647, -0.1647786820163265, -0.12549591370027507, 0.08508345102214931, 0.20644724532965159, -0.11878131654931948, 0.13402567563027493, -0.20856114058163822, -0.02882771470512233, 0.17315708357239815, 0.04376673134195448, -0.06789219693722974, 0.07546469335257659, 0.03233676057427522, 0.00047806371954616455, 0.12172065135713393, 0.1381086822933628, -0.013177818643202503, 0.06337812297282096, 0.047454975229327456, -0.08484808130878059, -0.1391252178422197, 0.015122388287660563, -0.061705523681441346, 0.11317707712993531, 0.1517237921365158, 0.06953062355704284, -0.10284906800617906, -0.003910983980076926, 0.18536653388371652, -0.010192671894954871, -0.10451898210184614, 0.11661135295420945, 0.22282608137751303, 0.020745593797446206, 0.039174580964528236, 0.019033199801011796, 0.040643644444703635, 0.1354801863998119, -0.014390659458939952, -0.00034299362614471245, -0.16385524981002694, -0.009807628305896996, 0.18992835355665505], [-0.1813020549974003, 0.1598408476876499, -0.1449221254435015, 0.004389207440600429, 0.04790565892463955, 0.19580866308156153, 0.051168434321208635, 0.021535729232573096, 0.057036282952581736, -0.01745562407852153, 0.1726421148434284, 0.16083038836111466, -0.09749102153771946, -0.19804661910962093, -0.05093109930431213, -0.17108429723670807, 0.14092178176309, -0.0666264700400736, 0.1463338947306084, 0.0451650806969888, -0.22213772363761825, 0.16351203536043923, -0.13604426879516276, 0.08076117419801031, -0.19031195689775496, -0.21382727219198433, -0.042757882811805085, 0.014023134741081016, 0.13612690256784643, 0.215550627058787, -0.15729287957727445, -0.12862747252551807, 0.033200208049721125, -0.0173724252935466, -0.002960093362469576, 0.15472112732563034, 0.1103053192135397, -0.043261629583954075, -0.11929702929111606, -0.22798722715419983, -0.07813801981701884, 0.1515427103639377, -0.1496196541314243, 0.10169989465321434, -0.1308880375953395, 0.18330431377958653, -0.12727428543581276, -0.03892942285801239, -0.056312191092514105, 0.22520369736928758, -0.08067565765936702, 0.11135132699886613, -0.0589539525517373, -0.039589763255927654, 0.06366786060440952, -0.010006661285837262, -0.09566044789912709, -0.12028827859424171, 0.22084332309968605, 0.07083360617446245, -0.0045453107735227635, 0.011397885463175904, 0.1815889054778795, -0.05492062675864586], [-0.11406036405958282, 0.0846228031799678, -0.029934329877351, 0.028525740899619675, -0.13138396444932113, 0.20352913155907637, 0.14889447523616475, 0.13800053175463523, -0.18423389253389721, -0.1926158007983313, -0.18422271898374226, -0.0868933464653757, -0.06595603491263032, 0.1599535505907909, 0.1531708388089214, 0.1112593464689964, -0.014669065742801397, 0.03455244371363523, 0.005967838638798379, -0.05283799268282092, -0.1708987328354721, 0.14105195513558316, 0.046947428686743, 0.016835956290972672, 0.018527540011563617, -0.13852140476053612, 0.10868852470286872, 0.0869397700703478, -0.014303641058483347, -0.08885947548029953, -0.1884979754812283, 0.1713217069106277, 0.050214099095740025, 0.11167007564766131, 0.1465550416196861, -0.053236786837527, -0.01857336708544244, 0.19106329794960294, -0.15412318470190228, -0.01165074528421397, 0.06676672986919238, -0.1450822382218003, -0.07869323809904666, -0.08291221627067698, 0.1801353470780851, -0.19192265216380267, -0.18391278207084286, 0.2145242382743427, -0.08148777610948965, -0.1128760716041504, 0.15210763838464691, 0.13005559788741325, -0.041519423095535093, -0.006605333925915263, -0.05999719285675502, 0.1515025706667376, -0.1867383244032415, -0.011577188323852886, -0.05315351067240869, -0.17775019536845524, 0.164476551986098, -0.05826050583505806, 0.02702131350152402, 0.0016369067473755233], [-0.13760480063234326, -0.011347132004000832, 0.018029479019601734, 0.09829969634552323, 0.13630769793438755, 0.07118419278907126, -0.175668675669088, -0.12259840693573719, -0.14488557420208775, -0.1616982274134939, 0.09436247574931517, -0.09255252126008107, 0.003821615807445771, 0.003661328697165719, -0.027787918329565512, 0.198523709897082, 0.0002755949816900539, -0.1480637337300781, -0.14404811488693467, -0.00960007358112028, -0.16197507537672107, 0.043556930482940445, 0.011074843220439555, 0.13632658396272626, 0.07144946855563346, 0.16880304430781315, 0.08704348826216313, 0.13136827668517143, 0.02366805128538055, 0.001702403196066012, 0.12595078204778393, 0.15934142389105166, 0.006918394257197447, 0.1647371928597228, 6.224373762786761e-05, 0.08500162157245818, -0.08510552811962142, 0.14836620415896695, -0.19033999115516537, 0.07557360022162574, 0.139648612790781, -0.13716754559427807, -0.15556781380176404, -0.21961514177883776, -0.062221784371406685, -0.054841033662358936, 0.17708625424114666, 0.17763783682315254, 0.07668328583030667, 0.060569814403468605, 0.17658282014280824, 0.07130575504917375, -0.1501491906390475, -0.12119364196971635, -0.07353075906413839, 0.13344047315857663, 0.1356187136729881, 0.08566741260210703, 0.14449935584091744, -0.15288556882060184, 0.04090822190586819, 0.03860647998572347, -0.08110017425927173, 0.29112546601919076], [-0.26759249064610885, -0.08357485728142917, 0.14146127266596722, -0.1058949911890173, -0.185948728208176, 0.06359620918147924, -0.07419027498100658, -0.10326847090674506, -0.18810918594863693, 0.19726338380333042, 0.02596601098320508, 0.17153232563474036, 0.1885089957300152, -0.13421507394185023, -0.18544767286738992, 0.17988510621585863, 0.05030535409950846, -0.11314083294279305, -0.06652168254165758, -0.012512731482977832, 0.035422835227047623, -0.2309566791549642, -0.1152508264551479, -0.17361534660232697, 0.16692002900957295, -0.026316473106863938, 0.11049956033964638, 0.07693381820598996, -0.13487558148841686, 0.03196879183665564, -0.1878333076888221, -0.09712937442489701, 0.09272955448097009, -0.12433298539967134, 0.09490437856894426, -0.13255488811274826, 0.14287791732540372, 0.06426521192251301, 0.11008038731635035, 0.15206354287508006, 0.0026681194199884243, -0.14656169733266222, -0.05024581739207552, -0.2104471590023207, -0.048660245737529896, -0.04175888513469576, -0.154889387652029, -0.19622888518383, 0.025661453652866255, -0.20138310948094235, -0.07201232288696152, -0.1109509701006439, -0.2340435291206269, -0.20016519461403, 0.14323016354589765, 0.05922709828090021, -0.08899590626692654, 0.07990639077226393, -0.15209040946949376, 0.10582202735078032, -0.19910931257619432, 0.009477932490429065, 0.2135944688891608, 0.1906536194114808], [-0.20115000117081056, 0.05809588072348836, -0.018123950574786673, -0.22756016382491223, 0.08533148246066584, 0.018303117464090045, 0.047288149052781996, -0.13793932934691236, -0.13018390059890808, 0.061952166004604924, 0.16077413202418114, -0.07154324985594913, 0.21206298175160787, -0.12791781788226675, -0.1577831144376557, 0.08832791919173127, -0.0865244555257545, 0.19209827097082535, -0.19265185435561838, 0.007585320669845035, 0.12657446075859932, 0.10484102066420614, 0.2122096839930269, -0.10412195959837467, 0.0566394196559693, -0.1558504847456481, -0.1707552623165215, 0.10735866269995954, 0.08801205057447856, 0.1121531790755833, 0.12896557013937895, -0.1373215600406805, 0.10802964268616175, 0.11107045824984929, -0.12204482437977594, -0.002064549387081879, -0.06066760222315341, -0.17457167151383904, 0.15578504678723046, 0.11065594889026352, -0.20397406374556162, -0.06562672906783502, 0.12604658335094024, 0.21621428937126558, -0.12679788754791785, 0.19808980516957397, -0.02516269165644232, -0.212497897027917, -0.22301569001739358, -0.1810323842570874, 0.020262511357593858, 0.2130324889510333, 0.14113546290900553, 0.21067173994148408, 0.18588488110814141, 0.18026402678075384, 0.13534211455236114, 0.030165986310060823, 0.06359101496712168, 0.17367208155646596, 0.049800898507345384, -0.20711340810475487, 0.024919196950147215, 0.10145526461041633]], "b": [0.0031610160609725465, 0.032575833580669296, 0.015606861503310535, 0.0017672343672117971, 0.0379888622310579, 0.010965674047715535, 0.014022151641228492, -0.016796286294832676, -0.07684036433537582, 0.007868459852776318, -0.023746010941158607, -0.03180696644729169, 0.03148464676507602, 0.008628905549525275, 0.00755676428970191, 0.012116919040072668, 0.00996904532994, 0.01648187119686237, -0.014405580735984485, -0.006239073160658324, -0.046444963332731265, -0.012171022654616604, -0.0267534073744154, 0.04590604813026869, 0.010990804524991163, 0.0, 0.021515999731555838, -0.00021632825027542263, 0.01621257264308085, 0.008836108628433884, -0.002398722004046529, 0.03693829212664728, 0.025150510218661715, -0.003763711327500858, -0.008001098568821016, 0.004538463530170147, -0.00968970887552021, 0.007599634601172429, -0.002616464641586888, -0.008802027112492413, -0.04500907485986584, -0.007461733829137673, 0.009203079302842122, -0.0075118941846159595, 0.022098206491931935, 0.021433748603977124, -0.01590898219389739, -0.007412703532132285, -0.011219142996913598, -0.052015400344317626, 0.01180322900721013, 0.008542993984480314, -0.003625929192249147, 0.006411619716688007, 0.0, 0.010743951649124589, -0.00998842475892706, 0.016649865042192027, 0.019586927233091432, -0.01226360571364703, 0.021185670878560433, 0.015996411497570556, -0.003671117231012542, 0.008970973837547901]}, {"w": [[-0.2510847485985073, -0.26657435067419033, 0.24803751132420393, -0.24479337183538524, -0.27764948972941816, -0.014476958486835112, 0.06472862055115564, 0.2174488067920287, 0.1502313658764471, -0.29231096640338045, 0.0338075770321886, 0.1492513657598713, 0.4037134186494883, 0.17571431278833227, 0.2721224004847311, -0.12854285129066897, 0.05524786694645184, -0.3623143096019281, 0.17148243619014145, 0.06040135992026347, 0.16168611647417128, 0.31213703996249453, 0.24182741849477749, -0.2637623441678578, -0.2718285394452922, -0.09765046815347184, 0.14195905193801092, -0.31900077707783264, 0.20720410140223594, 0.06934825202923685, 0.21931777511215597, -0.09331078538816792, -0.19480086857003728, -0.22477350553859243, -0.2083969964058248, -0.1154768693207197, -0.10132092975351324, -0.059861872246497055, -0.024993726972276135, 0.27156297448343325, 0.26421754317708596, -0.2417981648045623, -0.21178193386643165, 0.025378225707029058, -0.17557321213373803, -0.11521669383170517, 0.3013601827667991, 0.2926776303398131, -0.28358060663305573, 0.11416128210791435, 0.3030916602977336, -0.18094675614727113, 0.04168971743793548, -0.06619157319663306, -0.19988560508763162, 0.1907127464794472, 0.214915772726613, 0.24606147481817747, -0.00535641151517008, -0.1183030304874722, -0.07653407216796954, -0.02422628954570303, 0.08736719843973166, 0.11186526499363399]], "b": [-0.013259824356596964]}]}