{"algorithm": "ppo", "env": "pendulum", "checkpoint_pct": 100, "architecture": {"input_dim": 3, "hidden_layers": [64, 64], "output_dim": 1, "activation": "relu", "output_activation": "tanh", "action_scale": 2.0}, "action_scale": 2.0, "layers": [{"w": [[-0.02972309142765731, -0.33604905949611663, -0.3376949924541684], [-0.4302118780862275, 0.31047028686145095, 0.2853844100594595], [0.07347664554350075, 0.44096420296035965, 0.06309108465342647], [0.41433724095312685, 0.20758855849888455, -0.3375475574590385], [0.3066594724838697, -0.4487251904528247, 0.16051546090528496], [-0.09502733235586901, 0.39075274445768887, 0.0833332255966981], [-0.285834585241603, -0.18279490188168446, -0.3552864146843091], [-0.46805272950085347, 0.20490774816475685, 0.0011341027983074457], [0.21632772441205525, -0.22179567146754808, 0.27602574876866576], [0.4461522485165507, 0.26538396567294087, 0.12694458233884842], [0.1672202307483354, -0.23126380994956633, -0.18877166545803256], [0.3453656489644017, 0.05668817659219423, -0.12783743671075024], [0.08272057827771226, 0.6438851120640317, 0.22893758290438126], [0.021955145700721136, 0.10400710580667577, -0.12992624639576247], [0.14565654512314777, -0.4484608213133402, -0.08623567729062354], [0.22733497525765986, -0.2715631904475296, 0.1586242356353985], [-0.39785336656063436, 0.44709338609128263, 0.16070206718595417], [-0.11147075465841752, 0.3482485140869845, -0.29742751917662275], [-0.3338378162081346, -0.44235180609568364, -0.05764752800440621], [0.19641755311571257, -0.5146756297061282, -0.2797327683691145], [-0.25075664216037846, -0.3772129815181882, -0.24452942212882076], [0.12300755198299734, 0.1778020309622267, 0.14527361557185006], [-0.2771094758337412, 0.37439115073326945, -0.010855441326929161], [-0.3710554466187058, 0.2787727345668223, 0.243190853234223], [0.06689089063962353, 0.541991161616948, -0.037799828703885645], [0.009333913158104192, 0.38784338067704743, 0.2735693010962207], [0.40306429127935556, -0.11360724129419188, 0.1281147157626254], [-0.17008131525868236, 0.18344338965249526, 0.11063189934627901], [0.10038866592337312, 0.46711502509638797, 0.09771564717829777], [0.3418795876946409, -0.22099760319776, 0.16374743644697656], [0.3310644440842334, 0.22167911061781476, -0.3127957780832532], [0.27758335081831914, 0.6535371408365713, 0.24323048898354552], [-0.44064797551659757, 0.3721349897386367, 0.2161621999517609], [-0.026378568677306678, -0.11349783567742423, -0.17538627854399194], [0.29558116240844784, 0.5354970581019529, -0.1540175278638534], [0.15578446007261035, -0.18290128876393869, 0.22441296395245774], [-0.6108236975904283, 0.23805498349358467, 0.029031437027621947], [-0.34066736403188697, 0.3406294991819202, -0.2613423733022604], [0.23636851936610673, -0.2738980578064967, 0.2080626845913344], [-0.5048323857084569, 0.1986161863214246, -0.19493825181571692], [-0.30460615300841953, 0.13022321354369176, 0.25754588258454025], [0.004543682946408261, -0.3640697632786756, -0.11433014697915764], [0.3203483903515765, -0.4187994992332947, -0.2098576341589939], [-0.3987185339020424, -0.057289471117463214, -0.020363915359780053], [0.20569683198564953, -0.494832382871139, -0.10463565775443963], [0.06479835811714141, 0.49080539010472357, 0.09177489833869153], [0.362363686573348, -0.1915678832994114, -0.06699596733192564], [0.08565984839599208, 0.3250424202144843, -0.20561370339630772], [-0.03768402995161842, 0.16925322241323607, -0.2724223143217978], [0.3301940692202382, 0.054083295273065886, 0.22034607477201193], [-0.5323112855425848, -0.2212004925430598, -0.23535935715447395], [0.26463636786772166, 0.002937547188165336, 0.1378091370609171], [0.32896799098065665, -0.41655284279853877, 0.24944383630943792], [-0.5293449626161322, -0.10180062912287972, 0.007690961650914236], [-0.20936067002240058, 0.3890601747550842, 0.20912316982008897], [-0.2704946026378871, -0.15624528072471994, 0.18841461469535], [0.37130537958017346, -0.2188277702292142, -0.11188806440705043], [0.41945616380436246, -0.24479629448313006, -0.19292466553373233], [0.49068986522377955, -0.013069359537495918, 0.10084597235979353], [0.5255105884633522, 0.2879817526409745, 0.1461388049681602], [0.2648901363710842, -0.40579358058792236, -0.23278000587730813], [0.0476948406087872, 0.24041749111462077, -0.18369579574476405], [-0.11090383150479644, 0.462869712559261, 0.1393576540663871], [-0.15626075721760996, -0.4361837269315453, -0.04897240445397284]], "b": [0.12292797888533943, 0.08930299543800896, 0.11682825585783678, -0.06778809542193136, 0.05213222461628507, 0.14743134361968896, 0.13884446124940134, 0.20399184890127545, 0.0925965452860991, -0.020901929232404737, -0.07606720715752271, -0.08910236988905765, -0.016865149835321717, -0.12474473925293016, 0.06407023615595688, -0.03211129680742671, 0.07897599855428687, 0.015547441436842942, 0.043890420742586776, -0.016278765440198146, 0.0996770406872535, -0.08111011503394898, 0.10101957684459809, 0.030244403234346583, 0.04636141328654253, 0.025330641404872938, -0.028478255524943482, 0.005256880732604997, 0.05747723063499482, 0.15018343071820114, -0.14450858174871656, -0.11437238747090699, 0.10420012700566937, 0.10812347530713515, -0.04937770666218866, 0.1037932765652227, 0.2554402547172015, 0.13172506769848152, 0.02117842854064411, 0.21413274180793718, 0.07209102034891213, 0.18009700379062965, -0.07934937547159776, 0.2415139182871154, 0.012777325979394391, 0.11685590905539642, 0.015311882480645602, 0.05426490436474454, -0.16183597025281177, -0.05619257934423369, 0.16423092048184074, -0.013471300306991963, 0.0900536974022249, 0.19837008703607695, 0.09182066756753095, 0.1266521328330001, -0.08363361204831268, -0.11568794553148128, 0.026179115279806882, -0.036537133605777254, 0.0013844806230606734, 0.0684186120197022, 0.09378684474293379, 0.0334557688592444]}, {"w": [[0.059942879786363666, -0.33419932071375413, 0.3085565265984534, 0.019171617569083158, -0.23745306457582033, 0.11326653563929634, 0.2719684754258796, 0.005865041336502299, -0.1409068030638097, -0.11341846158526137, 0.068700061938273, -0.18460621940272923, -0.12133542267541546, 0.028693101109393278, 0.21021886252665684, -0.25744248327133873, -0.1726816672619379, 0.11282167975563923, 0.052247664764024065, -0.04012321604293253, -0.11353297906129058, -0.01933424291154848, -0.1642212284535804, -0.20516490500122223, 0.13603724710360213, -0.18408055070478133, 0.18039072636803433, -0.07889564588107154, 0.13222930090640247, -0.15654631885016917, -0.2036244136468294, -0.24617182693704712, -0.0011756743490788566, 0.08638204854859158, -0.04951477438246143, -0.20129599452942332, 0.134539361327009, -0.05698180476604979, 0.02791296950151405, 0.02679880152679245, -0.12911704282207742, 0.18952662126811792, -0.20837941068541752, 0.16764845073030218, -0.1612062063311866, 0.19503362019629933, -0.07625078316947281, 0.20116002737703487, -0.12560561213856675, 0.2016545233184892, 0.2330006758906343, 0.020194778166773467, 0.09752612949745497, 0.1810147931579776, -0.13343105780116626, 0.10771936152013997, -0.2706240763289731, 0.09977848591594367, -0.0316307877849808, -0.043009817882406084, 0.2052604453813755, 0.11289327109003135, -0.17018299893081362, 0.17405827802888263], [0.1999945014118133, -0.24570815827449416, 0.3805029026155572, 0.10441095164721753, 0.10423535462196667, -0.0300051107529743, 0.19029784844367406, -0.19796460994890108, -0.041510910477325205, 0.08090994934313625, -0.0007355680004363853, -0.2430296119075497, 0.021923166921915104, -0.2320796360422694, 0.05017171318009132, 0.1705993695673618, -0.2700724286934403, 0.09361020262315263, 0.2865706423035863, 0.18977549238841107, 0.22506894229627267, 0.03102839399966886, 0.20558943985442832, 0.15689279490725005, 0.02106356030528864, 0.12611018391473947, 0.19896800650621674, -0.022899318889026046, 0.2848482807601809, 0.0906346607240595, -0.11193822401545558, 0.24940470410403437, -0.04963408360168928, -0.16386639484651142, -0.07268650532655356, -0.16055330895027006, 0.02799193093991125, -0.009646320439708388, 0.0007429427153245215, 0.07588206940064732, -0.16901742140596307, 0.2252728543240628, 0.01517126954485265, 0.22742297734873534, 0.09822623691820569, 0.29246876846328435, -0.2747262050066135, 0.08440127720564289, 0.038052222413799415, 0.19769098017937342, 0.12082169002673686, 0.15926934994220918, 0.21904113365336406, 0.03147808781148481, -0.1633610749977698, -0.05046499202236415, -0.007109302978162929, -0.1035785019091159, 0.11465651369248876, -0.035096058065986924, 0.055583284830013215, -0.10255545026282006, -0.14994459297752455, 0.288798336612986], [-0.3185856900810897, 0.1008728651415095, 0.29745372516687996, -0.3107338158013021, 0.016087311885761714, 0.12246204370876693, -0.33180200997275533, 0.26485061180366254, -0.07297879230443494, -0.23963154377057214, 0.02472673353157436, -0.40797873222919806, 0.04396485148948105, -0.3815575600540287, -0.21078463110348186, 0.11113281669754844, 0.26218983876767854, 0.08425432898002286, 0.02656026010997902, -0.21780713749756367, -0.40627646927270844, 0.06726175106805507, 0.25142612170539297, 0.15464403821958697, 0.23075050102163525, -0.1564710236479928, -0.25342825794147184, 0.0897710203899065, 0.01961639831246533, 0.1569565798047207, 0.057497861738198, -0.15969373491504119, 0.15634355618737145, -0.2521979409585584, -0.023495745886724616, -0.08954666086767844, 0.29354884735281817, 0.218123102072878, -0.09563837293339608, -0.07707569027047516, 0.20441732918092054, -0.15583734142951838, -0.1308424029843929, 0.10012127304907854, -0.25747869562539877, -0.08036734799454828, 0.07930982664107196, -0.05138012674901127, 0.056174292439280814, -0.23385444926647064, -0.08030446645897069, -0.1148902583407964, -0.14265577971429624, 0.2652695310059862, 0.14260571879667788, 0.14613459305953597, -0.24093563841083632, -0.13002220268753778, -0.15408173058183727, -0.17417055005231039, -0.3606832377881487, -0.06199269167218506, 0.30880329501117176, -0.031128753517839385], [0.19501261720132584, 0.05032892857282398, 0.1179122789055209, -0.034850580441796744, 0.11816439813899123, 0.052663956265342295, 0.20943690784707994, -0.009582355250024786, 0.07432350947268127, 0.2925867922302908, 0.1258984208380847, -0.2148688019038456, 0.12043032048949824, -0.19792776106609458, -0.08023340735737826, -0.03154347163992757, -0.2536386041614394, 0.1937564294002566, -0.06337324060834212, -0.2266808636168924, 0.0015091390259518059, 0.24389516712661183, -0.12246602642537843, 0.0684806787953451, -0.12890350406186535, 0.01893744015457766, 0.2330605309124157, 0.04760317618024492, 0.25838814288183565, 0.03094122219195967, 0.18773509182693734, 0.2293436502703378, 0.024323969441208328, 0.18595963491771259, 0.03217549307552611, -0.0677766087000193, -0.03862599536149395, -0.1043198164465793, 0.13302220692500255, -0.11176398443741135, -0.010989861562277808, 0.05991776879281134, 0.016970333118721, 0.12673636505999403, -0.23186654534275755, 0.17308649713060179, -0.11556524380112618, 0.04311153705330348, 0.09203661959044084, 0.07948422751989496, 0.20005881172748852, 0.022950079298473064, -0.02468258514046285, -0.046893367245312643, -0.1732643316558246, 0.04161619283610279, -0.030283067065036723, -0.2059150681567535, 0.275954235489506, 0.18521664791808043, -0.02032586865147951, 0.1413688638627899, -0.060299006718408515, 0.12288503905075997], [-0.11920057912825739, -0.21571053560169534, 0.30432593663932694, 0.17614376354474506, 0.0871502561434745, -0.019415467392762165, 0.0653750299749279, -0.12444634398828545, 0.2177073161867892, 0.14100771695073755, -0.18567950936510028, 0.1373767003060364, 0.2047309188042206, -0.14983177273772177, -0.337480058612146, 0.11964172313046624, 0.01826377227695386, 0.0963303744203959, -0.40485107019201955, -0.2542203938868133, -0.0068001286170095284, 0.2069141137823974, -0.1175732745158865, -0.23467045873398149, 0.15777110667860217, -0.11965397396391733, -0.10527217808230467, 0.10486861166044968, 0.20431585714784434, 0.0007253674240923772, -0.04735896528694439, 0.01003042493469967, -0.14244342549931635, 0.03801656829132595, 0.09609306915090172, -0.03351419417473474, -0.028801601387546092, 0.11395006625129998, 0.07335553344997575, -0.02088043610696218, 0.030689798047848525, -0.036666884094790006, -0.20607399218484246, -0.21363535874791725, -0.17432861372559563, 0.20310593396580404, -0.010357098538067636, 0.005416232697650332, 0.09244575802440602, 0.28494917865179786, 0.0037578808501168843, 0.19763775371373585, -0.14773965238506734, 0.039777584651719426, 0.16151818322619702, -0.11612759158311979, -0.3330031869081228, -0.10911582562888292, -0.02046824509703746, 0.36636112898492607, 0.06941358484445612, 0.24238135379357717, 0.025168371055849056, -0.4061173406064607], [0.211315914802246, -0.018670752171163072, -0.05190544341250955, 0.15218548182990335, 0.031098219677223544, 0.14774830383712603, 0.07570600639075581, 0.09991186635262232, -0.1288309557725472, -0.11576791675704558, -0.15899162271979195, -0.29545527536994826, -0.33627386484431326, 0.07740364374991476, 0.10345350742735375, -0.09872630907400602, 0.00956079834496382, 0.0036934370579672924, 0.45083321431267925, 0.14403448749840642, 0.24826397475907155, -0.15785054215815014, -0.10213694865966998, -0.2712352422657052, -0.11686471335227244, -0.15662690254590197, -0.21422340201353468, -0.04797524069154564, 0.07016653928834045, -0.11782915325346804, -0.04055254260444627, -0.21377051634279826, -0.009082279302447632, -0.12153271306676412, -0.20110877702046706, 0.023668197408643416, 0.22746356159406114, 0.20783089758495618, -0.08629497900503094, 0.015490884721443079, -0.15565219552702528, -0.017888948987319193, 0.04797998255993056, 0.18659132559162755, 0.16332626628248953, 0.0015512940020921955, 0.004149463017741172, 0.01028164099710315, 0.05528376009065054, 0.2078647056614079, -0.017002534888067765, -0.018905181857096345, -0.11839082643863164, 0.03361007849150643, -0.22711453216528762, -0.04228153839654383, 0.046549823181967605, -0.25369179809764497, -0.26701725180864794, -0.22638657927323247, -0.11685251721402312, -0.07718575077880095, -0.2873369447904446, 0.1163697735837509], [0.02134146174031366, 0.05231846704573635, -0.022187600517670835, -0.0008128301800750049, 0.07670032951529492, 0.24087022988430873, -0.4191780449254565, 0.19387292341251397, 0.10614734701437473, 0.04349094782850434, -0.008977342041100784, -0.09621459627647735, -0.16920159937077164, -0.26853536992747773, 0.2544906962701788, -0.03389692741381007, 0.2959474185166545, -0.020527433355393403, 0.1534179101598701, -0.015854984399831688, -0.10677148587134846, -0.09878590418744222, 0.29367930544102655, -0.02589299561842873, -0.08856040198697748, 0.11808143623604267, 0.02654298549579699, 0.10843060602801517, 0.10669445503838977, 0.036485383153033984, -0.2535114127456059, 0.024803576763173924, -0.11747265220467402, -0.23585962191791277, -0.025165921885135948, -0.04831555142377666, -0.012621353804269262, -0.06938803739689964, 0.04179330247273067, -0.10779966153785167, 0.13414607776889806, -0.1893398876861626, -0.08738798423884207, 0.2151649348356992, 0.16259343653467184, 0.05417290751861838, -0.08475005983609468, 0.07949102378481285, -0.11786072844842985, -0.18806434344349637, -0.07124991292216518, -0.08179887483627804, 0.1868083418371385, 0.16215305355812176, -0.04088684464425038, 0.23485949654448882, -0.006789163309083027, -0.050374394874313465, -0.17445765750051542, 0.019660765797904847, 0.06287484171745183, -0.028433396435872, -0.03859694256495993, 0.19366110892776595], [-0.11607648939813672, -0.15101495817826385, -0.33243017948434206, 0.06853524975552051, 0.3526176491727571, -0.18066371074611734, 0.1451377109146325, -0.43692550863703583, -0.00032986659707835155, -0.03905115580051222, 0.06528703705279326, 0.12919166627471526, -0.10001169976211574, -0.0831429135115559, 0.2643076517064582, 0.27363609448052634, -0.28851903377899435, -0.17729663615466215, -0.19401732747102668, 0.03392378684249607, 0.2133977735040856, -0.22394408797878543, 0.06518098503651805, -0.021847892684858882, -0.16795227652399305, -0.10852326340033146, 0.06080374494801138, -0.10507789428269018, -0.5131242009906876, 0.0996208859814754, 0.2913511453629359, -0.26507657701630866, 0.13807043326074625, -0.12494139278992263, -0.10049315573326936, -0.16328886452172775, -0.18477446777029072, -0.10743499338314133, 0.058639401289246246, 0.12443462357259664, -0.05556712340900741, -0.06352291323890287, 0.20528728630697865, -0.19561529483044937, -0.026279014550192128, -0.7111970576747564, 0.25621169801305377, 0.21007692122199095, 0.21704014734707336, 0.043976901086671724, -0.1771367034838361, -0.01689355633057784, 0.0887601184779431, 0.06603537577778805, -0.02220568728349253, 0.008634673995465377, 0.27837430901140275, 0.10210174616458917, 0.2501646174509256, -0.042497301087356505, 0.24306714200466942, -0.1524955628169606, -0.14583971094065676, -0.127465917145041], [0.012579763811054764, -0.16595632134079438, -0.31646652233836337, -0.08331853080740544, 0.1286701028025966, -0.22328365421887655, 0.1449849144738066, -0.2562813245298446, 0.1687252252621271, -0.04821325147240121, 0.23307694217060843, 0.18984084886490668, 0.012193487986811075, 0.22118007540664694, 0.21335751146322948, -0.11342802030994235, -0.28161084654963797, 0.05420394916280403, -0.24222930288982294, -0.0096127838759624, -0.15469784702539174, 0.06273299790162463, 0.0586241885107705, -0.18123701296410322, -0.09184264273331048, -0.10005441044398164, 0.18249608969692704, -0.06030395156504711, -0.2053781191938543, 0.08884755377984148, 0.25557961298280635, -0.23543861382512943, 0.14794733422242726, -0.0038137764754101345, -0.10674530528920433, 0.13810028288606802, -0.28846513429550247, 0.014070821043365413, 0.08097910267494582, -0.15640628942544701, -0.2158605002989159, 0.22760252089808305, 0.20807037761581984, -0.29457975650047685, 0.24379992812742593, -0.5884420138174468, 0.005958407176713835, 0.13354229642111046, 0.1324639830699086, 0.15027411268091032, -0.20741367612981937, 0.14877705398947152, 0.0462829779180542, -0.16407984859942834, 0.005020162273060127, 0.18330002750426225, 0.05626565529485489, -0.05721839946137219, 0.19290675042901906, 0.11624483997062408, -0.03541624328168433, 0.15549730813223095, -0.413833318937187, 0.051880577350345035], [0.18290337660810083, -0.19451883876620468, -0.15066068996796114, -0.0136303352848046, -0.08142558373133073, -0.06168290304561672, 0.10455343744939015, -0.09771794894022742, -0.021029506095536735, -0.5338864678965494, -0.148188528852718, -0.28148384244005137, -0.253877909701809, -0.3752442371464726, 0.3071585319141646, -0.1741723851637558, -0.22553086230318262, -0.15892949393190026, 0.4043089435162136, -0.010937533558893762, 0.0811894205216084, -0.19125795765435255, 0.12263946395456159, -0.1219578759813142, -0.518678476519023, 0.09716203537830828, 0.03475179132453715, -0.15882129651909496, -0.2666139957010423, -0.09851938038407664, -0.11842490788524661, 0.13634926425960564, 0.07032222796147947, 0.09233265317549966, -0.3957404989899567, 0.0004952351238793806, 0.15395875177400348, -0.1928844042533237, -0.14602125014414122, -0.047433291096955994, 0.007267956274443188, 0.1998153699761429, -0.10588104396697168, 0.11723241808841099, 0.3008633142099219, -0.24730470006601324, -0.05951652864449988, -0.20649485179513993, -0.13131958728508764, 0.2178475479980784, 0.09251056687802997, 0.21384152849148066, -0.03508764566028706, 0.12247688306719003, -0.30497905596923314, 0.12861858695384507, 0.06038794521817827, -0.10881738250252394, -0.47046473667575045, -0.6370904094083756, 0.21831307674671693, -0.11433428950279725, -0.06842744342181599, 0.3994757530273383], [-0.11157195874443958, -0.19000749882119397, -0.7441487835351763, 0.16398856419088895, 0.02672611288018076, -0.1982616221810788, -0.15577825909605322, -0.012452354866602502, 0.11035992520266501, 0.009168737160847583, -0.055592473763039434, 0.09106433727436587, -0.42939747001185097, 0.16013276309993082, 0.27132321577704155, 0.2735139307355513, -0.015589278878689097, 0.13826765496132026, -0.2851115109272883, 0.1126265352491307, 0.09071673059936879, -0.0155336989640926, 0.04483020625064743, -0.18923793893495144, -0.03393950932371778, -0.10641012290852782, 0.18396113770764916, -0.09756671283864665, -0.6229110148952205, 0.23900134889803368, 0.042764083438722254, -0.4173976393392442, 0.1568985139730395, 0.1952916097095083, 0.05725684929864551, 0.15801207933048395, -0.17012222572772895, 0.10392255971096075, 0.1997241603409524, 0.06241902484068911, -0.06115449808857782, -0.1900875377058136, 0.15365468655500153, -0.12628100262283035, 0.2720894459782103, -0.4413978138901333, 0.1745781723159187, -0.0482329768388566, 0.0978508411233526, 0.18788858277802506, 0.01315380894379153, 0.32046449949785943, 0.21466090236511703, -0.04973920853038013, -0.11525937404945677, 0.2649619710011268, 0.09890814566249738, 0.25512708250663346, 0.026578014612931966, -0.2296148644775372, 0.04401462474424228, -0.08239444876595897, -0.14257599993071074, 0.08470239773372643], [-0.07985262190429414, -0.066138294564364, -0.4661713184800043, 0.20484255009238506, 0.35386548961228764, -0.20816510961534038, 0.21706925778796277, -0.3760568931792324, 0.19861296694748243, 0.10745454875545007, 0.09585452250304118, -0.004852225413135881, -0.3546756498669626, -0.019734178022204552, 0.3221545440704475, 0.1693334428422856, 0.02751711716871724, -0.04634101645332809, -0.13913322798432665, 0.11187118210215038, -0.03357250959185962, -0.09383360926517005, -0.007796348108611467, -0.22469592901144916, -0.09693717330628142, -0.3622974049192885, 0.09348180016664562, 0.01959282945444754, -0.6444083270873756, 0.0035736609679936963, 0.21977579858538399, -0.12515233412573065, -0.11734270662313746, 0.21330268929988425, -0.02173866467878709, 0.12298565836749435, -0.18989958682241334, -0.0026337017486001532, 0.08832084511196646, -0.201860643719798, -0.16218801905348834, -0.027008463068410624, 0.1870546510676366, -0.07325633649627039, 0.20651526146730798, -0.4346182479396151, -0.04195738575692824, -0.11376880558561989, 0.209538395957325, -0.03851940826495693, 0.025768422796565386, 0.08798315735389854, 0.1546119199133829, -0.24344210228721297, 0.011834125723402335, -0.09652783691324635, 0.23939700204217637, 0.0846065499186988, 0.018010604805853796, 0.04274129035913817, 0.04261422005985789, -0.13679371421438963, -0.0800615086085765, -0.09747535982658026], [0.15050667061843614, -0.07036755997379246, -0.07215972984668476, 0.04441776785034192, -0.08444921322932712, -0.08961710588830876, -0.10239991179498578, -0.05841486586834204, 0.13101044149672034, 0.15341194983188955, 0.09334474382749954, -0.11384998068152018, -0.081188351641365, 0.2134482845549483, 0.14736558562660548, 0.00795086073150333, -0.09735823691101178, 0.23145659768519514, 0.06478704758533811, -0.00933472286500887, 0.20740960168667782, 0.17443175798065233, 0.07186280015056092, -0.22107230132176112, -0.16891248836640826, 0.11492567513264305, -0.07572375610439738, -0.209897560483077, -0.1364568457464116, 0.20743716076066943, 0.08958814617461398, -0.1857070192730362, -0.08894388528561697, -0.18277234648071522, -0.004408989045337094, 0.17772707177790611, -0.37650474377515813, 0.001220168771905735, -0.12056714702965216, -0.04772817616275295, -0.2408486481332883, 0.17434120457729202, 0.05707671625860122, -0.12602766205794189, 0.05049403189781014, -0.06347974955363164, -0.06228793853800036, -0.0692516523449693, -0.16057465088257378, -0.07164974456092897, -0.16063555475633093, -0.12244104736990225, 0.10511631485410716, -0.16495597181875932, -0.26427912688832117, 0.20561100759196288, -0.12574623861537204, -0.15199423475722537, 0.21557657481419398, 0.04249638117632269, 0.14249147923257546, 0.05748788846495346, -0.34572814018209813, 0.1596564930288224], [-0.14791708228593167, -0.029476381316558456, -0.2519616570643311, -0.216766693869758, 0.04635724796062314, 0.09556101827267699, -0.17121911054841948, 0.16281166512462145, 0.16398746638899755, -0.06403702152802654, -0.1477006688644877, -0.058976398326753283, -0.1577762485696009, -0.029497424367277623, 0.19061929371749736, -0.034790555343520824, -0.1657285550499728, -0.3099018469577379, -0.1554879720218622, -0.0988244321097512, -0.06893488072251723, -0.008337371567220852, 0.1713272087968221, -0.01146549276814408, -0.22743222135204388, -0.11856530161973482, -0.013178360625334156, -0.025418195532118586, -0.18057717254367406, 0.16550750501594222, -0.10809913833551389, 0.03597005790378797, -0.09031622102776254, 0.13839603676255266, -0.19166050824211295, 0.11715522732032606, -0.06286074979257421, -0.3193119831909008, 0.15043196754421415, -0.31370179287244915, 0.17804195583880536, 0.13871579889506092, 0.1481014233410675, 0.078571490429295, 0.21021906238966526, -0.07372719548322423, -0.07632738966927698, 0.0663445593026595, -0.14807741276542266, -0.19233627467509157, 0.01424429397769622, 0.0027706753744232036, 0.12414999968775087, -0.011564378419361856, -0.1485157526125949, 0.17082435906616708, 0.14159645109755314, -0.11449201106573165, -0.0928712567626351, 0.08968267600844458, 0.003996553332222064, -0.15263987083147576, -0.10709015052020751, 0.14970461748564975], [-0.3355150611311237, 0.3204750595024069, 0.04364232938219489, -0.051634479617687065, -0.17396488973523971, 0.28667347943483673, -0.36280515057541723, 0.022762207759335674, -0.10626515710826187, 0.05918890986968327, -0.21385872914198284, -0.31990469438739727, -0.11163411645750403, -0.1394405524651254, -0.1474250970215029, -0.1814907722374618, 0.27629600404553, -0.05322759279057982, -0.08439538718576578, -0.19973043025748852, -0.3035054809434842, -0.201552895308046, 0.3010528607749655, 0.06739090582910584, 0.29574808072904907, 0.14800732059488075, -0.2685245063889321, -0.10213291077517637, -0.059556322855063994, -0.0552253910312415, -0.20750495419559414, 0.16366326242814236, 0.12211028022420224, -0.2276736366585917, 0.03817481605070425, 0.11185238510337048, 0.275433815204171, 0.13873058269275004, 0.09519072526613608, 0.013859319245906871, -0.07324150757835392, -0.0003479120199340174, -0.1259380910396543, 0.25714543037997173, 0.2290239592655457, 0.21001231333715398, 0.012431396860098786, -0.15479647558873086, -0.0953747330656497, -0.2399981685105139, 0.14569809942473655, 0.11373570421738254, -0.22755961513189785, 0.00647413030580526, 0.24182215138025304, 0.1623918051072055, -0.10690066375742838, -0.24555512880327643, -0.12955316025247648, -0.0887623248607061, -0.34215859835889056, 0.1672286694034426, 0.0816768147221456, -0.058418491720634146], [0.06803958648209085, -0.16973397256406256, 0.2901612512724078, -0.2128329001604734, -0.15089997256056575, 0.07778925378648636, 0.1145314957233253, -0.22232395693649593, 0.061687148038394556, 0.31476291909619875, -0.10100730675063105, -0.03797698822776828, 0.22692338790571712, 0.0752395929032316, -0.10469355602717798, 0.19784166924190882, -0.2229053040847249, 0.1532091486091045, 0.21696364002723434, 0.12202047917170847, 0.2654758149704224, 0.22264633454893673, 0.16107758198447666, -0.17837483391934617, 0.21946873892395904, -0.1459324995722154, -0.05529361744230686, 0.004752713709376568, 0.2390900370582732, -0.17394380631037204, -0.10790961376317662, 0.038031275567036255, 0.01956379557782713, -0.18589520138347768, 0.16566959536651812, -0.018386311158507335, 0.13726689645939183, 0.2150537003725907, -0.13922688532758465, 0.06479700263557915, -0.16167580234949022, 0.16161825480752307, 0.09423360303111644, 0.08494254965408003, 0.13779284202776582, 0.07865566420515184, -0.07116172494801287, -0.15493572832646527, -0.06469311027834956, 0.006604544916671887, 0.20457548485790383, -0.08391308190485974, 0.016889435304732518, 0.2542638203915416, 0.046557737948275696, -0.09552513940347875, -0.27583449626167195, -0.16483529915525164, 0.11955980247537176, 0.3030188564206678, 0.05441622342744303, 0.0519698682224926, -0.25177508577284546, 0.2179096125271156], [-0.18139257456139704, -0.02467840622339328, 0.2862806731622266, -0.002836273416361675, -0.2049810020599574, 0.0253257542512068, 0.04052198007021247, -0.04215721577119595, 0.0705455514848947, 0.13226180499553344, -0.16981229600708567, 0.1552233515465756, 4.6518149804720675e-05, 0.08716928411463706, -0.1660256826146872, -0.13440292023986425, 0.010393439976723345, 0.1268866099464209, 0.18324004490812637, -0.05179270699258399, -0.05520085319096375, -0.16315913724695266, 0.002186334346543162, -0.17265741485332695, 0.1156992658661997, 0.02734381065980997, 0.03622988557777037, 0.057165576328788735, 0.03858062462244051, -0.10448902298255892, -0.04829583530583034, 0.28881548074491487, -0.12075514676496404, -0.12266695834065282, -0.052027125126557744, -0.1519443345204632, 0.1914348661174127, -0.055947510940732866, -0.05098133244288856, -0.10686081449588407, 0.17571071584335013, -0.21165034519820525, -0.0172422288087502, 0.2584054228876707, 0.006909379595844718, -0.01513496378163419, -0.11295571418055944, 0.21940029546236556, 0.15594910004593415, 0.16794009906309426, 0.03161777508269187, 0.050973989566859085, -0.10363789026395508, -0.09714101486166077, 0.16412417230008233, -0.2908477363319914, 0.010016060019203504, -0.337713931208622, 0.05079979823529242, 0.0685853307661366, -0.3155181007338876, 0.12324311736611174, 0.19902021206023104, -0.014496230428939648], [0.16277097696004628, 0.05986979682676715, -0.08489034545107403, 0.21626631086641868, -0.06559272507556048, 0.047509184677843146, -0.06873293403490682, 0.3167944753388303, 0.010797689079457004, -0.13138353957928026, -0.07308170418713243, -0.22920511901296137, -0.31210483476546136, 0.1886793494056307, -0.07170478998970264, -0.2783013916600403, -0.020075200308212842, 0.164269880743261, 0.29562254578679736, 0.15839667405138025, 0.24841812184064407, -0.10986201161968634, 0.08539244237178083, 0.08149248278369137, -0.14761279813958317, -0.42149824838462024, -0.24115826460035666, -0.2433997010769311, -0.2356080680338131, -0.03853441936467271, -0.022967177313561266, -0.07529467801091799, -0.12566916940326892, 0.12566322170255567, 0.04842939137057755, -0.16853850664719144, 0.11130154027210547, 0.026027712924601255, -0.22870267071767164, -0.08147166010772885, -0.22763966447126896, 0.021941138962004704, -0.29551218301184856, -0.016981531547093486, -0.21549064712497584, -0.053514018915726706, -0.18190474552150365, -0.18039176770441415, -0.11645646802201878, 0.2179053968212883, 0.03192310562781938, -0.04411657236175999, 0.0097427602447088, 0.17016327981254983, -0.22644365505722822, 0.09847734159937245, 0.15240675273106452, -0.11068988159516142, -0.2697261952540293, -0.1070392225884131, -0.17250207937852408, -0.15500503799122672, -0.14065889917846122, 0.22381605635982524], [-0.24784762466207588, -0.0724310273655256, -0.01975348124442033, -0.04929202177790674, 0.05080215361975923, -0.16550944073973425, -0.03892093028966453, -0.08746434477348494, -0.1203191578366674, -0.12511874984851173, 0.026971797314229436, -0.08283229608287063, -0.028278172018963797, 0.13701738279216108, 0.14256046835087754, -0.07111279811946382, 0.12030196665046275, 0.12673979353783088, -0.2162395190908852, -0.13939704225366165, 0.1280161625382928, 0.12918264551195308, 0.1796002112450179, 0.06275870760546139, -0.2046148959248214, 0.12159852908976618, 0.09520912564882059, 0.2442990793550722, -0.24310038123520544, 0.1400218253486458, -0.046665635389102365, -0.006828872107231662, 0.2671542204592203, -0.11772183124466747, 0.2487870805891871, -0.1960517646365686, -0.12269999334596166, -0.025075699738740742, 0.08198603844697902, 0.15170332245219714, 0.19277816888257218, 0.1648457954915884, 0.036820074272262776, -0.05320751312378904, 0.10949655559916735, -0.027901859669894277, 0.2607466151743771, 0.05140931562260619, 0.16644360920550869, -0.07923050500396, 0.017970356017773144, 0.20213261317546058, -0.1731768619259423, 0.04337984325757578, 0.2276454368156417, 0.2113654309645484, 0.2799921719637683, -0.01794083987273781, -0.10492157724814251, -0.09788916389754901, 0.2442872129784047, -0.08979584002500737, 0.12208558897530976, -0.009887025344074348], [-0.11343881198444204, 0.18764250334387866, -0.516770068523734, 0.2579257373173995, 0.35197177164953547, 0.002990729378268975, -0.1379679919596182, 0.09984352695794392, 0.2546165039354079, 0.18349590535666088, 0.1288328714153436, 0.04076180383297191, -0.19605024442732277, -0.10279567224336188, 0.322889316097397, 0.21884449130343056, -0.05940041864358031, 0.194199271023425, 0.012036162384913436, -0.00012151786803146806, 0.184974889046741, -0.1371036367154873, -0.14241611948011437, -0.15960558214839424, -0.012680777080631532, -0.2327417654452875, -0.09054779128250585, 0.10859724698019455, -0.2167135769755727, -0.07188582281464431, 0.17281799841694953, -0.3699054171524071, 0.1762086866026348, -0.16129251328506902, -0.10842138574490542, 0.2706268602157724, -0.009752652082064573, -0.15683976291949953, -0.1542328122851606, -0.06858017462809558, 0.013353811394042138, 0.05405752788763497, 0.17994385193070225, -0.19483289701844567, 0.021819076516457425, -0.7178963332680456, 0.3485338236415042, -0.0035512411850776747, 0.11044606627367484, -0.056999533306375506, -0.19936148724066258, -0.04901453915884676, -0.10191939879959366, 0.03399564834755791, 0.21766766121428965, -0.12700034573800295, -0.022349471816039565, 0.23629132449432252, 0.07891846218784104, 0.15716488213195867, 0.02433383739516487, 0.002300099684980551, -0.26299810589956796, 0.07158548131454127], [-0.11497043806524042, 0.0028580603162097467, -0.4594062128865275, 0.24417599639958462, 0.34045649412002005, -0.3903739357019239, 0.15039133164677182, -0.02759799369747141, 0.06779457781935345, 0.0408024013564471, 0.022541240612046043, -0.07325624749851214, -0.31142767778635033, 0.2186098115610561, 0.13687448930624496, -0.023913453978017658, 0.016129643964273042, 0.06578829224996598, 0.03476237357736918, 0.08526600386390165, -0.1462056573017517, 0.20785384803583729, -0.16717444361209813, 0.15734317947804902, 0.0399368032671284, 0.1808254091555031, 0.24230571702321918, 0.0010083362557425078, -0.7744289318874168, 0.2274019241564258, -0.14522169128678905, -0.4441045883349709, -0.15194811296179037, 0.07976424557718627, 0.18404921915007716, -0.12586229314736458, -0.24753788162232285, -0.0603825671343253, 0.22476458484915393, 0.03362439232969613, 0.007307761872501148, 0.20706771053950904, 0.16960252602856243, -0.06510747175089716, 0.19709406649894146, -0.599939673964821, 0.13497852611965097, 0.2371256435449039, 0.06141043858980803, 0.0305364765417848, -0.23259918721824618, -0.008866052395788655, 0.35185570048454806, 0.13451199651982976, -0.25851199554591403, -0.09432289039076007, 0.23605123034841308, -0.010188204736482137, 0.1300287012114646, -0.14103218367815984, 0.02735184835829767, -0.0406223430713777, -0.3055371583695038, 0.032725952868075545], [-0.11380396946253914, 0.28064414409114785, -0.24094267888043594, 0.19100546274067653, -0.20784295372451564, -0.04080314938642656, 0.16659760672336085, -0.05961181690160796, 0.13535481916884382, -0.3462620542595374, 0.03282392488024311, 0.25832264506726643, -0.14963503000686196, -0.03777453607950928, 0.02387906450923781, 0.018583970669420063, 0.05783257991992351, -0.11501364547806144, 0.11108591506911021, -0.19809232581672462, 0.16134771308234755, -0.17873824565915708, -0.09877690850806455, 0.18717399534838558, 0.11462034146533624, 0.030883246773137425, -0.3600661217567449, -0.062077518118191094, -0.13379584844495843, 0.09515524028329071, 0.0043928413410786685, 0.0578231480329317, 0.2855492614447835, -0.06140202542436961, 0.2127126805778839, 0.06708131793949572, 0.11673861887770941, -0.03317651929651673, -0.06191482898968724, -0.09667001033138022, -0.03189053067647789, -0.054224784353695925, 0.006979770687667208, -0.06434003272578101, -0.13512318878285798, 0.1410489459772326, 0.07126852320259906, -0.06489239452749075, 0.14130936634617852, -0.08572771322826432, 0.07410096310800755, -0.22089480257717078, -0.1880492009117192, -0.11193790938963796, 0.221321118780325, 0.1644601952232513, 0.02125410788926523, 0.2503061421265529, -0.04135745492134736, -0.24935282637247566, 0.06823372515875392, 0.21753402056186255, 0.17020694260815325, -0.2221943075466239], [0.08048124797059487, 0.19442398052813528, -0.5250820529552302, 0.06312041326812085, 0.3068763917782265, -0.21631391866467006, 0.07538263472204364, -0.3640421688726886, 0.2383983014976028, 0.16634527933310495, 0.20943681883064758, 0.25388043128831156, -0.26026524433070247, 0.16585070378167543, 0.09549171038343733, -0.03542243097329756, -0.19873010170159913, -0.02854911232756415, 0.053159320471732316, 0.04948369174210771, -0.16218059201739968, -0.18864697451422913, -0.03588991136144223, -0.05469996838658437, 0.027106433129345846, -0.09065070845083377, 0.06995796869400926, -0.07192172168954343, -0.5767269495504496, 0.17892406966119914, 0.09313254722647318, -0.44882824218339756, 0.21093418627871488, 0.15018915683913897, -0.09168633960355069, -0.09721456899450655, -0.3442214479832449, -0.018763048397873554, -0.08539508079477715, -0.11638024969944337, 0.1484497566309286, -0.12851979043980538, -0.03269334584705884, 0.03176962799705945, -0.05184978055601443, -0.7399723641666208, 0.3007949369272543, 0.17194759209387056, 0.03233174127599683, 0.24640123739353192, -0.09884918304864387, 0.17149131495493067, 0.011905538098805676, -0.05314184473605085, -0.15227941093292913, 0.2548881905933552, 0.008297260711540062, 0.2739411603181795, 0.1711705912943462, 0.051507957043177253, 0.2438658764352344, -0.034727888516221765, -0.37847097800820545, 0.08769091682531832], [0.05210594430466737, -0.3448007074514912, 0.42977065012238874, -0.08818929559706958, 0.14993175581479296, 0.31553974333284324, 0.10413654679150147, 0.1263223092711434, -0.03580350506760127, -0.014668190467745404, 0.060543360355662046, -0.03106064425195986, -0.15207308634172673, -0.06649238797748643, -0.2874193839710793, -0.08923939274649903, -0.21167696511324793, -0.0369415899046297, 0.21908016169698458, -0.25493823182215264, 0.2562884257999294, -0.05589748743038153, -0.1297267953001852, -0.06406769155165173, 0.16648414660274272, -0.08854928769803161, 0.17254829767384072, -0.227988646705326, 0.00971436542015385, 0.14530786931435413, -0.028171672576224292, 0.14558571564289352, -0.05287708393523402, 0.0019359525317645169, 0.1867860355538928, -0.08381153469275104, 0.09952566060055693, -0.1067933476629097, -0.0810626168684822, 0.10706440957766115, 0.02252262137485497, -0.03408647620005708, -0.32085388465083575, 0.14621852113313974, -0.20251317916839995, 0.5136733698820546, -0.04705751912320382, 0.1820070369541462, 0.10445092012858523, -0.14457542550852806, 0.10842619601162899, 0.1922543329279995, 0.014116603612913581, 0.010220491577338656, 0.0156993971533986, 0.1397455967519794, -0.01925619815416385, -0.025842734268119828, 0.21977524043192254, 0.0758050967444521, -0.14193573651536998, 0.1806941540658131, -0.211832820135606, 0.37347181467763996], [-0.11104203654141183, -0.14991843019189557, 0.3531252725017972, -0.08211261871614182, -0.0781502852789902, 0.08197113961100229, -0.02974282800039511, 0.03240241180820269, -0.08516750678663144, 0.27324124633233376, -0.06490417333345502, -0.13457941624224654, -0.06798866136327154, 0.1678741271714375, -0.24088368826955064, -0.0374512146856533, 0.06349551297396692, 0.22926326076619627, -0.21569298774236562, -0.20248089734344576, -0.09713235538241846, 0.16659803182783348, -0.04487270188616876, 0.11949484300124538, 0.076130546318223, 0.20905627691057319, 0.15107794374781425, -0.12387420074961668, 0.08771978557131521, 0.1419267276368474, -0.020363846951039904, 0.008760678516540641, -0.12285754904571672, 0.014414535939394896, 0.3219761701041464, 0.0711306356387637, -0.028886465925145547, 0.22747938075993065, -0.01672868071057257, 0.1098343766160077, -0.18820380592179034, 0.11194450114161493, -0.14928352653585267, -0.10644959506437866, -0.3455994929200447, 0.00745384193459059, 0.15066076886758673, 0.14638319985069675, -0.15254698404873152, 0.16415056003280226, 0.09213904530878618, 0.2135810989735421, 0.18395902910012715, -0.12124843828641761, -0.20331217722192424, -0.07564281425101319, -0.15406771893229443, -0.0577215546282788, 0.01191463711825407, 0.10398603747168308, -0.23327269907505943, 0.1826642681226077, -0.1296494504863845, -0.2996312701472172], [-0.0966794814671076, 0.14781405666452152, -0.11334288524707947, -0.16428353092597087, 0.12167941905715507, -0.11774037456478051, -0.14091745914897252, 0.030724500166574076, -0.18945731234826613, 0.02533715563137473, -0.20855376500892092, -0.031006414691232193, -0.036680937823400844, -0.17950960412732445, -0.18096901263897966, 0.03769130690663014, -0.21472241300836065, 0.10033817754436725, -0.056916416629531785, -0.10269948274250082, 0.19530733170033604, -0.20681925113890165, 0.054977185762550895, -0.2087699934171212, -0.05109437583869911, -0.08116429664670413, -0.181717246670806, 0.12262477620984907, 0.03111596041956452, -0.18301873083205766, 0.2066204817706352, -0.16855397054904497, -0.0034301395702140414, -0.203295307703251, -0.04078093265974575, -0.003647790407631357, 0.15428565090831808, 0.07687952514115237, -0.0639656942851479, -0.1367016324226566, -0.196925981584261, -0.07425626263012541, -0.18930181307732605, -0.14033691248231267, 0.06527551906308804, -0.12923241629023263, -0.054594943695621206, -0.2134371949325652, 0.17869379420337322, 0.14759546246991484, -0.17553475805658061, 0.07992055746873622, -0.0035564716220569115, 0.1393832652385143, -0.1391085467276394, -0.13851890049032528, 0.19658893917691994, -0.12632561350439941, -0.02814890924241384, -0.14409594435879863, -0.07578341888999865, -0.07341884657783015, 0.04663827620507993, 0.012613539048531935], [-0.14141880188013128, 0.23129254555013387, 0.22717536019799375, -0.19684921179573364, -0.137225715811556, 0.1788781302942714, -0.313294559990212, 0.04444001316286142, -0.1494175707435222, -0.18989419358791113, -0.17232168199001172, -0.06728935275800325, 0.08629335845257144, 0.0130699702553141, -0.2353581508534816, -0.23817933829946408, 0.28036133163011, 0.02501534704433925, 0.08664476737821564, -0.2935422227684175, -0.25426167257186705, -0.16737801066656602, 0.3646772389792243, 0.10532365744125681, 0.01979774323649068, 0.18312285724316224, -0.13770498165145845, 0.11810809189737537, -0.07777011503233407, -0.08241617666455457, -0.105365074092346, -0.0029363746039970952, 0.2511968524759397, -0.30951125987525746, 0.11192268531230117, -0.11686528076907421, 0.09444189172742148, 0.014606058181556272, -0.13399629415789804, -0.19077125400743747, -0.07222221099901005, -0.1712548799380713, -0.18163954214198727, 0.07541780709640482, -0.19522204812348137, -0.03988766945506271, -0.09855267582598426, -0.02014456055630555, 0.01021593745600129, -0.16937286570831464, 0.030407626662241248, 0.05895664627177748, 0.18240496912796578, 0.20151809284807123, -0.08792837036267499, 0.22344648858953764, 0.15392992793903482, -0.06925841223074808, -0.1947406453012747, -0.33516267044186976, -0.2796712497348972, 0.16306337622302886, -0.05200206810067475, 0.30022560746967647], [-0.17561214425391067, 0.13103953101246651, 0.12482109246951584, 0.13567786651708688, 0.06437173656683048, -0.02568060254364557, -0.10291503375659909, -0.32333102794488294, 0.18175506277325487, 0.402395990059701, -0.11583093899530503, 0.29749829627055585, 0.11639641685597943, 0.1717821291960771, -0.129546133393472, -0.20428813738932103, -0.04067570950451314, 0.25140773454578436, -0.09970064467641657, -0.13202035087235636, -0.023778553146806075, -0.08938021639975298, 0.11781662933034213, 0.010328660303228222, 0.14311935137807466, -0.20324270849959536, -0.09646870603758882, 0.04466557943926843, 0.1540546042961318, 0.08360675388998902, 0.04505338130170054, 0.14966891805786284, -0.2710017507977772, 0.1996034964809535, 0.2244168311595541, -0.006085804104836946, -0.18994657310308108, 0.11266053732598988, -0.08799843935295895, -0.14050580539079532, 0.03017663939085498, 0.03702558548852794, -0.26852558990952097, -0.17780979879287884, -0.17284062061205255, 0.3539663059947782, -0.218742697305346, 0.04733655837213772, -0.053757543875265885, 0.0648580874938364, 0.17671835828347973, 0.13936084863944348, -0.034177964284144935, -0.26031012798177017, 0.0224471423057575, 0.030074965373078914, 0.16589119976580588, -0.1404928539479181, -0.01732104314899686, 0.08699776743723024, -0.014569311526666906, 0.14910817376096952, -0.02900862464000611, -0.14097314937133973], [-0.30080066446767323, 0.07693452484442104, 0.08351200762427159, -0.1291497282027485, -0.3035905945349023, 0.2906928535390186, -0.017066332809544397, -0.04383462932787915, 0.10023096570920752, -0.15302572800450912, -0.1361013215000625, -0.46243719434759345, 0.27728553512893744, -0.14627339837984063, -0.34225276929633736, -0.11604670939680765, 0.3534011661136582, -0.16558089691376904, 0.15745757515432185, -0.37675287674831764, -0.4203711311811971, 0.059760251630204674, 0.3021815421408866, 0.042163273750424786, 0.11238216675141173, -0.051034415089344566, -0.2104549779793233, -0.11075800215963308, 0.1043952735896801, -0.10318062717231115, -0.2818244131321664, 0.1402067072427353, 0.29482283266945447, -0.1477300416389159, -0.003998388456370804, 0.16038611610872042, 0.10125303062134823, 0.1883504114245488, -0.2170690420433851, 0.20275183456858123, -0.10362856668605254, -0.12571843362529694, 0.009258553882235869, 0.20546216129353245, -0.27108222474295635, 0.2600126734235239, -0.1825790854663256, -0.14961314828010117, -0.325132823547155, -0.13703742399237742, 0.027945854480967293, -0.08844277041542431, -0.14007945415962086, 0.055469016113344954, 0.03524580403638259, -0.053085813585862236, -0.16395080072771753, -0.10268876658546594, -0.3025027302812586, -0.025641049746976934, -0.20631116928472978, -0.1714663484697612, 0.02445330418704376, 0.011932759154496514], [-0.4186851205243002, 0.24388234644271997, -0.06913822635775067, -0.07189828382525906, -0.015304104041384915, 0.36517765749281866, -0.17692677572624907, 0.12562352717280187, -0.27219734584241984, -0.15380975245367795, -0.08781532524738618, -0.3621322772050668, -0.12562735524095864, -0.1882877846562884, -0.17211389493512372, -0.10004885476972734, 0.09803039829230582, 0.2925446960201897, 0.03851232333954913, -0.17895382668530077, -0.32418479111057047, -0.08586235064653432, 0.2829285419750119, 0.06021164239192291, 0.11842966855185187, 0.16504554140652095, -0.03095821714694008, -0.01999889021917254, -0.11922056609490819, -0.18002087620083385, -0.27268376427508356, 0.08462061664609499, 0.15022962043010069, -0.30440904019147563, -0.025625027305911267, 0.13478513948264503, -0.02034188652597962, 0.07720171031144439, -0.1287202908171257, -0.04235380526247323, 0.20062136368082728, -0.22223033495732877, -0.055531220588883, 0.0465494859187023, -0.2582472087809727, 0.2722781750265272, -0.44563373971041703, -0.05754471774199263, -0.08226852183116255, -0.23066953671003212, 0.0900354333603196, -0.3001027544035496, -0.3021575256632723, 0.1147103176794348, 0.21680479588980706, -0.1486281366510286, -0.34156689686207503, -0.15565034303030453, -0.27385378828876555, -0.17982327748719346, -0.22277053447884182, 0.1794155769035099, 0.25230187419066186, 0.2369765948294021], [0.23234350358013214, 0.14702874780903263, -0.6085764867425093, 0.26429892181282555, 0.12649103987559004, -0.13329484366343528, -0.12888614285074051, -0.0013461079236630564, -0.04294351060734502, 0.06950808141365183, -0.01197581011102078, 0.3200868611237429, -0.37536424130184126, 0.07452571601952887, -0.020655192442672488, 0.019964577203296623, 0.17510670580292284, 0.025267107593204715, -0.22529520635035338, 0.17190965715887482, -0.034966164898894626, -0.24362326489831815, -0.03972388913932336, 0.050961956123159444, -0.04843768871838821, -0.07426172905221372, 0.1411785976123537, 0.16496469791608764, -0.11328379912261384, 0.12996873745636145, 0.04488863400211942, -0.14187897480791425, 0.21812687345121184, -0.13459308974242443, -0.16413682013573708, 0.2622756415955784, 0.004461970676835263, -0.16959333119853257, 0.12308167869413364, -0.18007434409663492, -0.10091275907935547, 0.017964204473084798, 0.16776380955349102, 0.07914127619873519, 0.25681429419471347, -0.4408338412877473, 0.33815528560102287, -0.11660291473232773, 0.10947626108704786, -0.086490016232824, 0.0513590517430061, 0.06358172975287509, -0.10855441509832901, -0.23658215844390026, -0.06545100442073382, -0.12574956353796662, 0.19650906896730072, 0.09173154816134524, 0.07656895183186707, 0.04710070682950766, -0.11217452341557095, 0.010421778275206767, -0.0720125031422104, 0.1798486415730494], [0.22936747839793056, -0.13537746111837243, 0.18410261527701235, 0.16818577714798758, -0.23045126156933582, 0.21713537808550173, 0.04431562820202825, 0.12765298477061704, -0.14139529511716273, 0.23290270632761945, 0.10039326889375616, 0.004794192965686075, -0.22463128543202573, -0.04283330617509879, 0.04878872300502505, -0.07160297330946562, 0.03395560200685773, 0.029514537918056902, 0.08185049735948305, 0.14525410667149047, 0.001722510241314125, -0.24254136959480557, 0.07462639863492163, 0.056087840822305536, -0.07577501494785233, -0.1436562424717588, 0.19149134037998336, -0.13213029401053503, -0.04502026463668019, -0.00030720642463011175, 0.06656272883072882, 0.04013667806943756, -0.30016268174578925, 0.20504336202780626, -0.05469026884505732, 0.10498273221350701, 0.12542168004264403, -0.11965371312267901, 0.22240533082149577, 0.17289926311734682, 0.03854633880113013, -0.04077384828706117, -0.1857004714283248, 0.00878526141153497, -0.010449482230082378, -0.0007182667692178088, -0.0972188090974067, 0.10358861715228715, 0.053697729901780976, -0.08714665828280634, -0.05145957175991553, -0.11167899452595012, -0.15782176345303342, 0.2176416650052648, -0.16118497478021193, -0.05942319363913667, -0.138952053894579, -0.09692620151334412, -8.341005624453663e-05, -0.025909328814011142, 0.08639092308096342, 0.0023858991492602694, -0.3228834104714796, 0.20781353373551126], [-0.05761400785808149, -0.010165525850027174, 0.28417501508121995, 0.08826875151913219, -0.15562346500682148, -0.013589248462338489, 0.06516626213528048, -0.10911581717694781, -0.03044097654813823, 0.20172166786680643, -0.16513846411394825, -0.2617823099337945, 0.10598526192933067, -0.13997501924904876, -0.08406383697116633, 0.22092995868928308, -0.25171718980865987, 0.16088252389260085, 0.1280187760405763, -0.12659238360627859, 0.31440322730191667, 0.11079229759908185, -0.14296254251208604, 0.07384154358189625, -0.09123052401148743, 0.031031700793654193, -0.0014936857801231967, -0.15279674101467353, 0.21977916673237693, 0.1166121590701968, -0.12831371600349936, 0.12289848816380108, -0.2737412847758416, 0.17389484639225086, -0.1655509835244197, -0.053856168860957995, 0.17079619553147335, -0.10442937795371131, 0.1190766456037523, -0.1529699929320418, 0.025695004452704763, 0.18729679865219878, -0.008086827904309438, 0.29301808639707255, -0.020839904264518122, 0.08493482609671399, -0.12300176586288797, 0.05112662488447212, 0.10850356366166139, 0.02693934030883143, 0.31809550968838607, 0.12108511972341238, 0.06784691966951328, 0.012985298565794404, 0.1829166552243621, -0.11505224464734747, -0.1037609281778281, -0.07379748045595212, 0.07282204525128594, 0.06155353545454251, 0.07303925950571738, 0.1322190517215961, -0.20025935572144588, -0.03549810018799447], [-0.18089999840122553, 0.17576631729113704, 0.16682069190586649, 0.13222807317979673, -0.027852333777386135, 0.056722656070714625, -0.13396400756254095, -0.11344700994673465, 0.14459164272234346, 0.1069787942327661, -0.06648827476962352, -0.02328112567014132, 0.03249183032349505, 0.27020251788362765, -0.4944336899799707, -0.1632302973900858, -0.052472542565701115, -0.08257878864493053, -0.6526804553334619, -0.19957599319658165, -0.02187417664230691, 0.15191809669232514, -0.3105274706376378, 0.12808427057665667, 0.2428852596888784, 0.05097248868130234, -0.0815328999162748, -0.028900123841904445, -0.12256820309849381, 0.2249605944783811, -0.03814436999540306, 0.2738357126334484, -0.034225691628769185, -0.05840810688645244, -0.024228852111850677, 0.040297137121857195, -0.2681481417404056, -0.2857155975053438, -0.1509202569375465, -0.2413913562001961, -0.1756363960148032, -0.33185786619071256, 0.08616106230236192, -0.344355780252408, -0.06741731646830275, 0.27160288350340767, -0.11662466653501528, 0.2678744961977276, 0.006277425133725742, 0.1328417181655409, -0.3301822194607747, 0.17588992290504082, 0.18489866578335593, -0.46364123172472876, -0.052528235686429864, -0.08340630912973945, 0.17828504925788483, 0.12730341366122394, 0.27429714830575236, 0.22478853231533819, -0.28985443196569904, 0.043080092294091994, 0.18057576194190683, -0.5995968572324011], [-0.05312055876551434, 0.10144860356107122, 0.10949417573616445, 0.19251368433655255, -0.08456766307461791, -0.02891842011838306, -0.09982745715749615, -7.201598732907692e-05, 0.19619045504780613, 0.28932686025461585, 0.16863461937934826, -0.015570991977505475, 0.2423672487572925, 0.2175805229720332, -0.11048833781758995, -0.1439290855034858, 0.06870776301542171, 0.19344572460118956, -0.6659140712242224, -0.06220597891968771, -0.190470625320596, -0.04606190528390005, -0.05147056161722575, -0.11210762307180172, 0.267801220520187, 0.1706840112728738, 0.07409740075282066, -0.16645310406106403, 0.2384520248744511, -0.11893403602976577, 0.13179472951297075, 0.1079735306628601, -0.12228445122907694, -0.10743487791931171, 0.17004688268743895, 0.1959948968231065, -0.2630949952071183, 0.22287416173267752, 0.04809525908271788, 0.11562011328759339, -0.031517811915627664, -0.2231085879477418, -0.26234619154253547, -0.43888288002547193, -0.3393617663173222, 0.11339828585750124, -0.02917829905142587, 0.16102960743591987, 0.03373921188032028, 0.06057907598030929, -0.13791441176437383, 0.13129575919844882, -0.06776956847034205, -0.14812363400467748, 0.0515917560057581, 0.022734709491332883, -0.2440938082476128, 0.10810447244277953, 0.1816271008743513, 0.22640147864572155, 0.09359406471476012, -0.06306007723802962, 0.011146121635348815, -0.31178217829560406], [0.15786284403603462, 0.12354648491791251, 0.09390696162441581, -0.15776745059576847, 0.09237282780135461, 0.0997959617177885, -0.0626466780406139, -0.19095752237533237, -0.0950856483556775, -0.010920408489392918, 0.16400955841730477, 0.07602019091173126, 0.03740819984681498, 0.18082711135476925, -0.19507055490472902, 0.11675863031228713, 0.11219042252456411, 0.13487370215534164, -0.04192478656253468, 0.1501384689813738, -0.05231985631831116, -0.029628517694836192, -0.294990698545278, 0.03432962553041816, 0.2023705931219863, -0.04056964988521892, 0.2394761491667472, 0.11971465547933173, 0.1628933854555712, -0.021344087239393333, 0.1562564692661378, 0.13339016276372, 0.13051397474280424, -0.1410896494862369, 0.15349342836662044, -0.027512771805770296, -0.31722898851047066, -0.2094109019424722, 0.2087237475779328, -0.21924248999766638, 0.12107150076554117, -0.05942862671631712, 0.14523287264016932, -0.3193415902830759, 0.014144721796218616, 0.007236542592126044, -0.06110712356749369, 0.06570211922012485, 0.1512286214709151, -0.09947473575640249, -0.14548474407185769, -0.07675153829815992, -0.13616186196444227, -0.43389998758445825, 0.15354538901789, 0.13867247608163158, 0.02604083901322227, 0.15564944579679846, 0.005750861862548481, -0.05275487537901663, -0.08077195147241514, 0.16587047948188377, -0.22824971142976436, 0.11784806878580305], [-0.04115316283321726, 0.08928283171596121, 0.015534884661211373, -0.21400974398365913, 0.11807768229658999, -0.23301095140456587, 0.16585777534749072, -0.10950949062615316, 0.06007904942349233, -0.0619120384330431, -0.10101758908245918, -0.15373678652374292, -0.15091265446640623, -0.2363705917618756, -0.3304649222313641, -0.10207691921262015, 0.08082785546159162, 0.14065491923935428, -0.36775093061569386, 0.09708293434946304, -0.24627079251025738, -0.06730755677832384, 0.10967836521308291, 0.0016649011222141601, 0.04974359669151165, 0.2186983482405741, 0.24744290778537978, 0.19516740992913284, 0.013679180922640066, 0.03439333775878416, -0.28652779164059056, -0.1209982954230817, -0.006513466368650564, -0.1475825240101368, 0.054901528922473936, -0.11350015714044222, -0.17133975315727265, 0.2526612207144868, -0.10599563016689989, -0.1558339481020532, 0.18230849145757483, -0.22829178738133415, -0.3453731259708859, -0.3458201199659628, -0.42399956615683676, -0.08277858303754311, -0.28618256972877326, -0.050100044890688145, -0.04190881912536133, -0.1412065212615274, -0.14336882901252404, 0.07060124789831616, 0.16047803201683997, -0.5113887634376102, -0.04813560718117405, -0.12504655678013077, -0.38944313517161083, -0.10137354542527735, 0.036216807163401546, 0.24258252349543333, -0.40833607181246256, 0.07002500581249599, 0.0005234609440333746, -0.3576114479012262], [0.1490040197752155, -0.08913735218243897, -0.04421886909687041, 0.18118216249362484, -0.053288709322912485, -0.15769406392656313, 0.09324261559171297, -0.14597819304616572, 0.12492399157420996, 0.1541961079445356, 0.057610260644427244, -0.2689552947421343, 0.008088068129529799, -0.0023436016769094923, 0.12649664363157245, -0.06021647430022298, 0.13740815662152006, 0.0016726878439896717, -0.061748795464029435, 0.004031814734625134, 0.24844606919452453, -0.10635988236420255, -0.04309820781884068, 0.16693440374987423, -0.20155756004506462, -0.06598255451277361, 0.012656025587271786, -0.024623046010998996, 0.1023504310454472, 0.07927733051827304, -0.06952289955786424, -0.11300786015429648, -0.11169520826382909, -0.1726781612471737, -0.038686247705303364, 0.1547646571571043, -0.1470069042578996, 0.004595810322383845, 0.18644211919399006, 0.20546038404848524, 0.08090039875175647, 0.18186823711718414, -0.22152314054339067, 0.038487107238672984, 0.14984333511958284, 0.16967531936290361, -0.0904208177578559, 0.04043016969719001, 0.05792216994217331, 0.18792018930938248, 0.1368922308453383, 0.16827533259644745, 0.0909558020595109, 0.2963940305052329, -0.07399586618091823, -0.029218894310888303, -0.022014070091810514, -0.24596607705085877, 0.05920009668593218, 0.055446186913083784, -0.09077567626113991, 0.06804344211498085, 0.10595875383236229, 0.2067109174036679], [0.24711668685471125, -0.14742295940644687, 0.050388654314227246, -0.17776980852856492, 0.048621465314904765, -0.19073031328238016, 0.2075616616012536, 0.16446945369541235, -0.17829124385998507, -0.009237685703521965, -0.006494517759400544, 0.07414276018642521, -0.11362786420419511, -0.08760983866161545, 0.15517552398471965, 0.11978789923446438, 0.047607155315772615, -0.09502407553642528, 0.35185796973801814, -0.02282074431792941, -0.07943248259250682, -0.21905235324409478, -0.12219298897860763, -0.03437367129074808, -0.07786069700306124, -0.4065094985790288, -0.09702638615140974, -0.3382286412863964, -0.1005068393400705, -0.11868051514708837, 0.06459621107468332, -0.3051386078375742, -0.009379087405641504, -0.039294098108871314, -0.15732361775784917, -0.13116836226119463, 0.2006220288861482, 0.21895369912980894, -0.2221578149374699, 0.09381239775439189, -0.05760813849526293, 0.2517806780874895, -0.03411277821423612, 0.25549261319698713, -0.09745428635780459, 0.019042943471921692, 0.01490931368646211, -0.18265621559074735, 0.07905586373298601, -0.22214496069398237, 0.24636676529818338, 0.051644596818347877, 0.03445806423129646, 0.1458847570404622, -0.22568316221586168, -0.12921008755970287, 0.01975432491882232, -0.17182899636215743, -0.21740924586869353, -0.11515885130913733, -0.08773315489800977, -0.17744509087224095, -0.37694860297890703, 0.07065136841603961], [0.0710974928507634, -0.026899727744590745, -0.6280844378308669, 0.2548717213104051, 0.03773733270239315, -0.46624534326728745, -0.03866470737840028, -0.22793719168379262, 0.05686477458376696, -0.11705887813178362, 0.033383319644577726, 0.13414615729955381, -0.43040779134329643, -0.09320438268531679, 0.058956686011150075, 0.1007911504565818, -0.026457514983290218, -0.036501584379376076, -0.2625796415610347, 0.2796060399824059, -0.06358626933810801, -0.022189975406963193, -0.1594851632821179, -0.09565345063291879, -0.04728818845491533, -0.19224534312996605, 0.13168701090286597, 0.05769377412628929, -0.4138615912365068, 0.28891347402963186, 0.06609714136688385, -0.032589938405905634, 0.0725380609682147, 0.19407443545838335, 0.0035036229729326056, 0.12156794022856116, 0.1686206067696528, 0.09221663525219194, 0.1528900250415262, -0.10718452282494452, -0.12692412882501564, 0.30029224940819177, -0.00016843325943019828, -0.1879862885579236, 0.10376015469825654, -0.3782045458537398, 0.025770961081055647, -0.10296374309789837, 0.04902015151483144, 0.19843795156723662, -0.2075391903649215, 0.11763004691171713, 0.21339602396203944, -0.09549368917556636, 0.1166595994498409, 0.01840131523347541, 0.2153046318808542, -0.01788864157578279, -0.10479558153517313, 0.05107442359288446, 0.08912597922220424, 0.06994265566634732, -0.16567559717057104, -0.12168074045848262], [0.006046423346715389, 0.1482683975831615, -0.7123431236458714, 0.07418383884892782, 0.3431468540685899, -0.41389359999782116, 0.08580168514244131, -0.25790355234090895, 0.007181000266450066, -0.22269693228579945, -0.03615703326801648, 0.24489824446196048, -0.3856611637023779, 0.20802700647336086, 0.056787874424794375, 0.14990840720181378, -0.11282850528320737, 0.18851375874494888, -0.20926409943019947, 0.16020230789072634, 0.0023716854877230313, -0.06367626482375074, -0.018911628481010058, 0.1371571732346513, 0.08572112358352621, -0.22595933230632473, -0.08896678161418001, -0.1106226416172536, -0.5270232007256216, 0.062475707929452305, -0.09111431918839225, -0.34246043423532213, 0.0870479188425136, -0.027250566965130427, 0.07076165705670093, 0.0701174026303195, 0.03301815774590208, 0.05544119860321254, 0.1933213096976376, -0.008812290011540826, -0.17797165331367987, -0.04247384454594761, -0.019556583138009866, -0.19397787612286896, 0.16592796500058613, -0.38523172548962886, 0.2710731674052053, -0.0744149651584763, -0.0050724789060950445, -0.0034514152818037624, -0.10018287656059043, 0.10301373646584595, 0.34975417983116397, -0.2172328397367544, -0.14941061809276493, 0.23864071780290846, 0.17934603403335367, 0.03547549373938599, 0.16355459845127182, 0.18158316348361142, 0.17026815926563493, 0.1915598320327576, -0.12999417548619518, -0.17637679828690556], [-0.1252238217653408, 0.1376403023682776, -0.011537725062521254, 0.1477982008733906, 0.013657150634763493, -0.09776032709069889, -0.08050332879358231, -0.379420299131882, 0.1690650088775329, 0.15075560980558417, 0.1410992301818491, 0.064255074340266, 0.2196411773001126, -0.14841054997647923, 0.00044255712779424524, 0.10545111438400345, -0.08015272401447558, -0.18184712259204056, -0.17273167527941877, -0.2017996669105692, 0.08094016908224476, 0.24833405410078796, 0.043835134156046895, -0.04682839210082683, 0.09767151586633946, -0.07096195689225605, -0.022152319366733182, -0.06483090581247823, 0.2020262826991517, -0.059408400974021336, 0.0751031013978738, 0.2386098950430795, 0.1296819907026405, 0.10182153839940057, 0.029559957185755242, 0.13244329784422176, -0.26500759964399156, -0.06453562388739648, 0.1692834366545849, -0.2661170272232515, 0.1129043159377512, 0.10372267503670173, 0.1850879839764179, -0.38702569221916144, -0.017499079054036762, 0.2720875900823686, -0.22070533171144174, 0.13467241366627714, 0.15092651919589872, 0.10759962291011246, 0.054293303037800875, 0.21231807310962533, -0.05141662788318893, -0.3052146752060556, -0.07293636410413126, -0.038996597576498884, 0.059576169938971156, -0.04522799044782452, 0.06252431602871068, -0.00849054421217454, 0.0006859415582686913, -0.13147736735505425, 0.04964793343914632, 0.12949872849523877], [0.014235790430814984, -0.26765950008210754, 0.4884733801159385, -0.06979353824864167, -0.15548844418515012, 0.2347385397557838, 0.16099077662021083, -0.08544460447661532, 0.04803176615808968, -0.02916275803717447, -0.1604401688399072, -0.015785087513870522, 0.03133489343256405, 0.003257207844280508, 0.06098291454027239, -0.1720497353462952, 0.05463530846926671, -0.1397757781690689, 0.3278168054277175, 0.10713523497618313, -0.0847488720825469, 0.13052505364598602, 0.16272457952278618, -0.13913765817024237, 0.04372677301979658, 0.14895011781375087, 0.05250089813661604, -0.13005729725854104, 0.26798929331766513, 0.01239424292580767, -0.18875885563123349, 0.22056565437387268, 0.01568448830048229, 0.16374937912474644, -0.05668137310584662, -0.2142409256421108, -0.1090096070438206, 0.1788337012284172, -0.18062073474406368, 0.1757139872018199, -0.03760126092942615, -0.09259534329228974, -0.10612559439970212, 0.2389276727309759, 0.08037899239265871, 0.1715838844193225, -0.002970944998318216, -0.1965149399498014, 0.030746043727949365, -0.06573416865680583, 0.3019019059617261, 0.11057557431214943, -0.20722574059202675, 0.3083405856872908, -0.2568268441124917, -0.12261460810825472, -0.21508771321606085, 0.12915660386811015, -0.2078462692165804, 0.0994096342565919, -0.16407125808117634, 0.08085697077834592, -0.05938291854059057, 0.3522279570874377], [0.09358260034242838, 0.10571943522650323, -0.08023063429147079, -0.148819585093387, -0.05645011848235262, -0.2007616825800186, -0.11107687983664212, 0.04233920842087399, -0.13646505315457955, -0.19976489679596127, 0.02744191327437548, 0.1214636619198971, -0.13460345530955303, 0.18322323331480445, -0.06853286175115167, 0.006398651783939932, 0.0503999208487677, 0.020963322937433387, 0.02832224337346423, -0.17170731045729667, -0.007066234616729803, 0.1011242400401, -0.15524785792040569, 0.17823867055866838, -0.18903398095190194, 0.11410994430428059, -0.04894949034990198, -0.09632825925402318, 0.1513543001686074, 0.13174418687275868, 0.04634299933286723, -0.05143261182533679, 0.11810583921929088, -0.15125745734261514, -0.04331168641826699, -0.04137307696524071, -0.15500933958328084, -0.047048944313365704, -0.057313685099736916, -0.15441760609319935, -0.1597168852327474, 0.19442333848179155, -0.18673376696192676, -0.17017410599004273, 0.2021223034844959, 0.19499718364539304, -0.07126978966802827, -0.17199723590670934, 0.047051272560387214, -0.02680469108717784, 0.18831077860301315, -0.16799271925157896, 0.11320569369913365, -0.2131667031518337, -0.1265899864254805, -0.09380544215964991, -0.14530724424862385, 0.12772592496710716, -0.1413404207664185, -0.016997339347149698, -0.1604995779955593, 0.11951822965017045, 0.07416263004039192, -0.2024798571366913], [-0.09126517608476158, -0.015056410383616752, 0.1583108069345552, -0.05912585681097284, 0.032353753542417624, 0.1697087005981027, 0.06005097476602094, -0.212504846101196, 0.016166032537422496, 0.23110324443040722, -0.13757405172443235, 0.06724507891465129, 0.03692571763064412, 0.08329638861429536, -0.09584513680265992, -0.0032920545046375613, -0.23285156508544297, 0.21175280513398675, -0.03695667855222009, -0.1344347147662588, 0.016324643896213537, 0.2359945255650812, 0.044444243728371496, -0.21215849182463709, 0.2229839350944637, -0.10051544507606942, -0.13163337645907383, 0.06782802382750883, 0.25946974855809, 0.17561214909792666, -0.16575259859918917, 0.06700236471766148, -0.21370544250190185, -0.04962576916305059, -0.08695112237750802, 0.12912719263457326, -0.10187468566982927, 0.2470546742850756, 0.026557705203736928, 0.09097416686314914, 0.09589570036349238, 0.11393043296392291, 0.0715274442412273, -0.11051073878163048, -0.09414721077998128, 0.1571348550685642, -0.1998499142523814, 0.14866249052328917, 0.029134982683749394, 0.09550107587609269, 0.27222082586113616, 0.1015537288890997, 0.11052894632141234, -0.002073581003417372, -0.06950316138906826, 0.16313124419750508, -0.17280133313001372, -0.0919738919220881, -0.0671731738501131, 0.22053761415345224, -0.16740364474702416, -0.1027512766000466, 0.12183009314541271, -0.09150001816605885], [0.042609473360162214, -0.13066398988193972, 0.2667733025870927, 0.17951935591514154, 0.11194378594978903, 0.20277986124071246, -0.18640646901655342, -0.32085993885010344, 0.15337977133216374, 0.10191164310266758, 0.13650281180539062, -0.09018164904872833, 0.1367900875771043, -0.0791984239299997, -0.17389056207507972, 0.042208007321828396, -0.1932563333265948, -0.08177122782305687, -0.27102686546331517, -0.15522562208855653, 0.07646722505856123, 0.1308943807969747, -0.08009943685042273, 0.020410268198801162, 0.04028071610953867, -0.03358098796791426, -0.08670256142740249, 0.10880975418979918, -0.07205616190886328, -0.14465886377016535, 0.04447078938544899, 0.04899484948804555, -0.12469952372642014, 0.10088555205918225, 0.2271015126006591, 0.05274491476737936, -0.3133341665719004, -0.002988346410414534, 0.1581640500254185, -0.20860395797253062, -0.09512877859511912, -0.18573702273417464, 0.04175462410236773, -0.05697667801314279, 0.030755136406791263, 0.2418590046892792, 0.05400897206903383, 0.008497280290812708, -0.029226529544077003, 0.0482163760940506, -0.19807235327109718, 0.248721794939944, 0.16709048300176482, -0.3269352159823333, 0.06736261620822186, -0.1529938543397996, -0.2543645689995701, -0.22252383888375427, 0.1101195709260553, 0.049822200254885304, 0.07935490479209682, 0.0301133528477153, 0.19973451288486585, 0.05657790896136441], [-0.23533586980863963, -0.0941480907705228, -0.058238580533525916, -0.07950747547151284, -0.17408165696692593, 0.09511500011306881, -0.18252490160226278, 0.05004195685409307, -0.08695512559341698, -0.016856869017739345, -0.011869478957185696, 0.02654839375873003, -0.12383194746394187, -0.11990372234458264, -0.1062545518555147, 0.1770682360115708, 0.05404150933450719, -0.06995506527235791, -0.12525257902293666, -0.25978351615768386, -0.18870935716443846, 0.07093913092681807, -0.1197020730539466, 0.0377225193500894, 0.18318988729102426, -0.18262341110783964, 0.15523574679111857, -0.15857287220852537, 0.156810153990909, 0.03820755798704216, 0.12018805671115025, -0.08059212390722889, -0.1042935040808007, -0.08737739699440417, 0.037782592468338844, 0.12695285199758374, -0.2189315218225974, -0.03526841555171584, -0.1670982607401277, -0.07177702950615653, -0.13389508396408706, -0.1856542511126043, -0.1751587104352088, 0.18700431835512316, 0.03230656724623524, 0.03518127883161811, 0.09075122409554053, 0.051061519702786384, -0.0930303539558024, -0.023685451758364656, -0.2070996239765759, 0.050428317249512807, -0.13697820073951109, 0.1334130596135576, -0.04361158158792698, 0.024189661904281543, -0.102529770154649, -0.24523844678044024, -0.015708597949597402, 0.17567279234126887, -0.2219903778257163, -0.15102428223419012, 0.14115818204667466, -0.07764463650744273], [0.016393795156097166, 0.12226490032775027, -0.13622900259667364, 0.1711596471444416, -0.011603361642481748, 0.024606291497545115, -0.19172640913898886, 0.30358766232963763, 0.08571698457731895, -0.19088446793358954, -0.0827822599218473, 0.09687746955197388, -0.15760870691968287, -0.027721009720696202, 0.13708641557298926, -0.01672433339143732, 0.14751510053596562, 0.23131101809258695, -0.13695868925537508, 0.04493307362001891, -0.20216202800558075, 0.10017629164857542, 0.06765512632258136, 0.2652398786644654, 0.04838673096415879, 0.004527438439877197, -0.024080363002631517, 0.02334380068934635, -0.12724381112459776, 0.048011877160109184, -0.00033289048119308366, 0.05040761665109945, 0.2600968062992037, -0.04391395821814895, 0.1103451536797759, -0.02245220848716594, -0.020949906102606292, 0.22325700146804306, -0.12562618229584024, 0.07304289245392993, 0.16686667657873855, 0.10969736230766754, -0.07262975157711772, -0.017880465704008374, 0.2052869286816151, -0.23271216953177723, 0.29097787911292194, -0.004951630012170544, 0.032574245682777454, -0.04382656498072216, -0.06325564792521536, -0.03311499037993898, 0.18996032734341253, -0.16156418027778133, 0.25691037612472023, -0.11304809022173064, 0.10979268962742961, 0.1919329114479605, 0.05328880670808128, -0.04776068214340698, 0.08024689771855074, 0.19290934404408844, 0.02266226589799242, -0.14614682567061096], [-0.03443704646978546, 0.03883156820405505, -0.04160697717985219, -1.911029829709083e-05, -0.13785943747642557, -0.05450855622319398, -0.027086953505921146, -0.05340828678998897, 0.10159146144090178, 0.387642002507923, -0.266854416480933, 0.1891452628524855, 0.00461220001427387, 0.015485968633782682, -0.2595092335155304, 0.10035903466287582, -0.11379279038588504, 0.012328226725857455, -0.7546430535093681, -0.20399389756953284, 0.07958870732105053, 0.2768253469944253, -0.05449456499783117, 0.16298613578882726, 0.27598015710386653, 0.07517367287025378, 0.10773194306678671, -0.12083182743087197, 0.10125066983192292, 0.0746773282488335, 0.13679291231232793, 0.3843546945053691, -0.1748004278741509, -0.04328014182169093, 0.13344715145962907, 0.22606558233617488, -0.1504567080748713, -0.010678947827669054, -0.07521557689382447, -0.28502320087305316, -0.1392984323077933, -0.10326799594980009, 0.020207510014268095, -0.4636752018663512, -0.14731502935379787, -0.13750461624762478, 0.17244493994499738, 0.25367607681419646, 0.08730232727137037, 0.20252869755881334, -0.17238289350063432, 0.15801702156708314, 0.10124481815394658, -0.4515371757757986, 0.10280319422804893, -0.12527471758945222, -0.1538755999824572, -0.07621503124781612, -0.010332288010162304, 0.14475992840949753, -0.23758575031961213, -0.11164909639906373, 0.11146453622928625, -0.7924519989201779], [0.05090457547779433, -0.110827497136417, -0.4471286791930324, 0.1721942412419982, 0.04750444452910927, -0.3065093428981219, -0.07165804923070712, -0.15982134297948, -0.020383023549691223, 0.0591461339814059, 0.17950666635085563, 0.022588258107955107, -0.18196271994369168, 0.16327687838841182, 0.2825787966171023, 0.3266300575540754, 0.09142933968896345, 0.20960685120959904, -0.32796331430943565, 0.0810515635768579, -0.22644159431668964, -0.1764725767871927, -0.25264696564298317, 0.1762935428545974, -0.024989191000776272, 0.0010281405040199643, -0.0474933350219823, -0.07167171715908897, -0.3181503542448213, 0.15690683552625048, -0.16012767631233385, -0.28853673166806976, -0.27189285669021024, -0.07171229152171411, 0.17698646173549562, 0.1226566824579513, -0.2702367249819802, 0.004842207130796266, 0.018992685186079758, 0.058833983805829465, -0.05500693668898165, 0.1692347434375861, 0.25841163685510815, 0.03867287122035474, -0.07288351189104421, -0.6450820986476711, 0.3340012141224138, 0.19794385201999298, 0.2132497412182379, -0.12339561498100415, -0.11786702784793536, 0.09567951857799686, 0.0953185060395559, -0.2975375182348208, -0.20340464665397526, 0.19985973756844047, 0.31693786604356056, -0.06620589207552673, -0.13516590301698214, 0.08710139915096622, -0.08419008716455348, -0.07476023596603579, 0.004609990579470508, 0.036759249798406245], [-0.39420005395806046, 0.023089210987774243, 0.06205066220108268, -0.3621506904541318, -0.03667584333343586, 0.03611765936375428, -0.08414099758535426, 0.31783297504393804, 0.03652514947610825, -0.30770235831650933, 0.04540223980661359, -0.2876691632353643, 0.2102680583491441, 0.008815623229984203, 0.09238507094944622, -0.14867509884660982, 0.010354408637492455, -0.11602244385104922, 0.08849907772562782, 0.1642480972556404, -0.37308348695131505, 0.05968174387876461, 0.04331692182954051, 0.005396722268711189, 0.3764556197213816, -0.11916503997611393, -0.0253299205773707, -0.0032593672162681583, 0.21537150702037686, 0.09446039617702134, -0.2822603318420411, -0.23371643753819324, 0.3040973735327552, -0.0737020034940125, 0.043817898496469374, -0.12187216033740049, 0.265538532583041, 0.12750880232353876, -0.056181325361068436, 0.07816573523083485, 0.23634606154256987, 0.03665347942376128, 0.19793568604037978, 0.31309816475727786, -0.00917890650671305, -0.07874887500766936, 0.00014353746218093315, 0.1668812781428782, -0.2739724949641702, -0.1170183133524817, -0.024573627488374196, -0.27579085526424546, -0.010582602021611652, -0.0724268650209917, -0.09835548603888378, 0.06952125588564839, 0.10724065345144035, 0.06575320720429723, -0.2959424818559605, -0.17229744336236266, 0.07030756997429305, 0.015596928033682924, 0.28568196400343915, 0.19739108968033464], [-0.13465332685035453, -0.2109042662667575, -0.037894692689575, 0.02498618779506034, 0.09860507148552872, -0.015096594463385314, 0.0260657655938526, 0.0867205657824822, -0.18643860600833487, 0.3187131867231286, 0.04554138436293027, 0.06494125179630046, 0.1413428144435755, 0.1499427706122538, -0.20660397302388278, -0.05307828299780746, -0.051007639650498114, -0.08346158206554115, 0.2041377191622774, 0.15755492340962252, 0.16145679609306135, -0.15444590607748512, -0.173752170298325, 0.1672185592201865, -0.16701631072258538, 0.15005219203124068, 0.24754156125858393, -0.16166626082245475, 0.14054041753067487, 0.13947946175966075, 0.17341473035437222, 0.24003943966532396, 0.05074223443251169, 0.1334567057593266, 0.09422981950258161, -0.15478933668441314, -0.0792783333488124, 0.17103793866151956, 0.13886152129688686, 0.23054301532632587, 0.1382098059095461, 0.11877365359621585, -0.0437328014254384, -0.0992770879829525, -0.08276796711265719, 0.32417379312820993, -0.281256237234681, 0.19359715350261786, -0.16667339335081655, 0.1663296351441792, -0.04235286573578192, -0.06170019311064754, -0.0770230701253089, 0.042908896075328155, 0.12468749110229266, -0.1385273613885044, 0.04662732690341121, -0.12883420718892952, -0.10293966849323748, 0.27905999012677396, 0.08128385395638528, -0.030644839786401312, 0.04064145201656993, 0.23342340592696012], [-0.0720491660477534, 0.10951153375949478, -0.19602611292749772, 0.03165367458378386, 0.12230417256859404, -0.00424190017115163, -0.09646770209537929, 0.2551214719149119, -0.0854537770811131, -0.16536934715523036, 0.0014403094629197673, -0.02435087273369863, 0.13901124796442255, -0.01330865484882338, -0.010750095550216924, -0.20124235210555788, 0.011297910777279522, 0.05397954456738191, -0.31528795883683625, 0.23238924954883308, 0.14192172767594974, -0.19109148979497065, -0.16185240768980866, 0.04010217496822331, -0.09080265045790682, -0.13293209341127404, -0.20022356922039722, 0.039203129803867254, 0.09927675112714136, 0.21745991406667342, -0.025634321953929333, -0.13840835156005027, 0.16635116595833754, -0.04627334721584499, 0.22754671379611957, 0.1266565460149107, 0.10012541891823687, 0.06216832513564319, 0.07220112013971738, 0.046250277650574885, -0.020232827167441732, -0.015380119872484959, -0.013895705984701075, -0.10291532889188698, 0.16276888013734075, -0.15460739696867382, 0.24145834836131355, -0.09326467474164234, -0.09764605756634823, 0.10934783614131566, -0.15879087748994428, 0.18849779887626789, -0.14908721156639304, 0.10821711573604359, 0.08355934035196799, 0.058785968435410674, 0.1477943457005493, -0.04550685325791603, 0.04795478319204058, -0.14875123818000205, 0.10774734333039726, 0.08813996727413728, 0.22568200339321476, 0.06425395475363246], [-0.15031065382588898, -0.10230697635241012, 0.1977814849680743, 0.2626137081069813, -0.09365104435173613, -0.09571951014359574, 0.1634046141533135, 0.03537698525388282, -0.051433972347791755, 0.2733864617813298, 0.15130767355919897, 0.08699871626420513, 0.3146595039655084, 0.14660317530157013, -0.20466368754224398, -0.09035273008414584, -0.1381202443137965, -0.08129791707091215, -0.5759541056220379, -0.31871256464073805, -0.22320555406562054, 0.266372195057646, -0.2610971609487854, -0.14806313054818346, 0.048277995239894025, -0.004211693959131644, -0.03310718328077233, -0.009538998634709023, 0.06730617568347248, 0.1702795998090965, 0.023912245387926155, 0.2991801386195544, 0.10614552784285251, -0.059089576963697175, 0.017714278327025178, 0.2942860279150336, -0.1169197421335318, -0.3766342278595094, 0.22013500490454851, -0.49868942197496885, 0.10996080863322291, -0.11685806930221339, -0.3016807156191127, -0.3586323019208936, -0.37747808776359393, 0.3148650789415089, 0.16497542375839327, -0.12300303020526243, 0.040573483771798945, 0.020792825313957878, -0.12134928367441626, 0.08705577593622145, -0.03955121780317668, -0.5223295015723011, -0.08750813338087561, -0.12834174711694094, 0.14189034924912192, -0.14690804835935498, 0.33901087864605933, 0.25552678778512955, -0.137256497513738, -0.06776206639275686, 0.02046468332506678, -0.6312027679471152], [-0.07968564741076675, -0.13357475981948413, -0.20797575995432316, -0.009869515891151454, 0.10570704392295915, 0.1355499734247353, -0.09274036528597125, 0.14314772572333856, 0.09782645811439311, 0.08937910832202828, -0.014563063071482224, 0.012902603305870064, -0.16111483774687407, 0.1545978218531353, 0.06742678515857425, -0.056481102466116845, -0.044399713631482846, -0.03252589768153874, -0.03546045025609712, -0.1422043775677868, -0.11719489306644615, -0.14536815120768343, 0.09664021212110241, -0.19693637579276935, -0.02945058481426549, -0.19780389211580718, -0.15381943920133945, -0.04173163667327609, -0.11282468247907439, -0.13537972990743974, -0.019785399725616742, -0.06134847843663335, -0.13223054268826057, -0.09550242969284466, -0.15499692364121875, 0.0418324216943356, -0.026716855312329146, 0.016050381959491794, 0.03171051712026146, 0.15897752531862347, -0.06593362469076042, 0.025719462019271333, -0.08722577592943204, -0.08957049011841128, -0.042961039415824326, -0.06380792748928193, 0.08129047904776338, -0.0332822619426941, -0.19484014219772217, -0.21639876084884202, -0.033081348937425176, -0.03903120977724428, 0.041590405831326394, -0.06894869190568967, 0.16053560450693816, 0.04837469426467739, 0.0992828985948368, -0.15138247453724296, -0.11317000574483643, -0.04106985240599614, 0.04817296128059867, -0.1396254401531408, 0.12188275893158784, -0.07520853777685146], [-0.08407335593817057, 0.20651273774069767, -0.15821416808514283, -0.06590385138900717, 0.09636429797148895, 0.31871042094474133, -0.20302837709139934, -0.0784243317118956, -0.07493955760611865, -0.04932983341065138, -0.045708939204016294, -0.3544852450600402, -0.16150931697297644, -0.15933752285445446, 0.085348215723943, -0.21371026323108824, 0.2856305473443691, 0.0263236135616826, 0.14355435241257866, -0.1610958730644146, -0.0041352269008959, 0.006856458647179471, -0.07489716921821041, 0.005235765469491009, 0.24761001287471654, 0.017903252334177326, -0.35416198364552326, 0.09561838783441243, 0.08420267009563163, 0.0534587789518524, -0.3560795824841007, -0.15037814016201181, -0.06850447303598053, -0.2901136200213813, 0.06880596558819518, -0.0879085030881327, -0.03533775028939894, 0.11890469747104511, -0.024884965667425818, 0.05784678173119462, 0.23566760683587004, -0.25187047768359616, -0.22811427440739787, 0.10793393778407519, 0.02962096625212482, 0.08673762401686679, 0.16338250219250045, -0.051378006524815584, -0.047090185315155936, -0.06595797049154963, -0.1569981761443488, 0.013548954155047772, -0.18710527307450248, 0.03620854478230866, 0.18369962963199835, 0.15494063279519726, -0.14112804742640933, 0.0665832435302775, -0.30269552457076726, 0.021313697881308692, -0.02002279055914128, -0.12435367016624047, 0.15120464634481, 0.13296087072853377], [-0.21089603259538675, 0.2072919638638892, -0.03217110567240603, 0.0849735687713033, -0.004654995119952245, -0.03186737955480142, -0.2399057859126109, 0.08161433227919158, 0.15584420880254327, -0.19289653092469092, -0.05587845476952344, -0.047423328320597764, 0.031849583620958716, 0.15591047868647637, -0.17280831652330242, -0.22641518076399159, 0.13099824991920975, 0.1174468718203477, 0.02016034095822387, 0.09477604444154603, 0.09600465481720606, -0.14240993249136347, 0.03745457070839668, 0.06576710340578973, 0.13757370501360416, 0.2396401227106887, -0.016784341920385696, 0.09963621605570498, 0.17846310122595005, -0.24369165928826117, 0.0664808407982645, 0.11874518382584498, 0.18491704727925584, 0.03546422831239476, 0.03431206605966808, -0.17933413987710212, -0.09405161781872606, 0.10220052849303023, -0.14164854987447362, 0.11282876613911218, -0.09808411362201702, 0.07801336879397182, 0.045190804401091134, 0.16815196526037038, -0.1481777637368375, 0.04411317509464527, -0.0014969945712994673, 0.21331336680055366, -0.10694741446371682, -0.11466010284667487, 0.00888833205059512, 0.01945435785610316, 0.04507653660337337, 0.14987839181099188, 0.2653291297148751, 0.15975321299971665, 0.11848020308809837, 0.18719716231186156, 0.010521306993931799, -0.41210568206920195, 0.15774078521104765, -0.01510047022327708, 0.1670880717184182, -0.19311195574608095], [-0.45510021382368354, 0.22372721787821367, 0.2375086701635171, -0.010946437093722129, -0.24130423339111823, 0.1682714385508903, -0.2948308059416428, -0.011257165471842854, -0.13397110594252415, -0.06918594271421055, -0.22752151418415922, -0.12201832857137751, 0.14311381443406454, -0.273158555271983, 0.12851105391519296, -0.21985855886848693, 0.08152301904418204, 0.09459127383365176, 0.13932506047644627, -0.3895178265301557, -0.10867019804304229, 0.19033273895688857, 0.2541260795553301, 0.13282970271001068, 0.0812576041454327, -0.024303819578436935, -0.3123504870080339, -0.03436918161440578, 0.12210440197823715, -0.02479650674070543, -0.24778271048190945, -0.0600091044465081, 0.13846502360588545, -0.3028105277221536, -0.015332480293127693, 0.14064664523945372, 0.34300325876421617, 0.19993432455076132, 0.039358817940600116, 0.15023350351977838, 0.1925438405239702, -0.19961068389573017, -0.08475390710999528, 0.1380802960370943, 0.016883409070930416, 0.23280927313862837, -0.22300364504723966, -0.06097681265454136, -0.20037550157620893, 0.16424888504436697, -0.22816055928733395, -0.24400252173373949, -0.14580920434103167, 0.23704983138410451, 0.2778416110794312, -0.15507597662326264, -0.25260223315597624, -0.08727643849045488, -0.1686445062832433, -0.26840688265690604, -0.04103760795933483, -0.06997772083095785, 0.10508396985211728, -0.03692600549220992], [0.18936165650437328, -0.11094889521805074, 0.4483820464624721, 0.04944938223632511, -0.23178836707520403, 0.024437436253281906, 0.22373803294472366, -0.272703540566599, 0.11926146213249073, 0.31509661764564534, -0.13325496736430362, -0.22066732895435617, 0.11286495834902618, -0.1935344934674377, 0.04942828468020964, -0.1673999518843912, -0.1151149543429208, -0.19686832282005018, 0.07950050956815202, 0.05307331876078563, 0.14766812173678495, -0.0963930726220792, -0.14629972480336434, 0.02893245109349554, 0.24394868369678543, -0.09081069913263891, 0.12216357317088972, -0.23848184407560485, 0.0861491581083689, 0.14046601664653113, 0.020281750849693404, 0.05905967216021885, -0.016804911828181935, 0.048147856432235875, -0.015671351155457522, 0.13968526222659242, 0.11434000693751124, 0.0019748000258496784, 0.08597103857585407, 0.07973866245275982, -0.1035736280192388, -0.11034927260770093, -0.0615961587976643, 0.03269422782193776, 0.03144306144831388, 0.3715150020993778, -0.03509830343246578, -0.11270278515443583, 0.0019038540184035933, 0.22630377522894565, 0.10223359981061492, -0.10536069605558963, 0.08731937598666972, 0.32688393967593743, -0.04303098516646049, 0.04315862129593835, -0.09216485089503464, -0.043220759254052596, 0.17170102647472366, 0.06947516442701944, -0.05091798857280167, -0.17036294780906536, -0.07465867477149651, 0.3304941399292669], [-0.2682762168726663, 0.1306428798024077, -0.10903988746153612, 0.08972119799652654, 0.08045432752971866, 0.1451712898487186, 0.0804011591090255, -0.08965720513489543, 0.060218283870881455, 0.11648966152260846, 0.08313276088456528, 0.25134216606535614, -0.051945685583673976, -0.13235783215685482, -0.16198700039716837, -0.14567351630032452, 0.10699876331995345, -0.09731312049928782, -0.3747529903516074, 0.02730668093122207, -0.28741201858348375, 0.20330963178364753, -0.22539199021433276, 0.05615362111649233, -0.15723887848028814, -0.20162972553187528, 0.04033207390291704, 0.01246528996430825, 0.1998307563453568, 0.2524981868865588, -0.05712686745452924, -0.03884352426446982, 0.0029050949808220256, 0.006460241620310083, 0.16571581933464843, 0.15906536176468655, -0.04294805908486221, -0.0921553596537397, -0.1009446599943308, -0.31111879342827997, -0.09805633525220624, 0.10131983286446401, -0.1814082671203702, -0.25405655397693105, -0.25307385358598045, 0.20716243588304117, -0.04694416469457715, 0.05598388713801185, -0.06528506368631783, 0.2709453426319639, -0.1860970617805757, 0.149959145459872, -0.04428689752510408, -0.4531183549306237, 0.061411528155951384, -0.0419572165238488, -0.060624812549185704, -0.13341947720208183, 0.31592724413562595, 0.1941123876033901, -0.039310799309602566, 0.1013106158363874, 0.19158598100232113, -0.5115839244343661], [-0.06618279219785311, -0.05345258956043542, -0.12152718615399806, 0.008128927216471573, -0.13548525347021648, 0.1380137943935416, 0.2124173265670876, 0.1529703984482844, -0.22636111121569658, -0.3269063312181956, -0.21566914631442366, -0.16482797710635846, -0.39228548092710963, 0.1585756192937149, 0.15895955313255997, 0.06269988507808816, -0.19019868807795123, 0.04666024452992869, 0.14192082785652899, -0.07420072988431187, -0.08934508870445702, -0.06810785584842705, 0.04074618893768824, -0.13035222456265688, -0.04179741820370836, -0.537108576935553, 0.0732754452534314, -0.12419450169909965, -0.2511673571119366, -0.12253611919316759, -0.20339771088297198, -0.20227769443586063, -0.100948374431532, 0.13921637473232282, 0.05929458020492972, -0.10283621245538992, 0.051753171144663344, 0.20932990217980252, -0.21461121311154233, 0.022788083218793727, -0.034957563421559035, -0.09652269982931426, -0.1568704165436709, 0.03397697373431837, 0.14312983694515682, -0.30094488668024355, -0.4241460910333646, 0.20123171058202582, -0.05966700474002983, -0.1390355426209785, 0.2442230087823849, 0.09988698856717557, -0.07999507480353962, 0.12563566608297674, -0.33269511644361205, 0.15008637599948252, -0.3174944052803343, -0.0999877602914202, -0.1736640018397752, -0.2156847234337226, 0.1210874240354105, -0.06781767842148008, -0.23956818396770077, 0.11133057872118614], [-0.13692143944505708, -0.04807094797567084, 0.1536072087965837, 0.11177353363873445, 0.12594477242712696, 0.04885288907517725, -0.19673494031058672, -0.2660535439948344, -0.12844772227521384, -0.0433725755979667, 0.09290996499465909, -0.10109629938175534, 0.057923356094774836, 0.013061124361994874, -0.18342772200642016, 0.2227404758242754, -0.05725331537119293, -0.18498082244076255, -0.5950821310795323, -0.04146381190637498, -0.22942340706194325, 0.09588244752068403, -0.06582135269261633, 0.1090214906775094, 0.09959176378952982, 0.19081838940802384, 0.13391805647603544, 0.133282101349009, 0.10485054889389028, 0.018671108158153732, 0.14917733013707227, 0.2696040358661885, -0.03722581766221785, 0.16649095136457642, 0.031084759565247456, 0.10587291607070598, -0.2585975772025618, 0.10111269972774715, -0.15733540400947635, -0.013054291325063737, 0.12484088309304071, -0.19865839080916906, -0.21522094539906136, -0.6156290938057792, -0.1749408444214965, 0.05077818918630727, 0.13091582734681673, 0.17480487570076755, 0.07618038564528229, 0.11727573074661234, 0.12954962415749685, 0.10711954283582772, -0.13896350521069195, -0.48273977220095166, -0.08704093287161102, 0.11667798064531446, 0.08482223661180568, 0.04399662235274503, 0.23262819504456422, -0.02600328553264435, -0.012887860864368696, 0.029920528391876353, -0.09031348801941338, -0.08325135493327514], [-0.34612049456640415, 0.026869030664996876, 0.2627120047516499, -0.13136745782274778, -0.34564448427361877, 0.19399528289555745, -0.08503014354114287, 0.03899246851260453, -0.22542669104642818, 0.13263498021695933, -0.19962917422760473, -0.030859303959116544, 0.2749645106700802, -0.18067055801325327, -0.15133014994072078, 0.09205281457961781, 0.18795332247668314, 0.010615130557389775, -0.1365491769353892, -0.11329792905435819, -0.020337394887175057, -0.23461411165746926, 0.019224968695596874, -0.07472151096271817, 0.26984406463225613, 0.02083590909465347, -0.022938091574392704, 0.15607238452876682, -0.02651830982357959, -0.059297793157888794, -0.21171884707452682, -0.044429093128756245, 0.21654044954378152, -0.13601567223472422, 0.15690649639685525, -0.1616556336640429, 0.276287885066874, 0.17723330281259028, 0.06161135269969105, 0.2548241387666204, 0.07533484861036852, -0.12483895986430815, -0.02129234551109325, -0.12030381565566332, -0.020740745408769037, 0.08083180819565856, -0.4898394851553405, -0.07717029113316158, 0.035069707436065696, -0.25908638363094955, -0.03372965201048913, -0.1826100852315806, -0.2998630914927962, -0.1171028458081385, 0.26010445628946044, 0.09590187402207598, -0.23969019388863005, -0.16096896212194367, -0.32556637930663596, 0.029726931663653474, -0.34385577293172065, 0.13781107024742284, 0.3489558009968468, 0.19287019572087521], [-0.3242522693033493, 0.11681598786820986, -0.024278214537403635, -0.2986339457375014, 0.10773888592949607, 0.1341520182897027, -0.19113268245633191, -0.00938905701070472, -0.13127545537923346, -0.024437338537883716, 0.1504197392460784, -0.10726459043412506, 0.1977149197279731, -0.2953978624532413, -0.014096866592646801, 0.07956038864053386, 0.007998362175187535, 0.161861188215276, -0.1913239803301145, 0.06338955177491233, -0.08222281501641353, 0.06576102390366176, 0.33877729976144394, -0.053160541882411115, 0.06713391486523593, -0.1498834057557019, -0.20950045399939082, 0.13983940912298323, 0.07252958322015123, 0.12289970354363956, 0.028147114300456248, -0.20415608490275694, 0.17916221393447948, 0.02925403620288801, -0.19067954923519068, -0.006222627462438671, 0.07441135737180508, -0.1987683305009064, 0.1399510842141418, 0.07503176854183778, -0.1766379970745219, -0.07025984801857167, 0.21581834173241712, 0.2971264517280279, -0.0056297727777940496, 0.21328218721242742, -0.008709984928411891, -0.24348027968968666, -0.44301469787561815, -0.22129599053837495, -0.14182766202351457, 0.19708356079314412, 0.15433031166470598, 0.25473844067657, 0.24071179601607987, 0.2055316030503254, 0.15632723509942453, 0.060439836067112764, 0.0152154753352368, 0.09230202564968613, 0.12127977356770074, -0.24544011230101806, 0.08410253528165834, 0.15785016410444053]], "b": [0.07044285223370163, 0.047404623877268834, 0.1268590395870535, -0.0070423566913560285, 0.020215773532102455, 0.1600393112716591, 0.12156564235498363, 0.005865660403660394, -0.07315926875945164, 0.07875735256936817, 0.006649670454630523, -0.012602329502168568, -0.0020391473541577112, 0.10558191478069658, 0.13055214469484602, 0.14739011433386578, 0.0610331955393017, 0.08535374986593369, 0.0061542854682673535, 0.029755832314962392, -0.00930798915306531, -0.029337934415044255, -0.009472874046443787, 0.10908179550719292, 0.008130643585779132, 0.0, 0.10696958291015247, 0.07341182700565255, 0.07130261835972189, 0.11494125184704042, 0.06481885911006015, 0.10384683700542771, 0.0441017999766528, -0.07133609567221662, -0.024590559703182566, -0.04912440338437596, -0.15260268663551313, 0.026521730354615976, 0.10008400789997737, 0.05319607096768382, -0.002204326164524371, -0.06961613407204172, 0.03294347813265659, -0.0075118941846159595, 0.04213330328881245, -0.02179645266883266, -0.02633987644408028, 0.04062840999373732, -0.04103727904715094, -0.03824922619545525, 0.11412627605027832, 0.02738284981891118, 0.019661226026858065, -0.009337287255199604, 0.0, 0.04077894522192175, -0.038685040986425716, 0.11249301825396396, 0.03643118803900842, -0.05334737300720153, 0.08095521603461468, -0.04812751706357513, 0.058634600036965565, 0.09032009120098726]}, {"w": [[-0.346974022751242, -0.3253742377218132, 0.44024142541162725, -0.2934591961775408, -0.572279716590356, -0.19933281698587502, 0.12351415257216827, 0.4642673205266384, 0.3570747372421968, -0.5314327359297022, 0.24228786786210252, 0.35995985924983737, 0.41562302715015714, 0.19652776006410508, 0.47097315218488595, -0.24963949880195402, 0.19155756562479367, -0.4695427581002731, 0.16971203849729782, 0.30711919337978627, 0.4419116195521818, 0.3974888802990185, 0.49042619050182346, -0.539022032337794, -0.47998001606001595, -0.09765046815347184, 0.3036296336758586, -0.6973582350964492, 0.3562764819875785, 0.26878208676759735, 0.4461644439396099, -0.11747008724145043, -0.3769653075190554, -0.38333000787384863, -0.36327367443705216, -0.0991349591060867, -0.18144349977755758, -0.10739402510667102, -0.224228286582444, 0.6098025703969475, 0.551863857280036, -0.29406044322492697, -0.37296684219895704, 0.025378225707029058, -0.2693751230367218, -0.2028844360311914, 0.3548997616383706, 0.36672883587412036, -0.5797769453785954, 0.34581092042667017, 0.48222577579986947, -0.19573659079608674, 0.09666109116114727, -0.43318623277551804, -0.19988560508763162, 0.3237197295357431, 0.30893135805212757, 0.4272421852397989, -0.12834542483692704, -0.1816706038489219, -0.3615322068879988, -0.15283280120501375, 0.2898760354644305, 0.19212001084302993]], "b": [-0.0028753807143020206]}]}