{"algorithm": "ppo", "env": "pendulum", "checkpoint_pct": 10, "architecture": {"input_dim": 3, "hidden_layers": [64, 64], "output_dim": 1, "activation": "relu", "output_activation": "tanh", "action_scale": 2.0}, "action_scale": 2.0, "layers": [{"w": [[0.0021592674170289755, -0.2062863182704018, -0.2761481845476938], [-0.3366746527415885, 0.19650798648961568, 0.27740653421889855], [0.016633884511770773, 0.28655905475923205, 0.04373365921786485], [0.3775246297998025, 0.16196326823313126, -0.3056952082015424], [0.2707966590866053, -0.3291507821808155, 0.11324877287830556], [-0.15329871924497684, 0.3093799975906126, -0.0010450106121914855], [-0.15326939739895853, -0.04249214802167657, -0.3129127834345593], [-0.22548480872942084, 0.17361732656572207, 0.03764613397129975], [0.09058702540462386, -0.14146029301350693, 0.27527032109824756], [0.3721632812586405, 0.21729087754750287, 0.07072570580852329], [0.11792288933751503, -0.08661058026640688, -0.19782855299453378], [0.2641519761169818, 0.05284333079718522, -0.10931593068034128], [0.06061513231621581, 0.315439661038215, 0.24298791284021354], [0.002372511119238584, 0.09994498342178339, -0.0898332610109204], [0.10070418961885694, -0.17331284026285076, -0.10721371625023712], [0.1821124402608837, -0.11007185932608664, 0.14870368960919406], [-0.2539706583954633, 0.29803373440010583, 0.1572257273071366], [-0.12693983225279148, 0.31851785460240895, -0.2634951623772025], [-0.13773399251066087, -0.33088366233700406, -0.04619122923223019], [0.17197277118368845, -0.29368417059095175, -0.27649722241625374], [-0.11994357705736211, -0.27808747245765525, -0.2291786790114078], [0.07752390114730351, 0.005469610801658252, 0.13005304580848537], [-0.17583779093909435, 0.23667513657571668, -0.08193163143144103], [-0.22556779009661024, 0.08998938925017501, 0.28067972971258554], [0.04092899132526704, 0.335935683995357, -0.03754695624007319], [-0.009502049855019545, 0.10603510802012783, 0.2945266950677573], [0.3037829357378803, -0.06258536712074705, 0.101264988976193], [-0.07070625965351685, 0.02365194564507654, 0.1792762202523245], [0.04695887185194372, 0.24653364887225956, 0.08669400453866448], [0.2599824870491072, -0.19971670235830882, 0.14836115877905234], [0.302841127506289, 0.22739480610341564, -0.29243797134793065], [0.25232855648311375, 0.39632392895517593, 0.24570130821777664], [-0.2716744329207482, 0.27600004596720956, 0.23739448015124717], [0.09939758255929369, 0.005103164213812597, -0.16173374346260308], [0.25576771735887355, 0.3813805452774144, -0.11687253041630058], [0.07399831159377401, -0.03844385914163294, 0.23151114375520823], [-0.33269456111550827, 0.17771611488752864, -0.008229606724926352], [-0.28630122544469355, 0.30324820867383895, -0.27458637603434033], [0.18607401604615992, 0.011770806318054463, 0.23201514372010212], [-0.2969283701545506, 0.2722678296532545, -0.2334339681384988], [-0.16032120659471832, -0.004838289541346468, 0.30489057137303005], [-0.012685257239806846, -0.21151150835715676, -0.15129070692425714], [0.2728048455249689, -0.25631250045793275, -0.22360355677844077], [-0.17717868539732928, -0.016238834809905758, -0.014551809240402275], [0.1657167853722087, -0.15779204637728658, -0.13983687927114138], [0.001934895105198131, 0.34949142679500544, 0.043695801529916874], [0.32392107483368243, -0.07807098687999978, -0.02394898818874721], [0.04602768321496117, 0.2539339640471657, -0.2223579119368855], [0.00542878385602043, 0.18141335754090573, -0.2690499222916426], [0.24368322687171753, -0.03434545140831273, 0.18342556090486387], [-0.4058408740704474, -0.12115151074858292, -0.2523922740408696], [0.1448781084796303, -0.10596385422144287, 0.10405982279560408], [0.2487490667992008, -0.22895427412558503, 0.25570971048399016], [-0.32563357837389356, -0.08364360520761108, -0.03544821318075645], [-0.07848103287696276, 0.2683979639466367, 0.1834644831943341], [-0.15492124648130254, -0.17741043519275895, 0.22627239361621931], [0.3263170328661131, -0.06065615171132977, -0.11071491807091446], [0.3920128578265794, -0.11356671752008826, -0.1980429913750211], [0.23085648715461746, 0.08177034393609349, 0.0740333833937883], [0.374141772673002, 0.24423422296367056, 0.11308624208021119], [0.2283180996297411, -0.19703421005602803, -0.23101822946136635], [0.05225690363934852, 0.19055448951724263, -0.18592755566109587], [-0.08498765847754958, 0.2049014136140613, 0.11192754987222625], [-0.03184235434013582, -0.30133390183276904, -0.036502731056534496]], "b": [0.02235694015075853, 0.013429537423951851, 0.03222285651720291, -0.05557942961494136, 0.026407941066445315, 0.06598008100170259, 0.008617670346941303, 0.023686096532403608, -0.00040072625131398873, 0.040326788057380374, -0.044640317390716895, -0.06706890510465009, 0.041405031960722795, -0.07260849547553504, 0.009211541758408378, -0.02654246437058283, -0.011402066363621151, 0.03351263568360478, 0.058443929236519046, -0.0004956553874862537, -0.019856372198183873, 0.0009415512716506657, 0.022813177571795566, 0.015243620340058191, 0.03692393999724837, -0.019571803598420534, -0.007863342576665273, -0.03619829266216286, 0.027049533132827923, 0.07351975908791136, -0.08900134065097758, -0.03091077988272791, 0.031941448706611454, 0.07144907326337684, -0.012329914758027282, 0.0047329351571722906, 0.11212095094840847, 0.066404599096336, -0.022381109444659347, 0.0288218147229086, 0.009326529427461665, 0.06505991198915351, -0.04306007119367188, 0.07588170415942125, -0.008531115583035466, 0.04431194534616009, -0.00889893479395734, 0.026519903848995535, -0.04586921014166893, -0.017820787379328656, 0.10067600617856279, -0.009889697647864213, 0.04869521099262407, 0.03174122028801357, -0.011392502787676015, 0.03456360687421719, -0.07553560979275517, -0.06723139195453542, -0.018117689683714758, -0.006097689235166177, 0.010127781169722544, 0.05274597272332329, 0.02202762722621636, -0.006062132543005486]}, {"w": [[0.01727964549342382, -0.22149157980456535, 0.2988748401238264, 0.01793377292939554, -0.2771916695533721, 0.14665105900073572, 0.22044501296295047, 0.01939989944001398, -0.1066756326802383, -0.13011022779009332, 0.07236450647250497, -0.17204988283987951, 0.01086398811981618, 0.051500273205103385, 0.20021679583844273, -0.22411402405094663, -0.038091401788785985, 0.12041865128403205, -0.08123757005607059, -0.048093679013820334, -0.17690247084407482, 0.06563938579116989, -0.15905610094665004, -0.08681814458096875, 0.17233857332648067, -0.039887298000284496, 0.12898498210375536, 0.08525343024801743, 0.16573758009899386, -0.20847335827564448, -0.19492326906175578, -0.1997013330856872, 0.12116628768196848, 0.0522148520805646, -0.02282811468319984, -0.17242294793815002, 0.09627168591387883, -0.05910842098415181, 0.06756594463208962, 0.003690654287721435, -0.03613184313662193, 0.13782397463553886, -0.19309076971379693, 0.054112550013277985, -0.1531969519624207, 0.1990180857409789, -0.06698029211560114, 0.21696497701513123, -0.12730353328467683, 0.17730526384568757, 0.1540172585436832, -0.030870070328376506, 0.10142081716042618, 0.07327646595206416, 0.04915391622330233, 0.13890253657638557, -0.251899462948023, 0.11102421811984005, -0.05078012702680647, -0.07727847319060577, 0.20188673283024905, 0.12322648538899716, -0.01572049517511131, 0.05509875806065947], [0.1637730422403219, -0.22812910234917638, 0.25741185761240276, 0.10867312991180693, 0.11656431317204478, -0.02776104817129687, 0.14044431999020074, -0.15334890287940128, -0.061909543133463314, 0.02469882922788983, 0.009677549948840437, -0.21014858355785243, -0.032162880683381884, -0.2099370115178123, 0.09543853318753874, 0.16395876524778055, -0.21571155106313875, 0.1009651145442363, 0.2186987162788751, 0.19960874171750081, 0.1616073699342486, -0.027680075989609736, 0.23251450782729963, 0.17026048217699288, 0.028007661587493852, 0.1025189258888793, 0.1793970027759472, -0.01930519775850457, 0.17456798094037768, 0.0929485705279088, -0.1034212145903291, 0.14837386998055324, -0.01773847532440837, -0.18782128772832143, -0.06397741747418709, -0.1850534592172255, 0.03329974396462988, -0.009154111806423126, -0.023520449437318867, 0.05977434844633225, -0.17637536756435615, 0.19261980245474689, 0.05253773847133418, 0.18152034765412425, 0.1405760458784868, 0.17784657101987503, -0.22338357186005223, 0.09436765635985184, 0.036445932271476626, 0.1539965889552635, 0.04209293359103897, 0.13735816309832682, 0.2201034016101664, -0.01626558054583599, -0.1425763198782986, -0.06329408300523877, 0.042652797119976826, -0.06678226610827917, 0.08489768499154265, -0.10203520608849403, 0.07802281220315205, -0.09606398504370167, -0.137772522255748, 0.25214639383271353], [-0.02022060873208027, 0.041771538622367994, 0.2130977811447884, -0.2261843597572844, 0.07681269784194998, -0.02398323681219078, -0.15435106111372535, 0.13133504796119996, -0.037971487329141275, -0.09847714918946951, 0.14313888675031933, -0.16536380128914266, 0.033852693246321605, -0.21640096608631562, -0.22435368887154378, 0.16649560476395656, 0.17663875761201764, 0.011559561713909674, -0.0996296159928701, -0.03512793339861312, -0.22382480282005504, 0.11402817086490254, 0.10703167127847268, 0.1055644217230619, 0.07382906062330236, -0.15558040347800423, -0.13169801188365646, 0.05924240868173476, -0.015396595723871769, 0.2158755046072508, 0.14069316724652411, -0.12616159251598072, 0.08495119403710898, -0.02179417292762329, -0.21146875001182908, -0.05661599585472607, 0.1439912908346294, 0.17384441376033152, -0.04793440216603416, -0.1109814616534482, 0.1733040627010172, -0.025680272066976057, -0.08660942037280212, -0.06326500565085903, -0.23814938092611126, -0.16811056563626842, -0.006734193179874159, -0.16064809229905505, 0.18418957416410447, -0.15485703232830433, -0.02070045936583539, -0.03479459058038851, -0.09642155792932254, 0.13865350099701682, 0.08950343229835894, 0.13018669583822032, -0.16104414644617207, -0.0755867512166691, 0.007262591684174081, -0.02697802320112342, -0.2641593672210286, -0.17654008214636832, 0.23740358946396153, -0.1881708659948248], [0.15126104815169375, 0.09502104790874452, 0.0541735484045824, -0.029775096616507093, 0.1274777167854927, 0.08660499276634658, 0.1532750595785786, 0.06892007301030124, 0.06836020292496221, 0.24050939912040603, 0.13183893574956065, -0.18061383887864055, 0.10159106755714795, -0.17550847576606274, -0.043695847200821196, -0.035405398251782405, -0.17341153568035217, 0.2010683684165888, -0.13272125956873151, -0.2243606893409157, -0.07137635016254228, 0.20474075201606892, -0.08659636756244354, 0.10763261425567384, -0.11741339946054846, 0.020462742915693, 0.21224796500843165, 0.07519001327641009, 0.20572117171291487, 0.0352431230529698, 0.19692693255632468, 0.15979976553979386, 0.08341298552077511, 0.15707158866257204, 0.041158860802681364, -0.0756621231435421, 0.008293538795546652, -0.10394957079112932, 0.11912228032763629, -0.12716025575571901, 0.006732915684760583, 0.017373928776255234, 0.04821307168319103, 0.10869794277232242, -0.19861349410202697, 0.12042757667259626, -0.06514891573781871, 0.05308913347676413, 0.09055870169784479, 0.043454153276963864, 0.11733011942389311, 0.004762646136853928, -0.020122078092850004, -0.07604872752789266, -0.12510577457735592, 0.05228182777941626, 0.018729261622686778, -0.1711469523282415, 0.2469476095333593, 0.1240512579782174, -0.0049109836588981754, 0.14794353791529755, -0.016386237145040335, 0.07964426147126247], [-0.12282669096537964, -0.18374922634677224, 0.22693715089093006, 0.1458883785994632, 0.08943357814783652, -0.006932916528337349, 0.042883930522417166, -0.0070129287536341125, 0.1843421501702659, 0.052917645152871874, -0.16499260039970715, 0.12446662306329197, 0.1663217243419863, -0.17677115839127974, -0.15727929464871568, 0.08964151001406459, 0.08781693098155093, 0.07957743819987811, -0.09402833638585596, -0.20056920088712954, -0.003729343583542112, 0.14658422981684274, -0.0681576799101549, -0.21268919465917807, 0.10975929608230066, -0.14599862965191254, -0.15188667354973867, 0.10565587048531198, 0.13626086941459029, -0.01908207804799644, -0.08313082689106437, -0.07435968007982068, -0.09225705000984977, 0.019541454378961542, 0.04030398467590001, -0.06906594589731539, 0.08359592423520311, 0.1118916718412031, 0.03263668193471077, -0.010936915129717102, 0.03616276132101832, 0.02072602291529052, -0.12918008202225187, -0.07684966824791199, -0.024549497206511794, 0.1329664793336888, 0.022839477861778916, -0.024664399715670325, 0.05372590151984092, 0.2278001152374725, -0.007683151615778895, 0.1587042624644797, -0.16724584046127064, 0.1890141925924983, 0.1837073969765998, -0.11757010098161745, -0.28658416136186, -0.0689713004885694, -0.08438577156553136, 0.2725438355882822, 0.13164282243322512, 0.2166696472539606, 0.04414994968589144, 0.05472099717445408], [0.14089425526148414, 0.03544227177311341, -0.13062556260909403, 0.15953726914806016, -0.06495212874989986, 0.15097837537268463, 0.006301814027630733, -0.05410523242453936, -0.08909753910143657, -0.027921571778255827, -0.16857710618850386, -0.26021527183772725, -0.10406829736131004, 0.10923739780040481, 0.04257242712903362, -0.10110810888556626, 0.08625238825159225, -0.004679071177654347, 0.26549751219913476, 0.11095549026892514, 0.1519631625472474, -0.06354607111148314, -0.1329382875272296, -0.20943524500290644, -0.0666912406840758, -0.052459578739144745, -0.20262829613488775, 0.08365733810861282, 0.10039966393286322, -0.16250391934016367, -0.02263016824210396, -0.027121796891614685, 0.06108226348271182, -0.16720252516236947, -0.13887997199611923, 0.07114981490932692, 0.12019755552486279, 0.18555924136714078, -0.0347412299109021, -0.027579067177031454, -0.1328555061446865, -0.11326406334661607, 0.04481789609471305, 0.019749629433321703, 0.13321740512003857, -0.05393264472558275, 0.009455882555197323, 0.020000973653558907, 0.05196883006194032, 0.17679057344971283, -0.11818693283766436, -0.16005469107077192, -0.160078349093391, -0.11935503608177385, -0.041807440994817445, -0.11129175187091106, 0.07183532926785528, -0.24381207980718003, -0.10106533285062715, -0.060153416396202745, -0.14161646566006822, -0.07667902535896857, -0.14662891147571983, -0.0639975637156027], [0.1470995894239391, 0.013454040757623489, -0.06833924255523588, 0.005983047381245053, 0.07624405722874364, 0.11903088502141848, -0.20713352205206884, 0.09417384864479927, 0.12041111724956552, 0.09166118137476288, 0.001837740517002856, -0.12993032857203932, -0.16267463733440918, -0.08957099084593283, 0.17148683060780456, -0.017187679484839156, 0.22392134571062067, -0.04182045784526568, 0.1357567227016688, -0.034919378303762835, 0.0706548815266382, -0.058731577732089243, 0.16925516779131672, -0.05924319247000757, -0.2010521714253657, 0.11875566623061697, 0.060283436289327, 0.08903428969452817, 0.10188011850691994, 0.04066683988910649, -0.22190305779748493, 0.07272415882573162, -0.16850547658477638, -0.17362236668045777, -0.09107566949151216, -0.034067944152018435, -0.11731714864808074, -0.04650703021870303, 0.06252179313894993, -0.06826971928132908, 0.12250583656431413, -0.1494242521426476, -0.14128447550680986, 0.14724465046218174, 0.08692469740694023, 0.0011210199190029887, -0.1323566890006375, 0.029659939328079327, 0.07999844137659141, -0.14367411531134386, 0.07191064763437588, -0.051462933776092505, 0.1904143992559563, 0.1297591847657953, -0.08314711789472959, 0.22653648630520062, -0.06622353084357718, -0.1019821612056645, -0.13746787121419546, 0.0737407462755986, 0.014337552490764743, -0.07178228773352534, -0.07997815734796897, 0.12378813766927371], [-0.14118574509339588, -0.10069365875402327, -0.022383305392259637, 0.025109688549907624, 0.2660499694690364, -0.050432687791988624, 0.1324543957222978, -0.22827088922304967, -0.03351155103836615, -0.054203268327658545, 0.03136709331140451, 0.05767010202297631, 0.07186977942938627, -0.13367625743829029, 0.18905586645266953, 0.2055898640788883, -0.1770425757006303, -0.20920435423449937, -0.1660902489504413, -0.007176882082518868, 0.2101848308377179, -0.18438906211963474, 0.11003873267144279, 0.010775824212402885, -0.15660688942484738, -0.0547469079224699, -0.0011612772404173228, -0.07435989799121534, -0.19052778544827947, 0.021996888261292688, 0.24463241130729518, -0.09168062159108999, 0.20875360400932272, -0.15946425435032477, -0.13564181653925936, -0.19004322239391258, -0.07229069612991251, -0.1275399733991215, 0.02210725954631795, 0.12013103594918409, -0.02634521231105932, -0.08883111264131303, 0.14738310437139496, -0.15211141778182172, -0.09437975818522859, -0.3928250645225017, 0.1639048236795133, 0.1775610204735602, 0.1805145134356304, 0.01599013538864091, -0.16258495988321853, -0.07273416809038345, 0.013136559542255262, 0.10259075239146949, 0.05071766600171088, 0.0011900892076783785, 0.19721939658865098, 0.03735977813206631, 0.19204112982345983, -0.05416919296324137, 0.19085538534038085, -0.18303578751836597, 0.030878484280112903, -0.119629097959683], [0.002926057182075065, -0.1496523174316857, -0.004731250380484407, -0.10885139223692727, 0.036778667325987856, -0.0668390597378496, 0.14324872643622114, -0.05586697586229098, 0.12541309082880792, -0.06074315256783382, 0.20928445335372894, 0.1403347375796945, 0.13498399751026136, 0.18105113788067007, 0.14374435132022323, -0.19173236454604, -0.18914639283140153, 0.03543539914574434, -0.22047640040673724, -0.03720566478859616, -0.15457842591471305, 0.09248357494225136, 0.11618024085779823, -0.17485082048321368, -0.044437738566782736, -0.07169413148805043, 0.11344377713489143, -0.03841143457234626, 0.04894983490121441, 0.008943840942259836, 0.22555562386316488, -0.09752320601610275, 0.18518761520570737, -0.019354100642391653, -0.11250161694077515, 0.10010096931484108, -0.2052804252454027, 0.0018921239423700545, 0.03223966663772481, -0.15724531282654905, -0.21887258629006498, 0.21002121690861683, 0.16458115203518242, -0.25490317653802347, 0.1838229196288621, -0.2816906710341542, -0.069504443475886, 0.11898996423031771, 0.10479653388636763, 0.12001824879365389, -0.19079694251650228, 0.09284479443888366, -0.033772303483014084, -0.1502295499046087, 0.05657299395340452, 0.13911298894388724, -0.007511920648650503, -0.10675203589821086, 0.1387701351388348, 0.10634308393703452, -0.0695315384467242, 0.14208896107459912, -0.26118514139535165, 0.059557269650183736], [0.15830613630394472, -0.16001168166179497, -0.16026784827026094, 0.07755839085557124, -0.06834290092631737, 0.024398283495191665, 0.07559885535206656, -0.1579134856719071, 0.023580801427831165, -0.20318578167786946, -0.12894853645121934, -0.11047694798192609, -0.1028943213435374, -0.258412922651326, 0.24793422918289246, -0.1103640679387546, -0.13834060394519024, -0.09160577534510538, 0.2598309783958652, -0.020337062453932502, 0.019165578755833242, -0.1062950028235503, 0.15674121959162074, -0.08459566296995827, -0.2832749172695238, 0.036361470784463064, 0.08302311201457237, -0.08192142882951245, -0.1680217596487406, -0.037936964956883715, -0.00808436481170497, 0.16812447469373407, 0.11953483092808279, 0.09533189996457757, -0.15406297138790234, 0.054742108912698206, 0.08697825592179101, -0.15297188385448965, -0.08401136309798071, -0.052415287028482464, 0.010436255131061467, 0.1318944309289548, -0.09174003305164555, -0.0028773060536642337, 0.26302020552815214, -0.2421358651239293, 0.013473154910694536, -0.09961789837202177, -0.06141712743020458, 0.1388128135776501, 0.025579270167942973, 0.15410231918147912, 0.01894734102325623, 0.003440306711390588, -0.15318145109279216, 0.12358470029051499, 0.1126969332773153, -0.06487613542082846, -0.158837060091915, -0.20189585199765214, 0.21980092545123747, -0.02703332894547609, 0.07984044457931698, 0.2658811048631759], [-0.1195621161935479, -0.20701992413897488, -0.36249758649755043, 0.13330614450747671, -0.07479192609519597, -0.04978113888510373, -0.14535497357945085, 0.0805175725356036, 0.05997954006502575, 0.014234434301248934, -0.08157492429758247, 0.0244728488887873, -0.3082142090011883, 0.12520818736332587, 0.1886403380330724, 0.19494688492704942, -0.02438814944993223, 0.13087179592976664, -0.27529507039606954, 0.08064409881451735, 0.10634841280190938, -0.0015230006083106426, 0.1200203459375866, -0.2126498498276049, 0.012528490688529518, -0.09445384173463969, 0.12575251222682762, -0.11350911418720308, -0.2760589737441686, 0.15212317536799172, 0.010454541218070827, -0.2606145182592165, 0.14555907007107052, 0.1769063574606171, 0.03991015547796358, 0.11229230952335824, -0.08913623974337896, 0.10705573470472893, 0.149386467538071, 0.08865850117501867, -0.08190691063097212, -0.2081394306225577, 0.09582374727474212, -0.09909227931915784, 0.20066828372192277, -0.05595372896563565, 0.07899427926752738, -0.059482106802327316, 0.08069873012180608, 0.1538732950469671, 0.05388382855487515, 0.25986681340019285, 0.12760421151060183, -0.036319173955718806, -0.10075307912973826, 0.21408323942776192, 0.013380784523785456, 0.19025118766218993, -0.01881821530401585, -0.22188034801391954, -0.0018931660510184737, -0.09141449297701784, -0.06312084080485353, 0.0765402601169523], [-0.10165929503205037, -0.028571846857457246, -0.14891736566879218, 0.16610289964536554, 0.25666133967770993, -0.06297868742038398, 0.20582234260789556, -0.14187605698293182, 0.12265328251426559, 0.08798663380777223, 0.06552027631359014, -0.07076959924742655, -0.15614360666181262, -0.06798563921801548, 0.2451586214633793, 0.07411795742307699, 0.14653772536057524, -0.07375086982282762, -0.11293112132568653, 0.07378923282806572, -0.04028451150779718, -0.055682834016026576, 0.039450860110793254, -0.21080214402749103, -0.07408584381411279, -0.2694301696536188, 0.02399086321861344, 0.02969803103272694, -0.31497840545481964, -0.0849989809829198, 0.1771806001737762, 0.046386303505152895, -0.06692673775909617, 0.18179448525963496, -0.04886686867931857, 0.05967226868208732, -0.09584423092886273, -0.019128846172504002, 0.026645203405797877, -0.20695406061674584, -0.1612196231337216, -0.056558770629322304, 0.1327230436096371, -0.03326531277977696, 0.13594354691276372, -0.10761260046048417, -0.13272297237468422, -0.1419221097292634, 0.17605207626735372, -0.08030781962278313, 0.03426838292634435, 0.014179456256382639, 0.05590976554228165, -0.21741508924039335, 0.06991152080173378, -0.11750977400516344, 0.16240690855063078, 0.02402590683256541, -0.0465653827438398, 0.026015417567294467, -0.0057740558821316925, -0.16270121099847745, 0.124048150604742, -0.09108673762560576], [0.13488728372433348, -0.02500474342517776, 0.09075464143191865, -4.195919850845258e-05, -0.11358793492689875, 0.013189588827746115, -0.11643196603765635, 0.06642186622179054, 0.10575584172115139, 0.15327136833148544, 0.06126033015517142, -0.15794532987383994, -0.006009281088670804, 0.13358315217454877, 0.11887986062811486, -0.02503807654842157, 0.023646552902169708, 0.1635528080968863, 0.11869712231435811, -0.03050790096742314, 0.2155666250215884, 0.17857942447158598, 0.10944156583526132, -0.19176719251526886, -0.14709670923526041, 0.11544357420863424, -0.1009830596873907, -0.1901167031084233, 0.03579182845032246, 0.178625111968941, 0.03175915636920419, -0.08918569725673953, -0.011243684177318138, -0.21529292193546437, -0.0215870961382722, 0.15710462208853665, -0.2521947505195074, -0.046230036337697705, -0.14243014158710846, -0.06878854789382881, -0.21174892691197453, 0.17766213930468605, 0.01924743105180924, -0.04641927678377315, 0.022239226971929336, 0.10324132867525221, -0.10821809066088232, -0.13038841322615, -0.220917491422767, -0.08675935675884736, -0.13894212397338832, -0.14850290236726457, 0.0736130734417859, -0.0939985174420913, -0.21706351341573782, 0.21142930586160832, -0.17392812202752378, -0.19668668276965906, 0.18273505814659738, 0.04176873029762424, 0.11408034057241331, 0.000997578221118877, -0.22327043526628856, 0.18356499741542767], [-0.057509118980344665, 0.0013310948173965455, -0.17809530067051996, -0.18949592881989125, 0.021757467509984127, 0.09327384351882125, -0.021878971717068877, 0.12029932268380997, 0.1830819974399114, -0.03521338820954707, -0.07300511875308639, -0.08690143630995374, -0.0650327750546967, -0.008365903161511139, 0.13490763610083312, -0.02537514054385594, -0.14924353430338338, -0.1737402701121697, -0.15588182272370704, -0.07688112308384888, 0.06040629128062781, 0.06051096424502586, 0.0926742184169005, 0.021064086877259677, -0.19012218018816177, -0.06349694509796248, -0.009083520751522908, 0.021808532902661742, -0.08910722485712842, 0.14822055903520973, -0.06379348091725148, 0.14932015180414987, -0.06231204103629375, 0.19020568100202445, -0.20618040605366117, 0.1369956395148295, -0.13510949468573868, -0.14103971624258876, 0.1725645894738995, -0.09500598411165713, 0.21814672508945496, 0.17041677130261443, 0.14277266976113243, 0.016526443042587626, 0.17524505648117747, -0.002669372803331236, -0.1419798984700041, 0.11274620284537742, 0.09778857988839619, -0.15258799360331077, 0.1437776738213824, 0.022448570755001177, 0.11889144018068305, -0.06314102046973177, -0.10798645109081625, 0.18805007305138038, 0.10528400345905066, -0.12972630885689335, -0.0822000349276519, 0.12939211388331384, -0.0046679192956007864, -0.10742970623897544, -0.0495005092028756, 0.1296437380937324], [-0.05193950094800699, 0.19950224953026258, -0.09567664916227339, 0.07166801966019187, -0.1186537180406906, 0.12745370032242295, -0.21504494899792617, -0.1482001994846798, -0.12532749370896665, 0.14531682421223222, -0.11917341583256254, -0.031205635988651847, -0.18380002265282042, 0.021240931545751473, -0.20920251028747452, -0.16857491263382568, 0.13699269861874208, -0.12357655915528265, -0.1654439871876286, 0.008051374893796658, -0.14479763255792844, -0.22508114482159916, 0.1541333996727837, -0.044766584581836195, 0.14953187816406588, 0.0897190124466379, -0.13411345824662954, -0.19733215479859503, -0.1560231890226765, -0.025620285167302893, -0.10189708490431462, 0.13158657746839952, -0.011405769496926189, -0.020768742412823848, -0.08706462467468819, 0.09057250431924202, 0.09599044453153979, 0.08637384060228097, 0.09859557410723777, -0.038872485473473335, -0.1748277079236939, 0.11296759298013177, -0.09093481548705402, 0.10068878058675226, 0.1811925933780721, 0.08026893525821024, 0.1913038007169563, -0.24467626379528987, 0.019670315220974018, -0.19500457697486853, 0.17942444965371754, 0.16631251319158075, -0.22623129776474435, -0.13468375336748092, 0.12900048746274795, 0.07356925520953944, 0.19953044101728204, 0.0929120071687406, 0.027150439656600307, 0.005643352368118005, -0.24404696350275087, 0.07922361413638845, -0.05132627699980688, -0.1699138410814832], [0.028903149143586212, -0.09805016860097436, 0.19129208016988802, -0.21280912202104643, -0.18544285376583253, 0.0708059433091564, 0.06407835484084755, -0.18013816071780064, 0.031805488245466515, 0.26552509191663887, -0.09051685521711605, -0.020114428058446123, 0.2029324939970138, 0.09878725506814456, -0.1275646717635205, 0.18490943782928299, -0.102647586323686, 0.16101394657922705, 0.03885745184831197, 0.1268694601872576, 0.1943626658458874, 0.1902278178246229, 0.1613989660919457, -0.11754744440766882, 0.2111194240574492, -0.14319750435731754, -0.08410084083940692, 0.05986046459226079, 0.15737586376788934, -0.20613335809204167, -0.10111338107627797, -0.0192660091685991, 0.11418418929858982, -0.21539413393545634, 0.16514070688762683, -0.06388990803576179, 0.10567491305374495, 0.2146695732475762, -0.17391051594863263, 0.04607656369588775, -0.15654424061463887, 0.09739962836277885, 0.1216547127159134, -0.056366223480503505, 0.13811397071652523, -0.012612173518669808, -0.07190198650349974, -0.14587002521242493, -0.06661918775020076, -0.020188734509307284, 0.11192682219654103, -0.08794892074875676, -0.0031087270388557085, 0.11101252165047248, 0.139344031266325, -0.13751992029563823, -0.24961975771423744, -0.14182760715104287, 0.08189040800065661, 0.24618119697510601, 0.0596114459986079, 0.05652095110064583, -0.18274154046301763, 0.057885210275243584], [-0.1283104686151913, -0.08806178304073384, 0.21553874289140754, -0.11541043765101851, -0.24980448555760626, -0.04168204551232496, 0.023077389212645037, -0.10809213259062427, 0.04783294171237199, 0.08773522084646976, -0.07304284201074412, 0.1719257143768514, -0.08027283118542648, 0.03728438575328107, -0.04872075701355955, -0.21838823345210648, -0.065714997465625, 0.050321404994135135, 0.19288677662006495, 0.036972596802653836, -0.021227355676105578, -0.19097496019661092, -0.060097010004948805, -0.2325740484295387, 0.058527872382120656, -0.05424741934741559, 0.05308848438944016, -0.011375760624998463, -0.035581943038869225, -0.12198301962504664, -0.16102475928002924, 0.20735280499408942, -0.18982389715010303, -0.18741822553695267, -0.07416136348505113, -0.19065406987112243, 0.12213491326086626, -0.12374159205226615, -0.08789129153575453, -0.1735696342044403, 0.14522880372706073, -0.0974086889804892, 0.07807923017481447, 0.19716088699075593, 0.0851151834792982, -0.0854000544011458, -0.00494218897860401, 0.1564579283338748, 0.09772056759315699, 0.11794847696741724, 0.005531221702950473, 0.0087287407696544, -0.10735279284908571, -0.14656207212332545, 0.0877205158349849, -0.30312957100697835, 0.12264058038016074, -0.22748093940503725, 0.048333029679562343, 0.04196188148022352, -0.21358054108498092, 0.05670497152420643, 0.12135040346462148, 0.00782158351317104], [0.04360157682655964, 0.10487317098788286, -0.12742676819199125, 0.17352358077620497, -0.04854222201081588, 0.028884038246094174, -0.20818343292893812, 0.237508589562966, 0.09215733080959156, -0.04904364791874851, -0.06969887028560413, -0.21595174203681208, -0.15978192058958665, 0.18694897895349483, -0.15376124431705315, -0.1802377629944903, 0.03267172632406011, 0.0780124125557296, 0.1796660555584763, 0.10298217755621183, 0.13219970842167567, -0.04535037881631343, 0.004178149615719836, 0.14633648779384392, -0.13401905830424654, -0.19815919930382056, -0.03784628109814161, -0.08158105583212141, -0.23591778892423268, 0.03765304103468518, -0.05500223623182998, 0.08730820980578573, -0.07572034180496538, -0.016456989383934365, 0.029478803449715013, -0.07609532570665078, 0.017814690139760968, -0.061107704416783856, -0.11688223968235766, -0.19175464429665, -0.1781189790888339, -0.07483089047305871, -0.27060054405833006, -0.12191446624036964, -0.27816113824575683, -0.0728256982240896, -0.12905593617764366, -0.2709391028815699, -0.2386351856874972, 0.18717803820448248, -0.08376410180825627, -0.17535671308305145, 0.0815727609395766, 0.0529726351362611, -0.09126938721079525, 0.11987782280419307, 0.17174461232718358, -0.10935776329972716, -0.05758017565261563, -0.018537297679964006, -0.20984885620077637, -0.25239555740719066, -0.04562967627860892, 0.11674191299001961], [-0.21130605780120396, -0.11372735389160978, 0.031467783303915274, -0.05815337321504291, 0.038244726994563015, -0.20833933073836988, 0.010782636417262077, -0.16678260337968323, -0.11126938963970787, -0.08400836647562007, 0.017537015336416422, -0.12164907751527684, -0.011754237475579542, 0.11407488128338553, 0.09846289689128478, -0.06624653650055352, 0.041559253509625894, 0.11487352926240664, -0.16062216554856276, -0.14782665910420387, 0.1928001391513509, 0.17002058854798005, 0.1402558040931734, 0.027361411162687282, -0.22937069726524112, 0.12276750788316577, 0.11176653658029563, 0.2206628540313132, -0.19981588517516816, 0.13247711290300107, -0.059079941611994466, 0.05842242600803492, 0.2107418510665685, -0.09684897911454643, 0.2287645025658045, -0.18564047467080672, -0.17218240020077089, -0.02912059179027217, 0.09780323128430587, 0.163174799671468, 0.17932671883360418, 0.19832662227127185, 0.00034273759520747686, -0.0473883546122821, 0.06833687722063798, 0.013161705393720007, 0.20181555818155575, 0.03513784007982256, 0.1666541123251067, -0.04283500898573047, 0.09216093284605176, 0.22111361699443843, -0.17833950619178898, 0.06078694159083085, 0.1817066794018911, 0.2033714626717417, 0.22634654112814007, -0.05686400708828788, -0.08384484943568582, -0.047129780735459564, 0.2220393273361261, -0.10242705285625887, 0.07647535255057471, 0.021049076710302383], [-0.12468158556761333, 0.1481188126773975, -0.1205663090879655, 0.22100929314038248, 0.2427156626243499, 0.15013188519637505, -0.133442251463442, 0.13371742944370452, 0.15404682250051718, 0.20202826437419086, 0.09270636616931816, -0.01882532178090924, -0.00179413579568699, -0.16137707256364223, 0.2560700074574629, 0.10087729540122528, -0.08003139253401456, 0.16650326124818235, 0.06080720371774523, -0.035332350023003195, 0.20434068203490907, -0.10044426949718153, -0.09780429278123781, -0.21632661635143222, 0.036415564783007816, -0.19084529370195374, -0.15325891275987955, 0.05367456878059628, 0.15191623625010023, -0.16897766314981016, 0.1304115262325207, -0.1642169851593965, 0.1449867753680818, -0.18055485905417673, -0.12121654483787517, 0.19082031338530228, 0.029657713574831466, -0.1735730528482735, -0.23227099218770406, -0.05635340749629934, -0.04320413000767517, 0.0459377618358484, 0.12201178758002627, -0.1561380506413058, -0.03801854521733917, -0.316894387938379, 0.270337451687473, -0.02906905343585295, 0.07204396800070313, -0.10606689249502935, -0.15980715300924986, -0.13631792877611174, -0.21720355382154577, 0.0636830020297068, 0.195792320309185, -0.19033809591152337, -0.09632911101759786, 0.17578350026857475, 0.03944688072895139, 0.1775688195794229, -0.01996729783748598, -0.020743758829874528, -0.11373820047961332, 0.10554389897106302], [-0.1231341420247482, -0.033632028840468745, -0.11293295092664296, 0.2122796837013936, 0.2393356287723916, -0.2740573723269315, 0.15484063813005072, 0.05171102650218368, 0.008398548157635539, 0.050093196058900995, -0.0024304481891483823, -0.13554379093143476, -0.17696966378677598, 0.1787366320558991, 0.06647447771890252, -0.10814384844760491, -0.006972845803466728, 0.04823243421744742, 0.040157421173955245, 0.057258330502070846, -0.13442856176242068, 0.2231447353440779, -0.10872754871603174, 0.1141907838298225, 0.07385188554498356, 0.19097476744897507, 0.18597666142700692, -0.03230039993650893, -0.4203378696819895, 0.1396436250045978, -0.18000810493254232, -0.276836335588356, -0.18244096637903515, 0.06062714604207159, 0.1640453434175274, -0.1802683468759139, -0.19889659803437365, -0.06739280197164162, 0.16846640878250382, 0.048035681715304014, -0.031818406052098964, 0.1918371248988945, 0.11876073956049045, -0.046674045415671085, 0.13620207748936974, -0.24837396951000099, 0.05038653009515273, 0.2184992692408813, 0.036417712658063685, -0.005446826853337005, -0.1996410992865445, -0.07219416733036484, 0.2608875285947886, 0.1382523598704294, -0.2529796790478604, -0.16100893304196948, 0.15984268733563184, -0.06839894201452512, 0.08993423210101058, -0.1286964310831373, -0.012779355242504144, -0.05714529725455687, -0.21105561462341935, 0.023886724911990082], [-0.08667333094981115, 0.2215370271919957, -0.22773673039949083, 0.1857133753746189, -0.13485235646550556, -0.10166717820450238, 0.19857462282500937, -0.15732912570821994, 0.16395138202535264, -0.20385340981933384, 0.015163797578932138, 0.23940597772613006, -0.15462417716147636, -0.059973232316836045, 0.011309670106171966, 0.06565595820807589, -0.027542475354891932, -0.12272331117619355, 0.11902300372649059, -0.20661689964762114, 0.19801586019912754, -0.1351806376048967, -0.1366090356445921, 0.1374256118658193, 0.08493021522833924, 0.02636769128959188, -0.22001484344612682, -0.09784041146157235, -0.11873427204612343, 0.17204917138677617, -0.005750729196253601, 0.10731084529686381, 0.21421725216786205, -0.03643853955701171, 0.20062399678469775, 0.09554064850546691, 0.042380840401785067, -0.0407605665663976, -0.01813748937860396, -0.09651975647361166, -0.06490141817635796, -0.013225871611859015, -0.015918076839489013, -0.10904362113650262, -0.15701252642823899, 0.14406214914618615, 0.06586594249054983, -0.07509552386344424, 0.13867233819543523, -0.005172124970462263, 0.12155343845111657, -0.13544813796376312, -0.14187227006946201, -0.141171218176317, 0.16695627678346509, 0.147060781339573, -0.009274630869351689, 0.22555603753988637, 0.1141197919929419, -0.0941957952500337, 0.0606883349222877, 0.2099038914135979, 0.101970315195799, -0.21323533365494365], [0.07398543248166727, 0.1540563289674793, -0.16596999773286636, 0.0415802568142538, 0.21060769354490722, -0.07817924583132621, 0.07872023330403408, -0.32806523705594887, 0.17628492414902638, 0.18759162898922074, 0.18933655159807594, 0.206886517221375, -0.1302306115842134, 0.12928738016058555, 0.027914143854798887, -0.11812064511288489, -0.23593339636138483, -0.04173044886538389, 0.05599338623257742, 0.025540818705964932, -0.15488549207213467, -0.17956981086858734, 0.024530342015819752, -0.1012739029475977, 0.0778703928209827, -0.08867367701716333, 0.020293480261867412, -0.10842271745998704, -0.2169144015250593, 0.09686400914220027, 0.06724963313971868, -0.2840358376365553, 0.17407036868730716, 0.1374103682559709, -0.09532559096274794, -0.15162132175268953, -0.3006517222155481, -0.024527736686923558, -0.1401229516865577, -0.10382409913709968, 0.10685982236294536, -0.14189791478245956, -0.07736561849253198, 0.04019450019176825, -0.10731583492724718, -0.3742844603965319, 0.2309154996373715, 0.16076849889703704, 0.009735978019546222, 0.21097248593409043, -0.07250315196905045, 0.10805443298060305, -0.07694886388951332, -0.05649201572621216, -0.15388228772617538, 0.18765569437913662, -0.053713252477783816, 0.22709362161699242, 0.1412331267444637, 0.0756280436548188, 0.21016821005533115, -0.04373820079339763, -0.29526944246758724, 0.07672595220637068], [0.0273515323638733, -0.2508726417966847, 0.3055974660091195, -0.08942276860267942, 0.16554008559326447, 0.2922605920753501, 0.059973375902529165, 0.1835033191453023, -0.04871370326964013, -0.06861122254380506, 0.0871980894428432, -0.020462589530153903, -0.18345286896076796, -0.05293795376599984, -0.2390752550638197, -0.07856238892353627, -0.06920702104613569, -0.03502538528931773, 0.1010531510936057, -0.22302471052141415, 0.2037818864043552, -0.09286015613234373, -0.13059942676783293, 0.018507268299554656, 0.13871972085060266, -0.09055232399344547, 0.16082008091196034, -0.15779088247814796, -0.09526444094449554, 0.14461383014854415, -0.026762538805687738, 0.08274444097697901, 0.06260061816231317, -0.020749474332847996, 0.17198255026404177, -0.10437801351967567, 0.07994459350820152, -0.10974681969673869, -0.09224396964175792, 0.0849922402952414, 0.053170470290316414, -0.05508492464450097, -0.256088439079769, 0.05367397861704029, -0.13554208712031787, 0.3933691669846988, -0.02957994260113741, 0.18079640664903215, 0.09913763096940678, -0.15768879326757404, 0.03416758953260687, 0.20516444146425877, 0.02265904196720861, -0.08712336773617327, 0.12143831061619975, 0.12833328429986815, 0.026724196107192646, 0.017675110693943983, 0.1916694315036555, 0.020655042279530585, -0.09870857019314595, 0.1786451020152433, -0.14479689722108663, 0.2913913798409071], [-0.12210936340630926, -0.10830292440853896, 0.27537917378708626, -0.10577824137905005, -0.05764671449664849, 0.09253087554167716, -0.06028253738274674, 0.11829147471399454, -0.10120363409701265, 0.18667586511900605, -0.03962510131233987, -0.1433440793497432, -0.09732054776740678, 0.15368930073121537, -0.0628026540741759, -0.048928977583735545, 0.12968673428308913, 0.21172100329478988, 0.012786886574173366, -0.14780741625619567, -0.10852904450441023, 0.11792668768874973, -0.012636918800744832, 0.1539189824010286, 0.034656473475462336, 0.197423332054554, 0.11587977318803831, -0.11026479924171645, 0.022708056334815693, 0.13872411629383397, -0.04886939684247177, -0.06837301457701613, -0.06904175178322952, -0.0066831942136721684, 0.27046934843810666, 0.05323544990097545, 0.04714281576267922, 0.21811124126638962, -0.04055952554519284, 0.10767093370015145, -0.16731830014051208, 0.15429136364713203, -0.07124637499424206, -0.016199392225282355, -0.19543617461442842, -0.061073116906471, 0.18318070871230133, 0.12110662549148714, -0.18245112083877055, 0.12061545500746436, 0.061228788840534586, 0.18959893756630805, 0.18302608658194974, -0.030613411007239615, -0.1716567281574315, -0.061208361460900466, -0.1058263588416474, -0.01514047397735082, -0.04470691351120336, 0.014402232935800107, -0.16989435092095254, 0.1594310487998789, -0.10328910916690817, 0.06159755762891322], [-0.0966794814671076, 0.14781405666452152, -0.11334288524707947, -0.16428353092597087, 0.12167941905715507, -0.11774037456478051, -0.14091745914897252, 0.030724500166574076, -0.18945731234826613, 0.02533715563137473, -0.20855376500892092, -0.031006414691232193, -0.036680937823400844, -0.17950960412732445, -0.18096901263897966, 0.03769130690663014, -0.21472241300836065, 0.10033817754436725, -0.056916416629531785, -0.10269948274250082, 0.19530733170033604, -0.20681925113890165, 0.054977185762550895, -0.2087699934171212, -0.05109437583869911, -0.08116429664670413, -0.181717246670806, 0.12262477620984907, 0.03111596041956452, -0.18301873083205766, 0.2066204817706352, -0.16855397054904497, -0.0034301395702140414, -0.203295307703251, -0.04078093265974575, -0.003647790407631357, 0.15428565090831808, 0.07687952514115237, -0.0639656942851479, -0.1367016324226566, -0.196925981584261, -0.07425626263012541, -0.18930181307732605, -0.14033691248231267, 0.06527551906308804, -0.12923241629023263, -0.054594943695621206, -0.2134371949325652, 0.17869379420337322, 0.14759546246991484, -0.17553475805658061, 0.07992055746873622, -0.0035564716220569115, 0.1393832652385143, -0.1391085467276394, -0.13851890049032528, 0.19658893917691994, -0.12632561350439941, -0.02814890924241384, -0.14409594435879863, -0.07578341888999865, -0.07341884657783015, 0.04663827620507993, 0.012613539048531935], [0.17372720769353478, 0.18050110590140866, 0.1383920537985563, -0.12740074500236376, -0.05549846001053254, 0.030165654904880466, -0.10002595543429478, -0.0824499946135495, -0.0993415409997627, -0.05783043647584983, -0.09363531265718604, 0.1458196956926127, 0.07489737767747318, 0.15411252864522718, -0.20284706456051965, -0.16587739054365055, 0.19475210935677376, -0.0365022738526736, 0.0492650244884804, -0.12638358785751322, -0.03428292799142007, -0.11959692188464119, 0.2232953395908716, 0.06427131430856871, -0.14717966155254522, 0.1858025891804126, -0.019026503390643584, 0.09128496178826927, -0.11841179146194242, -0.007876719790023887, -0.03591219853947959, 0.02869539515915759, 0.18379497708582668, -0.04243335636447354, -0.11860795181178033, -0.06883664442917951, -0.03815201963002726, -0.014825826483229037, -0.07088347250172125, -0.20500269368058707, -0.09110622713041289, 0.006304478626153743, -0.10712369758707149, -0.03369235682238768, -0.1296598523908253, -0.13323693631014935, -0.09536394201113213, -0.12565754214645944, 0.13322585666146047, -0.09003615616272023, 0.14267124613467838, 0.13949349796346014, 0.24744020777409254, 0.1346769913720472, -0.14037209044310228, 0.2302262539022037, 0.16180306777450346, -0.05047454586213363, -0.04008124177739095, -0.19606767102818073, -0.13613535602380156, 0.060148546307835726, -0.12444778101197433, 0.23571413177963177], [-0.19204749920356196, 0.1800578646310187, 0.018307547232150986, 0.07716814758133292, 0.037057849283893884, -0.06194793685584614, -0.13364605870059398, -0.21832693650332377, 0.1200263439046203, 0.30762458017572114, -0.1233419700527854, 0.25381474170734303, 0.08175958649440575, 0.11285508283926696, -0.05045592888098039, -0.24527908692611147, 0.05163486324793065, 0.22711509485782538, 0.06582371550589437, -0.10602175533680407, -0.030524200574109317, -0.17204209922998198, 0.11843038571862241, 0.043959090062521106, 0.058853037000561256, -0.23671819147643505, -0.16641225610289798, 0.052122118301966246, 0.07918835196475106, 0.023655376251629043, -0.019435930652912596, 0.06842751665858948, -0.20071693038025973, 0.16113584174193823, 0.139840771503997, -0.08205436053962187, -0.11185659978837115, 0.10106871397913152, -0.15434039376583572, -0.14307895481019736, 0.030524289430315474, 0.05851659955267663, -0.22981759925074774, -0.10318444785924134, -0.09904476228606948, 0.2562254430400415, -0.24313978214528897, 0.006885948797471648, -0.10744713000492631, -0.022323634711216376, 0.16025712751918086, 0.08315112379066067, -0.0779260142269674, -0.14574415837852814, 0.07085089297882995, -0.006331442919309418, 0.16633783473668431, -0.1400518015606861, -0.09331039668547658, -0.012233386710378786, 0.003591667096128438, 0.11146399147758797, 0.012389875984727862, 0.07205216997679302], [-0.003920732282566399, -0.005539895224277638, -0.04182704166446333, -0.040878833307875055, -0.16851007485476635, 0.1332131281685843, 0.1822420832188777, -0.16611608494136848, 0.131258261347566, -0.09751008585461172, -0.1015786774407099, -0.2543681819611615, 0.2186609474451391, 0.019479584084414258, -0.21131018893981168, -0.048394618555288677, 0.2386418271240668, -0.20443158614056353, 0.18787907625886383, -0.13117097698107533, -0.19532625922379748, 0.06740673399496552, 0.1795976266203202, -0.03199808652345092, -0.05080653683902542, -0.08893503705957616, -0.0877509975726273, -0.17379935928380125, 0.016676412234429925, -0.03140200114431759, -0.19464033582150397, 0.11467949460688415, 0.2002692202292551, 0.08544923842453818, -0.19737410954579343, 0.18851494008857989, -0.02182836516703869, 0.17308601128390877, -0.17279116868516883, 0.20395616991503326, -0.15403004826248357, 0.07366416309463036, 0.08059104221426608, 0.12473385510801432, -0.14684373863504294, 0.13500430095042534, 0.03142401804391141, -0.2217214673620463, -0.1933257022977677, -0.08787281283720967, 0.14416706941149482, -0.030363092658573003, -0.07918328984311061, 0.02276656221680563, -0.05525176058667561, -0.06455501019690163, -0.1251578709298301, -0.07659994676569049, -0.12881112927341806, 0.05249121445003817, -0.07274572008684195, -0.2377118022763259, -0.08656885214753496, 0.019972790146435354], [-0.12834489761094325, 0.1809358555615023, -0.18428826451950234, 0.021073794287430316, 0.14855737091950474, 0.19939771739408899, -0.012706035178789604, -0.023342941929322583, -0.20297413376124565, -0.034844674572927205, 0.028481019115671597, -0.10162410769194546, -0.15057176678050063, -0.016336365697214927, -0.19169958464566583, 0.017827165776358334, -0.005072791831518494, 0.20824653342626726, -0.1127124649170939, 0.017151925461472883, -0.12804230650515788, -0.035763627972607286, 0.12105951175142098, 0.009906468572768069, -0.057063645373986206, 0.16633146965016213, 0.14533887217631017, -0.05257538649138492, -0.18106867647267383, -0.0689183542881939, -0.18119912164425506, 0.09989349752985549, 0.07090285940375854, -0.0892791401565072, -0.24890937396915147, 0.19787063645450764, -0.1889417140117886, 0.01817170390970349, -0.03842044371560686, -0.09589922084936217, 0.17523961601230068, -0.09239321285628162, -0.002359081634794435, -0.13705074223098332, -0.22881052559046425, 0.1542143445288741, -0.16843866777174518, -0.18090750979136763, 0.052872270444506445, -0.13313664049137933, 0.1356040065251221, -0.19278364144419408, -0.2044449108638454, -0.020766177320084473, 0.15421095418378356, -0.14870821389313532, -0.23364544208105945, -0.0048873722405845706, -0.04431388687970987, -0.041841301495505016, -0.14921608723117402, 0.04949661474891779, 0.16437933818157138, 0.002800064609409631], [0.21369685339868147, 0.08580706547658469, -0.28742408126225083, 0.21984845677709677, 0.02184034002499229, 0.042470497115873626, -0.13151443990516862, 0.007364852727386606, -0.13016928393654584, 0.07243982458814205, -0.053055845285911854, 0.25940828223046, -0.2049580962457175, 0.010590681074056769, -0.0900161734093095, -0.09450779355371225, 0.1487677608839257, -0.012456310487583893, -0.18926219739550468, 0.1326830249771903, -0.019448831798247607, -0.20875337313246475, -0.014716649392794571, -0.033384725112949674, 0.009113033759015851, -0.04889653635665262, 0.07745225597349846, 0.0729572831211182, 0.17191936441151667, 0.0363131394205749, -0.005048122855406641, 0.04398027954625041, 0.1698501609122448, -0.16578168476664887, -0.18274207084321317, 0.1896550857422574, 0.02048597792779585, -0.19881967335445178, 0.04520607881226746, -0.18339821770555081, -0.18371596710444849, -0.00012001974807741229, 0.1093559749021201, 0.12672134441516497, 0.19530999863528356, -0.12282064601142013, 0.2604502730694522, -0.1523980914166523, 0.0658298442008057, -0.13850539348617133, 0.08173976579524883, -0.024097890522134527, -0.21888614900848816, -0.2183834631322617, -0.10649816127324993, -0.18675890481137758, 0.1276800618877666, 0.031545937819815656, 0.031347608485940995, 0.05306330381950688, -0.1599497018880407, -0.02339763608619888, 0.06578043310518894, 0.19573159188506878], [0.19512873016084506, -0.06702155050085545, 0.14856676064400495, 0.1727549526327359, -0.22672833245982585, 0.2617372330604643, -0.0049772163254588496, 0.15166058085493908, -0.1469816898159761, 0.2373251750058189, 0.11192892222172686, 0.02546113734479996, -0.12374164993923657, -0.0165275310676926, 0.028395156632809542, -0.050117388436025, 0.1591497199533607, 0.03905311734502631, -0.09025176598711535, 0.1558002355048252, -0.06666209333024631, -0.14047963729443608, 0.09552830186859318, 0.12144520732375667, -0.051492037169288615, -0.0031371327603942085, 0.19685345395099874, -0.029562467756404462, -0.028017869144340696, 0.013920325364283791, 0.07744773494131213, 0.08927294880053702, -0.2107815967006162, 0.1809016804507793, -0.03350577966703969, 0.08989584570113211, 0.08805147241820932, -0.11935313734024874, 0.22161377338270263, 0.15121211448903427, 0.06536919684665136, -0.09327026680462037, -0.15655274570182748, -0.13029326368230112, -0.0026302412387709862, -0.022051874028671682, -0.0814363624362254, 0.11737310449965331, 0.055889709890007265, -0.07437515041807109, -0.14343917432655012, -0.08614745864818542, -0.1438335116899899, 0.0721338727679183, -0.0215410664969634, -0.07459588524569043, -0.11451332847178042, -0.07730296235487577, 0.004097433560944004, -0.02785839687372088, 0.09645868558925494, 0.012827615194467772, -0.19501979564642424, 0.05386799272734907], [-0.09933313358442236, 0.009828673787310399, 0.20134348067821803, 0.08695331166081739, -0.15412728726319577, 0.004424096169578336, 0.009866595992849926, -0.05747817487341402, -0.05329933951026053, 0.14340207361182525, -0.15805765878911865, -0.23561807400613557, 0.07186120205152434, -0.11849861593509517, -0.04386869390228614, 0.20598101869222984, -0.193213852279284, 0.1643974864566395, 0.050905824895336, -0.121149290692517, 0.2456920788515069, 0.05642017360151306, -0.11200562684927298, 0.09000537028027615, -0.08704902050311944, 0.01376023961186786, -0.028464687825029398, -0.14688776522311042, 0.15170494318238106, 0.11009659266520787, -0.12455275365493698, 0.04191722728325365, -0.2381778674578183, 0.14387610804087875, -0.16327041801812653, -0.07891366337381901, 0.19268621829349095, -0.10661304454298402, 0.09161979426009106, -0.17009122347684436, 0.01999973314548663, 0.14856375068050678, 0.02556310094468658, 0.24912659430278658, 0.017038400245847216, 0.010840734412856311, -0.07847252238257982, 0.05676548453954204, 0.10345296122212469, -0.019479201451931032, 0.2376355386277893, 0.0930295319833154, 0.06116316669001207, -0.03433397406853244, 0.21146519480574924, -0.12846954114107212, -0.05913256164104954, -0.04148044091409303, 0.03887585147923238, -0.005839590111914132, 0.09055429183011966, 0.13402781566863717, -0.17549947371563507, -0.08076153751383584], [-0.11388925495984295, 0.18578914302457394, 0.10863993546385363, 0.09595994661188707, -0.023556071189055984, 0.09515384705422944, -0.1981264028105563, 0.008239703680153193, 0.12195501554679025, 0.015797846860321707, -0.02441741001944368, -0.049945025474709095, -0.025505657382254257, 0.10650567216008996, -0.3086700297647975, -0.18506424304362992, -0.022822351163603583, -0.08660022796028133, -0.14801613360404212, -0.11528092206405213, -0.017925475352996555, 0.09752497322680664, -0.1382017317502345, 0.13221138009054634, 0.20229489209140186, 0.0182966582890042, -0.1273887853328251, -0.04704699081376199, -0.19271242961558413, 0.2081911082947228, -0.08927574148552776, 0.17632771065707045, -0.01684079116459194, -0.07093125388265267, -0.09031332031127912, 0.01456511639757022, -0.09014388544735635, -0.16309450021059693, -0.18194683308767218, -0.019406899460366542, -0.18099132153231143, -0.18826722443704455, 0.15929203107358958, 0.050190007678075035, 0.06216525302751251, 0.2208722667032124, -0.10230557845440907, 0.2431293338744815, -0.13454920650711583, 0.0834230021649387, -0.11084264868636302, 0.14435908595370728, 0.1721850305619112, -0.024371564996026784, -0.058193435688512374, -0.08495289566482254, 0.19649891966842759, 0.14951151531162113, 0.20282356261184656, 0.12693342061026933, -0.22319327628452915, 0.04499690425252641, 0.16595204147970552, -0.16228440804563438], [-0.08044739964148886, 0.13233237575581996, 0.03424747243535445, 0.12886212597509092, -0.09324617283861007, -0.026224083759701356, -0.15018091761772898, 0.11390574760789, 0.17045358956957274, 0.18815392051043697, 0.1558441009836623, -0.05873227509182916, 0.20924748266753673, 0.14327775570493084, 0.05246160103710426, -0.17464015037353336, 0.12972981534906008, 0.15426402391160268, -0.1306954532467196, -0.038826227220570775, -0.2170265761585104, -0.09895732327703247, -0.026933813798556642, -0.08944390809413372, 0.19646559714226666, 0.15281461414365602, 0.013569864704914343, -0.1675472667847139, 0.17361315313972295, -0.14819080521762887, 0.060422689680784465, 0.024285858859468223, -0.07973496085963835, -0.15564781106934972, 0.08861016390047646, 0.16782905473177576, -0.1407389334186353, 0.19463578021841232, 0.009803396504564754, 0.09558760698063053, -0.023641096941721826, -0.18623353618653382, -0.21873989359934695, -0.2468440545126849, -0.22017293553311534, 0.047432660922471254, -0.014652848444586124, 0.10942940197764507, -0.03475542857203282, 0.0014887406587838512, -0.17954011522562932, 0.08922970525210887, -0.08979070254638351, 0.06759789165991502, 0.0705051551159541, 0.026556224603719092, -0.22821724548984362, 0.11467370860511433, 0.10631750647192773, 0.12049808870859462, 0.12382875006594815, -0.11149788912006776, 0.029737573515083295, 0.19033125818096788], [0.11482873535002144, 0.15958002431610255, 0.0360475431101775, -0.2117315721249622, 0.06933400133353616, 0.12331084228530766, -0.11355453802574039, -0.04797378679777683, -0.10850493364162275, -0.08622676330348765, 0.12467914635775805, 0.04706760540585958, 0.0061855861804651045, 0.12629213774563536, -0.14092896097279095, 0.0915269043102643, 0.17082536715829066, 0.11452313598564767, 0.10910133827836743, 0.12478896760255513, -0.09085335630773554, -0.06996863752420646, -0.23268561819279435, 0.06209978745305739, 0.15236714107856533, -0.05157650967670316, 0.18747635588878417, 0.12300317710544573, 0.10828099041371257, -0.0469078419935436, 0.09701462717325161, 0.05755752833245894, 0.17574554318835217, -0.18317878435902193, 0.10277033575459925, -0.04135959113529723, -0.13600682947472648, -0.2174207894767024, 0.18358398811030197, -0.21278863109332924, 0.13663313901723226, -0.07543510593312412, 0.14094275901041317, -0.10325013195507991, 0.04198006638080051, -0.041940303075678614, -0.0602113041237791, 0.03643235323151881, 0.09621617190674164, -0.14746704208747105, -0.18784015898825665, -0.11294077374357057, -0.15253050027944182, -0.11997656343393034, 0.17478136108642756, 0.1547385464299286, 0.02195899853519573, 0.1452726475753431, -0.0466080172048104, -0.1332869856836843, -0.08753600019971898, 0.13906328610574525, -0.2115691906436395, 0.2271411864398631], [-0.014240734768772056, 0.09721352039778934, -0.012909265948461493, -0.20554657717945565, 0.12368478695207358, -0.19034986848199884, 0.19021420219170085, -0.021063231564366815, 0.06355763062800597, -0.14094405868569318, -0.14046906047060975, 0.025320286067299438, -0.19428646440641656, -0.19100849182675345, -0.15658864055519642, -0.10955215370152895, 0.09471893081597697, 0.08046694203947423, 0.08954502195784282, 0.14412408419707415, -0.20126153920579237, -0.10458567629365575, 0.18607635317248916, 0.007934984864940285, 0.07033294760531174, 0.20391347154080958, 0.21981154961848717, 0.1838413620693714, -0.04353992056532838, 0.03749270965118808, -0.2182611959423843, -0.19742281577739154, 0.00570239302478747, -0.11972158297882202, -0.05997370628767936, -0.1087319270479304, -0.04075204236089114, 0.18757805324201107, -0.11363213626685546, -0.17709577628164566, 0.1912119266730876, 0.08737376066693406, -0.08444198339296007, -0.027687505087344525, -0.27704272684773223, -0.10235982652756968, -0.18783376833851165, -0.1443085944475046, 0.004426510421909547, -0.16977905454056305, -0.08194779673889668, 0.05123509592076282, 0.16525277745095165, -0.13860495083088342, -0.059856889762431795, -0.10331533844062302, -0.17987372085511633, 0.1257590710294437, -0.003409188428039824, 0.1692867866114812, -0.18710060520241836, -0.025124823834230793, -0.012309921285239478, 0.046041757555631155], [0.08787789573486426, -0.07990584775609513, -0.13143427132699936, 0.17273662236478007, -0.05845872220863607, -0.18217673683006913, 0.029953189234706357, -0.16047906372351636, 0.11869837960066171, 0.11365212622021559, 0.0449656501834082, -0.24941261216554927, -0.040026194999265845, 0.020608071837056752, 0.13007454366917223, -0.06631623688969415, 0.15379424470524064, -0.022479925182257197, -0.12309426163175761, -0.017902699085600975, 0.16913466105983632, -0.15019631393308414, -0.07763208642555815, 0.17838802011712873, -0.22014401862471294, -0.08252394184810498, -0.010154019496682034, -0.02073051951024306, 0.014244610238090805, 0.07711798625492468, -0.06981703109917076, -0.19862571447845956, -0.09860104711436658, -0.21493261294900415, -0.047493076081277764, 0.14946024007754627, -0.18410580656887796, -0.031933593596779546, 0.17502255038802247, 0.15037686580660561, 0.08147616964899182, 0.11633922305326212, -0.2164845863794202, -0.01653463316962863, 0.15264075026419677, 0.08987209937094479, -0.05843701648472866, 0.017697657793984856, 0.05055020002565437, 0.15672888506099225, 0.04437964187967599, 0.1451046902434753, 0.0923410041466798, 0.24742098416958214, -0.07318783044666415, -0.021219116569125507, 0.004568879574518819, -0.2333167733362611, 0.03600449529769201, 0.009325840862998664, -0.09915468941090287, 0.040546470221524064, 0.08616134230078913, 0.16843313923113643], [0.19444780725156252, -0.04316072035774004, 0.09189071155052357, -0.15372287908960394, -0.025324853754697816, -0.14588656186878252, 0.15134676178519024, 0.13031527759843234, -0.16678715197981606, 0.14359582338080265, 0.0007953251002738081, 0.1317761310184813, 0.15023551164706916, -0.048118688635617225, 0.10999877636105423, 0.1182803361482245, 0.18663284250555756, -0.0870885690484153, 0.1831433926004178, -0.03829428506184446, -0.16163388094245143, -0.11126979612071115, -0.12955122950903497, 0.07183942245719765, -0.0029711904171432863, -0.16138609794931508, -0.0286996260150851, -0.15946043801286713, 0.02645700031973655, -0.1505809854586642, 0.09748724575009343, -0.010688473056015528, 0.11278339628225323, -0.06917772976466265, -0.0836585419458505, -0.10571821051466962, 0.12148489861129166, 0.2117194682593425, -0.1920082234193058, 0.06245007329348284, -0.0033336938374774537, 0.17442163155313797, -0.020143635846189736, 0.10665341314550486, -0.11045740601336286, 0.07101772123748566, 0.05354831617875674, -0.15784378117067183, 0.08903525142989678, -0.17537988924201603, 0.15817548460843517, -0.01193947605201163, 0.010267313453546659, 0.008888526361290092, -0.017637663024512706, -0.15869713721344775, 0.06349558841590251, -0.143452225408304, 0.028153799622418024, 0.059454856586614445, -0.09525045348570081, -0.16047144808097166, -0.16527330985993743, -0.08813919247837808], [0.03113768054877724, -0.08272049589864534, -0.22814228511713433, 0.20163946833257335, -0.07743765392047991, -0.2329942085117819, -0.06245689924472985, -0.10334811188918845, -0.038819164345476734, -0.12425326459258401, -0.0278088587994269, 0.058653145055894425, -0.2438237013863309, -0.17351425217240427, -0.045600039688664364, -0.010600400951218676, -8.959481302737211e-05, -0.07459661265224637, -0.21697840774063884, 0.21331219577370442, -0.07167309347184572, -0.00430640837737904, -0.14713788805762662, -0.17416224520758725, 0.02138951985206994, -0.15091200221903928, 0.053394258038010206, -0.006509752041302721, -0.05077846796668279, 0.1888854393109676, 0.009819277894295325, 0.14369043994315336, 0.0320573947191733, 0.14184923074428876, -0.014539802707348582, 0.04566714301041709, 0.16066873016432487, 0.051156586737776136, 0.07790819744546224, -0.1418255693045544, -0.2067107626793777, 0.24866190691906387, -0.08643291942443006, -0.12241238410744083, 0.006775136906666304, 0.03676671233346523, -0.06969716237669758, -0.13790745068764154, -0.0020526284325051674, 0.1406907896191405, -0.2062944141587866, 0.025795541796035115, 0.10143941155268828, -0.060531964526338314, 0.13558108722177536, -0.0865157726744633, 0.12106261506251115, -0.10173606770136577, -0.1640463281756042, 0.04577852368325078, 0.0150974755980774, 0.0358910396646615, 0.025463681613434687, -0.09072002824272325], [-0.005668153531463127, 0.13388905195359085, -0.37112932179523356, 0.05026691680013682, 0.2487635412276161, -0.27528011557784704, 0.08420106523779886, -0.15243853227851512, -0.04026142756409879, -0.2206763376566264, -0.060267267676520644, 0.19205413454982254, -0.27069311913629174, 0.17394231635043908, -0.021397930050321857, 0.07660741401262107, -0.11453492824646087, 0.17626176363688942, -0.21339263559737123, 0.12837008853280188, 0.0009176146065799481, -0.049778335104540515, 0.04849521136375152, 0.11460003492256997, 0.13307958875010517, -0.21714696840760175, -0.14867386513801448, -0.12617244586187418, -0.19539600767833284, -0.020577807046801712, -0.11807672616457084, -0.19060884135119346, 0.07568986472776254, -0.04724645478538211, 0.06254024079062773, 0.02606710655613033, 0.07439017402538364, 0.051244315621956714, 0.14490136741313606, 0.0007732220717812304, -0.1985012594245683, -0.0641435561201836, -0.07180891208708313, -0.18352119516265164, 0.09718842864377011, -0.0425720516541854, 0.1895707481151068, -0.08478534040364309, -0.026340396997701788, -0.036197604781544955, -0.0828522978769606, 0.046094236221056455, 0.26871826466396553, -0.2283251799953974, -0.13240934960483966, 0.18945203223205806, 0.10891841440818822, -0.01794217191917929, 0.11692997141600679, 0.18611849426954108, 0.12810906130879338, 0.18255074436505644, -0.03964929652320414, -0.19285527565460917], [-0.16008858477587948, 0.16381669413815178, -0.09010701103839483, 0.11875034740183361, 0.026045670954690764, -0.06862341209700953, -0.07943479946517111, -0.24917065632636387, 0.16121959855436999, 0.07855193286839154, 0.11208776882775469, 0.05480016288402319, 0.16310302543722585, -0.17153687757871466, 0.0774322920222047, 0.0972262364988992, -0.043048546768550085, -0.13340612199812524, 0.01264960473635446, -0.21439479159878022, 0.10140422683773762, 0.2028255572880576, 0.13302863755545308, -0.026954743602170417, 0.08917962862022558, -0.09361658622814861, -0.053118483377173134, -0.0693424292660051, 0.11794257259925037, -0.06078501977338479, 0.03486016530869586, 0.14026337894791038, 0.16043655518071476, 0.0807114254142173, 0.0032589219383472707, 0.12327116900251196, -0.08378482426379422, -0.01251741078769734, 0.15260477430697833, -0.1902003509242481, 0.1233300457441598, 0.12347508847469314, 0.19627969598848785, -0.11309674106621677, 0.0330820507745196, 0.20340832703352496, -0.1981837315485235, 0.13270937422108173, 0.13411520580165262, 0.07159391580513588, 0.046061936150149446, 0.193715748713711, -0.04936251607020854, -0.04862201899385286, -0.07012052031564234, -0.02397220758483108, 0.07571285064076995, -0.03528226137283294, 0.012369394005625343, -0.09045860437105634, 0.015428718243434556, -0.1282925078498384, 0.040664369756073515, 0.30172713710176213], [-0.013616941159325662, -0.20013211840642897, 0.36057969510801746, -0.05170976153908112, -0.03788761902211409, 0.19154011668034338, 0.10808437359912919, -0.04127561638592366, 0.13147013820257922, -0.05061344439852853, -0.13533996060995265, 0.03738269752324141, -0.05006665361015149, 0.0259360256220496, 0.10998766106433062, -0.0254479234316045, 0.14321196070119496, -0.13352209885856198, 0.20627829596883504, 0.12690772185614058, -0.14964704363233197, 0.005198782778133099, 0.14269045348868942, -0.08093486428761565, 0.01815181885064735, 0.08461658299996683, 0.13824794502361598, -0.07793827642122163, 0.1627261525494929, 0.11557925283165772, -0.16739750631985745, 0.09698463902049659, 0.09428365135821616, 0.14628915387877628, -0.04117582334761098, -0.14232821372877405, -0.12070305673840362, 0.17637197548378408, -0.07693852486195894, 0.15651556172491726, 0.009499416708178223, -0.10887532579034098, -0.04980417623715488, 0.15618097169346679, 0.14148826861516786, 0.04828532663565311, 0.09919884892859264, -0.17913780015112046, 0.02751534097082747, -0.15834250608923142, 0.2270857865110861, 0.06687939633634989, -0.08375913025889827, 0.23365713858936238, -0.191996959148592, -0.06287516161176797, -0.13531054410504734, 0.18615971173846796, -0.13346697431336882, 0.07252941543359942, -0.1276989334759996, 0.09457094546074539, -0.029243655777250476, 0.24399050198994032], [0.09358260034242838, 0.10571943522650323, -0.08023063429147079, -0.148819585093387, -0.05645011848235262, -0.2007616825800186, -0.11107687983664212, 0.04233920842087399, -0.13646505315457955, -0.19976489679596127, 0.02744191327437548, 0.1214636619198971, -0.13460345530955303, 0.18322323331480445, -0.06853286175115167, 0.006398651783939932, 0.0503999208487677, 0.020963322937433387, 0.02832224337346423, -0.17170731045729667, -0.007066234616729803, 0.1011242400401, -0.15524785792040569, 0.17823867055866838, -0.18903398095190194, 0.11410994430428059, -0.04894949034990198, -0.09632825925402318, 0.1513543001686074, 0.13174418687275868, 0.04634299933286723, -0.05143261182533679, 0.11810583921929088, -0.15125745734261514, -0.04331168641826699, -0.04137307696524071, -0.15500933958328084, -0.047048944313365704, -0.057313685099736916, -0.15441760609319935, -0.1597168852327474, 0.19442333848179155, -0.18673376696192676, -0.17017410599004273, 0.2021223034844959, 0.19499718364539304, -0.07126978966802827, -0.17199723590670934, 0.047051272560387214, -0.02680469108717784, 0.18831077860301315, -0.16799271925157896, 0.11320569369913365, -0.2131667031518337, -0.1265899864254805, -0.09380544215964991, -0.14530724424862385, 0.12772592496710716, -0.1413404207664185, -0.016997339347149698, -0.1604995779955593, 0.11951822965017045, 0.07416263004039192, -0.2024798571366913], [-0.11190869836206038, 0.017786604329281093, 0.08716419751862652, -0.054334100535895886, 0.054982501605282605, 0.19417154426265396, 0.019420501943383225, -0.15076496633219386, 0.0011473322400558559, 0.15669442302815384, -0.10173353568592897, 0.09525266755924343, 0.014887953657464965, 0.09639698513095778, -0.0037921950396939495, -0.010570683559132408, -0.1631970967127897, 0.2124867919101582, -0.09273247119433294, -0.08902834706605857, -0.03626334785275078, 0.19507270117225797, 0.07308937228699405, -0.18409177696253567, 0.2183084128304686, -0.10425610422709455, -0.16069007442361166, 0.08571676705830279, 0.2013358774816631, 0.17700629862197634, -0.16386386123408161, -0.005671400116841051, -0.16609432013499872, -0.06123589101383469, -0.0961469621477768, 0.11182203345785156, -0.07625669337435487, 0.2436352938290367, 0.007665691577861262, 0.07429701836264387, 0.10173066932768408, 0.10204420904431719, 0.15124723411980945, -0.141228657867042, -0.0029938658409405503, 0.09640092726554575, -0.129987475491326, 0.14715059628861352, 0.022200139791525297, 0.057994325360422753, 0.1940639113666663, 0.08254951594854032, 0.11271895823610509, -0.0563470616386524, -0.02871080338267791, 0.15832670858662082, -0.09785026605878991, -0.030499256013184393, -0.11256959910146036, 0.14023637165713787, -0.1100683670420604, -0.10360271737189769, 0.15753560054421317, -0.09271711543434827], [0.024615466778902525, -0.11691356302176144, 0.14888979234227492, 0.1741601971540816, 0.1264273173744207, 0.20236674894874113, -0.17490822937586173, -0.1964885046572676, 0.13214801465646, 0.04579513487185601, 0.137294833815966, -0.07351435429073237, 0.07137059510683852, -0.09821712503382773, -0.07186894401009816, 0.03121646595213966, -0.1565518768076672, -0.036093739633414, 0.012551909624070068, -0.13414551828422638, 0.10500515019041015, 0.07505265130424978, 0.0012283076607180299, 0.027731739975020153, 0.03987078535417404, -0.0660136627604455, -0.10747710821300005, 0.09326720971209619, -0.1846781920684762, -0.1471801512522446, 0.026405316813363142, -0.055542000251945986, -0.10208444716231317, 0.10709963841856886, 0.2200564704357221, 0.029672056352583315, -0.1806949112989353, 0.06140953938362302, 0.13394182762264045, -0.1174226983258849, -0.10238537509901757, -0.14565680139106751, 0.09422796853536985, 0.17721549607638562, 0.11175186980693312, 0.12785745813915994, 0.10610391858701576, 0.02624820537327426, -0.03248078000125207, 0.00846205314083393, -0.14719630515647392, 0.23033041734111906, 0.16496659177974007, -0.104265549648751, 0.06694619327002993, -0.16507492093042458, -0.20663881041421764, -0.1793512129111599, 0.07223753054267894, -0.018471171169415573, 0.1259365403748948, 0.050328169571565884, 0.18807654555389638, 0.2920567531473429], [-0.20431757285013993, -0.0860429825404892, -0.053144233907318914, -0.08918125272320655, -0.17691128838384543, 0.10755911839865076, -0.17971458246696087, 0.0718415009516918, -0.07497098433288826, -0.011490959716360865, 0.005089551321760458, 0.02647376605942496, -0.1200607891495362, -0.048981322296816246, -0.10133408313455024, 0.1611575632058909, 0.06296082506727965, -0.08469864597270604, -0.12525257902293666, -0.2498067398932993, -0.18870935716443846, 0.08317298938542045, -0.11562564239771428, 0.048370002741741254, 0.18935980054703921, -0.1778708061619144, 0.15465444416816584, -0.14767100590323906, 0.16527955031818062, 0.04403859854024433, 0.11657504044071132, -0.07792178887946723, -0.08831769854383556, 9.67000617226651e-05, 0.0367205529098244, 0.13258388843730037, -0.19311529659976193, -0.05058565173100823, -0.1424729921641532, -0.07254524166077703, -0.1212945197655761, -0.16310523761318244, -0.15046754010282154, 0.21334949653760163, 0.04368367401175121, 0.04129918224348291, 0.09363933479713318, 0.03732514613923898, -0.028852179400525462, -0.023984217097288492, -0.2070996239765759, 0.052200983908064665, -0.10753937034062704, 0.14266967645257733, -0.04048207048407415, 0.04247514365188849, -0.07284356249988501, -0.2067539363010043, -0.011822106752600361, 0.180589338710725, -0.1853091848997766, -0.16478260318679153, 0.1478561309069786, -0.07764463650744273], [0.02215645786781067, 0.07067423795344173, -0.06839697909383119, 0.16053329451569945, -0.027850445255553007, -0.009397337444242876, -0.1736533315933932, 0.20412058959284501, 0.0906951364572483, -0.13536255566993574, -0.11632257834616079, 0.06507200448394151, -0.1353824375806414, -0.052088304400091406, 0.051090438078982385, -0.014294591564222294, 0.06695714369880329, 0.21474252516124018, -0.1527166343183729, 0.00272610480928217, -0.1824327227123943, 0.14266482731461289, 0.025027431024628087, 0.22107724982197693, 0.04023323377676621, 0.006343915725749436, -0.001525832087246589, -0.0021346978253945184, -0.07018856782380922, 0.04186712824359839, -0.01208938772752777, 0.12386842898466817, 0.19590403580310733, -0.04305891200193078, 0.10443901659191313, -0.015578369307120652, -0.10461841483959736, 0.20789442799351998, -0.11255230637781442, 0.06347256660473528, 0.14239252372078054, 0.10131605414669616, -0.13448733378208724, -0.08383878235923707, 0.12524138962499967, -0.1757224279228348, 0.2343531312120365, -0.01736232913304533, 0.02673294361723801, -0.004280549606300461, -0.0326913145593839, -0.012651629465260083, 0.18306759134528844, -0.21232664304540738, 0.211062932122906, -0.13385487218311848, 0.04714645205355183, 0.13922997183642977, 0.0858363388862652, 0.0169470343171376, 0.031023673527923897, 0.18148988276589043, -0.018999713801988206, -0.18281269622198867], [0.028973371358100616, 0.03128852852872654, -0.09810244293160342, -0.07766278122377565, -0.15381979656161718, -0.01835675751045257, -0.17635119545808886, 0.06556891723024035, 0.056254281710621815, 0.28398901840207386, -0.24660172188468926, 0.1304588713438284, -0.06143938818354127, -0.20985592115685353, -0.06912781613041871, 0.0570806370500762, -0.0904414505246677, 0.004989436764957581, -0.24454036116447767, -0.13191491347433995, 0.004947204193260872, 0.2049406780524648, 0.13204599571594217, 0.1479013338289808, 0.2235357138225832, 0.025857176221691473, 0.041600344284487036, -0.15887955318895117, 0.029633750713410578, 0.03582658099167564, 0.03339865825911025, 0.279455147717686, -0.1713514076171672, -0.09150564260938693, 0.04141858737755305, 0.1774053999797994, 0.033837641916673024, 0.11056574750308264, -0.12831484652523925, -0.09963642418194849, -0.1666810816808112, 0.04524028368354352, 0.0795965885296106, -0.08610190832658206, -0.019498191588694275, -0.18847763446326293, 0.16950368906582622, 0.19319923378552376, -0.1080463238768468, 0.13219764858300023, -0.013394942901466598, 0.10592384185653235, 0.06702409888949533, -0.008834137657788328, 0.08604636914715234, -0.15537325787593928, -0.1577154589208937, -0.07768240855452387, -0.09820340744122816, 0.03408620459483784, -0.18559252298057896, -0.14688106164524406, 0.0911874533196695, -0.36089428702486226], [0.03956003988312402, -0.07530463370177978, -0.07118693039938984, 0.14988016470803678, -0.04155968074119004, -0.12112200242429506, -0.0760652355588626, 0.026670894418536626, -0.06885518535419052, 0.061997920744031904, 0.15340459052084904, -0.021900689080295695, -0.011728927702536694, 0.1254669519274228, 0.22067675237329235, 0.2457571867495535, 0.18909627196611248, 0.19393952787062269, -0.2916423283584441, 0.051888981130003724, -0.22372059264937352, -0.14811608542935858, -0.18843522125006035, 0.1978414948208872, 0.039356460240756265, 0.04067600143235299, -0.11621667511468964, -0.041529395284495535, 0.05916362747331038, 0.07552242902713664, -0.18647276545085664, -0.10840284130445418, -0.21957195383300818, -0.08727100204561479, 0.18216929575349883, 0.08287552096833119, -0.17201797264960958, -0.006170394062816002, -0.029446795148673294, 0.05853946255127993, -0.0389723839673215, 0.15939064668357433, 0.21105049092237566, 0.08850872674330479, -0.12878918786071764, -0.268318332183369, 0.26242168298988955, 0.18824308080295651, 0.1868367201800238, -0.16333133577418354, -0.09999361185604075, 0.024592858473580413, 0.01134729749810356, -0.26440468888401086, -0.14291458715958597, 0.1810833155682045, 0.25385576990273306, -0.1153585737595629, -0.18606350246607004, 0.09234100828296173, -0.11956503707838896, -0.08348904059783216, 0.1638079119123518, 0.053439566977391155], [-0.18540564478718058, -0.01743581411328641, -0.02891517111224986, -0.2456177470854426, -0.0005685528211667761, -0.10390931452634816, 0.11774938761310687, 0.20700585427220625, 0.07001060944418556, -0.16616324667442625, -0.026158120147661734, -0.09064107083758154, 0.20200796188955644, 0.17673155864470314, -0.02050685597514251, -0.1034006152895047, -0.0705299887884377, -0.1495368982410807, -0.00963966410668906, 0.05753153301614936, -0.2180505691950698, 0.11117132504599729, -0.07843100794303043, -0.026638828567365682, 0.2179215235916577, -0.11546745273150565, 0.091953688706004, -0.027748516674950742, 0.1775803158044621, 0.13786478041296213, -0.1837055111054448, -0.19867600242118832, 0.24634282563441828, 0.15694114301148882, -0.15960020981354597, -0.09036592823786527, 0.15067274585597454, 0.12180644627651104, -0.0143662931677229, 0.0921322546638611, 0.22431650212696178, 0.09301181676918827, -0.04090749784147693, 0.19022982590444273, -0.11495926514121949, -0.17126440365900739, -0.23768108935966373, 0.09677847186806458, -0.13011280029658134, -0.033453379576061724, 0.07663183752099724, -0.19283061230921592, 0.02222631625294577, -0.14753842660303615, -0.1476805139292762, 0.060039910673633595, 0.07768406018606598, -0.08153221537061214, -0.1395127705063639, -0.026380824338096208, -0.06479019324403022, -0.0467564326008497, 0.21652087641852022, 0.04596860259209703], [-0.17626859925620048, -0.20051735352602293, -0.10093269289933256, 0.030275473472987553, 0.0889951030747876, 0.01686426766354538, -0.02930943045590511, 0.1358818578067857, -0.22272817893906272, 0.2643063940388225, 0.05214220256779332, 0.0993437692319832, 0.11343531366806432, 0.17241932014940478, -0.18530606440143682, -0.079832106604143, 0.007197446441960917, -0.07565823539712468, 0.08767029754260033, 0.16331675110585903, 0.08289387693385006, -0.20737299416836663, -0.13983189159026074, 0.17321457087508568, -0.15416092577745313, 0.13283019351694209, 0.2188397093368323, -0.165172685032994, 0.0885269829559917, 0.12400796365766624, 0.18311667389629763, 0.16563845203869546, 0.0782709913399902, 0.10573492751447548, 0.1043047967005527, -0.19259836328336224, -0.06376005460218101, 0.1734611502755226, 0.10052556209065162, 0.21651885723265857, 0.1194118517167292, 0.0673484741294701, -0.011236680650055392, -0.1626732821733998, -0.05909813631954809, 0.2718692524504174, -0.22785647312690976, 0.20461971852782887, -0.16802605148448907, 0.1165307491340596, -0.13793236613065196, -0.09385857136301627, -0.0963341949390909, -0.03690722661755386, 0.15211180105785352, -0.17139546900010716, 0.0947114891748062, -0.09406557375362118, -0.13982610795041325, 0.21424770905996812, 0.0963892803119059, -0.02318146474528212, 0.06756700495854483, 0.14977605640177527], [-0.036236320982861225, 0.06442018574699124, -0.11929173971555572, 0.02389637316345881, 0.11344992726082186, -0.036157687273691556, -0.04380789578653038, 0.1650308185308891, -0.07322771586453182, -0.10514508982485893, -0.012578847293357131, -0.060298913191388324, 0.16714764565366244, -0.04001145244487839, -0.057864360897163056, -0.19252734576115568, -0.07254912371514681, 0.04386541810110371, -0.2522415969053725, 0.22046039839860931, 0.21016395918731912, -0.14315779723978445, -0.20090868240155843, 0.0019875814488970315, -0.10189250625707096, -0.12797408684126582, -0.17341115248539057, 0.014510929721454882, 0.16730897122155686, 0.21620757919067807, -0.03795028093865304, -0.056085624523141774, 0.10617427688529858, -0.023726622202354435, 0.21681359173395134, 0.1413542869684866, 0.04376891977198852, 0.05960204409351786, 0.09331859333811349, 0.05996091435395355, -0.03543418101205835, 0.01812682980771423, -0.054269970725076784, -0.09703230049942942, 0.11943272227778769, -0.08794251871591392, 0.1890331480120996, -0.10686378389045188, -0.09799690602653456, 0.15365907398046402, -0.08009345581565476, 0.2131712141464077, -0.1502946665479031, 0.12829263835609858, 0.03687682907684525, 0.04938111577185402, 0.09347451597735142, -0.08612863879218083, 0.08464818864625685, -0.07815014359861094, 0.0837869455435253, 0.07847529511037077, 0.18262677852520454, 0.1009150651438952], [-0.018470770431503667, -0.13279417364510265, 0.0826871436590842, 0.218131616822712, -0.12090589630015905, -0.14432771281187565, 0.0505595700833799, 0.13606417579359084, -0.12468994854579853, 0.16449572817704522, 0.2219084630598273, 0.04623903627538839, 0.19326350710216272, 0.007076200698000893, 0.004455212240957865, -0.15080023394557074, -0.12804071474392204, -0.13451921748805365, -0.08378804196300271, -0.20584700756595747, -0.1993854863041127, 0.1537027171953636, -0.11953219726136691, -0.1878478572886015, -0.044801155148074874, -0.09803562513673543, -0.11390506740694144, -0.070565021018209, -0.05489125183129373, 0.11480515712485148, -0.03502963001464705, 0.149942863553893, 0.0884238858008407, -0.06646127027726968, -0.06483261549169934, 0.21435396185142358, 0.028249285265121157, -0.30067924537625446, 0.13959498712221738, -0.31997479133284523, 0.054659506216091946, 0.06354444039582395, -0.2172224210559724, -0.009585279385591382, -0.2297117090381101, 0.19890384802618702, 0.1657462003778196, -0.17416032411279067, -0.10807305829098579, -0.0752935742147127, -0.024620193166762255, 0.01610535153475946, -0.09082199292400338, -0.0967095623081335, -0.12789536100278395, -0.1902220694255069, 0.1530148305580498, -0.12961370882140472, 0.2400204134424058, 0.13577660273677103, -0.060890518671033254, -0.08832760013588441, -0.03465095214549293, -0.22885246967745837], [-0.07968564741076675, -0.13357475981948413, -0.20797575995432316, -0.009869515891151454, 0.10570704392295915, 0.1355499734247353, -0.09274036528597125, 0.14314772572333856, 0.09782645811439311, 0.08937910832202828, -0.014563063071482224, 0.012902603305870064, -0.16111483774687407, 0.1545978218531353, 0.06742678515857425, -0.056481102466116845, -0.044399713631482846, -0.03252589768153874, -0.03546045025609712, -0.1422043775677868, -0.11719489306644615, -0.14536815120768343, 0.09664021212110241, -0.19693637579276935, -0.02945058481426549, -0.19780389211580718, -0.15381943920133945, -0.04173163667327609, -0.11282468247907439, -0.13537972990743974, -0.019785399725616742, -0.06134847843663335, -0.13223054268826057, -0.09550242969284466, -0.15499692364121875, 0.0418324216943356, -0.026716855312329146, 0.016050381959491794, 0.03171051712026146, 0.15897752531862347, -0.06593362469076042, 0.025719462019271333, -0.08722577592943204, -0.08957049011841128, -0.042961039415824326, -0.06380792748928193, 0.08129047904776338, -0.0332822619426941, -0.19484014219772217, -0.21639876084884202, -0.033081348937425176, -0.03903120977724428, 0.041590405831326394, -0.06894869190568967, 0.16053560450693816, 0.04837469426467739, 0.0992828985948368, -0.15138247453724296, -0.11317000574483643, -0.04106985240599614, 0.04817296128059867, -0.1396254401531408, 0.12188275893158784, -0.07520853777685146], [0.07538506382332961, 0.09055830010306669, -0.23431664543521677, 0.01482136124094319, 0.10629433580710917, 0.22415682317597233, -0.08334335494915021, -0.1859772518311413, -0.08592117864669209, 0.0035673708115684854, -0.01807224281242257, -0.25996310055064153, -0.23274907146882196, -0.03511707451727021, 0.13122144049896284, -0.21590390570485538, 0.16405642135185844, 0.0017613664816324341, 0.168918593100447, -0.09831669535779533, 0.12395307989314985, 0.000608598675880642, -0.15006139373469382, -0.11493026721822525, 0.1899455136202162, -0.0844124159465584, -0.27332094286768416, -0.04154606608224129, 0.023916318951849792, 0.05555295483114439, -0.274417217606533, -0.18695284753208596, -0.19423488431375038, -0.169479108926919, 0.0008462716514995467, -0.10063272179843218, -0.12588023356517586, 0.10643368301200222, -0.018156912843282465, 0.05148435034755486, 0.14126596145413126, -0.14815200093964445, -0.20740542159666855, 0.07862889942772626, 0.09374269946024236, 0.007372471397027685, 0.10148424621070345, -0.09119960739653692, 0.07009366792224708, -0.03364044760914924, -0.07784441928832325, 0.048536819245529626, -0.19174003845722182, 0.003497789336349528, 0.039532603609737545, 0.10805464828452808, -0.16377426752513063, 0.07204616272726284, -0.17310660877592268, 0.08538735695156816, 0.04513844848571025, -0.15572150509706945, 0.0329781001662282, 0.16971386345265413], [-0.19549066026013961, 0.13239540064355992, -0.025758565375769437, 0.0695397540819565, 0.06387503071506886, -0.0944265583958952, -0.21725854036679057, -0.013403581002932725, 0.1703984943862923, -0.06481129836523303, -0.09019247709019834, -0.0753471013857832, 0.014702163616868144, 0.12917936951323522, -0.18862674740215776, -0.18886405354519398, 0.033084629995917644, 0.10460370936550803, 0.018966872681182224, 0.06967025914508265, 0.1196331370952885, -0.11502850817473063, 0.001479419811482552, 0.0006566952371034143, 0.10776925360772083, 0.21943135199950892, 0.11482577075086488, 0.047965893102811914, 0.18289723419982742, -0.17455372387933663, 0.04750232624039651, 0.15323667892299422, 0.10071722332394532, 0.0530600935245624, 0.01933594438092639, -0.16514657163258034, -0.16680022372547834, 0.08994970702877148, -0.11303259954743376, 0.10933588800094513, -0.14620403340248697, 0.11231922407928181, 0.0010094086482711063, 0.12396579733830806, -0.1806751405227079, 0.04046610245421907, -0.012340319766124583, 0.1999477942446657, -0.11575141072650362, -0.049222692183625516, 0.04767472615804246, 0.091771978883717, 0.08375628729202257, 0.11590492416738084, 0.1965567847037098, 0.12870237009167854, 0.07093214089917166, 0.14562485609708506, 0.15531672938983457, -0.27438801992934, 0.13286321283581765, -0.028519596531952983, 0.08845208499981581, -0.20219838803940768], [-0.1455541683701174, 0.1608254510426157, 0.14004422226762736, 0.057418993624858784, -0.1893005311391698, 0.020825749487666, -0.10915290136044281, -0.13613401593984822, -0.10833003358429089, 0.03049110498700076, -0.1007072461947634, 0.11635703865636905, 0.11473738955052112, -0.1161418757237121, 0.11474948469060069, -0.17969771695222578, -0.012491831726961701, 0.024522589282615533, 0.052529529448187666, -0.2108581664327821, 0.08974256569806147, 0.21538703698600054, 0.1133819241797613, 0.07951417478459955, -0.0742239557020599, -0.03972632500679148, -0.21733150271899068, -0.07519628112529568, 0.06259182562774131, 0.023899550896144414, -0.17675300089524643, -0.051084291976888366, 0.06252601214299522, -0.06491365571944012, -0.19426716320568022, 0.1647002975077871, 0.20457951654518078, 0.16122049865490506, 0.07640177009416721, 0.12154954613553173, 0.15703246164091125, -0.04000492515870727, -0.17496736767275145, -0.002281561669786342, 0.035531696102737036, 0.13495620208088713, -0.17518090386198878, -0.1734970497937599, -0.07808141725954514, 0.2211340699633919, -0.15234121714529067, -0.18491192883568477, -0.10874438054013133, 0.13750137121617279, 0.21347754746941305, -0.1706002084178843, -0.1634571996539363, 0.08594850733133676, -0.035822898199724784, -0.1578942328760696, 0.11906679724106027, -0.1858368589584235, 0.021636627388350035, -0.17136995720940085], [0.14494775682721994, -0.08266454287533706, 0.3065443149805401, 0.05532309664636596, -0.2137731773600667, 0.012451769253767045, 0.15467816795724387, -0.20010576002429625, 0.0808072633326375, 0.26534835057355227, -0.11718857838687752, -0.17829069041385356, 0.03499214699966806, -0.17070185946685631, 0.10456666723195976, -0.17445192089246084, -0.030177887125373313, -0.19934341124173596, -0.04942469887581848, 0.06801635995925703, 0.06096239159556098, -0.18759452349851893, -0.11395070532943177, 0.04504065473616769, 0.2362146991919279, -0.14589350590847158, 0.10755940336837683, -0.24238597345652035, -0.0325909165108474, 0.1462481381846552, 0.027591051743220008, -0.0614313816358714, 0.032679408673922376, 0.02019816265795182, -0.00914785255646572, 0.09676823705656205, 0.13959548758152027, -0.005466730037617009, 0.04865701482346235, 0.05665581879494265, -0.12142796582969269, -0.14543164253786836, -0.009908264268713456, -0.043946255794267246, 0.08768928794284776, 0.23366993117018223, 0.030416761012508873, -0.1091769632636406, -0.00890310492073132, 0.17064765068860616, 0.0035966562175913717, -0.12758076576859448, 0.09132734746022425, 0.2508749855193087, -0.009378633395254974, 0.0011978729748400793, -0.02190477120995176, 0.009873046626559467, 0.14811430458051272, 0.008405425503080162, -0.01977151458745731, -0.17053824598029013, -0.04770577159080439, 0.23593461173956076], [-0.1841084522669692, 0.14291273604950863, -0.157473837717502, -0.003590509543174564, 0.0567007233731809, 0.17229096493274418, 0.053667154278909376, -0.00305551916329321, 0.049211600638946446, -0.005748213462405267, 0.12676842613029382, 0.1504539988299452, -0.10839635579951734, -0.19635179293519245, -0.063143257738887, -0.17071029328128665, 0.12213673942098252, -0.05781539988437527, 0.1343836837855852, 0.03360687896273245, -0.21797167987961802, 0.15653443602689662, -0.13316690916223525, 0.06576858145658437, -0.19230949473675363, -0.22477581844147676, -0.031288564545710995, 0.002627100075573083, 0.12497149773976345, 0.2181282578224095, -0.1536230148381344, -0.13433093180714023, 0.01628278597847649, -0.06546027585665094, 0.03336665785110721, 0.1462356411304592, 0.08704529555271794, -0.04138303440955254, -0.12470031228779961, -0.22523765198533488, -0.09106702639010693, 0.15312393689328227, -0.17971249890685093, 0.08279249453393338, -0.19121211289335527, 0.16604465431849053, -0.10490168424398241, -0.02707391125497609, -0.04921912690403286, 0.2226893040036941, -0.08594398179534353, 0.11087147429779332, -0.06276831864311662, -0.057128943691078606, 0.05008641926011716, -0.022367747450035863, -0.11365904604038284, -0.18006563824722802, 0.22350602183146442, 0.07588986554638502, -0.04453794215896205, 0.022910876671320156, 0.16326178414020656, -0.06573221435558892], [-0.13554372375855464, 0.06571121872292937, 0.03457441986696768, 0.007596603936493253, -0.13120862390009042, 0.23308504096651547, 0.1331630031761235, 0.13590861409965202, -0.20265961550847605, -0.1340157744635974, -0.20637438607823497, -0.11484309733104874, -0.07778016586895013, 0.1457702414606778, 0.125203061157818, 0.09501594830765046, -0.029835494426590402, 0.02514084501007183, -0.0009474414312148359, -0.07778005098552719, -0.1918358233719093, 0.12231392895858823, 0.051231407230870066, -0.003266795369080266, 0.04315879964541662, -0.1549195332882939, 0.10659905187085272, 0.06753515597265396, -0.01966057197464872, -0.10039473402661694, -0.20665349314868273, 0.17216156073123037, 0.032301429141767195, 0.0928755678512253, 0.13703336329439963, -0.069058731660776, -0.0012998070362097974, 0.18385719116654178, -0.16452876000108116, -0.017853853770399362, 0.04529205525263417, -0.16844879866589635, -0.10905907529072521, -0.08190368769339076, 0.15019313628476538, -0.13841496452141436, -0.2320118914693491, 0.20155790367444423, -0.09518663491119829, -0.12279665015543123, 0.1400176320356628, 0.11969680010752096, -0.06126297081916911, -0.011186300993816433, -0.07488496003468889, 0.128423456416178, -0.22451768425320695, -0.04283258620830663, -0.04486941932702946, -0.13415291968967716, 0.13882301289395918, -0.07219699022586208, 0.013243897361905862, -0.009630306124934264], [-0.14440069248036033, -0.026050620739184, 0.06976094162613097, 0.08827791645124484, 0.1254792436602143, 0.07376933975351936, -0.17739552890466212, -0.13831143381429664, -0.15280172447240797, -0.14305312856130045, 0.08505728939220301, -0.10985148914505366, 0.00014315011248921907, 0.0007941177957159141, -0.04168515832878977, 0.19673791041812008, -0.015696789555314897, -0.14775731844165438, -0.1233139811193187, -0.020450164218826148, -0.1640836751915524, 0.03832753079619, 0.01672283275014788, 0.12293806828985121, 0.08636146621441612, 0.16056193481813866, 0.08158921716394914, 0.12115295496201735, 0.022478270664347155, -0.001954873213945579, 0.11776371008426063, 0.1655298170406219, -0.007878597521709475, 0.15656957572672014, -0.004249319335378271, 0.07810238758525756, -0.08873329919086226, 0.15101286339946768, -0.1923230128358462, 0.07905015846388451, 0.1277051633582231, -0.14422547229138014, -0.1713582148924154, -0.21886448343764126, -0.07697164296511207, -0.019704554807169525, 0.15199267753709206, 0.17387237872155792, 0.07389588480637284, 0.05966908070017121, 0.18039954208002196, 0.06799319992623584, -0.15502052708515496, -0.11577728510457556, -0.08342915571962882, 0.1213509202047393, 0.11115026493331345, 0.06750728987169598, 0.15524039772506043, -0.13561684141459998, 0.02834218768817003, 0.03448944957201224, -0.09489013844350731, 0.3136256644337617], [-0.2713957935140231, -0.10181764257375324, 0.12180564060202587, -0.09411419786975364, -0.19583355499703903, 0.04530193198217401, -0.08019052111505884, -0.12182800130034924, -0.2002832485436328, 0.18496503980731924, 0.032396565905727454, 0.19119638733473496, 0.17095019527659275, -0.13791341077001895, -0.18544767286738992, 0.1687266552850835, 0.031718274123250255, -0.11545336453537346, -0.06627853318429842, -0.012074198622660185, 0.03513687781098954, -0.2491130554562714, -0.12673494196254909, -0.1917743998657022, 0.15101036687902636, -0.04463973178154717, 0.10247798981886296, 0.05948175135637514, -0.15305457564384556, 0.01739536561886789, -0.18144340800493314, -0.11245828922788936, 0.07417145622250983, -0.10882911464202172, 0.08919182975878434, -0.14778454783869258, 0.12351609936697397, 0.057484624540639746, 0.0954091307134987, 0.14399424654850415, -0.015232106336220427, -0.14656169733266222, -0.020271979737700844, -0.22388276910669733, -0.03546028878264676, -0.06013903931165117, -0.1550610869106698, -0.1927047147650374, 0.02941435520997269, -0.21311186859980813, -0.07122011543465945, -0.12246674865325727, -0.2460757015521288, -0.2094042082607399, 0.12594066099885037, 0.04736639834204026, -0.06223280485392782, 0.10712675321822265, -0.16314294673969323, 0.09344748321991289, -0.17892305419808227, 0.01512294136831635, 0.19478010655970993, 0.1906536194114808], [-0.19839596373266244, 0.07672866048684915, -0.02610105984495775, -0.2587890798150117, 0.0852580914319474, 0.044678341442226634, 0.037450255523296394, -0.11086393944948596, -0.12148845256245909, 0.02252459843006455, 0.1683956687279271, -0.12194448006306392, 0.2180125332823302, -0.13219695673209486, -0.11844992973418669, 0.08360811093279782, -0.06501056016028703, 0.18382379007458333, -0.17835874928377707, 0.0328710578926761, 0.12093974302566227, 0.10904425286470085, 0.20891594442296021, -0.08777818763272906, 0.035122633946385595, -0.14705563633033916, -0.19096187834483855, 0.11876404652150448, 0.09333159766828181, 0.11132845537666818, 0.09641406955396302, -0.14208251483510828, 0.1270500382056474, 0.10465243654960409, -0.19712606882837475, 0.005338261058400223, -0.037451797377542555, -0.1819412715366178, 0.1563794851787877, 0.10326817622193589, -0.19007318382195135, -0.05271102920308571, 0.15920141155580195, 0.2331980863466442, -0.09017377836929162, 0.20369149617138074, -0.0625908620664597, -0.23592528259306633, -0.22978423010597449, -0.18296182096259347, 0.014768977831998282, 0.21505218467680642, 0.14534209194377065, 0.21888590285967832, 0.19840808651257014, 0.19468805499115713, 0.11239913130579582, 0.025619119025919308, 0.047250802475144064, 0.1480905811018266, 0.07043391854315455, -0.2403464098157423, 0.04417489404987163, 0.1267322230592985]], "b": [0.020639392244480893, 0.05058518889210191, 0.03827371132529792, 0.009960721776793753, 0.057076700276425, 0.028130260121028903, 0.04121316259955476, -0.031961431581179894, -0.09317956274789961, 0.03216808331411711, -0.03402218268577434, -0.04569315542740271, -0.0012380788378649663, 0.04185968947446517, 0.012439012127712392, 0.06273284174878686, 0.011805327631214337, 0.01967766237190843, -0.023068941899060773, 0.005687367387945242, -0.05029819125019663, -0.02345408727915422, -0.03649639551141127, 0.06253421730202303, 0.04289183491427973, 0.0, 0.04188643829560924, 0.04364961137231262, 0.017516662132794007, 0.020698558222594577, 0.027451620022511676, 0.05520600544536065, 0.04384761384939754, -0.012338037101742782, 0.012586542769471996, -0.009344714919204952, -0.022050760709487967, 0.005812717857466061, 0.008547056070590768, 0.009749359768458638, -0.03973557782081764, -0.009481198370546456, 0.0363922165202832, -0.0075118941846159595, 0.05731299762388463, 0.03858461128816025, -0.027008212101534895, -0.006356138012656177, -0.00136963856556306, -0.05019610293817873, 0.02427508678765177, 0.019843606986362238, -0.0019025619565306618, 0.009438404865564494, 0.0, 0.0031338402584024593, -0.02672775138966667, 0.030035438801298813, 0.03230894568630871, -0.023197119467975428, 0.03386070555114666, 0.017922915829312352, -0.017531749318588127, 0.015688668888529142]}, {"w": [[-0.27519098964282634, -0.27717963721351985, 0.28260141396999366, -0.24408428304158392, -0.37709212674551523, -0.038556952334357006, 0.0758770897192869, 0.261880775995171, 0.1778223118810444, -0.3553977035795699, 0.0522308293262863, 0.18207661573564646, 0.39259281951238006, 0.18290671484671223, 0.27242824574636415, -0.15887474126126128, 0.07416370641262789, -0.37383161136233084, 0.17458780060543652, 0.11583171674271832, 0.20583048684432403, 0.3281857158969661, 0.27923179314672514, -0.3250713556752525, -0.3352404596553142, -0.09765046815347184, 0.1639723175067036, -0.43101813379788595, 0.20319993460108826, 0.07354717728440086, 0.2858521130489071, -0.09097393051830556, -0.24882013567621633, -0.2227991336452434, -0.2296767561329306, -0.09137865673551009, -0.10728887598729764, -0.07160323307574648, -0.06320871308594457, 0.30888066187561614, 0.302243995891172, -0.23474093363204454, -0.24279964946488214, 0.025378225707029058, -0.1983948727145518, -0.12432510930475096, 0.30851507767652114, 0.3115619472546239, -0.3447555650391468, 0.14944641934066516, 0.32500304369234784, -0.18079818806173487, 0.06200167828033124, -0.147870941942848, -0.19988560508763162, 0.18810585079879077, 0.21970391239065343, 0.2810547775192742, -0.028454108890253245, -0.10272508364016858, -0.09235108766174045, -0.014832861000776685, 0.07738760679202203, 0.12199212188293232]], "b": [-0.021937428246452565]}]}