{"algorithm": "reinforce", "env": "cartpole", "checkpoint_pct": 0, "architecture": {"input_dim": 4, "hidden_layers": [64, 64], "output_dim": 2, "activation": "relu", "output_activation": "softmax"}, "layers": [{"w": [[0.0889046919352223, -0.09341224466100138, 0.4528471989539067, 0.07417558418617766], [-0.37877544623616877, 0.2556863153700187, 0.9220672745790841, 0.6696873713613738], [-0.4976159573990386, -0.8947881032357202, -0.4407215990005625, 0.029221880235611165], [-1.6440450272145315, -0.15470906923379127, -0.8809920795571974, -0.5177912121523456], [-0.38484921750009676, -0.22365798545899454, 0.29106674361360513, 0.7371682730105539], [-0.09088773178525388, 0.9662355862693871, -0.4703636644315558, 0.2485551542181329], [0.6388498920458358, 0.06647673326164329, -0.5257333610251858, -0.6517582639440505], [-0.323661035253587, 0.15570146498988105, -0.7139078639894846, -0.14790946745038272], [-0.11258908424502247, 0.3824355805061378, 0.1517869211677875, 0.25128645241076236], [-0.4623266434534784, -0.09165067931838647, 0.5543543711642773, 1.0560152900207915], [-0.8902937757090722, 1.0705057673175264, 0.951677638788786, 0.5524705896536322], [0.18699836952881335, -0.221976950927875, 1.0309763124392288, 1.3861119484390954], [1.2739482337044803, 0.9299187900076311, 0.2527061118401809, -0.8544102987207779], [-0.003149547733518446, 0.46419787827147563, -0.9110091276367364, 0.27939348815109716], [0.30395953359470346, 0.4921765301097006, -0.8372978440188353, -0.4678943758173816], [-0.30860632280379857, -0.8271748616311525, 1.2299188208967673, -0.3506618389446061], [0.23261665579573476, -0.1828384003332786, 1.1196844104259647, 0.933636207579732], [0.44784793448178334, -1.5581167790168067, 0.036790040517346086, 0.48343914170168717], [0.7099080383287305, -0.43692626145568375, 1.288356590408404, -0.9336856929851307], [-0.4677709501704638, 0.6611801873438257, 0.03468685008436524, 1.415905374493211], [0.13330319940937663, -0.44773583498216996, -0.26697771487868127, -0.7715568190339074], [-0.9034563098395268, 0.4457682400601374, 0.410946286950884, 0.9153913198716653], [-0.5335868721225377, 1.1943793337756552, -0.20321379702116607, 1.1132747703272483], [-0.30602580734437906, -0.5200652234646307, 0.17662493007033472, 0.7293474707869875], [0.11385096353139586, -0.4140314021177967, -0.9483855548846951, -0.9910244479381408], [0.35545045193269675, 0.6998327972651, -0.1161738205576244, -0.75969067672185], [0.6173340263805096, -0.9053752408978681, -0.504215285464185, 0.4391259354761179], [-1.5910900824616503, 0.27320456248345226, -0.41128217964017505, 0.07727241513257666], [-0.053529062536915265, 0.14291645931100078, 0.4908536837549244, -0.536248393507018], [1.00478602392093, 0.5134258419423985, 0.5966090870232202, 0.8236832202035664], [0.5569089723508743, 0.5968537588921162, 0.05345275477067032, -1.0088814652544844], [-0.09549130600218823, -0.5441290202912747, -1.0060303523945902, 0.18275372107116242], [-0.40202517446770814, -0.7281817014139077, -0.7375131365034973, 0.1897995372484636], [0.2536193674797473, 0.9351186447029315, -0.009839156471349688, 0.7366919586491464], [0.99155096803023, 0.8132899208091866, -1.6725224316954788, 0.8688105897822469], [0.24014761085924644, 0.2996515972751991, 0.26249742444367985, 0.27065018357516124], [0.22585996114787202, -0.25379003432575814, -1.3446592148253695, -0.0770143426744267], [-0.5683242403445694, 0.7637908737951409, -0.20418875456887728, 0.059025990365228556], [-0.600762132548409, -0.36106460967697557, -0.008155106126428271, -1.0503188653989703], [0.2126164833195679, -0.07500440970864283, -0.8384305147063917, -1.6958067219872088], [0.36278264296899215, -0.21042369190971055, -0.3747725430724816, -0.1669865401776144], [1.2844424556592713, -0.035214602931735145, 0.061249068240579074, -1.0515193102660132], [1.1648446247339144, 0.6487619747506314, 0.7544368795437294, 0.03370971151746222], [0.6481728171849944, 0.26229902255494547, 0.4335901551036292, -0.10761667293934427], [-1.0421961627695953, 0.7275098861848935, -1.3682230803689817, -0.1696608473018847], [-0.14461923845254718, -0.7374134775193023, 0.4335435274059597, -0.14165449033978206], [-0.30891255551545044, 0.36758361311804305, -0.3369922713502331, 0.9821571591404882], [0.24851626765448434, -0.3354040715311014, -1.3748029489428784, -0.9247211536471878], [0.7685054179120069, -0.03578247618162224, -0.20019965386588567, 1.1619543596267519], [-0.9069699783684527, -0.41412260172261894, -0.3341699509411203, 0.41460306783326834], [-0.46919023827675216, -0.4337519204558424, -1.1350120233549608, 0.5157279094353935], [0.5700266069873454, -0.3368492284869527, 0.11549878313089365, -0.9140388390776288], [-0.33362228117030973, 0.9743584628125584, 0.09597612247429867, 1.6336736885191692], [-0.5566293260801597, 0.4103230460826383, -0.13824349662227636, 0.4000936364085159], [-0.005099201316281828, -0.39682698945939326, -0.6134976975230066, 2.168015369548564], [-0.054691216222271674, -1.4259944494162713, -0.458629888130165, 0.47944648896325465], [-0.3535593537553962, 0.9619807352168126, 0.7088026161776456, -0.10771968242802506], [-0.33390709532133894, -0.710501605812356, -0.49495108867345233, -1.0416694577540642], [0.851636784978974, 1.1247953134156172, -0.8882237472110602, -0.8355760453205964], [-1.2505267267549736, -0.6815478626260635, -2.1965118168367446, -0.8077131962411246], [0.9170576738242129, -0.24442738965422986, 0.6042823075599622, -0.34575334083314785], [1.2449797851172264, 0.14086838672340474, -0.2701164112034597, 1.804836336803356], [-0.22943624988362096, -0.8635353119347017, 0.14277193157538284, -0.027460519112059222], [0.7540053224895756, -0.651693597783973, 0.5690207991847831, 0.6029842261895385]], "b": [0.0, 0.0, 0.0, 0.0, 0.0, 0.0, 0.0, 0.0, 0.0, 0.0, 0.0, 0.0, 0.0, 0.0, 0.0, 0.0, 0.0, 0.0, 0.0, 0.0, 0.0, 0.0, 0.0, 0.0, 0.0, 0.0, 0.0, 0.0, 0.0, 0.0, 0.0, 0.0, 0.0, 0.0, 0.0, 0.0, 0.0, 0.0, 0.0, 0.0, 0.0, 0.0, 0.0, 0.0, 0.0, 0.0, 0.0, 0.0, 0.0, 0.0, 0.0, 0.0, 0.0, 0.0, 0.0, 0.0, 0.0, 0.0, 0.0, 0.0, 0.0, 0.0, 0.0, 0.0]}, {"w": [[-0.11803155295984259, 0.028857735858640238, -0.14685758554392406, 0.4146841990937224, -0.12447546484750835, -0.08009300287511756, -0.18841532324418966, -0.06118617519697149, -0.0010387445809535419, 0.13572722603089596, -0.10791981181422194, -0.03284050648613692, -0.2504023091175014, -0.14626543132879946, 0.48716255302551675, 0.1840675304279286, -0.1381375597130572, -0.23642066465620945, -0.17246030878154628, -0.003834438462981709, 0.006139063661098682, -0.13158560714157547, -0.22743638248291362, 0.25144337161879043, 0.07984746139351709, -0.06621489666302562, -0.03900775909789221, -0.09360864462314664, -0.5190244111876455, 0.02044631556540543, -0.18924730291430641, -0.1772512168088467, -0.11318347214758592, 0.1294538770867237, -0.20692256805321105, -0.25354753656642787, 0.11311093532766832, 0.13335484199672362, -0.16951713187241343, 0.09941880283435377, -0.051553817290046294, 0.05326143528986922, -0.22290839121030687, 0.14723632828892053, 0.21270814149480216, 0.11261970125593238, 0.09870149328051826, -0.6668503358489819, 0.04607326573604535, -0.004498138995684197, -0.02599421875851376, -0.11147149319387276, 0.009787237300399263, 0.0728527529528121, -0.0466315992787504, -0.08190491026906827, 0.21739181472628955, -0.1954031443126391, 0.18210743151395817, 0.03125632302553862, -0.14218249398145658, -0.05126204128298612, -0.1626334287991869, 0.1193356746764364], [0.06150092376901714, -0.0984285877973868, -0.1948465084022858, 0.05333637392693035, 0.16924346370208196, -0.02012361364836236, 0.07395497257628021, -0.06647283701599448, 0.011944660942164204, -0.051492030472559354, 0.05197979831305822, -0.26689259550415445, 0.11387787183088478, -0.04064670423918875, 0.06339354910577112, -0.060158899709453685, 0.05663239235885409, -0.18960410801200478, 0.2102147872371241, -0.30114698249299354, -0.18371320330065827, 0.04166026896676397, 0.25859642491511, 0.049166248508698725, -0.04382443746033095, -0.25192272602235516, -0.03381325662532255, -0.0035137923243960946, 0.2988531382952108, 0.10997724073615804, -0.27030798523148447, 0.3582873105533993, -0.06982854040021262, -0.15546798201195222, 0.2607142745845456, -0.008795658877269635, -0.06494821736145454, 0.038676264101176756, 0.14935664648802513, 0.17559869154111366, -0.24310373564532706, 0.3532849499262004, 0.16738306242919246, -0.06703391059565994, -0.14471998312399134, -0.1712988152107969, 0.02181043246557996, -0.11455417898521549, -0.13521189190178567, 0.143410872750422, 0.06444701025469024, -0.06975100312317897, 0.12979786358314976, 0.2417206747775715, -0.19348144116102353, -0.10664794557794809, 0.1666335738285043, 0.12709193733947957, 0.04007507466863499, 0.20548897607937622, -0.19237047325671303, -0.26147709814228204, -0.15317830706963229, 0.021662940236976517], [-0.14072958927066948, -0.08612881558127689, -0.17235729896837865, -0.1096774138472062, -0.1776229640498797, 0.0649594614849035, 0.14051821611888782, -0.08493164545671726, -0.03663976237133514, -0.10271301802835993, 0.09391283427248655, 0.015743032224528577, 0.2818097886261196, -0.19365392642665955, 0.06408199384376519, 0.07848733236966657, -0.06371742227992569, 0.10315523463152813, -0.25429727999789364, 0.374554997756828, -0.23724218339315892, 0.1626004878325312, -0.1981883622049883, 0.20344929893412536, -0.06801908085991966, 0.028005477987421618, 0.009429932848547661, 0.19458413571881755, -0.056842095617326636, -0.5245289305889762, -0.1343606811387509, 0.03247605736093232, -0.07786451364020693, 0.1360863860669343, 0.1794861509938283, -0.026122612212091202, -0.2633345899827958, 0.2446881338917483, 0.191458618578339, -0.052890019977776835, 0.3726962580982072, -0.06167305090527494, -0.20101626633219608, -0.02755479050304202, 0.19053588230640559, -0.16571992156712162, 0.3449311210234102, -0.15848494145885175, 0.1687196159361691, 0.09624825922499852, -0.02723369788016863, 0.19101304913675637, -0.2651294735060179, 0.23998705412199925, -0.011257852184534562, -0.09588991088327742, 0.13243651241452944, 0.1873654449722395, 0.13608189228009446, 0.3534656777173308, 0.19104718424503825, 0.2268940608705946, -0.09543536272389548, 0.01883092127954128], [0.09952220041307273, -0.003136413971578947, 0.053322079705395126, 0.07532539240741537, 0.14924264979202775, -0.01796208392308178, -0.061836349314333246, -0.14642690330776684, -0.15763749370461355, 0.2072620533667689, -0.014941429330627885, 0.13911342707144345, -0.2293436933538055, -0.3426229530331465, -0.18545488088085424, 0.20269692605433456, 0.18881120013447472, 0.05869668780698756, -0.14180498821088464, -0.023122858712082254, -0.05263711360879626, -0.06098324808815306, -0.44301474402323787, -0.15166139131818418, -0.03360681878966472, 0.2680690933389651, 0.02841562678518167, 0.24764440172530822, -0.06959820624594941, -0.04466945233218322, -0.6893268870069006, 0.08190600619568661, 0.09671376302269545, 0.31179149961617725, -0.086048038242546, 0.016644260580957245, -0.12472090027498837, -0.207934836755929, -0.12606086974946357, -0.060987698970102686, 0.23960985538763782, 0.0003909597942313196, -0.13974989893699585, 0.025080693612437425, 0.03846154522711244, -0.11954206810890396, 0.20209706246756895, -0.3338160765139214, -0.03774971365085976, 0.11756818123587424, -0.23660367767066998, 0.06386124384869807, 0.22855336078524977, 0.0801985068463941, -0.2987808892422133, -0.1287279104814471, 0.21784252309750501, 0.052738718713155004, -0.0017428305653906608, 0.07799398309671518, 0.12746465052914874, -0.1252401432583432, -0.051335966469175785, 0.025263802700881677], [-0.09615904843865083, -0.023591125500401548, 0.2294334808605787, -0.1710879973226999, 0.3405890666721757, 0.33222428835790313, -0.3028961614342577, -0.024929520700604436, 0.06057988318798047, -0.1345042763961447, -0.13100576239015346, -0.04196956228028164, 0.13066945947526945, -0.09039190624241011, 0.32291689533702156, 0.051260645855344955, -0.018132919739363693, 0.2561953377641837, 0.11071191998919754, 0.06528129582279975, -0.058537902545260034, 0.3206703821396014, 0.14351113780469701, -0.035958383754180256, -0.2788120536823508, 0.0659291410584582, -0.2021865937599902, -0.30333925465947825, -0.049347480623672405, 0.049757531337470864, 0.22671279427046373, 0.04993090025442936, 0.14248546835780312, -0.21670749345065055, -0.0039831638705521005, 0.021957666545085765, 0.1524250310492417, 0.02051682230303743, 0.14214242097399404, -0.08913067679309195, 0.06327808538557944, 0.07333871140336545, -0.22093122245438798, 0.031031138655091686, -0.05663262881134946, -0.3365983751104951, 0.1694239656656173, -0.06396818166859657, -0.1506826975791979, -0.0667008070302807, 0.024430592879553646, 0.26656325544934323, -0.02933312326742247, 0.08351063614568152, 0.24281682297560003, 0.09431929969234598, 0.18889724046092926, -0.08423583814161649, 0.13630355184476742, -0.010248805698837845, 0.18993086795290728, -0.17740594467007795, -0.13780764341112353, 0.22428217464136227], [-0.034663076671449494, -0.06345587686595974, 0.013712995938900175, -0.12188708192627262, 0.2354561934577124, -0.22082284545125042, -0.026622216468440728, 0.06133316688042586, -0.018463807703006454, -0.14182574094778472, -0.15351097243321166, 0.07519982079421555, -0.18216492854826014, 0.1142406498758619, -0.2694339108669915, -0.09810807778306925, 0.006418058653889479, -0.22135128257140055, 0.11526032575173749, -0.003277230151575162, -0.18315368151521938, -0.26850404178023385, -0.2767597152627946, 0.0090216121680894, -0.20450060334687659, -0.24127890529527607, -0.040875356743186333, 0.40260901631987533, 0.0490626678702854, 0.13486627016580138, 0.037603646282335576, 0.13841299980087826, -0.23742677311961427, -0.0761044833762894, 0.04620073879992424, -0.003167275532435811, -0.033939926970775317, -0.11771137285403625, -0.04567611101654058, -0.13686013281335724, -0.42812363692720296, -0.21116125482864906, 0.0840843546423567, 0.2752550953228736, 0.32059870934210993, 0.017103453513477085, 0.15792940458458912, 0.1605093344577866, -0.1223752908129452, -0.3001561920413575, 0.005460158242115688, -0.3115160687406203, -0.05655609970568641, 0.10750092895604267, -0.25103519119790524, 0.0057090712447708655, 0.21920630453230058, 0.06390698046593725, 0.09233430414024714, 0.16029057384642917, 0.3063474849624574, 0.02676807197865754, 0.21734709914851605, -0.011343622003904782], [-0.09654991826641014, 0.05565301061907605, -0.10709359323621143, -0.10131588874116661, -0.10743438024707506, -0.40577750359029446, 0.018649849016361644, -0.22341663809154688, -0.01896268065911425, 0.2563206892974026, -0.09210071536738684, -0.09581458785085627, 0.24110739367629752, 0.09657412784027831, 0.1726272331376174, -0.06280721021208485, 0.13224367817821311, -0.12129861560749527, -0.11950135107026318, 0.10540209309062022, -0.1057784317717607, 0.13560868097543638, 0.42279408836526366, -0.29807247324758157, -0.1329722037983822, 0.19801574027529362, -0.02564643936269744, 0.20525362658879945, -0.17855582424163502, 0.058573928758674274, -0.026614848320752636, 0.024814272505949517, 0.05853359560838534, -0.21566869303119027, -0.18988247495605576, 0.24735373145259745, 0.05183335094894255, 0.018799553296281305, -0.007791383809739906, 0.06302840465407282, -0.2043426767640646, -0.17660475024348518, 0.2306066569283615, 0.02674193379840712, 0.15031337845240333, -0.1070672816036621, 0.2433729630709234, 0.061037175449677294, 0.0850730455523528, 0.09700255893370789, -0.14089265945709137, -0.3298159685778508, -0.19000006358331578, 0.2882384423343905, 0.22993061389856453, -0.06132761295893406, -0.0533293441426772, 0.18324776130282536, -0.02977094076070608, -0.2296788661732567, 0.2237185256646351, 0.08435405206997365, -0.4448302190620088, -0.05536471185517671], [0.025397543749201543, 0.08507322370944473, 0.026896784431963843, -0.11238433397867253, -0.020463501254319012, 0.05211382597846752, -0.047376876580842824, -0.06574338020810418, 0.22133926091116332, -0.16733817834429734, -0.061776997549702, -0.3590810233852793, 0.09563088239368302, 0.1464178540433864, 0.0969596896801439, 0.16222310969804046, 0.07790668193424073, 0.06054873890097982, 0.0837827962476748, -0.04725390122562622, 0.21006867247870795, -0.0616194177259271, -0.2585097406896099, 0.15022193893270389, 0.3271611214161219, -0.16973234185356476, -0.017966015228689427, -0.1211701734722148, -0.06727824924279578, 0.008148163227609091, -0.2195227944740848, -0.04908269844360983, -0.25914886997732645, -0.10044940401150837, -0.20966947382335685, -0.18721725056910907, -0.30404012633214594, 0.2155534745909448, 0.08998978271098856, -0.338962956952366, -0.1055052097376262, -0.11851792009016957, -0.12214281961226048, -0.2557752858289252, 0.13335781480248501, -0.06997949178972077, 0.0827578171262806, 0.09311814339457232, 0.24314667675843213, -0.320827123644913, 0.30734433569345887, 0.22429697106038893, 0.1013047123119587, 0.42136355721875085, 0.03623543914811401, 0.1452183280387565, -0.13053438336938264, 0.20052795386298317, 0.029667720312481875, -0.07976167052501577, 0.3742255156221924, -0.05388147742505176, 0.0015664762105745966, -0.03487449890437454], [-0.13358500677373678, 0.09391657926808035, 0.1305336095231714, 0.06264480435756764, -0.41729522404731617, 0.17819037913404578, -0.06191397804787398, -0.21501763316572162, 0.10664601427641703, 0.09949866048331904, -0.18439112204012278, 0.43706900863751796, -0.21383378394170166, -0.30635449102121864, -0.20403061054682234, 0.25116430090408637, -0.03108737081555467, -0.06577095174081572, -0.010988036529119543, -0.10546743500945645, -0.12202248509213609, -0.11335195596792659, 0.12515003785557158, 0.18039281916503833, -0.18651577633937735, 0.042289930266430034, 0.13933667131689248, -0.19122853476438553, -0.08884206130329304, -0.18350555211917338, -0.22822375936821915, 0.018006981318131405, -0.1301310479046163, 0.11156891468454957, -0.005201110249206731, 0.07294290024213045, -0.05166880738461656, -0.1122527388161017, -0.01602889717636227, -0.0008831993995680604, -0.12477880167762147, 0.07541213478293979, 0.1319805713649887, 0.027945338231953217, 0.30290525669020396, -0.11178280043320171, 0.09202931439285696, -0.07225478729025746, 0.04147702827880248, -0.1467157015149472, 0.197127825498568, 0.031116394022888707, 0.21076104262013715, -0.22381619200059313, -0.08724198776114132, -0.15778483250795547, -0.09403492503616034, -0.12243725339891441, -0.02130882801127669, -0.003048893071514154, -0.007245168938238127, -0.09820367451780775, 0.0331324035625431, 0.15478841365047988], [-0.15950129280242442, 0.00015708819119769916, -0.013094007006195786, 0.08279418446494188, -0.011288709582626266, -0.002769172211995999, -0.17520263710472442, 0.003836732944213462, -0.16296769346352438, 0.09116449274088251, -0.018246702095212012, 0.007046039345673694, -0.15754168797441884, 0.14208560880171422, 0.12238496492892657, 0.1522973530963993, 0.3937499505335586, -0.009284202840790269, 0.21273357642470542, -0.021889870405452556, 0.06966544981703594, 0.06458314312158904, 0.046773657529220865, 0.11636435189742601, -0.053728868896793645, 0.007235873468924854, 0.09463027041749351, 0.3089798363101427, -0.14890902820379381, -0.3192821558987466, -0.08557503336613952, 0.01589725119554848, 0.030931872289159966, 0.016301955418952047, 0.209089729116659, 0.17254285681330153, -0.008709417421478915, -0.08300498864617589, -0.061166306594085416, -0.06298627068473105, -0.0398807294439984, -0.2780079691259709, -0.08150125905824682, -0.07510888606226561, -0.033389650390039605, -0.04495431580952313, 0.118795201712655, -0.09403518855214028, -0.07753031668974646, 0.09580214210339104, -0.04159818096167992, 0.038264151293114765, 0.11832295279945902, 0.07459437280285602, 0.0442228908419842, -0.03472628938485509, 0.12054298608708137, 0.031033138476345482, -0.08924620094411156, -0.026659549698057557, -0.2153368857668271, -0.16998068745242964, -0.33285426028918763, -0.12019602266894637], [0.2360933060544612, -0.09837425810346626, 0.13921886305862868, -0.0006098538287620305, -0.12384070584006969, 0.23657663006749724, 0.10292042589313426, -0.3096775147489984, 0.1840956390700963, -0.18999808865849765, -0.03145103952405995, 0.11810688276860738, -0.053007050804974726, 0.19780323237382622, 0.13457369183260726, -0.27875485931575433, -0.08351534891961812, 0.04986406238885803, -0.10164636667395838, -0.03823264603300426, 0.14138333358345248, 0.05599955252725167, -0.16274399066185447, 0.03086633695207992, -0.10823500272520094, -0.21481768941418855, -0.19976753866399716, 0.05072705154577184, -0.004969848038083174, 0.0009602171664424784, -0.20262304760199037, -0.03251445801420119, -0.1833470621666029, -0.16376484044109127, -0.029190562370465127, -0.24455119228936043, 0.11831085561859199, 0.4396229320379026, 0.08110925769952627, -0.1843609704261147, -0.04793927900401883, -0.2749651794054647, -0.06675377597471367, 0.08968128100788673, 0.10418949122450188, -0.18238807442334515, 0.05288198003571837, 0.2044259890749734, 0.31025929035675454, -0.12388420344427231, -0.1527704222106894, 0.009619457514797876, -0.5176181042371977, -0.093874435813604, -0.047902059583103965, -0.0812009585679367, -0.27999187504338685, -0.043407713350876447, -0.13728630539232492, 0.13390535181741614, -0.16236494293717796, -0.049912038972292336, -0.041179764378639724, 0.10033340020656373], [-0.4500566017932204, -0.0602145504856461, 0.13428225578586206, -0.06393805130457866, -0.2699268708443322, 0.05773494563931267, 0.05951839863537611, -0.04781622082301323, -0.20502485235425766, -0.1309341045146333, -0.05546483877759127, -0.15477380486457687, -0.33944278280198864, -0.1359919780503794, -0.010914888690532606, -0.08963640301269137, -0.013359516757071184, 0.014788781056261243, 0.15849365403833324, 0.3895847455587736, 0.12936144504555203, -0.24825255956963124, -0.46968594736919805, -0.016698710007914706, 0.012619811667300694, -0.20539212335881507, 0.04808894222906404, -0.13557704583561056, 0.07118262465711765, -0.0575440268769589, 0.07026212329234131, -0.30815628567093784, -0.07751072517709742, -0.026268310958494277, -0.25188464511486985, 0.332753536719749, -0.09559613669453308, 0.2457146088098532, -0.1174401994146587, -0.04065354087948082, 0.2092862675074681, 0.05370950560641668, 0.03395073336158426, 0.04701260390438413, -0.2415048746153323, -0.06886397571107437, -0.16907730192403733, 0.034898133062563924, -0.09616619174028003, -0.007788625896398548, -0.013663523904275606, -0.006429436450174922, -0.006142481382589616, -0.11532524573037033, -0.18632313103190093, -0.1174427128670041, 0.18942300674262613, 0.06614308765307651, 0.10376002893210237, 0.24394616785966858, -0.20849590269698037, 0.09014770382807409, -0.19004804751673027, -0.059102211957624565], [0.08560231913595955, 0.28537862139214354, -0.1382685337076479, -0.01675776843682145, 0.20439572118349572, -0.26336335596750804, 0.06401312438605883, -0.054496392659497614, -0.15586312331613905, 0.025920912331578394, 0.10516902780378509, -0.16123798176487536, 0.0671733378813569, 0.03064777382865304, -0.21952365241055113, 0.27460719304894926, 0.19266939216578688, -0.15201500868902248, -0.10370266880810788, 0.1362559825218644, -0.08758384528421098, -0.3252193753069927, 0.18541791358595616, 0.0015523509318913493, 0.33711778788291125, 0.06319185671100924, 0.03376302109960702, 0.5081446957294464, -0.030382141446697923, -0.16825884544617548, 0.04051686139691775, 0.20077499842301638, -0.20596608871281796, -0.16056010447625726, 0.07951010907109556, -0.5652161520637629, -0.19316012217927628, 0.14062304725518648, -0.10372194337617015, -0.287524313152846, 0.3403953104505208, -0.24934974370249036, -0.09251883182368902, -0.06589024267756989, 0.014697991199819647, -0.06531990848749658, -0.014312739023526262, 0.0101637016865105, -0.015322372637442586, 0.01648864131537623, -0.42053862144845494, 0.07796995968335983, -0.24827521375631448, -0.3830124333543658, 0.24419011796444334, -0.22724914281015143, 0.031796666136545707, -0.13657086659678475, -0.11993701551199229, 0.08549889165441367, -0.1853017442133269, 0.06588012682992925, 0.06729755787453262, 0.2058472540706947], [-0.059434662034508166, 0.1850113521058327, 0.30417872387227796, 0.28048844984168486, 0.10360474761109263, 0.07940209383498086, 0.50371723135374, 0.3945966893168339, -0.13552007004203204, 0.1632725531793876, 0.1064123637474989, 0.012775203021150105, 0.027102041410366647, 0.08622904019598619, 0.1657031339306141, 0.0386734131732784, 0.06006760994244434, 0.246097964123358, 0.05616553466193327, 0.09634727317961027, 0.17504960405658201, 0.2887227324630086, 0.2169122404577608, 0.06668281277721486, 0.03673692918545893, -0.21630459684571407, 0.051629851366554104, -0.18334744262482874, -0.1810263083245693, 0.11499481845893854, -0.01777970213476509, 0.08347563419576212, -0.1108324679629601, 0.2123448748187128, 0.025415570865934194, 0.20996268856320624, 0.11904858433329038, 0.029212178944417886, -0.08459249434500853, 0.005569805453568363, 0.1463729572952887, 0.12332962869187664, -0.21135150381698953, 0.18131668370949908, -0.03781393899167604, 0.14411962639430478, -0.12329966986035586, 0.11275794982941505, -0.1408188805461418, 0.022867273214762965, -0.052684724331795066, -0.05048257463678413, -0.10015942051923106, -0.027149205101809088, -0.30770364824649465, 0.15496239689754798, 0.17000377677658657, -0.07827210200558284, -0.24390846308825198, -0.11432312753652954, 0.1675161296197282, 0.1105774951578265, -0.05309550991979809, 0.15861727040626886], [-0.18410952631950472, -0.10829982602892176, 0.08389950063254303, -0.016955241460050945, -0.10416137188050725, -0.44408563836284615, 0.11865540546183381, 0.05722647236781141, -0.3081080494000393, 0.10612359089195166, -0.0025391778053810887, 0.04929149047800496, 0.16708813147533674, -0.13079474427252946, 0.12614152367513543, 0.12088947705251833, 0.1346182358027896, 0.2891988561404028, 0.11644896857892505, -0.09927031625210755, 0.31791245466505114, -0.19574705247251975, -0.08179874784639124, -0.17049576822505902, -0.0181657145490481, 0.19131114847222178, 0.22941831265266244, 0.08193907697825116, -0.10772613836319567, -0.09786721978919888, -0.10663101965402294, 0.16844002696537427, -0.16025502613783346, 0.15282809796447583, -0.005761872267997759, 0.03041462001029455, 0.2672365801251335, -0.08402797616713872, 0.29375488970685604, -0.24915838330113393, -0.14579900021474188, -0.27902281612492924, -0.13201363356973525, 0.10303997089266151, 0.13041330612854868, 0.05423072434675493, 0.04721563432349647, -0.20741686544474086, -0.23455294663908538, 0.05372067125722188, 0.23826086334590335, -0.06437053957990825, -0.22425177680760428, -0.2710482558194632, -0.12032336075744117, 0.27922653695926675, -0.036723508927431384, -0.18348419957073994, -0.10774024171103946, -0.0854794820542784, 0.04695426176934622, -0.11667552750448738, -0.15732057702406405, -0.03323702118714631], [0.0828499911657223, 0.12675662767751075, 0.09732123049070944, -0.08087479533553245, -0.29965011352005455, -0.1411590448788109, 0.050218969898604596, -0.2357556385034294, 0.04465719140730557, -0.10429399860006733, -0.1029130198211001, 0.19790274923958812, 0.03866683146347713, 0.2422293579420822, -0.16603803925954033, 0.19988869118067054, 0.16070423068151135, -0.5294466938287277, -0.015604204718102045, 0.2726293344153224, 0.13754241259403407, -0.07801529562257256, -0.041151915959778185, -0.2303486573574222, 0.03646770465736143, -0.3169910346172279, -0.1794825709142606, 0.19784217713686203, -0.003635420494909999, -0.06424525590567724, -0.018722618328189687, 0.48470296238112326, 0.18299711201699723, -0.1371153189363544, 0.2946425127781788, -0.015696875682544426, 0.13076471493451372, -0.10370259280045696, -0.165791082279019, 0.1417594701733258, -0.1359212586103792, -0.1381188344331588, 0.15871618032933632, -0.20542672277598184, -0.25089067866210335, 0.0963529149436555, -0.34646139678579907, -0.13288757735545664, -0.0646377113275175, -0.23781892384053677, -0.19752860372983294, 0.11771081577622453, 0.05169888655842681, -0.16717974807026584, 0.09360070857095265, 0.268573022037292, -0.22670158242967253, 0.010828596979949572, 0.34942589297048016, 0.10803882548383878, 0.1437875342419648, -0.035382327645813956, -0.14106139577649954, 0.20212146971613462], [0.11556333526194242, -0.009108098417035726, -0.08226051163773357, -0.3089570901664908, 0.02756058795981816, -0.1222786966140803, -0.023308761825157766, 0.1186128110537103, 0.14495736844858442, 0.1271026152230167, 0.3986428203285658, 0.205965803217345, -0.13188923434604183, -0.14465670979958667, 0.41156279124531103, -0.1172606061668358, -0.007802099998797794, 0.3084504232918737, 0.3032278716831919, -0.009657669572727214, 0.04276989840432765, -0.2890492188706109, -0.16057488145528914, -0.06456930194771324, -0.001000586057025598, -0.057155525279105855, 0.026922026776524798, 0.3876185273983642, 0.0820846428809257, 0.05457223646560762, 0.00032285715892017933, -0.03038925830821949, 0.2179558719089128, -0.17523191989690137, -0.022199533438098887, -0.19370787769240222, 0.015402500768198563, 0.021045322538460687, 0.162724098503275, 0.21171866341155238, 0.11721432160986991, 0.2867776356861112, 0.2808103581801413, 0.055748066707469374, 0.06599902457427383, -0.34228947862242576, 0.05661153542294142, -0.0009000680684500947, -0.2984866035809583, -0.07625899710612288, 0.16925024484376586, -0.218986431624608, 0.22856363407290062, 0.08393345449559445, -0.04037369183836378, -0.025160147477989423, 0.14671177082634268, -0.2530371503984009, 0.3607591516221353, -0.1437936163208501, -0.135284242477303, 0.21580336762235477, 0.1396628408947649, 0.2342983639305795], [0.1849050775805902, 0.06653802841603901, -0.2256349713690477, -0.083587076700995, 0.035079455094593114, -0.0030374780226807155, -0.36288416320198286, 0.18462652797687135, 0.30602564351499867, 0.25881791082443756, -0.17993386104445164, 0.07706876658129654, -0.37591530394755074, 0.29875582213112467, -0.3429250293929505, 0.07256838255715012, 0.2055169953737857, 0.22827558815866839, 0.06080597087043119, -0.2520217043305779, -0.01788552233838528, -0.047432453153451196, 0.06511731481856767, 0.1746104708468289, 0.11703339932573008, 0.3750523637514474, 0.11685838559152142, -0.06873387419178667, 0.2881423986319691, -0.0556012318989634, 0.049826899991224013, 0.031957324405136545, -0.40538986107270175, 0.048935316558513645, 0.051166238466647085, -0.0370709666050172, -0.02497624457477853, -0.2270526050122475, 0.01457759121960823, 0.2656822007632117, -0.03133712840964411, -0.0922996648768922, -0.10743230566080723, 0.35657413453216263, -0.23957546528597173, 0.1493674275614719, 0.01969501073086295, 0.3395697217458551, 0.23180116776063348, -0.015612568764687303, -0.272495731654126, 0.25272700695801, 0.25774814116435757, -0.1953209232176361, 0.13173991486027858, -0.14155686421145733, -0.13721235728041956, -0.2844891079844342, 0.16491590314228566, 0.04792918716681443, 0.08741602821969423, 0.2567637193157478, 0.11819725365091102, 0.1033370723469842], [0.1324541602134966, -0.18819149252447243, -0.006092632600315874, -0.21323893129374774, -0.15908366574742755, -0.01623101770781028, 0.18771698391733824, 0.36384427159028415, -0.19183686109464598, 0.030640778198242697, -0.012535312574564219, 0.09320297097458431, 0.1029564943026825, 0.06406761572979386, -0.17097427294229256, 0.06976941698440331, 0.1577425674627988, -0.09075553475548215, 0.34969345794405965, -0.0415271759861913, -0.11205171104620039, 0.05239290696494916, -0.04553581774936324, -0.24168429197697072, -0.004623910281109961, 0.28208300417879717, 0.35400104530173004, -0.10023971548172847, 0.16003145276777297, 0.02342811905839258, 0.05018454022883488, 0.22404169478601432, 0.1506263889272918, 0.027280253115119533, -0.16418034559913008, -0.1986936187487441, -0.011316910004011253, 0.05720729458354386, 0.08894906427971477, 0.13823395811299616, 0.1731678218306572, -0.42480795699663154, 0.1597071964706712, -0.18516435643971518, 0.19694136097937195, 0.059510871783996826, 0.11146828077524144, -0.09562306616837733, 0.04996616651231594, -0.3300796692009262, 0.19361407743585707, -0.05848457889303135, -0.45768905837774093, 0.18764555472760808, 0.2964145181578353, -0.15487928056174158, 0.2143788459640042, -0.13253929092828792, -0.4006680267811561, -0.0632670488746361, 0.05765332419908127, 0.02360872730454139, 0.018313703151170545, 0.05240065320560767], [0.03828199456302466, -0.03819053734277278, -0.10631021175899497, -0.04698739543635434, -0.06216751407190416, -0.053549660301409834, -0.19497646264872925, -0.09591804218145847, 0.014535673920269988, 0.05469805244923158, -0.011318825745674607, -0.03246679269698589, 0.09447828245179245, 0.14397907824620546, 0.12022227349440932, -0.3093431451916802, -0.08050500705321031, 0.1247432859170178, 0.09111023564436373, 0.12017467152627205, 0.05557002074918838, -0.1508854152266729, 0.21612091781408632, -0.24034362814549687, 0.1742590049075767, -0.0028947415857619187, -0.2603309470840287, -0.0700316435745502, 0.21279525570684185, -0.10401570269966008, -0.21400629102702448, -0.05105139199665952, -0.14461658767590949, -0.22107693146607327, 0.07734647790620264, 0.14109826281443075, -0.09753325662237664, 0.09256433002350613, -0.06841735668799537, -0.017627134226724666, 0.021814670406903637, 0.2639777295881394, 0.08972457885362257, -0.1766199135552314, 0.09118658763327425, -0.03910093145082908, -0.0824416519038756, -0.1484502376202015, -0.004642202432346462, -0.010630013190118724, -0.07109646931076037, -0.24592243016038454, -0.30178827627081184, 0.022624675547569403, 0.031502447402147984, 0.38592627475737845, -0.03158345636696048, 0.18056397321236814, 0.21128416423783195, -0.010795179210552158, 0.013576627583160448, -0.07598635536991814, 0.31380677890783465, -0.2666556543136932], [-0.007008515137412306, 0.24468068878172974, -0.01903532574544174, -0.1009284444317914, 0.04116822295113916, 0.09315919934296606, 0.1003107113352618, 0.04978797446667995, 0.1325986293115205, 0.16717790741798436, -0.19567110333070384, -0.0669792447421905, 0.15374115858180426, 0.08637663318343515, 0.04147183187005381, 0.11887859620540576, 0.1683185906347687, -0.15168272351082415, -0.21689517849145137, -0.2039439960448513, 0.3285702701820504, -0.1863991057119001, -0.0414695362826534, -0.03278824076145519, 0.18226740865765878, -0.3072946592281324, -0.006941704562554305, 0.2146755587626576, 0.19708829554706092, 0.07235682172175965, -0.046127949540745436, 0.310717471073741, -0.29556129657557345, 0.17341533508661267, 0.08983400777763803, 0.10448151186867041, 0.04698880659069465, 0.036271068406157576, 0.16454162591969596, -0.2038314472666662, -0.22036133344906145, 0.028717946084327695, 0.009219044610690662, 0.02893130265012458, 0.28115148691481984, -0.10240839307670448, 0.13281564770882776, 0.06796139458156913, 0.41835308069902094, -0.24787392244103673, -0.09652133398712634, -0.08074983266076415, 0.23345181586084518, -0.14494249536470863, 0.29308568444469124, 0.28250830632203305, 0.15302014383199145, 0.07731789099325569, -0.2750960375329186, 0.032199787875865346, -0.25290940788632527, -0.06410389478287287, 0.03590347644445476, -0.05460126164589016], [0.16808027576358878, -0.022835332400732506, -0.2737532472946671, -0.18739341324302528, -0.22519731531547105, -0.05593751647292882, 0.22054392812608536, 0.08940411505069207, 0.06001736240776709, -0.22722547487731293, 0.4188129565478544, -0.0049962684103012165, 0.42725383459350247, -0.15333989670678536, -0.10038202426498351, 0.45955956713933094, -0.19003388311661099, 0.07401743128337662, -0.05978681075412381, -0.14379234532408203, 0.38202850936311167, -0.1775069688070433, 0.15864559382589655, 0.1952167315576335, -0.17886291759528186, -0.33538521715043457, -0.3147756365516208, -0.14134772305287238, 0.039361924301389205, 0.0592983512937273, -0.033419028638273986, -0.018615750027543038, 0.1721888730768215, 0.13579154500438242, 0.06695492025018436, -0.10906540824562264, 0.13745674621539938, 0.03203364793037005, -0.13219982595061866, -0.10198174667433393, 0.21719629042015037, 0.3262205249055079, -0.09364334116934454, -0.36735402092402886, 0.10384989449676536, -0.1596758174005615, 0.12948860418171562, -0.06646048512481592, 0.3941410511014687, 0.019842212719351857, 0.1596029632891126, -0.21479318322421895, -0.49838502356389364, 0.023923387881977114, 0.046308969357899805, 0.12733218920631215, -0.09790095859453635, -0.228366941707879, -0.2829302833800294, 0.09778242293484912, 0.1255628826140519, -0.15481366317239847, -0.09334421517604753, -0.128726216043767], [-0.33502851572512005, 0.03519899929088367, 0.14955593326275168, -0.039483023758582106, -0.2514599531671261, -0.03505868716133706, 0.24119813423615574, 0.37651775488541084, 0.0475701029923855, -0.1394663878367786, -0.3510034681582062, -0.27328547387868896, -0.01571324737502337, 0.03991006666340605, 0.04536795771893967, -0.046488287279160254, -0.2728057037883572, -0.27868066953836274, 0.026043514261907347, -0.14576438522424956, 0.23066451493973478, -0.2579017752908573, 0.29823959558829677, -0.11782099252166704, 0.0394546140878095, 0.03944982837838381, -0.06081251782113755, -0.35593684330977654, -0.08527626223729158, 0.26913548217555755, -0.22641440252350184, -0.32564196743609536, -0.038691733481123966, -0.07290042260618433, -0.22854429353251504, -0.13303731748688738, -0.0850435704579747, -0.07298658322375665, 0.028774618397830007, 0.12492159443317405, 0.06842582256866155, 0.06041321203608316, 0.2970101193044999, 0.19362408446418408, -0.5149222562617441, -0.06419855057433155, -0.2786973326488701, -0.12182326673857842, 0.13630788965656565, -0.035565018153650464, -0.07572923826701776, 0.23280987479210635, -0.26583289497828627, -0.016584190785559682, 0.09700777758105403, 0.004266453317382006, -0.2056399475481326, -0.003989419263317646, 0.1427493337736402, 0.06315346966290103, 0.05616044036725317, 0.054349646636681785, 0.023898740509917096, -0.21942598264663285], [-0.05464206302106874, 0.07616206357935591, -0.5505726442978878, 0.1338514185540085, 0.05964878132677235, -0.19165770640306634, -0.1319373042024613, -0.036034390729081545, 0.07308566580281493, -0.06611919458781103, 0.20629895282669306, 0.07303098051434959, -0.13904749374642367, -0.08329398252506634, 0.040230773758413135, 0.12875955424654753, 0.12021088851125054, -0.017252300902013008, 0.02642724046772413, -0.0044372791451828915, 0.1453086625554138, -0.1743450463470438, 0.10656853901481907, -0.3274616918463952, 0.07973211599178705, 0.04529245484515533, -6.614133833956463e-05, -0.3769956297746976, 0.27696030355361106, 0.15881815324119822, 0.004498672223650843, 0.08108876603506444, -0.16606087230603309, 0.09055795515585087, 0.2757870502428284, -0.20825807732579185, 0.47601676909148344, -0.0772388576627971, 0.146266429441104, -0.14603713395939158, 0.0690146175921798, -0.22520279519388287, -0.1164947839443411, -0.04040713617322121, -0.11593397699294952, -0.04267919171054791, 0.1725257220182672, -0.2257589049098477, -0.21138129439960074, 0.00831897956470194, -0.09973558559031531, -0.17743944104200127, 0.023340320276051308, -0.09976690767761123, 0.05942175305783687, -0.007028654043583455, -0.03557010549912265, -0.012063234228123111, 0.18088505901318114, 0.23230305027362969, -0.028214318816021794, -0.18207426322278394, -0.2671611350564008, -0.3948445646414859], [-0.2078816068499346, -0.15067026021182092, -0.009287060715919369, -0.33243543927912395, 0.2527360858658846, 0.18801187000168065, 0.2201171010483988, -0.09066703721388479, 0.04313373658188775, -0.16747193348558884, 0.27397021334614036, -0.2144345618678605, -0.09079698713943303, 0.25162675443223487, 0.44014075720115164, -0.0162151038149206, -0.0732269574938275, -0.44320249849213456, 0.3023680549446855, 0.054479426974851815, -0.33303683238282805, 0.1540355920527885, 0.10851990434337377, -0.0626495941957791, -0.09861246981260956, 0.12906914207696846, 0.041356082991792324, 0.08606084239863723, 0.21681568562950262, 0.21092817682542309, 0.13444099351521194, 0.10346469579606926, -0.2259532714483578, -0.197187185284065, 0.14469574111398018, 0.11441036836068769, 0.09160245572558849, 0.14855379911841127, -0.09793488081466245, 0.09986529744413969, -0.17481111737178115, 0.011027355030055228, 0.16428317028161601, -0.11965386379573575, 0.345228610702109, 0.2004788251335517, 0.2425565683512331, -0.037327530802130984, -0.24553389149373817, -0.1234944016434116, 0.0975218641517047, -0.04932123421862256, 0.12752055056455305, 0.026596923085281884, -0.104254719529716, 0.16514749149553, 0.23895696093974858, -0.12942691822100627, 0.09049333771800562, 0.027682201493519576, 0.049652978002136354, -0.018403773717787546, -0.22144488360748163, 0.24917095180228585], [-0.1844827215008504, -0.1539064468966264, 0.11601334654900643, 0.031797672683194424, -0.14072079760858985, -0.11623905221523276, -0.028054017982046847, -0.07708916665267074, 0.11429078698783197, -0.20580680832658108, 0.06422662899314159, 0.27056288714149773, 0.03559614295913965, -0.1570295731464534, -0.12781635338049618, 0.007718861781860427, -0.11034650349570467, 0.21824890965044344, -0.3253369481152953, 0.28973043068429993, -0.35797100724362546, -0.007249413096855284, -0.19144424741508148, 0.14498928248829485, -0.13683111539361287, -0.20029998968233936, -0.060108492662602854, -0.07265676038951703, -0.3420682320848297, 0.0803478618555239, -0.42296042744238865, 0.20794902261138373, -0.05834777781891242, 0.1684693890424734, -0.10616469129909659, -0.14020284628705854, 0.11521388260932922, -0.10326229593511911, -0.2735806886202375, -0.015393162318144514, -0.24343381409237558, -0.00228169607998732, 0.2437643680504451, 0.17017733407612615, 0.0003273429119954385, -0.0292952090672791, -0.05600027548094377, -0.11270316816613114, 0.06276878759152626, -0.027910405520202564, -0.06747551468115114, 0.04773814698836126, -0.3568019684536497, 0.3458601006099431, 0.11139297827405412, -0.24638487396549838, 0.020337542066493523, -0.19959594132032452, -0.09533007511502482, -0.15823448580006455, 0.19301555010694885, -0.3395409148668987, -0.0626484946318909, -0.29151590107312403], [-0.0036150164739400803, -0.05616337350799278, -0.24867529823496123, 0.2545114919485129, 0.27638027221545697, -0.09973431835006633, 0.09226474097553644, -0.0263055528921364, 0.043034643849295694, 0.27084504859585246, -0.047489399928107925, 0.3168134451631971, -0.050946133790936265, -0.01653815534522462, 0.33398729297643526, 0.04865198663142898, -0.35919992704244247, 0.03973990931877271, -0.22660177782212385, -0.29390944516774425, -0.16663729026253873, 0.057643412117023805, -0.19681745424358293, -0.24770984844776517, -0.0671329886562404, 0.0715257332826748, -0.12310345172973922, -0.23094750680783702, -0.3840814202004871, -0.13721451069582113, 0.14925405612696135, 0.1771461976844804, 0.13962025831047775, -0.03098740651293859, 0.02286631014612171, 0.22410042571865832, -0.1535619248586793, 0.06436007717613688, -0.3307308821331592, 0.12061432591751062, -0.07973389782548358, -0.20428870606436755, 0.13661903138770595, -0.19644044254183993, -0.15331518894867532, 0.27167368182713747, -0.18491285760871445, -0.11596640072397539, -0.12078347149822678, 0.138734518817892, -0.3245464027085142, 0.22104081665176709, -0.04301929187095142, -0.056014587052929325, -0.1585123776147519, -0.025712405031563804, 0.25993130769220485, 0.03762734146199907, -0.1648513733496856, -0.06140429774744651, 0.09447884690108439, 0.01508348428724483, -0.04548651603792287, 0.10687440165166769], [0.06383171090951736, -0.19051507555901692, -0.33851258452701577, 0.08847465060206779, 0.3283528334665209, -0.14508618360456366, -0.02492758537462485, 0.2393700319619753, 0.30752674343601155, 0.011532184638205953, 0.22092230397788715, 0.13269459272022308, -0.09825526800846832, -0.35687884624244764, -0.1607655989507959, 0.06527114101249802, 0.07411448407894752, -0.088785132082218, -0.15162136437682042, -0.2828966718020531, -0.2970438344822599, -0.021587991258439673, -0.27837625894953383, -0.0026703869434282455, -0.1410644214463299, -0.07533595950705267, 0.3757154772422938, 0.008531690494683, -0.06073214957573843, -0.030641735724772527, -0.26050825205350353, 0.2367303812929343, 0.14987418480802692, -0.09404434130017143, 0.04053280477526519, -0.118719291003831, 0.07005328617314129, -0.23740627904239714, 0.04728258692353016, 0.2653895207790786, 0.07889212884524445, -0.104314051784474, 0.16789719825680896, 0.3448105449269662, 0.129212102865016, 0.01718870746723155, -0.14181350469783677, 0.07701082793495583, 0.339811962634949, -0.35653741085671886, 0.1727619943395094, 0.026126159086958707, 0.26752619235753455, -0.02261592936274996, -0.3824957131333551, 0.3520397208407283, -0.20495187661738587, 0.14147796399487836, -0.02255145320959229, -0.006997934517500526, 0.024328690569834457, -0.09649639955634959, 0.032983677648473375, 0.05438977321845514], [0.14170429824981273, 0.022100889412022377, 0.056337346590446764, 0.23479207044532455, -0.1594564345863062, 0.012399806289710926, 0.08455450558622725, 0.1830410254140657, -0.011239841106133484, 0.017562567781974087, -0.060978578714368015, 0.21924836187014127, -0.056775733726750995, 0.12114376111276237, -0.01800914335759885, 0.005452626563538956, -0.21620818947895792, 0.010025373885630965, -0.005240736889995493, -0.2622659909224457, -0.1308926061105572, -0.08023050725213468, -0.27023934524601656, -0.2151661885203656, 0.2597845446841827, -0.18207688908441955, -0.1514407029375584, -0.24673803667805394, 0.21697251935668338, 0.1623178047372872, 0.056253282177161065, 0.01489179313744734, -0.08695181594749524, -0.05027691152919219, -0.11917484708741431, 0.11636633949906207, 0.1223638342028416, 0.16133143674429476, 0.36219689314530873, 0.12501093385941678, 0.11216983695217514, 0.17743041146169305, -0.27259140678488575, 0.0008365894184354358, -0.26737526391208105, 0.2788214249389195, -0.08715261081239907, 0.3134464300254459, 0.18765254566620088, -0.09762249147293453, -0.29340803569549756, -0.19870006971620816, 0.1836217016461309, -0.05679881265417854, -0.26185668407836377, -0.03972379360471118, 0.2992309725381182, 0.28447557466379325, -0.08363060659185027, 0.054467586889417614, 0.10831916697970996, -0.26148192762904177, -0.09420827581161607, -0.07166763728096079], [0.07142701028948031, -0.09020938160362156, -0.2470254552955587, 0.05731220901792851, -0.11349193927977863, -0.21706343065754527, -0.216621596660867, -0.03941737193429406, 0.25651306539909824, -0.03085566138947258, 0.18970350599917413, -0.39706371330978685, -0.14825573044484827, -0.2223832861514763, -0.04853495851062459, 0.13615249297896503, -0.09660259806279378, -0.21999712545731603, 0.16753824209310947, -0.13472726602335605, 0.048181921286119825, -0.1175560188324099, 0.09141591759243801, -0.06780219838062353, 0.14056537233416666, 0.10977910929758761, 0.39266867305988173, -0.014172965149051685, -0.17241584969408302, -0.20525847160431385, -0.10559173975703318, 0.06634682338403429, -0.1261876272243106, 0.2685180617564004, 0.035411583314531044, -0.17271418213217996, -0.08183934563648197, -0.11285078658308147, 0.03151349668172789, -0.18126215955476585, 0.22662141470174868, -0.06298718911949498, -0.04194551798766894, 0.16319139810506886, -0.13231240344733278, -0.00024239576453646917, 0.3168216323609297, 0.07268053841904247, 0.05194104889659683, -0.08421559594976809, -0.17575847033239325, 0.30914868367489856, -0.028303352304923122, 0.3355206391193944, -0.12089665374805202, 0.22184640586615675, -0.03629521976433036, 0.07367730357468408, 0.21508573283814994, 0.0780530293703744, 0.1418769130484603, -0.2762895357144049, -0.08144129360227507, 0.3614533492737212], [-0.04050597795193492, 0.056326293075888934, -0.02883046991026455, -0.10988050873838928, -0.2641147886437408, -0.20183333395802228, 0.2974392131325767, -0.013976078115395382, -0.210153661924059, -0.15981769448089664, 0.1544018249582461, -0.16743403546632657, -0.11054763003760282, -0.19739479769821147, -0.22258487941213426, 0.291515596288522, -0.02490599061473335, -0.05683493051137923, -0.10632227743065426, 0.12594506658779156, 0.01086669798412183, 0.051679174441131674, 0.02419469278879943, -0.06316614554436698, -0.08500987475184076, -0.30669026375910385, -0.0869349297754808, 0.3824666177741494, -0.2191035096882373, 0.0007728406376030606, 0.059348431174420235, 0.211075814008935, 0.4699213523758828, -0.07014427359019271, -0.15505142063268304, 0.18741373806902328, 0.03765500941854974, 0.3546808711848794, 0.128222688953559, -0.11822774569249456, -0.03476050605103789, 0.07478341094434078, 0.08851012191106888, -0.20048515744261036, -0.3401548797134431, -0.28351035864614865, 0.1090995248949961, -0.027088953297069774, -0.3243572146973807, -0.09737571870673077, -0.34241915788620736, -0.04652383273719487, -0.15297541174775547, -0.09863535017913565, -0.01491197645174751, 0.03228472204500773, 0.010528001461830128, 0.22833850955680232, 0.424445860776705, 0.15060744773739437, -0.03352258587892527, 0.13293038055332645, -0.12856376735262964, -0.1459887691033639], [-0.15401574050848466, 0.0516823382847287, 0.21893895911359473, 0.3931753691694588, 0.2341003454383463, 0.12333486702085206, -0.12168011859042763, 0.013549617141108451, 0.09607093648784946, -0.021611495818482717, 0.32931053106831987, -0.1449481827529324, -0.12624292188903244, 0.06718309739815266, 0.3547555509883535, -0.32045061014341136, -0.14956019243998023, 0.22767123832849492, -0.12002271523423572, 0.3639999718397462, -0.14522553155933413, 0.18956224714104508, -0.015587723023778513, 0.08123931089883621, -0.18312034434360222, -0.2839400546225093, 0.13709908953832145, -0.09356924720117156, -0.16240352157165533, -0.19539001709248593, -0.18473796834560235, 0.2392189369506687, -0.16310182993119116, -0.09589655683283882, 0.3476639700000716, -0.0764233754779121, -0.0009999144666516355, 0.0649921114746975, -0.05232574089407605, -0.1216447528715302, 0.2260770332231694, 0.05653861452863266, -0.11127979914318954, -0.24488841993386687, -0.20464944164418103, -0.18111574962562643, -0.3811277263332604, 0.2075249527026655, 0.018049023137998527, 0.09486789665145672, -0.25082391206743854, -0.08575573569568609, -0.04244399939961899, 0.01336251154852578, -0.036466550413716554, -0.22007361445568477, 0.19301349794918465, 0.12556166216039516, 0.013233507439272294, 0.18247488007538903, 0.213564532216072, 0.24641016668461768, 0.028819090504700336, -0.05564842641122486], [-0.0848195679626192, 0.15754922155372242, -0.12400264625461774, -0.16149012916409325, 0.09800445392853979, 0.0924549495771093, 0.11252714100796062, -0.15012195890479113, 0.053163328901273045, 0.16180321485152943, -0.08482302095002914, -0.04740061151142094, -0.05267133318412189, 0.2685624047539594, 0.1592419700379708, -0.23698151098809353, -0.26883342712068736, 0.11492442280457368, -0.03767166051839009, 0.09414640224493843, 0.04696876033262114, 0.1784739063963596, -0.28738852924303304, -0.09684941165625059, 0.04436990246289808, 0.041448749107570716, -0.16760894226290296, -0.09318941533168691, -0.10356335714923595, 0.00789823546765749, 0.12384343308876428, -0.04869641039067076, -0.027056389932546342, -0.3702017786365023, -0.18757835916735008, 0.32756369061240126, -0.3031203477039946, 0.24119268078602693, -0.052660326341448835, -0.34704831729996793, 0.2576846633351493, 0.2269934553890378, -0.08896255765709268, 0.15331436029926507, -0.06291385996304262, 0.009002578413280317, 0.02939257270594538, -0.04083728218174318, 0.09269685918473156, 0.06819143440559311, -0.0924338626168055, 0.052324692741929454, -0.09202774288212338, 0.02365601983386941, -0.08783496574394935, 0.017198723844566343, 0.28295689080597286, -0.11559276484726387, -0.2586467644477461, 0.2818077668454702, 0.05169735548686476, -0.11501342545636345, -0.04413229000587723, -0.16152989297106157], [0.16578893545087814, 0.12610171250622015, 0.11111694411442193, 0.03892683424528353, -0.3623995870880888, -0.20983011810562963, 0.05027534644223746, -0.46933309523459676, -0.014010545646382152, -0.18125133196490392, 0.11195156751442163, -0.03475454232457251, 0.18719204483907398, 0.0596894766125776, 0.020108128476973713, -0.17206374586858592, 0.110964255724328, 0.42060171672402397, -0.3023667165596739, -0.18097238275142968, 0.29417280520555494, 0.09047276262127006, -0.05231346016190096, 0.13823556229933284, 0.0587768551540748, -0.11536835040090648, -0.11813825887917215, 0.15119273569018063, 0.060688273687066176, 0.1905091475869941, 0.11557319999583839, -0.10854006225302094, 0.2694282183904357, -0.1631936890619863, -0.08013200560740502, -0.13837764352321782, -0.24769600040869688, 0.11006005036488951, -0.18611991409333278, -0.12095500650359975, 0.16666028186589738, 0.15294952135010184, -0.10985331887107552, -0.23123088882912238, -0.01842961575440394, -0.2824654511372639, -0.1786194524237861, -0.06854981253330163, -0.027953738345828115, -0.09815176194815887, -0.025693591354944294, 0.24431252064145242, 0.11086129042739348, 0.24381505984145013, 0.15839711598220216, 0.04100895280097313, -0.21457867232699535, -0.23618905895507117, -0.0036389975108692203, -0.07223230376660597, -0.16520544036939216, 0.07242622752507745, 0.2163886719151762, -0.012036280576576495], [0.015173726501568825, -0.09669064181126472, -0.12161192020431415, 0.34889586151592894, -0.2221041878072498, -0.02850076353125204, -0.07904395768841337, -0.019426279961892348, 0.18496735444009577, 0.1756740743798677, -0.02476853589947624, 0.19860785786055063, -0.13550767590830967, 0.06287542448810536, 0.3145762551329051, -0.10210408715410144, 0.03625997742290589, 0.2649140085490028, -0.14893039769622138, 0.011371186653029297, -0.05564936967789702, -0.1974495093113047, 0.07146394302476793, -0.1492223454682825, 0.2926987999357476, 0.003652417186508961, -0.03714954200425431, 0.00722518132586932, 0.018170413621450495, -0.03521820011775643, 0.010116668531838947, -0.10161328788331032, -0.08828926445436694, 0.0931690098224949, -0.3776569490478784, -0.1413299978134804, 0.0015123607987539386, 0.06052488540151097, -0.06903863360515582, 0.024081236231897903, -0.06177721470157496, -0.32893079509289486, 0.16625332850791197, 0.04737544650885399, -0.16923841058915554, 0.2607411979490098, 0.11976523747809047, -0.11057461182483479, 0.19561520974492744, 0.09528755846340871, 0.14652574307924626, -0.10638311092247227, -0.09839982833149358, -0.1453924945688876, -0.09564652917925182, -0.4089001163731971, 0.19158458472261305, -0.20867573021297095, 0.1007118743322184, -0.22949491831015031, 0.020648722924355132, -0.2107799893828573, -0.0035141406155956667, -0.2827890148518782], [-0.10463784802736346, 0.11660911051406614, 0.037811868340610066, 0.030236929613646803, -0.15175146642373474, -0.3882957059616379, -0.15786614124699036, -0.09032418515573992, 0.26149674723070815, 0.10067855378105826, 0.05594317132655205, -0.10285988620019154, -0.12891609391842587, 0.11324699616411574, -0.0657699900879217, -0.05955509036631663, 0.33903198097120224, -0.17356278238268819, -0.04978132668762551, -0.044139364831261366, -0.11514051545392431, -0.2495320746468483, 0.22492194974971516, -0.24968758787778986, -0.1604450723272398, 0.04530171918547203, -0.21986348744062675, -0.02754176522791702, -0.04536002570270614, -0.04185189066116765, -0.024760532098425055, -0.24897595496230207, -0.09713932354588639, 0.2270719474453019, 0.20575809244457077, -0.10266810049045606, 0.19178430410831865, -0.16614626287554218, -0.24111607520711956, -0.35660510822829894, -0.19675215099283985, 0.08129565247984404, -0.05754928728081813, 0.2937381890626114, 0.14839278970458566, -0.06261690922064413, -0.03947079776715047, -0.03816816712447346, 0.17661863953162235, -0.06791581121165004, -0.0025636393520888263, -0.13000941301309565, 0.2295894837782027, -0.06171455487692165, -0.11433856373588891, -0.2687254580468893, 0.17081003440983014, -0.10459920161387057, -0.012443000814906454, -0.07255741470145084, -0.03297208672599002, -0.3504683024440887, -0.13869531326956916, -0.19155724953592443], [0.3850895363618469, 0.23809450801530288, 0.07744176437079729, 0.4396018796274304, 0.22580082544623045, -0.23771576282835694, -0.22719777742262448, 0.04735228622415928, -0.012263798074637804, 0.037384259752488075, -0.1458286046041996, 0.3262421339646529, -0.06206868011441039, 0.19803061890490403, 0.25798641882857803, -0.10345597944124227, 0.10189075050009815, 0.28160145936731495, 0.2577837930376331, 0.13289521779811758, 0.07772965769685782, 0.0139389217373293, 0.22428842157213336, 0.10307153012298634, 0.02197180042860364, -0.08356358298550941, -0.23911825361106728, -0.030674943766875552, 0.3295926135566958, -0.08549134252851401, -0.1133532510817181, -0.042543447865591034, -0.03763023930726999, -0.09884910344891414, 0.11370942016332906, 0.057592650723419944, 0.20910399613003108, 0.10633301548425184, 0.03296609070005124, -0.37177310386094753, 0.03485105327471957, -0.11545812102594782, 0.19051716914638825, 0.012982466412359464, -0.13481306030393272, -0.09603227519076996, -0.21239490588062632, -0.09679357220999392, 0.05571768498312654, 0.20838853453977568, 0.09189841795601236, 0.14313534982802353, 0.15752665961905102, -0.05720962758547843, 0.25688232346597295, -0.23895025750946802, 0.02181113915614353, -0.09294127839276983, -0.3474449495627952, 0.2932715939981619, -0.35314529224411934, 0.12186105822456751, 0.3169915582569873, -0.03590748627948324], [-0.020395019559804876, -0.33566060634213046, -0.04416005600253313, 0.25648854967213547, -0.09229855034954268, -0.17225102985896465, -0.409370625054863, 0.2272780126965376, 0.07279459269719264, -0.053390019195501154, 0.18433988533973691, -0.09381209967400402, -0.05904669376558711, 0.3754773951482968, -0.15843888420846214, 0.05132399790704532, 0.039513743726900676, 0.017225481986812678, 0.0011090528760631002, -0.2309871612274041, -0.024306957217403898, -0.042863215776587166, -0.11825025222764617, -0.14735044108647952, -0.17708115060368126, -0.14308780941355145, 0.07231863293609413, 0.00644461416613349, 0.2926533758826417, 0.10665519457951565, -0.1051924839056351, -0.09530308192485672, -0.030577385589249564, -0.06187557830801265, 0.0006530196205511701, 0.34315832700703114, -0.026866296786125607, 0.023333991653213988, -0.21065362011650868, -0.2652616705274689, -0.023978273531851318, -0.07376641289604219, 0.035656605234299095, 0.23988385716390767, -0.0902382209838201, -0.12101927512108027, 0.17297567150854432, -0.07701796669186411, 0.010167307177821886, -0.018681674365337464, 0.33219608902491016, -0.29753925709023704, -0.1451170029411098, 0.11504496501495927, 0.20507795406437335, -0.1819153325516442, 0.208391612670369, -0.08326812800952753, -0.12838609023264771, -0.1113914230723462, 0.0625489631572913, 0.08566709533011045, -0.15464063565140965, 0.036409604838193964], [-0.06754489080979302, -0.21085524287804563, 0.2990683999661848, -0.17103483820954268, 0.018126770217595414, -0.2059207415633465, -0.07626037175192836, 0.01606404140527072, 0.028530962150016083, -0.18097630925161662, -0.021190765862856616, 0.06186230786750661, 0.26236803746197, 0.14109472991882943, 0.1896605408182936, 0.11190393206486297, -0.1179303133911653, -0.0580476975359392, 0.16025345240861835, -0.12152091808662682, -0.19822852809344624, -0.007738829868538433, -0.32137921243322115, -0.13831383140521294, -0.2014455956313441, -0.0729197464074964, 0.2319914759912554, 0.40997784900395884, 0.10483756295377636, -0.16981687538365436, 0.12924154938166366, 0.07433316275968732, -0.10648465285643482, 0.1557538994889598, -0.08548279794655689, -0.1024323134144766, 0.01014184007059482, 0.12117378293330658, -0.06511004465738376, 0.06279466433379664, -0.32339929188744176, 0.0516681079509393, -0.08457710068606238, -0.09244009970736985, -0.44650076454192955, -0.2561852231780732, -0.3085718817611383, 0.10703011855297104, -0.1629759945837291, 0.04831648749599214, 0.11647981168302879, -0.09659355399607096, -0.18163073171831096, 0.2139899773977878, 0.04630513090502141, -0.21790971468077802, 0.08492621717854906, -0.11734770227340013, 0.08218204727068111, 0.14604853267476173, -0.14441572815832035, 0.08691056810729848, -0.53235419237347, 0.09671949012914768], [-0.34649241943081044, 0.4464592394299092, 0.06260766533418609, -0.10846089541487615, 0.20033753475407615, -0.13867161853990084, 0.021067389183940924, -0.05036484455930577, 0.00020817942355786596, -0.09891445971003822, 0.07745290597920292, -0.13078820700517463, 0.019891012545980885, 0.11110299962258709, -0.10527127547555641, 0.14771896722561279, 0.08586457058177611, -0.05224162985316682, -0.09086241955976397, -0.008625803483108334, -0.08005302489134389, -0.09083330258595855, -0.023456762627610605, -0.03751873912293237, 0.018875728032185755, 0.25098525142789296, 0.1611799658159134, 0.15018240666425, 0.09144942445915559, -0.10673573623787236, -0.1875002356479444, -0.04022793493134467, 0.20968517681050922, 0.21199006338877208, -0.25774422894219234, -0.3136276850499057, 0.2960762561497268, 0.2519091783317704, -0.11076152553407219, -0.013650283203920874, 0.008836863122147667, 0.1950173837705452, -0.08626284768374862, 0.10461470731768882, 0.048397608002170446, 0.053144606329138706, 0.18632556636301642, 0.025925850462470472, -0.22650784588038153, 0.15952411738948138, -0.0860987122569022, 0.15871219155818878, 0.04680148169293539, -0.17289235057007468, 0.04508693723976443, -0.11225932163212729, 0.04776805934340215, -0.07146951932593752, 0.17855339122014108, -0.12581673786441314, -0.0649888907980476, -0.12372278108585755, -0.14034269610045963, -0.047686094300950985], [0.03786693175507747, 0.09912265106459105, 0.009022445148045686, -0.08044782188764721, -0.27560965322406433, 0.16654629926502604, -0.08973526410188407, 0.07084018379865388, -0.18828617721564744, 0.26767913764682927, 0.12225087669467474, -0.15709309586942627, 0.06152980796460053, 0.23736439634120107, -0.03122245698448677, -0.3007504333700495, 0.08075394491166848, 0.3265789117705651, -0.2823529751430855, 0.18116546149067336, -0.0411634351005755, -0.01611628543886728, 0.033894258396264795, 0.002177748459627911, 0.1525207773333883, -0.20586823981921884, -0.015209831909204446, -0.16538969670195375, -0.09028199643507441, 0.525481859975353, -0.1495448356024513, 0.07934710805044456, 0.05415066942849713, -0.33940262595429926, -0.2028012861801387, -0.32106376655944446, -0.02702520441380672, -0.23239986681110136, -0.15861338346740955, -0.2713750514167332, 0.11900510837574504, 0.10551178990938533, 0.26275319045157325, -0.03109046621480412, 0.1304768425985438, 0.19968700340313292, 0.3698239839139679, -0.22089160880580513, -0.1432495218173814, -0.17341030521179177, -0.24512357036830543, 0.12629658961751392, 0.12871701212183628, -0.24710091337760687, -0.19193080056029846, 0.05545470113999385, -0.08692193177654153, 0.04048407152644066, -0.029888699754377624, 0.18738620309287432, 0.19917586819310082, -0.3234747093947763, 0.2397595790711573, -0.0851731464767268], [-0.20047051254182108, 0.10657982452758728, -0.17318785003754045, -0.22225057627480935, -0.06098290375749502, 0.24062777431130608, -0.32136469220860575, -0.18408168957078525, -0.2990260103250057, -0.21296821404661878, -0.026262106725511984, -0.2333079077727939, 0.05486751229122049, 0.018706465386961742, 0.12766897994373885, 0.33941751900088407, -0.17473910330315037, -0.08501840148381924, -0.10682697213474351, -0.07993243352489282, 0.07130506909991956, 0.1060373245485282, -0.08944202681297907, 0.23541418672646433, -0.0480191506604683, -0.020486258584345794, -0.1573157568047688, 0.11808247235686085, 0.13182443626547072, 0.0004955703795421815, -0.3806019578694466, -0.043107237586459804, 0.10487702770568669, -0.07376632622432436, -0.01709926517346901, 0.09060798998026434, -0.32162611692616155, 0.14048553053914362, -0.33476175820743054, 0.01688920311723578, 0.10163947872935088, -0.0887327271912202, 0.0825811096574838, 0.08730293147214715, -0.09399784097805694, -0.07502024442238703, 0.14210946971877753, 0.054177342848524594, 0.1061524800326347, 0.07262625813960714, -0.10064407417996513, -0.18684756896947408, -0.18055680303630597, -0.2361648572066507, -0.35511145374170666, -0.10430258883634344, -0.159242936562153, 0.01137260191255186, -0.04035521277051384, 0.0659640615181855, 0.19902055456236684, -0.17340572124371814, -0.044237158665393815, -0.06730525774537666], [-0.1544265880049679, -0.2108961370260214, 0.010544499962171465, 0.046591237225401066, -0.04901635048653955, 0.09941152839669459, 0.05512064182643266, 0.17883847641358475, 0.007647819313274348, 0.027080750609637765, 0.19813054912786754, -0.07629960254115267, 0.08167925402250582, 0.17595378776369022, 0.15956949703596687, 0.14705055981625473, 0.11049920371128492, -0.04987034445158491, 0.17402601861466055, -0.0888956601319832, -0.07427429066179587, -0.037535176085589074, 0.0958233186837765, 0.2845233055452637, 0.23357277148816177, 0.22528257936217383, 0.12229903661707668, 0.027506223196584533, -0.15335309656880108, -0.1030890637109267, 0.0247242173220215, 0.30178966652665745, 0.10228551723164223, 0.06591920222133515, 0.10281286229777349, -0.23691980623942466, -0.11670423517021475, 0.09130432650893627, 0.18095250196295196, -0.10484160692499121, 0.09881448401373705, -0.33276195888759613, 0.08917355191474859, 0.25237804013143544, -0.035362709481226835, -0.108719773764017, 0.4729564881270962, 0.008776138844406194, 0.24458134932139233, -0.11480690118525803, -0.21006290818651338, -0.2703740043476656, 0.17608426653865356, -0.29302419197580354, -0.3527626362072584, -0.10842495129616522, -0.06867391271965353, -0.04867854627844091, -0.2192227543354763, -0.1427031012446257, 0.010100489302275622, -0.3416550018306033, 0.017323529186761683, 0.10711616217549721], [0.24276212495376523, 0.08055610653219976, 0.20460614816864706, 0.05325060125660909, 0.26419464487711924, 0.02257094162402132, 0.3689951414502195, 0.10603842243011172, -0.09851461702232518, 0.032655518384594566, -0.3078918662515436, 0.21409119719485373, -0.048320540798548285, 0.21793449234385834, 0.39056342496166346, 0.0018452562252774158, 0.006762647172909877, -0.026692444928624413, 0.06595361547437571, 0.39181475060881404, 0.2269902183976237, 0.04267980729329206, 0.18746612108770547, -0.36379994295500945, 0.021906517887000376, -0.5001962215079693, 0.19875298207670286, -0.3833879830477493, 0.0968120864682541, -0.159599669456734, 0.45239324577927853, -0.22354391896869594, -0.05812847258415464, 0.29921170935911234, 0.07843098765044199, 0.03665346523194149, -0.04062821541085706, 0.016711255961402882, -0.13250374466101342, -0.02927109901264292, -0.0077228012881084525, 0.12920598991719548, 0.014360938405832453, 0.1496787231378652, -0.2628571160397005, 0.24937613253238025, 0.08092669462818992, 0.28983309817756703, 0.09407641101651414, -0.01794505994032144, 0.02495497766874515, -0.20391481327414132, -0.03997444518263089, 0.03293910813122594, 0.023810753245454196, -0.2892722494256185, 0.08676372366438925, -0.17736369972076638, -0.03795059291669836, 0.1504858808620799, -0.12485831646326237, -0.022118154017382197, -0.0778078273053776, 0.09551611364345618], [-0.20368568244756027, -0.27421368023812726, -0.3666803803931196, 0.3846583191791956, 0.11983422000859595, 0.2860664986452553, -0.06612097999800655, 0.19843503924556613, -0.07869543862211081, -0.22322980985269708, 0.14972288021397867, -0.05205165500035233, 0.045945189598244895, 0.07405954775063223, 0.10455984758998986, -0.037609497180357346, -0.40825947151434716, -0.21001883465167107, 0.09996624334882644, 0.34416937523232977, -0.006218550723429587, 0.24390879426873782, -0.42014402329724926, 0.26341418022604524, -0.20074495725729025, -0.1791611410106603, -0.052994458935931306, 0.052446832363201766, -0.21173417001080747, 0.17608820369982844, -0.2549472110549929, 0.024047357132342698, -0.15623807571719786, 0.03772191660587218, -0.35665917832618027, -0.17311800397751398, -0.22080397372732816, 0.16081004693707476, -0.3959245759291683, 0.3059852575897014, -0.09073102310917884, 0.033555469941442276, -0.45034141466850325, -0.1408879179974211, 0.1480717455890604, 0.2652285011603325, -0.1751777896762517, 0.20024184902761874, 0.030936450709048654, 0.11348984114706498, -0.03756475306995791, 0.2678132233366156, -0.3018568075706574, 0.11356468641918702, 0.2718251968233435, 0.1359655151789312, -0.05067325985214888, 0.0914898586409165, 0.046211642307293056, -0.048672115158071655, 0.1890853275509983, 0.2373740190740061, -0.24053780279296738, 0.3285326753176005], [0.009146641955425604, -0.030181254234117424, 0.16377114503183654, -0.13562324025114492, 0.08276286495108505, -0.057888577250963615, -0.0061759332138962945, 0.06848721332426308, 0.003737622712239524, -0.05801729078850512, 0.21304781245206694, 0.10141385262194157, 0.0882600978644938, 0.15643749236670507, -0.3693416785740348, 0.1607386586906633, 0.4078207590365992, -0.1828373326200385, 0.44513571538137753, -0.3164432971949117, -0.12329453886226312, 0.11919976692692394, -0.10566527603229027, -0.15734485393028272, 0.027054570782924763, 0.07730099811801017, 0.15457983189683464, -0.04811015295405875, -0.3586115583348566, 0.10122294831818199, 0.2290014461303844, -0.08153983693014837, 0.13907589790493805, -0.24098680314355622, -0.1276984980795636, -0.20973315289594913, 0.016977830457233802, -0.207092276918588, 0.2927909553370254, 0.09058029230144723, 0.007705565895872552, 0.12654001692021682, 0.22582711808002026, 0.06872307899537915, -0.14788370856460345, 0.015431238448179486, -0.07713339547603514, 0.0952044355039026, -0.06843125537386122, 0.012526757598115805, 0.18563862221095176, -0.14117599112358148, -0.02610714766935965, -0.04125752599016846, -0.10775291410274786, 0.452351524467944, 0.20671875946773882, -0.11644498171602236, -0.11352374667037067, 0.060342363153015985, 0.2238890160397088, -0.018111461577172146, 0.1507020810797916, -0.3088433585724302], [0.07148138031703324, 0.2342862290731751, 0.02870314095462778, -0.11233205625363352, 0.19644353513420668, -0.17383999749217782, -0.04988494168730612, 0.10854266904962327, -0.16049559186862808, 0.4686707285249146, -0.03350392554647311, -0.35575032692304376, 0.19516535754527484, 0.06406709190239383, -0.006492828362856109, 0.0871199207001327, 0.11370259295739717, -0.017876184531786382, 0.12280516042578474, 0.0703685468484921, 0.16983966650769208, -0.08410147203763076, -0.06667538648785726, 0.11247885001692613, 0.125368611186191, -0.0027993228867767466, 0.01836454842556326, 0.16994629605605327, -0.14926521327787945, -0.21109301649451118, 0.14162490522070892, 0.06934996642084577, -0.12343394117745085, -0.04961814368704774, -0.13338513326311457, -0.09151255364934509, 0.23451865303756714, 0.009512930314758434, -0.19601286365594145, 0.09322361701598311, 0.0936673056525546, -0.010567747874977712, -0.01190663648815829, 0.08939571158943829, 0.1363329051021654, -0.017080395954746783, -0.09969941331191516, -0.04015568469976962, 0.17334596894779133, 0.1367859243430472, -0.07436733332153478, 0.502250485595239, 0.4439353877277549, -0.1860090882351084, 0.18206859965373723, -0.17611814380835816, 0.0078073075593567375, 0.27467809242963787, 0.13683118080326967, -0.21103060531612483, 0.0915470095985786, -0.43362274210329277, -0.28039157607930926, 0.006236244272583751], [-0.14595376642423397, 0.2788369875353738, 0.02359911882603309, 0.22584857901134608, 0.02078557631929196, 0.029963437352745148, 0.03055272911896835, 0.34763438369203165, 0.2859540098128184, -0.197746499542391, -0.04593904173478478, 0.29804901372706555, -0.26620692714018684, 0.3250880335456021, 0.11215588909394464, -0.18041749492536696, -0.39277645301302283, 0.010601290965919455, 0.30814856894185644, 0.04145409715859532, 0.09798233041031638, 0.08605227784475522, -0.043437462877219474, 0.07021811228941217, -0.11097038212914208, -0.1013304292621311, -0.16329436545915121, -0.0661108182313609, -0.06622010812236452, 0.03299542390373031, -0.061089123191086406, -0.29299281158004375, -0.19542729021492966, -0.04737399270317543, 0.09353956067868578, -0.051174918729227914, 0.06908026097030921, -0.2719925847736929, 0.2102376689487259, -0.08153884809281149, -0.14246092833475654, 0.006851286980759054, 0.07967587254616292, -0.03995276943872345, 0.11667974943085616, -0.31220490820502284, -0.017688550042788232, 0.15221014815111797, 0.08477489114625653, -0.05013815156280767, 0.057534347467176415, 0.3105478785560956, -0.199639495381662, 0.04630864553370981, 0.02231006329143678, 0.12339256621725758, -0.20173825615424676, 0.28316084935989416, 0.15408002520455794, 0.4099163663376382, 0.01425429781593539, -0.10640424320507154, -0.31763754424761576, -0.08344602215675372], [-0.22431491284148541, -0.35552963528502796, -0.1531182586332307, -0.04624643445050548, -0.029506287990565448, 0.45694278892979395, 0.27564581421190115, 0.03466348544834149, 0.12738067394308736, -0.06663916228544658, -0.07313848891494025, 0.08812715255144327, -0.019684732034906963, 0.2830426089730562, 0.13299464694536306, -0.18293463842432528, -0.2634357863697207, 0.028128750273293094, 0.21290594292492246, -0.18481587301340427, -0.16429564248660475, 0.4247317789642711, 0.0053169449010965, -0.05857652760395823, 0.4399053541079042, -0.05192472549232362, -0.1995696379469456, 0.014800261171112473, -0.22072433771576533, -0.2802072775546623, 0.1706530171715902, -0.09845628015678194, 0.08681184559167529, -0.19575303919471154, -0.04247028398156604, -0.2173342818246389, -0.16678203048242154, 0.3096131775026617, 0.13267097368688396, 0.1206413937278437, -0.003637345387136849, -0.0613545061635166, -0.00457481019890919, -0.07599197280593643, 0.0912464580496181, -0.016494176303209724, 0.035061754503069566, 0.47330795627688516, -0.0003903363875736338, -0.19216940734525312, 0.2818123922288345, -0.1821704213192643, -0.1829182574240032, 0.3204210512805166, 0.07901798520631625, -0.17828112866038925, 0.01789640312377968, 0.2506728505883321, -0.15982438845977104, 0.03829741498702705, 0.43224857271774186, -0.02223885711092855, -0.2946992211016067, -0.06686405623390204], [-0.04919073306490767, -0.09163839526553426, 0.30996083472647074, 0.03764035840966235, 0.007475018860100211, 0.09931045328499634, 0.028347108997607475, -0.3405111025872817, 0.12046561567955703, 0.09787486592180351, 0.06981761737121248, 0.1308340625646646, 0.19816839550558388, 0.24627521027977786, -0.2822173371163651, -0.13358377350250847, -0.1797265407914059, -0.0804295661470244, 0.06515456604842924, -0.3156242490683405, 0.11826412256081756, -0.2676680557097707, -0.1756429075526812, -0.21562664901322817, -0.08717959534574683, 0.0567685688498399, -0.36373580044779674, 0.27602833312481884, -0.17063884443337457, 0.38251843470383906, -0.2720603904507927, 0.15267334572416985, 0.10068130791873817, -0.04118550307291707, -0.2531221666721198, -0.08278094473500477, 0.2279729624443424, 0.15170215504692178, 0.15206687860690957, 0.2638070487736702, 0.08603739110145121, -0.010936080824282345, 0.15431176154636406, 0.12327798209920227, 0.2435483462932473, 0.08444279494141178, 0.10808291625674751, 0.17896427720824234, 4.732743114595346e-05, -0.191677427241184, -0.006181128243670728, 0.01758107433061828, 0.19934502493883025, 0.11547071494488408, -0.08846120109876376, 0.04088101537291501, -0.05270521237895511, -0.08730092091415645, 0.14393945825107057, -0.18464700002865206, 0.18806756560917814, -0.060620399835208706, 0.07639759192717531, -0.07068980205308852], [-0.11708018144621604, -0.11136279694380832, 0.14940435851424272, -0.3001117638224994, 0.020822232095893473, -0.1137700215035368, -0.08962003640879997, 0.32232930388006714, -0.12393066359550275, -0.13030800581745033, -0.27343361770003255, -0.3305997562846635, -0.04267552565609403, -0.12116163358870408, 0.12213392313847364, 0.03580639392436378, -0.16089793998248353, 0.2595947652928749, 0.19436504875197777, 0.003359206157403788, 0.13851976913565317, 0.3028022798785907, 0.06958679558122396, -0.09670618845248558, 0.020717246140419796, 0.03070622518179823, 0.049068417909297043, 0.2025561901185027, 0.05615818783128642, -0.29204649816570744, -0.1415128432315281, -0.1885372017716606, 0.06267038905496547, -0.047486257593854594, 0.06234500064324881, -0.08739252130260199, -0.12875454214517812, 0.17983892926445152, 0.07124137086879798, -0.042309613246312286, -0.2939641252378755, -0.22743893571563623, -0.2093697270697938, -0.010816601529827224, -0.16945928320889733, 0.18915736209235093, 0.13124234674691934, -0.029156965820936832, -0.15056880989779184, -0.08884979103828529, 0.05145496093626117, 0.0037190426781021735, -0.037533660931435994, 0.20734553962709662, -0.06180157055218817, -0.024403718624590814, 0.09792749578803356, 0.047868543366539465, 0.19106483648502612, -0.08703099397423138, -0.13765556528178613, 0.1162949746530931, 0.02253509984056588, 0.13999272585046119], [0.12759145351709175, 0.12498326558416069, -0.1723713407746679, -0.017107477675232307, -0.09538042120159518, -0.08254869297526055, 0.021803624195321045, 0.2679761979251133, 0.36919876626845305, -0.14546196563675642, -0.007206769657664628, -0.14229306334492003, -0.13785025349734423, -0.04778596961032164, -0.28668589621779067, 0.06355667669756256, -0.19932963170251, -0.03091752050185548, -0.14114959244041433, 0.12011535871089916, 0.1414682447146592, 0.10686835635032157, -0.010643583910108332, -0.2845275573042214, -0.18733875067979092, 0.07818539035413574, -0.10783459271909313, -0.0567160365623276, 0.09087578395550498, 0.37351000066385903, -0.13177842479177695, 0.07629874939814502, -0.10094602167007735, -0.19908547107942523, -0.06095259998606606, -0.04471599110442959, -0.077068580953796, 0.0898912904655391, -0.05120194939471796, -0.3645696631005687, 0.09324329586649797, 0.0849671079809866, -0.25373375051159136, -0.1195435862930674, -0.0852419633013832, 0.11981126803996521, -0.04433461971563884, 0.16804815345247942, -0.133937078905687, 0.15063865131314358, 0.0002915641982685929, -0.06561437699491376, 0.14729942114890768, 0.14072628245979757, 0.10170772693648962, -0.022687229992363424, 0.1850147999618817, 0.2110244744067253, -0.05499696430362067, 0.019005382002395956, -0.2680422364522366, -0.12052186845687597, 0.17210653587656377, -0.16889927430895332], [0.059041749353543935, -0.006740527944810632, 0.2905460820411365, 0.02464418835352094, -0.33183183406505135, -0.074716913389199, 0.07466023285890168, 0.10738306116183677, 0.08208809438609635, 0.22457729273326338, 0.044666054244336784, -0.33476729277150247, -0.11306179504444212, 0.037364981121377844, -0.1209520157603419, 0.06151424747028397, 0.050152743126565764, 0.28508181033932983, -0.12472965699423103, -0.2124896116651852, -0.22180235601305925, -0.08410939546744509, 0.08845232002914652, -0.027666122001332522, -0.12184891165697555, -0.19595016292558642, -0.041588666265704594, 0.1096036555428529, 0.19716218263824703, 0.22071202979345494, 0.12556513517975867, 0.053746242726371844, -0.11025688213965712, 0.055002522562392436, 0.26229604447075383, 0.019095593228373658, 0.1317592359816893, 0.00043290644073211985, 0.08372556192467204, -0.16369237494396208, -0.2264117208036828, -0.17384163524081284, -0.3443135174004892, 0.15199756252432842, 0.4213705162938412, -0.036893288923692, -0.14035072435226356, 0.06288510638515651, 0.2818828766381188, 0.015995767774740054, 0.22701393473233053, -0.001683899926600402, 0.041146354134005976, -0.2680563112076048, 0.06181488213894762, -0.16446875351404933, -0.18515980542165333, -0.27694649742122357, 0.1061955185250001, 0.40399389636623484, -0.12742545810346492, -0.04765977379631758, -0.06374614009704388, 0.07798087798770915], [0.17385419789859535, -0.006489070329594776, -0.07074202345629407, -0.3177322441582892, 0.11185223457549544, 0.014009835528456579, -0.31956838204340776, -0.20754567790678904, -0.17433383120664947, -0.07883314423725885, -0.1586694747673748, 0.13746833715475004, -0.16816068018373115, -0.08929732690860719, -0.18500407669199984, 0.12212583725055737, -0.07620004978818161, 0.000940213333529668, 0.09769618301611183, -0.0018156783461083703, -0.025079233680743666, 0.13295054859397304, 0.06623014805033922, 0.020483006973676127, -0.06802714713430248, 0.028830356773207975, -0.1271299532245636, 0.26439371069032, 0.05016309972668116, 0.07960665821451962, -0.11337014759109267, -0.03945331848281853, 0.12202261783572034, -0.34456925788010334, -0.047828808064258675, -0.11345293542624003, -0.2004626575136529, 0.1202804080554944, -0.13575369187608466, -0.18374399101984834, 0.17697868015607945, -0.33214694661957694, 0.18270626894431116, 0.1884689325659084, -0.36141427367057777, -0.04030039486880194, 0.050703294733797026, 0.17992290895543822, -0.0937901968613618, -0.029310831548734685, 0.13162842787420795, -0.15940699587024432, 0.10290532464113483, 0.19535544382405304, -0.18538903433196374, 0.0529237903200891, 0.013791182071183797, -0.1856922369492743, 0.026825849452235286, -0.045551382275511025, -0.14032036349006619, -0.06385087614250785, -0.17270791374214298, 0.07038668830679094], [0.0723991372948186, 0.1337403241032133, 0.017745780466859283, 0.0372969280129706, -0.09882970930819734, 0.11518030005105251, -0.11047792672777411, 0.09981515910855955, -0.08092063738513053, -0.136881396772603, 0.06888699098021099, 0.2889505149212817, 0.1513294813835515, -0.0794369387301954, -0.2456356341517915, -0.26566908953025814, 0.049548647358015896, 0.02895329006079449, -0.34118147218513784, -0.02809249775896884, 0.19038690705609368, -0.004523436957771696, -0.005720819489143657, -0.20509492852263508, 0.12190945764419196, -0.12492960418683992, -0.10081840422610916, 0.202615566416388, -0.179115147124425, -0.035801798562623825, -0.0017861203692447225, 0.06809212765394228, 0.2718550528699628, -0.003242111156199437, 0.09229926651716687, -0.01631749886765136, -0.29593594921073246, 0.196635502881805, 0.12947627043880308, 0.2123708171223181, -0.1859802407231975, 0.025088449722261017, 0.33610139059072514, 0.38973995603588346, 0.013324019530484425, 0.052341544725657496, -0.16970309945119622, -0.03639653618961416, -0.1353151818764363, 0.1848669408200738, -0.07129724365703335, -0.016150406700667943, 0.1404378079865023, -0.02333456652847992, 0.183790900476726, -0.02976456635258636, 0.13236714350209888, -0.17881422066182143, -0.003029293011530086, -0.2608391543304603, -0.15253532105011744, -0.13047265381396952, 0.3416925686807498, -0.18715159447865226], [0.34263689707547146, 0.11672771191055882, 0.08164992497228184, -0.12890327279160527, 0.14390686979688921, 0.33360556290853255, 0.17304887619478548, 0.07031567781286462, 0.013476743105996702, 0.1221149092189701, 0.02813717593645868, -0.03663697632724992, 0.1538513388157227, -0.058592404122281325, 0.15687867064060584, 0.3719771310703173, 0.169740793281096, -0.08526581213515842, -0.0330602188427412, 0.18748925572640485, -0.1456055103245824, 0.33027840523696317, -0.034485783112960716, 0.024497766489268595, 0.07460326405128792, 0.575796888351693, -0.01546175983405408, -0.10117438007287813, -0.07136585579140349, 0.11622548647743029, 0.29988025902542903, -0.17982493617098927, -0.06232058058518203, -0.038766126428551546, -0.06824804273865681, 0.2653502841674475, 0.15656367076464942, 0.2503911599523457, -0.08480733879751173, -0.19388739460163387, -0.009036098282351673, -0.13215359072300809, 0.03801510882270203, 0.18733057221945806, -0.3865370376732421, 0.1305421105469855, 0.3786252780092806, -0.21672853316735155, 0.05683307970940095, -0.20821659849252389, -0.1543113555827967, 0.020184501321444462, 0.32254287886142785, 0.2844318452141447, 0.020121134787765824, 0.1815156020419483, -0.4888897261079737, -0.06226214177048019, -0.0443549857960552, 0.10140095568981325, -0.13854405246160542, -0.15646854812816202, -0.1631538694490791, 0.10067500117742205], [0.06624983350036001, -0.0647775779168161, 0.16559411155447054, -0.024920133948774938, -0.11091740376137035, -0.12271728984540096, -0.37018460993822455, 0.029035746233613238, 0.12277487871908763, 0.08806265320159899, 0.47043919284967795, -0.06219277155612764, -0.2280026626152788, 0.31602401345355235, 0.27682327711129706, -0.13863449460980612, -0.010425223459789924, -0.08659696373279668, 0.09566076581079899, -0.05955121616287124, 0.13612746828282968, 0.1738343462313294, 0.35055303984969594, -0.07289976958987088, 0.13692768293509924, 0.18430774855069557, 0.04281404132053314, 0.2869181913340428, 0.07827388340168198, 0.025350689037219223, 0.37604152805101543, -0.13607394966451747, 0.21120430815397268, -0.1298318207944203, 0.1057937284461297, 0.14443814915923495, 0.16908580950267182, 0.2568320620176996, -0.11752372938031033, -0.22026043028652087, 0.03757648187222295, 0.05757052921453949, -0.013922175799148243, 0.4410601859499455, 0.022759659842795113, -0.22592928202203177, -0.12609208844765266, 0.08381639244215544, -0.016037983737639944, 0.21002620680281553, 0.15774501256828005, 0.1630341044564788, 0.1526515591900217, 0.14499020109669672, -0.020637104921690526, 0.2767181686894887, 0.19979563847206097, -0.12301447798006268, 0.07920816746204251, 0.1844039946346603, 0.2565650932469507, 0.0847333975339932, 0.15313725324281294, -0.3442337030514579], [-0.04425016451742006, 0.001599811193021823, -0.17964933950750545, -0.0002524315135048103, -0.04603658137353945, -0.20505516764038528, 0.09976727263224781, -0.1166674646731831, -0.06884729678821931, 0.17146413353345377, -0.11409536695158448, 0.2476045379129783, 0.08333647998911077, -0.14710288257466608, -0.25666819530522006, 0.014377207760986516, -0.1294181018162532, -0.20868956626725002, -0.2247323205447268, -0.09166114644899756, -0.08410900067377335, 0.028561029447617375, -0.2211459567540825, -0.09352994704207293, -0.11008934055802634, -0.13333292005394076, 0.23014687488801283, 0.04800494330291728, 0.37948051153496354, 0.139954657850412, 0.0655755649540897, 0.22201769897456552, 0.20708640338241505, -0.28640217365377413, -0.14212484638101772, -0.03990713504963267, 0.05046143292347407, 0.049737561005090664, -0.27283611428050736, 0.06673691324820337, 0.0791097516038322, -0.15896680525329207, -0.2065405370126, 0.10082200600851643, -0.07825976850756874, 0.15023719182641057, 0.17899209223882914, 0.06649922948290975, -0.2535225408929424, -0.15746682691899297, -0.323465624164796, -0.09004768610168361, -0.1573047019834687, 0.27639670070184935, 0.11400936762055403, -0.04394577094088104, -0.2157120337239184, 0.31919669667329437, -0.15501556361461893, -0.3562926139524618, -0.13296242846186276, -0.2546932205884939, 0.14437859710597695, -0.1814865261867282], [0.09056274015666806, 0.26613087780641986, -0.1626265302065264, -0.020846915204312907, 0.33746989550847634, -0.04737025896984795, -0.045361529876003163, -0.05506131840833819, -0.1325921260915742, -0.14032435036755075, 0.18482797283915361, 0.21922775595683572, -0.15940357772173894, 0.3547345519286404, 0.2912952680520062, -0.05461386287209486, -0.29257748682829, -0.1806354495474822, -0.035831294727590154, -0.04274029567909192, 0.30378792963475104, -0.22592951175828854, -0.020258417801049575, -0.03409419206108093, 0.1453116644820643, -0.04134838975643683, -0.04954965694833782, -0.0033420361965137623, -0.08177496119597276, 0.09727943497870584, 0.09741251653452546, -0.1538884089034449, 0.15061881087264598, 0.05813927528232494, -0.02065846887525144, 0.172928295993946, 0.22722556791833437, -0.13540077858958313, -0.0637198478354284, 0.0189298649939948, 0.2938079358496862, 0.07062994346060354, 0.041726687204977915, 0.35432402031212307, -0.04200842764418601, 0.17297624160319122, -0.11956072284894721, 0.01716015047744562, 0.16175278138874216, -0.12664449718713378, -0.11635676712154502, -0.02325160044382944, 0.26509859764705895, -0.29185685297375646, -0.10499584800002697, 0.17524110141018412, -0.3881115778556032, 0.33441099965612453, 0.02902167925873368, 0.35441604183293013, -0.1675585049273761, 0.14630862345562365, -0.11511518142996, 0.05036807081079388], [-0.1307783238728855, -0.11230158446262624, -0.3035087112555678, -0.5010993018496176, -0.009893002339996659, 0.4177321011315996, -0.05176518947871566, -0.08600769456313265, 0.08653095943527327, -0.11845242979006598, -0.09094284424692885, -0.2230888984540781, -0.16416362893472436, 0.19051276498648093, -0.15057096525669508, 0.03575526862567168, -0.0653218293352789, -0.15365118196067704, 0.05489733730170724, 0.14612385375413636, -0.21610999083400903, 0.0616731750257942, 0.13898447283515838, -0.05413577115017682, -0.014101444141045817, 0.0008752358335362892, 0.03598810652048344, -0.19939488584274878, -0.09119012398523876, 0.07310507200002815, -0.13411866150707458, -0.015298147385179105, -0.01285369184276402, -0.13780961000842026, 0.023529745637152377, 0.23116975611590382, -0.1401918031725313, -0.10881409837745208, -0.0283541189142713, -0.21340752857702103, -0.10639351892694357, -0.2622485065492725, -0.3299678153171257, 0.05920191258085197, 0.14804236172509516, 0.30703273162259703, -0.02845415845372826, 0.16892174380774808, -0.05210077403894827, -0.1298606399024557, 0.11403675667627795, -0.044423769596066635, 0.11639361575049251, 0.05170706567054128, -0.1725164489981144, -0.1946297672547362, -0.18314238319539247, -0.11656737336802014, 0.16042976434004713, -0.01989580894569244, 0.2514946135811565, 0.09644965519802434, -0.031427397053180955, -0.15136950771571456], [-0.34732504515462426, 0.19179113599670114, 0.23060133053545673, -0.041265781835342616, 0.3091433384269535, -0.011406982436878852, -0.004227697242654324, 0.20160804124282342, 0.002198289686454837, -0.08030501299858078, -0.06340397038708312, -0.30379313082635406, -0.01380825103200867, -0.0035328007975450717, 0.21546347495627882, 0.11384573616089246, -0.13182279208771328, 0.14252900278348368, 0.05182554759445611, 0.2768544638027102, 0.15973899094262833, -0.018322935302143305, 0.18450781412155615, -0.065947343227641, -0.16955508851634132, 0.04279825414919621, 0.0984388259181641, 0.18482426720285453, -0.005142564191574094, 0.01026282246654319, 0.12818894433142758, -0.012813708161261664, 0.2846716523142113, -0.26266689150006306, -0.22383791234428554, -0.04875456489472249, 0.19587177051769675, -0.016238655781582623, -0.2394885535570742, 0.1372802654463814, -0.1987711044419678, 0.22681915148673354, 0.15991721378984644, 0.2661135476913598, 0.22167676586417656, 0.19362048964807946, 0.12650578418330188, -0.05473120119642071, -0.017873286040476936, 0.002493892628320785, 0.03497397760607311, -0.09503974961907041, -0.12915104681895048, 0.25101703692877747, -0.20699763005071287, 0.19089888383667075, 0.359931706364879, -0.1797362253516564, 0.2458663631641144, -0.02015402628154996, 0.25917641713219886, -0.09927117143597398, 0.22905077979830177, -0.12145658390706349], [-0.2312223101850738, 0.3128603300410179, -0.1472837114886555, -0.22463736657546943, 0.006185575265066924, -0.055460424154848566, 0.2105556392028928, -0.15292023901913843, -0.07704993783088891, 0.1398771298292145, -0.12713095304079902, 0.1828990223901248, 0.19008146502627585, 0.3511020335072222, 0.37140451293652826, -0.12777349292159457, -0.12650042693230068, -0.1614480572461475, -0.002957197433679799, -0.022230038410147063, -0.03829987608690476, -0.20301303695423545, 0.2299075019591197, -0.26203652448316295, -0.09504044176641471, 0.14148263693032997, 0.11089160096301737, -0.036594311806337855, 0.16826259176488903, -0.058361895999258465, 0.3503773204956271, 0.18533181479476737, -0.13235490655213408, 0.1516719043918992, -0.03870569172957804, 0.06808754576530662, 0.21630130227685992, -0.1458957742009775, 0.24845997141226794, -0.04713411421289566, 0.19341545017130818, 0.07828180693956005, -0.09744264250891467, -0.24021401009686819, -0.21640738488554764, 0.05255384162993187, -0.1922052380037157, -0.08742561577433973, -0.04355712457733315, -0.11334074079028389, -0.07902126803680828, 0.1073335252605194, 0.19780750265595554, 0.08252306480941345, 0.11406415210400009, 0.09446415843294932, -0.07754546870243767, 0.03278004930741906, -0.29884027996413387, 0.014333544350317065, -0.07559505054884541, 0.21876902644759033, -0.32844390300387666, -0.18915422768738085], [0.4029193834421461, 0.1299214848776046, 0.2444465651585593, -0.13942264296800894, -0.25699919147822275, 0.08528304832667713, 0.028328276789336623, 0.09622015976851271, 0.27341335106937814, 0.1510214386253242, -0.2735461225698403, -0.09018831446527774, -0.39006011398160767, 0.09669833609800763, -0.08224504054070429, -0.22464664469533233, 0.06354913238149867, -0.19541408869764704, 0.1782368211613825, 0.12676598566425543, 0.39503245902065365, -0.13306418222882155, 0.16873604200071846, -0.07972465322553166, -0.2128154657364288, 0.3284940337230127, -0.18763227655539927, 0.29179607097234755, -0.06282709612522021, 0.12807790452005072, -0.07548030785559245, -0.13667736552462148, -0.1591559375561664, -0.0737769279941403, 0.043500445735396284, 0.24774146963093058, -0.14029960373109954, 0.0050360252364975025, -0.04761913504384072, -0.014903126646324986, -0.18085321543522712, -0.24404510234290092, -0.08288301878851081, -0.005701887693961552, 0.42514705101611083, 0.26488169722760313, -0.07159399588138639, -0.2289101880884725, -0.3022204017668949, 0.16675261244845202, 0.2128142293906681, 0.36712645638458086, -0.046425014360173426, 0.06883799093294189, -0.06058249377932338, 0.2518682540006502, 0.1641522996411077, -0.13691577782915995, 0.029894127683480525, -0.17664292712500917, 0.01966087290636951, -0.2502273308360693, 0.0346972956799527, 0.21083431174439976], [0.2234450758425738, -0.2190533017489073, 0.009029857943444729, -0.23603329689936425, 0.19300081865779614, 0.07197151676840158, -0.20061344826616934, -0.16147975557030259, 0.09886370055472424, -0.30028606126164575, 0.012161308215537753, 0.06397367073680672, -0.11667120852981085, -0.04693214890798546, 0.015979443892343327, 0.10214653172726305, -0.22074535593831526, -0.09931597851776582, 0.1415837266000314, -0.461575234912692, 0.1733170204668386, 0.236431501232884, 0.3353280234015052, -0.41714717955251396, -0.08116576284285854, -0.1144602314939785, 0.25655019480770996, 0.11797316668460811, 0.1810887946519522, 0.12994802974497777, -0.2694000291522535, 0.07425524092879705, -0.3849889066302572, 0.07811743993838337, 0.0355720026993506, -0.0318926682225377, 0.04216586068452578, 0.1263755352791475, -0.13817272671467548, 0.06338072870420787, 0.257412911132333, 0.06995695455620789, 0.04078080716798447, -0.002565119055018174, -0.22942630691628388, 0.25252976388828147, -0.07289951949094033, 0.007113866453515795, -0.052731015649839376, -0.06286116043315396, -0.10426475599984147, -0.12449821709812905, 0.1648130771348134, 0.2414399081258751, 0.042801043227774706, -0.20421028855914747, -0.011699217183630177, 0.39254226699450323, 0.05521769289577566, -0.034627229885757255, -0.14480400038052382, 0.09372457433767238, -0.04229782869885235, 0.22699455434991886]], "b": [0.0, 0.0, 0.0, 0.0, 0.0, 0.0, 0.0, 0.0, 0.0, 0.0, 0.0, 0.0, 0.0, 0.0, 0.0, 0.0, 0.0, 0.0, 0.0, 0.0, 0.0, 0.0, 0.0, 0.0, 0.0, 0.0, 0.0, 0.0, 0.0, 0.0, 0.0, 0.0, 0.0, 0.0, 0.0, 0.0, 0.0, 0.0, 0.0, 0.0, 0.0, 0.0, 0.0, 0.0, 0.0, 0.0, 0.0, 0.0, 0.0, 0.0, 0.0, 0.0, 0.0, 0.0, 0.0, 0.0, 0.0, 0.0, 0.0, 0.0, 0.0, 0.0, 0.0, 0.0]}, {"w": [[0.01086718953158833, 0.005141404265891116, 0.0007527301103635847, 0.0053874299473835275, 0.0031564761468717384, -0.002337634725205693, 0.013298559981667735, -0.0009270346511911429, -0.005347588522782529, -0.016776627210416697, -0.002148642303501748, -0.015337005012069842, 0.007627208174822205, -0.008060799488442813, -0.009152378596661587, -0.022643892722691482, 0.0027613553549872515, -0.0030291686926783015, 0.0069995754748643935, -0.00928005697385114, 0.010228814840016745, 0.007385810475760275, 0.01639582178215781, -0.0045488514312713646, 0.011292082242529353, -0.008159720106914474, 0.0010549492482724247, -0.0023586413816331793, 0.013896849270493639, 0.004367776930586244, 0.019604254951637624, 0.004001376318859805, 0.0017962237828737762, -0.0006510026803131536, 0.002750041506953522, -0.007158738016380587, -0.010650632068535606, -0.005302232687002802, -0.0035800178342252115, -0.005092596515956226, 0.02188043582321854, -0.001745596896831459, -0.002900098099061663, 0.012639776835933892, 0.00907339862939559, -0.007223670304645953, 0.008610306300516435, 0.010204157052300003, -0.008248599551232312, -0.0013095334639124188, 0.007201031206553315, 0.009125161313920518, -0.007360326300969797, 0.012052225873268263, 0.005542605002521576, -0.00907131535698036, -0.002343968147272289, 0.018419462963759816, 0.003989378058080268, -0.018854105134160068, -0.012365273656393295, 0.015164668628444811, -0.0004905673135607588, 0.0017367463359034285], [-0.011626993370766628, 0.015438607811141836, -0.0011114806077824435, -0.0060008039837893936, -0.0012000888058148484, 0.030137276351967217, 0.00032565562763368894, 0.003767978515358077, -0.01430451128675328, -0.006270122668355295, -0.018592791617339104, 0.009588095243612468, -0.006788482845424211, -0.004466080719354503, 0.001272876462640553, 0.003653619167581576, 0.02062511458144584, 0.00025507886862343755, 0.010582469496017734, -0.007119340656917184, -0.009919234825829097, -0.007117427661637952, -0.0005701672413286048, 0.0025967589984573413, 0.010575499439894094, 0.009223909409464411, -0.0056252734318745735, 0.0029681617903135294, 0.010814759699523594, -0.013353245276418861, -0.006736498928381149, -0.012706670287802037, 0.006087894057365088, -0.00022818063548104076, -0.008703903164739037, 0.005098757535518947, -0.003562067271757426, 0.009869541036801033, -0.0019536753506545486, 0.0033078474110755747, -0.01388716060407611, 0.004531401818464262, -0.003786071144162989, -0.01691771779470229, -0.018111095641483627, -0.00973572823895963, 0.00783615390327434, -0.0211880581192214, 0.011758754000116863, -0.0017393076175268411, 0.002340267252728337, 0.0075387832567967526, -0.007910426609549602, -0.00028478999635070813, -0.0014527593571597734, -0.005890349673017673, 0.008557782097242771, 0.0012264871474007952, 0.007557236509847577, 0.008597254351184193, 0.0040083788601596275, 0.007733164613684648, -0.011238379573999742, -0.013090626769702374]], "b": [0.0, 0.0]}]}