{"algorithm": "reinforce", "env": "cartpole", "checkpoint_pct": 75, "architecture": {"input_dim": 4, "hidden_layers": [64, 64], "output_dim": 2, "activation": "relu", "output_activation": "softmax"}, "layers": [{"w": [[0.1893205099220425, -0.0061900467859827765, 0.4931959249372971, 0.1335735145733838], [-0.26101673269063186, 0.42551514002224006, 0.9845661334083508, 0.7040592617027582], [-0.5034513566651303, -0.8747701787771808, -0.4459526714068269, 0.028190354130428787], [-1.6199373220337656, -0.14015275406684438, -0.8872837639827688, -0.5110608566507894], [-0.3800586022976173, -0.16996532043206228, 0.31032877110745233, 0.739658100242342], [-0.09730365072183818, 0.9365242011827151, -0.4792810846400664, 0.24018152015188304], [0.5891430848659589, -0.07345519229426047, -0.5854207195965568, -0.6858345997073471], [-0.3241731250086525, 0.11881070582114292, -0.7364049302552855, -0.15457068032176988], [-0.08861695256870719, 0.4043649192509062, 0.15858475249129328, 0.2733734722291698], [-0.4214316253059721, -0.014891878769973962, 0.6031881255672847, 1.1045798787994736], [-0.8865318804488708, 1.0750487507124775, 0.9492187516156492, 0.5348772397648702], [0.21884295731831097, -0.12560638370348998, 1.0831295434273507, 1.4431426148829287], [1.276201114595121, 0.92610302827204, 0.2570290803279233, -0.8680399158440356], [0.015868589412511, 0.4387212164810622, -0.9390878069394004, 0.27448010927238836], [0.31994914912054195, 0.5060036816565282, -0.8350202488810858, -0.4738353052569066], [-0.3045840913500515, -0.8183589927794556, 1.242331021356746, -0.3366304074740288], [0.3130771854889875, 0.039813141631424756, 1.260186389733158, 1.0734245143101344], [0.44460861274375746, -1.524677985992687, 0.07416453058306564, 0.5584335450888005], [0.7068434505144245, -0.4809212199678693, 1.2494866317096847, -0.9644903400131957], [-0.37281148336902187, 0.817834065393131, 0.08280242926486762, 1.3958736063673236], [0.15302329211586577, -0.41879262910683995, -0.27129690965478, -0.770555162707547], [-0.8727086253317486, 0.49586290447532183, 0.43427526074348693, 0.9464869687721819], [-0.4679337764934417, 1.3166971313983267, -0.15158622028285887, 1.1525770910757922], [-0.2911479433721227, -0.47370997600623743, 0.20345621308864825, 0.7767833145050443], [0.07005230787720418, -0.5167774172357263, -1.0193033669593867, -0.9956341247389542], [0.35562363022113397, 0.7199119811782454, -0.09073552683651169, -0.7200078516908837], [0.6047713916112087, -0.8761302388165778, -0.4880514167857466, 0.4385247753788986], [-1.5802053282259867, 0.25918196817781713, -0.4248660684125905, 0.0637275578276877], [-0.0316174653658679, 0.20385642749564484, 0.5153844719832316, -0.5016690399072179], [1.0035961993685283, 0.5264834641148864, 0.6302633653686013, 0.8438405500429058], [0.5610065415513305, 0.5622897998302413, 0.04579821751940985, -1.0019536475890762], [-0.08906778478695646, -0.5320434432567538, -0.999642715575029, 0.20220850440022167], [-0.42743262270812993, -0.7360987714428798, -0.7727703985790707, 0.1342273054338187], [0.2523350799391632, 1.0188539309258609, 0.028011202773139118, 0.7441243361062148], [1.0099303113906097, 0.8852875518273645, -1.6358502530522137, 0.8865722009329505], [0.25625358038860624, 0.3596850984952639, 0.3212236463931909, 0.3141908317197705], [0.23477846790545545, -0.2296010227947882, -1.3587548726245793, -0.08961864399511986], [-0.5384817306360783, 0.7945663624990097, -0.19607089114511503, 0.06792692999581273], [-0.5493189108688779, -0.4786607830823797, -0.09551254911947589, -1.0725056900623189], [0.04339679972401415, -0.44081774971402515, -0.976284997934345, -1.7204185525566553], [0.34982142494916185, -0.21660666282492227, -0.38270471839665204, -0.16819273522512154], [1.2452527449137414, -0.1460510630207939, 0.01200477404331504, -1.0927982896076214], [1.19498945065728, 0.6761928018735739, 0.7705055088969985, 0.026351379782428068], [0.6733054715491227, 0.2964038933705343, 0.4529779435240201, -0.09034465342336813], [-1.0448271796909885, 0.7098765271076906, -1.3870879623466772, -0.18370407486563164], [-0.1711289636216082, -0.7531137300055939, 0.4149877155515619, -0.16429298808122772], [-0.27978119213226627, 0.4001726555816966, -0.31849844719167636, 0.9940622061285931], [0.13564915344821746, -0.5561307547960812, -1.4831408436569957, -0.9449353850142191], [0.7814301344365109, 0.027617918837115844, -0.16487992256685316, 1.201062441235735], [-0.883861012157214, -0.3708465482088005, -0.32588772032396723, 0.41588971500253785], [-0.4813610379470891, -0.4243497434728201, -1.1563461623681213, 0.48436079997873555], [0.5706127647945625, -0.31620693851030485, 0.11588596348126366, -0.909878787091835], [-0.2235880388957965, 1.1058533269166426, 0.17427518847922174, 1.6955484442759647], [-0.5628736494121045, 0.4013280061387749, -0.14155088754969747, 0.3925651522793975], [0.0741816107564547, -0.2682917219900466, -0.5371724567927354, 2.27144322983913], [-0.08312410957023536, -1.4237951920550656, -0.4772289626695993, 0.4479341093308345], [-0.33978920783909866, 0.9407092476578123, 0.6889931667040485, -0.12368558327300082], [-0.3732203771170287, -0.8221995486096609, -0.6362578247131297, -1.150563819672393], [0.8200996367826204, 0.9936034934208241, -0.932852584785646, -0.8714303258585553], [-1.199921947011573, -0.681233712705818, -2.2716576850031966, -0.8352499878284481], [0.8668736555690812, -0.41629963929851105, 0.5168287509608492, -0.3997534936912122], [1.2549461849437777, 0.24119334822730454, -0.19112676115821745, 1.8646778327337035], [-0.21298675175668821, -0.7979643686420763, 0.17380636083955656, 0.02260755465503115], [0.7125862642251849, -0.6556368930666499, 0.6060289471654163, 0.6561968238998263]], "b": [0.03199923864394918, 0.2065891638203682, -0.02924644463601781, -0.026357670522600074, -0.03840997801565546, -0.041448916019160495, 0.06769464665912794, 0.0570284525352724, 0.04338298304388732, 0.0880752955617728, 0.003283060450862814, 0.1684988932330449, 0.016095753105552786, 0.10320078905835141, 0.09792335959504239, 0.025248381046668142, 0.1982409123490519, -0.05806418014099293, 0.005542324265150663, 0.07326217085125289, 0.012547923966535188, 0.13591783784638523, 0.04270694159315372, -0.10196219686342298, 0.2381119462169711, -0.0009385070279398318, -0.09974116659034475, 0.04053241367398662, 0.01856537611861342, 0.11674800248575101, -0.025027978144546444, -0.017126191217916673, 0.0939199927862125, 0.016303211553361098, 0.03475303818068064, 0.1259720276331115, 0.1144923293081029, 0.07063129593689886, 0.3456974719338752, 0.3668526675096858, 0.029309317182675074, -0.06266553219213487, 0.03674691593326215, 0.0017430585377825986, 0.0010439150019453352, 0.00712976757988846, 0.03280354851666335, 0.28134037835236686, 0.1370588507415665, -0.0766943738797834, 0.10071072151750347, -0.029849965241930915, 0.23244356955043888, -0.012721364006343687, -0.07122992096846355, 0.01769178517820978, -0.0795484693738535, 0.3794911353737825, -0.08201904491978765, 0.4635126500778687, 0.053343586968265286, 0.17193566976092417, -0.19122874466281967, -0.08844041759153767]}, {"w": [[-0.11802184311813184, 0.02873295522918151, -0.14651998247962678, 0.4150853273409533, -0.12436522865299923, -0.08008318591527996, -0.188412600503289, -0.061132563461968374, -0.0011370517867018042, 0.13577035786791503, -0.10802981259339096, -0.03282958317020871, -0.2503645551295448, -0.14633810507557096, 0.4871858446078197, 0.1843914793244068, -0.1381377402454673, -0.23620160541280102, -0.1724126043909888, -0.004003266019953371, 0.006185669634601933, -0.131627490247026, -0.22768964261842, 0.25161682136979097, 0.07991864437813673, -0.06617623692902312, -0.03900762269816348, -0.09334949345905971, -0.5189687505147526, 0.020449761715584613, -0.18914722179854107, -0.17710340526558396, -0.11289841081361197, 0.129436910533337, -0.2069271212931639, -0.2535869918552249, 0.11310636610889263, 0.13328234798206984, -0.16927492768058913, 0.09940013744540167, -0.051553817290046294, 0.05327389589112533, -0.22287095523419048, 0.1472446754512502, 0.21279925804700378, 0.11283680606262825, 0.09861709740153704, -0.666838890658867, 0.046072602166395984, -0.004184399109476117, -0.025731697514826058, -0.11145328619098813, 0.009346087880379043, 0.07286198911491892, -0.046537421070917476, -0.08153733863148731, 0.2173872623035915, -0.19507192431431866, 0.18217250195661758, 0.03171153727477086, -0.14218254521293452, -0.05125632053943248, -0.16240997247873987, 0.11933496704811052], [0.06046052812689352, -0.11495413226129132, -0.17179558890310284, 0.0809155769547153, 0.17292254410555874, -0.038947838610469514, 0.08515357602101264, -0.0572867469704128, -0.0012180418252798577, -0.04978020032831624, 0.023969726508304385, -0.2774809937059962, 0.09812378810925769, -0.04413346595732031, 0.06829472578667864, -0.04619066916775982, 0.04753313233285425, -0.1690991447688496, 0.21232531926349169, -0.31937594393795055, -0.16737096109722818, 0.03553676619493066, 0.2289219396213154, 0.055207148476471145, -0.008044210120747792, -0.2570832456367155, -0.026729517514754008, 0.009129639000161185, 0.29604223522245743, 0.08663727635835264, -0.2742877186705205, 0.37332629354179014, -0.04891558983594927, -0.18119249950437857, 0.2555949752687776, -0.018977418958914017, -0.04287959585956019, 0.024058076452087785, 0.17303305825517873, 0.2074196810949664, -0.23456374562718113, 0.36405413272302556, 0.14342167336392392, -0.07600021777049665, -0.13689741580191503, -0.15772378989280753, 0.01715824510844262, -0.07584742659494662, -0.14119952561251226, 0.15862023050549098, 0.08211700976336449, -0.0539355137681894, 0.10351901292305941, 0.23779937228198228, -0.1877484668766288, -0.08122113406145147, 0.13765010347919063, 0.16398678389017868, 0.031650918268948815, 0.26048508714927415, -0.1927788413700395, -0.27555765710572744, -0.14034561714941715, 0.02382311009402217], [-0.14393475643563164, -0.11136937821765579, -0.16875200314558944, -0.09552152105580429, -0.19486640152847298, 0.051210183332544026, 0.14724805739405006, -0.07824429494814171, -0.04659104059621976, -0.12545617658370398, 0.07187043452522167, -0.02495180235644723, 0.2648727144521424, -0.19452562126657322, 0.06693549579025032, 0.07682512596640625, -0.09640757677746056, 0.08586151844752422, -0.2597461663486251, 0.34541198432879416, -0.2253182864616784, 0.14106672122428976, -0.22469135162586445, 0.18659409937887445, -0.037934392890425356, 0.023553782753260612, -0.0027483626730302616, 0.1957211035134695, -0.05940650564407115, -0.5504860858816276, -0.13906606832700302, 0.03627182096460101, -0.07490798631243618, 0.1160551254114184, 0.17253912877729202, -0.035987846057675174, -0.24474013128808475, 0.23395646973393636, 0.20602251925285348, -0.026412094821755147, 0.37803652548556105, -0.061407692674648, -0.22259434653885435, -0.03690600778412647, 0.19357868197684377, -0.16786765018165647, 0.3304694755013874, -0.12480978835499063, 0.144680181904468, 0.09022328533375912, -0.026196679405150844, 0.19905800752892966, -0.3004861110296854, 0.2334527549281555, -0.05016034411952551, -0.10636182693437726, 0.11047573860245904, 0.2137774271935927, 0.1278225954301841, 0.39550040543981985, 0.18542815147239128, 0.18961311670807243, -0.09798088714226817, -0.0022258322982695515], [0.0993457624162978, -0.004573868504047371, 0.05397795071521552, 0.07557392072002725, 0.14861008486358063, -0.018096641881141216, -0.06186302329532904, -0.1464106785659159, -0.15791841149900956, 0.2059017506467918, -0.015743610000167215, 0.13767259848726462, -0.22932708795225368, -0.3427962672945855, -0.18564444689739074, 0.2028736261281444, 0.18753531187346667, 0.059405074847313014, -0.1418319514006313, -0.024050170128734002, -0.051940823076238, -0.06266626354444085, -0.4437857895553179, -0.15196584201812796, -0.0327990710001499, 0.2679563607213617, 0.028981722037635084, 0.24698870177490334, -0.06961511847904153, -0.04496297014785437, -0.6893644516862332, 0.08251461101311845, 0.09724974416063525, 0.3114245319560389, -0.08610807330172895, 0.01634300147493974, -0.12416858223184508, -0.20831051337980075, -0.12584231294293902, -0.06073667995380831, 0.23973404403471, 0.00038255948425802017, -0.13975642175858383, 0.025089334299306994, 0.03841300237852597, -0.11921213363103096, 0.20143005787957408, -0.33298118275666555, -0.03806998585437927, 0.11761676302162924, -0.23631435726586622, 0.06393738356503051, 0.2272771826169182, 0.07967910640577643, -0.29972747386332926, -0.1279278126073956, 0.21760628584943134, 0.053441390684261174, -0.0017932432211748477, 0.07913856560589509, 0.12741368110429824, -0.1256334676615744, -0.05079648278673633, 0.025291101493106427], [-0.0921703278643985, 0.00890450164671825, 0.2172295999309904, -0.17673854487413282, 0.34452485230036006, 0.34987577102188716, -0.304485642853085, -0.03150175851514281, 0.07470089895577275, -0.1229520304485491, -0.10473822646640848, -0.0046749395381144605, 0.16547364668557388, -0.08330318868030154, 0.3296789370299454, 0.052989450389149303, 0.021301358718877814, 0.25080276281449065, 0.12446152648889973, 0.08771165170992228, -0.07125853434493738, 0.3363327036050882, 0.17777351122001564, -0.0377159763337904, -0.30351880616343285, 0.07616074681362306, -0.20847489458729676, -0.29821616251608657, -0.04426146743674891, 0.09173005121159963, 0.23740345481726025, 0.03645073816222935, 0.13044154270142852, -0.1861485620918559, 0.016592365599102186, 0.04460340878317909, 0.13647033892604998, 0.03587346288150096, 0.1367992605255382, -0.11130573769068813, 0.05881199839650914, 0.08059073530639677, -0.17644545448031904, 0.0526900609329198, -0.05507393140930655, -0.3388556723800106, 0.17580087143293488, -0.09339135822601292, -0.12402695654214202, -0.06789521094196425, 0.01267121428894062, 0.25909744822960246, 0.00975443568668477, 0.08923917143134648, 0.24674668483436063, 0.08254236484128802, 0.21562171377973394, -0.09993766522317067, 0.15299826368774835, -0.04277287056531985, 0.20587752926033506, -0.1338277524878702, -0.14491808322307084, 0.23079995376334392], [-0.034703163520945136, -0.06377218189373667, 0.012624880377007992, -0.12368502818692244, 0.23503103115444204, -0.22084131694414197, -0.026528951331845182, 0.06106966877954322, -0.018501368608741034, -0.14220147106257788, -0.1538095122135532, 0.07498691452486457, -0.18220095030034925, 0.1143106393165208, -0.26928919851717265, -0.09916640237549552, 0.006204262031475675, -0.2218825460215323, 0.11529608616851648, -0.00343129539747745, -0.18337563062464604, -0.2690244981685602, -0.27684464326949015, 0.008528389363298796, -0.20485987624673305, -0.24125410872382158, -0.04083173671497379, 0.4012337364900566, 0.04901121427408247, 0.13477091308272743, 0.03768010143912696, 0.137951989779506, -0.23835048491284183, -0.07616567765244542, 0.046189467414254906, -0.0032330748221716023, -0.033994444098631095, -0.11780210401503076, -0.046789660617806775, -0.13707924274258243, -0.42811327340593636, -0.21107176559309376, 0.0839878544514599, 0.275205388514688, 0.3200934507759651, 0.0163759734189563, 0.15793116472415786, 0.16033294211885507, -0.12244508069753732, -0.30129174490050903, 0.004757406768305607, -0.3114275041068662, -0.05661041915004787, 0.10731501851280421, -0.2511197972098903, 0.004721667998740678, 0.21914890854417532, 0.06272487565370376, 0.09230400562235681, 0.15831376352469345, 0.3063709441977275, 0.02669403684678404, 0.21656620963811107, -0.01135894727565046], [-0.09359163611156182, 0.09169424766193521, -0.10902175308117881, -0.12159852897488747, -0.09676057312771215, -0.38294306435116404, 0.013127403740138977, -0.23355223909846448, -0.0017112247652061804, 0.2710193356703168, -0.05793275721714462, -0.04482076526012243, 0.2695917668883705, 0.09883699780424221, 0.17499519868685973, -0.053024975685197505, 0.18151622470410814, -0.08764912576245301, -0.0976926276591291, 0.1402318422814402, -0.10743871296885235, 0.1529705542028286, 0.4667686531198923, -0.2901465385064961, -0.15818724740002688, 0.20605538649660096, -0.005251633988649344, 0.19404817641864147, -0.17549964310156616, 0.10355264637265449, -0.020100955738976377, 0.023741076400933463, 0.05653660247073878, -0.17937965640340883, -0.17473911372064005, 0.26876119309267, 0.03743615734227725, 0.03480660996997879, -0.017692374030201134, 0.03477330281069218, -0.20651981563112218, -0.16981421099116475, 0.2733354187235146, 0.04691688910904246, 0.14074353207452986, -0.09546492343594316, 0.25463455842641736, 0.032209428526862746, 0.11963548598277995, 0.09506454501661647, -0.14853779107107054, -0.3321798168030904, -0.13954720263914733, 0.292863226940368, 0.25546824712588223, -0.039515720569548655, -0.018052082119366583, 0.16673097942303974, -0.01825874226802121, -0.26973081267765037, 0.2424638536733913, 0.14019300744566665, -0.4443980269861705, -0.026752883168020672], [0.02543792017524832, 0.0845674739069474, 0.03445584920118369, -0.10718516161427476, -0.018349068444326332, 0.05224250431330609, -0.04926718357855232, -0.06495586710803523, 0.22134895813565322, -0.16551066002513398, -0.06224486613772296, -0.3603512307889662, 0.09301631992820046, 0.14694670627575832, 0.09630705077722589, 0.1653342801244324, 0.07655419324967122, 0.06626887780768206, 0.07947574569385066, -0.04651852372813059, 0.2113095062733144, -0.0610047534881915, -0.25805434442425895, 0.15387263609760862, 0.32925415719352363, -0.1702461849017018, -0.01581245191138069, -0.11859381609534506, -0.06778686834574628, 0.005090588977435138, -0.22040247691117584, -0.043975904364020935, -0.25244729337636174, -0.10032723998554058, -0.21103391938374402, -0.1886714726682122, -0.301568517598566, 0.21514654390128637, 0.09188245916595716, -0.3390046714515394, -0.10567507720956071, -0.12275471567096208, -0.12515423692355712, -0.25772203273245264, 0.13366628144395168, -0.06652091530271381, 0.08343268484357759, 0.09497216862222894, 0.24130666020077646, -0.3161483286349787, 0.31348327032628026, 0.22291868142593793, 0.1018929872197609, 0.4214946873694408, 0.039797340288116635, 0.15346134893483432, -0.13091284454878735, 0.2041776324300568, 0.028754979563294186, -0.06960435971273816, 0.37011051394267935, -0.056795751534906354, 0.006487847244928331, -0.035949675167201114], [-0.1328752958589157, 0.10290800693460317, 0.13704467168147638, 0.06437655272378018, -0.4078782484594522, 0.18068372110544792, -0.061810320114672065, -0.21561466491378276, 0.10858131590476053, 0.11166033120410546, -0.1804657618209815, 0.45536381821773975, -0.20795378176784296, -0.3049426329311846, -0.20134264920524977, 0.25755601931348726, -0.015411251423795149, -0.050928832697048856, -0.008296110890836705, -0.09628725467037158, -0.12174151036820592, -0.10497791670596734, 0.13282917782349246, 0.18992872365610927, -0.19022546263576215, 0.04426949130958798, 0.14604581097545113, -0.18903377429757703, -0.08904692254758154, -0.17473433050280077, -0.22640434036253015, 0.020848037564350927, -0.12433907340743643, 0.11736943016145324, -0.0009545202542348368, 0.07721050325999891, -0.05258678070433799, -0.11128571223671377, -0.015954761569259526, -0.006544586792563791, -0.12468810794679243, 0.07839014448266086, 0.13812402194550774, 0.031191351655540895, 0.30289477068366893, -0.10547114491326574, 0.0979134923194581, -0.07645845821539286, 0.05138208527726752, -0.1388043763567179, 0.20252872535264863, 0.031599031109090965, 0.2234651222539408, -0.22164221146646368, -0.06687039704289462, -0.1443022859377941, -0.09246884818463624, -0.12461959088806404, -0.017623377807782076, -0.0027255576375957045, -0.0049510217347564, -0.08299228765441007, 0.03822090340419618, 0.16470450428865044], [-0.1573066773414417, 0.020284155968153195, -0.017430479747721328, 0.06486773595844784, 0.0008397554017362857, 0.0027024249201818428, -0.17565279813675522, -0.0018157703411828222, -0.1576710123179077, 0.11149685416684123, -0.0052757359446055025, 0.04264193531386833, -0.14905241039285355, 0.1431244440779627, 0.12666533076758482, 0.15336193309664364, 0.42286694059318714, 0.007087331849536652, 0.21890783681383794, -0.004535358484312387, 0.06397789132003112, 0.08120124254159695, 0.06108397229970933, 0.12839042455889976, -0.06831345519092752, 0.011529254201733891, 0.10510792925498827, 0.3014460265146704, -0.14722316619836637, -0.3026963245944998, -0.08193279553753965, 0.013954890012936363, 0.02752734324068107, 0.026820466810240993, 0.21343611976867558, 0.18021708224395133, -0.014373453806544331, -0.07885019317701907, -0.07340351534712918, -0.0741477494595067, -0.04017907435015232, -0.2760585113555109, -0.07162683826538248, -0.07060962585719971, -0.03864484981997446, -0.04408532774643059, 0.12926535498290373, -0.1080946290940235, -0.05813136100352409, 0.09489989387467399, -0.04246248257763246, 0.037614160884648015, 0.14082251825797368, 0.07895701670234602, 0.08010530039084608, -0.027295769528230755, 0.1299827977355361, 0.012334662278590092, -0.08512088306405248, -0.05620390976621998, -0.2112599130886808, -0.1406624314521671, -0.33297766846297006, -0.1041270513949274], [0.23609341679537255, -0.09834181918031937, 0.13913452394582035, -0.000838085918984992, -0.12384628164871625, 0.2366238326047039, 0.1029144143994154, -0.3097148997445977, 0.1841060210856135, -0.1900005718598477, -0.031440282782243756, 0.11810908118984632, -0.05300378419374668, 0.19784672737986556, 0.13457658152259694, -0.27882958347020087, -0.08351440057883659, 0.04986386728680484, -0.10169357426394433, -0.03821307242737213, 0.1412892619260011, 0.05602696734018919, -0.16269063006166398, 0.030865081714995763, -0.108335358043651, -0.2148195821906057, -0.19975933041683805, 0.05059284325621403, -0.0050168115676096905, 0.0009586216116585308, -0.202656078176739, -0.03252229476706349, -0.1833842921205019, -0.1637554527323618, -0.02915599350925954, -0.2445436519969008, 0.11834179578152426, 0.43960925185965843, 0.08092842709085456, -0.18450992297467603, -0.0479333431206582, -0.27496306457275277, -0.06675744869339824, 0.08968194192299012, 0.10410474017419379, -0.18244439049957614, 0.052881281842309294, 0.20435514279346606, 0.31026167057349324, -0.12394551705643504, -0.15276758061375545, 0.009572452945717092, -0.5176140325243562, -0.0938710948130581, -0.04791174285701544, -0.08120263750185241, -0.2800027681789411, -0.04357101029427438, -0.13726265802947418, 0.13367560783337537, -0.16236518260149704, -0.04990301470105771, -0.04122211632279409, 0.10033180702709407], [-0.4500504047873261, -0.06017883992466706, 0.1339098314727497, -0.06437754833905274, -0.26992842839724973, 0.05775605710645289, 0.05930525036914753, -0.047864604634302386, -0.20501118356680928, -0.13092055934905142, -0.055447702912632915, -0.15474580496258478, -0.33961211046861817, -0.1358756354898287, -0.011029900259907879, -0.08990592102325465, -0.013358493170536974, 0.014337441888763952, 0.1582348641635394, 0.389593726283284, 0.12880499450361726, -0.24823565865892158, -0.4696955770987588, -0.016703710367410276, 0.01199045385623897, -0.2056796136506282, 0.047824743842406495, -0.1355859566799205, 0.07105579042674186, -0.05754343989596008, 0.06999436747583855, -0.30850389179647125, -0.07774165966120078, -0.02626506307917047, -0.25191758758771193, 0.3327536991284159, -0.0959579622261143, 0.24577323001929996, -0.11781053150274833, -0.0413641998804957, 0.209057867196225, 0.05328880615319166, 0.03401273383028598, 0.047019910146195096, -0.24159087011265268, -0.06903400651307413, -0.16907653463033462, 0.034337539990484056, -0.09615848802516377, -0.00783143652760585, -0.013731496030962815, -0.0069942191669345065, -0.006111457558448308, -0.11531738068375251, -0.18632962740939757, -0.11777371679680675, 0.18942669569640574, 0.0657624059579683, 0.1035706011938044, 0.24312250061165405, -0.20845906439934359, 0.09016162102056373, -0.1903245775028759, -0.05913416278392687], [0.08550642686219813, 0.2848099952272186, -0.1385173053834529, -0.017365767867616285, 0.2039375916333892, -0.2634172246412835, 0.06401008019151976, -0.054595702823842955, -0.15600175385798506, 0.025268467139209105, 0.10456195217229129, -0.16185344994892878, 0.06715629639277798, 0.03065661361965573, -0.21954144679129836, 0.2742810190072843, 0.19218621668526048, -0.1524614856749132, -0.10370442206062286, 0.13569210656963507, -0.08758627356211073, -0.32595082037175516, 0.1849994582914538, 0.0011006620325455174, 0.3371085256299338, 0.06314975112390094, 0.033515538500158815, 0.5074961098711903, -0.03048649180396289, -0.16850741453618037, 0.04050007455018359, 0.20068764478252457, -0.20615617456828336, -0.16069357108509363, 0.07945698808865538, -0.5653112924678209, -0.19314587699070448, 0.14034438234147512, -0.10410209579547292, -0.28759536035944583, 0.34039497361390236, -0.2493458673598842, -0.09251860177339942, -0.06588460091216498, 0.014383960191064957, -0.06552863186891238, -0.014650858973861668, 0.01018323614052708, -0.015722613229215334, 0.016019240919203752, -0.42074942206026955, 0.07798110832779767, -0.24889069401145322, -0.38328942365243546, 0.24342296967467533, -0.2276791158392146, 0.03152763344723442, -0.1367935904408054, -0.1199177153865922, 0.08514864795794232, -0.1852821300020601, 0.06529169120137844, 0.06706559680196594, 0.20549282840756888], [-0.05592461077728372, 0.22788648254173327, 0.2690054438523256, 0.22952203897800372, 0.1170971882648275, 0.10221772690107779, 0.48343304467055065, 0.3766315989253745, -0.11691035354719154, 0.18607215953599648, 0.14753510102380174, 0.06772922500885614, 0.0506398434652758, 0.08863196283732865, 0.1596018122040573, 0.02402115954949183, 0.10889515431916977, 0.23341164947320409, 0.06006268453873106, 0.13925950548592728, 0.14228065014252753, 0.31558753399258965, 0.2671737690634183, 0.07238140281317358, -0.031883277696662805, -0.21239392730483944, 0.04627483073193927, -0.20141828187976293, -0.17972217428977855, 0.1577036759749726, -0.01655507097649708, 0.05732437799189903, -0.1417986384621793, 0.2507837956784403, 0.035826468951028964, 0.2316808590222626, 0.08225822465559868, 0.04646577500286392, -0.13186289967930917, -0.06365052538499266, 0.1334102543885521, 0.11147695579623364, -0.17054888963716044, 0.19928615888354653, -0.05228635147570442, 0.1296535287698047, -0.10532529438067112, 0.039020553117788424, -0.11207382160758413, 0.010499930346427877, -0.07699771111136691, -0.07309837828894143, -0.04360142153526711, -0.017805374423297198, -0.27485353179304445, 0.12901174815932379, 0.20595960935268265, -0.1514659349258173, -0.2384806415473178, -0.22076125822550854, 0.17152523688978205, 0.15985875987995582, -0.07371455350351491, 0.1747953362840489], [-0.18495829805878433, -0.11228231440191355, 0.090438701841193, -0.007046808462683343, -0.10570958846634136, -0.44400432941770024, 0.11858977330149433, 0.06001311220524563, -0.30822157344812656, 0.10211115455744359, -0.002160617993953659, 0.03910884884421885, 0.1647065785957662, -0.1304378739908185, 0.12651320880068928, 0.12115587744436308, 0.12456248097974186, 0.28662421922233833, 0.11219190898153618, -0.0984305447623343, 0.3229141282914589, -0.19635207062094068, -0.08086669443390179, -0.17059056519368554, -0.010829863646756642, 0.1919471242177461, 0.22857789866051093, 0.08607817379997502, -0.10766970954813006, -0.10195555734222668, -0.1059486541821274, 0.17312918192997823, -0.15489624679975475, 0.15340953589963804, -0.007492761719390832, 0.027693892132146264, 0.27093704991265244, -0.0832323240603882, 0.29888646944050573, -0.2419297394670104, -0.14532220950321223, -0.28232791053214035, -0.136616007106811, 0.10015565921212764, 0.13302225738580908, 0.0554053581922515, 0.04737581925714515, -0.1998496051633174, -0.23912161401407853, 0.056485771098334706, 0.24340065079245243, -0.06365027558832256, -0.22436907183695493, -0.27048026921047524, -0.1258898540541603, 0.2823132746033905, -0.03682865424048985, -0.17626208960938353, -0.10739384617613491, -0.06922954207441406, 0.042078602458899425, -0.12243998498375247, -0.15387172931355164, -0.0388053666629845], [0.08246590990548816, 0.12489558324945636, 0.09613870606847164, -0.08251759319813926, -0.30010327296302414, -0.14414154745578164, 0.04722385334744846, -0.2363169098839445, 0.04325050546225738, -0.10498921271081195, -0.10469035968896716, 0.19619588747520406, 0.031176341639554316, 0.24049664580813898, -0.1697672144332041, 0.19845836869821953, 0.15861616061520792, -0.530436328909335, -0.018334513205999395, 0.27046510260381834, 0.13603091051258967, -0.07880303047071163, -0.044438765311382716, -0.2309499712705255, 0.03438407485275792, -0.32092070997704353, -0.17979884663475576, 0.1973121692317597, -0.004769612116487092, -0.06954999584937263, -0.0231836675979102, 0.4842624436866262, 0.1820357729064407, -0.14129018287530687, 0.29016083373800927, -0.01803238230355924, 0.1304965385293437, -0.10525120262351588, -0.168918303959655, 0.1375125260219905, -0.13627235932488815, -0.14256345255225786, 0.15253545305278335, -0.20848148909737532, -0.25134252353805736, 0.09530134003154132, -0.3470704975263889, -0.13485400984570678, -0.06653121481973331, -0.2384707528200055, -0.19788154339706518, 0.1158861675378858, 0.04802764719207881, -0.1673382312103467, 0.09325629870404127, 0.2674334305150082, -0.22961869382736225, 0.0075906703465996065, 0.34308216430495714, 0.10500465290758268, 0.1412260084931662, -0.039022638777837085, -0.14186390883415073, 0.2015701884295809], [0.1145924469645893, -0.003703989186190006, -0.0934828994097698, -0.3087661770086696, 0.01961823501987878, -0.11889510755496487, -0.03188930015282792, 0.11543500208989575, 0.14883088969136124, 0.11748769798451002, 0.4094636821621991, 0.19916967991370116, -0.13046129969226614, -0.14690491418548388, 0.40556939624187804, -0.11624549947873551, -0.00860336357087153, 0.28535625531087505, 0.30746392550694224, -0.012832169189342397, 0.03786189934592398, -0.28930931433732593, -0.15375120604962425, -0.07820402590104138, -0.01671079619291708, -0.05956586748340516, 0.009593987451064894, 0.39156325014535137, 0.08237072379533682, 0.05637153973877726, -0.002573872553217543, -0.04375062283336845, 0.20545130633052863, -0.16958181350664728, -0.028938749348329948, -0.19012051132790825, 0.002985526944703459, 0.025447867213575417, 0.1608523447748421, 0.19476074299916382, 0.11309767256879738, 0.2814906968310164, 0.28945210870176996, 0.05962451730952211, 0.06703491366543322, -0.34525751876794447, 0.04964377680564347, -0.02010298527733424, -0.3083207699703385, -0.08344640743927652, 0.15335763714554107, -0.22392398453099208, 0.22729625381284332, 0.08504709371198359, -0.0720562085465718, -0.04767000276336074, 0.154519365076381, -0.26342570637464446, 0.357364648287246, -0.1595349813399796, -0.13374943970844708, 0.2030569532177127, 0.12963058374212788, 0.2234862392371191], [0.19454540948762497, 0.15314268189481015, -0.22639097381578882, -0.11042078651159838, 0.0924278931924011, 0.03475109689140979, -0.408744113091201, 0.153372283185347, 0.3356589938693276, 0.3320543407217689, -0.1319368932087099, 0.2051363780942853, -0.34255597063651616, 0.30582901764553716, -0.37340587809349135, 0.09042681607930059, 0.31762029280105103, 0.26976782715686826, 0.04487292204502602, -0.15578052726059394, -0.07338188459141946, 0.017092571585803497, 0.1590851916763079, 0.22300844163434203, -0.008703431370474416, 0.35420183873088956, 0.13247508353813742, -0.058627412671349466, 0.2684059362687417, 0.05288309450850543, 0.023521232007194796, 0.015374638958772837, -0.4070230443739944, 0.12639014811297772, 0.10186016685361723, 0.006296848937609402, -0.0903819252438648, -0.21114237693641055, -0.05596671366651357, 0.09871503563248107, -0.05730742770449945, -0.12450535410418413, -0.02055211493427964, 0.3932902588600084, -0.26663370819290255, 0.16369075810072364, 0.06758552036973973, 0.19985333955930232, 0.3108150272711376, 0.02890967922447446, -0.26841044905652434, 0.19900288450923798, 0.3797027180570572, -0.1795681694267915, 0.2356388041100585, -0.10945061446117454, -0.10204805652959997, -0.3883250981317999, 0.1619745087783554, -0.06840305736738371, 0.09158993968263238, 0.3894124466269069, 0.1273198453409926, 0.1501213449604935], [0.13309114029624547, -0.1795898604350216, -0.012421307592790124, -0.2171592362405915, -0.15461467567330694, -0.01372733265083954, 0.18973926776813962, 0.36255016600706635, -0.18935101126699774, 0.03816605689773285, -0.004619141363025753, 0.10823136251625094, 0.11384213685091492, 0.06512717152596299, -0.1681658862759624, 0.06953625425078018, 0.17198082241904786, -0.09003091559462913, 0.3571318595386088, -0.03544406233756625, -0.11746835706479761, 0.06000513919058311, -0.03849952186937572, -0.24015327106236087, -0.01211211181608755, 0.284349765860415, 0.3552525872376441, -0.09743298869691523, 0.16180964239293769, 0.035292014111316015, 0.05369171073389553, 0.21790980307094157, 0.14541166969337976, 0.031897658776729926, -0.15729654517732586, -0.19228304723711867, -0.015396718289679982, 0.06156665105404012, 0.08897842290566572, 0.1334011695584061, 0.1731962515287128, -0.41705839081918145, 0.1723560858690976, -0.17840131454892896, 0.1992349618021455, 0.05869446455663917, 0.11448577578410934, -0.10354018546734181, 0.06160162525029589, -0.32928382799800066, 0.18896681800532528, -0.05931160402761955, -0.4483161178274901, 0.19041406273819045, 0.3050584198461591, -0.15865520167312042, 0.22043536784247814, -0.13727665099052216, -0.3961960644913625, -0.0774356352649025, 0.06593179433892657, 0.04145140694383442, 0.013660475079428839, 0.06086849195787466], [0.037904877980340125, -0.046931872592607636, -0.08083970165768674, -0.023790601863803346, -0.057943943263275094, -0.06568269306350245, -0.18167894551969277, -0.0863536469077554, 0.00644545890723026, 0.06170085771057362, -0.028196552923156107, -0.03384186949993427, 0.08337479871734582, 0.1465067777782209, 0.1292839383034662, -0.29720088643279974, -0.08212687324028774, 0.15049315561199786, 0.08969204578812494, 0.11227219537587495, 0.07248400933732402, -0.15108602041116934, 0.1980478696819822, -0.2324190743001139, 0.21601791695015302, -0.003579544196018737, -0.24734034309920525, -0.060194216516880956, 0.2116373447507097, -0.11923815915106016, -0.21394129325060418, -0.03150301401216265, -0.11943560680585347, -0.23660953381364974, 0.07867819127619667, 0.1359991777001686, -0.06986635853480452, 0.08375456403097342, -0.041377781491032904, 0.021269166181764717, 0.03153114212950399, 0.27214830631583226, 0.07000695595227013, -0.1848119401177452, 0.09779210581350738, -0.025373605898300948, -0.08207684314425646, -0.1014293925303774, -0.0021382347612021522, 0.0017767618723364906, -0.047987064892789685, -0.23207349575549827, -0.3117009370541815, 0.021009939253523586, 0.04543653763033491, 0.4177794899727784, -0.0514886937056957, 0.22455329091937448, 0.20967999627903078, 0.04807345864678662, 0.014563488508215278, -0.07655313368063547, 0.32872702507447066, -0.2633453642196083], [-0.0002126517853738398, 0.3270199240010277, -0.06769579763162605, -0.17824283151252676, 0.07571571661205996, 0.14890586028106892, 0.08310721053121851, 0.01874770646285642, 0.16981364575996713, 0.21744026582771053, -0.11974831866055086, 0.04697807571957569, 0.24527880108387212, 0.09673240792853645, 0.048624642875372555, 0.10040074860832947, 0.2699039590352694, -0.1484353862892145, -0.19986108654175838, -0.11392252546753205, 0.278979884792164, -0.13073667792332835, 0.05932586898180702, -0.0113892901240781, 0.0626226047603683, -0.2745033498225492, -0.0008539566661604787, 0.18890271137120143, 0.20247425655236265, 0.18003738794919297, -0.016115238636883453, 0.27299970908605165, -0.33929370032893547, 0.26021858040088147, 0.1383879872743862, 0.15214603164796023, -0.016559620155576014, 0.07128864848733785, 0.07506649167888034, -0.31738552962790656, -0.23719401439865417, 0.04412098606163555, 0.11540864616573673, 0.07996912660426912, 0.26297546326268945, -0.11891389283852818, 0.17227267332784132, -0.05865506756720449, 0.4889522038487978, -0.2551452349161778, -0.13051323183142036, -0.10375472819074405, 0.3527158584574528, -0.12666548030357133, 0.3708628317344183, 0.25860821986167626, 0.22297687573740566, -0.06228066991955363, -0.2207439260076129, -0.1558480757080219, -0.2314247543183735, 0.05681233895478279, 0.010649587016183544, -0.010794262584947548], [0.16805836147427475, -0.022962516883758534, -0.2735936443867336, -0.18736814914242114, -0.22514000122833794, -0.05618556951027792, 0.2199910190869633, 0.08943589555572835, 0.05987692042525072, -0.22715687454168665, 0.4184703760626845, -0.00515778753666673, 0.4258786712087465, -0.15351738191170183, -0.10086580730426044, 0.45972287192218364, -0.1902967809833074, 0.07417274818684767, -0.060265851971308085, -0.1438656170639388, 0.3820024659239654, -0.1775657022524086, 0.1584033321003918, 0.195322020909625, -0.17895244440874775, -0.3359354364830439, -0.31487243439261914, -0.1413872312142264, 0.03923290805414812, 0.058354445205410804, -0.03410652043946688, -0.018510998021517056, 0.17234933815236947, 0.13535289634698058, 0.0660396234035618, -0.10946228032553618, 0.13723223983029323, 0.03184761610014758, -0.13218115113610582, -0.1023249190331854, 0.2169704926029965, 0.3252443124509307, -0.09482581008190497, -0.3679780140307138, 0.1037466750506628, -0.1595073756614849, 0.12949635079133, -0.06663593021323802, 0.39347763709278777, 0.019890790992335393, 0.15975970238820086, -0.2151226846060038, -0.49864054784883033, 0.023868919580154763, 0.04642765902852334, 0.1276356892230052, -0.09827611761802096, -0.22822914388687401, -0.28389060905301267, 0.0979710155013197, 0.12494284145761611, -0.1558743686616833, -0.09321951136430658, -0.1289624339844962], [-0.33638058492142414, 0.026690935081020193, 0.15146389171295954, -0.03399438823452717, -0.2517486003283754, -0.03987109834902589, 0.25390003009779066, 0.38194079661804575, 0.04140827565446768, -0.13732732358259336, -0.3565385192325689, -0.2794612857580579, -0.007415604879161474, 0.03851670755831831, 0.057488067417515075, -0.0455088418741009, -0.2796907174601523, -0.28363979356556357, 0.03219764306579196, -0.15966384181686283, 0.23894370913052096, -0.25900216331011566, 0.27995834588858765, -0.11795079746848948, 0.0595960095465888, 0.05241632350934252, -0.06561911637489402, -0.3550321827432243, -0.07872844230804923, 0.2528985722619124, -0.21096665047073399, -0.32474307986439716, -0.03865353808127186, -0.08636164003723329, -0.23728077556194474, -0.1383040480676526, -0.07648558923417424, -0.07531263659286624, 0.04091274548743223, 0.15894762276289204, 0.0724748841662245, 0.0753267673757655, 0.2863340472101, 0.1900955011162407, -0.5043842746455242, -0.06557258177713357, -0.28255045480237423, -0.10025659369400307, 0.12683786400237074, -0.035320422896047726, -0.0749100488576189, 0.2475311845756213, -0.28470870952372285, -0.017470708217767795, 0.09653172396065032, 0.000315462255687413, -0.21080677707084342, 0.009766167576207971, 0.15624849042709033, 0.07628440199870531, 0.055399442785418335, 0.0363304962030712, 0.025143576649656475, -0.22460803280310018], [-0.054600775537052254, 0.07869873950014879, -0.5508828383451866, 0.13410138850643516, 0.05964815527978802, -0.18822423673054503, -0.1310762828184265, -0.03615958288799517, 0.07496749528197123, -0.06588733686899376, 0.21032041456866724, 0.07453220855017208, -0.13361685832842543, -0.08162797662798657, 0.04228711723288487, 0.12891146551812216, 0.12222522151351631, -0.017496210226995206, 0.02718272795289673, -0.0018099049545004019, 0.1448878037302318, -0.17248214592703856, 0.11131186282090344, -0.32753474358320384, 0.07870870248039645, 0.047781646687369596, -0.0001780236026285485, -0.37624214645092874, 0.27753605524654407, 0.1632885700245745, 0.006950700464221499, 0.08073458447841644, -0.16654025191990457, 0.09496326495888104, 0.27958993597780185, -0.2060857780628075, 0.4752510783100877, -0.07460793297759943, 0.14633733310623126, -0.1461132163722542, 0.0688863591200969, -0.22377687724891035, -0.1114199516025093, -0.038072547538901054, -0.11562814816421416, -0.0427361760656636, 0.1733776728928309, -0.22699851274119792, -0.20972165906288692, 0.008227051516247858, -0.10039343679248054, -0.17788114516032685, 0.028093597318898354, -0.09885013667263669, 0.05931100654133169, -0.00738930849149847, -0.031848993471091894, -0.012759042546061779, 0.18530742998904132, 0.23018654400241217, -0.02669599647571896, -0.17866682715891652, -0.267187818223661, -0.3947116325632175], [-0.20756076667015566, -0.17249100169233053, -0.009669965299229557, -0.3302629620875693, 0.2506986022339572, 0.16953006733502068, 0.22806990238214217, -0.08809085945803329, 0.029681176991682327, -0.17366742011420339, 0.24236525555717628, -0.22542073192850037, -0.1046298135154329, 0.2450428752964901, 0.43789975159516775, -0.01745791127407802, -0.08606216858534955, -0.44400834731413424, 0.304368885793997, 0.03293435702985692, -0.326764996411203, 0.1391721171217191, 0.07316671692202328, -0.0628310705757632, -0.08435286076963579, 0.12379008210946962, 0.04200136833974033, 0.08127112542594175, 0.21469820218563998, 0.19109388941698258, 0.13202903616493689, 0.1036862307889707, -0.22651647659000976, -0.22256324627260132, 0.13715308168363874, 0.10190330309276321, 0.09932376724196289, 0.13052582935347343, -0.0972529494161387, 0.11608310196651656, -0.16989809320322732, 0.020717170663237833, 0.1421255788025316, -0.12806650448900178, 0.34955407239114195, 0.19891083164636075, 0.2344121564951555, -0.02099152019153083, -0.2509013771458157, -0.1250420523037907, 0.0971663358269412, -0.03822199328193285, 0.09175323174022848, 0.01969903659376295, -0.10529899401034717, 0.16266166354842687, 0.21168639458291133, -0.1254151926185603, 0.08486330309047971, 0.03324125247925157, 0.05104007118346378, -0.030190211141741197, -0.22151075676738632, 0.2507062871663338], [-0.1844827215008504, -0.15393542313780312, 0.11601334654900643, 0.031797672683194424, -0.1407396901298287, -0.11625868773798399, -0.02805214652056975, -0.07708937172725415, 0.11427552257078531, -0.20582550263338154, 0.06417354254537032, 0.2705199543824613, 0.0355828772991429, -0.15703798956058235, -0.12780880501294373, 0.007704636432027239, -0.1103593715929221, 0.21824890965044344, -0.32535105897704514, 0.28967797641320664, -0.35797100724362546, -0.00726973783965292, -0.19147537844232929, 0.1449852487611824, -0.13683111539361287, -0.20030054505125486, -0.060110819573420356, -0.07266354755552673, -0.34207350232965017, 0.0803020502794988, -0.42296431177242555, 0.20794902261138373, -0.05834777781891242, 0.1684243691518796, -0.1061746823544709, -0.1402206264968516, 0.11521388260932922, -0.10326637472543995, -0.27358106797688597, -0.015393162318144514, -0.24343381409237558, -0.0022855636086654527, 0.24373308015973355, 0.17016309515433878, 0.0003273429119954385, -0.029300770513528064, -0.056010841457579334, -0.11270316816613114, 0.06275266321464792, -0.027912801992837376, -0.06747275756575276, 0.04773887726715594, -0.35682115729229863, 0.3458567074440692, 0.1113832102497135, -0.2463814612417738, 0.020305144218888294, -0.19959458994132412, -0.09533364742028382, -0.15823448580006455, 0.19299277239977664, -0.33957894234195396, -0.0626484946318909, -0.29152372798711185], [-0.003617757446785473, -0.0562084841216913, -0.24867517152210714, 0.2545035340225499, 0.27636933520726953, -0.09961522191930525, 0.09234413147920123, -0.02627779429381653, 0.043047801758883335, 0.2708160708057008, -0.04744592117950429, 0.31677453781637377, -0.050730495998347745, -0.016507871389568093, 0.33406667684660585, 0.048646278339119095, -0.3592324961076743, 0.039737634448139485, -0.2265759105364838, -0.29393758637625045, -0.16664564508695637, 0.057611344930164274, -0.19680882905170816, -0.24772265545233274, -0.0671369353242551, 0.07164223407307946, -0.12310751924293356, -0.2309699323088739, -0.38404014665829767, -0.13717330268064712, 0.14941727333066107, 0.17714360790625913, 0.13963766415720966, -0.030919741891974037, 0.022933391850297292, 0.22408883638093172, -0.15358015605681036, 0.06440682261409127, -0.330729949998634, 0.12072576177876941, -0.07974219339995324, -0.20417168041982742, 0.13672648404235396, -0.19639832560339954, -0.15324800289624343, 0.271674556229073, -0.18491924757248598, -0.11594214349115732, -0.12078333455536176, 0.13872856788561294, -0.324522657007128, 0.2210617785339372, -0.043032347592540404, -0.05602223273443458, -0.1585130324690136, -0.025696582145134584, 0.2600513955121068, 0.03765093613532799, -0.16460463892627666, -0.06139355569198156, 0.09453716458637042, 0.015069886322855079, -0.0454941713576241, 0.10686383193849262], [0.06346123231983836, -0.19179351067873945, -0.33665801877263685, 0.09110280706079876, 0.3271537997176137, -0.1453685386685337, -0.027370402688779615, 0.24034350251515668, 0.307353331022042, 0.010173150710393476, 0.22000067925749198, 0.12617989969348734, -0.10319728363876299, -0.35672761424578825, -0.16159652583192874, 0.06342100008228775, 0.06851539222866329, -0.0936497983227624, -0.15704312246131505, -0.28219992437046687, -0.2965538720371985, -0.022046091456146746, -0.27720559365052183, -0.003328507751573812, -0.13894548696970954, -0.07603282068261559, 0.3714152170125571, 0.00940958600483935, -0.06108791062992146, -0.03734740149145632, -0.2617752227979027, 0.2380598777522113, 0.15180629743316457, -0.09508347157587481, 0.03557511266189855, -0.12109149054483963, 0.07101282003640023, -0.23733370929144332, 0.048012510126919615, 0.26698898879398203, 0.0775058498222271, -0.11071877574722987, 0.16194325693177167, 0.34143889185630727, 0.13029492641905896, 0.015943797123374924, -0.14152528023019953, 0.07862560443986628, 0.33343413768695074, -0.3557633487818614, 0.17550431203116257, 0.02387072531946286, 0.267438679474817, -0.022284325581178543, -0.3858789173886331, 0.3506123435255883, -0.20594337373852772, 0.14339692651283034, -0.024933819549040472, -0.00013322326654963671, 0.017920145140014592, -0.10593884252381441, 0.033090708728496586, 0.04788647838605891], [0.13581540278703272, -0.026683554600591946, 0.14030169250697266, 0.3221414130046579, -0.1554489943326237, -0.021966703886721558, 0.12334676958246327, 0.21980812746456632, -0.0374894763170283, 0.01854343523931168, -0.11577974298430496, 0.17180778441942457, -0.0914803984485392, 0.13449146120343208, 0.014336485128808323, 0.03042226833883438, -0.26090811827052346, 0.06435991136652087, -0.02744055631740003, -0.2905146035425532, -0.07685191773094252, -0.0938351412137834, -0.3188771694593308, -0.19494550691699764, 0.39471227851011825, -0.1807422287489044, -0.12354905251171376, -0.21278753748627102, 0.21189129175280894, 0.1008847818442807, 0.056278376284632815, 0.08107597183157138, -0.0065308186703250184, -0.09786333136830574, -0.11018538512872723, 0.09199128371262154, 0.214206159445378, 0.1391328606817402, 0.4391045663880923, 0.2531540255883094, 0.13981575906524124, 0.19115324493042968, -0.3392558287617631, -0.028527422204990348, -0.23601472552143618, 0.310734644949428, -0.08396082182020259, 0.4652103374901965, 0.1774211400057513, -0.05284588774386116, -0.21441314958650282, -0.16268768357846208, 0.1457863091376962, -0.060152552028577035, -0.23298254126596357, 0.044695348836213844, 0.23221982270756958, 0.4172396199750448, -0.0869468017123221, 0.26371709904273083, 0.09298007611755692, -0.2858660262167763, -0.045738261131233506, -0.08108875863403667], [0.07161375827219012, -0.09194618568449196, -0.24272398303247636, 0.05801393003918024, -0.11332607626973229, -0.21612553312566812, -0.21705722090436713, -0.03941018413967553, 0.256424555007613, -0.03157666386898803, 0.18901782715621557, -0.39893781450343796, -0.149170944947596, -0.22205043698800347, -0.04807426508464593, 0.1372460681785526, -0.09840347108408225, -0.21584439124343818, 0.16627967077421293, -0.1344352460332069, 0.050760763698792725, -0.11883972138657185, 0.09197136814295598, -0.06665211578503662, 0.1430640641000289, 0.11000547469086605, 0.39420164423600124, -0.015635173932114704, -0.1731205859748198, -0.20719330792875748, -0.10567374805279511, 0.06998930748100451, -0.12259590174086966, 0.2691583130126253, 0.03447237467566426, -0.1734537098589929, -0.0791733782859469, -0.11373633309282391, 0.03045816937290438, -0.18023166995333761, 0.2272340071677583, -0.06440760820482577, -0.043390345711560876, 0.16234711603214763, -0.13273608475384832, 0.0014937418778666037, 0.3170043865510201, 0.07511744058434822, 0.05012319736616661, -0.08264564271829788, -0.17265830672751603, 0.31040036381060065, -0.028822890091266026, 0.33541598047708127, -0.12015204199706876, 0.22711330174808084, -0.03636717245095416, 0.07428147023564396, 0.21513316999374546, 0.08289003594000123, 0.1395103673578572, -0.2793159499173157, -0.07832082426790532, 0.3603548947130071], [-0.04079938843343698, 0.053125603876737836, -0.01367148756783251, -0.09560976709126293, -0.2647322454171251, -0.20487987681527212, 0.30016501395998485, -0.009923731699712692, -0.2121807425941417, -0.16134460448794394, 0.14733110029171062, -0.1725731626676501, -0.11352266986489927, -0.19662601549412195, -0.21972938571659717, 0.2976242926509727, -0.027671549132588503, -0.04141063830416901, -0.10759289941580967, 0.12420407587855929, 0.020010503837829638, 0.048886658861084425, 0.02281515726619179, -0.06185197527134098, -0.06615903144184684, -0.30837930658878854, -0.0788061649007173, 0.38684110378577086, -0.22058835155882472, -0.0012559214277427643, 0.056546677724289666, 0.22285179406153718, 0.48406873380672993, -0.07259473186645372, -0.15224974714455575, 0.18729838972676696, 0.05023570456335353, 0.35294221505774426, 0.14057692386633444, -0.10591416683852968, -0.030514811792667247, 0.07551572824209862, 0.0866082956159994, -0.20083168710509522, -0.3382826675815575, -0.2755788755474808, 0.10927634342474432, -0.007309521042299584, -0.32239558619519926, -0.09022537292621996, -0.3307336326155226, -0.04120939809765855, -0.15388347990566714, -0.09985807574334157, -0.014809135148665203, 0.04995265897992815, 0.0028114590428512105, 0.24977096094287968, 0.4206685621087866, 0.18619198781381427, -0.03541757297125324, 0.1356398828156411, -0.1206206135999706, -0.14408600476840475], [-0.15255321395283886, 0.06543157197625983, 0.20179619872634263, 0.3702075455405671, 0.23854743992600164, 0.13024430240028692, -0.12377561248147316, 0.006154330991439528, 0.10181686354662871, -0.013814875947719402, 0.34046702269297435, -0.1223298543636005, -0.11044906505658438, 0.06903086088651883, 0.35519770977222165, -0.32941961034377104, -0.1299042604917042, 0.21915806344944005, -0.1156488035112296, 0.38130895685283184, -0.15660302100854204, 0.1981003731859551, -0.0004535428824414606, 0.08238876957585947, -0.20806951981535235, -0.28186019232441284, 0.13487661607671256, -0.10432716563792503, -0.16420710469168034, -0.17073749208217837, -0.18210138006786883, 0.22793017519083048, -0.17812741161001622, -0.08034578882312884, 0.3614944067542584, -0.06723088813844874, -0.01315486381704097, 0.06633709956876563, -0.07482668366107158, -0.14706526745679935, 0.22324554549846648, 0.06179764219367158, -0.08889427382217009, -0.23430166650032422, -0.21392902869955951, -0.18941008010315594, -0.37311849176630113, 0.18212386269595165, 0.03458208610163417, 0.08800638370653643, -0.26189463317669254, -0.0902891373409736, -0.02097479942120219, 0.015471694554748006, -0.023133649926233273, -0.23441995118926606, 0.20083650184243163, 0.09455679979497893, 0.020006579751679746, 0.13817638113346126, 0.22088024683143215, 0.2752302150226943, 0.01897487897856241, -0.04741841774905535], [-0.08481942468740081, 0.15799116516906808, -0.12403373900572495, -0.16130027649878398, 0.09806362934958218, 0.09289103057463857, 0.11271749851116838, -0.1499340613953906, 0.05341388207278255, 0.16200024802613747, -0.08415611901896312, -0.04713963142353823, -0.05217612398129885, 0.26883535169447437, 0.15975875357630528, -0.23702279579113414, -0.26859207099499866, 0.11495488678099637, -0.037426603382726326, 0.09452491247889998, 0.04699507512672288, 0.17893734838376232, -0.28674428112029143, -0.09686474224771202, 0.04449097507558173, 0.04190004662899419, -0.16757893337556046, -0.09286467658845238, -0.1033442343285555, 0.008070288727324739, 0.12425931171100402, -0.04869307434685523, -0.027056977381882293, -0.3698478426299295, -0.18754486438442033, 0.32777175431480876, -0.3031502579806169, 0.2418021708902564, -0.05228507147319014, -0.3465437222728598, 0.25767677153055524, 0.22724028151109152, -0.0886110627783653, 0.15346151439465014, -0.06258351089427569, 0.009015608857496277, 0.029536080926794165, -0.040671214644171776, 0.09271343674133505, 0.06817866263011554, -0.09241975727265689, 0.052406973239745254, -0.09145283283213211, 0.02386261572971025, -0.08777254434236123, 0.017251208227815767, 0.28361531261931183, -0.11529897582004593, -0.25824230368402223, 0.2819925300043335, 0.05183010886698776, -0.11494465587489502, -0.0441475157239653, -0.1615180207545512], [0.16957633425637025, 0.17892082830499068, 0.10033821340766312, 0.030212311767304236, -0.330588380165651, -0.18936476593233945, 0.04925158760056373, -0.47466188500279577, 0.003248074984920569, -0.13287507085218322, 0.14753163271413725, 0.04270170084790677, 0.22511414075665478, 0.06746568171921992, 0.03118663976297525, -0.168947987945871, 0.17531760210422417, 0.43613061442139783, -0.29374815874409205, -0.12982395586585196, 0.2752201957156737, 0.13591399274786875, 0.0019194709344930016, 0.1605185683454755, 0.018516147198856556, -0.10055082071912133, -0.10926194998240323, 0.16285250826517192, 0.06664913149480212, 0.24352454781142163, 0.12842311693777902, -0.12002911118639645, 0.26101225699983366, -0.12548996551452862, -0.0521894733558854, -0.11159049184824414, -0.26970314349103935, 0.13057203872970766, -0.20173309141287296, -0.1563984067818261, 0.1604030158191599, 0.16427840530220778, -0.06424482485834207, -0.20772958554603005, -0.014208849091407896, -0.2801495525637143, -0.15077705784292156, -0.10871886079016016, 0.018333163657152422, -0.08262695371027536, -0.027346077322337233, 0.23745598433094187, 0.1826252806314089, 0.2567862167035856, 0.22133973394050288, 0.047520112548218925, -0.18868603862429942, -0.27280785588969286, 0.015669028705223215, -0.1191170026044696, -0.15370341514528546, 0.14689714884281987, 0.21118210368210644, 0.01730014749767864], [0.01518567594351992, -0.09591612747694873, -0.12164776635329803, 0.3483679998994235, -0.22208147494122132, -0.028160222945070295, -0.07921728893631422, -0.019459588877816132, 0.18532313374586584, 0.1758056697530987, -0.024004450463218314, 0.19902739857079188, -0.13535943541114404, 0.06312800984927314, 0.31474604516155735, -0.10211305129697093, 0.036710007497299836, 0.2649456825778271, -0.14906477501488805, 0.011952847248570864, -0.0558089412678852, -0.1969205531087946, 0.0724403314958305, -0.14927755833218426, 0.2926895556943813, 0.0037507696952642717, -0.03715048797095371, 0.007012076410116273, 0.01823816605571107, -0.03486840502650819, 0.010046627313377259, -0.10161695109108804, -0.08830008742002525, 0.09379962136523634, -0.37751355802664477, -0.1409041871602218, 0.0015308330702527423, 0.06097140844335368, -0.06893829162541627, 0.023982082824231272, -0.06176580701895665, -0.3292761363414352, 0.16661149706569064, 0.047495119531597386, -0.16923569311452372, 0.2607721086960932, 0.11986645927156826, -0.11060923460178938, 0.1956587833070826, 0.0951194985983604, 0.14651849516278168, -0.10658696833310209, -0.09747751334684968, -0.1451843189073809, -0.0956332009207315, -0.40887631463959173, 0.19202905475848897, -0.2085211239260645, 0.10066699571559967, -0.22964467792086676, 0.020480729833075514, -0.2106029093495617, -0.0035207638750714408, -0.282777548871046], [-0.10278655325978903, 0.1337311364126666, 0.037950880583606544, 0.028488174909935257, -0.15101510753999675, -0.3693758874405819, -0.14299364287152055, -0.0898578430614478, 0.27204040889544995, 0.10395939991230178, 0.07030548716326665, -0.0900564944162158, -0.08243203693253454, 0.12596161799030486, -0.04258831132613059, -0.05931390273283254, 0.35935333368342276, -0.17312396135262906, -0.03945045433518225, -0.029132305080968993, -0.11512513893480976, -0.24293173949115307, 0.25067120778546065, -0.24982813778398963, -0.1573748570806814, 0.06815528640572074, -0.21995930364012112, -0.028363309590306595, -0.04045594528351647, -0.008558252864547023, -5.4096292621435985e-05, -0.24889156591781403, -0.09703161099087589, 0.2541326428080387, 0.23390761472692825, -0.08423873571230997, 0.19275920158008966, -0.15284641910799357, -0.23499425076205777, -0.34415997344180416, -0.19555004722344804, 0.10071406690147924, -0.017097018720507205, 0.31362900675396743, 0.14721183411469757, -0.06199519721743499, -0.03607236078314328, -0.035059899554933285, 0.1922263947567912, -0.0682092803494411, -0.003093938062938479, -0.1268170998640716, 0.25982423220893214, -0.06006178749597464, -0.11275342141504671, -0.2681926670878218, 0.1885492308996557, -0.09943756891147584, 0.024227996531202025, -0.07611478216908418, -0.01900142160262484, -0.3225487608337031, -0.1387030131392388, -0.18955383582338056], [0.39864650456684325, 0.39665578420610775, -0.03934794455618107, 0.26649752272515, 0.2896129670635852, -0.09207963096507174, -0.22681744397491843, -0.009906343214396948, 0.06931158160262879, 0.13095747488586018, 0.014829574962082724, 0.5457821660533514, 0.20312946962367684, 0.2443611894901251, 0.31492991391428626, -0.15986997864440536, 0.29609721843268116, 0.26092637040911126, 0.29506350462483627, 0.3204491135596229, -0.023263822367008385, 0.11899939373403913, 0.44260101094282267, 0.1391496720086855, -0.21083118305625748, 0.022027109937692736, -0.23582746745981012, -0.0943094424575408, 0.3438107181300177, 0.17229289592368432, -0.00388452460627469, -0.12928903965324642, -0.14448783578641605, 0.10996270194022884, 0.27040136323928055, 0.16757250232349644, 0.08587321586537515, 0.18737464271817716, -0.15536006717113243, -0.5783810358243964, 0.0051976048129856334, -0.04112269400724539, 0.4591123979758636, 0.14087855370809763, -0.1640958189228975, -0.1441422806427973, -0.13197321075370258, -0.336399020929872, 0.20719628026959416, 0.18249532676005775, 0.01402915266073647, 0.10409104644811029, 0.4079503670607412, -0.02044374813244779, 0.40399019231371125, -0.31151030119986, 0.18631046983019214, -0.3733770873791185, -0.15907261509240592, -0.10205307132286914, -0.2910772365243161, 0.3885621124246378, 0.2582934037151508, 0.04319591231612737], [-0.020387556371798413, -0.33572920397265393, -0.04415290820864246, 0.2561468236583716, -0.09241780435344009, -0.17220060909310958, -0.4092730166494289, 0.22720106364458592, 0.07278252749886333, -0.05355762943711884, 0.1842374371711932, -0.09372248705793264, -0.05872087052607899, 0.37548542500853305, -0.15830073784008086, 0.051313885095475284, 0.039665444595526546, 0.017544975670776862, 0.001320927412553552, -0.23124922712892076, -0.02429903847373706, -0.043147708047806564, -0.11845672248016992, -0.14742042057185847, -0.1770348619615149, -0.14290766780545533, 0.07249927494626306, 0.006121885118959631, 0.29270216603118837, 0.10679956782838777, -0.10501105763052745, -0.09522635227058279, -0.030539056391521976, -0.06187372733932921, 0.000679156644832208, 0.34324748290880475, -0.026767905376338365, 0.02329832700876429, -0.21077919652490676, -0.26526155190948425, -0.023907002323460862, -0.0735639410318197, 0.035942697641637406, 0.2400498409190215, -0.09044620393423032, -0.12092093134050598, 0.17281203792404323, -0.07694891726562018, 0.010295880124620125, -0.018841947239869743, 0.3321671208493638, -0.2974882220478188, -0.1452466920529658, 0.11491012591066012, 0.20507381777685907, -0.18163767803328895, 0.20850639157156073, -0.08330800715932271, -0.12819533414334672, -0.11164016880116162, 0.06282691184812723, 0.08582859623048647, -0.15460118295100353, 0.03658320733420803], [-0.0675716962776716, -0.21148483476806176, 0.2990917632746042, -0.16914890830243232, 0.018082030005115688, -0.2039796906298368, -0.06900121737165901, 0.017876437603357574, 0.02816636495434092, -0.18118526474397112, -0.021339734793617966, 0.06149244827709053, 0.272494207046367, 0.14339735693896108, 0.19715867630731063, 0.11172171552687388, -0.11778512501198232, -0.05719578632903403, 0.1635250170489979, -0.12189882298717433, -0.19527144615984907, -0.007641941493187324, -0.32148707252603614, -0.13831555256203387, -0.19366705818894459, -0.06641016557498029, 0.23236304812981715, 0.41016529563365733, 0.10627521761311093, -0.16652950403831832, 0.13664007297730257, 0.07477130275079, -0.1064762390659081, 0.15666075169082525, -0.07966484985198131, -0.10106277625682986, 0.01375394436959227, 0.12212258418751189, -0.06096240362960465, 0.07424105221313791, -0.321348362620873, 0.06037803901214558, -0.07993728033451994, -0.08957691089332576, -0.44360394816092297, -0.25622421061647516, -0.3086093046571614, 0.11567641249559775, -0.1614885498257262, 0.048177193908541825, 0.1166102159716177, -0.09179218006012736, -0.18229862062860555, 0.21372733043717212, 0.04639000111775645, -0.21771297848248553, 0.0847227955709895, -0.1111381481192549, 0.09249190676810995, 0.1506426178780918, -0.14054729402841573, 0.08944461282170438, -0.5323495150212494, 0.09749883490725812], [-0.3468273689664868, 0.442022368138865, 0.06093451571850075, -0.10856887499025833, 0.19852746525899168, -0.1416080251417514, 0.021578942603286723, -0.04934253938873257, -0.0021211371539472494, -0.10192245150980203, 0.07173671514345538, -0.1342891825758073, 0.015267813227702681, 0.11015187562666785, -0.10604388163549493, 0.1460047324585732, 0.08167105897051989, -0.0547964771705502, -0.09191857894553407, -0.011917220876971358, -0.07852554844509212, -0.09439413944526266, -0.028855050356935745, -0.03937531231713654, 0.02119396359638218, 0.249006742031542, 0.16024976922406223, 0.14829474625439024, 0.09050679550200635, -0.11038984847468472, -0.18942851207364556, -0.04090559118673309, 0.2082010342234112, 0.20781483091203604, -0.2591174086206157, -0.3163179330903419, 0.2968693518123648, 0.24893213423951074, -0.11052023039250727, -0.011561248156373808, 0.009331445641855226, 0.19496014008429488, -0.09140503451289617, 0.10230419985454954, 0.04928136528245992, 0.05177793723824556, 0.18501270868398928, 0.028778982071963256, -0.2279778678377579, 0.15761570194638183, -0.08744621277686736, 0.16005621400749498, 0.04148848003418152, -0.1742907041458688, 0.04202065218941056, -0.11496438058529371, 0.04265911845660953, -0.07100044760121176, 0.17592079536965755, -0.12448595753116645, -0.06600799782575686, -0.12612742765119472, -0.1417880359467738, -0.04843491133009377], [0.037844510853291345, 0.09724788066316332, 0.009681392158046198, -0.08019568094677045, -0.27600477314923677, 0.16477733253319013, -0.09036367778764633, 0.07101159508272417, -0.18930656473409166, 0.2664958576950159, 0.12001242349945573, -0.15931382135541644, 0.05862710612102544, 0.23650460864883788, -0.03221774203901796, -0.30064722166400565, 0.07856429991058711, 0.32631741274826714, -0.2830160670083365, 0.17939562333780917, -0.04057313100160041, -0.01798586827876566, 0.03120031060300249, 0.0021552619256158603, 0.15368816233358856, -0.20689715200361036, -0.015419265744867716, -0.1661917610672175, -0.09044718211697857, 0.5221236203322008, -0.1505880480596104, 0.07996813806110134, 0.05477538529825523, -0.34185233318957026, -0.20544972512435, -0.3226920403779176, -0.026346444705404145, -0.2336883599450416, -0.15824571197862614, -0.2701598204470184, 0.11893795965184668, 0.10390011880946863, 0.25949043098425384, -0.032675009711661075, 0.13046677800621045, 0.19982830852909533, 0.36890188223394277, -0.21967781779610576, -0.14494264260076734, -0.17348378923329463, -0.2445861014669326, 0.1262124252041837, 0.12566215880949452, -0.24787393145346773, -0.19293970364045754, 0.05585258142343529, -0.08882412847954614, 0.04143527283670991, -0.03168320507262793, 0.18936445388145515, 0.19778865166549095, -0.32640182995395517, 0.2399003223434688, -0.0858472292553898], [-0.20047051254182108, 0.1065798142733414, -0.17318798749210587, -0.22225074810821233, -0.06098360013550232, 0.2406304729405313, -0.3213622241585502, -0.1840801384556257, -0.2990266294118566, -0.21296825879745546, -0.02626103739182016, -0.2333099637233202, 0.054869015942161835, 0.01870832177606184, 0.12767753498131687, 0.33941247712352834, -0.1747396164432619, -0.08501840148381924, -0.10682708301400043, -0.07993197219598902, 0.07130506909991956, 0.10603988248581699, -0.08943904040670755, 0.23541412660842825, -0.0480191506604683, -0.020485449645279447, -0.1573157568047688, 0.11808210840345551, 0.1318232283466345, 0.0004941474075526556, -0.3806003813604827, -0.043107237586459804, 0.10487695453156676, -0.07376638906716587, -0.01709926517346901, 0.09060642337882535, -0.32162611692616155, 0.14048917121451512, -0.3347620770282183, 0.01689118874270251, 0.10163947872935088, -0.0887325369299459, 0.08258237070984487, 0.08730225974592175, -0.09399784097805694, -0.07502222934676422, 0.14210946971877753, 0.05417949333492948, 0.1061524800326347, 0.07262582995437097, -0.10064408313943587, -0.1868477139365726, -0.18055680303630597, -0.23616459724990607, -0.35511145374170666, -0.10430450649278075, -0.15924167813444653, 0.011373934853228398, -0.04035521277051384, 0.0659640615181855, 0.1990215995570681, -0.17340580971677172, -0.04423761010106287, -0.06730616938648357], [-0.15390594277461891, -0.20340116278489626, 0.0077416732638343425, 0.041944192580803966, -0.04944487096486748, 0.10692714983164697, 0.053662296278402376, 0.17598589445587484, 0.012841569015292703, 0.026747752500716853, 0.20689029017152036, -0.0718039726322463, 0.09271848096910773, 0.17864877759063563, 0.16128752931546325, 0.145971980621201, 0.11684558913206192, -0.052551281868295004, 0.1758300169404392, -0.08108121589727672, -0.07733726386270086, -0.034727259306296034, 0.10827933747645073, 0.2836132933812339, 0.22447641529980428, 0.22942063099058543, 0.12108359881317843, 0.025556129098808437, -0.15278844687994333, -0.09134245819333003, 0.02858561387378712, 0.2997912259240144, 0.09944570871542514, 0.07768516741686192, 0.10980441985997688, -0.23106554330714815, -0.12167092348201371, 0.09616887224423484, 0.17553867952385543, -0.1131361487245469, 0.09721857716569561, -0.33270163917190837, 0.10252737485564574, 0.2580959884719135, -0.03764300366226232, -0.10976311585152172, 0.4745490308011777, -0.0013940177125413029, 0.24915984526838753, -0.11720253739059805, -0.21332338012725902, -0.2737128762138162, 0.1886708018040298, -0.29159928229847054, -0.3532497714652826, -0.11137450112081447, -0.058883218021825834, -0.05790775338589113, -0.21188747213298897, -0.1549319504156114, 0.012926929384174071, -0.3324497609719985, 0.015580769979086709, 0.10695241889245236], [0.24116422757754685, 0.07238214626805384, 0.1930054329631628, 0.050856443979246, 0.2508856181678134, 0.02226336778342008, 0.36818988582266543, 0.1046270333403621, -0.09975767157610492, 0.01582685018361298, -0.3111160637670507, 0.1930786489912534, -0.04516794201016475, 0.21578249943423033, 0.38861709759236246, -0.001126750258118683, -0.006726640081143974, -0.05070548406413104, 0.06987324199335287, 0.3746317906240188, 0.22512465056662542, 0.03171231037643322, 0.17921240298167593, -0.38136625873159335, 0.015358306852131886, -0.49948648577767496, 0.1824323874767069, -0.38448795293362237, 0.09767551708235621, -0.16762897718183759, 0.4544879263570966, -0.23413433561683514, -0.07021971809963631, 0.2956093740845579, 0.07284649227875026, 0.035084646450020025, -0.04631504920930126, 0.01601000301734554, -0.1362665692559751, -0.03487538642584997, -0.008975507783125527, 0.13202328692360363, 0.01658703485483181, 0.1513329399430133, -0.26181583772412437, 0.243359762683617, 0.06806878767974177, 0.28302592549726935, 0.0767636421978748, -0.029050151057011187, 0.010570134205335112, -0.20307875461715033, -0.0589789088918333, 0.029684032411028825, -0.013784495471404602, -0.31315629189662186, 0.08729976021498595, -0.1844921938947703, -0.03527528552216851, 0.13940671534620133, -0.12255557340426189, -0.047494170091276246, -0.08816913340252051, 0.08142441700349046], [-0.20500231328051383, -0.2810330368576457, -0.3690280145936011, 0.38998750044806607, 0.11032873014531928, 0.2892749545353204, -0.062281811561663264, 0.201152026076201, -0.07878538113603624, -0.23569722452612335, 0.14968393324486481, -0.07070440862920621, 0.05400369946199697, 0.0752863800116359, 0.11081909425805828, -0.038044814019737444, -0.4215946261482022, -0.22444561224706805, 0.10209822545005877, 0.3330632813681043, -0.0020948855115016933, 0.23629532423181837, -0.42319144511248763, 0.2526538372346988, -0.1944085540949811, -0.17128227040780925, -0.06361843461560021, 0.05466555872209091, -0.20841142623804637, 0.16907102500006158, -0.24656124486168074, 0.021211268180949195, -0.1595969367076814, 0.03739598379652845, -0.3591737014477242, -0.17400263079346845, -0.2194983331543916, 0.1637619521048534, -0.389860247084165, 0.31655229643229726, -0.09044512442768779, 0.037942088324102105, -0.4487857690577884, -0.13958292737408917, 0.15294956062408807, 0.26293160897363455, -0.18324493792390825, 0.2065472035728403, 0.016981690285117194, 0.10825660672354133, -0.04270557597967824, 0.2718451218942544, -0.31363687136712215, 0.11204613943062185, 0.24588993432633624, 0.12406242309360942, -0.04736110375473508, 0.09718810271840518, 0.05591690343628787, -0.0397975448944239, 0.18811276726411158, 0.21691421369530667, -0.24410882149464813, 0.3160558343093466], [0.0044776465986757635, -0.05501156305967815, 0.1814919548441783, -0.08603747580013493, 0.06758118397428993, -0.07451006778893392, 0.005237886194350616, 0.08637663215800763, -0.007234138480820715, -0.07789073549842931, 0.1959772449930399, 0.05145799868076997, 0.06356313011677667, 0.15711554520576754, -0.3603878140301051, 0.16436981298064987, 0.36583333767652326, -0.19841300572124396, 0.43622304772658277, -0.3422491773753096, -0.100320023371388, 0.1114976268842344, -0.12989018055095852, -0.17106787074015062, 0.08084290680004765, 0.07499819576249363, 0.14157373219381617, -0.021920449715542446, -0.3578146773554569, 0.06188261305456456, 0.22469574942436127, -0.06924660589348319, 0.1534608286302405, -0.2680523004821188, -0.14247303010275872, -0.22484546307820705, 0.04456354804004042, -0.2110929427284702, 0.3335357891710614, 0.14656230666523787, 0.016256507359521836, 0.12698273438572824, 0.18962549208341012, 0.05242759721769376, -0.1269860019128136, 0.017404023238732785, -0.08836982804570326, 0.15256641535053495, -0.09903015856401977, 0.018335902164431095, 0.19778762299054145, -0.12516861910246097, -0.058325465564923934, -0.04183191465030372, -0.14832056232249535, 0.4497929540536874, 0.18242116460198707, -0.060681566595934974, -0.12565440461711055, 0.14881628341232517, 0.21495919321387957, -0.0657325369899377, 0.15759773142531444, -0.3349968943194213], [0.06689018442978649, 0.18960549490549927, 0.03556008709825742, -0.08990745785602929, 0.1722958052959599, -0.19025968315286007, -0.026516344385939312, 0.12265964666679241, -0.17884261143933713, 0.4369486831984751, -0.07842943269849338, -0.41932543355071883, 0.1906227132061564, 0.06723490423426975, 0.011198869361500953, 0.08262498462559735, 0.062213126792957436, -0.04492459480173818, 0.11903521311178675, 0.02262424396991075, 0.1889535388105027, -0.11643071677448975, -0.11393459296388976, 0.08953571273430641, 0.17569620917699397, 0.0019270295062199785, -0.0006312602682568154, 0.16956824292091893, -0.15255143436412213, -0.2493398219270256, 0.14891874476993613, 0.07614318557073511, -0.118382401813819, -0.07928714908816807, -0.1317017081063473, -0.10850463041697363, 0.26410330835371515, -0.009278150893412813, -0.17409872121053468, 0.1490148848229985, 0.10343619537196631, 0.008959671342823031, -0.037167860874551886, 0.0791104368030812, 0.1458233196894139, -0.0208835061776171, -0.12042835949419456, 0.015690686775089308, 0.13518397691070957, 0.12979761155170935, -0.07129018387233771, 0.5242872063503133, 0.3845124373051422, -0.19763743615916696, 0.1307944423801707, -0.19213294404746217, -0.028845800156723337, 0.31319808783302694, 0.14801463482956592, -0.14597926327937294, 0.0870270568450843, -0.4920205353531147, -0.28200447953196217, -0.02533981138733794], [-0.15213632533566276, 0.2157740217493655, 0.08172008203800454, 0.29599812009396326, 0.005889409702792923, -0.0027643490580535673, 0.07052914199661346, 0.38176014291996696, 0.2581051917796255, -0.21860207029797998, -0.09863539093114691, 0.2189843175597586, -0.2966109160647691, 0.3305392590619435, 0.13937938313209647, -0.16995761714530264, -0.4632942120106531, 0.026951754219487915, 0.29175727691159303, -0.010088696445952531, 0.15006917044289542, 0.05566819494303683, -0.10644927261980196, 0.0676117531565982, 0.0188005436689459, -0.0942427533764315, -0.15666681490032025, -0.04400618399375823, -0.06497471441566617, -0.043842071834256, -0.05165714249541259, -0.24213987373998413, -0.13982507909265438, -0.1028666802113603, 0.08384176857363627, -0.08147935426410347, 0.150818268304875, -0.29308856877187994, 0.28365157433260235, 0.05215489003014837, -0.11822584287927843, 0.025508284977938125, 0.010219018908109405, -0.07027006730260779, 0.14722533307078134, -0.29736658213257566, -0.030774697190819992, 0.29608956208286386, 0.0469796888329203, -0.02704882517248479, 0.11232964860959414, 0.34923825132969216, -0.26737842891623037, 0.038482478676036755, 0.003046660081411201, 0.16572897146644805, -0.2563102665480678, 0.4032672960682895, 0.15595435416071407, 0.5920430762095753, -0.004448609809855908, -0.17238634488935978, -0.2860714000359574, -0.1132432975013105], [-0.2311593352653131, -0.4203697770925843, -0.061849904418294195, 0.04466764381719685, -0.027757071731979912, 0.41030599737688594, 0.3165688227077673, 0.07097615662378952, 0.09258968227898418, -0.07004189810725413, -0.15171654713201027, 0.032101862682865245, -0.06761577944401591, 0.29042000739569596, 0.15824790909671863, -0.15091696628870546, -0.31588256680635346, 0.09420755906022567, 0.18956007878462716, -0.23220839301129959, -0.10434993156357958, 0.3966513347015965, -0.06899219446527188, -0.03770232773066874, 0.585694536359426, -0.05924039404410966, -0.16508607346406004, 0.045412430859319466, -0.2302201199904175, -0.3519777474827398, 0.16374757113539876, -0.025905908234065085, 0.17322888077782228, -0.25779158017977527, -0.036944157625673324, -0.24926432467010165, -0.07000845439573913, 0.2719931359854865, 0.21664090931385674, 0.25387660903989795, 0.02630215287479071, -0.04418328238999047, -0.08531672334865764, -0.11111920024707932, 0.11574588309640264, 0.021705963803229023, 0.02927901605479816, 0.6353021190767321, -0.016649147412689757, -0.1457312278031753, 0.36474680794019526, -0.1413996361952554, -0.24493560160933242, 0.3080527666282887, 0.10072887093959836, -0.08262092370334166, -0.06680360115745718, 0.3965761456472856, -0.17177170870132139, 0.26449471705161576, 0.4183534083898483, -0.05609995465498747, -0.23883099949530148, -0.07332000879552326], [-0.05225417042830499, -0.12051221578098582, 0.3547311372548693, 0.08400945124706768, 0.01074031411224154, 0.06661663651925032, 0.04622169932593823, -0.32216885097082754, 0.09934454469867088, 0.09955814960008892, 0.023661659585965358, 0.10606982993457718, 0.16281734008060497, 0.24525736297025136, -0.2711632652364491, -0.11538510632178565, -0.2007087278300541, -0.04439450851814006, 0.05665407031142583, -0.34467347550816874, 0.1482521133684306, -0.2793053250099967, -0.22182032224038187, -0.2037592548396847, -0.015567030578943446, 0.04990139168361782, -0.34683711816369733, 0.2934235250901081, -0.17381653194517394, 0.3315660966900727, -0.2789852492173094, 0.18727647216553095, 0.14312777099797178, -0.08679496983475804, -0.2667339803914267, -0.10224380259370888, 0.2746070063374385, 0.13125288946830227, 0.19723752418604093, 0.3314861030890605, 0.1006113960354589, -0.00576511535832423, 0.10022230673846906, 0.10020753766571175, 0.2575389852511884, 0.10473998466474245, 0.10215515119950637, 0.2575895199110105, -0.012043434145156936, -0.16794835781410744, 0.03356218161091868, 0.03947853281991514, 0.15988588396076361, 0.10835242617408612, -0.07285955121333952, 0.08900577605093768, -0.10116918420221274, -0.013895112364933666, 0.12760609418055316, -0.07445644171382676, 0.17861384460443216, -0.0877180770139043, 0.1017478302927994, -0.07139507754448891], [-0.11719831227401047, -0.11109760788827355, 0.15445232445954438, -0.29579862549840563, 0.02090048264013761, -0.1124512677440233, -0.08744403182030158, 0.3239218636526227, -0.12340140432164022, -0.13056349013674465, -0.2719022035409312, -0.33089008538960657, -0.04043837596252288, -0.12014976997639354, 0.12494766049996595, 0.03802482359717048, -0.16047790335262502, 0.2656685870937326, 0.1956201569931001, 0.004265552757958867, 0.14216413581125467, 0.3032857698689735, 0.07187233153275296, -0.09590309936880255, 0.02691134233797878, 0.032898163308919676, 0.05264357631101247, 0.20445059582960307, 0.05683237683482239, -0.29160678808276563, -0.13961131915315525, -0.18472663784886695, 0.06747431885613711, -0.04597909507955715, 0.06301525220698612, -0.08652679501209795, -0.12467044405892522, 0.1817250049855202, 0.07601865864600861, -0.03625435673356465, -0.29232016149996864, -0.22550212880808854, -0.20825093710732165, -0.010026720569541372, -0.16713673316287464, 0.19228887492529184, 0.13148785023474477, -0.02234201190193363, -0.14910517464260303, -0.08687795032905317, 0.05500893516389503, 0.006136801709400201, -0.035387435645622314, 0.2079206955076959, -0.06133456863192372, -0.01743438035652479, 0.09887024019022299, 0.05483838808779458, 0.19301694162831365, -0.07777753445824462, -0.1362491379223417, 0.11818595733183225, 0.02505589991809496, 0.14200331317727266], [0.1275658112007569, 0.1245364841438415, -0.17245393707960746, -0.0178222621594636, -0.09555551605750655, -0.08270963154401628, 0.02180526572399148, 0.2677877352799607, 0.3690215087125721, -0.14577729396798123, -0.007840177744908236, -0.14247537670084517, -0.13784488864883415, -0.047899733089649794, -0.28676514108513335, 0.06338522109202606, -0.1995384609827787, -0.03088473440426171, -0.14117611328128168, 0.11964703833304981, 0.14142549420408795, 0.10626563039367198, -0.011227737854218184, -0.28457880346750886, -0.18750005802214095, 0.07812123630877649, -0.10781069296243066, -0.05746654521309211, 0.09074672766403032, 0.3734209728824725, -0.13179707013089775, 0.07631273903776446, -0.10102058857865888, -0.1992520812546204, -0.06096170528299616, -0.04482418474177918, -0.07707515318740274, 0.08945961036416074, -0.051706604047929525, -0.3648342789012329, 0.09324762731954842, 0.08496363335553055, -0.2537594951336472, -0.11955089624303873, -0.08571650954223901, 0.1197327969427628, -0.04456924123994561, 0.16791363531426942, -0.13400788448920053, 0.15037163924604505, 0.00021792520372116277, -0.06561731536157163, 0.14671856072755818, 0.14045294749483675, 0.10153026044349506, -0.022674169965598723, 0.18473113972047486, 0.21061170822604153, -0.054997704781492116, 0.01835396076032354, -0.2680444870033864, -0.12062924296057477, 0.17208646587018073, -0.16894874981661234], [0.0584503191267574, -0.009587940062615501, 0.2944199428952896, 0.0330601086477727, -0.3365091826279502, -0.07407773368502882, 0.07917515002020593, 0.11092166480894455, 0.08234877236625857, 0.2196536790068481, 0.04541843156516509, -0.34439655303460853, -0.11452311098810322, 0.03935690894950749, -0.1188722878158341, 0.062331845586555266, 0.043257075661723814, 0.2843037330814591, -0.12593845891600552, -0.21356347527255837, -0.2165667693989804, -0.08562718318351394, 0.0893662034666953, -0.03187410602966779, -0.10726061018888071, -0.19612317523979955, -0.041450524346068086, 0.11362416220114979, 0.19741306316059878, 0.2183625378202499, 0.12537516860230383, 0.05745124356595491, -0.10600973625847017, 0.054298852418725035, 0.26400545547630044, 0.018197363502136805, 0.138959768423802, 0.002902695322098338, 0.09560667506439878, -0.148710447570736, -0.224149021058625, -0.17331869331924143, -0.34667750565824945, 0.1504074397078358, 0.42403316364847227, -0.03575474915089855, -0.14171941407650435, 0.07867972251313714, 0.27756206907247216, 0.01594287608622328, 0.23059963239354633, 0.00013633092243312944, 0.040360660306182926, -0.2678360822763297, 0.04962384356609297, -0.16227898071048064, -0.18590294006922453, -0.2595075063323969, 0.10669884158492031, 0.42461789183030707, -0.1269190924342855, -0.053505945404459, -0.06322887124031053, 0.07388098384012962], [0.17382997020555202, -0.006730173425539962, -0.07085168622814107, -0.3177997518574285, 0.11168419934094023, 0.01394141018727415, -0.3195682663738394, -0.20754307773765177, -0.17439855627939732, -0.07909157039945766, -0.15891693171619337, 0.13720932278576684, -0.16818700329376152, -0.08931186377262743, -0.1850098091361865, 0.1220372083539245, -0.0763963580114877, 0.0008067040488709234, 0.09773733566062678, -0.002080031578093014, -0.02507920609128648, 0.13265964464056862, 0.06600397205010229, 0.02034022538454079, -0.06802531798318125, 0.028815328102261825, -0.12718146541285105, 0.26422185211746396, 0.05014774694586736, 0.07955656405966334, -0.11337960058053337, -0.039481349970464104, 0.12193997027565388, -0.344659958713047, -0.04783219096408469, -0.11350413476941719, -0.2004636231270106, 0.12018299933547102, -0.13578390541550547, -0.18374487283014543, 0.17697867685545798, -0.33214679901311306, 0.18267365201541172, 0.18846282496480884, -0.3614364315184275, -0.040364960822979926, 0.05055203125899996, 0.17992458576932605, -0.09386678518447833, -0.02946005620498173, 0.13153811388211456, -0.1594055176166847, 0.10259921907913275, 0.1952443162969701, -0.18565114699393748, 0.052768694181904253, 0.013684904366879476, -0.18571050555421462, 0.026819321927503616, -0.04558091490081565, -0.1402797934823393, -0.06394797415563346, -0.17279282585752315, 0.07033950701093289], [0.07452946251402355, 0.1500317864837479, 0.013728112564491244, 0.023162253942536376, -0.09558449521460151, 0.12797532984346557, -0.11111839228198463, 0.09424816404491239, -0.07219324650004046, -0.13084488848187814, 0.08535873032761035, 0.3077426677406045, 0.17438672040096073, -0.0747347244264233, -0.23941108111954382, -0.2679990354579631, 0.06961484048708297, 0.033306310192076985, -0.336875887234362, -0.011353540106960434, 0.1858689830809918, 0.0038897673087082314, 0.016047014059398127, -0.20238806076589225, 0.10680128452260372, -0.11441255325336769, -0.0972163919190753, 0.19557476910766453, -0.1772764479188306, -0.014504548264426717, 0.008346372639343813, 0.06662203017226871, 0.2677891600533728, 0.017065219468203875, 0.10579696473370523, -0.004890006633315731, -0.30021956782242376, 0.20479725848884545, 0.11725070931046976, 0.1973640354646442, -0.18673676151761798, 0.0284520408231442, 0.36032337202070985, 0.4013369480746211, 0.00832844078942367, 0.05105874260849844, -0.1640252716718876, -0.052789121146630556, -0.12154651793905026, 0.18113952145945034, -0.07468147368398266, -0.018145096832874436, 0.1643758917308702, -0.020613094596080187, 0.1932174595577283, -0.02946827076853198, 0.15002730204783876, -0.19689987701840903, 0.012795053175910238, -0.2844902994992631, -0.14784357062134137, -0.1072087070285621, 0.33893696788793515, -0.18167729416599931], [0.35234391511425467, 0.228198461748494, 0.05366200786303829, -0.17548924347740386, 0.19135968769310285, 0.4005369742783414, 0.13657033621666642, 0.03814764672604455, 0.06319426959807839, 0.186981956732192, 0.13500293290912707, 0.11474961662252432, 0.23847989626443022, -0.05143555846516427, 0.15299241138612557, 0.3865929319721611, 0.30525209218897725, -0.047018089297083995, 0.00168096442929113, 0.2968545467860904, -0.19281803768104042, 0.40541016511151406, 0.09615533900487844, 0.05957254442343531, -0.06165667411647177, 0.5996527470691774, 0.005600757755333105, -0.10189421783379092, -0.06057062109379793, 0.2418252145582997, 0.3194666977086975, -0.21095504984538296, -0.08966431159621464, 0.06575688779364687, -0.025421512479801574, 0.3237386663514329, 0.07719621210244061, 0.30145017836301147, -0.14657903349893672, -0.3291352439631066, -0.03288226248494014, -0.13371649092405422, 0.15951594389773624, 0.24234768196737375, -0.40273475664691527, 0.1399750846942914, 0.422678805405542, -0.3689468021125688, 0.1437948325006614, -0.19713119104728724, -0.1814610959575673, -0.013909130511443926, 0.4681999966168603, 0.309265040918236, 0.11514663756430107, 0.1943178689931966, -0.38693442578892545, -0.1799663066111349, -0.007760635850944926, -0.06647953134605267, -0.11224058048970413, -0.011111624598191037, -0.17015731127576106, 0.16043930938833464], [0.06472178683387299, -0.07342896739421996, 0.14897013471916976, -0.039707880587590214, -0.12286859899029841, -0.12809454354870856, -0.3740287934854701, 0.024959299018112096, 0.12056876606898373, 0.07169324089867307, 0.4636112809763684, -0.0796586472791406, -0.23410168966191827, 0.3139388966372868, 0.2722730638791586, -0.1485673760439161, -0.02312759031137516, -0.1143469914210006, 0.09465407234033246, -0.07119492364891274, 0.13073982175785698, 0.1628351267227691, 0.3423391722637527, -0.08787868268021867, 0.12722630163248833, 0.17806719239004076, 0.026550081068415294, 0.27699422413001024, 0.07482468084282504, 0.01891316700202081, 0.3695822783400793, -0.1483067266038018, 0.19444802137922965, -0.13397205971361684, 0.10222674046400584, 0.14275483366483321, 0.1646864023295926, 0.2504225805346703, -0.13158997740545325, -0.2331919562417466, 0.036423062401032914, 0.05482995613697558, -0.014982210665690325, 0.44054727771542423, 0.017250182393634607, -0.23704812233822015, -0.1347426528368126, 0.07400423958235434, -0.02820132613645321, 0.19583120684153124, 0.14149223071191747, 0.1608160910953522, 0.13769276748590364, 0.1415461099482232, -0.04917632602334672, 0.24720880301078554, 0.19223695690524772, -0.14067724655396074, 0.0712899953555903, 0.1600704681809867, 0.2563211084999639, 0.06838557833289899, 0.14073112830605794, -0.35635344995183077], [-0.04424838977671666, 0.0016140266535143496, -0.1796409234713336, -0.000247728551328192, -0.04602623487549349, -0.20505516764038528, 0.09976775935639935, -0.11666745360941383, -0.06884626547600273, 0.17147939616347815, -0.11408821639281352, 0.24762448820558478, 0.08333698654293352, -0.14710288257466608, -0.25666813778656944, 0.0143947125496794, -0.12940237423059406, -0.20867843787951185, -0.22472791657725108, -0.0916532531625316, -0.08410890446915958, 0.028574005748816942, -0.22114558340377005, -0.09351951708221495, -0.11008604008769815, -0.13333286168482777, 0.2301524160292367, 0.04801296828655891, 0.37948287100485767, 0.13995783516780916, 0.0655757617493338, 0.22202072268885695, 0.2070938041030976, -0.28640217365377413, -0.14212484638101772, -0.03990436242899035, 0.05046143292347407, 0.0497384151692836, -0.27282638775370066, 0.06674425607323997, 0.0791097516038322, -0.15896672250731367, -0.20653936214209223, 0.10082248976891171, -0.07825976850756874, 0.15024897551865382, 0.17899482200370742, 0.06650218710110119, -0.2535214657261696, -0.15745663086789605, -0.3234583897947432, -0.0900475675863516, -0.15730071591456102, 0.27639744299343716, 0.11402218646214768, -0.043929623554573034, -0.21571148293425332, 0.31920805884744036, -0.15501556361461893, -0.35628780565334633, -0.13296010844828823, -0.2546910847124718, 0.1443874513804979, -0.18148070925608575], [0.08453912488356294, 0.21549397868848774, -0.14257167611752497, 0.011674968697367076, 0.315487605732607, -0.07347834060927083, -0.03026621747224057, -0.038890711320730145, -0.1527623433640153, -0.1731116479399936, 0.14677368539538507, 0.147326287614621, -0.1916738881716539, 0.35186722704332357, 0.2967396303012216, -0.053481514663270904, -0.3578342928749429, -0.19481634434200876, -0.04852784213472684, -0.09634168001725564, 0.3256246175393336, -0.2577164342118524, -0.0749935173510546, -0.050508649033014844, 0.20603928156087326, -0.045985823778990964, -0.05946692913915312, 0.007518298955801254, -0.08208376329220654, 0.03538743107924658, 0.09396776952197243, -0.13616695012534627, 0.16901037847217618, 0.013605221216012571, -0.04084022275838357, 0.1472127077266468, 0.26515200819553825, -0.15248762490674622, -0.03033146577327447, 0.08172840380393291, 0.3049303186283077, 0.07216853569382578, -0.009398573954434533, 0.33094857773015035, -0.0279218932863285, 0.17457360973787245, -0.14342019543273704, 0.08536621233607485, 0.11790314828387825, -0.12659310700457033, -0.09986110748832977, -0.006922366626090794, 0.19294406043685397, -0.3014640357272483, -0.15252379165839838, 0.17693766861165175, -0.4248235744355421, 0.39106267653587506, 0.016516268522622463, 0.4385794729727669, -0.18040423226348998, 0.07419713067358177, -0.1068077422536274, 0.02053738147213816], [-0.13077955807574293, -0.11199546870307335, -0.30351306316673504, -0.5010910475760453, -0.009948022781927168, 0.4185598001073439, -0.051572883023600115, -0.08601684180971522, 0.08691286425868228, -0.11848671252099469, -0.09023252508762351, -0.2227908772344505, -0.16282057419618917, 0.19095850565214692, -0.15000140291483022, 0.03573884840104282, -0.06507745468290438, -0.15364932885680074, 0.054902109819893, 0.14681450750735162, -0.21611231867915226, 0.06189703609293831, 0.14007262466173764, -0.05414412143016264, -0.01414361970011704, 0.0015567735889120537, 0.03595872276020441, -0.19947287631902136, -0.09114678695398853, 0.07430518392718032, -0.13351122364347084, -0.015326222399457065, -0.012887378925967273, -0.13667032439252996, 0.024753308917084334, 0.23168336217969696, -0.14025991563804893, -0.1083525381181256, -0.02839951340143432, -0.21343513304394196, -0.10640553390190366, -0.2618974034434434, -0.3286863085398027, 0.059811682677516034, 0.14803278037185089, 0.3070320886705188, -0.028128032841492862, 0.16884265971486784, -0.05157410644256553, -0.129877862512856, 0.1139597099230569, -0.04442809018249795, 0.11750107981199154, 0.051850354280802625, -0.17247566587442764, -0.19467431237295285, -0.18240657255651654, -0.11660512701317947, 0.16156208172051106, -0.019945340732846324, 0.2517336987597032, 0.09752356679464172, -0.03142773267843615, -0.1513348344385306], [-0.35478667102336753, 0.11390584448033694, 0.27163281371174236, 0.024110713917094437, 0.2824608935770235, -0.05753178908935523, 0.026474661533420152, 0.22650333636443945, -0.03302456501634637, -0.1288219527831656, -0.13721306940158512, -0.3997848947396991, -0.04810925134443829, -0.012694013350546377, 0.22956162587582027, 0.12962721660857346, -0.21171478751510903, 0.14238429202569208, 0.04873287726226086, 0.19328857008695086, 0.2074825468241745, -0.06907453291886602, 0.09520146087563593, -0.08342348086439297, -0.07071382100229462, 0.03681055570991131, 0.09231677163092422, 0.20404239777587863, -0.009583492047790748, -0.06660788749803685, 0.12562939127095984, 0.014720478062427537, 0.316169346157262, -0.32769186406272977, -0.24655912165885444, -0.08283197289173377, 0.25427794057869285, -0.05368209809451723, -0.1860725947326203, 0.22857188373575704, -0.17556519999735623, 0.2519766581155561, 0.0945181498178924, 0.23965304228723044, 0.24444666526328837, 0.20790044828216217, 0.088589839600213, 0.054111161515448855, -0.06926865030940116, 0.011700682807829071, 0.05744308461388431, -0.05487194086203633, -0.2318436129767972, 0.23482474207897996, -0.2719421836150921, 0.20580547427501855, 0.2870187647744025, -0.09182604664193669, 0.23633833683726202, 0.11844243992621394, 0.2538164122602886, -0.1836434695555548, 0.247756908997644, -0.14831573015758798], [-0.23358319257032736, 0.2922245103483614, -0.15424567804077155, -0.22282934372599095, -0.007340202410833857, -0.06482288297829653, 0.2142635205499403, -0.15066866773080198, -0.08528522006413915, 0.12083984246037371, -0.14749207230050426, 0.1511677310316667, 0.18201164359906044, 0.34859267529965937, 0.3710963224339408, -0.1320753667891351, -0.1526909207073334, -0.18492789397942594, -0.004665664779811761, -0.048508745089820206, -0.03585458559697623, -0.22085145179674948, 0.2044758920239278, -0.2769777027772377, -0.08827234513626663, 0.13949861952067902, 0.09620283218440534, -0.03825041814621351, 0.16718508302324092, -0.08048677936379488, 0.3501221447641237, 0.17968304858266296, -0.1398157095826441, 0.1349164308430868, -0.046278286916383075, 0.05878199964943531, 0.21871018919968646, -0.1551284916878145, 0.24875931243770158, -0.03775383948121322, 0.19444182514283456, 0.08124416521121766, -0.11232047105603346, -0.24647342615286705, -0.21347389788177426, 0.04615318607869863, -0.20670878711309076, -0.07906874535604946, -0.06670424026917181, -0.1228027465238056, -0.08716737770200338, 0.11221157214537664, 0.16250473097778315, 0.0759684153954915, 0.08009111912572704, 0.07394598979985686, -0.09246955877685104, 0.03426112929101276, -0.30027860290713815, 0.01850863433385521, -0.07865151144162247, 0.18264970807002187, -0.3350285758546607, -0.2061173599166264], [0.4028693680586233, 0.12902451378328286, 0.24386754389485943, -0.14065567743470384, -0.2575068010466388, 0.0846302694693682, 0.028215557146290572, 0.09594265098291636, 0.2729995842054239, 0.1502549519086677, -0.274886199440315, -0.09083934622905247, -0.39052158286320465, 0.09632691298471599, -0.0826689598393474, -0.22520861802642003, 0.06291076765914677, -0.19604778161511166, 0.17816370982120056, 0.12600450764089596, 0.3949961733699716, -0.13420683435734218, 0.1674324326354864, -0.08015367010157678, -0.2128484671389531, 0.3280605235705025, -0.1878452057393319, 0.29044427955765284, -0.06303066570520677, 0.12778859863123265, -0.075805088083444, -0.13694571871767047, -0.15964974772534496, -0.07432849865429698, 0.04327588683831847, 0.24745819423921006, -0.14031160061726589, 0.0041034027143741275, -0.04828547696820262, -0.015145595846151596, -0.1808547458298247, -0.244258835520307, -0.0832510155195408, -0.0058799017692899224, 0.42435799537412, 0.2644217862570024, -0.07198728965783041, -0.22893273588825092, -0.302343200536559, 0.16599150976626778, 0.21238464104612173, 0.36712884656732253, -0.04756079862575536, 0.06826927548953088, -0.06122252998500182, 0.25109514801112864, 0.16326066129235278, -0.13748685540740035, 0.029404774895524406, -0.17753830369478055, 0.019581018019409084, -0.2503807164295959, 0.034255467065662286, 0.2106585562114613], [0.22386350341844494, -0.21147074929653087, 0.0065962777939961165, -0.23402627549202767, 0.19377102907933197, 0.07904236315352155, -0.20124256176851113, -0.1619669614507265, 0.10316138736144048, -0.29945701613666803, 0.021649467412060225, 0.0690078993928718, -0.10602964972218273, -0.04502425275106059, 0.018110869285678153, 0.10360393156439535, -0.21400121330854235, -0.10089166757845128, 0.14488170523887747, -0.45478740478947444, 0.17171932731772616, 0.24081766560597645, 0.34634176851114884, -0.41785611218720553, -0.08809608353303072, -0.11000970428432068, 0.25534816313297964, 0.12089286723345913, 0.182977325226638, 0.13961658572888092, -0.26497486883852217, 0.07130464606846537, -0.38789327493427256, 0.08710252354315194, 0.04080207100606399, -0.027443552132729507, 0.036599528975050054, 0.13281995889557427, -0.13850599892198376, 0.058785456098712045, 0.25570519923619084, 0.07184254320962381, 0.05220259074707567, 0.0027717339398952343, -0.22781452769701757, 0.25289463332911244, -0.07185802010456215, -0.0009780982007357253, -0.04985858877988165, -0.0626695279384691, -0.10808896158128782, -0.12614352422060257, 0.17549203895014043, 0.24341475746223884, 0.0406695183465168, -0.20666847225941015, -0.0024234405119732023, 0.3878109924679674, 0.062389466813411024, -0.041019236128565444, -0.14179650625790222, 0.09995682165655098, -0.04373203201992669, 0.22823741613529158]], "b": [0.0006398485665391014, 0.03021038418871082, 0.023196178389992567, -0.001502800802938352, 0.05240659429550687, -0.002205690148218907, 0.09457901316437867, -0.0004599248203764291, 0.013470884541568848, 0.022070846833319297, -1.4293314171219844e-05, 0.0012432676925670707, -0.0015876354719383614, 0.005221740080139278, 0.007972301086641386, -0.0077116589950465275, 0.018153259943055056, -0.042473091790376886, 0.0215769399053839, 0.06822266125601824, -0.040777376945696026, -0.00069569235971259, 0.008326755101650832, 0.004562889016046229, -0.013099616661464112, -0.0003450577030468065, 0.0001459198568436488, -0.0040015511962761706, 0.13495643902249296, -0.0024180360855461116, 0.01994395435598484, -0.0032314676823729667, 0.00337068892522028, 0.06991659751363574, 0.0024929396001876778, 0.06357643977215849, 0.024706238957003142, 0.0012405968090412885, 0.014339584931690465, -0.006079679067520569, -0.0021792954217714107, 2.086847430962286e-05, 0.00491194133199049, 0.01770146878442121, 0.01815731183037197, 0.043533021154778986, 0.009363109780989566, 0.10642270286331881, 0.11884523808620488, 0.06495161718986692, 0.01536585309373437, -0.0015936930800916629, 0.019169168027957754, -0.0003165001205607707, 0.022668955247882757, 0.095657785167916, -0.008910124034346859, 8.026785266347223e-05, 0.04250560935616126, 0.000855195829922484, 0.028350281867296788, -0.001374504516623101, -0.0032005426540407836, 0.010756415179323195]}, {"w": [[0.01337480257148003, 0.11580409438647901, 0.10181184893151711, -0.00011084786029578154, -0.18413283824161406, 0.002552048805555982, -0.22762412031218582, 0.032345502205949256, -0.09547065976090582, -0.12605352500910613, -0.001208385195174065, -0.014021420255381547, 0.003893881749602525, -0.21846705510150222, 0.07360586314946775, 0.0008696444974087277, -0.12048777153783004, -0.4058915596501277, -0.06338552980353089, 0.10073256864252488, -0.3931513910199796, 0.0029353674648365984, 0.13517581320032485, -0.01933839777233176, -0.02028579953747924, -0.007774326638058875, 0.0009759417939774079, 0.04396161840699524, 0.47816080377584663, 0.03964307220944141, 0.10901848006756776, -0.058894565473648255, -0.004074430350996548, -0.20328472967544306, -0.017362098480988557, -0.11522891666028484, -0.8122151824536696, -0.0045231038756775345, 0.0417557214910454, 0.0009583027000810838, 0.016199031001741006, -0.0017619637559336135, -0.08964280292225406, -0.052571526351381924, 0.019195533556734035, 0.1502565506474529, 0.20353664222117665, 0.4509739372647043, 0.528637945505373, 0.19108692976236816, 0.03772509247832007, 0.004646279053561742, 0.09632577370107354, 0.01011815629391454, -0.16144368688332025, -0.620578137728703, -0.06721787946901923, 0.018437821972238488, 0.267518410018751, -0.02002963078682725, 0.27804661860381136, 0.031191013652013603, -0.010951972717958766, -0.07061372132569511], [-0.014134606410658338, -0.09522408230944635, -0.10217059942893589, -0.0005025261761100819, 0.1860892255826707, 0.02524759282120554, 0.24124833592148778, -0.029504558341782377, 0.07581855995136993, 0.10300677513033413, -0.019533048725666784, 0.008272510486924164, -0.0030551564202045446, 0.20594017489370497, -0.08148536528348882, -0.019859918052518688, 0.14387424147426323, 0.4031174698260731, 0.08096757477441299, -0.11713196627329332, 0.3934609710341669, -0.0026669846507142675, -0.11935015865949555, 0.017386305339517738, 0.042153381219902704, 0.008838515940608813, -0.0055462659775795614, -0.04335209799831491, -0.4534491948058294, -0.04862854055527403, -0.09615072404431121, 0.05018927150470587, 0.011958548191235414, 0.20240554635964902, 0.011408236823203053, 0.11316893617942311, 0.7980024831133771, 0.009090412225475774, -0.04728941467592522, -0.0027430518049617156, -0.008205755782598599, 0.004547768677566416, 0.08295663367902946, 0.04829358539261351, -0.028233230568822, -0.16721594919105837, -0.1870901820173857, -0.46195783833162524, -0.5251277910564881, -0.1941357708438077, -0.02818379401903836, 0.0120176655171555, -0.11159652661159293, 0.0016492795830029933, 0.16553353252868225, 0.6056164726987048, 0.07343169341898978, 0.0012081281389221188, -0.2559717954508232, 0.009772780003851416, -0.28640351340004516, -0.008293180409884159, -0.0007769741696017469, 0.059259840891896044]], "b": [0.18275420535639367, -0.18275420535639414]}]}