{"algorithm": "reinforce", "env": "cartpole", "checkpoint_pct": 50, "architecture": {"input_dim": 4, "hidden_layers": [64, 64], "output_dim": 2, "activation": "relu", "output_activation": "softmax"}, "layers": [{"w": [[0.13774893384087775, -0.01607016903130578, 0.486697114147611, 0.1212035442192681], [-0.2671337587595034, 0.3751222639102439, 0.9645704808745655, 0.7197415361786821], [-0.5036251062078083, -0.872866517055593, -0.44239620937845203, 0.02753942805973714], [-1.6210697094077746, -0.12186429644765585, -0.883598230294555, -0.5231870226344754], [-0.3775728655087379, -0.17985202163352604, 0.30552214146384515, 0.7410639772331998], [-0.09247825767438923, 0.9388844231440646, -0.4804960165339505, 0.2391582158114181], [0.5952527822741426, -0.047964421441446047, -0.5704094045175765, -0.6968310273285508], [-0.32823910615525426, 0.1312484200001795, -0.7317253827783345, -0.16199452186274652], [-0.0960863513988497, 0.40123080028726715, 0.15727076440146986, 0.27187423725317605], [-0.41332222571110544, -0.03200254160316356, 0.5894269767616868, 1.1094116915978705], [-0.8849499683516944, 1.0658350222651205, 0.9477568613989271, 0.5382047578164573], [0.18674190111440367, -0.13641347219906608, 1.0723051545389675, 1.4386682678733964], [1.2821871183310571, 0.9012596570092256, 0.24929359365007067, -0.8553095161606601], [0.01574726236947777, 0.441074213530963, -0.9362410359325931, 0.2738877612568413], [0.32665906064992745, 0.4913571341138704, -0.8387208574684168, -0.46719748344288436], [-0.30924600694619264, -0.8151522017661891, 1.2402376825293908, -0.3379573194867609], [0.24682096723018723, 0.01609304047472067, 1.2319554257328635, 1.0601081076719223], [0.43080745370470086, -1.5386339151599362, 0.06825390707065496, 0.5625851964167556], [0.7139498297202335, -0.4806606998825603, 1.2536127121815788, -0.963590830128275], [-0.361861945093614, 0.7880942650904521, 0.06565476101858934, 1.4037246565815515], [0.15570886172475054, -0.42084203474268933, -0.26870315414053664, -0.7696934391876974], [-0.8772345161848432, 0.5000866787823823, 0.4298420735569243, 0.936975029567672], [-0.4484184705166952, 1.2903292543054619, -0.16683708923723195, 1.1618524830873604], [-0.2884163561216978, -0.48372845506352186, 0.19768992849085273, 0.7792000657669337], [0.08614661622740814, -0.47127540332782, -0.9954112955560551, -1.0132160877052727], [0.34292604338131655, 0.7110537042682671, -0.09586273178474813, -0.7188695439254702], [0.6015717593058733, -0.8781812724414361, -0.4919183292874611, 0.4408651959498645], [-1.5782028709712725, 0.2681783017249767, -0.4239427658681675, 0.06035151971054391], [-0.04074791207314137, 0.18978633489184238, 0.5153485267649742, -0.4977824908465217], [1.0027780300880604, 0.5103114790496388, 0.6137837887624795, 0.8453195858538661], [0.5588314015573405, 0.5611557426576466, 0.04511084541632485, -1.0018066720873118], [-0.08950339993243384, -0.5329182301422647, -0.9993592578209701, 0.20301398156597297], [-0.43448532606589685, -0.723482762027871, -0.7622996234876411, 0.12928057569206522], [0.2431363810888093, 0.9963468421634617, 0.01867155386601786, 0.7532867171638775], [1.0099750662370075, 0.8493618408489926, -1.6465398085118432, 0.9018723421637294], [0.24828252127384834, 0.3459921522449499, 0.30567180357975504, 0.31713508304974775], [0.24673009601546675, -0.23438230661199194, -1.353535720286709, -0.08625729341636024], [-0.5351457050466999, 0.7845235355772222, -0.2001939596515173, 0.0720255528384353], [-0.5747494063901821, -0.4327548631986202, -0.07028341349871767, -1.0895461801313318], [0.08321701758328467, -0.331827542869533, -0.9452940520009568, -1.7649713071371769], [0.3499619906085553, -0.2206125525200064, -0.3786754671000523, -0.1648282422706645], [1.2506560256946628, -0.13007638433015517, 0.017574277834146237, -1.0999694316493949], [1.1936278983641437, 0.6428232113018169, 0.7578747164236517, 0.04022673226977082], [0.6705807801350905, 0.27599264261566, 0.4443418734943767, -0.08124383760316967], [-1.042091505972452, 0.7298451802155178, -1.382717374169543, -0.19287711136306734], [-0.17375262339653227, -0.7465354688569045, 0.418678967896071, -0.1646418992508168], [-0.2677755035883786, 0.3940671929339481, -0.3269073752338508, 0.9966451477998411], [0.1770612741280906, -0.48746976337643233, -1.4530802316219382, -0.9694206728449583], [0.7775039341596235, 0.0009872983167833458, -0.17441681623918207, 1.20679263104039], [-0.8863898600985942, -0.37313865480017067, -0.32611129590799254, 0.41594910625087117], [-0.48598129478466384, -0.42108676668867745, -1.1461507551239907, 0.4822200377779111], [0.5704359686568804, -0.32980664435725243, 0.1169382079637139, -0.903349254172175], [-0.2557292526845061, 1.0781187253687596, 0.14684193420940583, 1.6993222744571208], [-0.5614131758025954, 0.39854695850770294, -0.14250966578578042, 0.39313598196209193], [0.06386420554824453, -0.3011398080158057, -0.5549295612077512, 2.2776670435779964], [-0.08443952087694179, -1.415263299551685, -0.4722106304641808, 0.44444973629065304], [-0.3388107579860185, 0.9375071831391957, 0.6876424832472109, -0.1222768203453093], [-0.34098875386516936, -0.7448016111834721, -0.5976754740318967, -1.176030241381739], [0.8303607318700565, 1.011518135756785, -0.9278733836309468, -0.8787822258294402], [-1.254085555829344, -0.6626109070258948, -2.233724099986923, -0.8451922077341361], [0.8750464362638158, -0.4120010801562668, 0.5317278838787259, -0.3940099256744918], [1.2431544586169745, 0.2166227316915194, -0.21192730814635316, 1.8649290221570647], [-0.20790675689262034, -0.8117978345421084, 0.1700696294298055, 0.027843329373902277], [0.698899270488204, -0.6659094114483206, 0.5974835285002796, 0.659454012661774]], "b": [0.08380021506827277, 0.26811425364060887, -0.029931151656777608, -0.0075697433387088816, -0.03234541981006424, -0.02887771327331224, 0.07257901726167908, 0.02802874359335737, 0.06442747353284194, 0.17235441629553291, 9.761204885323695e-05, 0.2587118566461891, 0.024348433295269093, 0.08341081196776429, 0.13016560610467562, 0.01307058785412914, 0.3489893861336513, -0.06615747381718386, 0.01022864234119007, 0.15305896548316486, -0.0008456104455009576, 0.13487035355934268, 0.16165142723856857, -0.09513508031687885, 0.19644290314295446, 0.02074726762824606, -0.11249176760814437, 0.021053436464262245, 0.05445545129135227, 0.09781164191781343, -0.02883065013521681, -0.017589905998302263, 0.0248067262611429, 0.06834374233522078, 0.06839102703015111, 0.1364099596893915, 0.10228752656748369, 0.09252963542223455, 0.2570523800259161, 0.23588051446823416, -0.0068732488006382885, -0.09759676933404544, 0.09165427267802202, 0.06736953201300676, -0.06566205309737479, -0.0021430446474279066, 0.06948157788639152, 0.17764346635190154, 0.12532945495361691, -0.0693166095904952, 0.03975548629611078, -0.05474204321459355, 0.2912522124211576, -0.024026731984310972, -0.07124212659981906, 0.002864668573863094, -0.07832529792407357, 0.3121172426003647, -0.0740399611959139, 0.25465386815279156, 0.014402447001212753, 0.17491199506853933, -0.1732413435985643, -0.12610755545236924]}, {"w": [[-0.1180284342073217, 0.028696080492545257, -0.14652106092137357, 0.41511293962208584, -0.12437787263452893, -0.08003883674676421, -0.1884023205022446, -0.061112391694604626, -0.001133779285732975, 0.13570859106445943, -0.10800941676245134, -0.03286469537652973, -0.2502696879544802, -0.14632528319922986, 0.48723534614262903, 0.18440483936915833, -0.13820042316466402, -0.23620052899045563, -0.17241265585377022, -0.00405110313954021, 0.006186773586895332, -0.13166543688217075, -0.22769289943502494, 0.25161064273938094, 0.0799532834585325, -0.06610637923401383, -0.03900762269816348, -0.09334004393130725, -0.5189312100099539, 0.020449780730484562, -0.18906873124471255, -0.17710022647365, -0.11290255775273493, 0.1294502006762085, -0.206923318832658, -0.253592624266737, 0.11310492941995406, 0.13331983309711828, -0.16923896120055745, 0.09949413851203069, -0.051553817290046294, 0.05327389589112533, -0.2228606306571707, 0.14724958718493159, 0.21286334944874144, 0.11284060316700552, 0.09857680823755888, -0.6668186871454636, 0.04607262027005802, -0.004208101687799774, -0.02575517820940338, -0.11145329258306279, 0.0092915030998379, 0.0728602499385384, -0.04654104378052843, -0.0815268379580336, 0.21744820199291146, -0.1950468710983006, 0.18229502562613656, 0.03172790806640248, -0.14218254521293452, -0.051256132489929544, -0.16240501489993336, 0.11933496704811052], [0.06110799081392298, -0.11494235452769078, -0.17247947966661917, 0.08100074098727544, 0.17230558365416668, -0.03615224155532494, 0.08738252418437914, -0.057304456733111346, -7.709066869232996e-05, -0.05137801343457421, 0.02851813922250762, -0.2751154608396948, 0.10647460488217533, -0.04366386539737791, 0.07019584299962332, -0.04641903546741083, 0.04925360464387016, -0.1665975119338939, 0.2166790653793964, -0.31889675660586525, -0.16668006003091107, 0.03585996285173963, 0.23126273819601734, 0.054733322188683854, -0.008643832757667076, -0.25327365704806853, -0.02376860994395851, 0.0099229599408192, 0.2977350515609814, 0.09211182409126732, -0.2696537252012866, 0.37281536488679995, -0.04978717896856203, -0.17784946536820437, 0.2586199450789034, -0.017317284769135806, -0.04275679412446502, 0.02663713700132496, 0.17172578095722094, 0.20897214720850005, -0.2330334771492975, 0.36928423746608074, 0.15001422499218323, -0.0725178315539681, -0.13390829714290897, -0.15770226734723944, 0.016305770764438343, -0.07632822772519283, -0.13641774845634805, 0.1574756156526524, 0.08046384351822933, -0.051409126529911676, 0.10396077881207756, 0.2387037941065977, -0.18766866818452146, -0.08064610265076241, 0.14285963380426506, 0.16177971937979602, 0.03760885565716305, 0.25435326691331134, -0.18796726600605704, -0.2680937792172911, -0.1406939827710849, 0.027447011478562378], [-0.14367909968970108, -0.11167565012473829, -0.17178089362505752, -0.09565579782885836, -0.19572759055567748, 0.05395449256641679, 0.14672427679680536, -0.07840896728411385, -0.04569787646041439, -0.1282827378562915, 0.0763390436125657, -0.026803077802443995, 0.27249775166715834, -0.19516063151825094, 0.06807305007014018, 0.07618579637109396, -0.09796523483903398, 0.08029473935340713, -0.2561248038324533, 0.34532794834277886, -0.2257179017140563, 0.14136085785885147, -0.22290317239817226, 0.18479239000722075, -0.042504350156858856, 0.027083497824271188, -0.00603134949004053, 0.19645826212660114, -0.05767752844031812, -0.5489313985743823, -0.13456237432548446, 0.03233528679816261, -0.07907068694472388, 0.11866128723889514, 0.17097358461351364, -0.035519749695561535, -0.2491625452791232, 0.23614097335070683, 0.20383343547855673, -0.027812518459487477, 0.3773129502418334, -0.05824500208075661, -0.21765767004388015, -0.034433212888708084, 0.19673038680590613, -0.16941364162652525, 0.32895003702117115, -0.1308567024524367, 0.14291498973140648, 0.08882416195271126, -0.03118020122673507, 0.20077069524114893, -0.3015330832935048, 0.23429372750890468, -0.05619491240978629, -0.11262075277092715, 0.11576353974478472, 0.20744056847320974, 0.13318438481382575, 0.38574531854147187, 0.18670579721353647, 0.18786097198544263, -0.09958646381134087, -0.003312788656101183], [0.09935794808221726, -0.004499954086518128, 0.054088770006891336, 0.07564729528042213, 0.14867984016993943, -0.01810453530089387, -0.0618639543149537, -0.14641293269829062, -0.15792190500385828, 0.2060140766881927, -0.015743034920492747, 0.1377945605718423, -0.22932898401945576, -0.34280210032947367, -0.1856478241755142, 0.20298847248494165, 0.18763483565127434, 0.059509774787016315, -0.14182849690184166, -0.024025461276997995, -0.05193855589801917, -0.06258705958399365, -0.4437987660405057, -0.1518909812543875, -0.032764708662846455, 0.267953674955151, 0.02900444599141533, 0.24706500996151623, -0.06962224032297643, -0.044959140537928634, -0.6893655197902017, 0.0825540314445, 0.09735471902892832, 0.3114255393567179, -0.08610983546581231, 0.0163435793982647, -0.12416512341210016, -0.20832371134782246, -0.12574043068587346, -0.06072022845516074, 0.2397343836212663, 0.00038140820334142157, -0.13975866112324922, 0.025088039269119386, 0.03839123932422986, -0.11912277868604064, 0.20145510073609216, -0.33295119895880165, -0.03805625088522237, 0.1177026492657787, -0.23622935617458293, 0.06393733418325864, 0.22730402967805735, 0.0796851137191757, -0.29966060582455717, -0.12777850271081417, 0.217590338864198, 0.053564573701186634, -0.001793183590825345, 0.07928218349274535, 0.12741543352689352, -0.12562700748373148, -0.05074615150750713, 0.02530708279172616], [-0.09384680620004388, 0.004178613290691207, 0.22096194339943756, -0.17496927315751018, 0.34492385415216187, 0.3462039093374999, -0.30709999641414193, -0.03128555800094392, 0.07301463434957611, -0.12254857049086049, -0.1108751107290625, -0.011076805199541222, 0.15089543299877697, -0.08415569714008984, 0.32510116235279435, 0.05271490087730532, 0.0152111111203685, 0.2546027086492284, 0.11693891613662065, 0.08599518568753513, -0.07138326354142667, 0.3353411436059253, 0.17425336788308218, -0.035779222806497715, -0.301744585408562, 0.0701002963268642, -0.20606104126089733, -0.2973223824784376, -0.046762571109927105, 0.08206843685781723, 0.22933275679002219, 0.04089743893030502, 0.1348074536695767, -0.19147536246675834, 0.014228013437737023, 0.03984786152945466, 0.1389692963130778, 0.03269200342871774, 0.13643895831366049, -0.11505074596832544, 0.05829738453146851, 0.07386214985164918, -0.18781691679340273, 0.04685024778022685, -0.05942228644327614, -0.3377338633474069, 0.17661640326647907, -0.09086220229858065, -0.1306031867253459, -0.06519125523809273, 0.01792313310628877, 0.25566801633827485, 0.006582068783903227, 0.08828209016362884, 0.25127598660055445, 0.08855595939273085, 0.20818115624148956, -0.09727139002312754, 0.14322569194085358, -0.03113627193482845, 0.1996432389829334, -0.14439567885741678, -0.14191072172790417, 0.22989019981701803], [-0.03469304838662714, -0.06372084604167975, 0.012626233982912578, -0.1236298417434081, 0.23503182762594102, -0.22083571629108184, -0.026515938013209596, 0.06108208774516683, -0.018487787122528906, -0.1421785426310769, -0.1537669396773415, 0.07502591985386348, -0.18217788728708822, 0.11431393996952549, -0.2692794222650642, -0.09914415207125983, 0.006247439989787694, -0.22187961141479856, 0.11531796363317792, -0.0034167515414383416, -0.18337458119146396, -0.26898611910406434, -0.2768226366613909, 0.008526519645046532, -0.20483234562872854, -0.241247583318432, -0.04083177168649726, 0.4012876913288354, 0.04903290126761714, 0.1348146919531856, 0.03768569155874632, 0.13795048247049102, -0.23834998345033576, -0.07615845542897218, 0.04619698636023146, -0.003210928644022755, -0.033991306204431984, -0.11777172272922581, -0.0467220330821795, -0.13702216293032865, -0.4281098696381995, -0.21106140354008995, 0.08402105374532665, 0.2752222284630733, 0.3201304387779502, 0.016379934756830108, 0.15793280839418772, 0.16035984232198938, -0.1224122448465889, -0.3012793392798913, 0.004757149881460719, -0.311425450665597, -0.05657600313306325, 0.10733056560336489, -0.2511190827850048, 0.004719502475593008, 0.2191725369223829, 0.06279015105347144, 0.09230564423952255, 0.15836354272775763, 0.30639782951174543, 0.026741339025941994, 0.21656644038861025, -0.011348417704828471], [-0.09502968103286907, 0.08781156460095473, -0.1062878615846729, -0.12166827584030489, -0.09823730771354348, -0.38813427107350845, 0.015987890621089264, -0.23283762836910715, -0.0036223479171832436, 0.27068528869270353, -0.06693339691623829, -0.049235254462326676, 0.2563527986361589, 0.10091505449780667, 0.17429534134282335, -0.05528310327924944, 0.17826417466362482, -0.0837478620680047, -0.10460399792007599, 0.1382697643796985, -0.10605435747477959, 0.149769887087008, 0.46285131285839215, -0.2902190813384086, -0.14787065747416456, 0.19923958137727363, -0.0012918663659083696, 0.19238599820945307, -0.17819165302892004, 0.09868033041959867, -0.028847160054683785, 0.029785879381485324, 0.06131011463092903, -0.18444649908837155, -0.16942710893033633, 0.26691814112779055, 0.04663632737473403, 0.03072358815313464, -0.014123128780672714, 0.04090400007590061, -0.20456269154159695, -0.17472545169379988, 0.2647682013233163, 0.04278627222176004, 0.13540313144520652, -0.09552738502885537, 0.25617967350508997, 0.04559445852663845, 0.11986500922251886, 0.09597353761321858, -0.14180411793764616, -0.3349392661708962, -0.14014960080526526, 0.2912849972510719, 0.26107330063897355, -0.03414881031951622, -0.028145912431306503, 0.17806401758404375, -0.028814160233003715, -0.2513244091928399, 0.23960394644059213, 0.13970854438077762, -0.44253139945749587, -0.027525507736219493], [0.02559669055284809, 0.08570863676251486, 0.03413842521334179, -0.1071721113415732, -0.018160439744135153, 0.052247859035169326, -0.04949271911026859, -0.0649227554325525, 0.221418509293191, -0.16482734586829373, -0.06216179305382621, -0.35962614935616827, 0.09309966862670685, 0.1468766147606352, 0.09632916347198202, 0.1659270711682727, 0.0774524682538101, 0.06543307606088052, 0.07989555222455229, -0.04608484054794786, 0.21123336488590028, -0.06044486273219507, -0.25775890588759387, 0.15368321683098574, 0.329415973983324, -0.1702432643974089, -0.016838276320089468, -0.1183932701497952, -0.06772545322801414, 0.005154082862853274, -0.2203722226518656, -0.04473128611722185, -0.25269432220721155, -0.10033793808382956, -0.21169070565821962, -0.18834243931715983, -0.3021132082501205, 0.2152583257865785, 0.09304725669491602, -0.33833279487750345, -0.10598513036215504, -0.12284155773919722, -0.12517142963271843, -0.25774226306983367, 0.1337017888951397, -0.06635783914337486, 0.0835916407977972, 0.09495640563347182, 0.24103453894716917, -0.3162713382491447, 0.3130961897149522, 0.2229342369745911, 0.10248556398034833, 0.4214753427310771, 0.0390304479103894, 0.1528168681600145, -0.13088196483153286, 0.20513740240539577, 0.028884219524877616, -0.06931327923016027, 0.370027051082188, -0.05725272444535637, 0.005948211180854365, -0.036428031803468125], [-0.13305072733073062, 0.10220319036084012, 0.13745481710955554, 0.06549927110649059, -0.40852507605333427, 0.18081575037421407, -0.06029193124812654, -0.21527595143146344, 0.10895297977420654, 0.11076059564897654, -0.17956669084722393, 0.4547174218790121, -0.20754376139254987, -0.30445228271438346, -0.2006895143868403, 0.25705450491026854, -0.016114386238863004, -0.04908641330023219, -0.008333883613114967, -0.09655442848623197, -0.12119142277399417, -0.10475474914966232, 0.13354363118436707, 0.18989455251887682, -0.18822143496975058, 0.044486746766673316, 0.1484672446387551, -0.18805400508205408, -0.08847930730210868, -0.1738535051414286, -0.22633362528862347, 0.022175399742391903, -0.12375752598573414, 0.11761314104973097, 0.0010140845681800579, 0.07755903638182748, -0.050734361059500556, -0.11024057857744152, -0.015143200089933894, -0.004156893931626758, -0.12369152573177837, 0.07942471101269578, 0.13902618117212565, 0.03171861488507209, 0.3035434303633553, -0.10560210896122509, 0.09761949715489442, -0.07387373137548249, 0.052736065436313685, -0.13864947019787796, 0.20325001044685476, 0.032022872560230134, 0.22358110239747792, -0.22134754948039118, -0.06592973886941102, -0.14329632638017906, -0.09195514518238722, -0.12279072088787765, -0.017432489686114504, -0.0002884122817018802, -0.0038889793311408416, -0.08111402753049922, 0.03903761944672338, 0.16609050816615284], [-0.15813198385573538, 0.017347447062693457, -0.01856988561316148, 0.06580461961163661, -0.0003347176758836184, 0.0008115252734099761, -0.1758800107379603, -0.0019067518315450604, -0.15840394181211423, 0.10923183223882417, -0.007407516632376538, 0.035736080356101776, -0.15204133850375312, 0.14257037462109026, 0.12538525457087105, 0.15135093923239257, 0.4180041518402546, 0.001129072265139064, 0.2170359837365524, -0.005695827767856631, 0.06366605166494797, 0.08049268263675347, 0.059374958917885204, 0.126694040955073, -0.06947756236123452, 0.0092091004872646, 0.10213196573785964, 0.30178306747190814, -0.1484096759340075, -0.306569974814503, -0.08435781320343512, 0.013272334693788242, 0.02592416264223128, 0.025133800141420793, 0.21319535626850417, 0.17860489285712153, -0.01511361236947419, -0.08024783829252675, -0.07528600908065983, -0.07646567583771705, -0.040760658010037885, -0.2761432403899669, -0.07329643209819224, -0.07145882811367103, -0.04034811337054351, -0.046218316763576746, 0.12874900676607004, -0.109701047497153, -0.063809875244774, 0.09587559671503114, -0.04323354172809521, 0.03747066293644823, 0.13834384075213338, 0.07874028500211923, 0.07514219017422694, -0.032515191144536756, 0.12731026658298777, 0.00962259535120517, -0.0877540187076892, -0.05499775418520002, -0.21379089613304073, -0.14862787104406092, -0.3331410673163084, -0.10781027795113807], [0.23609327042371261, -0.09834881349146696, 0.13913178057441877, -0.0008551989492024729, -0.1238462817728004, 0.23662247829201058, 0.1029074073771636, -0.3097218776614571, 0.18410492225963573, -0.19000080574872502, -0.03144322883211633, 0.11810951176529572, -0.053006408258719204, 0.1978431522126361, 0.1345657020691891, -0.27883270197276777, -0.08351615285012247, 0.04986247373048171, -0.10169713487372899, -0.03821393561558202, 0.1412827501959503, 0.05602314124785974, -0.16269370045945356, 0.030865069152750363, -0.10835559109150822, -0.21482468116303488, -0.19976032404237182, 0.0505803483708049, -0.0050231160483230515, 0.000959419268546586, -0.20266089813114402, -0.032524427078864646, -0.1833891623338726, -0.1637560735064817, -0.029158123488356533, -0.24454692559976565, 0.11833420175572107, 0.43960099542767017, 0.08090236004277841, -0.18453866836390348, -0.047934378530471874, -0.27496376614069046, -0.06675796894981312, 0.08968108778522015, 0.10409426631904567, -0.18244676165009308, 0.05287980111709367, 0.204334440922384, 0.3102603208753454, -0.12394683331911609, -0.1527714126039212, 0.009570081469009825, -0.5176169760403821, -0.09387290706996373, -0.047912281105256055, -0.08120581592836836, -0.2800049112724934, -0.04360004895013472, -0.1372645001043962, 0.13364276249744456, -0.16236506181562224, -0.04990533711650246, -0.041222127981631426, 0.10033164151440936], [-0.4500499433869812, -0.06016768819130897, 0.13389574695149253, -0.06436369838063162, -0.26992842839724973, 0.05775311760149883, 0.05930402356340517, -0.047861363897507635, -0.20501130321612793, -0.1309225649396871, -0.055447557722030846, -0.15475651655807368, -0.33961413141973984, -0.13587600093803373, -0.011020831906429484, -0.08991100789070669, -0.0133627482382863, 0.01431953129716723, 0.15822879773007686, 0.3895909933643091, 0.12880193990851416, -0.24823360345645068, -0.46969364706007727, -0.016703708878385643, 0.011985556086912735, -0.205677975654969, 0.047819760636378585, -0.13557501141011885, 0.07106354455349465, -0.05754196469881393, 0.06999524932406394, -0.3085131029454798, -0.07775706514061466, -0.026264777823353663, -0.2519183297010864, 0.33275800984530224, -0.09596267782953882, 0.24578261357868125, -0.11780877755874339, -0.04136718433071556, 0.20905213011923185, 0.05327825386233301, 0.03401104399206394, 0.0470200398251932, -0.24158809928333783, -0.06904447268116909, -0.1690769126697001, 0.034329100392131565, -0.09616774728647606, -0.007833991362910077, -0.01374532425196009, -0.0070002921113514836, -0.006117014484212743, -0.11531736250230958, -0.18632962675772494, -0.11780145489170445, 0.18942172610219257, 0.065759073996674, 0.10355963401577474, 0.24311707682737058, -0.20846927007236044, 0.09015194665657673, -0.1903252796207715, -0.05913550558486693], [0.08550364470341586, 0.2847942318110688, -0.13852183225732165, -0.01734925009503898, 0.20392920589385785, -0.2634077922047067, 0.06401254118128112, -0.054588768057481064, -0.15600136053475566, 0.025241104865233493, 0.10456909368914946, -0.16187804293716612, 0.06717028512252957, 0.030654527217211545, -0.219527326573388, 0.27427118634679676, 0.19215568002760566, -0.15246353512775476, -0.10369791773458237, 0.13567472956653867, -0.0875829624918591, -0.32596532245410104, 0.1849984500722609, 0.0011057378809678723, 0.3371154180671842, 0.06316762017530954, 0.03351556620130394, 0.5075039998365972, -0.03047224304306269, -0.16850747308278516, 0.04051824533357261, 0.20069192891334797, -0.2061629874556688, -0.16069510121163127, 0.07945628888277491, -0.5653156508205189, -0.1931467100035199, 0.14035703583973555, -0.10409521497652952, -0.2875733543285119, 0.34039497361390236, -0.24934586790286456, -0.09251819346600822, -0.06588371785260926, 0.014405583800860988, -0.06553495948990935, -0.014659823838664933, 0.010190239623528101, -0.01572338462710095, 0.016014607300051113, -0.42075307568297254, 0.07798156139623555, -0.24891211462323817, -0.3832885346912331, 0.24342885971778858, -0.2276701365857112, 0.03154763396933272, -0.13679474799672778, -0.11990684693180148, 0.08514961009952582, -0.18528193317057395, 0.065291470873712, 0.06707097176243194, 0.20549295180501495], [-0.05726886654498317, 0.22468043739781876, 0.2736717882134514, 0.23117908769059975, 0.11696774376475134, 0.09745002164809766, 0.4852338572753862, 0.3772918667711376, -0.118674965066306, 0.18739699034435836, 0.13941609231310748, 0.06515115036467581, 0.037712748184715816, 0.09036222198265872, 0.1582700304410897, 0.02312830645694705, 0.10663781766079602, 0.23971486075211149, 0.05295501222188737, 0.13769995532597235, 0.1431993636854637, 0.3135654067458132, 0.26360385564613964, 0.07394999475934902, -0.02334887150367161, -0.2189964678552461, 0.051049293615597575, -0.20159167721320845, -0.1825779866815769, 0.15332393102037958, -0.02504741408722167, 0.06413679466151609, -0.1355911899709436, 0.24610725532296807, 0.04064152196424738, 0.22962797382248726, 0.09061215169658905, 0.042620000767414554, -0.12920014774156205, -0.06040408504108766, 0.1350476904831544, 0.10653689437255685, -0.17887384560815023, 0.19510123343787283, -0.057221048108303287, 0.130825479510986, -0.10358963914777622, 0.050176470364518354, -0.11151558747889899, 0.013062812520624124, -0.06909090234829125, -0.07614684935996267, -0.04402859468430864, -0.01913067224112121, -0.2676218852001621, 0.13698656499631393, 0.196748075574521, -0.14155425391827267, -0.24843459030956405, -0.2028333079618531, 0.16857252397538428, 0.1596562426883331, -0.070533573686244, 0.1748893474270692], [-0.18457271063631964, -0.10913208716487015, 0.09003509964888719, -0.006156163136054196, -0.10490543953515477, -0.4440043313018092, 0.11764156576145976, 0.06013881484738328, -0.3080367965992969, 0.10409073914878889, -0.001505323636479174, 0.04084068035966826, 0.16472299558593187, -0.13080154949538708, 0.1263551349674051, 0.12328324305307269, 0.1266387546120506, 0.28404812272645874, 0.11320521522757908, -0.09728714853135918, 0.32249807857257246, -0.19443226300292973, -0.08022287166384133, -0.1707134520768849, -0.011357724425275063, 0.19194669636510692, 0.2255211257309108, 0.08736087726588991, -0.10745197903927049, -0.10212794118885919, -0.1059214200019262, 0.17114534672435222, -0.15531186448158757, 0.1534020356270665, -0.009533628157625791, 0.028266493181919355, 0.26893059256092583, -0.08297040262973761, 0.3017894414125063, -0.24122558753394902, -0.1463315094150872, -0.2830086044238981, -0.13672879005353933, 0.10004600291066197, 0.1334830721203528, 0.0561096104710788, 0.04781016444226575, -0.20101757498105222, -0.2404915254304234, 0.05696294694614626, 0.24258006790041317, -0.06383699305915784, -0.22277852520657543, -0.2701949021358804, -0.1281436170896033, 0.2806433385998236, -0.03681718202241434, -0.17451011679837536, -0.10737003864857582, -0.06850102346867577, 0.04168208657082095, -0.12446955280988674, -0.15481779337061766, -0.04042185312865653], [0.08263315742393047, 0.12527545962997844, 0.09619443183432837, -0.08253612507493839, -0.2999888986824222, -0.1439945266302601, 0.04747113165580967, -0.23631875766928118, 0.04333620661199605, -0.10474172075202061, -0.10447982083377971, 0.19676045006730628, 0.03208550508267381, 0.24055375686297997, -0.16949674876604162, 0.1987695497639159, 0.15923819480377524, -0.5301664410678019, -0.017768408242229233, 0.2705698980021423, 0.13608063542938068, -0.0786271531297144, -0.04424936444806761, -0.23088964146237329, 0.03454146819146453, -0.32061271010371895, -0.17965045564877913, 0.19732539873142185, -0.004666180935819161, -0.06887384854371628, -0.022754657004871837, 0.4841198937199916, 0.18207008791583584, -0.14099341215831343, 0.2904409867891214, -0.017719091094844836, 0.13041803435283447, -0.1050747417195424, -0.16858136795252746, 0.137907764450491, -0.1362021243761633, -0.14194398436992214, 0.15330556321394254, -0.20808358762750245, -0.25121991512955405, 0.09549111242512201, -0.3470808886276276, -0.1346976771452194, -0.06615512843426309, -0.23843751537623836, -0.1979791884391555, 0.11617300861296341, 0.04822629022116806, -0.16733616827954328, 0.0931765860972724, 0.267534899596111, -0.22939215284377776, 0.007907090041943114, 0.3436913631572608, 0.10486129119613294, 0.1417447706528067, -0.03846935265066792, -0.14188926281886569, 0.20190515622837], [0.11388557005602049, -0.00583370645864219, -0.09218555908328031, -0.3095935189883972, 0.018790348030442064, -0.12125299216892285, -0.03027770183193789, 0.1157098271145012, 0.1479242282309342, 0.11714117864006529, 0.4047198706266603, 0.19712487061079575, -0.1364403879598905, -0.14562849649831258, 0.4055641292867511, -0.11775450766518535, -0.010150271928613635, 0.28804172493557956, 0.30398481932398125, -0.014022426636778244, 0.03852571979233042, -0.291518176112052, -0.15561396214055048, -0.07810889745652373, -0.011507914836462201, -0.06256150231625685, 0.012084602427787862, 0.38986673055243576, 0.08106780525969348, 0.0544768713917327, -0.006520474650820178, -0.04044414446068894, 0.20776369167585487, -0.17177217668423275, -0.0256718872484772, -0.1908399109522874, 0.007967461825677863, 0.02335068981414251, 0.16187201180262228, 0.19775302319673482, 0.1141258488584053, 0.27929472571442376, 0.285562810141355, 0.05773507286890566, 0.06419563798245945, -0.3454436379129931, 0.050293377110940736, -0.013185396092247096, -0.3078015688489848, -0.08336671822975929, 0.15676246838150182, -0.2253304788589515, 0.2270143234280922, 0.08405449668920457, -0.06871361762408895, -0.044639842872005654, 0.14969364957591608, -0.2582032579613433, 0.3526797330547099, -0.15116253818779402, -0.1350029257053198, 0.2034267392245899, 0.13073457567438823, 0.22341220085172728], [0.19129330045392404, 0.1573575308297889, -0.2159888947836529, -0.09057183189731154, 0.09233743046445413, 0.03471224287524308, -0.41380573876285714, 0.1602153384832909, 0.3383634279962564, 0.33644181562035413, -0.12312138439807686, 0.20100334082625007, -0.37146299490573476, 0.3085405418347332, -0.3744144488847971, 0.09213001931982728, 0.31296330523118565, 0.28285433911621866, 0.028893036810044473, -0.1523229672435353, -0.07226382691468665, 0.025074997829850374, 0.16868746543796265, 0.22680328641026865, 0.005447863878212062, 0.3500274831012917, 0.14149522620311192, -0.03967551173433077, 0.27352529538176584, 0.031422173633273674, 0.011890858018374391, 0.029340694425130907, -0.39405071764983146, 0.12082000122879545, 0.09623665474627015, 0.002597585031553302, -0.07920007826534381, -0.20070482912154197, -0.0356613853647637, 0.10956983022115066, -0.05693274567332824, -0.14480644954538321, -0.045382917307069566, 0.38096678477802454, -0.2570808088053958, 0.1671462518372194, 0.07152091298228158, 0.21433951393412626, 0.30700076602842785, 0.03434745155202318, -0.2529031649076336, 0.18939614408926123, 0.3874831360694743, -0.17467599634581837, 0.25012333433167855, -0.09136045885811257, -0.09945696585791827, -0.36364991420387816, 0.1433922358054104, -0.0253352059380674, 0.07856568890354024, 0.3806013328468901, 0.13390630265627881, 0.1499130038734418], [0.13248665131424708, -0.18227351239356293, -0.01126672962765714, -0.21813431551814302, -0.15508595717433982, -0.016109582308349198, 0.18776046783283185, 0.3619500312786855, -0.1903855887903462, 0.03740717822710013, -0.00797681151194642, 0.10713581813596494, 0.10589836160217102, 0.06435631851154032, -0.17146775139339615, 0.06851074749508226, 0.17036028627704503, -0.0877905770994211, 0.35389698953053567, -0.03655047567887493, -0.117628133242796, 0.05824339476714499, -0.04108643545945216, -0.23973996343482706, -0.012579987030896538, 0.2801089721595618, 0.3572576579292882, -0.09895605533912655, 0.160072043179425, 0.03251763350267436, 0.04868472216917617, 0.22018636164600663, 0.14707704498742838, 0.0296168947241642, -0.158568252321859, -0.1941944671103597, -0.014061406453900936, 0.058789050486360975, 0.08636861316044957, 0.12931550714292836, 0.1732697639081485, -0.4214404106150514, 0.16728451771961134, -0.18099422305588458, 0.1965428820106045, 0.058883892594449753, 0.1144509837065997, -0.10351646434124112, 0.06130566753348834, -0.32922111785377917, 0.19102234305605062, -0.06138696695957773, -0.4497260036432884, 0.18971772988265778, 0.30786264567323757, -0.15582374055226839, 0.21685053958089748, -0.1382975121209391, -0.40276701834609474, -0.07559795147466396, 0.06392557646413884, 0.04085683143975757, 0.014819107391289107, 0.06127958601056142], [0.038023820509184965, -0.04776920814175006, -0.08436897381209488, -0.02277193588370259, -0.05916605692036039, -0.06313212962138168, -0.18253117090586693, -0.08627590709971154, 0.007199286988967632, 0.057859982832459064, -0.023241309994577155, -0.037832245303670034, 0.09090057529986696, 0.14535845775267314, 0.12999140029536502, -0.2974429475765452, -0.08523884178634156, 0.14369281875125348, 0.09348391602448708, 0.11111666323681613, 0.07209702903615971, -0.15106052650599125, 0.1991482075722791, -0.23494526413414973, 0.21104880811951968, 0.0001527443959319816, -0.25126098446967543, -0.058671992943625406, 0.2135145742881808, -0.11870604711491381, -0.2092024833812146, -0.03613185935184796, -0.12433011162290065, -0.23461019552130008, 0.07633639320974361, 0.13584928447364586, -0.0750700606286112, 0.08632462257644845, -0.0430543695355635, 0.01983611661084559, 0.030698240657980692, 0.2756040288134066, 0.07444819471936659, -0.1826043658049329, 0.10127250159378029, -0.027158541259700276, -0.08451155949188832, -0.10828301282200621, -0.005802958821462199, 0.0001489688776869325, -0.05385879405609804, -0.2302148785907354, -0.31458973280272345, 0.02201738916548599, 0.03758202651313466, 0.40964284279384505, -0.046067211322911854, 0.21773022318181937, 0.21559887760835536, 0.03815160362533548, 0.015842745471322105, -0.08097740327510912, 0.3264597423669957, -0.2649183939825352], [-0.0025102502876324997, 0.32051591635130616, -0.058239662637976315, -0.1754165547280939, 0.07568221154992505, 0.1384953602227617, 0.08631583924127968, 0.019763298148371626, 0.16561562600559962, 0.2211273265939801, -0.13717862207515594, 0.04397212326166882, 0.21605631207332135, 0.09953213170006862, 0.04409966696226594, 0.10087113282637589, 0.2667914882689424, -0.13440136998923927, -0.2127768188692054, -0.1169439829347842, 0.28156991342073273, -0.13450443168987183, 0.051612924602772496, -0.008240947395995367, 0.08081220678508226, -0.29030286719523724, 0.008468612164701054, 0.1882603996944263, 0.1958043426545871, 0.17028339102557388, -0.03570024909420123, 0.28624065252666603, -0.3264089139325657, 0.24949107289556588, 0.14696188840317964, 0.14751317071080958, 0.0007812695214117547, 0.06190320241620721, 0.08183235873257559, -0.3104062235621677, -0.23360674095495698, 0.03372832682941039, 0.09699974075652479, 0.07078254488811593, 0.2519223870993246, -0.1152795137796499, 0.17568139227335164, -0.03527649691554418, 0.48967722043844836, -0.24995421125389647, -0.11488238774473868, -0.10949978972863635, 0.351098993842459, -0.12932878257371647, 0.3845109567821716, 0.27584945189264587, 0.20314401918098562, -0.03966860809627005, -0.2433877337746341, -0.11912831525081571, -0.2364305313197132, 0.05533472072079127, 0.016765375981457553, -0.010348742696441433], [0.16807018473839264, -0.022950337548271558, -0.2737207078789725, -0.18736832044945745, -0.2251894417571517, -0.05618271618327625, 0.22014301580774143, 0.08943538168867526, 0.05988223643916994, -0.22724232755823542, 0.4184703760626845, -0.005225059537226685, 0.4261533744715903, -0.15346393696620686, -0.10074883160040858, 0.45964213315136165, -0.19029761203072343, 0.07391982570867314, -0.06016067158965932, -0.1438648439992382, 0.3820092220614128, -0.17756576085674664, 0.15840458654128192, 0.1952175241130684, -0.17890810864397427, -0.33588392565447, -0.3149872803313239, -0.1413872312142264, 0.039233352317911765, 0.058555360410935786, -0.03401188425090872, -0.01862011412839751, 0.17220643597661445, 0.1354185549502861, 0.06627031351233006, -0.10937696961674462, 0.13724706185388247, 0.03184715123493089, -0.13219166530893472, -0.10218428468779225, 0.2170016846868637, 0.3254805794118265, -0.09455957339976949, -0.36783650754070996, 0.10374666656477065, -0.1596095761338496, 0.12948330001195255, -0.06657850757078873, 0.393532891396611, 0.01986967653759729, 0.1596326441647427, -0.2150323103382505, -0.49861548625364877, 0.023868919580154763, 0.04621095556305266, 0.1273612628479844, -0.09827680410469959, -0.22825501761889488, -0.2837344413817481, 0.09787790454003284, 0.12505200552116155, -0.15575735760519469, -0.09329830852169285, -0.12903490645594043], [-0.3351501042748436, 0.026005971141715788, 0.15189178553309823, -0.03371602132682824, -0.25174860725695236, -0.040906051564576044, 0.2566580064887034, 0.38141040209601745, 0.040999262368089796, -0.13719264285397362, -0.35737155697540307, -0.27502509707364925, -0.004248214384634703, 0.03843926120703818, 0.0573443058393497, -0.045189376405501545, -0.27554183408604976, -0.27905977464907167, 0.03598953486585461, -0.15942093546946995, 0.23977075801507722, -0.25942912627702996, 0.27929318552833055, -0.11795517264232745, 0.06036808855470985, 0.051126924799894946, -0.06086705708610288, -0.3550371576212533, -0.07987917369413582, 0.25929458039598235, -0.21133050567685008, -0.3241440645147324, -0.03801274236641448, -0.0854771195571563, -0.23156481276094307, -0.13692414010916998, -0.0740306332938519, -0.07658042665024975, 0.03825085927822745, 0.1578193063418795, 0.07500854520917964, 0.08108152130212226, 0.29199870197376615, 0.1933539586807784, -0.5049558244012654, -0.06491332781886341, -0.28268323069267776, -0.09873361823382824, 0.1339552950286787, -0.03529018971580538, -0.07474128095416359, 0.25002919560379017, -0.28469931750672556, -0.01746450878396861, 0.09790296798959829, 0.0024406943141492784, -0.21120448519564913, 0.008757091273777936, 0.15728247905044884, 0.07305627424238599, 0.06162653463398419, 0.046945651770547395, 0.02512511174661015, -0.21965527758576864], [-0.05456486073221078, 0.07903723233191347, -0.5507454590498777, 0.13435000364953287, 0.05970126264269897, -0.1883472142176594, -0.13083347225679856, -0.03603243335009471, 0.07496640126408755, -0.06552661479321353, 0.21016195185287787, 0.07470435140324544, -0.13377316273029377, -0.0814692884347261, 0.0424974584085289, 0.1289792992563627, 0.12258321444912837, -0.01737420130743516, 0.0270799826109082, -0.0016143265184916113, 0.14493074404882872, -0.17230107451108667, 0.11144082772124898, -0.3275381869907711, 0.07924094234969167, 0.04769526775193778, -9.395218453305551e-05, -0.3760220507070306, 0.27750920949500446, 0.16334223322961364, 0.0067939101417393635, 0.0808685641122116, -0.1662810548459561, 0.09492776150866397, 0.27997842728319305, -0.2059013889093253, 0.47559104399495516, -0.07455806353952983, 0.14685738175733196, -0.1456377992597214, 0.06894732741566287, -0.22362754351485767, -0.11140108381545907, -0.03804132020111337, -0.1156581870046716, -0.042665183357093614, 0.17360102570713132, -0.2263851551652211, -0.20951854951765794, 0.00837855788507831, -0.10004998491616907, -0.17784986742343434, 0.028500054292938677, -0.09884888683656065, 0.059396432376915796, -0.007199488219390961, -0.03210542912552274, -0.012028854477624635, 0.1851699531857339, 0.2312355605867675, -0.026695195128978683, -0.1783859796874195, -0.26719111476852764, -0.3947145596241069], [-0.20749899277631972, -0.17186138341813995, -0.009640829336259227, -0.3302110944894737, 0.2507134068989078, 0.16986431781560343, 0.22871217207449684, -0.08789396516334357, 0.029899658964680127, -0.17349623566030792, 0.24255299770290792, -0.22523029711455056, -0.10372933996849233, 0.24554985256655762, 0.4388044424948165, -0.017362076151715537, -0.08561217974673285, -0.44408810449678754, 0.30442460323126824, 0.03316597719282368, -0.32671032340027995, 0.1394014979021914, 0.07374933579854585, -0.0628173562339936, -0.08343620532649074, 0.12438839149978138, 0.04192969144407054, 0.08139476390283855, 0.21495199575076473, 0.19161694753089117, 0.1325586287378905, 0.10370113547497711, -0.22640541577011183, -0.22207456087091712, 0.13799685992866745, 0.10243004719744123, 0.09975656314214901, 0.13099194846238654, -0.09627220404174543, 0.11754559149563172, -0.16982227685273102, 0.02106673753732033, 0.14270180046227404, -0.12774957404515946, 0.34977994657229183, 0.19897330740911487, 0.23451901180400808, -0.0199211555389418, -0.2507401510173805, -0.1250440347982943, 0.09731389903740106, -0.038148362225176306, 0.09251671234668488, 0.01973595030814308, -0.10533099029002341, 0.16265319579753432, 0.2118216405056233, -0.12420216416288449, 0.08559351470595523, 0.03433480997282121, 0.05117171763319363, -0.029942652700545785, -0.2215095366416529, 0.2506209679903364], [-0.1844827215008504, -0.15393542313780312, 0.11601334654900643, 0.031797672683194424, -0.1407396901298287, -0.11625868773798399, -0.02805214652056975, -0.07708937172725415, 0.11427552257078531, -0.20582550263338154, 0.06417354254537032, 0.2705199543824613, 0.0355828772991429, -0.15703798956058235, -0.12780880501294373, 0.007704636432027239, -0.1103593715929221, 0.21824890965044344, -0.32535105897704514, 0.28967797641320664, -0.35797100724362546, -0.00726973783965292, -0.19147537844232929, 0.1449852487611824, -0.13683111539361287, -0.20030054505125486, -0.060110819573420356, -0.07266354755552673, -0.34207350232965017, 0.0803020502794988, -0.42296431177242555, 0.20794902261138373, -0.05834777781891242, 0.1684243691518796, -0.1061746823544709, -0.1402206264968516, 0.11521388260932922, -0.10326637472543995, -0.27358106797688597, -0.015393162318144514, -0.24343381409237558, -0.0022855636086654527, 0.24373308015973355, 0.17016309515433878, 0.0003273429119954385, -0.029300770513528064, -0.056010841457579334, -0.11270316816613114, 0.06275266321464792, -0.027912801992837376, -0.06747275756575276, 0.04773887726715594, -0.35682115729229863, 0.3458567074440692, 0.1113832102497135, -0.2463814612417738, 0.020305144218888294, -0.19959458994132412, -0.09533364742028382, -0.15823448580006455, 0.19299277239977664, -0.33957894234195396, -0.0626484946318909, -0.29152372798711185], [-0.003617757446785473, -0.0562084841216913, -0.24867517152210714, 0.2545035340225499, 0.27636933520726953, -0.09961522191930525, 0.09234413147920123, -0.02627779429381653, 0.043047801758883335, 0.2708160708057008, -0.04744592117950429, 0.31677453781637377, -0.050730495998347745, -0.016507871389568093, 0.33406667684660585, 0.048646278339119095, -0.3592324961076743, 0.039737634448139485, -0.2265759105364838, -0.29393758637625045, -0.16664564508695637, 0.057611344930164274, -0.19680882905170816, -0.24772265545233274, -0.0671369353242551, 0.07164223407307946, -0.12310751924293356, -0.2309699323088739, -0.38404014665829767, -0.13717330268064712, 0.14941727333066107, 0.17714360790625913, 0.13963766415720966, -0.030919741891974037, 0.022933391850297292, 0.22408883638093172, -0.15358015605681036, 0.06440682261409127, -0.330729949998634, 0.12072576177876941, -0.07974219339995324, -0.20417168041982742, 0.13672648404235396, -0.19639832560339954, -0.15324800289624343, 0.271674556229073, -0.18491924757248598, -0.11594214349115732, -0.12078333455536176, 0.13872856788561294, -0.324522657007128, 0.2210617785339372, -0.043032347592540404, -0.05602223273443458, -0.1585130324690136, -0.025696582145134584, 0.2600513955121068, 0.03765093613532799, -0.16460463892627666, -0.06139355569198156, 0.09453716458637042, 0.015069886322855079, -0.0454941713576241, 0.10686383193849262], [0.06386895672551773, -0.1911170054603442, -0.3371980745875934, 0.0909204241103202, 0.3273133371023547, -0.14509031642697431, -0.02647798740581252, 0.24028941726940403, 0.30736657531672973, 0.010266905273342095, 0.22039358386196364, 0.1269603920813604, -0.10033331517450302, -0.35659554661842485, -0.16073042745218946, 0.06409031810711634, 0.0696111185452859, -0.09413240694837242, -0.15522456012837288, -0.2822311855067258, -0.2964452528962322, -0.021756426454687165, -0.2772769155951305, -0.0034416613588374393, -0.13882527248441706, -0.07514420507917993, 0.37096072644414196, 0.009413094463528946, -0.06100736604519439, -0.03523863284230974, -0.2604191520337134, 0.23689920532603023, 0.15101834140107553, -0.09447062752925993, 0.036812802266505296, -0.12037238673565104, 0.07063975596677877, -0.23725539520374703, 0.048514270079752696, 0.26808691586028555, 0.07776780906770925, -0.10845881439406158, 0.16428875012697378, 0.34264103428173365, 0.1304431479483733, 0.016084750124314987, -0.14176210969516329, 0.07873865616055221, 0.3344773935882605, -0.3560465241915541, 0.1743429696480492, 0.02485136742276024, 0.26741803581220197, -0.022330723661980644, -0.3869756533493034, 0.34967372217665044, -0.20558994337900605, 0.14355776682778307, -0.02285191552281135, -0.0014690473287791446, 0.019585074343285953, -0.10426934537916006, 0.03258811826420594, 0.048372771268554667], [0.13882142338094552, -0.01985999153602767, 0.1310799493621281, 0.32034975797328363, -0.1553566102694696, -0.012530591668594607, 0.11887536360127128, 0.2182951419227006, -0.03416123352575494, 0.015563547474603916, -0.09810708910723079, 0.17783226588635023, -0.06429460904355595, 0.12982662696077119, 0.016051765941071567, 0.03412882553984337, -0.2554518466447365, 0.0515046893389988, -0.010688458247119878, -0.28865643740745534, -0.07853977506096299, -0.08941785863066014, -0.312647315618603, -0.1986111600601765, 0.3766841736127954, -0.16759450864906292, -0.1336583811663842, -0.21121228561082506, 0.21783982560147716, 0.11114451408738056, 0.07370411014009719, 0.06583998306236441, -0.019135291073715907, -0.0885637129040546, -0.1210781087119018, 0.09595195076993057, 0.19570963898447652, 0.146842671915836, 0.43502946745970844, 0.2464518542421358, 0.13660934255879797, 0.2021456059562566, -0.3209235812116991, -0.019407997453073856, -0.2256057928530866, 0.3093634313871205, -0.08883035656487284, 0.44121829073257723, 0.17698660370928815, -0.05839027643740239, -0.2317069863512926, -0.15580432841842445, 0.1446187769288076, -0.057541517731293526, -0.250359304512389, 0.028020690366874768, 0.2522335833332688, 0.3973466076346971, -0.0662864390901176, 0.2256127694776757, 0.10065846601513778, -0.2843841876801122, -0.05283435448765608, -0.08052433788127901], [0.07163866557965168, -0.0910226226175138, -0.24255697017838254, 0.05965281536512773, -0.11324973069715527, -0.2157317543032428, -0.21705669833880628, -0.039022812872813, 0.25677230548873187, -0.031246618729445983, 0.19046834915374591, -0.39891988492512276, -0.14896481261848735, -0.2219770553741085, -0.04778557601175557, 0.13777852794024942, -0.0982284227059044, -0.21587955387005262, 0.16641211870811398, -0.13402056538643967, 0.05086328897057459, -0.11776392129009117, 0.09287907821428186, -0.06664645426795053, 0.1435697031937687, 0.11041728120354505, 0.3940884010315293, -0.01393477094881713, -0.17248297923797537, -0.20726598155569473, -0.10536430698666521, 0.06996140967430059, -0.1224408936343458, 0.2693314223403691, 0.03427291688999154, -0.17329514766103332, -0.07921725822209173, -0.11265726083861664, 0.032182465242546525, -0.1790169751542436, 0.22720796673604163, -0.06444989948253263, -0.04346835543266143, 0.16231384424896436, -0.13155737542500667, 0.0016859020277993487, 0.3171057307784391, 0.07545064775414136, 0.05001639784704171, -0.08238479013060031, -0.17261540266517883, 0.31041928735991187, -0.02821023849936424, 0.3359295533143314, -0.12024307690136406, 0.22718341651371302, -0.0354090554641723, 0.07565385455155806, 0.21536092846504867, 0.08444359303115248, 0.13949321857787636, -0.2794755260142944, -0.07832288929481114, 0.3602688415460964], [-0.041030069206879946, 0.05038557568161096, -0.014677559862918568, -0.096564105480546, -0.2653629257397481, -0.20372730469873493, 0.29840426319590857, -0.010304006856233464, -0.21233970717674505, -0.16404685584527282, 0.14900493209303084, -0.1740522184463536, -0.11400325981622979, -0.19782695366338351, -0.22162496502989712, 0.2977792270288172, -0.030275678402678127, -0.041468137984101185, -0.1067576956779945, 0.1231044434172573, 0.020290286271915026, 0.04756522422245879, 0.022372150756070675, -0.06231421914185919, -0.06937284968696991, -0.30823957737926727, -0.07901211568066614, 0.38627980318856014, -0.22044130796745373, -0.003043244644945489, 0.0569043531582465, 0.22177443408213676, 0.4827229833618705, -0.07284175064780894, -0.1553167017550903, 0.18536099385040303, 0.04815972945773204, 0.35288528397723473, 0.13755770610075557, -0.10879409969948275, -0.03077216773542292, 0.07492013758182989, 0.08519793316768377, -0.20177072438308652, -0.3370986935426799, -0.27559404000059456, 0.10764074460193031, -0.011091691836629993, -0.32412173207051487, -0.09152902135334756, -0.33297396637659255, -0.041157424401028556, -0.1569085929674097, -0.09965926985582309, -0.016215722210827944, 0.049487659349929845, 0.005023724786100109, 0.24524688775294257, 0.42110572526908313, 0.18029810097773663, -0.03534844251474202, 0.13302795532631123, -0.12095779929260608, -0.14369959184217027], [-0.15254438021726804, 0.06595498494220804, 0.20418051232166218, 0.3718258292662917, 0.23918515787657746, 0.13102284932566213, -0.12115207695782194, 0.006888576400919906, 0.10212693677084526, -0.012063953130717694, 0.3398495169856193, -0.1209105841612997, -0.10947371209982999, 0.07095007781439566, 0.3575004254864363, -0.32792918012631495, -0.12840892389784955, 0.22387314563852956, -0.11630390752517851, 0.3814737511337274, -0.15594009588629681, 0.19835877076772765, 0.0006149307339053947, 0.08360465762410259, -0.20357018836388233, -0.2807304606518374, 0.13764664746797045, -0.1030827868832136, -0.1639047856699127, -0.16958240064362265, -0.18147540480536026, 0.23041869334726311, -0.17502679161395002, -0.07960148658281482, 0.3659918914738626, -0.06639844509569676, -0.009628623447601913, 0.06725268736459591, -0.07186578831725568, -0.14262899601751536, 0.22452127413633985, 0.0627142424049687, -0.08827006799292068, -0.2339467831006327, -0.21390616781257824, -0.18772607575038242, -0.37238791025636514, 0.18772287562575, 0.03672795181872764, 0.08924151934608769, -0.258706143793811, -0.09024078249865655, -0.019396924204925708, 0.015451346882807415, -0.019603775715030806, -0.2295339907087359, 0.20026051815094015, 0.10017096645809405, 0.021643309404730828, 0.1443220577883155, 0.22170241058894824, 0.27805620543430454, 0.020290809440213702, -0.04593806471367109], [-0.08482019445784382, 0.15797807402270397, -0.1240336294369259, -0.16129959178658995, 0.098060560584605, 0.0928881396342055, 0.11271753170687471, -0.14993318118070317, 0.05340930695448066, 0.16199129270021798, -0.08417061560533899, -0.04715677252962239, -0.05217780925997953, 0.26883445582438126, 0.15975861962520088, -0.23702239881659234, -0.2686010113413893, 0.11495488678099637, -0.03742661687099409, 0.09451350897579444, 0.04699507512672288, 0.17892418553645353, -0.2867575805553788, -0.096866075441085, 0.044493573706604096, 0.04189800383819197, -0.16757893337556046, -0.09287078267553148, -0.10334665159031137, 0.008066628086201106, 0.12425481541883956, -0.04869316466262229, -0.02705722771818555, -0.36985502310611706, -0.18754383654340825, 0.327766758083347, -0.30315034926550327, 0.24179554013522825, -0.05228850604175128, -0.34654222100201, 0.25767677153055524, 0.22724028151109152, -0.08861257277611558, 0.15346088159501287, -0.062584519255437, 0.009014865192995138, 0.029530439234936517, -0.040669929789534626, 0.09271247891893378, 0.06817800330626124, -0.09242207642366418, 0.052406973239745254, -0.09146912562179359, 0.023858389197962244, -0.08777310494978265, 0.017251208227815767, 0.2836083240919907, -0.11529944014498492, -0.2582461282733512, 0.2819959410979319, 0.05183010886698776, -0.11494601010896568, -0.0441475157239653, -0.1615180207545512], [0.16790185409788708, 0.1703426948760046, 0.1044730590294858, 0.03233074185120156, -0.33115833221962876, -0.1971490722060777, 0.04088781459927307, -0.4752672007266403, -0.0002482363675376571, -0.1339727272721684, 0.14120990848887355, 0.03888441553630075, 0.1975925850616975, 0.06265765968511754, 0.018521723462721722, -0.16883017991929813, 0.1693630949025344, 0.4434365228229333, -0.3012585658972817, -0.13464132175099702, 0.27546488169606786, 0.13172289448574936, -0.0073855164387770815, 0.1621703663938698, 0.017299439385735648, -0.11345942113639354, -0.10440016844580396, 0.16311917242734078, 0.06306307114431646, 0.227868755914152, 0.11314871532722065, -0.11386796424912862, 0.2663647980034668, -0.13657215430998562, -0.06344311522618058, -0.12064131358311993, -0.2676994602324647, 0.12404691353029508, -0.2042250376328318, -0.16688177286745373, 0.1599150263116147, 0.15085614787862667, -0.0846808185530387, -0.21818240673603623, -0.018722482810545685, -0.278901829729598, -0.15128531981564036, -0.11004446586078116, 0.013918239171674415, -0.08112029659842981, -0.02132270160825296, 0.23230121675682694, 0.17338528912738937, 0.25585316383337786, 0.2282528815753174, 0.056177607054221555, -0.19569575303307873, -0.27263594052337836, -0.00584567121140278, -0.10800640601597453, -0.16037280414754682, 0.1380087430591223, 0.21435551879113196, 0.018129539876719707], [0.015180897714496063, -0.0962182651770133, -0.12164776963433892, 0.34805456499773324, -0.22208084607009998, -0.02880967315880673, -0.0794420353292167, -0.01969522100888901, 0.18503987796724933, 0.17580938711973265, -0.024834376508946994, 0.1990221790719544, -0.13637559033923244, 0.06282071574707182, 0.3140868917161892, -0.10211171939567962, 0.03669708712718886, 0.2649456825778271, -0.14914101737854632, 0.011730118925056885, -0.055819399726927454, -0.19720735015860838, 0.07173053421538132, -0.14927757754001358, 0.2924732147625741, 0.0028787491675794064, -0.03715048797095371, 0.006581911752868232, 0.01780087067482816, -0.0349839057094294, 0.009220095967563931, -0.10161695109108804, -0.08830048672713883, 0.09328792481911673, -0.3777029531218851, -0.14115002308206204, 0.001530665040025742, 0.06019807255744655, -0.06942531068509603, 0.023232413936604593, -0.06176580701895665, -0.3295102060985077, 0.166159624149736, 0.04727402634690691, -0.17001906588242477, 0.2607721083553543, 0.11982309546335874, -0.11079629734502451, 0.19566095680514906, 0.09513061651593702, 0.14652200746481236, -0.10668451292861057, -0.09790771010947814, -0.1453983971226729, -0.09563273560323186, -0.40887631463959173, 0.1911830323745529, -0.2087856589712643, 0.09963764561110831, -0.22990960913335906, 0.02048288828140359, -0.21060063161413806, -0.0035207638750714408, -0.28277754926489307], [-0.10314552882092377, 0.13307138513434572, 0.03786707001804776, 0.031454430902093246, -0.15104540675230696, -0.3695376864806453, -0.14208361720787602, -0.08870992913101694, 0.2717920531832515, 0.10420046178888773, 0.07014843382782598, -0.09117917017113455, -0.08443972282491607, 0.1269344979875221, -0.04192107529177474, -0.058798494267732586, 0.35827710638397975, -0.1726651464563043, -0.04029082607473726, -0.028903344204525602, -0.11510746842281852, -0.24231300357866384, 0.251239175299936, -0.24988306403135285, -0.15560390390539752, 0.06724007939340605, -0.21943976993243672, -0.025411217529446098, -0.04082328466165018, -0.009288688912516217, -0.0015791219515121505, -0.24893572470936706, -0.09701700142529732, 0.25334028347434967, 0.23676669236685302, -0.08472262373932686, 0.19431986324441056, -0.152329041347258, -0.2339314826629134, -0.34276394355865114, -0.19494196034003, 0.10172940314426356, -0.018816241219950208, 0.31273512950185245, 0.14894507778054483, -0.061993699716144664, -0.03530212443746586, -0.03283579144641672, 0.19257471220129407, -0.0678951400641432, -0.002794968338058835, -0.12673773735490457, 0.2599540316029395, -0.05945358361076166, -0.11241295064103043, -0.2682162616703031, 0.18757389341109235, -0.097524946470434, 0.0237929501274433, -0.07109634660348585, -0.018783721011978723, -0.3223232418334386, -0.13870419083777047, -0.1891489747243928], [0.3962133080183558, 0.39514920923171254, -0.013596356993067356, 0.2792659686945971, 0.2920670786151287, -0.1165648089250017, -0.22895745087947686, -0.006820400470282449, 0.06288969769358277, 0.14438735283196322, -0.01235517290324064, 0.5529225131514005, 0.12415007930723083, 0.24319747937175037, 0.29671772086663956, -0.14649911158305307, 0.30254792465530866, 0.3075576542347877, 0.2753629317328512, 0.31521636245315815, -0.0165926634597758, 0.11637898776332802, 0.4328409703764652, 0.14911626919808948, -0.1688928337644915, -0.017213610008037058, -0.20762620194222897, -0.08804653748352978, 0.3348260069801121, 0.14277668819597117, -0.05373578289520617, -0.09866306434196877, -0.10972567902390905, 0.08357939529041969, 0.2675396994866358, 0.1573471870117012, 0.11756298377166845, 0.17450991847679842, -0.12133889098787212, -0.5597121390578176, 0.010392909673261553, -0.07658456907136525, 0.40918086598748177, 0.11683532003637924, -0.18226764679177185, -0.12754780736959315, -0.1252938346475025, -0.28709419223517535, 0.21024930246714843, 0.1947648032591075, 0.050345222874212225, 0.0882147080730098, 0.4081067625528259, -0.02506425763040785, 0.4371587520960404, -0.2601901229122861, 0.15063792807602938, -0.3063757620353589, -0.22519467846618849, -0.011386677648854813, -0.3017893582038974, 0.384136564378459, 0.2733372770226261, 0.05374921620712737], [-0.020386030644940222, -0.3357426466275326, -0.04414195757144212, 0.2561468236583716, -0.09242156614633207, -0.17220110040839423, -0.40923395000961693, 0.22720126967812895, 0.07278153716892721, -0.05355547504045092, 0.1842373706444167, -0.09368701417003465, -0.05870716342287309, 0.37550952450859726, -0.15828974198492465, 0.05130329949369092, 0.03968837038618533, 0.017615541755220794, 0.0013198593780820492, -0.23125428634414016, -0.0242949715417462, -0.043149840923292784, -0.11845564011507394, -0.14741464358734319, -0.17699501787424973, -0.14290771898263357, 0.07256873493359156, 0.006121885063064261, 0.2927021659766968, 0.10685204825401932, -0.105011527632627, -0.09518835433339665, -0.030513952113460807, -0.061871157258654934, 0.000772267217118776, 0.34325948169717696, -0.02670794431239179, 0.023298284542486457, -0.21078007805704654, -0.2652333495642441, -0.02387780231090904, -0.0735273055429101, 0.035970227517971125, 0.240064912603249, -0.090446205256195, -0.120921606795846, 0.17282024480474276, -0.07688806054950638, 0.010377975787361597, -0.01884238204081195, 0.33220032276613487, -0.2974799502100273, -0.1452435377491745, 0.1149101138845973, 0.20514632633874152, -0.1815790040274936, 0.20850639087455128, -0.08328143686208367, -0.12818812948240663, -0.11162108993958937, 0.06286464261478053, 0.08594893967884139, -0.1546039050826591, 0.036630163489217125], [-0.06734660910519635, -0.21185762884085052, 0.2990863879895017, -0.1691860263514596, 0.01808017651222251, -0.2036325096468626, -0.06866124564608724, 0.017751269593959174, 0.028241817595217784, -0.18118333139436157, -0.02143523013694299, 0.062137347978299125, 0.2741132618272339, 0.1436100962639196, 0.19743555137958835, 0.1117759787063698, -0.11703408525414122, -0.05698540941089959, 0.16412331110965656, -0.12182059482266519, -0.19536635048018844, -0.008004180590669199, -0.32141660509859504, -0.13831566001242454, -0.1943096755110183, -0.06589444435359412, 0.23272386656733837, 0.4100635650855596, 0.10625202575231738, -0.16524066991186817, 0.1373268464570659, 0.0747338330064418, -0.10649607400382442, 0.15742384473501678, -0.07820028281129891, -0.10071494799184427, 0.013947149349342025, 0.1220039005311865, -0.0622164764807816, 0.07328177850611704, -0.32099275309471015, 0.061717672226353035, -0.07826972865020934, -0.08871160379708723, -0.4437349688367705, -0.2562301609528193, -0.3086282390688685, 0.1150628018128489, -0.1601445934819581, 0.04816701291289304, 0.11660103069976994, -0.0912893931058323, -0.18201982197479374, 0.21379671253222693, 0.04651445522253975, -0.21773478338826968, 0.0850608692378527, -0.11264065974364752, 0.09373208978104296, 0.14904623767058256, -0.13967217252064565, 0.09159444282603985, -0.5323496629417488, 0.09801405509103059], [-0.34686048829286337, 0.4419527528426521, 0.060855470867826174, -0.10862645175930015, 0.19847609929297114, -0.14119240514481637, 0.021755499497538647, -0.04927817348028858, -0.001978048166933764, -0.10211755845157104, 0.07209942997898104, -0.13440842559091531, 0.016017019668160024, 0.11034277200101937, -0.10563923192719028, 0.14589698247070948, 0.08146199814522516, -0.0548101516357051, -0.09183926848962068, -0.011897736033420023, -0.0785104616797901, -0.09445959987290962, -0.02852221941512373, -0.039382541290976555, 0.02115742433621318, 0.24956848829852174, 0.16025992043045828, 0.14828537976240455, 0.09073197751549013, -0.11022028080817925, -0.18885223109081672, -0.040924024148600045, 0.2081140249536445, 0.20818002604135485, -0.2588838557143182, -0.3161970328064839, 0.2968761290980149, 0.24926802379591814, -0.11060828409621311, -0.011290341676459942, 0.009363492887278002, 0.1951729121247932, -0.09103141187265823, 0.10249179364419701, 0.04962827227212813, 0.05171900469880315, 0.18495036541736437, 0.02875528376818878, -0.22790700073645143, 0.15751529536801792, -0.08753584214239717, 0.16014473661857945, 0.04157399896542041, -0.17420978440086843, 0.04202566326944082, -0.11500510618409183, 0.043173930871360795, -0.07123252656576132, 0.1766467780898194, -0.12486955363058662, -0.06595542065602873, -0.12598760157415967, -0.14176356374023122, -0.04841163580651917], [0.037839551710608474, 0.09736026091396618, 0.009562322458351317, -0.0801409060997391, -0.276052981065857, 0.16479097248690108, -0.0903808299058911, 0.0710188451026019, -0.18928065524563137, 0.26650436973988983, 0.12009704731615817, -0.15937143344750967, 0.05863683458483964, 0.23653159608107266, -0.03220058243827813, -0.3007523324071853, 0.0785782027041691, 0.3259818558461934, -0.28306845953264376, 0.17949327280817234, -0.04059967017753146, -0.017876871328484093, 0.03128762303925248, 0.002044776381518631, 0.15364818239224923, -0.20689760662109852, -0.015641166317935468, -0.16609932580107054, -0.09043799612756574, 0.5221068598634425, -0.15058334638307946, 0.07987045912326733, 0.05464997738130827, -0.341805037295475, -0.20542308242037247, -0.3226576062266123, -0.02637786634238975, -0.23365684203938844, -0.1582139156493454, -0.2701349278018695, 0.11889933293312063, 0.10388219351976441, 0.2595082657966428, -0.03266737056278703, 0.13048263220589687, 0.19971377392013037, 0.3689582199758791, -0.21974277555809008, -0.14504683831923076, -0.1735172250894128, -0.2446668937368378, 0.12619781284397893, 0.12580296948759503, -0.24784936638211286, -0.19314518824853266, 0.05556753590408371, -0.08881396475401941, 0.041394412201313395, -0.031672362898424254, 0.18933446888761343, 0.19768206134853358, -0.32650297040325815, 0.23978453766649024, -0.08606718704488556], [-0.20047051254182108, 0.1065798142733414, -0.17318798749210587, -0.22225074810821233, -0.06098360013550232, 0.2406304729405313, -0.3213622241585502, -0.1840801384556257, -0.2990266294118566, -0.21296825879745546, -0.02626103739182016, -0.2333099637233202, 0.054869015942161835, 0.01870832177606184, 0.12767753498131687, 0.33941247712352834, -0.1747396164432619, -0.08501840148381924, -0.10682708301400043, -0.07993197219598902, 0.07130506909991956, 0.10603988248581699, -0.08943904040670755, 0.23541412660842825, -0.0480191506604683, -0.020485449645279447, -0.1573157568047688, 0.11808210840345551, 0.1318232283466345, 0.0004941474075526556, -0.3806003813604827, -0.043107237586459804, 0.10487695453156676, -0.07376638906716587, -0.01709926517346901, 0.09060642337882535, -0.32162611692616155, 0.14048917121451512, -0.3347620770282183, 0.01689118874270251, 0.10163947872935088, -0.0887325369299459, 0.08258237070984487, 0.08730225974592175, -0.09399784097805694, -0.07502222934676422, 0.14210946971877753, 0.05417949333492948, 0.1061524800326347, 0.07262582995437097, -0.10064408313943587, -0.1868477139365726, -0.18055680303630597, -0.23616459724990607, -0.35511145374170666, -0.10430450649278075, -0.15924167813444653, 0.011373934853228398, -0.04035521277051384, 0.0659640615181855, 0.1990215995570681, -0.17340580971677172, -0.04423761010106287, -0.06730616938648357], [-0.1540378976692081, -0.20408979162231194, 0.007516966985797179, 0.041005015454680174, -0.04957073554776971, 0.10532207910632228, 0.056187721948461604, 0.17591320658356022, 0.011967729143493804, 0.026690837330626625, 0.20337750034521182, -0.07265335785210823, 0.09253168250044606, 0.17926882954715442, 0.1624087504733792, 0.145819180159914, 0.11674310834053822, -0.052755273945233216, 0.17588685433219545, -0.08202381574917203, -0.07694231350982152, -0.03595805263144635, 0.10667772743486843, 0.28337698618072166, 0.22770313763316138, 0.22822061164802718, 0.12110397456862171, 0.024178379061379693, -0.1539138278237654, -0.09009348641332408, 0.027526892473135174, 0.2997444226243847, 0.09943450465927288, 0.0766138789409203, 0.11304638022513001, -0.23065377228021927, -0.11947383797251301, 0.09428070590445245, 0.17639438083426434, -0.11001307041964799, 0.09794596449090281, -0.330850830557143, 0.10303812730543867, 0.2585126211077296, -0.03984726057243052, -0.10993383532139163, 0.47471254663328555, 0.0028108222027743266, 0.24986292090346693, -0.11722684425004129, -0.21310614060200192, -0.27313828474214247, 0.18773266523966364, -0.2924804539294426, -0.3536455505798872, -0.11197449824126213, -0.062478802307784756, -0.05470588387813707, -0.21242154420822631, -0.15211633161065097, 0.014054105709841176, -0.3314019713743352, 0.015398867776930837, 0.10688728367078683], [0.2406800541162008, 0.07189721236211584, 0.19267505961746678, 0.05123626603703717, 0.2500243174722342, 0.022187935668647327, 0.36923904717171674, 0.1052305418414222, -0.09976502743529245, 0.01463289232781641, -0.311780528374521, 0.19093700488756765, -0.0464619853646864, 0.21685719939804649, 0.3898826178704336, -0.002175993434751837, -0.00842423988846654, -0.05149769892412536, 0.06860351192857136, 0.3740787150607922, 0.22536339232364572, 0.03108536045094834, 0.17945607887419043, -0.38196910387551236, 0.01784753479001409, -0.49947048651792647, 0.18222463938893796, -0.3842990853800641, 0.09785623914897343, -0.1684682120494232, 0.4539539574589848, -0.23348998965200654, -0.07014656065387227, 0.2953162965014767, 0.07441990230980865, 0.035202742467069434, -0.044601310204452654, 0.016385948583553186, -0.13473976411479466, -0.031794012775214035, -0.008697270105953298, 0.13129003592137872, 0.015455925832805337, 0.1508269182421749, -0.2615836775386206, 0.24273764433247583, 0.06810846741158905, 0.28607805325163665, 0.07622481969378542, -0.029484206026244433, 0.011107257264466994, -0.2036216672356075, -0.05880234741148381, 0.029666363141814613, -0.014008477004036872, -0.3134355412542475, 0.08652308151019682, -0.18198699158309412, -0.036079101204946507, 0.14307535784130007, -0.123213197830768, -0.04829797686853957, -0.08820484793130544, 0.08046521599274639], [-0.20508645659888644, -0.28082930981681886, -0.3694754419759441, 0.390539368233479, 0.11014877406769566, 0.2897043729597768, -0.06213706596778064, 0.20133152380044558, -0.07858393723950975, -0.2360454968533073, 0.15044368574530553, -0.07133093371380796, 0.054612960831139236, 0.07554736887059134, 0.11125929566294065, -0.03828984531749441, -0.42207854324982086, -0.22563316110264903, 0.10199512298858582, 0.33331151033986356, -0.002179133614240898, 0.23668891755552424, -0.42261702762036946, 0.25226181226304906, -0.1944918510363009, -0.1708584907794888, -0.06430410717151688, 0.055295738381406515, -0.2081687523173409, 0.16912845289314435, -0.24615128040154055, 0.02082555218558464, -0.16010705561449726, 0.03772381758558381, -0.35880526103438076, -0.1738632919556962, -0.21965270690038893, 0.16430554434182068, -0.3896185614504164, 0.31700390181839644, -0.09052726001293276, 0.038200764919693805, -0.4484411832902411, -0.1394406454804331, 0.1535993539175107, 0.2625403398834529, -0.18326791295906153, 0.20638696552416458, 0.0165996942222015, 0.10823708154057413, -0.04319485742280531, 0.27189010724867096, -0.31330402446890154, 0.11233285512508732, 0.24502437062520868, 0.12301052452322897, -0.046731206014826186, 0.09700610826922841, 0.05659054137270575, -0.039786679887207826, 0.18792703053692691, 0.21647118130931922, -0.2444541848490714, 0.31542589654912256], [0.0055860516007903965, -0.05655165410389665, 0.17852874067379332, -0.09326386186206813, 0.06774817568432547, -0.07265275487189617, 0.005931652176270038, 0.0842341753651974, -0.007804920272996741, -0.0792285314017655, 0.1946114394477837, 0.05318496297924054, 0.07485893936616067, 0.15591364590415968, -0.35992391744010654, 0.16583840610446945, 0.367412688717028, -0.20224512937543682, 0.442273740886337, -0.3437792832933013, -0.10093099543415282, 0.10798725530378406, -0.13200303480573058, -0.17204235563738318, 0.07456525459384612, 0.07812767346481746, 0.1383889226246488, -0.02870330122021219, -0.35877927507720375, 0.06805364891618496, 0.23023024904798678, -0.07453218309705813, 0.1492750592153761, -0.26525804960767446, -0.1410042182108614, -0.22376311158602863, 0.03966558183904026, -0.21361415999456793, 0.32661963798564303, 0.14220955149311845, 0.015483610819135251, 0.13415680324112264, 0.1985700526040105, 0.056824167180664055, -0.12873747306662767, 0.017216063571541648, -0.09047957708713113, 0.14563919865059344, -0.09845556606334145, 0.01623323548732841, 0.19207512014994263, -0.12209757961238013, -0.06145912002281155, -0.04366092847002489, -0.15384484815972252, 0.44453154385308197, 0.18437099716301342, -0.07046225525461886, -0.11661972584934187, 0.13079196622810998, 0.2183499605512151, -0.06378496569757522, 0.1551739053974818, -0.33431975910671846], [0.06862579408334189, 0.19105188368583126, 0.03532085785640017, -0.09026594039773875, 0.17227111298902043, -0.18541400705877423, -0.02280590411863092, 0.12233214544143026, -0.17677827886298816, 0.43571069223759384, -0.07016995592093384, -0.41178086143846293, 0.2054202865871352, 0.06812660242705057, 0.014352887985697733, 0.083494317642051, 0.06808023063687887, -0.03752507987127164, 0.12699800683651435, 0.024094215947146436, 0.1903993497097027, -0.11547236589020175, -0.11002994347399547, 0.08976326599489169, 0.1751575841558149, 0.008538509755115595, 0.005974393419977173, 0.17057873707251245, -0.14964693844227378, -0.2387626840813642, 0.1570750548764565, 0.07591044110552776, -0.11853966078298035, -0.07362514242036505, -0.12626595656910347, -0.10533251981401041, 0.26494945576684925, -0.005211698278703591, -0.17577166052073456, 0.1518828361215034, 0.10639712142613031, 0.01799223346395435, -0.025591836815993276, 0.08505587155207597, 0.15092150996285109, -0.019796897565296318, -0.1215155844025832, 0.01549913277889003, 0.14591433781866917, 0.12792734822887433, -0.07301756597481608, 0.5287892882910068, 0.38651816007077494, -0.19636993378783155, 0.13355299204980323, -0.18820846732638935, -0.019356045885907357, 0.31070032859613367, 0.1582827759807996, -0.15626539065428455, 0.09594092563976696, -0.4759720059348208, -0.2823955434637748, -0.017778433694424785], [-0.1496620524151335, 0.21887007792598404, 0.07186722526128311, 0.29457072711799726, 0.0048219815891166855, 0.005606971745608388, 0.06575397427681688, 0.38016290825747945, 0.2605375216881848, -0.2247256273621372, -0.08358561285351905, 0.2208265711209113, -0.27135677689722465, 0.3253267784359357, 0.14020093294993263, -0.16742314006015258, -0.46181714048826106, 0.011850200986337699, 0.30820532301077386, -0.010409206272754198, 0.1485069528610586, 0.05779748658620795, -0.10260926288177499, 0.06282952762543284, 0.0003143994409295609, -0.08245979136818747, -0.16777008644868333, -0.0430304050671021, -0.0598865130331691, -0.03636095189199253, -0.035518213200207566, -0.257652065965039, -0.15331379128603842, -0.09499973257681517, 0.0721266179016145, -0.07935857021210298, 0.13221298087452438, -0.28701357941073696, 0.27762700763930104, 0.044025097921389124, -0.12151205802524007, 0.036273883232243204, 0.026722984535317386, -0.06196634182297806, 0.15659616803102192, -0.299524406541506, -0.03688504695458679, 0.2715678973707812, 0.04409384353935458, -0.03294832797118774, 0.09424674453360533, 0.3560624124921501, -0.2721379321863189, 0.040596123068410636, -0.017149064552183547, 0.14705468252702014, -0.2381461337992548, 0.38131372259103863, 0.17512993148292996, 0.5537305085108737, 0.002761396272456292, -0.1742834041452502, -0.2932049764397895, -0.11414598290337062], [-0.22792269084770436, -0.4145264054774328, -0.07297856300547734, 0.04257780595081466, -0.02862437571158255, 0.4224321068108657, 0.3126069781589575, 0.06960728773931549, 0.09647762437744185, -0.0761874661581646, -0.13161151275564917, 0.035833572240754064, -0.033502872430609405, 0.2860155413969023, 0.1618605382131366, -0.14804688918635708, -0.312148330724758, 0.07871773866179903, 0.20897029681946622, -0.23129529050912967, -0.10630386850206365, 0.39957870937819845, -0.06154107176357142, -0.04265964725409335, 0.5653238159843765, -0.04247778904981152, -0.17674101195865205, 0.0465841894954052, -0.22298770980998509, -0.33953931273069876, 0.18550463950928697, -0.04349430407549937, 0.15824231861168206, -0.2458736780212008, -0.04738301476374754, -0.24473472397516113, -0.09085134239570275, 0.2815677174021203, 0.21045337081949153, 0.24722888087669417, 0.022802662781721994, -0.030654877711642364, -0.062472037313232406, -0.09981695145021632, 0.12855030708865442, 0.019393775801313677, 0.02280819573944038, 0.6082945181419973, -0.017855313332158305, -0.15249682380356763, 0.3446498556008164, -0.13352018087418863, -0.24752663101446304, 0.3109444933799566, 0.08015472786114566, -0.1028584297487306, -0.04269915428626798, 0.37246898488181024, -0.14560470437912726, 0.22011038697517354, 0.4276106121882489, -0.05491725236954225, -0.24694718822448214, -0.07273570780903293], [-0.05105708508658184, -0.11855832881160615, 0.3501436965968413, 0.08293629719575611, 0.010092491745437217, 0.0712325450524666, 0.044606578669012076, -0.32275612875574355, 0.10084420516833681, 0.09675457560888424, 0.0313576648261511, 0.10706151615205745, 0.17582416961028277, 0.2435338951895313, -0.26988130278936207, -0.11453071427913265, -0.19966042715670454, -0.050848377621923777, 0.0640570107161719, -0.3445237141412256, 0.14750558531145755, -0.2785524802623811, -0.2191070638368348, -0.20596584009841037, -0.02352648644694247, 0.056288214936996435, -0.3514301286857224, 0.29360553690018887, -0.1710576072236248, 0.3363885432918589, -0.27073139205763214, 0.18034186777766942, 0.13689861881014986, -0.08216586377009305, -0.2707102260399498, -0.10055391376742052, 0.26653649796826806, 0.1348887832508055, 0.19469247713956894, 0.3288582877827152, 0.09930642535317985, -0.0005643716340371507, 0.1090344104135653, 0.10457596839554612, 0.2624088533275751, 0.10362309808256666, 0.09946412788072188, 0.24708167669003275, -0.012706095525222632, -0.17093475973251573, 0.025262863895226882, 0.04253575171886596, 0.1585980280341211, 0.10942517925825153, -0.08155308903331979, 0.08067248756314384, -0.09198818026693108, -0.023579446566778985, 0.13758963516150122, -0.0922129254212804, 0.18223320109141627, -0.08752762894678184, 0.09853628688468803, -0.07135069104869168], [-0.11730284240233296, -0.11102740635672495, 0.15388567157536873, -0.2953011674956046, 0.0206425068226588, -0.11234678060966381, -0.08769463367451627, 0.32399501323105284, -0.12332105296624433, -0.1309565909172937, -0.27135664831626005, -0.33157037051436794, -0.04062895177973807, -0.12022495586867511, 0.12474745122807382, 0.03787047585960165, -0.16109317944647505, 0.26431247342806136, 0.19546570466146718, 0.004397616165733509, 0.142041981172443, 0.3036156094407541, 0.07211084630945508, -0.09641964645367487, 0.026407313579584975, 0.032842869455585594, 0.051780982091014685, 0.20505156440719316, 0.05696233983721749, -0.2917984160484782, -0.13969181109166456, -0.18527233575340635, 0.0668685333846369, -0.04599547257254828, 0.06288569750903351, -0.0866514348035796, -0.12514432794149608, 0.18196171930662267, 0.07603754030890902, -0.03641457015644048, -0.292458636698996, -0.22561701319768468, -0.20844925538014225, -0.01015418869081494, -0.16675179338905802, 0.19189617508076706, 0.1313971597876911, -0.02303595757794956, -0.1497072298458133, -0.08709651492411245, 0.05439601972335226, 0.006070552541792954, -0.035311532368768904, 0.2081722491382126, -0.06227572049906173, -0.018696224962692493, 0.09924698802903414, 0.05428667115739384, 0.1930254401276157, -0.0781226657555719, -0.1365364504585279, 0.11746239006375048, 0.02457896257228752, 0.14131428466197712], [0.12758069112342532, 0.12465629382605405, -0.17245364222306955, -0.017697412084778485, -0.09555440356509858, -0.082689439256728, 0.02180628375190493, 0.2678219098315984, 0.3690587904467081, -0.14571711059637102, -0.00772711828962523, -0.1424597962716456, -0.13784791787017447, -0.047883253942962105, -0.28673240267150707, 0.06341299470764233, -0.19946806538883854, -0.030887964340091712, -0.14116998589679638, 0.11971179101505061, 0.1414250938572066, 0.10637881202197079, -0.01112551766901284, -0.2845902704942091, -0.18744322694957022, 0.07814562679086576, -0.10781069296243066, -0.05732854432858832, 0.09079772961797955, 0.3734168161495277, -0.13179548682857808, 0.07630679060372815, -0.10101687529101568, -0.19923223045967003, -0.06096030735213163, -0.04478409295318522, -0.07707171520753131, 0.08955936914608705, -0.051555154377051104, -0.36473055806360977, 0.09324762731954842, 0.08496363335553055, -0.25375653781424706, -0.11954867093717365, -0.08563301045023756, 0.1197357205852956, -0.04454399105242219, 0.16795504588031776, -0.13401855783541278, 0.15038893910434195, 0.00022617624097769686, -0.06561731418094333, 0.14682287762494434, 0.14049159365950034, 0.10151352435088268, -0.02269290621252565, 0.18477927823171594, 0.21074711544526115, -0.05501019635566968, 0.018504379803622947, -0.26804410090378694, -0.12064408376183464, 0.17208150249583098, -0.1689490017816136], [0.05833345312821826, -0.009203260966775867, 0.2926463293579478, 0.03256193527508978, -0.33646193224307247, -0.07427614726692965, 0.07619310284597014, 0.11042016623106049, 0.0820846643591, 0.21894032269920766, 0.046855497460425534, -0.34476160441974324, -0.11569594037701873, 0.03716071097805056, -0.12109184612398677, 0.0624793593214854, 0.042174171676780774, 0.28104756100425293, -0.12446397459264619, -0.2141186607627195, -0.21691932872547454, -0.08519053379892477, 0.0884436657565465, -0.03246666380649921, -0.11131378992630217, -0.1965831046820951, -0.04429394324660526, 0.11387224485477693, 0.19769441185306522, 0.21596555840624118, 0.12528472338305985, 0.054711471011862425, -0.10836042887578, 0.05320935212960033, 0.25739200380511035, 0.017006232978054044, 0.13486767247718998, 0.0025724111251512883, 0.0945493167253246, -0.15206407109011713, -0.22551318283048938, -0.17462791987790055, -0.3483676081265765, 0.14954785261919404, 0.4248686198607674, -0.03615154556860967, -0.14256994933873998, 0.0732458553654126, 0.27497088861938124, 0.015055759789694631, 0.22757097487994682, 0.0002547374310277112, 0.038235671409424306, -0.26741914391781824, 0.04652650875092367, -0.16539127164492384, -0.18433520311065413, -0.26327521036270285, 0.10549311576115847, 0.4190996480264792, -0.12750653199354398, -0.05732274387005087, -0.06446723120855745, 0.07261878025168501], [0.17383303643941908, -0.006713788989237813, -0.07084863549567284, -0.3177972630230011, 0.11169042636023836, 0.013941533947965958, -0.3195682663738394, -0.20754287526743603, -0.17439530814414808, -0.07907650016163159, -0.15890896501904295, 0.13722801801625922, -0.16818697277657163, -0.08931120610203257, -0.18500980806875544, 0.12204396032664487, -0.07637829839682711, 0.0008110704552865318, 0.09773702780859198, -0.0020678098968059146, -0.02507920609128648, 0.13267552174332148, 0.06601237734588618, 0.020344249344189776, -0.0680239782631619, 0.02881534877421076, -0.1271807639803465, 0.26422999923998586, 0.05014829367967863, 0.0795620810335927, -0.11337960027511908, -0.039480108361631565, 0.121945660793801, -0.3446574372070212, -0.04783214139646193, -0.11349810172456576, -0.20046356358510042, 0.12018664452917506, -0.13577374315192217, -0.183743487771936, 0.17697868015607945, -0.33214679901311306, 0.1826739775454409, 0.18846290636376936, -0.3614358034506312, -0.040361309846882416, 0.05055929613328014, 0.17992562344223328, -0.09385880268598787, -0.029455973628072923, 0.13154455532137768, -0.1594055176166847, 0.10261766044456558, 0.19524735548881397, -0.18564135453677624, 0.05277510338804976, 0.013686183311530814, -0.1857008308617773, 0.026819321927503616, -0.045568237302874966, -0.14027997448797863, -0.06393779337497106, -0.1727921458948828, 0.07034136532529035], [0.07387026439596783, 0.14991099088304333, 0.014594469843719027, 0.023436106273936927, -0.09513704414521354, 0.12483852086907758, -0.11127036181051864, 0.09435989085204757, -0.07341664752206156, -0.12970557064652416, 0.07937118169948196, 0.3051417773954623, 0.16583563170775242, -0.07502397907812926, -0.24064766296569223, -0.26625736015133206, 0.06786303286686304, 0.03262240608194887, -0.3395211465741546, -0.012817783402776565, 0.1857225026715246, 0.002621465630576391, 0.013300029043443426, -0.20195021128863525, 0.1104825441975168, -0.11898780450010807, -0.09940675644545814, 0.194840273200425, -0.17897218159689635, -0.018989702601672306, 0.0026768524034431825, 0.06698564976419075, 0.26897978473465084, 0.013521387948995399, 0.10409446566911575, -0.006371624990051886, -0.29952501263803893, 0.20214119665193975, 0.12123038847680624, 0.19974516000847353, -0.18751908327378364, 0.024549495112712816, 0.35444403925206913, 0.3982815046287316, 0.004831291509129593, 0.05182470326250636, -0.16382641385682875, -0.04868036611041231, -0.1262571930749393, 0.18268339215648208, -0.07315062910056616, -0.02017388945504223, 0.16276919248185184, -0.02160322183074978, 0.19290478829980803, -0.028998102195070263, 0.1433868809633662, -0.19026986063786694, 0.0059530070054942385, -0.2758273976306997, -0.1502474886995115, -0.114931129411938, 0.3401200217790583, -0.18416883662193495], [0.3488653750889438, 0.22000541470647356, 0.06527945463134122, -0.17300601206698452, 0.1906957707413127, 0.38690113632647855, 0.14280125514758085, 0.039549957919398415, 0.058185733408243345, 0.19017688667301802, 0.1107690113974311, 0.10592504529252653, 0.20253772876631576, -0.04663533231220168, 0.14999258954117098, 0.38511862688176407, 0.2987355015421673, -0.03333317905678014, -0.01682337380034945, 0.2921308896590291, -0.18998508857187854, 0.39871499782627434, 0.08562718351131633, 0.06323725139889154, -0.03565066499527339, 0.581617594260688, 0.015380881662474153, -0.10424648931925781, -0.06781935562181951, 0.22822548410472157, 0.2962136005874502, -0.19357952251846283, -0.07383351430726766, 0.05231799525382198, -0.013357234349600367, 0.3187440708905644, 0.09950718970175128, 0.29003086665185845, -0.13551408714048893, -0.31547220835635054, -0.029182580135635454, -0.1482934576103945, 0.13599792550567794, 0.23086481806610729, -0.41791192478932027, 0.1429771469541115, 0.42758524848070995, -0.3356645191051654, 0.1420372273891924, -0.19029884178119402, -0.16075541695460221, -0.02231215187953626, 0.466696186893991, 0.3050397148876808, 0.13274944299172556, 0.21335048261094858, -0.41374350026474044, -0.14837426683430577, -0.035871018300839774, -0.015117682662670601, -0.12149880768329877, -0.016480350216689126, -0.1618316717048904, 0.15742307128406136], [0.06485571856505355, -0.07283307066618414, 0.1510057785602998, -0.0392673213661007, -0.12240603157491442, -0.12892709391887022, -0.37273036463897136, 0.02527289174716698, 0.12034534970775723, 0.0732833932007163, 0.4620212347842827, -0.07764747668471386, -0.23639647855600154, 0.31477888826141653, 0.27269785781294265, -0.14737983013552988, -0.021204257198993885, -0.10973122880391885, 0.09411865468560139, -0.07127763598474644, 0.13124820221478312, 0.16267028015001764, 0.342094569733067, -0.08678271978825933, 0.1310854780187204, 0.17696666841211056, 0.029302365569095743, 0.2770530127969112, 0.07436670335110693, 0.019338714549049955, 0.3679968139531081, -0.14605802447151217, 0.19723509005156947, -0.1345970862781262, 0.10419111581389223, 0.14309165574668495, 0.16769390121196912, 0.25001688849506737, -0.12905281065215307, -0.23028201871812845, 0.03737373816963319, 0.054091602651411594, -0.016288960088291643, 0.43996132860685455, 0.016389405114271956, -0.2355435973604132, -0.13412009450754991, 0.07886674352000547, -0.026019159960489802, 0.196489931637167, 0.14432218718580123, 0.16037268362557205, 0.1384406804374145, 0.1413469114953273, -0.045907420942937746, 0.2517584757233604, 0.190335899834391, -0.1353139192790242, 0.0694841384200828, 0.1660860680910403, 0.25725266175024397, 0.07099317885147699, 0.14195691784744432, -0.35466061267911797], [-0.04425016451742006, 0.0016065715949575698, -0.17964095447722989, -0.0002478670211409173, -0.04602680650891892, -0.20505516764038528, 0.09976727263224781, -0.1166674646731831, -0.06884729678821931, 0.17147460548969823, -0.11409215182513875, 0.24761729836330867, 0.08333647998911077, -0.14710288257466608, -0.25666819530522006, 0.014388439818168256, -0.12941026462622404, -0.20867847774547538, -0.2247323205447268, -0.09165399361656162, -0.08410900067377335, 0.028569031795765632, -0.2211459567540825, -0.09351953298311887, -0.11008934055802634, -0.13333292005394076, 0.2301524160292367, 0.04801134280422541, 0.37948051153496354, 0.139954657850412, 0.0655755649540897, 0.22202072268885695, 0.20709348385852547, -0.28640217365377413, -0.14212484638101772, -0.03990713504963267, 0.05046143292347407, 0.049737561005090664, -0.27283561183251265, 0.06673691324820337, 0.0791097516038322, -0.15896680525329207, -0.2065405370126, 0.10082200600851643, -0.07825976850756874, 0.15024641475866654, 0.17899488159808621, 0.06649922948290975, -0.25352225108122706, -0.15745656734032232, -0.3234583897947432, -0.09004768610168361, -0.1573036525554672, 0.2763974730625675, 0.11402218646214768, -0.043929814906958194, -0.2157120337239184, 0.31919801605382314, -0.15501556361461893, -0.35629124895830366, -0.13296242846186276, -0.2546917955784473, 0.1443874513804979, -0.18148077855556222], [0.08637925091407057, 0.21912142756624634, -0.147633678936274, 0.010163582594304634, 0.3155954339805354, -0.06875563895479644, -0.032444676938351, -0.03977237975067912, -0.1510878953587697, -0.17435430830668833, 0.15496673766976957, 0.15100605510026954, -0.17721547761946096, 0.3498173051424449, 0.2975809205824624, -0.05149536292719462, -0.3538490436915978, -0.20173458412346687, -0.03912272283621022, -0.09470489934860518, 0.324719312917736, -0.2555946881823739, -0.07166115003873676, -0.05263432406972884, 0.1961334747397877, -0.03980245393274483, -0.06475435231320349, 0.00756788955532672, -0.07975749737192442, 0.042045809319696315, 0.10245541344156087, -0.14445386841964378, 0.16216552685177654, 0.018971160916916335, -0.04556100454585035, 0.14965346044282007, 0.25536309415689773, -0.14907093352477774, -0.03369269087054603, 0.07699298378904545, 0.3033504373221747, 0.07872031079746789, 0.0011575632775359368, 0.33623462256535813, -0.02302794650373806, 0.1738072583536664, -0.14545203701691564, 0.072508741902546, 0.11862988030640986, -0.12943978393995875, -0.10912317953576779, -0.0030361482235534893, 0.19316127551982207, -0.30024856254692167, -0.16174163861862628, 0.16777682007505962, -0.41538470110334275, 0.3796328347879495, 0.027295209298915272, 0.4181181337344304, -0.17575469904014376, 0.07653657274698601, -0.11077175017882755, 0.0211243273695042], [-0.1307810756421954, -0.11202807493113118, -0.30351307320507026, -0.5011123206532121, -0.009948582540728891, 0.4185344012562145, -0.051572025045656986, -0.0860319883027534, 0.08689645842439107, -0.1185061035020319, -0.09026056788846719, -0.22280762855643993, -0.16282270760677928, 0.1909295764639947, -0.15002440633364794, 0.03573884840104282, -0.06509786917504162, -0.1536493325935912, 0.054902109819893, 0.14677010893553102, -0.21611226260900127, 0.06185979836200329, 0.14001564609279515, -0.054144124778150664, -0.014154736910606147, 0.0015482164040273195, 0.035958496358250006, -0.19950409280662135, -0.09114891000367015, 0.07429162185300721, -0.1335105582831609, -0.015329534464288593, -0.012891973205185378, -0.13670244609170076, 0.02471533531571936, 0.23166496814780407, -0.14027377824818663, -0.10838692842943173, -0.028417356705284388, -0.21345036981326745, -0.10640487720248118, -0.2618968699572941, -0.3286905574498944, 0.05981132446917004, 0.1479962549066768, 0.3070320886705188, -0.028156967747852948, 0.16882580418960869, -0.051591253977068346, -0.12987900759163626, 0.11394500346126868, -0.04442805332310881, 0.11743577645017958, 0.051832702984772126, -0.1724846116741708, -0.19467449425724329, -0.18241592616090455, -0.1166228867000201, 0.1615546263398293, -0.019988336676569445, 0.2517326460350473, 0.09749493031475753, -0.03142773267843615, -0.15133487663651843], [-0.3532105337197766, 0.11349853297581652, 0.26436899713327205, 0.0217719181514333, 0.27920280855101864, -0.05161635125454582, 0.028862637162927567, 0.22608071937449414, -0.03138222242876013, -0.13604172539548498, -0.12812161398394106, -0.39696646114936907, -0.02916674083920483, -0.012628104749929989, 0.23246462700352977, 0.1278164010644914, -0.21036648616330975, 0.13766080703211145, 0.059763832258408436, 0.19075413831260035, 0.2069242760203744, -0.07131978856337773, 0.0967244622391587, -0.08783933205937816, -0.0770520794988096, 0.045572993067093344, 0.09142613969745045, 0.20297491341283636, -0.005224752074705465, -0.05400314138770904, 0.13720386859696632, 0.008219326578362763, 0.3090080953888654, -0.32147354983378995, -0.24184307215212938, -0.07937245826009028, 0.24921352578341655, -0.04940157569597904, -0.19065566140130777, 0.23014361721740625, -0.1739172457998795, 0.2628179481908398, 0.11012221821884856, 0.24756726293383102, 0.25167424121648235, 0.20477904603491304, 0.08416695647593934, 0.04686107351089262, -0.06197494226625651, 0.006182740691741326, 0.04867815212423184, -0.049923051356983654, -0.23446222457539206, 0.23603994799154002, -0.2790092305130372, 0.19688704930935033, 0.2999299448086622, -0.10314278788161604, 0.2500242649495593, 0.09720804104987865, 0.26391429965221125, -0.17151737333038694, 0.24284755762564603, -0.14449226214585673], [-0.23338142257665792, 0.29270313332090436, -0.1542689526092706, -0.2225011111542701, -0.0072556594674170714, -0.06433328716723741, 0.2148437199835854, -0.15059328343691014, -0.08500465020414343, 0.12091803280737592, -0.14642180900007742, 0.15179894801429866, 0.18389719317115216, 0.3487259695529157, 0.37169390785269635, -0.13180566578018238, -0.1519332258494642, -0.1845728790095517, -0.003643768717539465, -0.0482018116141839, -0.03566433454206883, -0.2203110638566152, 0.20513780848792967, -0.27698249717758383, -0.08811563897389986, 0.14029941461999382, 0.09660348951085922, -0.03773915504709864, 0.16753718058029918, -0.07934999033068704, 0.35112939561286566, 0.17950356331170186, -0.13989441230434396, 0.135629429861397, -0.045755944015755085, 0.05930322050800848, 0.21871266868504138, -0.15445301579517084, 0.24913363597947177, -0.03703702793268661, 0.1947283512111696, 0.08249213046713498, -0.11079073073513668, -0.24565642952246458, -0.2128467748871982, 0.04627456944822249, -0.20675728902663548, -0.07893238253917717, -0.06585641978193049, -0.12274963825431552, -0.08741334346571529, 0.11286724627303121, 0.16287688019673735, 0.07622389501750666, 0.07981265253555396, 0.07391938598762278, -0.09152933409298779, 0.03445130827124951, -0.2989763323234211, 0.017989723937480263, -0.07764157024751435, 0.1839368206039133, -0.33505316097179494, -0.20552455173305129], [0.40286524294519405, 0.12898756954841445, 0.24384429832142765, -0.1406683629440405, -0.2575177251586811, 0.08457584676007548, 0.028169612625040134, 0.09592809073938809, 0.27297730917459817, 0.15023384109772775, -0.2749541323057168, -0.09085034531790684, -0.39068112361789925, 0.09630834413060387, -0.08273774370893747, -0.225227438880814, 0.06288842633152225, -0.19606346557517615, 0.1781438745649257, 0.12600459498534886, 0.3949875834596791, -0.13422168205121793, 0.16739886836090864, -0.08016172084999915, -0.21288709880171655, 0.32795630070515286, -0.1878452532695351, 0.29042172484971257, -0.06308368215278279, 0.12776298690215873, -0.07591616614348348, -0.13695276724837666, -0.15967090746851312, -0.07437280950431852, 0.04326637782760754, 0.24743087775438016, -0.1403070521548067, 0.004039691815793618, -0.04836316647902052, -0.015245165827702826, -0.18085475453889208, -0.2443063839539079, -0.0833442531211335, -0.005926614217987423, 0.42431192575964105, 0.26440640471852084, -0.07198698522386722, -0.22896521727638638, -0.30234314488770514, 0.1659648868292511, 0.21237012806283034, 0.3671058275447558, -0.04757842331628806, 0.06826394577374274, -0.06123038183240007, 0.2510722068000388, 0.16317248076887134, -0.13754419777862684, 0.029269573934039384, -0.17757587121033003, 0.01958165312896672, -0.2503780983446505, 0.03425133606036092, 0.21065851602410393], [0.22382642357638083, -0.21133722932468504, 0.007604636304390832, -0.2350065076889351, 0.1939849826427438, 0.0775459778014632, -0.20057554439728495, -0.16212132421371286, 0.10260440332791235, -0.2980088582332492, 0.018733544080580245, 0.07093524913159376, -0.10982425334650048, -0.044543665006534394, 0.01780635065686777, 0.1034445879872044, -0.21238187100675454, -0.0976823930682656, 0.14372563927540963, -0.4548359226161, 0.1719215880342549, 0.23986898586679115, 0.3452008245256075, -0.41716446726665507, -0.08530087560412516, -0.11183729431428664, 0.25722039868355273, 0.11960069058141712, 0.18211793581041114, 0.139699624916924, -0.2673323475395511, 0.07328899869345024, -0.38594000521197946, 0.08579333043513171, 0.042045602184696274, -0.0272507239743107, 0.03929558854017912, 0.13117876198317252, -0.13774304577571939, 0.060045986919041346, 0.25628911642457325, 0.07033918463340327, 0.0499868544428863, 0.0017636732479836285, -0.22982988018664066, 0.25348716285334427, -0.07088195397331523, 0.0027387879815707937, -0.047565753025343195, -0.06279186991366413, -0.10562228253962436, -0.12691046113111382, 0.17615661947159522, 0.24274364042141827, 0.044268032776415736, -0.20313273815186533, -0.005158165243206834, 0.39134617795965093, 0.05926894552339098, -0.03708227010502845, -0.141666913147073, 0.10294450623277772, -0.04326510661463489, 0.22909428716120425]], "b": [0.0006123319584722636, 0.030207422395079134, 0.013131506313197643, -0.001284330439694371, 0.042954351001818054, -0.002037779124580506, 0.10783626733806408, 0.002317258282282276, 0.016359472596943432, 0.011841875776975631, -6.610774225786441e-05, 0.0012534740383797055, -0.0016204069589972766, 0.015561451145735901, 0.013294495303908369, -0.0063376120932423586, 0.02467694272305867, -0.012930748818695454, 0.015181188053769994, 0.05489045608005866, -0.017409453874255895, -0.0005283166748721529, 0.010801262273218589, 0.006403989095641247, -0.009708720311951406, -0.0003450577030468065, 0.0001459198568436488, -0.0018309451416114232, 0.1128532275856674, 0.00010617638574613617, 0.006269323633224655, 0.007942830500509718, 0.0033493624986526116, 0.044536832417354545, 0.0015062414178109765, 0.06529895069220694, 0.10573680906797917, 0.0013258734058162454, 0.013106433182288142, -0.006264759758187024, -0.0020264614746116328, 2.086847430962286e-05, 0.010972122010880889, 0.021498458533256017, 0.018152684375923468, 0.030496991711247895, 0.01378937970188992, 0.0742398881141491, 0.09015995957259762, 0.05298648847837196, 0.014195699305906907, -0.001247340260291008, 0.009842831298035579, -0.0002761303461815327, 0.028795793667480987, 0.13121165386230138, 0.0008465943838826246, 5.623800613604147e-05, 0.03108885344095434, 0.0007541857111824575, 0.017074652315002617, 0.0002163463005578317, -0.0033485748953657607, 0.017997306092690735]}, {"w": [[0.013670309459642895, 0.10288288157369051, 0.09844922786176881, -0.004598828790389827, -0.1619868545115944, 0.0024325491885237843, -0.20842855041063824, 0.0314440656031469, -0.0863920141009718, -0.12821908409007735, -0.0012167749106355534, -0.014109939001566011, 0.0027328582672217815, -0.2058101421631709, 0.06292770791476165, -0.000814318575294441, -0.09098929663052449, -0.3909439668530678, -0.07201826930588533, 0.09523810334618331, -0.38321910123593494, 0.005045414943774037, 0.13869278346360236, -0.022223906805459583, 0.01024991372598378, -0.007774326638058875, 0.0009759417939774079, 0.031097485444320967, 0.43245212734998306, 0.040599006556438264, 0.10370016874830747, -0.07761029859661064, -0.004126095608563413, -0.19790710930824398, -0.011696046879612763, -0.10865239454940075, -0.7670696641967333, -0.005102980754074908, 0.043392746502234056, 0.008262577960860249, 0.015770668437067755, -0.0017619637559336135, -0.08380227090664318, -0.05612069579339986, 0.023752161764680084, 0.14872073192281743, 0.1988531365883829, 0.40766502315003317, 0.47521759338852226, 0.18876685890731215, 0.0395948176327213, 0.0029348311158727317, 0.06965016962515459, 0.010147081905061986, -0.14134268740194655, -0.5796100647361924, -0.051371573992506865, 0.01842691954054089, 0.22879909805723078, -0.01988235943118642, 0.28399936696928696, 0.021950815859547747, -0.003360715217752512, -0.0667051825597234], [-0.014430113298821205, -0.08230286949665776, -0.09880797835918764, 0.00398545475398397, 0.16394324185265102, 0.02536709243823775, 0.2220527660199398, -0.02860312173897996, 0.06673991429143594, 0.10517233421130537, -0.019524659010205298, 0.008361029233108627, -0.0018941329378237947, 0.19328326195537357, -0.07080721004878272, -0.018175954979815494, 0.11437576656695757, 0.3881698770290132, 0.08960031427676755, -0.11163750097695169, 0.3835286812501223, -0.004777032129651704, -0.122867128922773, 0.020271814372645542, 0.01161766795643973, 0.008838515940608813, -0.0055462659775795614, -0.030487965035640618, -0.4077405183799661, -0.04958447490227089, -0.09083241272505094, 0.06890500462766828, 0.01201021344880228, 0.1970279259924499, 0.005742185221827249, 0.10659241406853902, 0.7528569648564407, 0.009670289103873157, -0.04892643968711386, -0.010047327065740878, -0.007777393217925369, 0.004547768677566416, 0.0771161016634186, 0.05184275483463148, -0.03278985877676806, -0.16568013046642285, -0.18240667638459207, -0.4186489242169542, -0.47170743893963735, -0.19181569998875161, -0.030053519173439548, 0.013729113454844528, -0.08492092253567392, 0.0016203539718555602, 0.14543253304730847, 0.5646483997061944, 0.057585387942477376, 0.0012190305706197204, -0.21725248348930284, 0.009625508648210584, -0.2923562617655206, 0.0009470173825817304, -0.00836823166980799, 0.055351302125924366]], "b": [0.1594046671986597, -0.15940466719866003]}]}