{"algorithm": "reinforce", "env": "cartpole", "checkpoint_pct": 10, "architecture": {"input_dim": 4, "hidden_layers": [64, 64], "output_dim": 2, "activation": "relu", "output_activation": "softmax"}, "layers": [{"w": [[0.06657914065655848, -0.11100904060445647, 0.4613984300555715, 0.09899069455500153], [-0.36485183534460724, 0.26744229962515453, 0.9268378879409545, 0.6964336457924274], [-0.4933442242210161, -0.8830206438102475, -0.4378302180855991, 0.02970992739126188], [-1.6329913122623065, -0.1330827255900277, -0.8754995415152584, -0.5139252254428197], [-0.37771182594708386, -0.20539388032058073, 0.2937069058552622, 0.7334209479437657], [-0.09825054866507438, 0.9587464802712854, -0.4724277350325908, 0.243356123484186], [0.6250875657039733, 0.05000578914324766, -0.5319761274023389, -0.6767049220116779], [-0.32675276499821354, 0.1654881144901501, -0.7134804964805843, -0.1578719709750532], [-0.10913101698617154, 0.3900003576073967, 0.154295173118471, 0.2653110590655688], [-0.45138344077847026, -0.09335707320902761, 0.5573864541267737, 1.0863178891618486], [-0.8946157902201644, 1.0582043776183498, 0.9478851787300979, 0.5442762298380074], [0.19271284072704475, -0.22246166726984018, 1.0349007108436286, 1.4205924589356254], [1.268171463694618, 0.9194657367806601, 0.2508471719268086, -0.8621938467581252], [0.007232794672632216, 0.4928102500366236, -0.9174571692845266, 0.26648554449270495], [0.30964722166816006, 0.5064992247667937, -0.8373479363615712, -0.48246062554468105], [-0.3087989036129558, -0.8277180301692032, 1.2322174382924436, -0.337913782239881], [0.2275489607672471, -0.19940354035570487, 1.1280281524260245, 1.0016727799277962], [0.45953250848941446, -1.5569027867687082, 0.045219703612669464, 0.5299429919407639], [0.7175661484678891, -0.428112186373647, 1.2817275602592302, -0.9557337334356183], [-0.4622711916023623, 0.672198588980876, 0.03761135241279964, 1.408516148420338], [0.1467783299846663, -0.4294855750298561, -0.2644566738209204, -0.7682490667131553], [-0.8928489117691605, 0.45597508073117343, 0.41646715785378113, 0.9396365027266073], [-0.5231998879628981, 1.1988400769688203, -0.1970195675562584, 1.1399033897017183], [-0.2904639941625565, -0.5183821649186062, 0.18119774441235048, 0.7645224171137578], [0.10432839571548456, -0.42425601252413764, -0.9523630160541583, -0.9976774068343266], [0.3550216579776925, 0.6982709327769857, -0.10796459870188821, -0.7371007582326989], [0.6236619657398667, -0.8865280202816833, -0.5031941902794207, 0.42795468409359433], [-1.5892723910910056, 0.2658396496098946, -0.417117615449604, 0.0720298074094608], [-0.03626485220849083, 0.16567237648796393, 0.49773459736488196, -0.5151428422133395], [1.000095352213997, 0.505404768031657, 0.5978544402125888, 0.8323471933585775], [0.5553973723841525, 0.5918200192362153, 0.05306239056850585, -1.0077487897707427], [-0.08866519515656357, -0.5383879791894783, -1.002681580746833, 0.1974223378199422], [-0.4081009835137236, -0.7157604887946867, -0.7406984625882048, 0.1476956636826397], [0.25562954861097176, 0.9357137564001847, -0.006047276550445055, 0.7452309405296593], [0.9967421330333867, 0.8114928555665645, -1.6690928535634912, 0.8921482855197869], [0.23984740322016843, 0.29516128869671915, 0.2705946829928919, 0.29581481093879136], [0.23056741272727338, -0.24411635289095707, -1.345736129135772, -0.08105683735521489], [-0.5673631221625763, 0.762428405367212, -0.20329994898014989, 0.06601076890957851], [-0.6172448358119921, -0.3782926040286275, -0.014145911741683692, -1.0677784235810235], [0.14513360554421412, -0.15536636021325642, -0.8552362894430323, -1.7237780494801862], [0.36499601640606805, -0.20735650501337372, -0.3740031410279723, -0.167210443052209], [1.2760121034345293, -0.048030758279995985, 0.05319743916179905, -1.0751155029880224], [1.1711539784472953, 0.654338831028086, 0.7520393422904667, 0.02605352049257276], [0.6539876500518241, 0.2725198574074915, 0.43707333235826257, -0.0987599430445], [-1.054430373274193, 0.69878411050583, -1.3808594909752308, -0.18553628694747623], [-0.15443305469830804, -0.7421446773173968, 0.4308305224905154, -0.1565673858124321], [-0.30965603481253895, 0.3609012670628496, -0.33782079311723445, 0.988442951337569], [0.22102802377602793, -0.35325733521023156, -1.3823658259955034, -0.9475073475871059], [0.7795542120881269, -0.02271757825992261, -0.19758199465156756, 1.1857431778060497], [-0.8930524728652707, -0.3962658106381844, -0.3317838515068991, 0.4152719304441888], [-0.47126043012426366, -0.4204695635251485, -1.135614982321019, 0.4937902699843235], [0.5816607226729927, -0.31875615484444125, 0.11661369905248564, -0.9139148852180741], [-0.31864931340832603, 0.9856300746193598, 0.09966108825975044, 1.6731824042392978], [-0.5661907839044239, 0.39976263906760995, -0.14004719013306483, 0.39481321590431206], [0.01085104618334086, -0.38678142826325035, -0.6058989059102882, 2.2235366060515593], [-0.06241773810893231, -1.4188230442707936, -0.4593739967828878, 0.45861536873356124], [-0.3496170852020177, 0.950414795783253, 0.6990333237526575, -0.11619934881203402], [-0.35956428632175846, -0.7189360027616619, -0.5056255028268906, -1.0916347258695036], [0.8357479932241565, 1.1021982998030897, -0.8976493391716168, -0.8595720842892004], [-1.261554290210609, -0.6815091705702708, -2.19901843620879, -0.8178495940307562], [0.9115041501859366, -0.27760202198646056, 0.5933847820369758, -0.3554974453150535], [1.25970540726248, 0.15130887056507025, -0.26913372041158173, 1.8248650283654992], [-0.21241232663040127, -0.8447729333971804, 0.15161996465835037, 0.0076680642353641176], [0.7585329555616861, -0.653412938841287, 0.5695127350856931, 0.6182573608852187]], "b": [-0.028298721112888742, 0.1824321160621736, -0.021858884914027092, -0.029823505030275324, 0.03336423211466839, -0.006791677369259042, 0.004579362181064342, 0.008938705469338677, 0.03451088342445057, 0.09178214029368198, -0.005688962390789173, 0.14937003528373316, 0.02810829582328795, 0.05107587579663605, 0.14295296927365583, 0.018153644975214444, 0.26094146505986804, 0.07573260987898986, 0.035387566376174885, 0.08018654238837203, -0.018174215392519646, 0.0946666771121039, 0.16381376102085682, -0.02065972475889307, 0.007212192491046134, 0.057494038233441416, -0.008246068220167145, -0.01573630528924876, -0.003534592004543846, 0.04264172122629485, -0.004692478832351392, -0.004258266917856199, -0.02380647010160212, 0.0691936985737263, 0.058304886446238394, 0.11846865218102548, 0.02238180711608689, 0.08100649604046196, -0.001483337525207018, -2.3399594178252076e-05, -0.0071214333482865445, -0.03152958697808828, 0.05697354640573091, 0.049483030895165536, -0.041380683637982, 0.015242165881790082, 0.022319606325856146, 0.004238795528904714, 0.07533682449404475, -0.029274964119316915, -0.02470335890574922, -0.004919415497097431, 0.18589491225014187, -0.0014161610047790669, 0.15328915420024605, 0.0028648621679540644, -0.024544050213249215, -0.00980680120239233, -0.09122134017345891, 0.016908385002880572, -0.04462776945303942, 0.134965314448155, -0.055062992137088436, 0.06696594805975406]}, {"w": [[-0.11803263148953101, 0.02908113594795349, -0.14664804002972992, 0.4155831666099235, -0.12434548680933756, -0.0797511039596036, -0.1883598692038438, -0.06090686343004796, -0.0009017964130767282, 0.13585772198254192, -0.10730416024273737, -0.032838403251507046, -0.2502012457315481, -0.14610686731322842, 0.48750345204264833, 0.18425281234616833, -0.1381456067292095, -0.2363048112880375, -0.17241101937020506, -0.003633540226159438, 0.006185595693559946, -0.1311327792190202, -0.22698457277441147, 0.2515635501838415, 0.07998383956967245, -0.06586125090121309, -0.03900762263883299, -0.09275283575516859, -0.5188251272725666, 0.02045096757161744, -0.18896269364482873, -0.17716068318720093, -0.11299334040125518, 0.1296167853964044, -0.20690816825914435, -0.2535097679377577, 0.11311457865336304, 0.13389908579133902, -0.16898211057601714, 0.09978737637503703, -0.051553817290046294, 0.053268245146368805, -0.22287383753973522, 0.14724519648026707, 0.21341969490828985, 0.11277656329974999, 0.09877805222018804, -0.6667424862258653, 0.04607315416189925, -0.0042071115255047035, -0.025820195327779443, -0.11145435178989668, 0.009979611650159632, 0.07314775490699121, -0.046593590999543244, -0.08168609415695013, 0.2178839402219082, -0.195003296611442, 0.18241013241113402, 0.031975772780044376, -0.14218254521293452, -0.051254919345433865, -0.16250489639784074, 0.11933496704811052], [0.06142318047006339, -0.10415592373299354, -0.1802703359401247, 0.07693155186447181, 0.17231998299123527, -0.02350123930819659, 0.07787793534654909, -0.06128940724407215, 0.008435128503121597, -0.05077602735359882, 0.043387450795547886, -0.2719330322999257, 0.11254927303462453, -0.04219504792531053, 0.06503358778672848, -0.04919330475456282, 0.05162636048817891, -0.17832382646749237, 0.21179358050412084, -0.30783255451532804, -0.17465032817853418, 0.03993938131101668, 0.24914641518668373, 0.05473176720087822, -0.031084215266774295, -0.24984617350646776, -0.030000276407280944, 0.009483357777726336, 0.30047501811307153, 0.10215460253761627, -0.26705437055772324, 0.36593358789975033, -0.05763415513896971, -0.16348140603253483, 0.25605515149209407, -0.013421642291577666, -0.061214757996447114, 0.036658707796097346, 0.16601973477074156, 0.19016945618404993, -0.2418532497698196, 0.35774557498488313, 0.1593612763752106, -0.07017804424166141, -0.1366443855521338, -0.161951957076982, 0.01862311673383012, -0.10302879070274645, -0.13977605518670827, 0.15525911889695185, 0.07391831272987918, -0.0640912693329724, 0.11990664797042816, 0.24050252842831438, -0.19349265842409333, -0.09074487466173455, 0.1609372417451123, 0.14591370605245688, 0.04323200810069153, 0.23499785938406184, -0.1924187521619563, -0.27006495120089424, -0.14241548018646877, 0.021403127550858006], [-0.14279230441930008, -0.09805499526086645, -0.17501805076430424, -0.09813056993660178, -0.19122761582749365, 0.06354329530853828, 0.1434785470447106, -0.08189274632077256, -0.038949338754521105, -0.12150095056023509, 0.08778890401131079, -0.012219625048512078, 0.28165512292990746, -0.19418195380133832, 0.06556070517114936, 0.0794818395859496, -0.08482615723255309, 0.08404943029717099, -0.2519346253748002, 0.3565101766250188, -0.23116636403333585, 0.1508070363294172, -0.20851747953776642, 0.18855265852476258, -0.05962123795533917, 0.029644013893158586, -0.004241608634068225, 0.1998788390603473, -0.05569892605488197, -0.5353810836687576, -0.1319521647140649, 0.028269940429100263, -0.08247847442032141, 0.13032635224590194, 0.17417813967458928, -0.02981197466723192, -0.26255944127181463, 0.2435956289503944, 0.20095372166551437, -0.042652148362234896, 0.3733058597092844, -0.05818452269181411, -0.20447959485952816, -0.028824302623229308, 0.1951961177748869, -0.16764472621854307, 0.3323304155158545, -0.15050864339733228, 0.14896361534851088, 0.09024772322975289, -0.035263381751252175, 0.19558860830859426, -0.2854792489483371, 0.23680746984991932, -0.05038991561903825, -0.11150187417782981, 0.12935345315181201, 0.1978094452047968, 0.13839354228999168, 0.3681499020403206, 0.191825367633135, 0.1975373148736989, -0.0987464553648597, 0.0022162524074598264], [0.09947221632133554, -0.0035020988588151955, 0.05426599416229362, 0.07636334153487068, 0.14921984121505738, -0.017946195173238887, -0.06183965921722864, -0.14626480504521006, -0.15769423535373567, 0.20699460847817247, -0.01520702464343484, 0.13864442386338446, -0.2293395941548264, -0.34260236993326465, -0.18545330109124578, 0.20338315448867475, 0.18843929338949555, 0.05953030710659552, -0.1417386634763201, -0.02346547573089941, -0.05219381551068234, -0.06134164580614362, -0.44325504600218085, -0.1514975476926607, -0.03302386161085332, 0.2680709433919054, 0.028807850593806035, 0.24813327432522556, -0.06956592692965498, -0.044855726713573595, -0.6893288923050609, 0.08246838618812917, 0.09753049275297682, 0.3116645873467782, -0.08608179809988269, 0.01656346340557774, -0.12446680326715573, -0.20793600591311728, -0.1252878427130298, -0.060667224421629785, 0.23965357432483922, 0.00038425140008121816, -0.13976999634269205, 0.025085081740412716, 0.03861698269694642, -0.11889554615305345, 0.2018719192421714, -0.33334287184158323, -0.0379050331302313, 0.11815089352186582, -0.2360414090943738, 0.06391998170194442, 0.2281744892228921, 0.08004132477617389, -0.2991040824926435, -0.12765092576913983, 0.21781245452308365, 0.05375868947572389, -0.0017443042203434374, 0.07955023441761441, 0.12749310552394302, -0.12549902115255712, -0.05063346430530965, 0.0252413126419631], [-0.09691907876676811, -0.01693233794798757, 0.23132108628427261, -0.16947995552278328, 0.34157432240828806, 0.33490502220365004, -0.30670641661952786, -0.0266616925794491, 0.06443077649250925, -0.13272305963951506, -0.11931396459492295, -0.03801966188774411, 0.1322570053455229, -0.08980929532303197, 0.322521792280677, 0.05480721070172273, -0.01205167400525947, 0.2564547435984824, 0.11254656310910656, 0.07120538471565555, -0.060187740222137937, 0.325480966096359, 0.15360627819939005, -0.03616072816004297, -0.28162567698954716, 0.06567451682537331, -0.20418844731368793, -0.3005359351581242, -0.04828302628017581, 0.053797662617735054, 0.2253131300750372, 0.04976980192611228, 0.14398526760244734, -0.21047546242410817, -0.004479872283421936, 0.02589280548502699, 0.1521406136253155, 0.024402503769855696, 0.14451326391061, -0.09471315304011275, 0.06238709130200039, 0.06985916419024477, -0.21458784146198684, 0.03358340409232522, -0.05832584264799599, -0.3342662633648806, 0.17165741569382303, -0.06831446187258167, -0.14914817592831447, -0.06414727777604655, 0.02504186323092551, 0.26351967143362026, -0.02091607942862791, 0.08640998692273313, 0.24269391579543118, 0.09521431370098868, 0.1957094726165301, -0.08287600681796856, 0.13346882829112203, -0.008290282240571222, 0.18921480006110894, -0.17294619115555593, -0.13718318082771386, 0.22312007382153815], [-0.03468893465737228, -0.06366102790455844, 0.01274000898583545, -0.12337723103613853, 0.23506561643099919, -0.2208534836052122, -0.026508662753182338, 0.06111986770600994, -0.018505069670715253, -0.14213728868178485, -0.1537274936640532, 0.07507041165071701, -0.18216660486460165, 0.11427333492074114, -0.26929865870700936, -0.09900225791768609, 0.006289749972312708, -0.2218397602909395, 0.11532938600093866, -0.0034649989266570254, -0.1833787325533752, -0.2689128057403942, -0.27686619851276306, 0.008542023588200463, -0.2047866905080645, -0.24123777780908898, -0.04083250311699267, 0.40148609014172154, 0.0490920041417879, 0.13482452228070094, 0.03770079526004113, 0.13799503577307798, -0.23825516113271006, -0.07616408534826592, 0.046200667670549304, -0.0032055173838427234, -0.0339863548298772, -0.11773121044757245, -0.04649282353618785, -0.13689635560860122, -0.4281084483665282, -0.21105017906980192, 0.08403257272735848, 0.27522877310947425, 0.3201963517415357, 0.016475121834026062, 0.15788994691251654, 0.1603856414180766, -0.12240587330905842, -0.3011770865605207, 0.004801769653007322, -0.3114200668668308, -0.056644502241477455, 0.10735255372930845, -0.25106806620900474, 0.0048328052186333, 0.2191800745825358, 0.06301921568183058, 0.09232185721998715, 0.15862567042351008, 0.3064108248298509, 0.026750756432980975, 0.21660267396495614, -0.011342808597521091], [-0.09583712690436719, 0.06915491332074059, -0.10319232240837331, -0.1070416016804709, -0.09924326900924953, -0.40308367929407934, 0.01744419929745158, -0.22512145414434975, -0.014230689887964809, 0.26713920371542205, -0.08116432626196202, -0.07580576414752489, 0.24480018680754054, 0.09959870027505772, 0.17650191033882157, -0.06007454028600429, 0.14890239808962735, -0.10986030562519301, -0.1159238805492643, 0.12333229971044198, -0.10584188665513661, 0.14668009391903314, 0.43869243009213427, -0.2893812328923607, -0.13314070323927368, 0.19831286989457808, -0.018133381790077088, 0.20179182643968424, -0.1786316506447115, 0.07002787588478748, -0.027616428948428542, 0.028496699173202123, 0.06272310571700453, -0.20572618263381787, -0.1843569193551383, 0.2537212046439848, 0.05385574660773189, 0.022028846523751353, -0.008726503173351972, 0.05948582844705235, -0.2043579012753045, -0.17819778531206446, 0.23931670425385249, 0.030430710638635415, 0.14477965290196654, -0.10335186616177629, 0.2534717902655221, 0.061526056917365846, 0.09951824448281024, 0.10223302422863649, -0.13488825895499879, -0.33119179657865927, -0.16742871560901043, 0.29141094153726543, 0.2512857701455185, -0.050085333899848455, -0.04770968629519568, 0.18436017932400967, -0.031838385340398116, -0.2308189441814201, 0.22474830730422904, 0.10822404279794108, -0.44092343773545695, -0.04720639467192728], [0.025404217405047193, 0.08504664971745028, 0.027970151642211474, -0.1108298778677199, -0.02017408386564169, 0.052133249128026096, -0.04736978733461239, -0.06553426270108849, 0.22133674905323, -0.1672394008619286, -0.0617750621189043, -0.35939393627261784, 0.09568412512768094, 0.1464125528634805, 0.09703480861444423, 0.16309787317506783, 0.07750645840946097, 0.06116003710550654, 0.08374581138204718, -0.04727109302130566, 0.2105131197848683, -0.061405778343746685, -0.2584956664409833, 0.15069917989837964, 0.3276999591699859, -0.16962119337363693, -0.01786488637985419, -0.12017107482596553, -0.06728258887310266, 0.008101422445468822, -0.2194617532881616, -0.04860027436072447, -0.25829867254007405, -0.10044889108840448, -0.2096871059257214, -0.18723430481073064, -0.3039153178908638, 0.21559482726343288, 0.09096989815584351, -0.3385749218584033, -0.10551688353841675, -0.11853848934584739, -0.12216449858619237, -0.2557784358059616, 0.1335694445364739, -0.06931801949896192, 0.08272047958170091, 0.09351584289592703, 0.24296130171864808, -0.3198603103274011, 0.3080032587160922, 0.22440889175525555, 0.10126288559592708, 0.4213874355732774, 0.03586938745928288, 0.14626022039551906, -0.13053584138244456, 0.20162246287073912, 0.029721932945155745, -0.07791408098992712, 0.3741661399553225, -0.054163316707290306, 0.002386952694907491, -0.03521175578991095], [-0.13303247413411648, 0.09901734473078552, 0.1329574349109788, 0.06266200064075277, -0.41195654737108833, 0.17844196804750787, -0.06168759034967071, -0.2148788812550151, 0.10767405709157835, 0.10649749962829963, -0.1816089935619701, 0.4468812349824611, -0.21296279127558554, -0.3059681356974329, -0.20286470128881434, 0.25273430173912864, -0.02307223358084174, -0.05891030079039102, -0.010588268743052968, -0.09853868485874598, -0.12189806169525523, -0.10754433841451032, 0.12987518866639206, 0.1860624219805231, -0.18620382919453565, 0.0427239877067408, 0.14347684472914204, -0.19073121762741474, -0.08881718481980813, -0.18037234036667021, -0.22802469963940739, 0.01984696280340341, -0.1274698679555291, 0.11357514717985152, -0.004850153735341008, 0.07408064872862359, -0.05072880185770046, -0.11152561936535667, -0.01574124365986016, -0.0008065756419586785, -0.12444752784061898, 0.07571258271896834, 0.13277256730930137, 0.028294199007686704, 0.3030804660029125, -0.10961145138208524, 0.09650045392250892, -0.07182547438440798, 0.04771483554641045, -0.1426425459006014, 0.20082636055962308, 0.031199993403999336, 0.21891471933469403, -0.2220094703023958, -0.07422984833982156, -0.15116644857504016, -0.09376111203151236, -0.12192611603934539, -0.02088074002408586, -0.0022682924093256427, -0.007042917072761382, -0.0887578002805682, 0.03537903622720872, 0.16013131024755736], [-0.15829322560152156, 0.010884921881960613, -0.012441555120533009, 0.07089692149241242, -0.0019664934938168318, -0.0015168329480965295, -0.1743945473701789, 0.0016295340045492887, -0.160921173633935, 0.10494167491274474, -0.012827465002071717, 0.027228732739952154, -0.15501873655454843, 0.1430409990670494, 0.12559438245776414, 0.15138456520230092, 0.4111734492050917, 0.005018349735914373, 0.2135346296594004, -0.008398816683044123, 0.0672102474803108, 0.0743859450944242, 0.055381315812015504, 0.1261516099583429, -0.056383541976935556, 0.008441456761529357, 0.10437288081314144, 0.30115870382559073, -0.1486773457262296, -0.31282385693690223, -0.08474474414676998, 0.01865110713172484, 0.032911929630376265, 0.020866670742167064, 0.21107858490188014, 0.17544637517232073, -0.006867680789050989, -0.08167452556178299, -0.06837720927434493, -0.06576749623484773, -0.039048117000542115, -0.27764555364774807, -0.07830753659364757, -0.07387625634612596, -0.0376808638795992, -0.04391551356563448, 0.12719013206354726, -0.09535494168253088, -0.06674192766155033, 0.09814594251243558, -0.03689394043214146, 0.03815987762743572, 0.13343972813910485, 0.07720660329719607, 0.07225893478883896, -0.024683240138690395, 0.12280572352890082, 0.024690616138395672, -0.08835787659398861, -0.0364579321034813, -0.21554257317083625, -0.1534085350482202, -0.33133088295432417, -0.1084718031890325], [0.2360933060544612, -0.09834851080862261, 0.13912991954885756, -0.0008540158429239668, -0.12384705014561544, 0.23662291679867758, 0.10290646548526734, -0.30972151474674403, 0.1841057626883536, -0.19000372755504705, -0.03144175903236212, 0.11810925906477719, -0.05300683386318096, 0.19784305939245805, 0.1345654833986844, -0.27883436103504766, -0.08351896569483429, 0.04986225282477417, -0.10169907686696074, -0.038215243679224485, 0.14128242779965955, 0.05602405506498625, -0.1626937255894791, 0.030865069152750363, -0.10835535856254068, -0.21482258322055864, -0.19976044672728688, 0.05058173896745843, -0.005021852594246047, 0.0009594046966291841, -0.20265877663425058, -0.03252430187381592, -0.1833911357229961, -0.16375632875686694, -0.0291584949115049, -0.24454802145600496, 0.1183310515955618, 0.4396025965160747, 0.08090400329321948, -0.1845350719906876, -0.047934694691407764, -0.2749643645941176, -0.0667579898177422, 0.08968093587928477, 0.10409643493766293, -0.18244794731122965, 0.05287942369488241, 0.2043343585044383, 0.3102601902751711, -0.12394933581042641, -0.1527728659247896, 0.009568170193014343, -0.5176160645844222, -0.09387314818617801, -0.04791230791929151, -0.08120586047303684, -0.2800027101798138, -0.043599316339425175, -0.13726237238001773, 0.13364206702973339, -0.16236555315905127, -0.049905493950613465, -0.04122218413188022, 0.10033164151440936], [-0.45005604169990104, -0.06022203253244331, 0.1340383472273949, -0.06442629414521954, -0.2699280329911536, 0.05773973484953954, 0.05918868357455776, -0.04791000966981699, -0.2050247936351831, -0.1309341045146333, -0.05545568260813384, -0.1547741135372922, -0.3398411783102103, -0.13592575825376693, -0.011118169124571833, -0.08985143942320305, -0.013383902658091772, 0.014581358196546441, 0.15815175657156796, 0.3895849914533528, 0.12880766574064784, -0.24824193019085997, -0.4696842847522138, -0.016703721450162298, 0.011879718293869374, -0.20582262828087486, 0.04795609734916894, -0.13561359987990299, 0.07095102241708273, -0.0575440268769589, 0.06979391824533178, -0.3083540833095477, -0.07763086852244326, -0.026266704085419514, -0.251901018847937, 0.33272588318326773, -0.09587499316372844, 0.2456917556953817, -0.11805658936220681, -0.04165673744096948, 0.20910757289548457, 0.053180839335919425, 0.03395812849290896, 0.04698236562781882, -0.2416787348188773, -0.06894568394413395, -0.16907730192403733, 0.034242005729231084, -0.09616542051990616, -0.007830845247887325, -0.01368132051981094, -0.007000686086759854, -0.006143462308325455, -0.11531791027403472, -0.1863170836585776, -0.11761035951568594, 0.18939802017872095, 0.06554128240210633, 0.1033035216368023, 0.24308442282572032, -0.208528471128205, 0.09014889022956647, -0.19026779828245433, -0.0590920221248992], [0.08551651439821864, 0.28506011380358914, -0.13842286359666936, -0.016915174661312298, 0.20405081312342707, -0.26338628870116165, 0.06401757222413694, -0.054528545499929124, -0.15592952669631005, 0.0254470484514745, 0.10492021000547722, -0.16183160661101348, 0.06716425756446881, 0.030640651173815106, -0.21952937575031148, 0.2744584856597594, 0.19222975201638942, -0.1524152108292691, -0.10367018348347579, 0.13582623380605438, -0.08757116147976322, -0.3256210123154568, 0.18517320534708648, 0.0011696215706935456, 0.3371299381476737, 0.06317142987624039, 0.03351901667693405, 0.5079585284816035, -0.030403290150360588, -0.16850253683295235, 0.04050283471474426, 0.20070413907328857, -0.2060981651291664, -0.16068027830754794, 0.07945550774126957, -0.565288537540712, -0.1931577683193875, 0.14055067524050827, -0.10379475466905608, -0.2875150511940678, 0.34039497361390236, -0.24934588718351727, -0.09251797598366968, -0.06588328452082916, 0.01459169371815056, -0.06543919824366226, -0.01459432023380913, 0.010184123833122994, -0.015715799494477843, 0.016215871302442352, -0.4207141343520916, 0.07798444042163823, -0.24873028669378475, -0.38314307000278486, 0.24342130689094355, -0.22761254851640939, 0.031722712054578744, -0.13659705561874422, -0.11995036675372266, 0.08541864006408559, -0.18527692329814055, 0.06529878480016812, 0.067132303767279, 0.2054992087152867], [-0.058456515554749296, 0.205706913655956, 0.2894456720203827, 0.2450875359775916, 0.11282670524491693, 0.08408299723081046, 0.4945689370195074, 0.3851575865153582, -0.12793666458571998, 0.18017654064592573, 0.12691590225572696, 0.044509294958421416, 0.026794217686724724, 0.08922901502941329, 0.16301674086202034, 0.02656313034164785, 0.08750391742276101, 0.24794034896013806, 0.053123583140179606, 0.12301677628027305, 0.15772854661944752, 0.3044769754840857, 0.24163786950035257, 0.07319220522453442, 0.012410470898525467, -0.22180910211602317, 0.05662218851482626, -0.19960908418382972, -0.18406421656265046, 0.1331931522570954, -0.02601972446564157, 0.0769348485239286, -0.12097833818932546, 0.2276812957233889, 0.0326327036658661, 0.21941857522836394, 0.11419209325512253, 0.03395743530856794, -0.11165642301766919, -0.02517926035424445, 0.14368205944294538, 0.11313943496514794, -0.19817109071732156, 0.18636093517352906, -0.05142022729282983, 0.1358861673165968, -0.10815548844178914, 0.08958272218433672, -0.1200517816513147, 0.016634103219862188, -0.05628173222049494, -0.06288171675119626, -0.06819580322388417, -0.020998334042002062, -0.27372458602044636, 0.14928812158365717, 0.17953341090125988, -0.1097636048536943, -0.2532307776499629, -0.1603417223582947, 0.16713181069941185, 0.14537310101485146, -0.06349704893108278, 0.1717246124801068], [-0.18425818243112027, -0.10780976936520037, 0.08570188324059798, -0.012121472120221155, -0.1042741948371915, -0.44401718925649486, 0.11886222588048544, 0.05825031634971217, -0.30799248412670704, 0.1057175716423074, -0.002579827512190937, 0.04816801907739817, 0.16725454166730208, -0.13081545389097907, 0.12607735343722448, 0.12290587595596986, 0.13302168252385574, 0.28745513774631604, 0.11695448018029328, -0.09786955274788817, 0.32008628397829697, -0.19460242421123766, -0.08074571965614416, -0.1706358859386002, -0.015504465103674855, 0.19143587877721985, 0.22789423151957602, 0.08494754005478243, -0.10758207485967707, -0.09719483343778974, -0.10639940847831963, 0.16847341728023094, -0.15902299493939848, 0.15354633170472184, -0.005752564914099437, 0.03075424954429081, 0.26683664959096753, -0.08390137469242473, 0.2975803759552016, -0.24645462400279153, -0.14594565253375694, -0.2787817514045741, -0.13215359317380448, 0.10295635194931804, 0.13168078966229585, 0.055467317592735856, 0.04764780600444126, -0.2051630903181942, -0.23507139540418334, 0.0555160305892423, 0.23898625144214353, -0.06331407827553544, -0.22301420342523837, -0.2708644902334354, -0.12329408485049978, 0.27977522253371845, -0.036901290939889274, -0.1793629875649267, -0.10758151804916533, -0.08015809657823288, 0.04693589611359191, -0.11715394284962465, -0.15626739155751848, -0.03499066247254195], [0.0827146313048188, 0.1264124462858088, 0.09639695907210533, -0.08230295358815198, -0.3001134766065473, -0.14144429702236824, 0.04973221638744114, -0.23600174879514893, 0.04446242477954555, -0.10494552219538383, -0.1032609873827662, 0.19695332453526865, 0.038099649575482356, 0.24212541478938743, -0.16624043093688626, 0.19897048058786013, 0.16013510379870632, -0.5302458221572637, -0.016376518741484145, 0.27186103862698524, 0.136641091423317, -0.07841540885512219, -0.04167516197961697, -0.23095744864676945, 0.03537103566865938, -0.317382461671939, -0.17983589624339041, 0.1972792465567685, -0.0039668605901700005, -0.0652803613338822, -0.01930170804352736, 0.4842809452453201, 0.18229200546105273, -0.137797449811657, 0.29408570196132433, -0.015990712507596313, 0.13059758018699713, -0.10366677470977456, -0.16713534070576588, 0.14030777966882244, -0.13603437571754515, -0.13882675178118442, 0.15800241197237402, -0.20575016286204628, -0.25119865170532585, 0.09568435999430779, -0.3469123483976455, -0.13386906331877982, -0.06534125797047559, -0.23837532342393106, -0.19797081636559868, 0.11699914032321743, 0.050852771122291605, -0.16727426237510826, 0.0925282243747866, 0.2676855271139185, -0.22697035235791357, 0.009292435276312459, 0.34888501254401, 0.10612640000026168, 0.1433727673132193, -0.03658882494064858, -0.14185910175700972, 0.20157997535931776], [0.11343914413763961, -0.01324148566972094, -0.0922446353193563, -0.3102515093469127, 0.015255712734636696, -0.1225018253056137, -0.025509864405922025, 0.11819539165510443, 0.1458535327202177, 0.11209105728222614, 0.4016578160789027, 0.18719074452696738, -0.13455731242638141, -0.14438704472361877, 0.41067486887081145, -0.12170429969415864, -0.019684283638037176, 0.284621741599136, 0.30374460148909277, -0.018832410290923106, 0.04156273656719813, -0.2955965525492437, -0.16119996346786122, -0.08044968728997559, -0.0026723831237893845, -0.05939628069112563, 0.011231097534462437, 0.3874000693913373, 0.08182597722997953, 0.04896682983026214, -0.0025259372090017333, -0.03871269287052857, 0.20784278910119675, -0.17548314336427426, -0.026463757911062254, -0.19355512699843844, 0.013831248427735856, 0.021946514359529934, 0.16286238467454192, 0.20925404034374095, 0.11635882853770907, 0.28393511429711754, 0.2819172477649644, 0.05609496824687382, 0.06562297325981784, -0.34833931215568154, 0.0487237838688111, -0.0030266338766127537, -0.31177407618074976, -0.08595889713401107, 0.15783436106921736, -0.2205394555109457, 0.21964404894393563, 0.08318134316054561, -0.07280985670368267, -0.04765675001702202, 0.14756431925654537, -0.2545262164610412, 0.3566935858342387, -0.14627540860873162, -0.1358238414157986, 0.19771623896776788, 0.1302919814720883, 0.21945100614577182], [0.18777560594741874, 0.10859193292303504, -0.19816345172408534, -0.08358327797154667, 0.07394547355765371, 0.01792977274617988, -0.3782770613541983, 0.17722502341923368, 0.32311708731514194, 0.30863656356809216, -0.14383744251314473, 0.14830183526531576, -0.3625660346362479, 0.31518487464179434, -0.3426602772712254, 0.08671171785453258, 0.2668382806490745, 0.2861509946945001, 0.0415278542385202, -0.18876629911684734, -0.037731503229696206, -0.00423297108461488, 0.12771410221612592, 0.21683379069927997, 0.08857081751178948, 0.3693121572762854, 0.15090686721064042, -0.055074794927659064, 0.2767000776359194, -0.0032842522101518548, 0.036182378556801904, 0.05105427759129593, -0.375970518154473, 0.09235165055557153, 0.09346853691008253, -0.014922843062892687, -0.023389781445301284, -0.21332027023094638, -0.004901428756862008, 0.21042898171721644, -0.03497428916131567, -0.10827701718697506, -0.07062397830430088, 0.3709654187270014, -0.24940128635870915, 0.16799931435249266, 0.05733347270512107, 0.30940915562926363, 0.28790724149265096, 0.021997361280173558, -0.23659668883803434, 0.2260531429694082, 0.33761272567824085, -0.17970382088352133, 0.2276071452229764, -0.08274320766139215, -0.12117098268393083, -0.30390514595552426, 0.16596664338856912, 0.04055008446118353, 0.08742184101807086, 0.35031421149602765, 0.13918649453471782, 0.13947942602599692], [0.1327742059797143, -0.18521516558270967, -0.00705419013827497, -0.21798333361763844, -0.15614737950269114, -0.01641745578185641, 0.18599569369604457, 0.3623133972399376, -0.1907837421816558, 0.03484481995068388, -0.00951209159921152, 0.09949246370680159, 0.1024760975870062, 0.06376308329210066, -0.17234916702594805, 0.06851918623780327, 0.16302008573421936, -0.08947459604643433, 0.3502640602539786, -0.037213528943815244, -0.11494798492194554, 0.055133898784295726, -0.04251419012775919, -0.23936388773605752, -0.008896042876073698, 0.28081141471781407, 0.3549509126426935, -0.1023017246635264, 0.15993647261985838, 0.0255755957195692, 0.04905358917404936, 0.22344649716057668, 0.15059605470764803, 0.028882173658349497, -0.16558104606362825, -0.19757003725405758, -0.012413518968666824, 0.05723427772111485, 0.08619427103244762, 0.13338310361780445, 0.1724198195103646, -0.4262735385661011, 0.16142837000052124, -0.18435537621598264, 0.19486176435564653, 0.05928741709297366, 0.11424838251924395, -0.10013540078785946, 0.05434749449379503, -0.32907285919089224, 0.19436083176321256, -0.060830944911209425, -0.45292048469463253, 0.18873165076539403, 0.3040639119188989, -0.15413301548024733, 0.2156567395750213, -0.13674095911349968, -0.4028629350178855, -0.06911355696312464, 0.05753258418194705, 0.03049119211484403, 0.01715860134127298, 0.05536089356755606], [0.03829939160365046, -0.04117782540834871, -0.09651705320215581, -0.029440486414699964, -0.06066632873589713, -0.05204324223351098, -0.18923963552607984, -0.09106796932059562, 0.013165606516182078, 0.05449086087019212, -0.013864648370275326, -0.03599908503782591, 0.10085656522374732, 0.14404147074738133, 0.1250052334550276, -0.3015159851969238, -0.08458360980740563, 0.13137617338978227, 0.09426818976813042, 0.11739381828811381, 0.06412577650143436, -0.150406955479623, 0.21190221519572142, -0.23736324498366962, 0.18667524988800843, 0.0036881269992097778, -0.2583328890895262, -0.06105323259991086, 0.21580592113741726, -0.10652835992018848, -0.20616379538067586, -0.04580840509290868, -0.13653603670328135, -0.2232950371495053, 0.07679340913999824, 0.13870922837334554, -0.09431421999447899, 0.0934003981929327, -0.05405741841178628, -0.0002103547872952964, 0.023389251279739207, 0.27113512950082436, 0.08819984457415954, -0.1769499695050899, 0.09865701533455905, -0.03264079828653816, -0.08406711510362418, -0.13630919517759837, -0.008094494143684494, -0.0032757084211785374, -0.0648531265911332, -0.2386497388975005, -0.3068311044388141, 0.0224169219719623, 0.029049479429430324, 0.3964597512119911, -0.030967068803505318, 0.1964806732398435, 0.22125722764547145, 0.012004591483401307, 0.014898574813009794, -0.0815902787608412, 0.3211804631239303, -0.2679974817681333], [-0.004538110855411786, 0.280126290432562, -0.034981804348135144, -0.15396950190945075, 0.06458588329744733, 0.10199771062332487, 0.09181887015024062, 0.03802810549248275, 0.14285968184424852, 0.20477682629601604, -0.1732793140337996, -0.00029757042398133207, 0.1580017065399173, 0.09366107140811492, 0.04328704282514745, 0.102230044685276, 0.22455811745627538, -0.13341907256232632, -0.22682268339907405, -0.15280148009253114, 0.3060044904738088, -0.15745435605170915, -0.0026346341005679297, -0.011964728191270209, 0.15282278722957088, -0.3109623225680322, 0.009152121480393209, 0.18629969711127117, 0.19083535833342827, 0.10380702782754885, -0.054537175656892256, 0.3062067627594084, -0.3040622803241764, 0.1983998190094899, 0.10892232833502082, 0.11871801939622002, 0.043512457013941144, 0.0406996813542283, 0.12302444173247776, -0.24041963277171044, -0.22285027326490536, 0.018005561765989286, 0.026536544991234496, 0.03561614470837988, 0.26304177191833417, -0.11167233906236436, 0.16423291847769725, 0.04161375926929155, 0.46051434952501064, -0.25045988460748914, -0.09325108849762125, -0.09582681627614917, 0.292891814981923, -0.13573640515053587, 0.3715702559034579, 0.2887708698611445, 0.1598897774437558, 0.031184387692465395, -0.2786757967145653, -0.033199559796890946, -0.25613569954848103, 0.005200889551813051, 0.02585462249848567, -0.02583009666945872], [0.16807789859234964, -0.0229180760926893, -0.2737914541980924, -0.1873726542860015, -0.22520741130348063, -0.0559412240592491, 0.22065408640622122, 0.08943786462482219, 0.0599660966878101, -0.22724261905623233, 0.4184713602960403, -0.005042511267301362, 0.4272954769407415, -0.1531985614336324, -0.1002503687621013, 0.4595767482951633, -0.1900591264705699, 0.07383815014512005, -0.059842541144951904, -0.14377293135969255, 0.382013054268093, -0.177565755958808, 0.15859294114585432, 0.19517626659855788, -0.17887015004630882, -0.33544283193874264, -0.3149199282917716, -0.14138695060969136, 0.03923543815519374, 0.05945499257823751, -0.03346996196345992, -0.018663807344540654, 0.17215837273503098, 0.13587778666236158, 0.06731175895391966, -0.10904254687970291, 0.13739600504092211, 0.031871785389837294, -0.13223640195882497, -0.10201726886078576, 0.21716550782692226, 0.326325310237915, -0.0935613502402721, -0.36731633043486067, 0.10374666677647983, -0.15967438901855333, 0.12949357357890304, -0.06643442423759938, 0.39411681092348294, 0.019839394351848973, 0.15960168631359833, -0.21479813327767, -0.4983550849204281, 0.023868919580154763, 0.04620996698073681, 0.1272561531166567, -0.09817087865139244, -0.22832094960828117, -0.2828462097858415, 0.09780392805852471, 0.12561755244692163, -0.15477100786999667, -0.09336760111417548, -0.12883588477793445], [-0.3349771379162247, 0.033222737010639464, 0.1503701636079704, -0.03365457869086706, -0.2517460972550177, -0.0266723861674949, 0.2533248655502442, 0.38082899202695525, 0.04818421816402448, -0.1394761967390224, -0.349131485490036, -0.2757387321390994, 0.00912732354230408, 0.042213880133326456, 0.05889711637583872, -0.04538875523742708, -0.2743084571603467, -0.2792544827975506, 0.03286221254249533, -0.1492524742414774, 0.23695251576645343, -0.25821641213179936, 0.2979573426158456, -0.11798651708950393, 0.04907186806587973, 0.05949669531230466, -0.06179483422194326, -0.35509786288862416, -0.07678866889990206, 0.269102761834268, -0.2038506076323412, -0.325213972224519, -0.03839818208045816, -0.06992681759812053, -0.2250915961669545, -0.13256963939617733, -0.08341404520904791, -0.06675095676577857, 0.03694152737392263, 0.14922252687470466, 0.07001746916085434, 0.07735166822727743, 0.3046637468235889, 0.1985725473338012, -0.5051001456070325, -0.064538135079637, -0.280907329116789, -0.11174032406041372, 0.1326282278283295, -0.035398299421879026, -0.07553479481810811, 0.2433638279311719, -0.2692103166505125, -0.0166544192346545, 0.09638627242988233, 0.0038517501558127, -0.19590208522310115, 0.002617777062963719, 0.1708298995858858, 0.07093464878527649, 0.05827865998667158, 0.0479207282003164, 0.024537686310863577, -0.22054623515677976], [-0.05460399002915035, 0.07692754396621629, -0.5506559590932071, 0.133309734917292, 0.0595650291737138, -0.1901783122408499, -0.13190583556187874, -0.03621495891961322, 0.07378593971851795, -0.0660888649663387, 0.20762512818189802, 0.07362788265471513, -0.13696517814248774, -0.08244352700152388, 0.04082992317539239, 0.1286138903698331, 0.12088409918642382, -0.017197189554814987, 0.02608766087344049, -0.0032751530245354117, 0.1448938896878489, -0.1738928904162276, 0.10863766915125758, -0.3275595612003047, 0.07911863831765736, 0.04603162458936328, -1.563420337754938e-05, -0.37712125303778393, 0.2768500656485684, 0.16088569217613433, 0.0050611162005720885, 0.08108743028071415, -0.16611838780251015, 0.09252878237031283, 0.27806440130650867, -0.20732361777222444, 0.4759320095862388, -0.0764938608129044, 0.1456009201042344, -0.14705649597042927, 0.068964267093421, -0.2249332963250043, -0.11419475656839018, -0.039333374630580065, -0.11612354899866267, -0.042784495108614394, 0.17306242622968745, -0.22634163886429806, -0.21025866379747518, 0.008251718565807687, -0.09974067850436992, -0.17790520712420993, 0.025424472511308974, -0.09948606045813384, 0.059565639851394785, -0.007005004281210669, -0.03422421105197967, -0.01273622260128622, 0.18249951460327193, 0.23144992329857966, -0.027890960386103357, -0.1799397567346818, -0.2671856436331769, -0.39475320794657526], [-0.20751906818494234, -0.15930887469776703, -0.009505501771134704, -0.32606735856680985, 0.25238072074265816, 0.1811640717835628, 0.22580568267322138, -0.08691037276398092, 0.037223929909357995, -0.16890586759475484, 0.2567705930189616, -0.21985973855452007, -0.09540698135402635, 0.24946357509630676, 0.441504659799115, -0.015882063728857483, -0.07885044588600641, -0.4443735982146049, 0.3039130908184175, 0.04525984298944507, -0.32814964363201604, 0.14806228262292054, 0.09222308434056335, -0.06244408738683447, -0.09051485479573622, 0.1302972194220411, 0.040591442992773945, 0.08636703872976557, 0.21780087090673353, 0.19968843942225686, 0.13759645141958948, 0.10341009474747524, -0.22597512287157548, -0.21006095562072716, 0.13909914137926482, 0.10762575853345979, 0.09224850180653217, 0.14253286036295873, -0.09179469285646426, 0.11447740244337583, -0.17385584771434529, 0.017195287902042625, 0.15130348175922703, -0.12462539904511818, 0.35112603879558724, 0.20002644998868063, 0.238431843446991, -0.028748985016865933, -0.2513982760195658, -0.12362872223972089, 0.09743079292760924, -0.04278991075309018, 0.11186133703740132, 0.02298501954531594, -0.10504896119899843, 0.16388468905674794, 0.22725043153224417, -0.12352549023236926, 0.09316099736165066, 0.03494047537597096, 0.049631386598700755, -0.029263168996389945, -0.22137596253613878, 0.24861867610978766], [-0.1844827215008504, -0.15393542313780312, 0.11601334654900643, 0.031797672683194424, -0.1407396901298287, -0.11625868773798399, -0.02805214652056975, -0.07708937172725415, 0.11427552257078531, -0.20582550263338154, 0.06417354254537032, 0.2705199543824613, 0.0355828772991429, -0.15703798956058235, -0.12780880501294373, 0.007704636432027239, -0.1103593715929221, 0.21824890965044344, -0.32535105897704514, 0.28967797641320664, -0.35797100724362546, -0.00726973783965292, -0.19147537844232929, 0.1449852487611824, -0.13683111539361287, -0.20030054505125486, -0.060110819573420356, -0.07266354755552673, -0.34207350232965017, 0.0803020502794988, -0.42296431177242555, 0.20794902261138373, -0.05834777781891242, 0.1684243691518796, -0.1061746823544709, -0.1402206264968516, 0.11521388260932922, -0.10326637472543995, -0.27358106797688597, -0.015393162318144514, -0.24343381409237558, -0.0022855636086654527, 0.24373308015973355, 0.17016309515433878, 0.0003273429119954385, -0.029300770513528064, -0.056010841457579334, -0.11270316816613114, 0.06275266321464792, -0.027912801992837376, -0.06747275756575276, 0.04773887726715594, -0.35682115729229863, 0.3458567074440692, 0.1113832102497135, -0.2463814612417738, 0.020305144218888294, -0.19959458994132412, -0.09533364742028382, -0.15823448580006455, 0.19299277239977664, -0.33957894234195396, -0.0626484946318909, -0.29152372798711185], [-0.0036176841008127986, -0.0561913619072387, -0.24867170850420914, 0.2545076449496049, 0.2763726136824896, -0.09960732645619721, 0.09238020976856325, -0.026260254363543352, 0.043053550493600413, 0.27082140023502566, -0.047443342697540046, 0.31678157481611524, -0.05066373658093957, -0.01648731715125709, 0.3341522371512443, 0.04865288846588672, -0.35921855935837926, 0.03974649454092882, -0.22654330100179026, -0.2939371697909633, -0.16662082490104216, 0.05761467139098584, -0.19678403396011004, -0.24772012321372167, -0.06708837246287044, 0.07171992352912111, -0.12310321516387912, -0.23096755853306852, -0.3840139234145371, -0.13718642125591238, 0.14947681701996512, 0.1771505538409745, 0.13964094494918008, -0.03091012625824473, 0.0229572007583896, 0.22412036192383325, -0.1535515106013791, 0.06444070117412708, -0.33070105626738266, 0.12080045469923313, -0.0797316242509725, -0.2041349104328121, 0.1367526520216872, -0.19636876605378978, -0.15323625346776598, 0.2716794984229742, -0.18491914078379182, -0.11589098701261918, -0.12078507081972516, 0.13873083623929183, -0.3245215444424153, 0.22109969486498143, -0.043026878833732386, -0.05602225650325078, -0.1585100929125707, -0.025690683907643636, 0.26006133899581796, 0.03767235756132858, -0.1645598044963083, -0.06136446978543676, 0.0945339907850092, 0.015063908986020674, -0.04549213677239181, 0.10686719657976292], [0.06367041508268921, -0.1904714659582722, -0.3406745874391575, 0.0883015817100227, 0.3271646740374211, -0.14507166899868515, -0.024996670405804885, 0.23937640860005446, 0.3076693050123257, 0.010377752546807886, 0.22144732218658808, 0.13074827968581992, -0.09815476960886461, -0.3568802287594872, -0.1608473101777018, 0.06402757972218462, 0.07256321582170498, -0.09299643362862152, -0.15180242639277858, -0.2829438135095616, -0.29742357197685143, -0.02130975089696927, -0.2778241787527511, -0.004427119691141544, -0.14160949788801977, -0.07527373628788893, 0.37300776940760366, 0.008899287062169817, -0.06078444445747124, -0.030890133201068554, -0.26041404731159634, 0.2347880472037208, 0.14787601216280746, -0.09390898219919291, 0.04006045841297839, -0.11867368421243239, 0.06915875464907224, -0.237155266108476, 0.04707366894782625, 0.26523383643102466, 0.07858937408047179, -0.10429430273324337, 0.16792128672457296, 0.34482735342346205, 0.12957713371092675, 0.01572400407929389, -0.14213094928437245, 0.07639039653355395, 0.3383905685581512, -0.3577089340180854, 0.17091063480137045, 0.026045523511281664, 0.26756174502909463, -0.022244998521047214, -0.386288128279647, 0.3479974523891961, -0.20495403859456854, 0.14046694951572355, -0.022518876945823232, -0.008577926593144866, 0.024184521555015135, -0.09838171551026192, 0.03104340863600935, 0.052335481119998806], [0.1414916515834351, 0.01640115283694218, 0.08886492907245995, 0.2898223056428045, -0.15454223201435158, 0.02292147074959441, 0.09858293631774563, 0.1978571464420354, -0.011512547561814043, 0.017377687130709658, -0.05871527568787802, 0.210898358096273, -0.03471209786321835, 0.1242465046624474, -0.0034510460569108447, 0.02934110784124396, -0.227071857667123, 0.02996870589460578, 0.00014080462511367135, -0.26299785888794747, -0.10550415506672804, -0.07716313786825431, -0.27125064705263535, -0.20515754798797764, 0.29612752701261624, -0.16151103406998144, -0.1460017513731558, -0.2168963564085937, 0.2258266901992251, 0.15992181231189045, 0.07931310266801099, 0.031432826323811225, -0.060109671259569716, -0.04858920788167133, -0.11735161384339182, 0.11251643695504321, 0.13196492339887383, 0.16850695278883465, 0.40450944239784903, 0.17177527993480524, 0.11593040185949294, 0.19393582859435735, -0.2710937314482972, 0.001929030554433788, -0.24136930157206146, 0.2988341027166922, -0.08756562192769733, 0.3479341580304287, 0.18335334731745753, -0.07243686465893819, -0.2730198993637811, -0.1819101938839885, 0.1799684109419887, -0.05402387486628627, -0.26784990964541033, -0.007240560892055056, 0.30682058817075597, 0.3326703030625966, -0.05241922857339373, 0.12695490864843018, 0.10943809183135506, -0.26990326269630394, -0.07019165613817668, -0.07649187967100757], [0.07142447324169222, -0.08998670165660912, -0.24504847845243125, 0.05957902498216686, -0.11313775304502274, -0.21674401789939696, -0.21652650106340252, -0.03904749034581329, 0.25667069697674744, -0.030688845408211676, 0.19018984188223526, -0.3971972793602352, -0.14799408412302095, -0.22235321309032938, -0.04824477006882328, 0.1377046858230838, -0.09681143472937406, -0.21817065423386273, 0.16790303872334628, -0.13423896976686206, 0.04946803818108226, -0.1171443081444413, 0.09200789631860762, -0.06714834889254802, 0.14222487463523048, 0.11017114455920823, 0.39338598286533616, -0.0131640842559156, -0.17216120402419482, -0.20524347323238834, -0.10532679414470623, 0.06744969479619409, -0.12455664934504376, 0.2688977046348915, 0.035220508823771354, -0.17257426728322822, -0.08122798940229842, -0.11249827442143216, 0.03346770205206756, -0.17976879552111383, 0.22682203829198844, -0.06300606774660127, -0.04190648196275061, 0.16320745988760407, -0.13188423290893292, 0.0011383582092991823, 0.31702159771571675, 0.07411327748147324, 0.051735781647344374, -0.08287272356585372, -0.1746067961836185, 0.309822566908177, -0.027743246940330594, 0.33572549904795657, -0.12083412298101713, 0.22414386171560907, -0.035957588820541286, 0.07619857825267817, 0.21526965031724185, 0.0817214408308114, 0.14169124651453205, -0.2766563903115814, -0.07986442761167409, 0.3613811512477081], [-0.04059641931287282, 0.05553053876687773, -0.024566301236709588, -0.10175808440472156, -0.2645057269119408, -0.20195201040117206, 0.29757730046347675, -0.012214828790046647, -0.2102674415449303, -0.16136441424826933, 0.1538459239648157, -0.17001830495551487, -0.11137671010285406, -0.19714967372054418, -0.22224657526302138, 0.29452890007052274, -0.02711391573119544, -0.05465776988120031, -0.10630258665345009, 0.12543980931993803, 0.014283528487388161, 0.05175476265955904, 0.02467317330081725, -0.06293346335961017, -0.0803254577717322, -0.30664323735128823, -0.08624156566931664, 0.3866168810420417, -0.21919902721279214, 0.00047316628965931586, 0.05884263860226564, 0.21331591693421878, 0.4732553885606152, -0.07036978667692924, -0.15516592547405456, 0.1872460099224239, 0.039321339587052376, 0.3551343519629077, 0.13401182823850682, -0.11458999527254861, -0.03409122450114354, 0.07470350170538252, 0.08772626950089786, -0.2008297151061663, -0.33753669088716803, -0.28090730460476965, 0.10867648266268982, -0.023023579987447737, -0.32431789076249423, -0.0944410554740197, -0.3403270010144863, -0.04515883643813514, -0.15301940089605912, -0.09832377306683275, -0.01815197599794155, 0.035887003908284885, 0.009497071689508222, 0.23500025279745956, 0.423834788625795, 0.16158626607488408, -0.033624716273821055, 0.1327936234414209, -0.12548898277901, -0.14683355213939261], [-0.1535664005674686, 0.06061647238980744, 0.2117250104717304, 0.37794528890835805, 0.23862153154605434, 0.12672643679405146, -0.1216577543498172, 0.010157724524422226, 0.09910042443949392, -0.013579339175840428, 0.33556393449252253, -0.12980695110129797, -0.12048873271783533, 0.07017587096523402, 0.35747909295060676, -0.3257161055951856, -0.13671725771972867, 0.22799095227859467, -0.12057173139687401, 0.376689905158385, -0.1512617072817133, 0.196205554241884, -0.004920333463657676, 0.08441193549810885, -0.19114290286919833, -0.28294481749987144, 0.13916827391370748, -0.10143633356285078, -0.1636605769803635, -0.18472555689249814, -0.18429569282101926, 0.23584280999838178, -0.16820112287034644, -0.08767117126707007, 0.3562445681112258, -0.07197887604612391, -0.0026382527165384117, 0.06638115046039506, -0.06398074117740295, -0.13035378464197994, 0.22560971763487334, 0.057379081121605155, -0.10270449375170797, -0.24115643656268462, -0.21003261112373883, -0.1849572986243276, -0.3739170142942515, 0.20079126139655532, 0.02823600659109528, 0.0918532749422449, -0.25256559500271164, -0.08850650687446555, -0.02747086670989245, 0.015401959758160843, -0.020320359266058723, -0.22309561415349605, 0.19591431480924132, 0.11242281648302019, 0.01603584895105557, 0.16250941564334967, 0.2151060308431949, 0.26422384690617795, 0.023835270504249727, -0.04952647742947768], [-0.08481856825508492, 0.1576584670867646, -0.12400756509551829, -0.16153418538477488, 0.09802233315225943, 0.09268418561214053, 0.11270646248267847, -0.15005905469965516, 0.053255670420361424, 0.16181161845155193, -0.08453120712228468, -0.047318080244539866, -0.052174789156592356, 0.26867257618269813, 0.15963004182200685, -0.23698337964096527, -0.26878178891816695, 0.11494445612736309, -0.03740553805401457, 0.09422133944071473, 0.047019713155762546, 0.17853973056622002, -0.287201551596686, -0.09685336143553418, 0.04448328198794534, 0.04182266614394664, -0.16758430371025396, -0.09320352520584209, -0.10336804818024818, 0.008006025952123753, 0.12425098997270673, -0.04869043547895524, -0.02705632401324852, -0.37001979852402866, -0.1875516298041227, 0.3276598989370504, -0.30312140698936646, 0.24145625524452272, -0.052506514006867205, -0.3466950178019231, 0.2576808743843975, 0.22724057963243302, -0.08865132609156696, 0.15346121712517763, -0.06282943340920036, 0.009027725501573925, 0.029397840987213108, -0.04068569023492361, 0.09270966009356119, 0.06815198185788528, -0.09242361553709674, 0.052436485882176954, -0.09195303680262347, 0.023680061115437065, -0.08781521334418597, 0.017243699887752668, 0.28335508126672854, -0.11545624898876394, -0.25825361606975206, 0.281831001180882, 0.051809201796129044, -0.11495433476238327, -0.04413316874558055, -0.16151927324063173], [0.16797195597632608, 0.14886842742668285, 0.11338093328942403, 0.031532314638114095, -0.3403617891910948, -0.2066051134993772, 0.05218639356679299, -0.4702055156828713, -0.008940971697210412, -0.15085808279645133, 0.12616153200959443, 0.009392984070055396, 0.19276132336061147, 0.0633977301608144, 0.02702434549706331, -0.1709625323774295, 0.1466219311370219, 0.44186463506829526, -0.3011230079761375, -0.14993587334983882, 0.28895879266428875, 0.11475295526820829, -0.03131251020802668, 0.1589950460603285, 0.053213680211921896, -0.11236086910072228, -0.10287573711389657, 0.15059192318964398, 0.06122267062415504, 0.2074413444155781, 0.11758889989991174, -0.10494535245970721, 0.2741460828697596, -0.15241086592133124, -0.07200520227455391, -0.13168003213688365, -0.24587777773407754, 0.11449961504683617, -0.19369180249582127, -0.12444770173715006, 0.16752916630620712, 0.15587486225129862, -0.10265495273938932, -0.22815408740634377, -0.018633192858950185, -0.2787156365437544, -0.15931371763157934, -0.07228617254430184, -0.0017925592087789453, -0.08730960166302021, -0.01515860491099276, 0.24324714814023748, 0.14365230136797294, 0.25145935667131725, 0.21619079239943606, 0.05921951000129605, -0.21086195400361576, -0.24568111334264212, -0.0007562961832210326, -0.0833614776335121, -0.1631695766310617, 0.1139222627195154, 0.21922045438230137, 0.011112949556595775], [0.015175372946014884, -0.0963175392997521, -0.12164687898057214, 0.3481906379408703, -0.22208120676220838, -0.02891516328081996, -0.07957669117483254, -0.01973209375780424, 0.1849821053699646, 0.17575807842296243, -0.024834295238010066, 0.19888369640744055, -0.1366325587876546, 0.06268250497978449, 0.31387043514891766, -0.10209479919515992, 0.03649260739628132, 0.2649250727707452, -0.14918215771985724, 0.011753019448802589, -0.05579684244149402, -0.19718174495819296, 0.07162477702219713, -0.1492601614537755, 0.29238284637400624, 0.002737719031861539, -0.03715127843930518, 0.006708811012831964, 0.01779511688681669, -0.035182436513391105, 0.009063591542238895, -0.1016171349897017, -0.08830435658520434, 0.09318137228612962, -0.3779026104464581, -0.14124151346200234, 0.0015126819788252924, 0.06012155877822754, -0.069518318719982, 0.02303555422911434, -0.06177830872291442, -0.32969979620683154, 0.1659356415143575, 0.04716457710524683, -0.16997192324215094, 0.2607654288206173, 0.11986965362820202, -0.1109131818543593, 0.19565526902917066, 0.09517621853234022, 0.14652600175515929, -0.10667848211232481, -0.09802090892256506, -0.14537160401816426, -0.09566001974772959, -0.40887882912451784, 0.1910983354820883, -0.2089316725780657, 0.09939528300863792, -0.22991067546804458, 0.02042422716856392, -0.21060042286927053, -0.0035196271954685636, -0.28279432138592936], [-0.10458483954828282, 0.1186613006078759, 0.037809878221993845, 0.030102347045804598, -0.15182940614801355, -0.38514270206812323, -0.15734444305227743, -0.09023666671519119, 0.2630584954656626, 0.10092676459935576, 0.05920553240683031, -0.10102919399025935, -0.1243627884974031, 0.11496879071480545, -0.06351572704223454, -0.05945024389202674, 0.34085868763646415, -0.17345187701592457, -0.049755821746844724, -0.04108876241395444, -0.11514054799403729, -0.24826431247519692, 0.2295813545661648, -0.2497515256124755, -0.16041958993710448, 0.04761870673295274, -0.21977348392139165, -0.027513621786114422, -0.04502492495293224, -0.03746118223505857, -0.02284228929091304, -0.24895890801554818, -0.09711930605567816, 0.23139366018802066, 0.21024360611943574, -0.1005478281847173, 0.1918811164046246, -0.1641079075196304, -0.2409465651995852, -0.3566237586012457, -0.19674418641529995, 0.08214541121509612, -0.05291350247549122, 0.2958501085253505, 0.1487005568647058, -0.06254143952143305, -0.038047558397108355, -0.03805491047452631, 0.17917214913386692, -0.06804886588958599, -0.0025246473152410478, -0.13032788641463788, 0.23441620242438363, -0.06096195381711611, -0.11378381888643069, -0.26865344902566873, 0.17388673374585617, -0.10436989825722551, -0.00882809144394922, -0.0725874515011474, -0.03238237272644567, -0.3457220789542405, -0.1386937044437353, -0.1913293599677949], [0.3904214552650154, 0.31612580026542575, 0.04588637657469098, 0.3386705573331338, 0.2741632962449782, -0.18487463381470665, -0.20735254716874332, 0.030199901239179143, 0.01887384282692918, 0.11444832414157324, -0.0772477904769269, 0.4608782662781598, 0.03658567204438409, 0.2319031963988691, 0.30900527767685715, -0.13312736638425168, 0.2149663445436301, 0.32231077539112196, 0.2657910562093176, 0.24681540944888142, 0.041027278195850704, 0.07725737574695705, 0.32875110170291966, 0.1457907623004364, -0.021913213524450758, -0.039682967233284364, -0.19931139268120054, -0.08399965482010749, 0.33178011601247764, 0.020960760618675255, -0.07217803971702265, -0.050961692635760766, -0.05383948324355195, -0.010973604494833263, 0.20355611074038288, 0.10354224357448272, 0.20579316228049066, 0.13799414333038051, -0.03638750567992485, -0.4075209385138896, 0.035774471049036013, -0.08154460985950951, 0.2884818571948352, 0.05862397716033053, -0.15960156283316995, -0.11167734293094689, -0.1463362679026029, -0.12843747567164138, 0.15482397453832542, 0.20377629732668892, 0.09947631652885258, 0.13317789349032202, 0.29545491038296795, -0.03554916588867114, 0.4132406450331068, -0.2224272861240149, 0.07324482484180518, -0.16985588984382632, -0.27524249721610405, 0.17069484736855783, -0.33222874406739494, 0.290859446058199, 0.29732868374927635, 0.02927429326130837], [-0.02040408132509787, -0.33568054381402224, -0.04409165921668965, 0.2565895339105633, -0.09237266024159174, -0.17218826655397876, -0.4093481922230336, 0.2272849146106947, 0.07281633373215664, -0.05354383884028359, 0.18450641451314653, -0.09399062097580012, -0.058803290656123476, 0.37545090573507817, -0.15836688397308687, 0.05140307269265765, 0.03940434836985572, 0.017306805080217123, 0.001208700966339975, -0.23120739630423826, -0.024303335939122213, -0.04291361604419444, -0.11833156441278153, -0.14742439548902805, -0.17706436771248155, -0.14295160649051977, 0.07233441823735619, 0.006552245128361927, 0.29273843422930385, 0.10657405170947545, -0.10504625277956856, -0.09526671453065583, -0.03052092594932281, -0.061961738519166, 0.0004969332842737793, 0.3431305905379896, -0.026838313805409575, 0.023467378008113413, -0.2105733801744253, -0.2652172207219816, -0.023960204234938477, -0.07369019805705955, 0.03578118789056666, 0.23996055960735013, -0.090184809844612, -0.12094376241925216, 0.1728316243787162, -0.07699347964272163, 0.010032822640830585, -0.01863700475126064, 0.33220782165229135, -0.29752757492517956, -0.1453113900960105, 0.11505304661646315, 0.20480816043237485, -0.18179364831637362, 0.20863211458938744, -0.08323458235738841, -0.12822513695915438, -0.11131511884213857, 0.06263415751512501, 0.08544078403606122, -0.15459277704125887, 0.036369986298078215], [-0.06756767842960394, -0.21106412501989713, 0.2989795125706404, -0.16874301472109066, 0.018098259019292247, -0.20188286359447796, -0.07243130312034922, 0.01753000561843207, 0.029236104318714602, -0.18103773463955583, -0.01994895209460841, 0.061837026727117356, 0.2712667023505335, 0.14319581807109275, 0.19501548308196895, 0.11191042238360947, -0.11796901190138143, -0.05823694773015415, 0.1612621518154297, -0.12070950809097725, -0.19659826331424962, -0.007724550210859419, -0.31911670473867054, -0.13831623738455026, -0.19863831284331587, -0.06652078957664351, 0.2317402855934622, 0.4105281875291259, 0.10670638137719471, -0.1666813599778693, 0.13606905097488137, 0.0743476996662762, -0.10656017280790966, 0.15891606604428507, -0.08097985858887383, -0.10147738956405955, 0.01062589978553504, 0.12360004959372088, -0.06286894592140851, 0.06882874016100937, -0.32307830579795715, 0.05678436922940579, -0.0802140051023158, -0.09016099089201379, -0.44348779646150704, -0.25629361252901917, -0.3084982305921162, 0.11006348807975837, -0.16262448096360946, 0.04822466251609789, 0.11658401988800068, -0.0943628131710937, -0.18007409215171147, 0.21415378364409327, 0.04636686591671638, -0.21799143767418488, 0.0881215682238674, -0.1152745939193944, 0.09204846502911106, 0.1488278942657055, -0.14327054859158553, 0.08816925988139158, -0.5323735116777661, 0.09650181134280908], [-0.3465449142966728, 0.44474661571328644, 0.06182249983951485, -0.107179864949082, 0.19967275722490557, -0.1394534483309728, 0.022838133564308444, -0.04937939645758947, -0.0007720646087227855, -0.09995948939540569, 0.07409844801654314, -0.13202919288984244, 0.020036637072281677, 0.11139138896694206, -0.10397770297280556, 0.1471921880448962, 0.08448709225638057, -0.05341263868467446, -0.09041145406588932, -0.010011056815281817, -0.07873799014895853, -0.09225977027597076, -0.025904786687586657, -0.03823925372677352, 0.02106093209961736, 0.2516385614043817, 0.1607875890368076, 0.14998978966215654, 0.0914713138052617, -0.1075176642136908, -0.18654001573215181, -0.04065626431131152, 0.2089514444966926, 0.2103490167352755, -0.2571756164357479, -0.3146163317745747, 0.2963533616024116, 0.2510799032920641, -0.10927745913263967, -0.010012066280871765, 0.0091802988132177, 0.1969708018975901, -0.08762036286080012, 0.10413127097160925, 0.04978879659539247, 0.052658090824841824, 0.18567571943496583, 0.028369491757104244, -0.22665587402166457, 0.15878450300659075, -0.08680571734869608, 0.16034285415933602, 0.04465551224174895, -0.17367708632389062, 0.04376038111289751, -0.1134636061989466, 0.04553189252462447, -0.07011319924334841, 0.17995923909752268, -0.12440611970494597, -0.06444622581822511, -0.12400571157548841, -0.1408679667325105, -0.04787686308460489], [0.03782758685719526, 0.0985593984530572, 0.009294801605824387, -0.07988818247235055, -0.2754733185989257, 0.1655437063792155, -0.08981146015178101, 0.07099316887470639, -0.18875568163819836, 0.26754233649264697, 0.12113093630467599, -0.15772573137190837, 0.060261754998989586, 0.2370509526022161, -0.03156595126249097, -0.3004136827259033, 0.08007396512003843, 0.32655365988297236, -0.2823088733604327, 0.18029290786266283, -0.040988083170212436, -0.016517592780722054, 0.03248744338737203, 0.002378614585982639, 0.1527713158032706, -0.2063382920067558, -0.01534161831475437, -0.16510365310342737, -0.09033290934510156, 0.5240008933861418, -0.14995872083893247, 0.07948642856610479, 0.05436604244260113, -0.34077712954230815, -0.2039707162771918, -0.32167575402866655, -0.026969210885102995, -0.23296778291596237, -0.15829469136815674, -0.27109195701440075, 0.11897150342775135, 0.10523916152633625, 0.2612732602831336, -0.03174287767717171, 0.13069217264891284, 0.19987046306563017, 0.36934170486609924, -0.22067247198475406, -0.14387571366694885, -0.17306988556663389, -0.24491631613557088, 0.12634555582386714, 0.12723153691410174, -0.24742534117135936, -0.19220157816403158, 0.055640160732619605, -0.08794491222918956, 0.040836727525211704, -0.03070606720705028, 0.18809013141337796, 0.19894534990113266, -0.32474053652095314, 0.23998586659376936, -0.08535088273410381], [-0.20047051254182108, 0.1065798142733414, -0.17318798749210587, -0.22225074810821233, -0.06098360013550232, 0.2406304729405313, -0.3213622241585502, -0.1840801384556257, -0.2990266294118566, -0.21296825879745546, -0.02626103739182016, -0.2333099637233202, 0.054869015942161835, 0.01870832177606184, 0.12767753498131687, 0.33941247712352834, -0.1747396164432619, -0.08501840148381924, -0.10682708301400043, -0.07993197219598902, 0.07130506909991956, 0.10603988248581699, -0.08943904040670755, 0.23541412660842825, -0.0480191506604683, -0.020485449645279447, -0.1573157568047688, 0.11808210840345551, 0.1318232283466345, 0.0004941474075526556, -0.3806003813604827, -0.043107237586459804, 0.10487695453156676, -0.07376638906716587, -0.01709926517346901, 0.09060642337882535, -0.32162611692616155, 0.14048917121451512, -0.3347620770282183, 0.01689118874270251, 0.10163947872935088, -0.0887325369299459, 0.08258237070984487, 0.08730225974592175, -0.09399784097805694, -0.07502222934676422, 0.14210946971877753, 0.05417949333492948, 0.1061524800326347, 0.07262582995437097, -0.10064408313943587, -0.1868477139365726, -0.18055680303630597, -0.23616459724990607, -0.35511145374170666, -0.10430450649278075, -0.15924167813444653, 0.011373934853228398, -0.04035521277051384, 0.0659640615181855, 0.1990215995570681, -0.17340580971677172, -0.04423761010106287, -0.06730616938648357], [-0.15438909589537883, -0.20891148224651915, 0.00837895241380665, 0.0427368820288065, -0.04973742579740116, 0.09851047372760394, 0.052693143416159896, 0.1774847868254548, 0.008327303728360283, 0.027005891319432023, 0.19945901853029807, -0.07488436729164273, 0.07878204563020438, 0.17562921566885661, 0.15764103734413618, 0.1456756215898731, 0.11219935998373495, -0.05175557276416424, 0.1734005824092783, -0.08705942664424317, -0.07588000477534791, -0.03704959284009261, 0.09788213741159421, 0.28350485010221405, 0.23111028675793407, 0.2226273238391988, 0.12151515287110853, 0.025331096478506395, -0.1543490974538048, -0.1019635757239889, 0.021350348438094406, 0.30048287226103515, 0.10043789651584202, 0.06681801322558037, 0.1027837102651623, -0.2357800135316571, -0.11758462311771238, 0.09112499965272919, 0.17844839696833908, -0.10937138756878514, 0.09827636732791373, -0.3360863452465268, 0.08941672808336452, 0.2523853163881059, -0.037871210314890436, -0.1099932525326674, 0.47382566982763724, 0.0061887459092114855, 0.2459711550597171, -0.11655741805381432, -0.2116829699438354, -0.27233511250913106, 0.17917537122268085, -0.292878389232316, -0.3528623632946629, -0.11104449712678058, -0.06883656359421161, -0.05122016918095609, -0.22374612709799035, -0.14737989146546115, 0.009344661343285661, -0.3392409835600938, 0.01568582741941542, 0.10701300825918542], [0.24064546658955885, 0.07032887535895067, 0.1948418334763856, 0.053932311741888346, 0.2489482127927871, 0.024147469034709462, 0.3730623733013614, 0.10756024667624232, -0.09949328391169969, 0.013196382400115962, -0.3103504154744669, 0.18629631591473192, -0.04164746074661724, 0.2189246845498127, 0.3956656581305537, -0.0020023567294754244, -0.012333568333265321, -0.051327636748893374, 0.06968946880687713, 0.3734750414120881, 0.22820028464838182, 0.030699337574468296, 0.1797419692955085, -0.38187243970054346, 0.024207644118955852, -0.4945455643320113, 0.18231681247176973, -0.3833103500134095, 0.09938599007310084, -0.1698289082343274, 0.45903195453966195, -0.23140746347948665, -0.06821910179697975, 0.2957591817912075, 0.07504255754096346, 0.0349043384691604, -0.041437540702896646, 0.018479577636146147, -0.13009854841042245, -0.02198767944754684, -0.007791163423382657, 0.13475141662266238, 0.015742889352016246, 0.15095824936244404, -0.25968053178645395, 0.2429766280909963, 0.06778263460098362, 0.292812009172076, 0.07353251148595391, -0.02935655106999096, 0.012910500663502272, -0.20073180956598352, -0.059765754900435716, 0.029840876324748824, -0.016130937540831072, -0.31245558976233634, 0.0889668348713101, -0.17590816794271782, -0.030268219531722443, 0.15025845855514838, -0.12346491101930022, -0.05229023134664582, -0.08671575171269372, 0.07798783539768465], [-0.20520530231601836, -0.2805119755974303, -0.37130228203613486, 0.3892497065500657, 0.10978503069782208, 0.2888442588123567, -0.06222961638575734, 0.20074136561819547, -0.07861660450224202, -0.23615523724906942, 0.15022962217524827, -0.07010485037353276, 0.05312429000098812, 0.07505002008488466, 0.10960332797500817, -0.0389855389585226, -0.4207674643903475, -0.22540918993786072, 0.10297507389414519, 0.33342338958446643, -0.0028190431577725817, 0.23661443372980429, -0.4231472826431601, 0.2517300990841177, -0.19544139367432278, -0.1729713048427068, -0.06349582561885626, 0.05458163248248686, -0.20885181242420625, 0.17049945231958746, -0.2481544442929959, 0.019789875714383714, -0.16156222984797422, 0.037225257470664234, -0.3583818360941489, -0.17380075582198654, -0.22033994475257168, 0.1634984887276574, -0.390404601489089, 0.3155606068490365, -0.09034346294728265, 0.038624338311192635, -0.4482258863484454, -0.1394530148868625, 0.15265816693448758, 0.2620736458539629, -0.18315411311414628, 0.20568938791344835, 0.01793341752337468, 0.10722700968070445, -0.04456207034896598, 0.271525137588831, -0.31293888768460926, 0.11220023397451576, 0.24512093520279452, 0.12211291940809609, -0.047452271476296215, 0.09662174107651321, 0.05428603807550763, -0.042445732959648215, 0.1899584178682348, 0.21849629071235083, -0.24516652896829905, 0.31691947724960556], [0.00736532857014945, -0.043024484011926406, 0.16368942607055564, -0.11615890964586884, 0.06901442678222465, -0.057264168406443286, 0.0016278401618445106, 0.07428217576264279, 0.000940335250477025, -0.07712852529441307, 0.20449983004456596, 0.07241124305773129, 0.0965187187040339, 0.15629541146685544, -0.36341511458060183, 0.16486180213732118, 0.38497108280174525, -0.2039757447659201, 0.44860640765191157, -0.3341742951297741, -0.11196182664539707, 0.10785372833760132, -0.11693481068217698, -0.17224795210632918, 0.043108354440118735, 0.08435371496385291, 0.13772254613231366, -0.03995139740837955, -0.35624808953903275, 0.09338047285486917, 0.23763227563952047, -0.08551450615454739, 0.13567322892825084, -0.24484762324764084, -0.12985691236180674, -0.21314807797122948, 0.017480338859726018, -0.2083249093815601, 0.30967692124531165, 0.11256796505981641, 0.008737595073002221, 0.13642540733469313, 0.2254126540997637, 0.0690741753715835, -0.14055549716375784, 0.015096779219158363, -0.08977687220073548, 0.11033874000834498, -0.08884238923544979, 0.008788887755053376, 0.17785718294734063, -0.13161690316830124, -0.04558408889490468, -0.04534918562807991, -0.15238082645211193, 0.4368293720409754, 0.20403860339831464, -0.09761222557478179, -0.10179180966992621, 0.08543951470519164, 0.2258084957042778, -0.04813286657414972, 0.1497340996494938, -0.32802909721273377], [0.06843414532373925, 0.21248433119207982, 0.021469263554232284, -0.10206187434836261, 0.17559926444916044, -0.1670302053658876, -0.03369403209074832, 0.11500523202150195, -0.16393134789034453, 0.4406184671342937, -0.04686508687028865, -0.39439897651682965, 0.21869437471062123, 0.06839237632592347, 0.008762637622181746, 0.08339216032623906, 0.08443816677952423, -0.040544963102581766, 0.12961861453826454, 0.04298761785611657, 0.18037908979431005, -0.10579402040450558, -0.08172625096515714, 0.08933824067263044, 0.14196277675876945, 0.015046988077803573, 0.003946339524309907, 0.1692310861518862, -0.14451753855676083, -0.21912270628628355, 0.1621949035262712, 0.06455015387277983, -0.13122985608769527, -0.05239409838656093, -0.1255119726695529, -0.09563102484485905, 0.23862822326176547, 0.010877029786700127, -0.18366088891302026, 0.12213312706565359, 0.09708144930442571, 0.010399602155875057, -0.006115757801337421, 0.09343431313850842, 0.14676916363191092, -0.02164604917125649, -0.1179320558707708, -0.022412397195886544, 0.14948957599094542, 0.1231348333861915, -0.08593351976994583, 0.5160150013861013, 0.414040604473077, -0.19262055371675837, 0.13187970259186602, -0.19614836843505215, 0.00851441497986841, 0.28855994036452337, 0.1666908742599793, -0.19420711319929865, 0.09812516201974783, -0.4677515682460203, -0.2878980017681258, -0.013682926589947486], [-0.14609311951609466, 0.2632223324300213, 0.0453230637636254, 0.27439878192522815, 0.014848264789148148, 0.04565301055526183, 0.05211145288349909, 0.36383608985265453, 0.2859270097180491, -0.2105643178240706, -0.04115868488172546, 0.26957962249282225, -0.2273046624805839, 0.32743432828484936, 0.13241795296418377, -0.164336187099346, -0.4184863166503517, 0.01255423152181273, 0.32178186562566863, 0.02556617052907934, 0.12357676125279249, 0.07992574120843159, -0.049615927992242764, 0.06781370633276285, -0.0743641512075441, -0.06801742310313426, -0.16680490125209438, -0.03971457434478676, -0.05108529833515367, 0.02429297062542229, -0.02237074809110885, -0.28139393350379927, -0.17897928379440983, -0.04648094721091011, 0.09300322735465495, -0.055996595133383203, 0.0781942345387265, -0.2598491701365166, 0.252667161945654, -0.023308241046393414, -0.13778541605624267, 0.03647501507397653, 0.08771722026077398, -0.03432687606418734, 0.146946103924623, -0.3008058380506357, -0.02790297078924883, 0.18771992357475756, 0.0677043734338708, -0.03631462018710793, 0.0672445068260773, 0.33356624667079354, -0.21858502738670613, 0.04724466027636797, -0.008632625514593088, 0.13548119482096024, -0.18322321223065344, 0.32669932579319994, 0.201707339970732, 0.47264192860538196, 0.02031792782392128, -0.13431033558486602, -0.3017188447351709, -0.09714651459732077], [-0.22435710026427536, -0.3689137707895708, -0.11329646906028844, 0.020119288429742616, -0.02510082724271516, 0.4663155500047882, 0.29668380112265136, 0.05168278503280561, 0.12405792043096357, -0.06942010463046261, -0.08398640134857495, 0.07345888185535396, 0.010635344362866995, 0.287353283518341, 0.15167027631932303, -0.15254509262950988, -0.27804146787497536, 0.05488383019621813, 0.22123574965163648, -0.19348556089565225, -0.13344987670926708, 0.4210204130529496, -0.0038527204296084326, -0.047055520477971506, 0.4836658664104523, -0.02784514370096382, -0.19067771324308824, 0.04888499147031246, -0.2130742395260838, -0.27962820211860046, 0.19844815724668255, -0.07735361051315381, 0.11930506507090549, -0.19525090271613393, -0.030597388215943492, -0.22190879576615416, -0.15429908477402157, 0.3120613436874688, 0.1840085724749761, 0.17545401129087465, 0.0019001603824208334, -0.03434631389971132, 9.116266663797637e-07, -0.07222579159758435, 0.11712670612402268, 0.008999834193107995, 0.03006618911797153, 0.5149643702939981, -0.005706249326086618, -0.16209086798217348, 0.30589409930999195, -0.15952022818005962, -0.1949738365266121, 0.31854043719708985, 0.06842996616956493, -0.13754452983433227, 0.018575136874941243, 0.3091955007352379, -0.11921894519252411, 0.12580787093472706, 0.43912407656112906, -0.03007846901424191, -0.26445647803376404, -0.07048866162962109], [-0.04955218909577745, -0.10048416011544671, 0.3270035588152749, 0.07053620731790686, 0.008835758201946058, 0.09383926082847485, 0.03791880873395399, -0.3316380783209322, 0.11441201244080265, 0.09539051581161702, 0.05369308563014241, 0.11955960293380424, 0.20139639449152108, 0.24519525218321395, -0.2744054575115291, -0.11979915889333996, -0.1887280659603317, -0.07025427357504435, 0.06990708574564986, -0.32846738490524, 0.1330989445191583, -0.27168466301750127, -0.1914661754749293, -0.21099370556793598, -0.0653435453131837, 0.06441581997745816, -0.3615592767273564, 0.2925626462773226, -0.16692580670607687, 0.36965943377116284, -0.2626897365821659, 0.16118520041953366, 0.1143220403268271, -0.05459610667509894, -0.2583472631652814, -0.08934135340420604, 0.23402115485359312, 0.14921614724180216, 0.17787441139446203, 0.2927770369299706, 0.0888897460250833, 0.0001055458420534559, 0.14343120236674986, 0.11969763445734898, 0.25677812184997056, 0.09521697269247799, 0.10163702125050338, 0.19993749531338706, -0.0075290087129203835, -0.1781532011806395, 0.0036778536264985245, 0.02944203585329546, 0.18245777056901138, 0.11257703824325972, -0.09469416477697733, 0.056635852884574144, -0.06245598276766266, -0.059341372743287976, 0.15403677518886022, -0.14266759426525866, 0.18900026824331023, -0.0750102654030995, 0.08897047051257582, -0.073097492490097], [-0.11709157921063904, -0.11128265349527743, 0.15052986298218024, -0.2970280768395367, 0.02085772439445725, -0.11353846938440411, -0.08953009533354198, 0.32304203952666116, -0.12384291723599676, -0.13057086868380213, -0.2728038036794171, -0.33131659719264794, -0.04265679779012608, -0.12101821366881024, 0.12239949570788594, 0.036832239087295916, -0.16168914758532818, 0.25939535280419534, 0.19447214957768794, 0.003557836318134718, 0.13940402343976135, 0.3033759320828147, 0.07002694047212327, -0.09665144158201927, 0.02192173439344158, 0.030949745345317706, 0.04869032039672582, 0.20474082015632405, 0.0563532926684133, -0.2920842986717945, -0.14134596445084036, -0.18819283297990752, 0.06350733535942685, -0.04739173370027631, 0.06233018930739831, -0.08747285440918545, -0.12856126931035494, 0.18040115139182575, 0.07328237368719874, -0.0409456034201304, -0.2939190700562664, -0.22745734290010575, -0.2094679998932441, -0.010891975494771479, -0.16812734030785542, 0.18985520963970506, 0.13125134233909677, -0.02809802819910427, -0.15083303421284425, -0.08777793211024855, 0.05202391593675318, 0.004041152679927347, -0.037309809295564426, 0.20771889570193017, -0.06309023768633956, -0.023816410110123788, 0.09824778000870242, 0.04987314598491142, 0.19124976336674684, -0.08372766580890756, -0.13762882215077402, 0.11589914769955713, 0.023294195426597386, 0.13932565857748838], [0.12758011397310534, 0.12483954568758929, -0.17242352923984644, -0.017227871318839356, -0.09549781667959373, -0.0826196850929942, 0.02180716933303514, 0.2679453135734724, 0.36913210163460963, -0.1455974429836836, -0.007403827588889823, -0.14247330037456413, -0.137861654249761, -0.047821826685449056, -0.2866886526305894, 0.06345992743354778, -0.19945803049388694, -0.03090899288063463, -0.14117885516016446, 0.1198706576705992, 0.14142725042278703, 0.10668122545690185, -0.010872813843315095, -0.28460653429711813, -0.1873803478640296, 0.07816639762966845, -0.10781273081854818, -0.05685556653950103, 0.09085396689634362, 0.3733964287255226, -0.1318042234387413, 0.07629826400398677, -0.10098189801981293, -0.19922878581379427, -0.06096253501444312, -0.044772984118226444, -0.07705625838648297, 0.08981869317648285, -0.05128764712594335, -0.3646064141187433, 0.09324762731954842, 0.08496262912459353, -0.2537721950448832, -0.11955278121966789, -0.08531690193579441, 0.11974323013980526, -0.04446140727742406, 0.16801636527656366, -0.13402218487106834, 0.15054512711915968, 0.0002761019600419156, -0.06561738019643037, 0.1470436179836296, 0.140658420426923, 0.10150966366517448, -0.022729781953544907, 0.18492946687004957, 0.21092434181344813, -0.05501526847190869, 0.018874939096428525, -0.26804729922539194, -0.12065261191550523, 0.17207148918822848, -0.16895077733165892], [0.05879718924307418, -0.007685419709726839, 0.28914703775185296, 0.028881468333785337, -0.3343449931077968, -0.07426010755820717, 0.07436600444423284, 0.10836942029567387, 0.08226140886432001, 0.22123728086370045, 0.04590134289363728, -0.34011464656334384, -0.11327057574984604, 0.037224177115452485, -0.12132475636435532, 0.06171458081510647, 0.04520206876303986, 0.27875258579097023, -0.12468000568383646, -0.21379919060072902, -0.2207299942652103, -0.08438310908765298, 0.08857325194026976, -0.03067002180600706, -0.12068851645423673, -0.19550632799672754, -0.04611228489233317, 0.11291615737649806, 0.19769983269133412, 0.21964911734588954, 0.12599082490071903, 0.05155662331724528, -0.11213110424087791, 0.05487037442675482, 0.26069065638769195, 0.018677580922922123, 0.13040770708553928, 0.0013810029078818798, 0.08679518137895618, -0.16180495870311223, -0.2269046677941818, -0.17422425412405398, -0.34505877855160755, 0.15154184820230288, 0.4235847825524891, -0.03790606746297128, -0.14183660577966878, 0.06349466932774595, 0.27829012232219974, 0.015102876040398283, 0.2247140559192443, -0.0013170946943229468, 0.039528143321554556, -0.26773528713870764, 0.05237110459263051, -0.1695306563745972, -0.18425820241113777, -0.2749889494304269, 0.10636474906773909, 0.4065499325837151, -0.1277931883373235, -0.05275069442666962, -0.06497359071339309, 0.07374769678307938], [0.17383394239732883, -0.006681052052549108, -0.0708300107292047, -0.31778052212168917, 0.11171847041861864, 0.01394285885890703, -0.3195682663738394, -0.20754272234918997, -0.17438864517089817, -0.07903485992740535, -0.15888537966473193, 0.13726989489105976, -0.1681885184078909, -0.08930852104917272, -0.18501280516977842, 0.12206244044031195, -0.07634898549982605, 0.0008291877325710738, 0.09772952922909688, -0.0020337828532490123, -0.025079233680743666, 0.1327175391342257, 0.06603327813704402, 0.020365107745237882, -0.06802714713430248, 0.02881173867406703, -0.1271768292537019, 0.26425950446851953, 0.050144823162995, 0.07956083046250542, -0.11338018464516714, -0.039474964542435396, 0.12196165723736889, -0.3446543904512266, -0.04783354438756447, -0.11349587228358086, -0.20046271752254277, 0.12019376160124262, -0.13576137128480145, -0.1837444995194479, 0.17697868015607945, -0.33214679901311306, 0.1826713373552861, 0.18846010115639125, -0.36143360378417977, -0.04034441906717353, 0.05058109775465986, 0.179923179849803, -0.09384828921934826, -0.029429713612942297, 0.13156070775241846, -0.1594069989374804, 0.10266369125788588, 0.19526071212042587, -0.18560643579089015, 0.052801883217714396, 0.013687913132932347, -0.18568875209261831, 0.02681932417240705, -0.04555498990201308, -0.1402810453277025, -0.06392656025306279, -0.1727822102846106, 0.07034608761994152], [0.07228755412124716, 0.1379704961067296, 0.013454664439833973, 0.027725689485687183, -0.09878113264605204, 0.11542350200578977, -0.1129156673640933, 0.09727629651587454, -0.07917595904313138, -0.13546226946057155, 0.07304773687723122, 0.29354970435078365, 0.14954599489948234, -0.07906394480590953, -0.24659426308031854, -0.26877830815348025, 0.054051029433921774, 0.027354520971185393, -0.34176939494805425, -0.02318173630766999, 0.18773148824615796, -0.0024399125438756704, -0.0005397169052217082, -0.20558755089901512, 0.1179248643574074, -0.12706853591227538, -0.10127296195399758, 0.19651764000703187, -0.18025277339690163, -0.032899639366627785, -0.004861147650054833, 0.0662104265630132, 0.26819105001504245, 1.0467437074839535e-05, 0.09297988228700582, -0.014194652513338762, -0.2960733756297073, 0.19686783531306762, 0.12350856641828376, 0.20590829108769915, -0.18613666595769232, 0.02172214247842212, 0.3381645854861854, 0.390411100547373, 0.008510452125673086, 0.04966361356694748, -0.16733639786406276, -0.040052618395920746, -0.13305756721142947, 0.18141229717726134, -0.07363460692614181, -0.018275545298612274, 0.14673170561078247, -0.02233964621546314, 0.18676490501082946, -0.03349424181127188, 0.1332219793633303, -0.18495289157144815, -0.006813098396383204, -0.27043257568272877, -0.1531429416822442, -0.12591320324642793, 0.338873517054617, -0.18652250868674117], [0.34510316192449836, 0.16175232833728304, 0.09559815636276785, -0.14905286241876872, 0.17662025424570285, 0.34366277025016406, 0.16220759643860488, 0.06211291570490708, 0.028444144934189074, 0.16740351595293987, 0.0682256390226801, 0.039491389798551046, 0.1585262770449009, -0.05087793211931462, 0.16113655039331892, 0.38053877027172117, 0.23539877417868738, -0.03738663439857336, -0.030205301663514334, 0.24560429946122633, -0.1585709751694313, 0.36836671454353687, 0.016218059302621293, 0.0576315313715754, 0.05757437393781068, 0.5706894831697022, 0.015084032901734174, -0.10721876160489417, -0.07330076139002423, 0.15411928296496372, 0.2897469524400283, -0.1667265178547386, -0.04500793989014776, -0.007534840019864035, -0.04932017963431646, 0.2852482998304741, 0.16088396479216807, 0.26236480650029725, -0.09735390171573276, -0.22277417487683546, -0.010317356288913867, -0.14494214889204188, 0.06437515129781868, 0.19737942370853712, -0.40267651879583555, 0.14360947691047593, 0.41285732979813367, -0.23215867518703828, 0.1065143272943949, -0.1881558396214066, -0.1305725261832061, 0.005307962680244787, 0.3912525989278126, 0.29762088384380514, 0.11115891126635595, 0.22495415390613452, -0.46931056195085036, -0.07288439885484602, -0.05702564550285749, 0.08608500441065009, -0.1386309317949489, -0.07515817611424361, -0.1514697690258415, 0.1362233998778862], [0.06472731229763026, -0.06855874606851037, 0.15447287553786263, -0.033065477575606635, -0.12083502530610876, -0.125930396401544, -0.37402188293949024, 0.026645075309482274, 0.12226352828703302, 0.07663568024547768, 0.46876346802893837, -0.0761971370608309, -0.23608608888110139, 0.31549172652510166, 0.2728641696476594, -0.1446986217554612, -0.01944072022597977, -0.10607728633671182, 0.09398232063888622, -0.0674690581634173, 0.13223750132857126, 0.1675020605770185, 0.3472071841838472, -0.08529635173586013, 0.13116419611483351, 0.17786987374371813, 0.030739798168665365, 0.2827748657694635, 0.07560158192711493, 0.0194557703027662, 0.36872316368301256, -0.14390618334976363, 0.2003811326641573, -0.13258006750824983, 0.10225689967362596, 0.1435902663427986, 0.16677438123956553, 0.25448525344486345, -0.12437715490220684, -0.22939616622013928, 0.03650596426879022, 0.0524712913772344, -0.01618401012448333, 0.4396624494234186, 0.01851979093565696, -0.2332567510513935, -0.1324582873406774, 0.0780620231015297, -0.026929648727260374, 0.19978540388150018, 0.14691797788774938, 0.15983672967783763, 0.14391908206049095, 0.14327079243219848, -0.04438028661767457, 0.2560665698193185, 0.19581766257176206, -0.1312184746309554, 0.06989585894233115, 0.1732165008234159, 0.2557528535260917, 0.0696825969214659, 0.14394979961768922, -0.3548682832472877], [-0.04425016451742006, 0.0016065715949575698, -0.17964095447722989, -0.0002478670211409173, -0.04602680650891892, -0.20505516764038528, 0.09976727263224781, -0.1166674646731831, -0.06884729678821931, 0.17147460548969823, -0.11409215182513875, 0.24761729836330867, 0.08333647998911077, -0.14710288257466608, -0.25666819530522006, 0.014388439818168256, -0.12941026462622404, -0.20867847774547538, -0.2247323205447268, -0.09165399361656162, -0.08410900067377335, 0.028569031795765632, -0.2211459567540825, -0.09351953298311887, -0.11008934055802634, -0.13333292005394076, 0.2301524160292367, 0.04801134280422541, 0.37948051153496354, 0.139954657850412, 0.0655755649540897, 0.22202072268885695, 0.20709348385852547, -0.28640217365377413, -0.14212484638101772, -0.03990713504963267, 0.05046143292347407, 0.049737561005090664, -0.27283561183251265, 0.06673691324820337, 0.0791097516038322, -0.15896680525329207, -0.2065405370126, 0.10082200600851643, -0.07825976850756874, 0.15024641475866654, 0.17899488159808621, 0.06649922948290975, -0.25352225108122706, -0.15745656734032232, -0.3234583897947432, -0.09004768610168361, -0.1573036525554672, 0.2763974730625675, 0.11402218646214768, -0.043929814906958194, -0.2157120337239184, 0.31919801605382314, -0.15501556361461893, -0.35629124895830366, -0.13296242846186276, -0.2546917955784473, 0.1443874513804979, -0.18148077855556222], [0.08818544129295537, 0.24846381464135242, -0.1624773578221389, 0.00024156659814342837, 0.32173024993175714, -0.045724947968478834, -0.03703589709223246, -0.048509580159658505, -0.1358745829606309, -0.16335068981012632, 0.1783738316479557, 0.18080956140357507, -0.14944115619129775, 0.3546586971420618, 0.2978875632400249, -0.05046815775121024, -0.3232055088135428, -0.20340208552361416, -0.0305587504203079, -0.06865433601215773, 0.3128080098390452, -0.24061561172486354, -0.03584893327056439, -0.051003858062831434, 0.15802769482919887, -0.031188371537069534, -0.06606593612207799, 0.0092342109679103, -0.07653445998001167, 0.08129516561174573, 0.11009110232699025, -0.15702968685511381, 0.14828077869743278, 0.05026961604086494, -0.02564601607806261, 0.16731271329260403, 0.2283791733096943, -0.13351714095399128, -0.04694773429428421, 0.040739789269840655, 0.2945462705818195, 0.08153925952378502, 0.03932725561535792, 0.3541259118734239, -0.030511401445092838, 0.17229048194253807, -0.13682626307699614, 0.029561428403368537, 0.13432016346982373, -0.13041869228675856, -0.122893545939943, -0.014451260976510942, 0.23409575161781573, -0.29613267534636867, -0.15399009755154675, 0.15954676576588414, -0.38637369733526566, 0.3510286487725406, 0.04373159617130325, 0.37841451166980594, -0.16562763028531838, 0.10416455034099933, -0.11693306565153344, 0.02841733352076436], [-0.13077902151782908, -0.11210554342492177, -0.30351308118878906, -0.5011198865886153, -0.009934512811516291, 0.4183199839660156, -0.05164194613756915, -0.0860459376026623, 0.0867956187878536, -0.1184763428943574, -0.09045148301854151, -0.22281146297704904, -0.16314577404342953, 0.19080798302151025, -0.1501902511249261, 0.03573884840104282, -0.0651149062659317, -0.1536492163036663, 0.054904317876931924, 0.1466295360170919, -0.21611241372001902, 0.061789179129883944, 0.139730136529584, -0.05414448226771234, -0.014115623900291087, 0.001337466842233182, 0.03595811788446575, -0.19948474609144534, -0.0911651115635857, 0.07407138477593103, -0.1336786098898512, -0.015320296058533234, -0.0128801037035218, -0.13696954940170733, 0.024445617353449696, 0.23154482126623926, -0.14023731001595222, -0.10853937507736529, -0.028357239632879852, -0.21342906049815977, -0.1063989669478877, -0.26200278112982656, -0.3289651696777352, 0.059666088127615806, 0.1479523506248889, 0.30703188720208957, -0.028224385989363138, 0.16885871071604894, -0.05166039763934879, -0.12987362123918048, 0.11397480587902462, -0.04442760212271029, 0.11715993704690181, 0.05178217330169243, -0.17246234772018795, -0.19466191462752597, -0.18261110634788433, -0.11657040475565655, 0.16125463254486153, -0.019940144186598473, 0.2516760225916241, 0.09734839884379852, -0.03142773267843615, -0.15134259053820653], [-0.35032557419703914, 0.16195884474183045, 0.23587828341082773, 0.005925789700715516, 0.28555209718231034, -0.018448673735412528, 0.009891041858870199, 0.21571238173336993, -0.007440152987160008, -0.11571054837643685, -0.08943399017295144, -0.36364704500487455, -0.011058430843404483, -0.006095231511644403, 0.22439871049783214, 0.12426333936005095, -0.17831165623837986, 0.11196443544181998, 0.059017554327965176, 0.2330399906625326, 0.18296454611226212, -0.04229059473604567, 0.15141424993088512, -0.08980627397142579, -0.13635360817920575, 0.05253658669425892, 0.07194755730160916, 0.2067159461940736, 0.0004000374976859755, -0.02036957415724337, 0.14140955342021488, -0.01604862715995586, 0.28382085901778503, -0.28448216103640167, -0.24011282330453546, -0.06185095402003345, 0.19986859017415834, -0.021344173488352422, -0.2016489670583247, 0.18239178983290286, -0.1959958930427675, 0.24298968143298905, 0.14232478362487674, 0.25961201495089986, 0.2431798780270416, 0.19607326287387433, 0.09848128851579098, -0.02277641259978008, -0.06002450243143216, 0.0012221599747331202, 0.02606398860613001, -0.07657899006472851, -0.1790630192198213, 0.2427340425062571, -0.2840338057638509, 0.1708774886804622, 0.3463445468159616, -0.13873495754186257, 0.2604964397973331, 0.03860396882482729, 0.2610179530853475, -0.16579751816338228, 0.23124634037700967, -0.15410803907183895], [-0.23317494828578628, 0.2985486211173539, -0.153639257070523, -0.2215177748722385, -0.0065245869106906815, -0.05792289843915925, 0.21621508699999048, -0.15039563773928288, -0.08138245884952656, 0.12267945630815766, -0.13997170390303576, 0.1566011219552341, 0.19238612734904656, 0.35089004066078905, 0.37506918459292793, -0.13040314905902686, -0.14617811626636323, -0.1804585812139144, -0.0007769548086688298, -0.042886018007924624, -0.03511492798590785, -0.21749730261497063, 0.21382129964076516, -0.27634678572704624, -0.08969758556393928, 0.1452032964369392, 0.09891352827080192, -0.03665212471837455, 0.16965658148167703, -0.07191028720665478, 0.3559175440006754, 0.18035604624754742, -0.13898265838596466, 0.14264967920335464, -0.04192999067052901, 0.06315506888655022, 0.21662064422746027, -0.14881848366892883, 0.2520276666725339, -0.036160500752452265, 0.19396296812134697, 0.08493972981926912, -0.1026541329547156, -0.2418069716833698, -0.21285490233809715, 0.0479280149584556, -0.20534157252945326, -0.08113529788034828, -0.06305576731385974, -0.12224660477190585, -0.08730842249970085, 0.11245512993250081, 0.17240295051435228, 0.07717707874493755, 0.08186179158278004, 0.07752247819081484, -0.08313237785707932, 0.036528809189530866, -0.2922315649660202, 0.018091652269030565, -0.07491010502341723, 0.18903790996116399, -0.3347665483237609, -0.20348725186782562], [0.40291089419804527, 0.12978689528323403, 0.24435970216689132, -0.13944353985685942, -0.25707782203122764, 0.08505786020614282, 0.0282835306661798, 0.09618582888029245, 0.27330383225654503, 0.15093229732427915, -0.27380690737695923, -0.09027523545314298, -0.39032768236546267, 0.09655886055027824, -0.08239622873217589, -0.2247501442260769, 0.06343583588835205, -0.195467702229402, 0.1782474092987293, 0.12655703411566302, 0.39503160043617497, -0.13322111115393495, 0.16837789548555937, -0.0797833851393942, -0.212798897598917, 0.3283371807589512, -0.18764970702116043, 0.29170747971466576, -0.06284036128713079, 0.12793546315551657, -0.07561980330629053, -0.13671374449103688, -0.15924213470271284, -0.07402633015287434, 0.043322261310566844, 0.24763413117335278, -0.14031096884334834, 0.004862997614920234, -0.04759017968667888, -0.01490578503949726, -0.18085482555999166, -0.2441218992784073, -0.08308393935537449, -0.005800970953282816, 0.4250584665605929, 0.2647764286705975, -0.07171396631579706, -0.22891637943987087, -0.30224948923747985, 0.1666384242295886, 0.21272844559045653, 0.3671447352598792, -0.046723356164527344, 0.06874149600224994, -0.060687888073161875, 0.2517330369390362, 0.16396113110335933, -0.13696268482990903, 0.029621978326692517, -0.17669848760291457, 0.019651403055214223, -0.25027373160380695, 0.03463265905320562, 0.2108225129819921], [0.2234461596294824, -0.21783447655234522, 0.008947872736297149, -0.23614398450002289, 0.19312154166033194, 0.0724882619005708, -0.2000245075094754, -0.1611930976029114, 0.09930374557135166, -0.3000200092091029, 0.012783600365747756, 0.0651226825453248, -0.1154908519461004, -0.04594954002444276, 0.01787306453433568, 0.1023165039640529, -0.21932671359923103, -0.09869393906600275, 0.14237819550294797, -0.46025411621444, 0.1735844443377109, 0.2369265431073566, 0.33706765276435485, -0.4170547067650598, -0.08046123720095591, -0.11367433623982441, 0.25705428724593954, 0.11778027074216414, 0.18124179922031908, 0.13128664612325147, -0.2688557817672469, 0.07436265979584503, -0.3849352151765819, 0.07925071916459998, 0.03741757052260705, -0.03092905083073162, 0.0426679787742763, 0.1271725263709179, -0.13757859965401303, 0.0642574167761148, 0.25753899526782675, 0.07035361868744419, 0.04204662925372827, -0.001913983659907088, -0.22939533237129495, 0.25273198473784914, -0.07224250652565918, 0.008182464459117453, -0.05125719412393858, -0.06299793474300125, -0.1041227913627248, -0.12434414299180281, 0.16687399023689833, 0.2415565964202355, 0.04382634701391314, -0.2039194616307143, -0.01131496783468038, 0.39333549938914514, 0.05568116826613816, -0.03424066793825979, -0.14447095038520583, 0.09632050706942501, -0.042426415120454516, 0.22766948571286788]], "b": [0.001665056389476001, -0.0018136782099201889, 0.005838021409242608, 0.0005327621449500498, 0.023098093037051685, -0.0017815151372584555, 0.07024625432934625, 7.302968078509736e-06, 0.003936084185802965, 0.014888132525716292, -7.349196946361189e-05, 0.0011781739735605631, -0.001155113202505237, 0.03375440151826588, 0.013845874953604885, -0.0010441316171842826, 0.02079908556107319, 0.04319443334637259, 0.0055448778840568366, 0.013651213772388813, 0.011954388326643837, 0.00014787121097408967, 0.0007638637446530801, 0.0007970164454010639, 0.005656796877306418, -0.0003450577030468065, 0.00041776573867593044, -0.0014897142406894847, 0.012990296695689652, 0.00037706132774969754, -0.0069409859830700015, 0.01559998463178714, 0.002315355544313773, 0.04935763276831839, 0.0008036339375442655, 0.008087788061089422, 0.18399899329565428, 0.0008708154383360777, 0.006053780889952962, 0.0004148297441085113, -0.0005316940874037183, 2.086847430962286e-05, 0.001714711861097467, 0.027238575819549093, 0.01679344832549291, 0.00025578054290169186, -0.0063900423002424475, 0.023341301682718082, 0.014033776868869467, 0.0007672080231291901, 0.002139787810069161, -0.0008048131687325607, 0.00010619533464066352, -0.00023239463485422678, 0.01001567224500786, 0.15884032721294572, 0.007941753309767999, 5.623800613604147e-05, 0.02852309121106781, 0.0005439693980683422, -0.008854466068503765, 0.01327740403637934, -0.0015644333190535042, 0.011299096834240296]}, {"w": [[0.015432711484583132, 0.09976615848118625, 0.06956567258696608, 0.012485705519628939, -0.10487554180761108, 0.001728753646921287, -0.1325289007928839, 0.01599983073767228, -0.06591381015937056, -0.09562565604607633, -0.0011853714072916214, -0.01348706553974416, 0.00046570789092932147, -0.1576022825961856, 0.028285337520663107, -0.018572304036845316, -0.04125821474796367, -0.3296619327825146, -0.06328406756565064, 0.07118112337891937, -0.27477110904779, 0.0032638716984705694, 0.1106327763327331, -0.01912653121337582, 0.0708498118108113, -0.007774326638058875, 0.0013470561881510636, 0.012875184364927126, 0.2688567784788348, 0.0235846351366164, 0.07624280763509521, -0.06970269361792718, -0.0019501928810077554, -0.15958294789987895, -0.01247915641973984, -0.0478697503571493, -0.5338092208504764, -0.004764077588757928, 0.03700824664177515, 0.014906246252422978, 0.010988154164381725, -0.0017619637559336135, -0.04461851752633541, -0.03143744720751596, 0.031247171758731547, 0.10319894055322304, 0.14785483965262564, 0.2540589309647996, 0.27558290018594017, 0.1391431141381134, 0.027131024310965302, 0.009876192176564004, 0.03823912343277766, 0.010609944812299803, -0.055851299625934346, -0.39370058801541863, -0.011570819894799893, 0.01842691954054089, 0.11752913883733108, -0.018486107254712024, 0.22926323280855845, 0.033934615529938324, -0.0012754586224599665, -0.03643153454197217], [-0.01619251532376143, -0.07918614640415328, -0.06992442308438497, -0.0130990795560348, 0.10683192914866799, 0.026070887979840248, 0.1461531164021854, -0.013158886873505346, 0.04626171034983472, 0.07257890616730434, -0.019556062513549233, 0.007738155771286783, 0.00037301743846866997, 0.1450754023883883, -0.0361648396546841, -0.00041796951826459283, 0.06464468468439674, 0.3268878429584598, 0.08086611253653281, -0.08758052100968769, 0.27508068906197763, -0.0029954888843482467, -0.09480712179190384, 0.01717443878056179, -0.04898223012838787, 0.008838515940608813, -0.005917380371753214, -0.012265663956246753, -0.2441451695088176, -0.03257010348244902, -0.06337505161183875, 0.060997399648984874, 0.009834310721246622, 0.15870376458408483, 0.0065252947619543235, 0.04580976987628766, 0.5195965215101835, 0.009331385938556157, -0.042541939826654926, -0.016690995357303607, -0.0029948789452393103, 0.004547768677566416, 0.037932348283110776, 0.02715950624874759, -0.04028486877081959, -0.12015833909682849, -0.1314083794488349, -0.2650428320317209, -0.27207274573705564, -0.14219195521955266, -0.017589725851683644, 0.006787752394153266, -0.05350987634329705, 0.001157491064617748, 0.05994114527129617, 0.37873892298542056, 0.01778463384477045, 0.0012190305706197204, -0.1059825242694033, 0.008229256471736163, -0.237620127604792, -0.011036782287808855, -0.01045348826510054, 0.025077654108173215]], "b": [0.13177175554291828, -0.1317717555429184]}]}