{"algorithm": "reinforce", "env": "cartpole", "checkpoint_pct": 25, "architecture": {"input_dim": 4, "hidden_layers": [64, 64], "output_dim": 2, "activation": "relu", "output_activation": "softmax"}, "layers": [{"w": [[0.05215484941067279, -0.11344609776977956, 0.4673789585299824, 0.10618437369251071], [-0.330329560460746, 0.31358520380639865, 0.9390358326213417, 0.7069902690800116], [-0.5046063713032739, -0.8758044958328777, -0.43954710466745434, 0.0297616064237758], [-1.6279452479758936, -0.1337845036240756, -0.8794902395642057, -0.5169699551753424], [-0.36983857964135886, -0.17791961112048932, 0.29991681938526543, 0.7390385585964245], [-0.10560237918992618, 0.9501863380393781, -0.4734028375776538, 0.24375414980543164], [0.5986322859404499, 0.016538538192656996, -0.5493115433030824, -0.6959140659234796], [-0.3316276281681344, 0.13713445152677975, -0.7224045808273499, -0.15552144457496395], [-0.1008679408843456, 0.38848057134739217, 0.15470571042061873, 0.272894674562866], [-0.42589483409981865, -0.06388902812524012, 0.568731679307287, 1.102587750311753], [-0.8945364367384592, 1.0558656703602, 0.9468586156019385, 0.5412363126699334], [0.20678065700927026, -0.20070296527476605, 1.0452828079537597, 1.439583393687594], [1.2763280754396698, 0.9184693152567452, 0.25215383280077674, -0.8591823342259243], [0.00907720707201707, 0.46861000646888784, -0.9231588141727329, 0.281255901385658], [0.3117403843889318, 0.5061229948141386, -0.833739402289515, -0.4677022613523747], [-0.3065601123290475, -0.819952747281459, 1.2371248386084002, -0.3359100293570457], [0.25775663204205945, -0.11631118053051036, 1.1695008369603217, 1.0446310261196337], [0.4724797852014609, -1.5231207166894325, 0.0635037016059983, 0.5586375960644183], [0.7037654906682649, -0.453399264248432, 1.2675141084644992, -0.9581928676682662], [-0.4366213946498137, 0.693095926760587, 0.042249232781538394, 1.4037459250727031], [0.1477708570821622, -0.422867186003849, -0.266950850192962, -0.7702092273739194], [-0.8810857068009694, 0.48482635141853236, 0.41978991538203353, 0.9362674255638145], [-0.4595732046531986, 1.2362030212742325, -0.1886124022506459, 1.1527978570682353], [-0.2730030378943275, -0.48321834345549636, 0.1913714925423508, 0.7740810612562593], [0.05256484720340598, -0.4534938873100212, -0.9709305755628772, -1.0083325601024913], [0.35397334039746986, 0.6999682948764364, -0.10162181668286845, -0.7212151244622594], [0.6187194193376712, -0.8747097946755784, -0.49429281725678964, 0.43794519426559914], [-1.584577182535828, 0.2618106776525008, -0.4202239431141389, 0.06387408289678019], [-0.031550675819799125, 0.16955013577455091, 0.5050963390814455, -0.5000293193754336], [1.011532328187776, 0.5110874756108794, 0.6042142934127456, 0.835734203118698], [0.5539878769237706, 0.5835324688330955, 0.05263986459576859, -1.0020723583599451], [-0.08891200968268266, -0.5334054195028018, -0.9997653273182652, 0.20293411696006972], [-0.4330429385241103, -0.7315301738981166, -0.754369095004626, 0.13481579899428214], [0.25626692533660517, 0.9524161688565812, 0.0021206164857487378, 0.7495440425180568], [1.0123184670040037, 0.8300288042489158, -1.6566973474816573, 0.8997276671542764], [0.2588957320953528, 0.312731575734344, 0.2848933606649688, 0.30981679163805037], [0.22495491833728454, -0.24336075397653634, -1.3485738872194677, -0.08272150671140523], [-0.5558582276025855, 0.7686808684776422, -0.20239101675951246, 0.07221198680078945], [-0.6137009165097297, -0.4088164492228051, -0.04673009943606399, -1.085726953698476], [0.03943867328367317, -0.2543571895681671, -0.8970382917209191, -1.7597242555521204], [0.3537061799095786, -0.20835064875868947, -0.3756757150481583, -0.1666941164656161], [1.254248986343673, -0.06855146078562122, 0.03759941057470953, -1.0915332035797287], [1.1949234923181222, 0.6383926705778556, 0.7542566827774569, 0.04096121830107762], [0.668974355234469, 0.2629628446599283, 0.4403292483928274, -0.08062709145075114], [-1.036047232684542, 0.7289318382582224, -1.377041786453019, -0.18837897804888518], [-0.17797008204289538, -0.752837672060942, 0.42365663551795074, -0.16012628335183174], [-0.3076429693710302, 0.35122197716810005, -0.3364869835274405, 0.9942018086525093], [0.15823162860053494, -0.4384350760527968, -1.415807498604532, -0.9545093493480035], [0.7929700557311596, -0.026553395304716284, -0.18835807295668605, 1.204059117589895], [-0.8853756912211095, -0.37100230777864335, -0.3278482221554952, 0.4146601304250935], [-0.4910697671913312, -0.4243540993226012, -1.139885194872848, 0.48659813471022484], [0.5839995258392696, -0.3207799153347875, 0.1182065440489888, -0.9039933353548418], [-0.2714309397268281, 1.021206246552933, 0.10969295139636809, 1.6755010128158234], [-0.557945332600866, 0.4097432878786672, -0.13953085721692243, 0.39328547463644764], [0.08697102504957796, -0.2970048610552835, -0.5742274093471984, 2.2613329089769176], [-0.08791970293517096, -1.419849763792332, -0.46749630261668684, 0.4464196233997568], [-0.35071081921536446, 0.9384919998620824, 0.6962534591633298, -0.11283992513117326], [-0.35988051907714086, -0.7190668116033505, -0.5558233646998589, -1.1574659952239916], [0.8300448497820677, 1.0721123173199494, -0.9068628431299983, -0.8666926110621731], [-1.2676060384852776, -0.6903685206745966, -2.217070006586255, -0.8337689327131897], [0.8617489746767079, -0.34474180756342154, 0.5628913255593639, -0.3820975000881201], [1.2857813565044967, 0.15043839165840825, -0.24455691433553015, 1.8592630673572355], [-0.19220796674611984, -0.8115697442990994, 0.16486882120016252, 0.0244007428773034], [0.7555908852057811, -0.6453898067405744, 0.5871666187326571, 0.6446395992021956]], "b": [-0.0766577229653628, 0.15055252811673728, -0.03420946054326802, -0.024611119571214025, 0.007514365900574533, -0.01679698457157376, 0.10489560819293128, 0.081273778601971, 0.04331365336650695, 0.11000624051463996, -0.009734817501485608, 0.16012861096815448, 0.037971167187852845, 0.09967831707200368, 0.16560806628372512, 0.008588782318603922, 0.1939404605888424, -0.011405125961299533, 0.046706479189810815, 0.07484679663312754, -0.006203648788248917, 0.10267064340447572, 0.10302169150898635, -0.10090821975112974, 0.1561181639315627, 0.002647582220626114, -0.07520548495851274, 0.015389170103964438, -0.031047556146525965, 0.11846273827063337, 0.0024266030178229318, -0.01918267590346242, 0.027805621612693843, 0.02944402042110208, 0.07055205289238965, 0.1250549079611699, 0.056892960794907736, 0.07627232737367508, 0.27479843646488544, 0.2262694462111152, -0.007194921228121188, 0.06373852285130077, 0.061613791761359754, 0.026372172211179823, -0.10680906242768731, 0.025343774292434, 0.024864561009438128, 0.16979189790764695, 0.0889551942903457, -0.07164672664273813, 0.01547134049434309, -0.012933028617981178, 0.22848082221107824, 0.010779548307450301, 0.09940774733556364, -0.005371943564172881, -0.04300168071403705, 0.3872476694533469, -0.0324001356982293, 0.22640393871398773, 0.12404086012487839, 0.1361415668606728, -0.1827669548440228, 0.008402631701396057]}, {"w": [[-0.11802700028055277, 0.028862880161750554, -0.146490135525234, 0.41537958660111435, -0.12433646302347977, -0.0798741101049138, -0.18838812371114613, -0.06103318948513003, -0.0010430157501365785, 0.13579002196156062, -0.10766905913191271, -0.032811044595175004, -0.2501902234815918, -0.1462542428670123, 0.4873591843517332, 0.18444812846334518, -0.13814957904909542, -0.23619857801661687, -0.17241142848634927, -0.003889292088173558, 0.006185345690401681, -0.13143256864370395, -0.22743184610632033, 0.2516587527108617, 0.07995058961242145, -0.06594678347652153, -0.03900762269816348, -0.09302532715697587, -0.5188383963443742, 0.020449938378518048, -0.18895955376020185, -0.1770904161542594, -0.11288504069139066, 0.12955466709868318, -0.20691483526535714, -0.2535493913675215, 0.11311150088977796, 0.13356615943189187, -0.16907009111159088, 0.09958909937603867, -0.051553817290046294, 0.05327388832680503, -0.22284164108169172, 0.14725819892760564, 0.2131360730637184, 0.11287393735383436, 0.09863885748148965, -0.6668223418092346, 0.04607263927170254, -0.004147742332509593, -0.025746117842766012, -0.11145329258306279, 0.009500266608906864, 0.07299409652786444, -0.0465317088239223, -0.08148719482438582, 0.217681553650234, -0.19495901599460697, 0.18241447500207866, 0.03189790488377614, -0.14218254521293452, -0.051256093201289155, -0.16238325685250635, 0.11933496704811052], [0.06123973346141806, -0.10233133466111527, -0.1733091837381612, 0.08160333415744145, 0.1728018219845662, -0.028204337471917484, 0.0831664905602229, -0.05784633630260693, 0.006386118431879453, -0.049506740751628926, 0.0409693403810921, -0.2716721213436989, 0.10692341672139417, -0.04170458995308658, 0.07016741581213087, -0.045838037095907586, 0.05666418172842148, -0.16744051167412763, 0.21447832423278085, -0.3068740594742827, -0.16730901367633316, 0.042304218233923795, 0.24658075498524182, 0.05499925210681344, -0.015362409517383263, -0.25187758260461274, -0.024901531884441226, 0.010720901315531514, 0.2997379656700495, 0.09772404540712659, -0.2700535823035354, 0.37246868156032137, -0.05063856846802, -0.16887750784952324, 0.2561526483390429, -0.013250375461950775, -0.04916743084867576, 0.03537340901376449, 0.17623897037464598, 0.20528670667479942, -0.23724045353335904, 0.3602724117528874, 0.1537618097551934, -0.07189322396708216, -0.13755581888149537, -0.1574783021568247, 0.01899340002785041, -0.08487807268563681, -0.13965941958074088, 0.15727182946834573, 0.07888280269672715, -0.05793226969446608, 0.12062055695727882, 0.2404540289849382, -0.18920572442303993, -0.08033249105383146, 0.1552167531258976, 0.1629136651610208, 0.03718819498504558, 0.25214763719836303, -0.19033180118684664, -0.2715135897204228, -0.1409643262112332, 0.024323610260804037], [-0.14304156175535387, -0.09930816080168152, -0.16805287628320817, -0.09312017835237905, -0.19189119533743296, 0.06046296883723541, 0.1452214551692694, -0.07915034859319785, -0.040557466181072595, -0.12350384220542322, 0.08565000368900767, -0.019368481801078453, 0.27774338465036785, -0.1939954085680904, 0.0693022761732585, 0.08203431374264399, -0.08775313763641691, 0.08656517538655101, -0.2542002430690065, 0.35572533982168525, -0.22509833710451116, 0.1489628735218167, -0.2108175187634517, 0.18905647654711166, -0.047527316906343604, 0.02937768231954921, -0.004168434445247721, 0.19942209106386602, -0.05585180019873888, -0.5423593969079252, -0.13301942383013243, 0.033358255342637935, -0.07650376258265462, 0.12683207876643804, 0.1711872109330837, -0.031477933125406525, -0.25460127795097237, 0.2426794420478552, 0.20971723386085242, -0.03035348867642777, 0.3748392307507612, -0.060704624530588155, -0.21042648953003576, -0.03152823122576838, 0.19411110007844937, -0.16527704855486675, 0.33139528571143206, -0.13778460454362165, 0.14228764710847824, 0.09270599434218912, -0.03056302892979665, 0.19793132571751718, -0.28716439283047346, 0.23583553097212362, -0.05352641157518491, -0.1064788558690617, 0.12531042053372266, 0.21026956011014641, 0.13529873641324935, 0.3855801328592755, 0.1877802798734141, 0.18786598048788783, -0.09630999668548289, -0.0015284653609103935], [0.0993884867149594, -0.004213646667390854, 0.054229586155369075, 0.07595710837178432, 0.14881984420131167, -0.01810558547799762, -0.0618532892685835, -0.14634531923307476, -0.15787552358774665, 0.20630267205499508, -0.015570902179607183, 0.13804053283096737, -0.229332244715438, -0.3427795045253125, -0.18563613831185094, 0.20321083091375108, 0.18791462742532022, 0.0596255626885396, -0.14182454147456988, -0.023864093765846615, -0.05193633819596938, -0.06227577625674774, -0.44369173555827823, -0.15180716574362896, -0.032669047414939575, 0.26794060544505865, 0.029025854961998526, 0.24739622092776314, -0.06959003727774692, -0.04495067982418415, -0.689370230980597, 0.08258979891464138, 0.09749924397464847, 0.3114188916755146, -0.0861087100104094, 0.01638702234881334, -0.12415721118277318, -0.20819982462601103, -0.125376621493955, -0.06057192450173724, 0.2397303725618948, 0.0003827654469010633, -0.1397632974728092, 0.02508495810174855, 0.03846376694826363, -0.11899210657629583, 0.20153196558764325, -0.33289953134289824, -0.03803252625028697, 0.11787964840824347, -0.23610392572827701, 0.06393605237501522, 0.22752533120104745, 0.07977000359329493, -0.2995272248748413, -0.12763891042409864, 0.2176372687039583, 0.053934100165483646, -0.0017933684081933672, 0.07967036367203861, 0.1274133193386374, -0.1255887827824354, -0.050702981299942974, 0.025357068794875797], [-0.09669360574782271, -0.012981217904572486, 0.21742483240454716, -0.18170805375071133, 0.3404768616810166, 0.33856929315596496, -0.30866119489449695, -0.03102093108838578, 0.0670343558592003, -0.13080822867231803, -0.12038100920662023, -0.02538725793979389, 0.13771062444517038, -0.08758674665435304, 0.3205409519535848, 0.0468014313151471, -0.0026748241926880982, 0.24802859554477377, 0.11369699729148795, 0.072290834823633, -0.07070318658919242, 0.32619800329941356, 0.15952381287030984, -0.03935537497447019, -0.3000432263156975, 0.06534540206434436, -0.2079785115894141, -0.30460562967913407, -0.04949964825947509, 0.06732782861277932, 0.22480937484469785, 0.0407703058178236, 0.13206374468203322, -0.20258463340197008, 0.004962567176587514, 0.03231939230294618, 0.14162615651032318, 0.02463756568486632, 0.12806679151823483, -0.11474636702485487, 0.05994537728146828, 0.07263856433657565, -0.20353640442980814, 0.03925661351515486, -0.05874766026749006, -0.34171035757977203, 0.17268275637057315, -0.08692840180116225, -0.13771465479132156, -0.07049313278460857, 0.016205631490873562, 0.25851567414812066, -0.013343880143218616, 0.08632882709369803, 0.2472964754928482, 0.08227351281775341, 0.19827276178243802, -0.1046591326990586, 0.135770639637325, -0.0360593798736053, 0.19484861882564752, -0.15530836538883622, -0.14332114978778948, 0.22718765144310543], [-0.03469084938647951, -0.06369273425486857, 0.012649893347013514, -0.12355107653224048, 0.23503779966867083, -0.2208340263650499, -0.0265150601257469, 0.061102291915392355, -0.018482470082940156, -0.14215580578498554, -0.1537424195626065, 0.07503466026801281, -0.18217702383094359, 0.1143177926017338, -0.2692735314628371, -0.09912355629154433, 0.006263398043534467, -0.22187841668015487, 0.11532051949823145, -0.003406701426565539, -0.18337299471094887, -0.2689490894619258, -0.27680627104545297, 0.008528109132379483, -0.2048001167553309, -0.24124379127513865, -0.040831771668463364, 0.40135687865493874, 0.049044115679390904, 0.13481783048018353, 0.037687669707800374, 0.13795633685641726, -0.2383259245214689, -0.07615849970741997, 0.046196994059957745, -0.003208157618840622, -0.03398835418164186, -0.11774323909186471, -0.046656926937641355, -0.13697777538670794, -0.42810984925791734, -0.21106098454742375, 0.08402371227608103, 0.2752236209413792, 0.320172918443717, 0.016392758613712387, 0.1579375470898037, 0.16038362185656538, -0.12240954470221531, -0.3012497639141582, 0.004780481920252739, -0.31142557512108654, -0.05656050280496521, 0.10734658567622926, -0.25111851291370496, 0.004730451972150921, 0.21917857491328577, 0.06285466892276799, 0.09230714411214107, 0.15845867252524837, 0.30640196847083273, 0.02674470671341227, 0.21656771559125657, -0.011347478001305613], [-0.0961253497681139, 0.07157504819403405, -0.10907739570683804, -0.12412338190835312, -0.1022252896273402, -0.3978607298659345, 0.01874215963741914, -0.23066782205946287, -0.010615924261834046, 0.26671479019492256, -0.07960319081462627, -0.059315550873572445, 0.2510132301166746, 0.10118662163104444, 0.1755588462209108, -0.06146284548160281, 0.16411995895359127, -0.09503016700814104, -0.10721175967341698, 0.12379571358054174, -0.10712173413338878, 0.14177555950460022, 0.4460870465770688, -0.2945375023048645, -0.13902987355441784, 0.19690433329649568, -0.0068631770845809055, 0.18916492609434743, -0.18102959352083955, 0.08767700976014214, -0.028966835234880178, 0.028022275480156806, 0.05903983244124114, -0.19573482144810875, -0.17164199557382104, 0.26215120589327673, 0.05306545742923016, 0.022163436726638227, -0.01939422680000646, 0.04876404759090377, -0.20166871890923782, -0.17011274577726393, 0.2541005787453407, 0.03797508758546399, 0.14108047333024823, -0.101080403803093, 0.25280306577279693, 0.05669133359452011, 0.11761121108559956, 0.09214026475244681, -0.14104853650091814, -0.3300494366397143, -0.15940176305441336, 0.28952588618645086, 0.2571843067748759, -0.0450990955667136, -0.042500536362486505, 0.17672009348589354, -0.02940495862385208, -0.24800433882598558, 0.23742543769123062, 0.13523502912498428, -0.44414864486717887, -0.03158259485583811], [0.025618184518428615, 0.08570941832328886, 0.03411221188358327, -0.10734307923225656, -0.017749682772358024, 0.05214716497516694, -0.04880732627396917, -0.06509670082798627, 0.2212447180781066, -0.16458068256240527, -0.062208633468380625, -0.3590105141533421, 0.09416523530295096, 0.14646499932306603, 0.09655613498365424, 0.1666219156356626, 0.07790720741771465, 0.06621153147016003, 0.08121917632586242, -0.0466811749230659, 0.21146961746527415, -0.06037787144302485, -0.2584338755086552, 0.15408395546986822, 0.3293119137964776, -0.17027010901256867, -0.01628545127909251, -0.11837096586815321, -0.06770552597908079, 0.005766378360638948, -0.22012894150912984, -0.044961497470087944, -0.2528718780586786, -0.10059665959470428, -0.21104219488495088, -0.18824711016616777, -0.3024291033989359, 0.21504211196562978, 0.09343148117178689, -0.3379966805748307, -0.10574456619790668, -0.12162850861591315, -0.1241103195902902, -0.25719430421522455, 0.13336055495573174, -0.06596104738500815, 0.08336026727938181, 0.09474404492759453, 0.2413352136539969, -0.3158673850880887, 0.31263199661438096, 0.22350450637096053, 0.10160781035675957, 0.421406983337365, 0.03895430705804715, 0.15325867447835906, -0.13080748753517202, 0.20536429138956122, 0.02917520198131852, -0.06990878138405376, 0.37121719064055236, -0.05676397906532717, 0.005976846003376558, -0.035614946256778725], [-0.13285254006664257, 0.10109810782621717, 0.13599947298402382, 0.06430240576540876, -0.4103441542604492, 0.1794353340465075, -0.05971467988692392, -0.2150009412598577, 0.10870344503116654, 0.10896981827216018, -0.18003386097081936, 0.4530252613433961, -0.21083550939992016, -0.30458778101707706, -0.2010559560082817, 0.2551030934564825, -0.01707468293184925, -0.049044229305393906, -0.007564010208947111, -0.0970910586847626, -0.12031331240763891, -0.10625397188349195, 0.1330017068882188, 0.18810718755614791, -0.1847689351864266, 0.04342804718729471, 0.14962174277692647, -0.18965836721909596, -0.08867413683083754, -0.17532690628835004, -0.2275450650751974, 0.022736056614503227, -0.12450690015600019, 0.11597098178034465, -0.0007133712432186549, 0.07709245447343142, -0.04838323005758712, -0.1102416914147064, -0.01531862286797633, -0.001309460212782366, -0.12289996209829983, 0.07949481358231415, 0.1363907186686876, 0.03057620254651926, 0.3035841543605972, -0.10672689040605994, 0.09717571573876575, -0.06990183623181724, 0.05312814382484221, -0.14085186903447539, 0.2027775320735357, 0.032912041861543534, 0.22247131713723034, -0.22159442017571065, -0.06723548991130109, -0.14411329584873947, -0.09293554709522357, -0.12016079677770851, -0.019897751317833532, -0.00016861068320871307, -0.003041338051364302, -0.08118282895474728, 0.038536571101889, 0.16632322100805355], [-0.1581297006218493, 0.012957257198616566, -0.022937790263172893, 0.06332488797951952, -0.004087706767163469, -0.0015812609194233674, -0.176102944242849, -0.001149156094646145, -0.15971261435899664, 0.10401449719588686, -0.012831304818306834, 0.02765741132398901, -0.15533475668985378, 0.14346515805304474, 0.12557375392882333, 0.14498410349379465, 0.4119174851019459, -0.006688199532558995, 0.21330638662024537, -0.0072262104182139394, 0.06297947899547013, 0.07554451573101863, 0.05816727200997045, 0.12196424111948069, -0.06511173563690878, 0.00785410254652334, 0.09884420144049966, 0.29790520079566674, -0.14928818856689516, -0.30985279036725755, -0.08585534097508546, 0.011756631434687744, 0.022808819777905113, 0.023050856942692807, 0.21363785678821293, 0.17748769674038573, -0.012427539596249702, -0.08168725131779005, -0.07845530878784389, -0.07367800615947147, -0.0409300510521928, -0.2781989250164899, -0.07689434982155442, -0.07301362446492356, -0.03988567710443873, -0.05099153522692011, 0.1282527838888703, -0.10484919811276054, -0.06545502772376315, 0.09205572984345749, -0.04447291836152813, 0.036855224684522944, 0.1358581347451589, 0.07684626529717381, 0.06977991102848272, -0.039999424703458034, 0.12214567838844055, 0.009198445722690018, -0.08918646248183755, -0.05319898750890965, -0.21749196574238966, -0.15117016261717678, -0.33617968358755135, -0.11171274913658566], [0.2360933060544612, -0.09834769717401448, 0.13913033294294663, -0.000848272040182894, -0.1238462817728004, 0.23662415649346094, 0.10290797796963559, -0.3097199148642435, 0.18410604506512637, -0.19000293435573712, -0.03143885804453332, 0.11810925906477719, -0.05300642187254639, 0.19784332827716908, 0.13456914865636696, -0.2788329104252634, -0.08351858512075096, 0.04986231703156868, -0.10169761105695148, -0.03821486235022472, 0.14128390295203516, 0.05602455008561455, -0.16269167362247794, 0.030865069152750363, -0.10835337542989736, -0.21481893778117384, -0.1997604225549527, 0.05058622836058066, -0.005018955328532631, 0.0009594046966291841, -0.20265612875289082, -0.03252471263563748, -0.18339111410257722, -0.1637561036958654, -0.029158326906281413, -0.2445469501582425, 0.11833203837500948, 0.439606004199492, 0.08090816543346538, -0.1845322676720177, -0.04793461738715874, -0.2749639876278787, -0.0667579898177422, 0.08968097047625068, 0.10410075083850741, -0.18244754975283484, 0.05287954340576839, 0.20433586291910572, 0.3102601902751711, -0.12394867293207638, -0.15277341193433241, 0.009569859070738934, -0.5176177625310366, -0.09387204400467263, -0.047912298822234294, -0.0812061875729071, -0.28000044115043654, -0.04359660048861775, -0.13726169215224576, 0.1336476232944002, -0.16236550433165634, -0.049905493950613465, -0.041222127981631426, 0.10033164151440936], [-0.4500572135052879, -0.06021562215973397, 0.1338857791478511, -0.06440153907591259, -0.26992842839724973, 0.05774319344594698, 0.05919961410761518, -0.047894199318703784, -0.20501837802962947, -0.13093777739652698, -0.05545515496476087, -0.15477712703658722, -0.33968162060343454, -0.13590371741295898, -0.011120013365396978, -0.08993590222552561, -0.013406790258001334, 0.014306299185779045, 0.15814787058341948, 0.3895849914533528, 0.1287453392031807, -0.2482444240633372, -0.46969573142404075, -0.016703708715567603, 0.011803563856776724, -0.20572460123811334, 0.04781810416428254, -0.1355994773248765, 0.07103142999992584, -0.05754357688589137, 0.06993202281583799, -0.3085201515653576, -0.07777503656551446, -0.026264644199581418, -0.25192174663720407, 0.3327310676380179, -0.09602308313145107, 0.24574082979706174, -0.11801005554681471, -0.04162922677562894, 0.2090373332535802, 0.053210929276410704, 0.03398747767529338, 0.0470038001520528, -0.24161010583183362, -0.0690642439760632, -0.16907730192403733, 0.0341529156382783, -0.09617124270992441, -0.00783469871386767, -0.013750328784104905, -0.007044070503773218, -0.006126980838306326, -0.11531801145125892, -0.18632955492042388, -0.11782131681479611, 0.18940324003112777, 0.06550645837736434, 0.1034904463511921, 0.24293392308709955, -0.2085339177020325, 0.09014898789074456, -0.1903250091627011, -0.059134587831779446], [0.0855108092684361, 0.2849063413115699, -0.13849923105781092, -0.017234693006516862, 0.2039651935263585, -0.2633774066740636, 0.06401492822302257, -0.054565099857850616, -0.15596810121690952, 0.02532267633548786, 0.10470406589010726, -0.16181906597193715, 0.06717035966057969, 0.03065721475748034, -0.21951471460020142, 0.2743346202968266, 0.1922287233761286, -0.15244819679068777, -0.10368033620041932, 0.13574439744045735, -0.08758086451217734, -0.32583973075845174, 0.18507878701119776, 0.0011260448869474307, 0.3371214479606919, 0.06318901427419733, 0.03351553721923686, 0.5076432841375992, -0.030440495088183712, -0.16850560070792922, 0.040525829826041596, 0.20069600750806826, -0.20614758866738725, -0.16067311733373033, 0.07945639457062098, -0.5652955766791635, -0.1931521949642479, 0.14043713865083765, -0.10397234793211634, -0.28753972692901053, 0.34039497361390236, -0.24934586937072303, -0.09251824380418953, -0.06588374906835348, 0.014462728931710132, -0.06550187002424837, -0.014631843225824758, 0.010186481694867973, -0.01572260704650281, 0.01605514196595586, -0.4207476167933086, 0.07798300565347288, -0.24881884376406402, -0.38323754378843194, 0.2434363455147263, -0.22763893618000441, 0.03162262187619872, -0.13669803204973083, -0.11990713076331934, 0.08522889902597611, -0.18527836087664776, 0.06529160941851211, 0.06707956940672533, 0.20549462155622814], [-0.05812265277472697, 0.21016285247486735, 0.27207062332382237, 0.2294555873312714, 0.11226268968780165, 0.0887965966153107, 0.4907553070150909, 0.37952172809352963, -0.12472115433831009, 0.1826797043271061, 0.12805905294441347, 0.057834261950112285, 0.033810530723432326, 0.09068153106262666, 0.15979965039626323, 0.017745595959823, 0.09625918001686345, 0.23646583623575707, 0.05447797823081227, 0.12512466374676492, 0.14498351338359092, 0.3057635556576083, 0.24879764549351377, 0.06974193846135396, -0.011102565585979983, -0.22086139682988246, 0.052043589004731244, -0.2046824910589782, -0.18461171165699222, 0.14664139588127825, -0.02483039913141906, 0.06496455866658468, -0.13616640811057334, 0.23617467475612033, 0.040852478938350714, 0.22587869086411588, 0.09997586662980687, 0.03538050050921015, -0.13211997359251465, -0.04935264236553963, 0.14000040747133066, 0.11523824021446083, -0.18641338900927196, 0.19221487359143588, -0.05222983428176547, 0.1271319100986025, -0.10648452610668172, 0.06524512705374766, -0.10821090339728644, 0.008469663075359552, -0.06774597658821253, -0.06902248879213947, -0.060647037035208066, -0.020841273978260424, -0.2681862414557133, 0.13184500894905984, 0.18395449010393103, -0.13805778860378312, -0.24860253644926056, -0.19754726656235824, 0.1715552203656427, 0.16329787949145438, -0.07150624347552849, 0.17633777132329115], [-0.1843789033168474, -0.10649856146786259, 0.09121388362129948, -0.0049587500993122135, -0.1024746997807592, -0.4440043313018092, 0.11716997003171739, 0.06022624089596892, -0.3078830819482951, 0.10761160408653826, -0.001245457028623267, 0.044390214244673605, 0.16526679298417854, -0.13079764051520712, 0.12659539527048908, 0.12580232575872727, 0.1297750348308588, 0.2850948532304631, 0.11328754602959851, -0.09595884613278938, 0.32201529653036, -0.1919280823230965, -0.07983549993592176, -0.16894043946878318, -0.012154934092434887, 0.19193699179785184, 0.22468686903471052, 0.0891607757131966, -0.10742213615329586, -0.1020629726107143, -0.10596827306455793, 0.17085751076912034, -0.15436015983267581, 0.15340506108751403, -0.009692288448116643, 0.028746325121658974, 0.2676576757082772, -0.08286577117819537, 0.30395953332546827, -0.24185702257101696, -0.1469668294438053, -0.28333252545848764, -0.13609148638201668, 0.10031755002592645, 0.13343023744576352, 0.057634098455528464, 0.0488154786827564, -0.20233244112090853, -0.24069600473594113, 0.05927201917949501, 0.24322748937076533, -0.06415832735940037, -0.22116672748419625, -0.2698449007934231, -0.12577689285679197, 0.28225792381546183, -0.036815265726534784, -0.17285427908438675, -0.1074701910423147, -0.06731272160661357, 0.04134199818151764, -0.12498957973227066, -0.15433860641851488, -0.04010865288621753], [0.08272032079831496, 0.12668771676813292, 0.09636215450895705, -0.08256583455582284, -0.2998759103225429, -0.1415572136224831, 0.04877867766573799, -0.23619821447521674, 0.044453128718611054, -0.10452677188664718, -0.10325964138903455, 0.19758458048884384, 0.036956927913521696, 0.24191380798142523, -0.167169475804291, 0.19898787822580533, 0.1605982436340669, -0.5300564214555614, -0.01709712861815472, 0.27199961916799703, 0.13600513441409764, -0.0783117376532957, -0.04156878773614171, -0.2307147502660697, 0.03435586410955797, -0.31802155314874186, -0.17979223374159567, 0.1973309522839602, -0.004108009596158871, -0.06569417145896306, -0.020044885243173327, 0.4841854711347606, 0.1822984213975464, -0.13798014128978786, 0.2934837165868758, -0.016084410387390245, 0.13008196056791127, -0.10366732431174625, -0.16770456758799077, 0.13877631113038402, -0.13636227826389738, -0.14012526613153117, 0.15730865314208872, -0.2061720916599223, -0.25119891996268523, 0.09570229832896057, -0.3468300659375452, -0.13501494037404835, -0.06518874030687294, -0.23829766906037084, -0.19787712395814047, 0.11609126423875596, 0.051093259150886014, -0.16726380880653638, 0.09337889222556825, 0.2678458699936415, -0.22706778973315675, 0.00849183387854141, 0.3479532572247024, 0.10517747584902039, 0.14286264655094333, -0.036504686152103644, -0.14184478618601837, 0.20182000735749128], [0.11342908020019275, -0.010540390819350454, -0.09300783406962165, -0.3112299166949432, 0.016817341833925022, -0.12168127896916552, -0.027514711863876697, 0.11662233473425633, 0.14684802004409836, 0.11523566971055914, 0.40254002024607966, 0.19434296498222506, -0.13387272785903828, -0.14406832374696815, 0.4080389460442467, -0.12041069390326287, -0.013893034188224582, 0.28694168098271366, 0.30445954963983973, -0.017254580736970355, 0.03879396996508321, -0.2941879563578569, -0.15806388491715545, -0.07979054002967041, -0.008221731193915111, -0.061079255017501916, 0.012492396173235679, 0.38806913110709657, 0.08048226083169938, 0.05452011926003189, -0.004092322245716883, -0.0399750282299826, 0.20738397714194656, -0.17252531990800957, -0.02317590977849823, -0.19093002274092602, 0.010913197566924604, 0.02223030206679353, 0.15949090837451468, 0.20117268954777826, 0.11581935308338982, 0.28399464559752036, 0.2858948824154426, 0.05797866369264559, 0.06603696486516107, -0.34712991869105864, 0.049590536180948414, -0.008742020929758152, -0.30652148204926916, -0.08537517890230234, 0.1572406511189165, -0.2228952201562163, 0.22370950182131158, 0.08370017084980627, -0.06883220154547148, -0.046581556500725534, 0.14785403238493916, -0.25839342343514016, 0.3564548307308449, -0.15076880116002384, -0.13346261629430564, 0.20539159888534578, 0.13028804319873585, 0.22363568090104538], [0.1891931568441671, 0.12188752037344662, -0.22088586598093987, -0.09477194824853927, 0.08221446574671973, 0.018125992967273942, -0.3957075461874028, 0.16029857151096447, 0.32548332207190256, 0.325222796458643, -0.1490680134249818, 0.18683626307923543, -0.3675071780542484, 0.3100050355675802, -0.37007202187456734, 0.08241967534396213, 0.2925352479558473, 0.27578007957822764, 0.041772576288673285, -0.18230167298885938, -0.06794863182271772, 0.007842833429111167, 0.1344166916840445, 0.21837569909097068, 0.026129939841494414, 0.34998593828669844, 0.145007882924984, -0.04835374332071416, 0.2676898128893105, 0.03207161376820351, 0.01764360787957877, 0.03156317537348646, -0.3967239764105583, 0.10554428405504133, 0.11194252532501663, -0.003947335883020103, -0.05719215999194458, -0.2221351973905429, -0.05236331240309215, 0.12891801048575022, -0.04275654044647327, -0.11036632249521809, -0.04784149812209684, 0.38188966391411655, -0.25295508441337367, 0.16001545484739463, 0.06336465537052684, 0.24309347517596006, 0.3205986560646446, 0.02335672757428778, -0.2520981892585263, 0.20950235265202607, 0.3489936496895615, -0.17781059762862533, 0.24989624802533017, -0.10195802735278722, -0.12534046265476154, -0.3668177308967484, 0.15302179204430566, -0.022892101712386356, 0.09958299436867575, 0.40037028483823617, 0.13217315373997932, 0.1546263758781824], [0.13245753139597924, -0.18349590268479968, -0.010584434331750398, -0.21920406410814283, -0.15586483916090246, -0.015499465699071005, 0.1866750297976223, 0.36177532268251866, -0.1902280915439783, 0.03621903981292985, -0.008105370008721783, 0.10541757079006137, 0.10395257140782842, 0.06450719623199992, -0.17231664527162097, 0.06763213452223647, 0.16826346562206235, -0.08819475778097036, 0.35196812372568803, -0.03671212797649695, -0.11777934456237805, 0.05666038041224623, -0.04081397025602838, -0.23996393470716157, -0.012374127649194648, 0.28069136356424246, 0.3561578529350459, -0.10052335795618064, 0.16002697289004028, 0.030149772908135357, 0.04897615815890434, 0.22111281741610772, 0.14775239233092272, 0.029651388512821383, -0.16179825066995585, -0.19499124849825777, -0.014271953226301483, 0.05865543187315801, 0.08470260153672929, 0.1290233871335024, 0.17260886302467146, -0.423622665145719, 0.164710190789463, -0.18244655335175017, 0.1964477919861862, 0.05865075661296942, 0.11430487030394564, -0.10318692654314371, 0.05951162812451626, -0.33013613715162804, 0.1919835164593014, -0.06217880790508033, -0.45020959422330137, 0.18949246466014077, 0.3072792517344318, -0.15549297278493165, 0.21712737405616186, -0.13914010728797974, -0.4028007384125238, -0.0766692335899528, 0.061689182021604255, 0.03788440926931209, 0.015378839501236752, 0.05957029398896417], [0.03815516322549003, -0.039659825660584, -0.08728138738908808, -0.02422200130351009, -0.05970844465889127, -0.05508872589036309, -0.1863748273970696, -0.08815355935375012, 0.012649849640319384, 0.05542247440261018, -0.014458672641083204, -0.03949199956761993, 0.09589167148915555, 0.14606672445144694, 0.13035386478796357, -0.29746665558605606, -0.08377350765972179, 0.1390444329138926, 0.09245564202158062, 0.11849138032677776, 0.07127557495410618, -0.1493821734155672, 0.2116612880874847, -0.23530853709591645, 0.20145308756102306, 0.003087122725562881, -0.25508616010628626, -0.060412001951525136, 0.21533278153838753, -0.11282281889878609, -0.20784847744150145, -0.038749131063160865, -0.12817114136831603, -0.22537065305729376, 0.07614525189590858, 0.13884399431052782, -0.08406674298746333, 0.0929516365587274, -0.043233901221273914, 0.013897875059903045, 0.026135700036096738, 0.2688392785970919, 0.08151752026326355, -0.1800686513477649, 0.09667985221533093, -0.028014632666836455, -0.08412708535941368, -0.12038355056407583, -0.012077721083692443, -0.0004156364657525051, -0.05857002899674863, -0.2358708572050885, -0.3037645025792184, 0.022203857884099322, 0.02926095471326066, 0.40621308016488683, -0.0349638430572945, 0.21204433126596825, 0.21768427623642755, 0.030480213187837855, 0.012771727806074704, -0.08780484779795437, 0.32578448124057335, -0.26962096580004336], [-0.003809623966848458, 0.28875094504020704, -0.06382707292667893, -0.18032971916635668, 0.0646004453877262, 0.1138146697568005, 0.09410163937153354, 0.02497875658751143, 0.15048228101751593, 0.21076178007124005, -0.1656040208404256, 0.028534340278641827, 0.19050748597812564, 0.09711315341217003, 0.04244788625994422, 0.08881593065144044, 0.24475998766635967, -0.14362341733228712, -0.21129254754325574, -0.14690708038688685, 0.2857878000928124, -0.152446212317395, 0.013998391440802173, -0.01763573811168379, 0.11053546954629613, -0.30177478639443944, 0.008959275416596146, 0.18043280741145898, 0.19102184945220307, 0.14617437485375623, -0.04401099814617495, 0.28733070824626783, -0.32910420608613894, 0.22122033878774502, 0.13820564370761704, 0.13637730854832933, 0.021248850885517277, 0.04368815616421197, 0.08100586421735759, -0.28515278521840337, -0.22425868633950582, 0.04226834820897139, 0.06768396867899167, 0.058259880598834995, 0.2614061300369352, -0.12392455088039409, 0.16838728825598762, -0.0005134532337987348, 0.4928441267398063, -0.2622547985047382, -0.11353904272153885, -0.09685502992702759, 0.3106191632384722, -0.13410982640592972, 0.38313225719545047, 0.2631284693700148, 0.1710310483223971, -0.024658573894505646, -0.2585873638638926, -0.1036739096819742, -0.23376675376370248, 0.055886924338551025, 0.014246471834382136, -0.009277126598579974], [0.16808041523266842, -0.022915086411056527, -0.27374056291690363, -0.18736960727729807, -0.22518237579206138, -0.055956805289154234, 0.2205526826477857, 0.08943751682797675, 0.059963500287131086, -0.22721705782532448, 0.41847146349676456, -0.005030770241219419, 0.4271487185530565, -0.15321976114752645, -0.1003148741640695, 0.4596104435247909, -0.19005640379893146, 0.07386113266933712, -0.05993386148678915, -0.14377222618447202, 0.381993805607604, -0.1775657679504477, 0.15859550532413344, 0.19521764462375868, -0.17891238102558898, -0.3354943963991396, -0.3149290226101685, -0.14138723156618754, 0.039224481998455886, 0.059345158812201586, -0.03353990191229742, -0.018647739006762035, 0.17219525015716336, 0.13585475579515058, 0.06718034262603706, -0.1090795104231943, 0.13736794722148563, 0.03187319390622957, -0.13223022938753456, -0.10208633391763706, 0.217127919500332, 0.32615860361093246, -0.09369156806267545, -0.36739388827188746, 0.10374666677647983, -0.1596493138677452, 0.129495713659007, -0.06650014154047545, 0.394055019584348, 0.01986632968829326, 0.15963657842725737, -0.2148739540641491, -0.49834622363103703, 0.023868919580154763, 0.046264925787212745, 0.1272926880907706, -0.09818661405212073, -0.2283326744208816, -0.28294432321071383, 0.09784682000225137, 0.12550020432193768, -0.15488079254223908, -0.0933222008138446, -0.1288615442552621], [-0.33494073131719904, 0.03341227119700706, 0.152041970039522, -0.03339997878214131, -0.25175860144381856, -0.031074293273431332, 0.2540347740174023, 0.3815086238783037, 0.046684721240919866, -0.13918124393268153, -0.35034270122488437, -0.276894682197312, 0.002451976639655746, 0.04145682112502626, 0.05927141451243508, -0.04484231695561077, -0.27349492853144675, -0.27735757337705047, 0.03262772763014543, -0.1491976996379945, 0.23970566184790648, -0.25779282373725765, 0.29506018850882826, -0.11795277615370539, 0.05472336829572306, 0.05628973988749246, -0.060678166243932054, -0.3553408498465419, -0.07790357194413286, 0.26530329383424295, -0.20758728005621244, -0.32346914653957715, -0.03716876370611653, -0.07432771168894942, -0.22738772748794095, -0.1335957919559057, -0.07857666995142353, -0.06890791358519811, 0.03963624980336407, 0.15366159194448104, 0.07161379751074727, 0.0763083498800883, 0.29890662044190847, 0.19610916683357646, -0.507008089407226, -0.06410408817765938, -0.280691931963772, -0.1056262674944008, 0.13167496472570747, -0.03529965327996264, -0.0746487063230805, 0.24509479914154678, -0.2706070710274792, -0.01715097446716462, 0.09643521129165197, 0.0047543155515462855, -0.20061264528625677, 0.007100509693200517, 0.1645011447000747, 0.07495268712673511, 0.05793963846678653, 0.04560672244563808, 0.025229343182306133, -0.22106542878533433], [-0.054612125657377095, 0.07762959474490769, -0.5506957156033132, 0.13377763063609097, 0.05980120702933031, -0.18961962517831948, -0.1320061140865412, -0.036185945171190836, 0.07419698675161615, -0.06550576273715206, 0.20853733554009427, 0.07434023292662556, -0.13650403891987778, -0.08223561636470104, 0.04092768981855148, 0.12878701462395722, 0.1214246304605489, -0.01717359889649844, 0.026102852142430535, -0.002482282556843517, 0.14480595118214595, -0.1730730453926082, 0.10983884485453381, -0.3275166251524179, 0.07879511841188837, 0.04637181043619547, -2.748536575106174e-05, -0.3765458616897192, 0.2770070195579803, 0.16144704587163275, 0.005369569155589921, 0.08099356658881846, -0.16616806002826157, 0.0934003953918532, 0.27855943138399575, -0.20698683501585924, 0.4756271137640205, -0.07586649403534018, 0.1456630432712785, -0.14731229515635855, 0.06888827470694174, -0.22488824920191366, -0.11376434096885002, -0.039162252192146585, -0.11575378177846256, -0.04270255306270193, 0.17348261061956116, -0.22672493877882954, -0.209889791412046, 0.008273051384744209, -0.09979355515641686, -0.17795388590535716, 0.026753692045784695, -0.09917814590705147, 0.05985394414932699, -0.006979105602645637, -0.033678883186531935, -0.012953288719205768, 0.18310750118831665, 0.23125977498391986, -0.02784030832335754, -0.1792902262631145, -0.26718901403562445, -0.3946411753110049], [-0.20750769942524888, -0.16279498701349565, -0.009551664193652897, -0.32975741996255736, 0.2510847458911052, 0.17687082787087657, 0.2256720492112148, -0.08753195366100137, 0.03490559382865981, -0.17142770796689832, 0.25237082754889706, -0.22327314930415187, -0.10194033587084843, 0.24796662936599553, 0.4395572757387904, -0.016654369060469233, -0.08106950240804167, -0.4440378160633703, 0.3026583672718709, 0.04218288174181496, -0.32714455023214467, 0.14440006474324493, 0.08618037577693913, -0.06286039220541195, -0.08761179929215551, 0.12612533897530484, 0.04110727779080249, 0.08247929520759707, 0.21602264222933937, 0.19553821163762572, 0.13346343384056564, 0.1040302227185864, -0.22609019345245943, -0.21479241692342613, 0.13665363961239185, 0.10548638556942302, 0.09532988701181892, 0.13796620802345283, -0.09300141881467976, 0.11530300660507606, -0.17286201983667193, 0.015414074418578453, 0.14580595154908849, -0.12723515836217367, 0.3478039976348016, 0.19943705460659764, 0.2367249181415965, -0.025401016998134705, -0.2536182698940304, -0.12492615279063606, 0.09727636961652109, -0.0426711286726095, 0.10574107123846956, 0.021222537857019694, -0.10658392737642362, 0.16350393218680992, 0.22188428581268146, -0.12243190691609815, 0.08732689111478048, 0.0346849019588324, 0.04923569472151189, -0.0333124011629823, -0.2214409173436121, 0.24780904692151384], [-0.1844827215008504, -0.15393542313780312, 0.11601334654900643, 0.031797672683194424, -0.1407396901298287, -0.11625868773798399, -0.02805214652056975, -0.07708937172725415, 0.11427552257078531, -0.20582550263338154, 0.06417354254537032, 0.2705199543824613, 0.0355828772991429, -0.15703798956058235, -0.12780880501294373, 0.007704636432027239, -0.1103593715929221, 0.21824890965044344, -0.32535105897704514, 0.28967797641320664, -0.35797100724362546, -0.00726973783965292, -0.19147537844232929, 0.1449852487611824, -0.13683111539361287, -0.20030054505125486, -0.060110819573420356, -0.07266354755552673, -0.34207350232965017, 0.0803020502794988, -0.42296431177242555, 0.20794902261138373, -0.05834777781891242, 0.1684243691518796, -0.1061746823544709, -0.1402206264968516, 0.11521388260932922, -0.10326637472543995, -0.27358106797688597, -0.015393162318144514, -0.24343381409237558, -0.0022855636086654527, 0.24373308015973355, 0.17016309515433878, 0.0003273429119954385, -0.029300770513528064, -0.056010841457579334, -0.11270316816613114, 0.06275266321464792, -0.027912801992837376, -0.06747275756575276, 0.04773887726715594, -0.35682115729229863, 0.3458567074440692, 0.1113832102497135, -0.2463814612417738, 0.020305144218888294, -0.19959458994132412, -0.09533364742028382, -0.15823448580006455, 0.19299277239977664, -0.33957894234195396, -0.0626484946318909, -0.29152372798711185], [-0.003617757446785473, -0.056208891117421556, -0.24867517152210714, 0.2545035340225499, 0.27636933520726953, -0.09963624544316065, 0.09232098791125663, -0.026281251819349618, 0.04304082085786965, 0.2708160708057008, -0.04745177882970302, 0.31677453781637377, -0.05078645380412158, -0.01652221297719531, 0.3340368862429138, 0.048646278339119095, -0.35923253198131594, 0.039737634448139485, -0.22658771469909744, -0.2939377256087198, -0.16664580531182488, 0.057611344930164274, -0.19682378684818938, -0.24772265545233274, -0.06714379120286339, 0.07161040771697337, -0.12310751924293356, -0.2309699323088739, -0.38404718860157855, -0.1371980122953105, 0.1493817069713761, 0.17714360790625913, 0.13963766415720966, -0.03094152981670185, 0.02290111066091983, 0.22407630441669013, -0.15358206296410865, 0.06439427909531001, -0.33073123241543284, 0.12070192222144409, -0.07974469906767241, -0.20420595594335408, 0.13668872642226768, -0.19641732250163813, -0.15324981645732155, 0.271674556229073, -0.18491924757248598, -0.11595208517053185, -0.12078661497213135, 0.13872856788561294, -0.324522657007128, 0.22105125022039426, -0.04304308468612501, -0.05602223187336489, -0.1585130324690136, -0.025696582145134584, 0.2600327387408688, 0.03764864891652086, -0.16465712422630996, -0.06139355569198156, 0.09452196965918569, 0.015060268858175222, -0.0454941713576241, 0.10686383193849262], [0.06365846631171748, -0.19034445906358366, -0.3366761672479199, 0.09116514089074398, 0.32848098766829376, -0.14521380286637797, -0.026626071680578074, 0.24029057256633957, 0.30731154715066655, 0.011821668538315979, 0.2207012966992649, 0.1285590414109578, -0.10029268335893333, -0.35707579113295185, -0.1611103615221576, 0.06546897765489462, 0.07061884838204092, -0.09247104656703779, -0.15476494558436904, -0.2821754607401935, -0.2964724646042521, -0.020627511773374033, -0.2775630297286674, -0.0025030029348730135, -0.13986072466095162, -0.0754878661989793, 0.37175215877830226, 0.010044308876279186, -0.06104794608939872, -0.035114123504667125, -0.2607691619664701, 0.2369166382822132, 0.15142185348889903, -0.09478499596930455, 0.03687558158229702, -0.12043126904807552, 0.06992575727997905, -0.2372349723215614, 0.04960072599679183, 0.2670931050913211, 0.07777700801867456, -0.10817171477252532, 0.16448502660067382, 0.3427402395310434, 0.13015592628192876, 0.017057336783572897, -0.14147963692250395, 0.0776355203228594, 0.3346617124243759, -0.35502420557901204, 0.17438532486619895, 0.025017436007062823, 0.2673768010204309, -0.022119643039606417, -0.3856870589388688, 0.3511705058975804, -0.2054426231384563, 0.1437254068010283, -0.023278159204350616, -0.001388829131271081, 0.020017734799211845, -0.1040032130117283, 0.032853517144772984, 0.04953744237160688], [0.1412964673043911, 0.02643817829088005, 0.13620812361250703, 0.329067385636639, -0.14188054923031693, 0.013321870890163151, 0.10341509385130047, 0.21485849636350454, -0.015195712659496362, 0.03190454749246226, -0.05965352436889078, 0.1984285494967171, -0.05592353863319684, 0.1308093763515796, 0.014039919664313352, 0.04973909041948087, -0.22504816553334775, 0.06126364423693517, -0.014305631504381583, -0.25004676536581655, -0.08127879514265632, -0.062452019354602976, -0.2663777127965164, -0.18746020097649047, 0.3491035335624624, -0.161251057733133, -0.13703920200989064, -0.19877730215921707, 0.22570344644306672, 0.12629525233328953, 0.0742620363894065, 0.06396753889358231, -0.016852918635303013, -0.06153660031726282, -0.12696727616808728, 0.1071187698443349, 0.1693183580581768, 0.1733701322357894, 0.4514377951531554, 0.22614641002804503, 0.12181706899956961, 0.175524718836174, -0.30381070119368525, -0.01391434395927513, -0.23607825175018332, 0.319836915631265, -0.07890916657688679, 0.4047127596338701, 0.1639770665044363, -0.04573379214913826, -0.23447437758215617, -0.1756179298855645, 0.195641884420746, -0.05076610876854579, -0.2497490010565445, 0.0421175355170506, 0.29252436956262695, 0.39721773714173614, -0.06641605971591664, 0.21985928901948137, 0.09042284942759288, -0.3006870525794626, -0.050469832920822084, -0.08605435091749661], [0.0715491204924638, -0.0904597171841802, -0.24328611933271604, 0.06042418895010073, -0.11334765090802049, -0.2156945253153286, -0.21667590093853475, -0.03870833072810495, 0.25687710889379095, -0.03127105905760599, 0.1908427032465007, -0.39964744023708076, -0.14741685989078399, -0.2217949028758376, -0.04694477653637353, 0.1377058828682057, -0.09865482095104529, -0.21795249450035495, 0.16683744493914238, -0.1340068601005064, 0.0508297650373883, -0.11741116880768618, 0.0930141124360234, -0.06713169945472923, 0.14374343767679898, 0.11104466753511859, 0.392875425304597, -0.013198040958546462, -0.17208119532377683, -0.20699187018195517, -0.1045621165946295, 0.06913337377505561, -0.12320947112150661, 0.26960377673393104, 0.03493563096886732, -0.17302751680314962, -0.07975122393047022, -0.1121642350079374, 0.03359577830598217, -0.1777134796943642, 0.2270074552957912, -0.06389155529946046, -0.042473160142294346, 0.16279119596205693, -0.13114711050175043, 0.0011828864881108752, 0.31709045827553517, 0.07542303902366326, 0.04939119163598495, -0.08239984495438371, -0.1732858699778207, 0.3106101810338, -0.02811124010725257, 0.336030914617863, -0.1216914626952808, 0.22531035670967403, -0.035155790272929255, 0.0762532027880824, 0.21638492865413392, 0.08569489392088515, 0.1394492461607843, -0.280131227238886, -0.0788713741116063, 0.35943475061053815], [-0.04079726935515623, 0.05562275506162353, -0.012165204527084186, -0.09407634736597302, -0.26310176883737235, -0.2017958246487391, 0.29986301163321755, -0.010443300399517973, -0.21072513622823025, -0.1603243050806795, 0.15344795037964942, -0.169209575032482, -0.11158627449948867, -0.19732070005993932, -0.2199751499740988, 0.3018710963360663, -0.024826402039290117, -0.03787653451276801, -0.10408909556262994, 0.12559261090346424, 0.020611086898650672, 0.05188052480780019, 0.024942931015560155, -0.059525530270937065, -0.06970254169136476, -0.30678514815275343, -0.07792827411270856, 0.3890713193954897, -0.21911523985912834, -0.00033795115328593485, 0.05825483697196959, 0.22255430193053272, 0.48459363662582927, -0.07045491435403241, -0.1546497305914097, 0.1871463723826916, 0.04737786567812891, 0.3552601319265196, 0.14282214626607953, -0.10685454472908158, -0.030890659321656907, 0.07602145217770202, 0.08799425512036309, -0.20062245883233423, -0.3370890259927885, -0.2726749119922824, 0.10819033383667029, -0.011937032711276604, -0.32437163256513235, -0.0892039096934657, -0.33240294376725654, -0.04133358750666507, -0.15318610202545288, -0.0982978026203367, -0.013754892384388324, 0.053648527196641385, 0.008823063230037141, 0.24935419294848477, 0.4226368126592663, 0.18083938268861566, -0.0323113552826013, 0.1322735393751427, -0.11918404154204609, -0.1422068474583017], [-0.15347391368056096, 0.0609181799322477, 0.20324327872180878, 0.3704178194284018, 0.23732091687458542, 0.1254666363371802, -0.12436245881543702, 0.007149418204213876, 0.0993144019216386, -0.013967325178616473, 0.3342480813434735, -0.12557030453573195, -0.1234573060172122, 0.06911094380999316, 0.35330029030988985, -0.33020114172887466, -0.13411125979045077, 0.22196539893989217, -0.1202322323398468, 0.37696149896358117, -0.15579270756001273, 0.19540549311204664, -0.005620712278610151, 0.08196034395436429, -0.20027787387372759, -0.2863209919661769, 0.1369615070240381, -0.10479758119813092, -0.16483496875078904, -0.18091762317764717, -0.18765932207197344, 0.2305357981091408, -0.1756223790301599, -0.08749550049833824, 0.35691337963509645, -0.07064682748746141, -0.00812508030154873, 0.0644510251961549, -0.07317426736053786, -0.14116823963310604, 0.22419741147009709, 0.05625618360727037, -0.10167133232417627, -0.2405333293164482, -0.2129986440969058, -0.189372347911503, -0.37360196347266283, 0.19110702684324654, 0.03183392686215129, 0.08726562835270045, -0.2585550849397209, -0.09088986101460975, -0.026685977221875695, 0.01450037284485689, -0.01992129036374366, -0.23208083388298584, 0.19459713767583955, 0.10095281956834352, 0.011918278037197699, 0.1461420736198953, 0.21653746520480474, 0.26986360131457127, 0.019944873336691434, -0.048209036381726855], [-0.0848188145670343, 0.1577791734691108, -0.1240306955025175, -0.1614757659858595, 0.09802799849714958, 0.09278382931185457, 0.11271243535480314, -0.15000590439877595, 0.053320772960241666, 0.16187178870912808, -0.08445403935648245, -0.04724236991117552, -0.052189832802583686, 0.2687689609610593, 0.15968979217943838, -0.23703255688375635, -0.2687107707808355, 0.11495488678099637, -0.037428303074361506, 0.09434565925785186, 0.04699529869173421, 0.17868488989527118, -0.28699578370351164, -0.09686632942876004, 0.04447622950195756, 0.04184358889479339, -0.16757893337556046, -0.0931125833256195, -0.10339461262548919, 0.008036013352568962, 0.12422666084572687, -0.048693162981407405, -0.027056038198992754, -0.36993197942807027, -0.18754104034226354, 0.32770087670413206, -0.3031512502777174, 0.2415934300383059, -0.05247765587366778, -0.34663662710977095, 0.25767677632149805, 0.22724042423918003, -0.08862829579499648, 0.1534579110538475, -0.06273185239373641, 0.009014550288529124, 0.029464915398196397, -0.040678200458719754, 0.09271132612642324, 0.06814672892471788, -0.09242289650017943, 0.05240735686513301, -0.09171319983746867, 0.023740505571702195, -0.08779115551636003, 0.017251208227815767, 0.28342717144417434, -0.11542870825488241, -0.2582601342634277, 0.2818726636668556, 0.051823353772584145, -0.11494859036369567, -0.0441475157239653, -0.1615180207545512], [0.16837812293802515, 0.16199298777863885, 0.0984696147232538, 0.026331776940115063, -0.33839446609614515, -0.19686910419792705, 0.05799018076657019, -0.47307139482584204, -0.001098440008021352, -0.14296019412940036, 0.13631593738918454, 0.03122359882974571, 0.21757668054556617, 0.07009397006482466, 0.03585789455287834, -0.17724004860317083, 0.16486401949923954, 0.43424817758680345, -0.2919638605131133, -0.14299320217050313, 0.27705659373874175, 0.12481855618167867, -0.011161312833311494, 0.156540466325275, 0.03361483190481153, -0.10102782966687794, -0.1045199621340228, 0.15624676324575687, 0.06530256237015872, 0.2358129104713294, 0.12777486208307684, -0.1153329174633994, 0.2610188781424642, -0.13444670858745417, -0.04971204067267269, -0.11538860519830084, -0.2569914012651284, 0.12488299739513845, -0.20621640716590567, -0.14230396973037399, 0.16596419769702003, 0.17171747513775773, -0.07390127847276086, -0.21184460974925431, -0.013764352920381532, -0.2852346017936343, -0.15532834360656703, -0.09106494789350124, 0.01870499663488656, -0.08964331208041942, -0.02515920515538376, 0.24227266868537314, 0.16737011806780228, 0.25491197918466424, 0.22388725602824294, 0.045213531506521486, -0.199704918522924, -0.2679339996662842, 0.014367089207700892, -0.11375690126636247, -0.1481632946383777, 0.14654853266193166, 0.2127908793794709, 0.019139484852847194], [0.015175423394161175, -0.09638141558604611, -0.12164777298116128, 0.34785241688932433, -0.22210163345808315, -0.028844813787828102, -0.07943297255825449, -0.019741691562848326, 0.18497639745081515, 0.17574936373733185, -0.02504607339069463, 0.19896233366195762, -0.13633723606957987, 0.06278536380734032, 0.3140795141304119, -0.10210991069972129, 0.03662125405253043, 0.26494574934997195, -0.14916450202357712, 0.011631844960633754, -0.05581055581536392, -0.19738191619077325, 0.07160429103012925, -0.14927807573375979, 0.29245952865304903, 0.002880348463960497, -0.03715048797095371, 0.006368727239625987, 0.017756306968049203, -0.03502124248860966, 0.00922231126772446, -0.10161695109108804, -0.08830075335255268, 0.09328841287041684, -0.37764410268760806, -0.1411660105324777, 0.0015412098901914837, 0.06006893155497288, -0.06961357810010788, 0.023155745204117572, -0.06176580701895665, -0.32952876369282524, 0.16615500264444952, 0.047275504683030746, -0.17009536670638634, 0.26077384188064756, 0.11981040273198751, -0.11079605290475733, 0.19566989533402962, 0.09510144084441226, 0.146517389781749, -0.10666154496669741, -0.0980410677416581, -0.14547935827319913, -0.09562927631543976, -0.40887634356487346, 0.19105464349585674, -0.20895999280637345, 0.09967953987379398, -0.23001779238852463, 0.020445072379861852, -0.21057651445218747, -0.0035207638750714408, -0.28277763085732655], [-0.1045823838400715, 0.12296860417099004, 0.038038172734039796, 0.031154615603377397, -0.1506150604400158, -0.3839063933216482, -0.15642627893125227, -0.08988495189363675, 0.2646669707987961, 0.10416405078724754, 0.06182104690906777, -0.09666314217779189, -0.12132595109179788, 0.11648777924432303, -0.06091818220798392, -0.05866396254267115, 0.3459098696402416, -0.1726285567356411, -0.04864884228990831, -0.03835941834195839, -0.1150785063317819, -0.2449875674608863, 0.23422313275223658, -0.24963593238840387, -0.16035525365002984, 0.04937128835754425, -0.21967967767100158, -0.025892544450858885, -0.04441196437669885, -0.034343422283410016, -0.021385095679081513, -0.24880536035753995, -0.09679077262572894, 0.23418226866095193, 0.2126240301082325, -0.09756062226067153, 0.19192875193574171, -0.16169223379992947, -0.2392350887771958, -0.35637217200704324, -0.19670820091022828, 0.08351689909518993, -0.04954393993480352, 0.29776709096303233, 0.14883845219282477, -0.061920553151146515, -0.036763061655063926, -0.03802269203252597, 0.18133389449007695, -0.06743842139813652, -0.002284088806763352, -0.1297337647693305, 0.2409399122085196, -0.060123517214326745, -0.1118892052888625, -0.2681866597303215, 0.1755707442390202, -0.10271299731259574, -0.006916795408231402, -0.07130066206658797, -0.031233938543123785, -0.342152743652831, -0.13870484333025754, -0.19058703131115357], [0.3916016401092431, 0.3283512005444578, -0.023076466072191486, 0.26768210706361617, 0.27048041664964445, -0.16614484821932518, -0.21777902093334456, -0.0008115654611671468, 0.03223142047674572, 0.12247180987133718, -0.07337978326613694, 0.5173953710609913, 0.0748904438570848, 0.23614021073809205, 0.28719947014181735, -0.1689671485621994, 0.2541466558385158, 0.29076767699074785, 0.27865004119677633, 0.2562281794956076, -0.010680058161409904, 0.08122631145753689, 0.35650923240787347, 0.13117133986991117, -0.12342510814408567, -0.042646537485917006, -0.20480299619102288, -0.10678070533234066, 0.32253090818581187, 0.09987816381763105, -0.0725298371235157, -0.09564630793528489, -0.11362045004188216, 0.03128747763558515, 0.25410466923363395, 0.13351555416910557, 0.15341325375280862, 0.1333253352578256, -0.13924534634204697, -0.5271520470871701, 0.02871449469039876, -0.05565518115816735, 0.3554490396085867, 0.09368407329005836, -0.1721086865919579, -0.14368328906210498, -0.1395308732514865, -0.23051380797358167, 0.21455067070174413, 0.17208608599765965, 0.05355028022414643, 0.11405422206512657, 0.3264722393082445, -0.03558859046155097, 0.43426059608958145, -0.28442838297989315, 0.08357625293588902, -0.297960223698054, -0.2558049575216627, 0.007585771117063058, -0.2951447182701914, 0.38416741525672554, 0.26978193021691516, 0.05789895303516014], [-0.02040450983951176, -0.33577135104476197, -0.04414734038571733, 0.2561468236583716, -0.09243417350750507, -0.172205572840859, -0.4092916367725691, 0.2272018858209236, 0.07278063859168243, -0.053600692771581096, 0.18423956652814535, -0.09381706388464776, -0.058772575131537864, 0.3754908458998688, -0.15831441457328732, 0.05130070421440153, 0.03956288317037758, 0.017499115302323797, 0.0012623389795645532, -0.23128399606299102, -0.024297223725791097, -0.04315838148070237, -0.11846312856206775, -0.14742882343252392, -0.17703091411316468, -0.14291818286199395, 0.07247314924035343, 0.006121865537941466, 0.2927021659766968, 0.10671364361029315, -0.10503000211547978, -0.09521091147897912, -0.03052614880836383, -0.06190185709370589, 0.0006473505697081581, 0.3432106245316117, -0.02676540116230913, 0.023299767914840022, -0.2107789672804553, -0.265244884162788, -0.023914606965020072, -0.07360633978137922, 0.03586574270582269, 0.2400111045636819, -0.09044620551815102, -0.12093522750021708, 0.17280116067630968, -0.07693308712860553, 0.010220486859773333, -0.018843050652386232, 0.33218498949745284, -0.29750602486160765, -0.14530417259189984, 0.11491065954905266, 0.2050097090297455, -0.1816550387427725, 0.2085091071133274, -0.08331211089717223, -0.1282174762888558, -0.11162174109495161, 0.06275375089154, 0.0857177938478124, -0.15460625737628253, 0.03652714471193842], [-0.06756455360326155, -0.2114670682958261, 0.29910070862395016, -0.1690958316989145, 0.01807758615418521, -0.20460613234600974, -0.07303171798295936, 0.017219310039470196, 0.02816733432970002, -0.18110184258999915, -0.02163092746262038, 0.06151995235399295, 0.2665622488669722, 0.14223585600797406, 0.1935108144869755, 0.11191688314848951, -0.11777363475685174, -0.05785356349925374, 0.1609178156592892, -0.12111352778630306, -0.195978174898154, -0.008092712534782755, -0.32139356436090916, -0.13831572451747287, -0.19724894984334837, -0.06921058662818844, 0.2318717634525194, 0.40998907886477165, 0.10576789127525324, -0.169004583817326, 0.13301623659805242, 0.0746103020434981, -0.10646950760368483, 0.15612107411728587, -0.08305678218108366, -0.10232453549529262, 0.01184844311976266, 0.12174693303534118, -0.0634568075560304, 0.06892388453796978, -0.3227599181792427, 0.05524559757642544, -0.0836913359488265, -0.09169782679112043, -0.44497123322562376, -0.2561955152318208, -0.3085228834436302, 0.11156929806532644, -0.16329187702775322, 0.04816848593207861, 0.11659376516244291, -0.09418900351480455, -0.1816477518143085, 0.2136185756445746, 0.04644143891542179, -0.21791381762332743, 0.08497465358390954, -0.11462934623300253, 0.0873933798763668, 0.14894007027238157, -0.14355533198940015, 0.08681572516285273, -0.5323499658334102, 0.09641808617081067], [-0.34661750011251236, 0.44396112292754303, 0.06129853386111786, -0.10805341600713195, 0.19890894956785202, -0.1400332587714319, 0.023033296443678523, -0.04939108231909259, -0.0011584268442535793, -0.10107237967345734, 0.07327282432872294, -0.1330635364168911, 0.019172953737771434, 0.11126834151323739, -0.1040463002358348, 0.1465173152341311, 0.08377670766167061, -0.05426671067218992, -0.09064571814173003, -0.010464556595705358, -0.07851300879232619, -0.09316702186478393, -0.02678155976375206, -0.03899016190534952, 0.02164529282540145, 0.2509827506910518, 0.16036339696505786, 0.1489404229199474, 0.09106083915362821, -0.10770305968681282, -0.1872272456655085, -0.04075495833716966, 0.20849036129897539, 0.20990953477057642, -0.25695100008169036, -0.31485150080373736, 0.297029132001395, 0.25021692029639636, -0.1097052610651018, -0.009911203277238342, 0.009458127041638476, 0.19687351202762435, -0.08814973961903312, 0.10387834584049738, 0.04914844951082123, 0.052149187547561905, 0.18534005123928193, 0.0291826746449092, -0.22695203524144653, 0.15796300875689986, -0.087264187343456, 0.16049523243712235, 0.04400053717024126, -0.17400959630968374, 0.04250967671346083, -0.11431928035784066, 0.04452440970677514, -0.07011348255805569, 0.17907637992824565, -0.12452327560676306, -0.06444305910199247, -0.12429841960689207, -0.14151853863554098, -0.048297076315782055], [0.03778092480248103, 0.09801117491330126, 0.009761202714870047, -0.0800235104011122, -0.27567485415714077, 0.16526862208331095, -0.09014780810903548, 0.07108144284583566, -0.18901877083434113, 0.267104366307528, 0.12066242325148889, -0.15874478087039315, 0.05976817870940197, 0.23683238550292626, -0.031715315329078377, -0.3004743963714174, 0.07918879966023963, 0.3262568446834793, -0.28292497338693245, 0.18008264032333973, -0.04060132911752669, -0.01718941099767288, 0.03197049279347374, 0.002284070983930091, 0.15343866278093407, -0.20646858762104564, -0.015644936183268295, -0.16578784493555676, -0.09037975015132708, 0.5228003417135113, -0.1500456878280406, 0.07984985704685382, 0.05480600974378027, -0.3412392669512894, -0.20477676338392362, -0.32227157388099403, -0.026542437868021285, -0.23329285903873323, -0.15794505306184803, -0.27016987051873337, 0.11889827921167574, 0.10440468628646515, 0.26041949995476565, -0.03226110928366363, 0.13046627924150583, 0.19988893541149708, 0.36924516614225095, -0.21999153245777026, -0.14486599116218016, -0.17316548422057826, -0.24452117123497794, 0.1263115548588127, 0.12666822807646586, -0.24763923343020677, -0.1926388023767805, 0.05581582997302626, -0.08824572329650662, 0.041390386498104045, -0.030867910819030436, 0.18943358918657668, 0.19790855505148178, -0.32615587326915707, 0.23989236739953412, -0.08596389529704482], [-0.20047051254182108, 0.1065798142733414, -0.17318798749210587, -0.22225074810821233, -0.06098360013550232, 0.2406304729405313, -0.3213622241585502, -0.1840801384556257, -0.2990266294118566, -0.21296825879745546, -0.02626103739182016, -0.2333099637233202, 0.054869015942161835, 0.01870832177606184, 0.12767753498131687, 0.33941247712352834, -0.1747396164432619, -0.08501840148381924, -0.10682708301400043, -0.07993197219598902, 0.07130506909991956, 0.10603988248581699, -0.08943904040670755, 0.23541412660842825, -0.0480191506604683, -0.020485449645279447, -0.1573157568047688, 0.11808210840345551, 0.1318232283466345, 0.0004941474075526556, -0.3806003813604827, -0.043107237586459804, 0.10487695453156676, -0.07376638906716587, -0.01709926517346901, 0.09060642337882535, -0.32162611692616155, 0.14048917121451512, -0.3347620770282183, 0.01689118874270251, 0.10163947872935088, -0.0887325369299459, 0.08258237070984487, 0.08730225974592175, -0.09399784097805694, -0.07502222934676422, 0.14210946971877753, 0.05417949333492948, 0.1061524800326347, 0.07262582995437097, -0.10064408313943587, -0.1868477139365726, -0.18055680303630597, -0.23616459724990607, -0.35511145374170666, -0.10430450649278075, -0.15924167813444653, 0.011373934853228398, -0.04035521277051384, 0.0659640615181855, 0.1990215995570681, -0.17340580971677172, -0.04423761010106287, -0.06730616938648357], [-0.15441183637130795, -0.20801375229015984, 0.007906319337796164, 0.04118409900298617, -0.04943188470496191, 0.0992292206716999, 0.05141168676447811, 0.17646828680749516, 0.008876336715602407, 0.02785719577438362, 0.19965104426680425, -0.07402495685639444, 0.07910921866856169, 0.17578811960854196, 0.15626111425408987, 0.14552782913632, 0.11263434345362694, -0.052423556845524834, 0.17273370122348966, -0.08614100934837811, -0.07714002465806091, -0.03657827151478509, 0.09950665237431228, 0.28328307954774556, 0.22807863487293878, 0.22166120275868462, 0.12111790760070457, 0.024694896949494834, -0.15539046372263793, -0.10033372350588021, 0.02059515410963117, 0.3000129708555688, 0.1000574646022731, 0.06841817029814508, 0.10383090914594449, -0.23521816844865975, -0.11927384357915069, 0.09096110880140451, 0.17559879527256092, -0.11312184250537119, 0.09780113096120265, -0.33674623094166556, 0.09117608792142315, 0.252865480181303, -0.038651262606251555, -0.1100846199593644, 0.4743937465373827, 0.002998050045534903, 0.24652434327455672, -0.11688533790373823, -0.2120402382958806, -0.27350341890357155, 0.18038413881327478, -0.2927769347018485, -0.352575244925827, -0.11183266279487272, -0.06825562995930626, -0.05407367734638587, -0.22342354938174294, -0.14991455728330455, 0.009255793943555368, -0.3380296285239324, 0.015377197013638311, 0.10699023294966731], [0.2406215381696174, 0.07257579852566338, 0.19346572239781906, 0.051870939944657794, 0.25002128601498147, 0.024434218808567505, 0.37084206896532906, 0.10613397752387495, -0.09886693190854963, 0.015620987682376698, -0.30961475563806806, 0.19180010158242314, -0.04274332424156141, 0.21875005983288567, 0.3926131784413686, -0.00208216808028809, -0.007743352741736684, -0.05021213170808071, 0.069162343119986, 0.3750262800557203, 0.2255103297097659, 0.03199315830430562, 0.18187552339133148, -0.3816670176993101, 0.01916628582828634, -0.49685286612804846, 0.18301245921757853, -0.3833683918616651, 0.09831703136121228, -0.16671566782438643, 0.45676909114339653, -0.2325773153009335, -0.06919474659367043, 0.29744041383561276, 0.07668400497512379, 0.036408713526360104, -0.04359003934886981, 0.018255441960033522, -0.13372965604480525, -0.029483928657861782, -0.008245080916048059, 0.13365342034571098, 0.01755082749018971, 0.15171128311977858, -0.2598822550200354, 0.24305923984823394, 0.06861162121510797, 0.28767845398690456, 0.07741913545507854, -0.02952408538197783, 0.012165130461025244, -0.20301460411808994, -0.056496746331886095, 0.03029902325731233, -0.012673492622546221, -0.3122068727216541, 0.0889333487946819, -0.1800097047532015, -0.031894560986854815, 0.14507522342011261, -0.12195521520966122, -0.04644871023953755, -0.0876697739518267, 0.08088123833033951], [-0.20516895084895034, -0.2805024603261919, -0.37001376612239467, 0.39094114391947893, 0.11012037922357171, 0.2898079656021538, -0.06201997288696387, 0.20147265156009123, -0.0784814926439525, -0.23606172610765824, 0.15083174883742223, -0.07170842172148663, 0.055192166843752596, 0.07561197448692317, 0.11163601101729613, -0.03848783901149046, -0.42233672760365265, -0.2266855690703412, 0.10205635812871351, 0.3334807787960322, -0.0022152985878695266, 0.23698579188395377, -0.4224038912235994, 0.25201522358879547, -0.1946136172881379, -0.17066005121179723, -0.06494746709974021, 0.05571874120773643, -0.20799787140246312, 0.16915291777128943, -0.24593027686148514, 0.02039778168049362, -0.16062608043153667, 0.03776057588517033, -0.35869942262295185, -0.17373622923257698, -0.21993467101101632, 0.16460413255621179, -0.38913532245153387, 0.3174003624029395, -0.09065771154945204, 0.038341634849526095, -0.4481430910596308, -0.13930299855455974, 0.15383869931872488, 0.26216314692748727, -0.18320654571650327, 0.20621310353649153, 0.01618058560951296, 0.10821318894717764, -0.04363586099432696, 0.27192291005212277, -0.3131172291078044, 0.11248274711112098, 0.24424524966039837, 0.12202765574193535, -0.046475703852532566, 0.09701671826140794, 0.05678945211174935, -0.039418210412369946, 0.18779763512462935, 0.21594935079411387, -0.24477222604278684, 0.31492974090554904], [0.007068053652477316, -0.03775861065259018, 0.18092909154519174, -0.09141363283480623, 0.0731851806048947, -0.061658231717194555, 0.002161054500081313, 0.08276814509329557, -4.401475784868211e-05, -0.07223961896186533, 0.2084158355559598, 0.06303743152147653, 0.0837408264159563, 0.15776174328138132, -0.358311777071642, 0.1722544116524092, 0.3818150613544072, -0.1969741160669862, 0.4422886601214292, -0.3273974062323843, -0.1019183341098546, 0.11802811090804277, -0.11265744031862585, -0.16728944939127577, 0.06470923062515066, 0.08233114082894097, 0.13850074797324674, -0.024687717119603957, -0.35606820831967523, 0.07825227639386638, 0.23276708531701282, -0.0748291226877126, 0.15088804078843, -0.2521476578417854, -0.13758215200405144, -0.21742466409020206, 0.031089384338723006, -0.20340273389753424, 0.33275793037577706, 0.13512498970491446, 0.010603191037019793, 0.12722116589830704, 0.21008158062719812, 0.0614607305887754, -0.13376788167553824, 0.021664082537821434, -0.08581410753264725, 0.1327593174362312, -0.10000554542711476, 0.021185133798671225, 0.19178946259895152, -0.12906868913387498, -0.03895827638652413, -0.041510882145596784, -0.15219360288186332, 0.4511699558225701, 0.19945377501694814, -0.06992564821365004, -0.11211856630558374, 0.12904254072236254, 0.21702942133735872, -0.06460762350276864, 0.15617566003300828, -0.33465366325948664], [0.06871871411181846, 0.2120065221353694, 0.03951023306694287, -0.08700225961553047, 0.1790965262735352, -0.1742746543768784, -0.03121876908013556, 0.12057129729848096, -0.1682218132299207, 0.44324876171637945, -0.05181052328020201, -0.40326890058479714, 0.20572439144589844, 0.06761714669193249, 0.011405341682963878, 0.09117273205298204, 0.08093461615310152, -0.028261348882389632, 0.12468990408767665, 0.0418065786652529, 0.19006159286615376, -0.10299744322890185, -0.08957690732580614, 0.09588726098034621, 0.16270300127064818, 0.010444952211101068, 0.007643692375734152, 0.17554433127984717, -0.14595964746333973, -0.23515800988569105, 0.15647229525251743, 0.07740631481500725, -0.1149608178770072, -0.0629364808697906, -0.1322871164197225, -0.10157663757283744, 0.25342908784297424, 0.007213595008139398, -0.1665458879436274, 0.14215446127501988, 0.09995031672978862, 0.00440509337842771, -0.021463175025762223, 0.08586305134112358, 0.14509923871317082, -0.013784771237653747, -0.1172202071758833, -0.0005810818538551669, 0.13865340657059533, 0.13398892249227604, -0.07202638894725286, 0.5199035769207934, 0.40909930929235055, -0.19325630670855445, 0.13593071509083093, -0.1775642128303299, -0.00029331883762296506, 0.31302509205361584, 0.15626810377495265, -0.15700780863996636, 0.09029455767012509, -0.4857681297669844, -0.2802316517877436, -0.01836422958200632], [-0.14718834564908634, 0.2637647318933146, 0.07614561149856516, 0.3023511081498072, 0.01694276696478723, 0.0341618602901055, 0.05574152824156592, 0.37679295124220513, 0.28068470297431003, -0.21056470314672185, -0.04551432497732135, 0.2418899357953114, -0.24872831440033946, 0.3299660586761767, 0.1439938678659971, -0.15415974856496092, -0.43056119222642886, 0.020221609597858008, 0.30754765547748875, 0.029552874369085488, 0.14626967977372413, 0.08354272486657087, -0.05304199282545298, 0.07297338299781982, -0.02669133407928032, -0.07077007366785763, -0.16950340473543454, -0.031493412765767996, -0.051485344593002004, -0.010300441364986151, -0.02860239342771976, -0.2595447465893126, -0.15172108143797133, -0.06113624095639221, 0.07926359848297093, -0.0643158220540651, 0.10891966150481026, -0.26061249025723904, 0.2922883556868589, 0.025607260150834123, -0.13368027710180982, 0.01975352215740399, 0.0561994902597096, -0.050062464401782594, 0.1466492126043734, -0.2907338038966141, -0.02651214230399141, 0.23738046115952896, 0.03884446146445049, -0.021232201423842235, 0.09141025023027377, 0.33958945083034564, -0.2172852590203527, 0.047279750949979715, -0.01359904634936069, 0.15859127070138523, -0.19721026319311902, 0.37915064804190046, 0.18624422078346603, 0.5476247782002444, -0.0017006209485132652, -0.17735511847389343, -0.2909270308662606, -0.1168575777874855], [-0.22445306644355603, -0.36174187415627074, -0.06747383579667156, 0.05114749035582117, -0.013253492672963463, 0.4524859788306385, 0.3001376786858876, 0.0653674405553131, 0.11845640231871123, -0.055811060001240434, -0.09091317374968713, 0.06496596584446342, -0.014773185989853135, 0.29018824933281756, 0.16389756961847102, -0.131694030522427, -0.27259730841419627, 0.0915330611856355, 0.2077607066055086, -0.18560809088100144, -0.109123326310737, 0.42918146355230746, -0.007520313862531915, -0.030014561970266154, 0.5357432330844921, -0.03255542032524927, -0.1780756106648678, 0.05803471874745888, -0.2141546567651342, -0.3121495897315937, 0.18994181328040954, -0.04512586434222466, 0.16091568244818066, -0.21105650611018734, -0.043330820737028965, -0.2283368095405321, -0.11730797905675173, 0.31019541995420785, 0.22766872723783044, 0.22647003976226468, 0.008164735354319932, -0.05291209612619712, -0.033777312572293494, -0.08881603432767561, 0.11562491146972179, 0.03070409826619112, 0.03536996337845922, 0.5702861616642569, -0.023008406984758055, -0.13888828631053052, 0.3420312838940184, -0.15339969454687225, -0.1859579977298324, 0.3177718618113391, 0.08818146938937878, -0.08653341441831149, 0.0014197905376803115, 0.3723778574968627, -0.13834521962358065, 0.21221591554288885, 0.4223277244965528, -0.05845803928678212, -0.24441992631565343, -0.07567337035606314], [-0.049756734054838186, -0.09783513572349876, 0.3503859806084457, 0.08612870461113141, 0.014231795083414399, 0.0870356414183052, 0.04048171058834244, -0.324710419673097, 0.1111623427507875, 0.10087405520519356, 0.049647467056139045, 0.11459079578609116, 0.18947959297664904, 0.2464292914301794, -0.26691881194267014, -0.10910876281607207, -0.18643747113409836, -0.04990869420706885, 0.06407288364113801, -0.32597712195193057, 0.14615124323227283, -0.2687565676320142, -0.19414977270799427, -0.20268828084474624, -0.03766928313771844, 0.06306987983828057, -0.3541060592745139, 0.2974123581948664, -0.16710166272449298, 0.3518822717178019, -0.2659948501242976, 0.178231382415045, 0.13575870967267264, -0.06349239314633308, -0.264810851067264, -0.09264134769028415, 0.2540432659548899, 0.14806986602116226, 0.2002254697163125, 0.3196386389696888, 0.09281012878302226, -0.007975720823840494, 0.1264222484574161, 0.11164621676187975, 0.25664290682763946, 0.10674490701663669, 0.10334405874435243, 0.2292666331566311, -0.015975810551397115, -0.16694055745093747, 0.021848690881031963, 0.03367720107565862, 0.1848454237979855, 0.11196387207899648, -0.08452531660144166, 0.08345604983657577, -0.07080544232348024, -0.026563965622781807, 0.14546203172072433, -0.09789565972371364, 0.18074190063497222, -0.08931389584010783, 0.09889386048539317, -0.07460384517994822], [-0.11720179876147634, -0.11071010451945212, 0.1543305147623698, -0.2949882051151116, 0.021288647706492886, -0.1125252240492323, -0.0879370721049233, 0.323931708881976, -0.12343320182116074, -0.13020703356109067, -0.27152513049614163, -0.33079447781935933, -0.04084496214426176, -0.12040223398166836, 0.12458910001494566, 0.03886092074956963, -0.16063674806082437, 0.26460034442324604, 0.19550615958752146, 0.004201217491538523, 0.14190484647651735, 0.3038345937861529, 0.07159798752274076, -0.09578866297195562, 0.026077179433621995, 0.03273539103049972, 0.051444929065122165, 0.20532576174885214, 0.05699386114482993, -0.292180381024934, -0.13977645713803227, -0.1852817601257147, 0.06715104148034454, -0.046215116086619455, 0.06268902775239449, -0.08680417010946691, -0.12562491661569355, 0.18168199249552786, 0.07668956828204221, -0.03661895963302531, -0.29272072896186047, -0.22611730052920714, -0.2087177994261849, -0.010318722735643434, -0.1670396982782137, 0.1924437223430982, 0.13137344234005185, -0.023540223512469493, -0.15010083821277515, -0.08658776969804666, 0.054531255092605264, 0.005834387289824293, -0.03570710292958508, 0.2081081996733391, -0.06179497693858273, -0.01818039760511663, 0.0992096495728966, 0.054763664957970415, 0.192834894219213, -0.07776072200975978, -0.13682876032177785, 0.11684957068286089, 0.024969455779490838, 0.1411381860395627], [0.1275805137097829, 0.12465018438441981, -0.1724315596932712, -0.017626406384455173, -0.09554607739563557, -0.0827366070861852, 0.021805281738909894, 0.26783818782169927, 0.36903996654465543, -0.14570239411402436, -0.007787726169517288, -0.14246041830621356, -0.13786621465605378, -0.04788316600229208, -0.28674263368511776, 0.06343367314875094, -0.19946321787529256, -0.03088643520986003, -0.1411747807799578, 0.11969192386935995, 0.1414282142921692, 0.1063738404554649, -0.011170492532716469, -0.28459920918762954, -0.18738188426874322, 0.07811592902802056, -0.10781069296243066, -0.057290190916807975, 0.09079226504027067, 0.3734015089063496, -0.13181132579690627, 0.07630989888210585, -0.10098473375103253, -0.19927583970312351, -0.0609687193695068, -0.044799016375485244, -0.07705710273057872, 0.08954378876258409, -0.051486375200196444, -0.36467461205443624, 0.09324762731954842, 0.08496252815155471, -0.25377640089558046, -0.11955388851151846, -0.08561945223634441, 0.11974469643122049, -0.04454739320283349, 0.16800416906047158, -0.1340191096415695, 0.15042010900946015, 0.0002637813082552263, -0.0656173136869074, 0.1467912993056964, 0.14047998442458112, 0.1015304380293156, -0.022700162807585196, 0.18470984552275307, 0.21084151242980922, -0.05502326774564864, 0.018646900959545604, -0.2680468574160942, -0.12064702344618469, 0.17208087016526458, -0.1689489400560962], [0.05863339954669267, -0.0077197553708341785, 0.2940332588951869, 0.03361645042844705, -0.33382609234747995, -0.07370491079693565, 0.07524256854064786, 0.10992631631379447, 0.08231268690178142, 0.2215446449833934, 0.047894802738668904, -0.3409248474361019, -0.11371502697666667, 0.03671758493925247, -0.12180720629594917, 0.0650610705431185, 0.044312786897507776, 0.2829277720877833, -0.12413911026143946, -0.21272141688029528, -0.21767921458553915, -0.08326635577906696, 0.08892973750298794, -0.030104835014761726, -0.11534932838331101, -0.19591247588984137, -0.044189957849808836, 0.11546666287966288, 0.19781129639690076, 0.21813831382725646, 0.12593464217676806, 0.054417557066327706, -0.10759981353016117, 0.05456968070654104, 0.25837881563212656, 0.017289165104321436, 0.1327900163740862, 0.0021581818884805785, 0.09311598284967026, -0.1566516882225506, -0.2259111303747611, -0.17421246618686922, -0.3462224457384978, 0.15056742120177993, 0.424951811606146, -0.03444012096242164, -0.14163160171591577, 0.06900698697614356, 0.2765151748004931, 0.017224375693124013, 0.22782474728934443, 6.742729107423082e-06, 0.03970249595991063, -0.26674227956562724, 0.05055220970655313, -0.16341029501395973, -0.18338514005302495, -0.2662371301154883, 0.10663864770369615, 0.4160667895789261, -0.12713538789229828, -0.05507322608331, -0.06348969810674794, 0.07399827882732077], [0.1738318059532284, -0.006705689629008698, -0.07084889864288965, -0.3177949745392766, 0.11169532050092643, 0.013941848731223746, -0.3195682663738394, -0.20754217015735515, -0.17439301948260522, -0.07906897273329311, -0.15889947900013884, 0.13723555685036454, -0.16818697205774752, -0.08931069407714634, -0.18500978734564436, 0.12204923130747032, -0.07637207133392453, 0.0008098901006416329, 0.0977370834472685, -0.0020620119813265655, -0.02507920609128648, 0.13268433966980386, 0.06601665978305019, 0.020346002497284396, -0.0680242831158046, 0.028815349570254712, -0.1271818370211864, 0.2642359578413074, 0.050148140356719405, 0.07956397828526578, -0.11337960007191625, -0.03948295944273459, 0.12194491243799553, -0.34465622232575105, -0.047832108043179875, -0.11349626404988446, -0.200463755365166, 0.12018990470832912, -0.1357675205753639, -0.18374356377982426, 0.17697868015607945, -0.33214679901311306, 0.18267404122711675, 0.18846290726851164, -0.3614362821717362, -0.040358636921981675, 0.05056150174030639, 0.17992564032975766, -0.09385948049019684, -0.029453617690927456, 0.13154285659291476, -0.1594055176166847, 0.10262483459168985, 0.19525092589215937, -0.18563675975658395, 0.05277427111483537, 0.013688349145895768, -0.18569554116471798, 0.026819321927503616, -0.045570323209125116, -0.1402798062526386, -0.06393884521969329, -0.17279240475897967, 0.07034207274112733], [0.07270906193390951, 0.13921448730108368, 0.010117269776735863, 0.022137465748215186, -0.09893515909846197, 0.11756276059237943, -0.11187385652349816, 0.09531821222782967, -0.07781369519969798, -0.13485577675941113, 0.07323485085650924, 0.29705596878604856, 0.15618910925235488, -0.07724117046546088, -0.24377090351052608, -0.27136290055182105, 0.057234372881736634, 0.025980982545213818, -0.3401268373493246, -0.022578863380753832, 0.1859766339626544, -0.0028529083505608385, 0.002609555848842115, -0.20618982045749004, 0.11303789720366948, -0.12478468256947241, -0.1010232371683473, 0.19324545999030138, -0.18096626622318476, -0.026398411933529257, -0.002368098099816145, 0.0646993834915718, 0.2651161069771864, 0.004751325339730806, 0.0995253309188913, -0.010928694614379295, -0.29730135715368544, 0.19685072848443988, 0.1158668121078012, 0.2012549063944265, -0.18568661099081496, 0.025398573361833723, 0.34534359633062356, 0.39404811527070793, 0.007271114634812102, 0.04737867112555369, -0.16662902710574498, -0.04488479611465705, -0.12829736807400632, 0.17889214484433943, -0.075917356549951, -0.017372180987553044, 0.14937595613159754, -0.02248676069363825, 0.1883393291449832, -0.03741622730744997, 0.13491488109246236, -0.1935528206836059, -0.0018841868121141968, -0.2780738331946479, -0.15132362673936003, -0.118284902562293, 0.3378231513280345, -0.18479637801131846], [0.34610839434361834, 0.1758998689793627, 0.05881712670412263, -0.18008343444629868, 0.1763573142084915, 0.35778364702488413, 0.15656555067707636, 0.046296512693387463, 0.03858270640244889, 0.17608333903669462, 0.07595006731289575, 0.08260880770766324, 0.17996594921618012, -0.04760210167296717, 0.1514676843729811, 0.36798853265525416, 0.2660384619670678, -0.046298237384553714, -0.014597587095551317, 0.25277202009442606, -0.1850313110950603, 0.3749895175341732, 0.037988108790245986, 0.05019038399094334, 0.002106016324422942, 0.5712762461512926, 0.015588301965731468, -0.11464162387020331, -0.07511357648370504, 0.20092626669974603, 0.2916020522393675, -0.19183162806524742, -0.07690175646797093, 0.018745266681954725, -0.020323514607255965, 0.30519942956883017, 0.1277804392354278, 0.2666372459132549, -0.1432611029469354, -0.2823736500031404, -0.01528792285538295, -0.12873443404697285, 0.1044143348289883, 0.21766710314389554, -0.40387078472448196, 0.13087642143397496, 0.41826142705133584, -0.28986598519969253, 0.14716243267918155, -0.20535846958040116, -0.1577361145323706, -0.0026927764074278515, 0.41413978540512525, 0.29981386953474265, 0.12967569713234398, 0.19570717586932293, -0.4542585225329801, -0.13546062232692657, -0.044913116904935345, 0.002189198633263881, -0.11593251787502623, -0.01337846266617735, -0.1655460515291843, 0.1585540973593744], [0.0646583164733286, -0.07016920841299733, 0.15113299985945866, -0.038388877101179796, -0.12230502246482472, -0.1277111645231534, -0.37499314970165853, 0.025603844310179563, 0.12140317800675895, 0.07475708685873747, 0.46553073662039696, -0.07782627707279513, -0.23852209981013528, 0.3150557388251463, 0.27163246537902497, -0.14734291905485375, -0.020747777388362226, -0.11087493401148758, 0.09250216485790631, -0.06863589120575284, 0.13092835147230916, 0.16497860069206663, 0.34498895839690863, -0.08703244480119071, 0.12962083340569205, 0.17576761860052903, 0.02818474515685445, 0.2783026322419649, 0.07413982769377075, 0.018437078074257034, 0.3666960905332536, -0.1460779201798468, 0.1974172170480702, -0.13368191376176436, 0.1017369679653729, 0.1432098870846702, 0.16602510930608697, 0.2518214684340946, -0.12812700896933085, -0.23155693593082077, 0.03608588412807009, 0.050753149396799604, -0.0177762509434167, 0.43874102370758195, 0.016135419246456346, -0.23573934185599282, -0.1330517208629105, 0.07678410827618357, -0.02822037741511144, 0.19686218913740086, 0.1447160036958725, 0.1586315755092265, 0.14208613383246893, 0.14200500916270747, -0.046986005905546545, 0.2511175333063345, 0.1928972759139933, -0.134694062199196, 0.06768274987613748, 0.16791346084595118, 0.2549769019697575, 0.06805047462006684, 0.1416252554660262, -0.3566584769130329], [-0.04425016451742006, 0.0016065715949575698, -0.17964095447722989, -0.0002478670211409173, -0.04602680650891892, -0.20505516764038528, 0.09976727263224781, -0.1166674646731831, -0.06884729678821931, 0.17147460548969823, -0.11409215182513875, 0.24761729836330867, 0.08333647998911077, -0.14710288257466608, -0.25666819530522006, 0.014388439818168256, -0.12941026462622404, -0.20867847774547538, -0.2247323205447268, -0.09165399361656162, -0.08410900067377335, 0.028569031795765632, -0.2211459567540825, -0.09351953298311887, -0.11008934055802634, -0.13333292005394076, 0.2301524160292367, 0.04801134280422541, 0.37948051153496354, 0.139954657850412, 0.0655755649540897, 0.22202072268885695, 0.20709348385852547, -0.28640217365377413, -0.14212484638101772, -0.03990713504963267, 0.05046143292347407, 0.049737561005090664, -0.27283561183251265, 0.06673691324820337, 0.0791097516038322, -0.15896680525329207, -0.2065405370126, 0.10082200600851643, -0.07825976850756874, 0.15024641475866654, 0.17899488159808621, 0.06649922948290975, -0.25352225108122706, -0.15745656734032232, -0.3234583897947432, -0.09004768610168361, -0.1573036525554672, 0.2763974730625675, 0.11402218646214768, -0.043929814906958194, -0.2157120337239184, 0.31919801605382314, -0.15501556361461893, -0.35629124895830366, -0.13296242846186276, -0.2546917955784473, 0.1443874513804979, -0.18148077855556222], [0.08799124856836567, 0.2432196423890734, -0.1444774245758894, 0.011427034314288341, 0.322440801397403, -0.05232555226234856, -0.036527347325705596, -0.042423510330975356, -0.1404465612298921, -0.1662274306192342, 0.17229349575442524, 0.1644052419390222, -0.16162393566141095, 0.35295568036878155, 0.30085287099388625, -0.04327665697506065, -0.3347280250148244, -0.19533486623604326, -0.038795203154127794, -0.07332593743647235, 0.32325059948858187, -0.24407247084876135, -0.045761009256586674, -0.046241125193646274, 0.1813261930925713, -0.03264941700373219, -0.06525597775135862, 0.010236458661812843, -0.0761580415813789, 0.059299968476447036, 0.10749782814078977, -0.14490884824514222, 0.1641519360351728, 0.03878067812398609, -0.03916839637089034, 0.15890927794398513, 0.24256105454422114, -0.13647566982404916, -0.026684903494213614, 0.06628722286243542, 0.29634837479438286, 0.0708402107257875, 0.02027336420300677, 0.34417629596016197, -0.031527718340595035, 0.1796515207423993, -0.13989729716099744, 0.05365512990789967, 0.11757274894819847, -0.12296269319834223, -0.10986986161791415, -0.012695257985163818, 0.2236030676230903, -0.2982698497321008, -0.15834149073711531, 0.17642550333803408, -0.39406944174079994, 0.37891593889363223, 0.03597827417119987, 0.41392799018810056, -0.1767435691468002, 0.07770608363378875, -0.10933319987656337, 0.019843468168861653], [-0.13077902151782908, -0.11196529516813558, -0.30351307320507026, -0.5011115010121925, -0.009945701484482507, 0.41852661235524785, -0.05158462508580737, -0.08602522328268983, 0.08690627303452399, -0.11844198659951544, -0.09021952413457028, -0.2227617693527925, -0.1628916629500676, 0.19093191835892825, -0.1500314249710109, 0.03573884840104282, -0.06502525194230568, -0.1536493326104724, 0.05490210442153121, 0.1468247435178535, -0.21611241372001902, 0.061935149299009694, 0.14005384509279925, -0.05414413560053232, -0.014156964560166505, 0.001515543244600156, 0.03595849054907455, -0.19946809664787105, -0.0911516032599172, 0.07427391058174995, -0.1335571406120755, -0.015329847836124389, -0.0128913165132074, -0.13670817337623775, 0.024664311800527697, 0.2316793439700961, -0.14027733528187725, -0.10835967569258378, -0.028399075616747375, -0.21341189537423483, -0.10640573645736756, -0.26195072682318016, -0.3287351519144562, 0.05978122092862239, 0.1480101177175711, 0.3070320886705188, -0.02813140976505268, 0.16882124490378636, -0.05160103203843354, -0.12987905782681375, 0.11394600907765216, -0.04442805332310881, 0.11749926711499947, 0.05185147155953072, -0.17247184438772878, -0.19467450436467829, -0.1824219466123215, -0.1166219895478444, 0.1614820604728297, -0.01999182547661873, 0.2517247525900084, 0.09747783852389974, -0.03142773267843615, -0.15133523186425651], [-0.3507367724563016, 0.1638737341813449, 0.26571315541481627, 0.03036951388574602, 0.2894791259796309, -0.02985650605497718, 0.018747993438352102, 0.22639857160414023, -0.01176694964581735, -0.11321528572948819, -0.09200693460343946, -0.3727684808512249, -0.021538592992300466, -0.003996037404218262, 0.23807471785801526, 0.13878330472981837, -0.17479182301548277, 0.13491027145353532, 0.05573469222380861, 0.2338784700679866, 0.2039793594429749, -0.04046599210356598, 0.1450569340458412, -0.08243110663196017, -0.09206878714154401, 0.05094828224478198, 0.08175710527434679, 0.21453752981534643, 0.00039726645205175244, -0.037636975840254265, 0.13820565093754736, 0.005573737961291127, 0.31027782177135926, -0.2955563692652609, -0.24532098354552548, -0.0639220178489439, 0.22993855310217962, -0.022779687897434262, -0.16518314289239056, 0.2257159910170627, -0.1874143418874285, 0.23987103235698443, 0.12520150405335093, 0.2518732362648491, 0.24259542481000576, 0.21019660328289513, 0.09763984429647066, 0.024599313909833852, -0.07151966997702848, 0.014793678919663614, 0.04747107836727468, -0.06700007156612275, -0.17587305653293675, 0.24248014041081695, -0.27999599786055407, 0.2002864085127517, 0.33302284493005674, -0.08686398888936211, 0.2510343835158589, 0.10309460570896051, 0.25625984774232735, -0.1825856192495347, 0.2438802483031982, -0.15595812291753583], [-0.23319170977721743, 0.29720061855600005, -0.15379758037914038, -0.2226632945531276, -0.007068456977271649, -0.0599589289063732, 0.21492718215021095, -0.15069594188263283, -0.08236318455641414, 0.12154539630299765, -0.14177085220440044, 0.15375717376143358, 0.1879836950939377, 0.3501160500972463, 0.37321304802456096, -0.13110151283320848, -0.14850819670465187, -0.18212646007204822, -0.0028071381525208647, -0.0438830399948365, -0.03534460334305445, -0.2185142382534301, 0.21152830928513783, -0.2765205446391551, -0.08967986467158348, 0.14241915412272454, 0.09792079900841463, -0.037766486623117226, 0.16843214721426944, -0.0749007295838728, 0.35298136553836407, 0.18018981338698944, -0.13929893167875268, 0.14049177014216654, -0.04404045447233225, 0.061611442703380856, 0.2171365330475012, -0.15086892923408557, 0.250733811880324, -0.03731734684407086, 0.19382011701394003, 0.08230338356285385, -0.10618381760715244, -0.2437396953149403, -0.21407758879808303, 0.0471518707328934, -0.2058642351774244, -0.08105697536810058, -0.06541621316514722, -0.12247856281549604, -0.08738654199723166, 0.11147238844868779, 0.16978345214985843, 0.07665101758294081, 0.08026341838072223, 0.07612398901159537, -0.08574769060619686, 0.035735204539098474, -0.2960359125921935, 0.017768922673352148, -0.07653910134417183, 0.18523714574322203, -0.3348328266764206, -0.2051494564586796], [0.40288747953947485, 0.12932315718321835, 0.24394518988299765, -0.14043116901258465, -0.2574091163674012, 0.08474162582001843, 0.02821652449160399, 0.09598417338192725, 0.27311707791892165, 0.15047048570141525, -0.27451299862036793, -0.09059882136209765, -0.39051729023032183, 0.0963935851037145, -0.08261340816462524, -0.22510529599324727, 0.06313681169405583, -0.19592784549195844, 0.1782103143015626, 0.12623733206668136, 0.3949961003321566, -0.13388295841519876, 0.16773047576860625, -0.08007075504084694, -0.21286455956426847, 0.32809183327701136, -0.18780376112103353, 0.29071263574208167, -0.06297968285900774, 0.12788606855474355, -0.07579592982858892, -0.13691805231931123, -0.15959485147287408, -0.07422174772027022, 0.04323670260705162, 0.24753622104253964, -0.14033842147163383, 0.004308021301217566, -0.04807110712019492, -0.01510922642093077, -0.180854724679952, -0.2442359255185031, -0.08320379184995487, -0.00587121297791614, 0.4244363497918782, 0.264498802097289, -0.07191080166484662, -0.22895751796324665, -0.3023036789168274, 0.16608672330991509, 0.21241648889494094, 0.3671155936007911, -0.047249802613840784, 0.0684066126508142, -0.061099888328458335, 0.2512149345513744, 0.1634977444443082, -0.13728116774554605, 0.029390536161730263, -0.17749320685313016, 0.019637291774152358, -0.25032256815000087, 0.03432562151698834, 0.21070428772256297], [0.2234608654594015, -0.2159904872097785, 0.008321734397715776, -0.23646030590059627, 0.19402068727278104, 0.07420840641771481, -0.2001471584473894, -0.16203360678403356, 0.10029149410110902, -0.2981045003019155, 0.014538717049230517, 0.06998794731098673, -0.1124293060456439, -0.04560645418548868, 0.01698909675950478, 0.10327899284657878, -0.21533385969728017, -0.09669340625233348, 0.1439447404417623, -0.4589916298454764, 0.17217508539952672, 0.23808929557630282, 0.33952355568160447, -0.4167204910240067, -0.08361801525161544, -0.11295357805841187, 0.25815322840312505, 0.11830893530947319, 0.18129161727206575, 0.13611722714261543, -0.26795652186763863, 0.07377716627917355, -0.38533907770205506, 0.08194217029018998, 0.04023790435855539, -0.029182157050638275, 0.04096176807466188, 0.12811935929236024, -0.13950881267362253, 0.06035938785929501, 0.2575028602400753, 0.07209652216504416, 0.04630356489565283, 0.00023617860774663836, -0.22894812122903802, 0.25362289294138873, -0.07162103075169332, 0.005001480000724566, -0.04747958498328638, -0.06294008087704951, -0.10477935958034959, -0.12479831283142617, 0.17005083050840067, 0.24202019921378284, 0.04596706727843682, -0.2026375914252411, -0.009456309699942038, 0.39107888981929995, 0.05794878159533928, -0.0377350078920691, -0.14162729861040452, 0.10232128382146925, -0.04258100784589555, 0.23052915809751093]], "b": [0.0008996158750654535, 0.04349439155026005, 0.027873596390446665, -0.00046609942250236327, 0.011066514516596166, -0.0019332291835824134, 0.0941830283979422, 0.0026510777818403823, 0.0185594703089787, 0.005472247579847569, -6.225515948413738e-05, 0.0008088122163174288, -0.0013847386717391445, 0.011271595722608664, 0.01830954182296212, -0.0021803264246516613, 0.023542822729723956, -0.031308900720549517, 0.011844731988422518, 0.05000588641183928, -0.02377633808603227, 5.207202916879037e-05, 0.011227512478140782, 0.0015854109057374301, 0.0005397252595014507, -0.0003450577030468065, 0.00011176485905102131, -0.00158837327710508, 0.1465645587119649, 0.001295410859802595, 0.019761625036357967, 0.0010883187921055864, 0.002860716603580075, 0.0694918277491701, 0.0011792103558002042, 0.024901735774819713, 0.05798457076773085, 0.0011190608996215204, 0.00712115592512798, -8.89365470431832e-05, -0.0007152764015771821, 2.086847430962286e-05, -0.00015317142566418908, 0.02722108789925044, 0.018436307112563992, 0.04946876361652896, 0.02800878612719926, 0.10971047936424724, 0.1383661183080975, 0.06635870523404325, 0.014541558306602725, -0.0011529363036704202, 0.006238155211739153, -0.0002613664697369808, 0.01106610598155521, 0.11683824622965618, 0.00232356796067495, 5.623800613604147e-05, 0.0533630501769377, 0.0009318525297267948, 0.09217228565346582, 0.007059584237108662, -0.00264115860341551, 0.0120164253655177]}, {"w": [[0.015160434261370353, 0.12262280289139862, 0.09259476948639794, 0.010878837230922835, -0.12320683770195294, 0.002309929140715485, -0.17557362888278238, 0.02865011314807159, -0.0782730687941014, -0.10984641007210046, -0.0011542471556268204, -0.013507811686602516, 0.005028487453152094, -0.16085730637795329, 0.0656263739244014, -0.012490780879236683, -0.08024666157703522, -0.39809606513624496, -0.07452719664153803, 0.09069300472860968, -0.3294138631544062, -0.0009405001501714965, 0.11220729035389689, -0.020875282370828502, 0.04436745643068134, -0.007774326638058875, 0.0009513457111756517, 0.03500473561568758, 0.4202174132390811, 0.04182746136736482, 0.11199124201283941, -0.06101189542503676, -0.0035516025761937646, -0.20116199981164948, -0.010718055672991026, -0.06477182672905278, -0.6458564005929947, -0.004988688077569279, 0.03088561982623323, 0.012768936299132486, 0.019847791522704692, -0.0017619637559336135, -0.0457132549474811, -0.04475575213576944, 0.02456981905792186, 0.1546264963181139, 0.1972408129370544, 0.3730158902798697, 0.4090515694298642, 0.16968499106116838, 0.04291390729983224, 0.008601876216342123, 0.06427091168498704, 0.010169988800835958, -0.08046053325048096, -0.45934278383865323, -0.001411654442362176, 0.01842691954054089, 0.20350313006013007, -0.020037497061949853, 0.29231991902058707, 0.029374991512702335, 0.0017474549278514461, -0.054232915210312], [-0.015920238100548652, -0.10204279081436596, -0.0929535199838168, -0.011492211267328693, 0.12516322504300978, 0.025489712486046052, 0.18919784449208402, -0.02580916928390465, 0.05862096898456552, 0.08679966019332849, -0.019587186765214034, 0.00775890191814514, -0.004189762123754108, 0.14833042617015588, -0.07350587605842249, -0.0064994926758732315, 0.1036331315134682, 0.39532197531219027, 0.09210924161242023, -0.10709240235937802, 0.32972344316859376, 0.0012088829642938192, -0.0963816358130676, 0.018923189938014475, -0.022499874748257886, 0.008838515940608813, -0.005521669894777804, -0.03439521520700722, -0.3955058042690641, -0.050812929713197445, -0.09912348598958293, 0.05230660145609439, 0.011435720416432633, 0.20028281649585533, 0.004764194015205505, 0.0627118462481911, 0.6316437012527019, 0.009555996427367515, -0.03641931301111303, -0.014553685404013122, -0.011854516303562282, 0.004547768677566416, 0.03902708570425646, 0.040477811177001055, -0.03360751607000992, -0.17158589486171918, -0.18079435273326364, -0.38399979134679085, -0.4055414149809795, -0.17273383214260762, -0.03337260884055051, 0.008062068354375144, -0.07954166459550638, 0.001597447076081594, 0.08455037889584274, 0.4443811188086554, 0.007625468392332718, 0.0012190305706197204, -0.19195651549220216, 0.009780646278973992, -0.30067681381682043, -0.00647715827057292, -0.013476401815411947, 0.042879034776513045]], "b": [0.19679806843955044, -0.1967980684395508]}]}