{"algorithm": "dqn", "env": "snake", "checkpoint_pct": 25, "architecture": {"input_dim": 11, "hidden_layers": [64, 64], "output_dim": 4, "activation": "relu", "output_activation": "linear"}, "layers": [{"w": [[0.02525087259709835, 0.19824814796447754, -0.1873955875635147, -0.2222205549478531, -0.17643895745277405, 0.3148634433746338, 0.10074109584093094, 0.3378245532512665, 0.10328375548124313, 0.18314771354198456, 0.07020110636949539], [-0.031752850860357285, -0.24838772416114807, -0.1658962219953537, -0.33975496888160706, -0.0919749066233635, 0.13782018423080444, 0.5588292479515076, -0.0461476668715477, 0.0189338568598032, 0.250576376914978, 0.32939979434013367], [-0.048352017998695374, 0.17452193796634674, 0.05779638513922691, -0.045453570783138275, 0.4460444748401642, -0.4092620313167572, -0.2716139853000641, -0.01462080143392086, 0.018813448026776314, 0.2667487859725952, -0.0969574898481369], [-0.11444839835166931, -0.2613507807254791, -0.219896599650383, -0.2735859751701355, 0.38568374514579773, 0.07925909757614136, -0.04993205517530441, -0.034340206533670425, -0.09008082747459412, -0.015247196890413761, -0.2603933811187744], [-0.24477456510066986, -0.07258467376232147, 0.2522710859775543, 0.4255297780036926, -0.04452609270811081, -0.19942161440849304, 0.10868233442306519, 0.3700906038284302, 0.16421878337860107, 0.16814768314361572, 0.33935022354125977], [-0.1517004817724228, 0.09477397054433823, -0.1709749549627304, -0.3532417118549347, -0.14859502017498016, 0.38325005769729614, 0.23726783692836761, -0.04099501296877861, 0.22691744565963745, 0.2793354094028473, 0.05849137902259827], [-0.01428841333836317, 0.12480723112821579, 0.21353496611118317, 0.45315656065940857, -0.3524443805217743, -0.17973029613494873, 0.412872850894928, 0.3114043176174164, 0.293067067861557, 0.3387707471847534, 0.17515338957309723], [-0.26218903064727783, -0.023642126470804214, -0.09316206723451614, -0.3060048520565033, 0.44893190264701843, 0.1884358525276184, -0.19647179543972015, 0.2223406881093979, 0.13324430584907532, 0.11094427853822708, 0.02490301989018917], [0.11594805121421814, -0.2255711555480957, 0.21812137961387634, 0.3665601313114166, 0.3094780147075653, 0.2599974274635315, -0.2812831997871399, -0.16507574915885925, 0.31912854313850403, 0.18897612392902374, -0.09964863210916519], [-0.17361611127853394, 0.2836465835571289, 0.203163743019104, -0.13146652281284332, -0.0758858174085617, -0.2872191369533539, -0.005419403314590454, -0.22705580294132233, -0.2325727939605713, -0.016613155603408813, 0.045270442962646484], [-0.1521727740764618, 0.15149545669555664, -0.20964887738227844, 0.40621674060821533, 0.34767040610313416, -0.41004887223243713, -0.25211408734321594, 0.04070070758461952, 0.09065981209278107, 0.10537532716989517, 0.20494259893894196], [0.01806056499481201, -0.1471160501241684, 0.1426718533039093, -0.28922441601753235, -0.1787077933549881, -0.07547728717327118, -0.1468702107667923, -0.10547873377799988, -0.24712523818016052, -0.06413602828979492, 0.06444999575614929], [-0.16971269249916077, -0.01805098168551922, 0.2858811020851135, -0.17540431022644043, 0.1632762998342514, -0.07185250520706177, -0.03921535238623619, 0.246253103017807, 0.3806122839450836, 0.20309902727603912, 0.3490307033061981], [-0.021805793046951294, -0.270854115486145, -0.0638718530535698, 0.4507424533367157, -0.05982396379113197, -0.24215468764305115, -0.27892282605171204, -0.1467008888721466, -0.18643444776535034, 0.11935723572969437, 0.2770262062549591], [0.1897990107536316, -0.2563285231590271, 0.21182496845722198, -0.3312748968601227, 0.09073317795991898, -0.19185422360897064, 0.022781334817409515, 0.07023715227842331, -0.24685277044773102, -0.21712397038936615, 0.05121970921754837], [0.02594008482992649, -0.1829502284526825, 0.18172119557857513, -0.4211750626564026, 0.10071343183517456, 0.5343215465545654, -0.36949652433395386, 0.3530348539352417, 0.21529795229434967, -0.19921168684959412, 0.22034852206707], [-0.006472753826528788, -0.099900983273983, 0.2606433928012848, -0.467769056558609, 0.1764519065618515, -0.31415167450904846, 0.415673166513443, 0.13846759498119354, 0.19777752459049225, 0.10278216004371643, -0.0018941436428576708], [-0.0634094774723053, -0.24846990406513214, 0.23993700742721558, 0.4586949646472931, 0.19376008212566376, -0.21267956495285034, -0.07336930930614471, -0.2798096835613251, -0.23724210262298584, -0.16760168969631195, 0.15685367584228516], [-0.20675520598888397, 0.0795951783657074, 0.05358169600367546, 0.4467954635620117, -0.19778881967067719, -0.44811153411865234, -0.058007482439279556, 0.24924752116203308, 0.03800297528505325, 0.426708459854126, 0.23932909965515137], [0.007168748881667852, 0.0448266938328743, -0.15066945552825928, 0.06331248581409454, -0.18513788282871246, 0.10523709654808044, 0.16985850036144257, -0.17240343987941742, -0.06646618992090225, 0.34103286266326904, -0.24469053745269775], [-0.021650373935699463, 0.2982667088508606, 0.10891705751419067, 0.008536696434020996, -0.2612927258014679, 0.14936205744743347, -0.21476072072982788, -0.08558829128742218, -0.10116198658943176, -0.04465001821517944, 0.0032980144023895264], [0.219204843044281, -0.008287250995635986, 0.30497676134109497, 0.41872307658195496, -0.2492847591638565, 0.4044366478919983, -0.3802158534526825, -0.05198981985449791, 0.1083710789680481, 0.17599083483219147, 0.2185315191745758], [-0.07056783884763718, 0.012737593613564968, 0.21252799034118652, -0.36873021721839905, 0.3505863547325134, -0.34198930859565735, -0.040691353380680084, -0.003569910069927573, -0.06753023713827133, 0.0564165860414505, 0.32640960812568665], [-0.0881376564502716, -0.22574502229690552, -0.11151060461997986, -0.3243010342121124, 0.30950066447257996, -0.2528260052204132, -0.3063085377216339, -0.07226389646530151, 0.2803494334220886, 0.2762443423271179, 0.318720281124115], [0.10775964707136154, -0.14585460722446442, 0.0024265123065561056, 0.037780459970235825, 0.4038567543029785, -0.02409086376428604, -0.29553794860839844, -0.08310243487358093, -0.1851920634508133, 0.06690960377454758, -0.07042922079563141], [-0.26882022619247437, 0.217897430062294, -0.15184736251831055, -0.0229402557015419, 0.2591467499732971, -0.040540460497140884, -0.36995214223861694, -0.11036434769630432, 0.3288322687149048, 0.14612768590450287, 0.33937376737594604], [-0.1186608374118805, -0.02365678735077381, -0.011578915640711784, -0.2135409116744995, -0.18641819059848785, 0.36835619807243347, 0.02463366836309433, 0.09822861850261688, 0.014257792383432388, -0.09571745246648788, 0.24242423474788666], [-0.19666236639022827, 0.16140177845954895, -0.08257289230823517, -0.3528885543346405, 0.19219179451465607, -0.40354806184768677, 0.2791037857532501, 0.1393238753080368, -0.119118332862854, 0.12892648577690125, 0.221161887049675], [0.14446492493152618, -0.01924744062125683, -0.1812913864850998, -0.14065182209014893, 0.25251153111457825, -0.09758759289979935, 0.02370923012495041, 0.2726682126522064, -0.06242652237415314, 0.052394967526197433, 0.2123744636774063], [0.051209017634391785, 0.06071839854121208, 0.08639175444841385, -0.37640300393104553, -0.07607370615005493, 0.4132471978664398, 0.537295937538147, 0.26970988512039185, 0.1959528774023056, 0.19186706840991974, -0.0004473545413929969], [-0.2735617160797119, -0.2107531726360321, 0.3510643541812897, 0.15943627059459686, -0.22434256970882416, 0.1392359733581543, 0.5160511136054993, 0.41585657000541687, 0.37645646929740906, 0.36561718583106995, 0.04314490780234337], [-0.0784924104809761, 0.24519440531730652, 0.2165594846010208, -0.313492089509964, 0.415294885635376, 0.10138067603111267, 0.08610009402036667, -0.07535102218389511, 0.17728330194950104, -0.02908814698457718, 0.3019661605358124], [-0.05425412952899933, 0.07226867228746414, 0.04197961837053299, 0.3834232687950134, -0.07627880573272705, 0.373594731092453, -0.4201189875602722, 0.19483478367328644, -0.10677900910377502, -0.12769274413585663, -0.07817517966032028], [0.21165484189987183, 0.16312837600708008, 0.22418911755084991, 0.5272998213768005, -0.3688495457172394, -0.3460368514060974, -0.06001586467027664, -0.047507744282484055, 0.2802515923976898, -0.05996840074658394, -0.03571755439043045], [-0.32005223631858826, -0.11020968854427338, 0.30585041642189026, 0.46308648586273193, 0.30779463052749634, 0.22726258635520935, 0.30700400471687317, -0.00034953959402628243, 0.1928422600030899, 0.4011652171611786, 0.16566157341003418], [0.30141377449035645, 0.10921066999435425, 0.19840800762176514, -0.07468301802873611, 0.32320165634155273, 0.01724199205636978, -0.12302479147911072, -0.005432866979390383, -0.029405826702713966, -0.2768852412700653, 0.3097569942474365], [0.17788691818714142, -0.08109016716480255, -0.11364820599555969, 0.20053204894065857, 0.3541409373283386, -0.1214171051979065, -0.279281347990036, 0.38009127974510193, 0.2079194337129593, -0.15805836021900177, 0.3829081654548645], [0.22776012122631073, -0.049185290932655334, 0.22229398787021637, -0.2662035822868347, -0.10929052531719208, 0.508826494216919, 0.01074369065463543, -0.04604393616318703, -0.01904197223484516, 0.029729656875133514, 0.02974078245460987], [0.05504166707396507, 0.19199787080287933, 0.09381449222564697, -0.2929404675960541, 0.1746661216020584, 0.3968198299407959, -0.06782017648220062, -0.15886551141738892, 0.08596120029687881, -0.13463403284549713, -0.08385368436574936], [0.08053600043058395, -0.253681480884552, 0.13632787764072418, 0.5259818434715271, -0.0661858469247818, -0.07659509032964706, -0.1377541422843933, 0.05742631480097771, -0.013180837966501713, 0.2791357636451721, -0.20756883919239044], [-0.28984084725379944, -0.29296669363975525, -0.01779574528336525, 0.3682594895362854, -0.3176746964454651, 0.5372649431228638, -0.2693319618701935, 0.223988339304924, 0.06511469930410385, -0.06781970709562302, 0.2831403315067291], [0.18767049908638, 0.2938920855522156, 0.1865663081407547, -0.2792389392852783, 0.42152485251426697, -0.2192552089691162, 0.11236272752285004, -0.1847621202468872, 1.4014382031746209e-05, -0.21973177790641785, -0.0895436480641365], [0.03312624618411064, -0.28031203150749207, 0.14477044343948364, 0.17148862779140472, 0.21457281708717346, -0.16245639324188232, -0.45840752124786377, 0.012044739909470081, 0.21769195795059204, 0.3819294571876526, 0.2674291729927063], [-0.0339529812335968, 0.1057148277759552, -0.29580157995224, -0.25752124190330505, 0.16879531741142273, -0.17078061401844025, 0.20617228746414185, -0.2893892526626587, -0.26490485668182373, -0.2483515739440918, 0.2047092765569687], [-0.03072252869606018, 0.3741990625858307, 0.31482231616973877, 0.34571728110313416, -0.10087478160858154, 0.030647171661257744, 0.014162659645080566, 0.09536349028348923, 0.12371231615543365, -0.12997451424598694, 0.3059500455856323], [-0.0036162417382001877, -0.2100205272436142, -0.13484354317188263, 0.18205289542675018, 0.40549933910369873, -0.5073884129524231, 0.4338592290878296, 0.2508256733417511, 0.3084714114665985, 0.3624323010444641, 0.0006430809735320508], [0.0952099859714508, 0.12338846921920776, -0.0890946090221405, 0.10148230940103531, -0.08674885332584381, 0.14122137427330017, -0.0836557149887085, -0.11240214109420776, 0.0362657755613327, 0.06473510712385178, -0.14730989933013916], [-0.0035164253786206245, 0.13667184114456177, 0.0684744343161583, 0.24878472089767456, 0.09503395855426788, 0.3085774779319763, -0.43577492237091064, 0.07841529697179794, 0.06560534983873367, 0.38226544857025146, 0.17844463884830475], [-0.028298990800976753, -0.1460808962583542, 0.27058520913124084, 0.517783522605896, -0.30776482820510864, -0.29030466079711914, -0.2183743417263031, 0.07503901422023773, -0.0559283122420311, -0.10667145252227783, -0.041600484400987625], [0.08518774807453156, -0.11343964189291, 0.11615833640098572, -0.13120658695697784, -0.10818599909543991, 0.21403878927230835, 0.4910634160041809, -0.09097418189048767, 0.125261589884758, 0.02585439942777157, 0.3740987777709961], [-0.28606289625167847, -0.334931880235672, 0.42730650305747986, -0.33956044912338257, 0.17573106288909912, 0.10309240967035294, -0.1476406753063202, 0.03009902685880661, 0.23758411407470703, 0.02486400678753853, -0.3623230755329132], [-0.15222011506557465, -0.17927895486354828, 0.18383996188640594, -0.31765908002853394, 0.44138044118881226, -0.19852997362613678, -0.20162451267242432, 0.2619166672229767, 0.20118281245231628, 0.20777437090873718, 0.22106117010116577], [-0.11797574162483215, -0.10204330831766129, 0.00319959269836545, 0.3159550428390503, -0.27373790740966797, -0.16550320386886597, 0.38442060351371765, 0.3714889585971832, 0.028740940615534782, -0.16306136548519135, -0.07431947439908981], [0.09258423745632172, -0.07633814215660095, -0.027230406180024147, -0.0057444144040346146, 0.2807323634624481, 0.4046669006347656, -0.04301585257053375, 0.04590481147170067, -0.18231920897960663, -0.2517770230770111, 0.3531408905982971], [0.09741756319999695, 0.08955051749944687, -0.15846270322799683, 0.29362189769744873, 0.4537093937397003, 0.32807379961013794, -0.35612812638282776, 0.04675169289112091, 0.029207052662968636, 0.4018946588039398, 0.05389082804322243], [-0.1297655999660492, 0.10907471179962158, -0.033473365008831024, -0.20679426193237305, 0.07139609009027481, -0.10776763409376144, -0.24163399636745453, 0.35598254203796387, -0.15118609368801117, 0.17962832748889923, 0.3161146640777588], [0.11919280141592026, 0.11939571797847748, 0.34430062770843506, 0.10901577770709991, -0.18393759429454803, 0.5443745255470276, 0.10135538130998611, -0.1160789430141449, -0.02717151865363121, -0.043693266808986664, 0.2976221740245819], [-0.08157391101121902, -0.15316876769065857, 0.009213285520672798, 0.24216359853744507, 0.17102912068367004, -0.05268687754869461, 0.15219730138778687, 0.05126380920410156, -0.10004565119743347, -0.16367107629776, -0.2534712553024292], [-0.26601266860961914, 0.08796049654483795, -0.09628622233867645, 0.07118869572877884, 0.27682098746299744, 0.23935797810554504, -0.29952916502952576, 0.46556800603866577, 0.12120341509580612, 0.4253895580768585, -0.029549747705459595], [-0.09838953614234924, 0.22013427317142487, -0.08716823905706406, 0.48136886954307556, -0.18930703401565552, -0.5458061695098877, 0.257427453994751, 0.1702665388584137, 0.3613417148590088, 0.06374337524175644, 0.2503608465194702], [-0.04942432418465614, -0.041928481310606, 0.2892194092273712, -0.41322264075279236, 0.1766972690820694, 0.378744900226593, 0.09635311365127563, 0.36146029829978943, 0.05203591287136078, 0.3257351517677307, -0.19149498641490936], [-0.08333329856395721, -0.09090609103441238, 0.19489841163158417, 0.07488882541656494, 0.3956804573535919, -0.2245870977640152, -0.06992138922214508, 0.269092321395874, 0.016815626993775368, 0.3201325535774231, -0.12076779454946518], [-0.05996233597397804, 0.058651819825172424, 0.20212610065937042, 0.45599058270454407, 0.11145822703838348, -0.4416477680206299, 0.11750411242246628, 0.18171843886375427, 0.2095373570919037, -0.0633004754781723, 0.33639249205589294], [0.2565341889858246, 0.16779540479183197, -0.18021750450134277, 0.3849978744983673, -0.2879302501678467, 0.3002030849456787, 0.02571413666009903, -0.04446528106927872, 0.1552143096923828, -0.1286672055721283, 0.12837494909763336]], "b": [0.0033138208091259003, 0.18224288523197174, 0.21117602288722992, 0.3130911886692047, 0.0351223386824131, 0.37789779901504517, 0.10273420065641403, 0.07618749886751175, -0.03346715122461319, -0.27664220333099365, 0.40668240189552307, -0.07519678771495819, 0.14118215441703796, 0.27157434821128845, 0.4017907679080963, 0.39092352986335754, 0.3873586654663086, -0.08067838847637177, 0.17152981460094452, -0.07452879846096039, -0.1722690463066101, 0.1463601440191269, 0.4236495792865753, -0.06254461407661438, 0.3309650719165802, 0.02958080917596817, 0.08830104023218155, 0.42114871740341187, 0.10223419964313507, 0.21238701045513153, -0.01179273147135973, 0.4264720380306244, 0.1880713403224945, -0.022465666756033897, 0.330619752407074, -0.0189043115824461, -0.09203438460826874, 0.1594950556755066, 0.43368232250213623, 0.08697856962680817, 0.29100531339645386, 0.38732677698135376, 0.3671313524246216, -0.1107926219701767, 0.02978585846722126, 0.14829592406749725, -0.2822476625442505, 0.29375991225242615, 0.3458665907382965, 0.4692516624927521, 0.12968476116657257, 0.1228257343173027, 0.11076655238866806, 0.3846268653869629, 0.13201172649860382, -0.1109352633357048, 0.22917966544628143, 0.2853979766368866, 0.020392803475260735, 0.5217238068580627, 0.3411944806575775, -0.05169841647148132, 0.17084655165672302, 0.42186474800109863]}, {"w": [[-0.1849772185087204, -0.13894976675510406, 0.05198897421360016, -0.2805998921394348, 0.26115721464157104, -0.023185303434729576, 0.23629401624202728, -0.21327146887779236, 0.14546842873096466, -0.07409518957138062, 0.28096553683280945, -0.11996130645275116, -0.08402393013238907, 0.35926616191864014, -0.029486140236258507, -0.09888287633657455, -0.17579710483551025, 0.16177943348884583, 0.18425919115543365, -0.09388982504606247, 0.0064960867166519165, 0.17045333981513977, -0.07688527554273605, -0.007829096168279648, 0.11020129919052124, 0.03171543404459953, -0.08685722947120667, -0.08087722212076187, -0.017722854390740395, -0.2084404081106186, 0.0779467523097992, -0.1275692582130432, 0.12478382140398026, 0.15961603820323944, 0.19287090003490448, -0.12030365318059921, 0.11138159036636353, -0.032237518578767776, -0.07443641126155853, 0.18820734322071075, 0.1402023881673813, -0.1456224024295807, 0.06569956988096237, -0.2199120819568634, 0.18625783920288086, 0.008819731883704662, 0.010019443929195404, 0.17852936685085297, 0.18103499710559845, 0.11237668991088867, -0.19403712451457977, -0.008024478331208229, 0.22660519182682037, -0.037666205316782, 0.15329968929290771, 0.025467146188020706, -0.025143329054117203, 0.05588087439537048, 0.0835188701748848, 0.11418436467647552, -0.06865495443344116, 0.08278946578502655, 0.2723012864589691, 0.09040185064077377], [-0.004592605866491795, -0.06509669870138168, -0.13238617777824402, 0.0249483622610569, -0.00832451693713665, -0.06989287585020065, -0.06472126394510269, 0.004182893317192793, -0.03679242357611656, 0.08168448507785797, -0.018162459135055542, 0.04721708595752716, 0.030518561601638794, -0.024972328916192055, 0.02776721492409706, 0.06871135532855988, -0.018940923735499382, 0.024461612105369568, -0.014579470269382, 0.086545929312706, -0.05277441442012787, -0.06628615409135818, 0.02983996644616127, -0.12396964430809021, -0.025121785700321198, -0.07257387787103653, 0.06874435395002365, -0.142422616481781, 0.05021163076162338, 0.09943611919879913, 0.0034350347705185413, -0.030641166493296623, 0.1280433088541031, -0.043456971645355225, -0.03415491431951523, -0.0547381192445755, -0.03885818272829056, 0.0204766858369112, 0.004944152664393187, -0.039807047694921494, -0.14465974271297455, -0.01587623544037342, -0.02904544398188591, 0.01880459487438202, 0.07662759721279144, 0.09541270136833191, -0.06409694999456406, -0.022351466119289398, -0.0340721532702446, -0.13413406908512115, -0.10649381577968597, 0.09206247329711914, 0.07910428941249847, 0.044132258743047714, 0.04180389642715454, -0.12194707989692688, -0.0009017842239700258, 0.09105946123600006, -0.09557157754898071, 0.0907270610332489, 0.0061685750260949135, 0.06054762378334999, -0.07374589145183563, 0.04811158776283264], [0.002897115657106042, 0.16483715176582336, -0.026512237265706062, -0.020832637324929237, 0.21943628787994385, 0.24129922688007355, 0.24745295941829681, 0.007877204567193985, 0.011188063770532608, -0.016128718852996826, -0.10453338921070099, -0.046403393149375916, 0.03753812611103058, 0.03684161975979805, 0.06644569337368011, 0.08747325092554092, 0.09883616864681244, -0.030685758218169212, 0.20100846886634827, 0.1450464129447937, -0.10961742699146271, -0.00286798644810915, 0.029561305418610573, -0.011650321073830128, -0.024941636249423027, -0.11559966206550598, -0.01645842380821705, 0.1255446970462799, 0.0678374320268631, 0.026184117421507835, 0.1748443841934204, -0.0698556900024414, 0.014154128730297089, 0.1253451257944107, 0.20841798186302185, -0.14876535534858704, -0.14830222725868225, 0.2098870724439621, 0.18408772349357605, 0.1337832510471344, 0.1869228482246399, -0.1468641459941864, 0.09455515444278717, -0.13387000560760498, 0.11838321387767792, -0.04403026029467583, -0.061037980020046234, 0.00381476734764874, 0.05174887925386429, 0.11482881754636765, -0.17781828343868256, -0.15067732334136963, 0.1874896138906479, 0.010966447181999683, -0.12640270590782166, -0.10764025151729584, 0.012079845182597637, -0.08509206771850586, 0.04599911347031593, 0.1827186495065689, 0.061819255352020264, -0.09861664474010468, 0.14094826579093933, 0.12477510422468185], [0.1474621295928955, 0.3425031900405884, 0.01303331833332777, -0.09477557986974716, 0.031400166451931, 0.24962976574897766, 0.300552636384964, -0.2646844685077667, -0.19556450843811035, 0.08787316083908081, -0.03139916807413101, 0.027051344513893127, 0.21737565100193024, -0.1373620629310608, 0.11706818640232086, 0.03664117306470871, 0.2963957190513611, -0.1213751882314682, -0.07175909727811813, 0.23002339899539948, -0.03629148006439209, -0.2335866540670395, 0.11339946836233139, -0.167922243475914, -0.16020654141902924, -0.2072199136018753, 0.08687286823987961, 0.19224661588668823, 0.06159194931387901, 0.3396625816822052, 0.24964140355587006, 0.1990404576063156, -0.20459052920341492, -0.12935638427734375, 0.1834518313407898, -0.09964802861213684, -0.11217313259840012, 0.14928370714187622, 0.13048313558101654, -0.2212548702955246, 0.0033517826814204454, -0.001834989059716463, -0.09502191841602325, 0.01843167468905449, -0.0282914862036705, 0.2164129912853241, -0.0801912248134613, -0.3537643253803253, -0.16933998465538025, 0.21506603062152863, -0.02549125626683235, 0.02517901360988617, 0.2568124830722809, -0.007351704407483339, -0.23192685842514038, -0.009888680651783943, 0.2516463100910187, 0.0331745520234108, -0.18055446445941925, 0.1667632758617401, 0.19109497964382172, -0.1022106483578682, -0.004650422837585211, 0.17426617443561554], [0.16385148465633392, 0.000520680274348706, -0.1723557859659195, 0.005385968834161758, 0.06752458214759827, 0.22230543196201324, 0.21062006056308746, -0.04878745228052139, -0.008688990026712418, -0.03967839479446411, -0.04197419062256813, 0.022752612829208374, -0.08530811220407486, 0.18428680300712585, -0.06703590601682663, 0.21066677570343018, -0.12545107305049896, 0.15539568662643433, 0.06832394003868103, 0.1132708191871643, 0.060056641697883606, 0.22370105981826782, -0.019354911521077156, -0.06290249526500702, -0.1803220957517624, 0.03803091496229172, 0.1266053467988968, -0.10497825592756271, 0.04737665876746178, 0.2039061337709427, 0.022014029324054718, -0.03150729089975357, 0.2906779646873474, 0.1961323618888855, 0.18284352123737335, -0.07484567910432816, -0.06804483383893967, 0.33051756024360657, 0.17869289219379425, 0.2642947733402252, 0.1352597028017044, -0.21123352646827698, -0.009008316323161125, -0.11950171738862991, 0.11362636089324951, 0.019250627607107162, 0.05946550518274307, 0.14794506132602692, 0.2581404149532318, 0.03705962747335434, 0.07866514474153519, -0.2070145308971405, 0.0052041723392903805, 0.09533846378326416, 0.13132373988628387, -0.010686513036489487, 0.22789783775806427, 0.005739849992096424, 0.07150460034608841, 0.05542810261249542, 0.14865651726722717, 0.04135952517390251, 0.05815117433667183, 0.16609370708465576], [-0.007699891924858093, -0.07839752733707428, -0.0452127605676651, 0.08122976124286652, -0.05012457072734833, 0.07762996852397919, -0.049566492438316345, -0.029112353920936584, 0.0026602745056152344, -0.11470818519592285, -0.0012481212615966797, -0.012599468231201172, -0.011229544878005981, -0.024988025426864624, 0.09854716062545776, 0.09224839508533478, -0.08471965789794922, 0.05806584656238556, -0.09804782271385193, -0.10641516745090485, 0.03821024298667908, 0.0018370598554611206, -0.05831329524517059, -0.12056297063827515, -0.04839201271533966, 0.04174993932247162, -0.11570018529891968, -0.12143318355083466, 0.01585906744003296, -0.09005051851272583, -0.10951003432273865, -0.04816077649593353, -0.02012510597705841, -0.11358815431594849, -0.08346596360206604, 0.00819598138332367, -0.11787146329879761, -0.017569303512573242, -0.08071283996105194, -0.0866546630859375, 0.04912887513637543, -0.09621120989322662, -0.09472927451133728, 0.0712851881980896, 0.023370787501335144, 0.11383910477161407, -0.03341193497180939, -0.060376882553100586, -0.011568307876586914, 0.0006324201822280884, 0.09533053636550903, -0.12450999021530151, -0.008900091052055359, 0.05529402196407318, -0.06883537769317627, -0.06351760029792786, 0.06040847301483154, -0.11977314949035645, 0.029619470238685608, -0.09677331149578094, 0.06213273108005524, -0.1068800538778305, 0.07685059309005737, -0.11832907795906067], [-0.10507084429264069, 0.001842111349105835, 0.09849855303764343, -0.10704945027828217, -0.05575746297836304, 0.10978531837463379, -0.020962178707122803, 0.05178557336330414, -0.12024977803230286, -0.039310112595558167, -0.06347902119159698, 0.10538265109062195, 0.05187998712062836, -0.09120945632457733, 0.02015337347984314, -0.001436680555343628, -0.05135872960090637, -0.07138457894325256, -0.04147982597351074, 0.09852831065654755, -0.08960653841495514, -0.08904291689395905, -0.03856489062309265, 0.0021745413541793823, 0.03402648866176605, 0.003751009702682495, -0.030090704560279846, -0.07579377293586731, -0.022429078817367554, -0.050319164991378784, 0.10099110007286072, -0.12167619168758392, -0.07973237335681915, -0.10169877111911774, -0.022844597697257996, 0.09740917384624481, 0.10956740379333496, -0.10881941020488739, -0.005415856838226318, 0.07337076961994171, 0.05509968101978302, 0.10238797962665558, -0.003467276692390442, -0.08398659527301788, 0.08269131183624268, -0.042864322662353516, 0.06472326815128326, -0.030804559588432312, 0.05313676595687866, 0.11242824792861938, 0.11623193323612213, -0.1137581318616867, -0.08268503844738007, -0.05168335139751434, -0.0797126293182373, 0.11993750929832458, -0.0110398530960083, -0.08291757106781006, -0.05562368035316467, -0.06904557347297668, 0.05099867284297943, -0.10903139412403107, -0.11655038595199585, -0.12322014570236206], [0.07297838479280472, -0.0716756209731102, 0.0464218407869339, 0.18440352380275726, 0.09322349727153778, 0.05526100471615791, -0.08890997618436813, 0.16499289870262146, 0.19605696201324463, 0.06293739378452301, 0.05116572603583336, 0.06338781118392944, 0.11855942010879517, 0.14751577377319336, 0.18051601946353912, 0.2588667571544647, -0.09057015925645828, 0.16435742378234863, 0.135459765791893, -0.01832696981728077, 0.04943224787712097, 0.22669696807861328, 0.11710326373577118, -0.053547076880931854, 0.09550683945417404, 0.1679198294878006, 0.07346975803375244, -0.11876040697097778, -0.030611824244260788, -0.16099445521831512, -0.14024096727371216, 0.025557884946465492, 0.3362347483634949, 0.11844152212142944, 0.18792885541915894, 0.2534252405166626, 0.15957199037075043, 0.021533826366066933, 0.21465790271759033, 0.21427521109580994, 0.2536645233631134, -0.06544609367847443, 0.2294185310602188, 0.2568759322166443, -0.07085325568914413, 0.021556250751018524, 0.13079477846622467, 0.1599052995443344, 0.20537829399108887, 0.03725191205739975, 0.1780286431312561, 0.19818082451820374, 0.09598053246736526, 0.2317303717136383, 0.1948498636484146, 0.12179603427648544, -0.01132879126816988, 0.17177358269691467, 0.12583933770656586, 0.0002262655907543376, 0.2560993731021881, 0.1713220477104187, 0.08187031000852585, 0.19321539998054504], [-0.285636842250824, -0.06770572066307068, 0.2021300047636032, 0.15887315571308136, 0.2165052741765976, -0.15411007404327393, 0.08633247017860413, 0.16616040468215942, 0.05808253586292267, -0.08683016896247864, 0.283137708902359, 0.08464443683624268, 0.04907979071140289, 0.23519589006900787, 0.09867487102746964, -0.23650628328323364, 0.19910842180252075, 0.23107805848121643, 0.29553717374801636, -0.11371079087257385, -0.01727813482284546, -0.03906796872615814, 0.2507668435573578, 0.21518489718437195, 0.2693081796169281, 0.1295294165611267, -0.20580720901489258, 0.1172710657119751, 0.03350288048386574, -0.10717199742794037, 0.12241838872432709, 0.07052166759967804, 0.05127863213419914, 0.15009941160678864, 0.17712508141994476, 0.16864903271198273, -0.007306914310902357, -0.29238206148147583, -0.033235009759664536, 0.20429444313049316, -0.0763135477900505, 0.2143561989068985, 0.1355035901069641, 0.19309695065021515, 0.04192635044455528, 0.2877046465873718, -0.031921710819005966, -0.04834200441837311, 0.20060089230537415, -0.03143078833818436, -0.04251896217465401, 0.004146040417253971, 0.30012768507003784, 0.09284944087266922, 0.029966076835989952, -0.025393832474946976, -0.041556842625141144, 0.15873584151268005, 0.058411967009305954, 0.25097906589508057, -0.13748307526111603, 0.1754094362258911, 0.2253514677286148, 0.15263840556144714], [-0.05066024139523506, -0.06055125221610069, 0.24959735572338104, 0.06320701539516449, -0.042038530111312866, 0.17901472747325897, -0.19504563510417938, 0.28392288088798523, 0.26360854506492615, 0.11629246175289154, 0.1067810207605362, 0.11307916045188904, 0.03024161607027054, -0.14735257625579834, 0.20597875118255615, 0.1682775914669037, 0.14547312259674072, 0.20787565410137177, -0.16861528158187866, 0.06717003136873245, 0.04182057082653046, 0.09065203368663788, 0.1739552766084671, 0.05675553157925606, 0.07617095857858658, 0.20858357846736908, -0.07058101892471313, 0.17199279367923737, -0.013444080017507076, 0.009031357243657112, -0.09027807414531708, 0.14663948118686676, 0.10735414922237396, -0.0797446072101593, 0.08025016635656357, 0.16491083800792694, 0.2311890423297882, -0.015864623710513115, 0.18258386850357056, -0.10523466765880585, 0.15785270929336548, 0.26234328746795654, 0.11995398998260498, 0.14251990616321564, -0.06819554418325424, 0.16140630841255188, 0.009100467897951603, 0.28567367792129517, -0.04174145683646202, 0.1370842307806015, 0.2728820741176605, 0.02942417934536934, -0.050770293921232224, 0.0843508169054985, 0.22172774374485016, 0.06248106807470322, 0.03847714886069298, 0.10352857410907745, 0.007038653362542391, 0.03947737067937851, 0.16751454770565033, 0.13047818839550018, 0.07510272413492203, -0.07120940834283829], [0.20914781093597412, 0.039636772125959396, -0.07966272532939911, -0.07892528921365738, 0.21378576755523682, 0.24991817772388458, 0.24351297318935394, -0.05132129788398743, 0.14071202278137207, -0.12489229440689087, -0.08837279677391052, 0.022340402007102966, 0.03685446083545685, 0.14726555347442627, -0.020112620666623116, 0.07678941637277603, -0.16071869432926178, 0.07800055295228958, 0.22966368496418, 0.2304123342037201, -0.05939161777496338, 0.0997396856546402, -0.22443628311157227, -0.1102796196937561, 0.02842007763683796, -0.08290940523147583, 0.08404435217380524, -0.1266079992055893, -0.049162205308675766, 0.009110290557146072, 0.029104609042406082, 0.10167302191257477, 0.14077867567539215, 0.14202645421028137, 0.0795014351606369, -0.17012427747249603, -0.034417226910591125, 0.2578708231449127, 0.06898660957813263, 0.1927584707736969, 0.19636750221252441, -0.26681506633758545, 0.13046789169311523, 0.044118378311395645, 0.1547064632177353, -0.10292771458625793, 0.09711502492427826, 0.08730390667915344, 0.1774166375398636, 0.09024519473314285, -0.0457300990819931, -0.03692234307527542, 0.07457362860441208, 0.10662675648927689, 0.03626435995101929, -0.11574622988700867, 0.16363881528377533, 0.023657774552702904, 0.11810049414634705, 0.15861272811889648, 0.2431408166885376, -0.0779193863272667, 0.024097662419080734, 0.20484688878059387], [0.27246350049972534, 0.39542385935783386, -0.16515325009822845, -0.14008745551109314, 0.07283051311969757, 0.15467150509357452, 0.35999736189842224, -0.186093270778656, 0.0492546409368515, 0.09265260398387909, 0.05285370349884033, -0.07747192680835724, 0.1910954713821411, 0.30578479170799255, 0.12110580503940582, -0.1657734513282776, 0.30627351999282837, 0.127096027135849, 0.27961087226867676, 0.26886066794395447, 0.06637604534626007, -0.018815893679857254, -0.09755109995603561, -0.07070914655923843, -0.17389671504497528, -0.16847677528858185, 0.19683349132537842, 0.1260579228401184, 0.06455956399440765, 0.12849381566047668, 0.27800801396369934, -0.023999260738492012, -0.1517917364835739, 0.2262762188911438, 0.13443733751773834, -0.062300898134708405, -0.16711542010307312, 0.17032665014266968, 0.055716339498758316, 0.08619846403598785, 0.019132552668452263, -0.1123228445649147, -0.020370876416563988, 0.09811859577894211, 0.08587153255939484, 0.18604159355163574, 0.0019146427512168884, -0.15320011973381042, 0.3249703347682953, 0.3141927123069763, -0.08435449004173279, -0.14367252588272095, 0.39036497473716736, 0.1481192260980606, -0.26788708567619324, -0.23696912825107574, 0.14188063144683838, 0.17806559801101685, -0.03464315086603165, 0.23477166891098022, 0.17183126509189606, -0.034854382276535034, 0.1710776388645172, 0.13711592555046082], [-0.03900540992617607, 0.03427613154053688, 0.04084668308496475, -0.019304431974887848, 0.09761756658554077, -0.09567892551422119, 0.029154034331440926, 0.1035858765244484, -0.030178410932421684, 0.09923863410949707, -0.01573271118104458, -0.09360560774803162, -0.08357535302639008, 0.0338648296892643, -0.048090748488903046, 0.013042924925684929, 0.10789762437343597, 0.04246005415916443, -0.034136053174734116, 0.026135193184018135, -0.07201796770095825, -0.12056468427181244, -0.10469852387905121, -0.10488781332969666, 0.008538801223039627, 0.01577405445277691, -0.06727334856987, -0.14189492166042328, 0.04961756244301796, -0.08509248495101929, -0.04163703694939613, -0.11527352780103683, -0.09192266315221786, 0.04403456673026085, -0.13269713521003723, -0.07127995789051056, 0.07594874501228333, -0.06410609185695648, -0.04618828371167183, -0.05790848657488823, 0.033662401139736176, -0.07599461823701859, -0.003418364329263568, 0.0510503351688385, -0.023306777700781822, 0.004564599599689245, -0.10226326435804367, 0.04005809873342514, 0.02558160200715065, -0.02835974469780922, -0.11261142790317535, 0.035904187709093094, 0.05547644942998886, -0.041623398661613464, 0.04169110953807831, 0.03507958725094795, -0.06025516986846924, -0.03163168579339981, 0.10545806586742401, -0.017630260437726974, -0.11782173067331314, -0.02833029255270958, 0.04404948651790619, -0.057548925280570984], [-0.072032131254673, 0.08746574074029922, 0.06612646579742432, -0.032000698149204254, -0.007340729236602783, -0.029845746234059334, 0.013321911916136742, -0.012647549621760845, -0.09556757658720016, 0.02315928041934967, -0.010529420338571072, 0.008081689476966858, -0.06224270910024643, 0.02828451804816723, -0.10352668911218643, 0.021685220301151276, 0.05213002860546112, -0.0137566477060318, -0.0968177542090416, -0.00045439600944519043, 0.0001774430274963379, -0.12355493009090424, -0.10161381959915161, 0.10169942677021027, 0.0866885706782341, 0.05507773905992508, 0.07072395831346512, 0.03546867147088051, 0.06698056310415268, 0.06555468589067459, -0.046210676431655884, -0.03069438599050045, 0.08244255185127258, -4.501640796661377e-05, -0.09727547317743301, -0.11056051403284073, 0.05597525089979172, 0.08675764501094818, 0.07921501994132996, 0.005376926623284817, 0.070768341422081, -0.13082155585289001, -0.10497882217168808, -0.12027880549430847, 0.08539540320634842, -0.0011310726404190063, -0.0575580894947052, 0.034453243017196655, -0.05293833836913109, -0.0955694392323494, 0.03161591291427612, 0.008996788412332535, -0.09802023321390152, -0.09764377027750015, 0.05075419321656227, 0.09486671537160873, -0.00540370075032115, -0.07347045093774796, 0.054718006402254105, 0.007360224612057209, -0.12627960741519928, -0.09569385647773743, 0.012981593608856201, 0.061317119747400284], [-0.08729008585214615, -0.10625847429037094, 0.09419286251068115, 0.2738535404205322, 0.03241155296564102, -0.04064185172319412, -0.10184426605701447, 0.26379597187042236, 0.17198364436626434, -0.0010899901390075684, 0.17639638483524323, -0.02821427583694458, 0.2721947431564331, -0.1828259825706482, -0.02855529636144638, 0.13735471665859222, -0.07190897315740585, 0.1437205672264099, -0.11663447320461273, -0.1556447148323059, -0.013512343168258667, -0.08958853781223297, 0.06932429224252701, 0.2392033338546753, 0.09319216758012772, 0.24603602290153503, 0.01720077358186245, 0.0819358080625534, 0.20332689583301544, -0.16637809574604034, -0.030123617500066757, 0.2555718421936035, 0.1738467812538147, -0.0962318405508995, -0.050015710294246674, 0.14383122324943542, 0.2285877764225006, -0.1260828971862793, 0.1912309229373932, -0.056394483894109726, -0.03633251041173935, 0.017901567742228508, 0.22539374232292175, -0.13476337492465973, 0.017278213053941727, 0.13282673060894012, 0.10134483128786087, 0.28181174397468567, -0.22124357521533966, -0.1556510180234909, 0.2663840353488922, 0.1987849473953247, -0.0785372406244278, 0.1642671823501587, 0.3271406590938568, 0.1054307147860527, -0.0022519128397107124, -0.014111271128058434, 0.20117653906345367, -0.060708846896886826, 0.13559205830097198, 0.20277823507785797, 0.12414634972810745, -0.1973969042301178], [0.09343916922807693, -0.22874893248081207, 0.06440306454896927, 0.10486464947462082, 0.14404001832008362, 0.11754054576158524, 0.059617720544338226, 0.1729537546634674, 0.24001939594745636, -0.05223183333873749, 0.1850408911705017, 0.06258809566497803, -0.06401051580905914, 0.3706347346305847, -0.1146889179944992, 0.14158280193805695, -0.17786438763141632, 0.1306576281785965, 0.09872297942638397, 0.03304621949791908, -0.1162758618593216, 0.1809220016002655, -0.10159864276647568, 0.16678482294082642, 0.23608165979385376, 0.09703093022108078, 0.0855952799320221, -0.16715964674949646, -0.09867090731859207, -0.09892270714044571, -0.04220449924468994, 0.06339965760707855, 0.24738621711730957, 0.15958040952682495, 0.000186588877113536, 0.12024875730276108, 0.24922971427440643, 0.10243845731019974, 0.13045458495616913, 0.3296663165092468, 0.24847431480884552, -0.18986104428768158, 0.06479460000991821, -0.11173947155475616, 0.06784235686063766, -0.031271014362573624, -0.020178603008389473, 0.34947195649147034, 0.16661928594112396, -0.06633316725492477, 0.1426384449005127, 0.10368221253156662, 0.08350197225809097, 0.11583881080150604, 0.2040787637233734, 0.058551304042339325, 0.22777779400348663, 0.0034002158790826797, 0.13584615290164948, -0.09294991195201874, -0.05504222586750984, 0.12194987386465073, 0.029305098578333855, 0.26031607389450073], [0.2696957290172577, 0.07376717776060104, 0.08159671723842621, 0.13433796167373657, -0.10789953172206879, 0.15835407376289368, -0.19198788702487946, 0.2675532102584839, 0.13612252473831177, 0.0005546063184738159, -0.14492538571357727, 0.029017329216003418, -0.03317835181951523, -0.1235845759510994, -0.03985601291060448, 0.21448774635791779, -0.125972718000412, 0.010883277282118797, -0.31038716435432434, -0.05036289989948273, 0.06269128620624542, 0.20997467637062073, 0.07482842355966568, 0.21221789717674255, 0.26800164580345154, 0.14611268043518066, 0.20018044114112854, -0.13630971312522888, 0.01921430416405201, 0.11788148432970047, -0.13291344046592712, 0.08674903213977814, 0.10108808428049088, -0.2464466243982315, 0.025473998859524727, 0.2617725431919098, 0.004907183814793825, 0.33590033650398254, 0.16117197275161743, -0.2834470570087433, 0.07755804061889648, 0.07502945512533188, 0.08292389661073685, -0.04640118032693863, 0.05399477854371071, -0.08070079982280731, 0.0038578056264668703, 0.3052540719509125, -0.24799060821533203, -0.055920835584402084, 0.24943916499614716, 0.11405026912689209, -0.3583533465862274, 0.0668368712067604, 0.24730734527111053, 0.21882475912570953, 0.29629266262054443, -0.0923343077301979, 0.22885717451572418, -0.24736826121807098, 0.23647722601890564, 0.009109217673540115, -0.0693088248372078, 0.08111522346735], [0.0317218117415905, 0.09765377640724182, 0.004059677943587303, -0.012150123715400696, 0.08427643775939941, 0.10940121114253998, 0.28370654582977295, -0.0023919730447232723, 0.020066164433956146, -0.06623227894306183, 0.1285581886768341, 0.038924723863601685, 0.10934669524431229, 0.295355886220932, 0.07326755672693253, -0.11262452602386475, -0.011705964803695679, 0.21914562582969666, 0.22750450670719147, -0.03168740123510361, 0.01209057867527008, -0.024010004475712776, -0.039401259273290634, -0.04037259891629219, 0.05901945009827614, -0.05279894173145294, -0.08360081911087036, -0.080704465508461, 0.037456657737493515, -0.13195860385894775, 0.1299949586391449, -0.11250641196966171, -0.12368081510066986, 0.1375577300786972, 0.09934236109256744, 0.04258418455719948, 0.1662135273218155, -0.11222176253795624, -0.23397506773471832, 0.13422909379005432, -0.0009984662756323814, -0.08089961856603622, 0.13356447219848633, -0.034292276948690414, 0.22095578908920288, 0.14861921966075897, -0.046229876577854156, 0.011070811189711094, 0.21051368117332458, 0.005065718200057745, -0.1157798245549202, -0.039656154811382294, 0.00549985421821475, 0.0797267034649849, -0.014732172712683678, -0.0938093438744545, 0.107468381524086, -0.06850048899650574, 0.024508943781256676, 0.31039193272590637, -0.07401341944932938, 0.06095735728740692, 0.2559622824192047, 0.18894469738006592], [-0.0383528470993042, -0.0703398734331131, -0.009782105684280396, 0.09775638580322266, 0.010747730731964111, 0.08685141801834106, -0.0009293556213378906, 0.038352519273757935, 0.004346534609794617, 0.0033932477235794067, -0.1189524382352829, -0.10927927494049072, 0.010391265153884888, 0.06186671555042267, 0.08396907150745392, 0.005423650145530701, 0.052690207958221436, 0.05227963626384735, -0.1079065352678299, -0.1098666787147522, -0.0969182550907135, 0.0021490901708602905, -0.0790395587682724, -0.040001630783081055, -0.018701761960983276, 0.04877021908760071, 0.02898237109184265, 0.11595948040485382, 0.11274884641170502, -0.07974459230899811, -0.000393792986869812, 0.020641818642616272, 0.1091248095035553, -0.0387401282787323, -0.049125269055366516, -0.07918202877044678, 0.09210763871669769, -0.035413458943367004, -0.046815648674964905, 0.08454619348049164, 0.11502045392990112, -0.005267664790153503, -0.08811326324939728, 0.10184814035892487, -0.04275059700012207, -0.057603105902671814, -0.08787798881530762, -0.06011688709259033, -0.09789563715457916, -0.072151780128479, -0.11386975646018982, -0.025194093585014343, 0.05025939643383026, -0.09489068388938904, -0.0001745671033859253, -0.04609522223472595, 0.06046228110790253, 0.10826517641544342, -0.016570374369621277, -0.0629124641418457, -0.09604552388191223, -0.07344022393226624, 0.036090388894081116, 0.028680413961410522], [-0.08769552409648895, 0.1170639619231224, 0.2079264223575592, 0.03914083167910576, 0.09777770936489105, 0.125440776348114, -0.10939836502075195, 0.014709179289638996, 0.05788879096508026, -0.019543588161468506, 0.0678543895483017, 0.07625807821750641, 0.11513397097587585, -0.11855263262987137, 0.18031944334506989, 0.0687803253531456, 0.2860681712627411, 0.17751148343086243, 0.05377854406833649, -0.005678081419318914, 0.07787624001502991, -0.27249419689178467, 0.15851588547229767, 0.16650798916816711, 0.06466413289308548, 0.18371742963790894, -0.23111507296562195, 0.26525500416755676, 0.04658634588122368, 0.10034641623497009, 0.07846686989068985, 0.1670459657907486, -0.24807550013065338, 0.06110344082117081, 0.013504190370440483, -0.0006574323633685708, -0.037092115730047226, -0.2743539810180664, 0.022783543914556503, -0.229428231716156, -0.15649482607841492, 0.2276475876569748, 0.18839189410209656, 0.23745547235012054, 0.024276161566376686, 0.2806507349014282, -0.0640285313129425, -0.07332348823547363, -0.17260292172431946, 0.11058701574802399, 0.05204182118177414, 0.17547206580638885, 0.12140124291181564, 0.011068888939917088, 0.08731397241353989, 0.03471676632761955, -0.16642144322395325, 0.14854316413402557, 0.07005768269300461, 0.29526403546333313, 0.09901854395866394, 0.134690523147583, 0.26153820753097534, -0.1387205421924591], [-0.07567832618951797, 0.1106671690940857, 0.04565420746803284, 0.23469726741313934, 0.024986937642097473, 0.055641014128923416, -0.05031709745526314, 0.12015478312969208, 0.11126528680324554, 0.11158329248428345, 0.020879266783595085, 0.04581210017204285, 0.16882477700710297, -0.16993558406829834, 0.18303239345550537, 0.1459759920835495, 0.2277107685804367, 0.12030798196792603, -0.18631523847579956, -0.1480032354593277, -0.08410024642944336, -0.23225630819797516, 0.18648011982440948, 0.17671842873096466, 0.036986056715250015, 0.16193419694900513, 0.06816533952951431, 0.11619413644075394, 0.1559927761554718, 0.07100600004196167, 0.03391581028699875, 0.1093188151717186, -0.16865625977516174, -0.20418453216552734, -0.0012157465098425746, 0.2021264135837555, 0.07047110050916672, -0.07998683303594589, 0.09385880082845688, -0.14139629900455475, -0.17940427362918854, 0.1631954312324524, -0.0126363979652524, 0.15019714832305908, 0.14014871418476105, 0.057982977479696274, -0.0376037172973156, -0.1434597223997116, -0.11007334291934967, 0.15814261138439178, 0.049414876848459244, 0.24234820902347565, -0.0783783569931984, 0.14814409613609314, 0.03192095085978508, 0.03985537588596344, 0.015971824526786804, 0.289381206035614, 0.050982385873794556, 0.044397398829460144, 0.21784940361976624, 0.1882687211036682, 0.1090618222951889, -0.07412382960319519], [0.17780748009681702, 0.30490973591804504, 0.09973272681236267, 0.16458001732826233, -0.15690551698207855, 0.10502804070711136, -0.005220563150942326, 0.1572263091802597, -0.029623452574014664, 0.04867008328437805, -0.07127145677804947, -0.008444085717201233, 0.06539804488420486, -0.19523724913597107, 0.3069098889827728, 0.2518487870693207, 0.27217555046081543, -0.16281749308109283, -0.22509251534938812, -0.025730565190315247, -0.10616934299468994, -0.07858873158693314, 0.06156906858086586, 0.1350284069776535, 0.23031024634838104, -0.06840105354785919, 0.2246178686618805, 0.2151719331741333, 0.04169648885726929, 0.3180083632469177, -0.08396419882774353, 0.0818512812256813, -0.09519977867603302, -0.19836173951625824, 0.10568158328533173, 0.07740821689367294, -0.08803653717041016, 0.17391999065876007, 0.3271435797214508, -0.18276506662368774, 0.06310340017080307, 0.22763872146606445, 0.041707415133714676, 0.15381647646427155, -0.038840096443891525, -0.04732949659228325, -0.04001190885901451, -0.0901845172047615, -0.0967722162604332, 0.13876648247241974, 0.1403808742761612, 0.13972023129463196, -0.14826008677482605, 0.12383878976106644, 0.0608951598405838, 0.0627206340432167, 0.07430028170347214, 0.20903964340686798, -0.04411090537905693, -0.1288512647151947, 0.29910093545913696, 0.10847368091344833, -0.11472410708665848, 0.04874866083264351], [0.06233988329768181, 0.1151740700006485, -0.05002869665622711, -0.06520077586174011, 0.1506662219762802, 0.03734307363629341, 0.20488569140434265, -0.18631161749362946, -0.15617148578166962, 0.09529246389865875, 0.06361006200313568, 0.02517145872116089, 0.10790535807609558, 0.016017884016036987, -0.03641176596283913, -0.02125561609864235, 0.09244963526725769, -0.05044778808951378, 0.1366119086742401, 0.01493119727820158, -0.011286452412605286, -0.11800172179937363, 0.053170520812273026, 0.008093403652310371, 0.008635837584733963, -0.07119685411453247, 0.108222097158432, 0.16694393754005432, -0.061351194977760315, 0.1679563671350479, -0.023568764328956604, 0.031346291303634644, -0.24838605523109436, -0.05694694444537163, 0.08339260518550873, -0.10933832824230194, 0.09318076074123383, -0.13008162379264832, 0.055989887565374374, 0.043206773698329926, 0.08684122562408447, 0.006180377211421728, -0.050314731895923615, -0.1101338118314743, 0.1872711479663849, 0.08344991505146027, -0.015390932559967041, -0.1017046645283699, 0.060803353786468506, 0.007644220720976591, 0.049823466688394547, -0.06458871811628342, 0.1981481909751892, -0.05303974077105522, -0.12628480792045593, -0.004958261735737324, 0.04568749666213989, -0.08912279456853867, -0.1446717232465744, 0.2211589813232422, 0.1063382551074028, 0.09975297749042511, 0.2488282024860382, 0.07665034383535385], [0.0515332855284214, -0.13479875028133392, 0.014934779144823551, 0.07887208461761475, -0.15746158361434937, 0.11961275339126587, -0.2660839259624481, 0.20072472095489502, 0.10772258788347244, -0.0817098617553711, 0.06484232097864151, 0.12069420516490936, 0.18779191374778748, -0.1648377925157547, 0.12133746594190598, 0.19606173038482666, 0.11617141962051392, -0.05885900929570198, -0.2389710694551468, -0.02040714956820011, 0.007136419415473938, -0.09832454472780228, 0.21522332727909088, 0.14046236872673035, 0.23875579237937927, 0.001772098708897829, 0.08582820743322372, 0.14139191806316376, 0.10650079697370529, -0.024459268897771835, -0.06188993155956268, 0.18325839936733246, 0.1376371830701828, -0.23285815119743347, 0.025234712287783623, 0.22376634180545807, 0.10407701879739761, 0.07303431630134583, 0.25909388065338135, -0.1501830518245697, 0.09819649904966354, 0.12250745296478271, 0.07676964998245239, 0.05400093272328377, -0.018794257193803787, -0.10706266760826111, -0.09175804257392883, 0.20967938005924225, -0.3005025386810303, -0.034885700792074203, 0.24466189742088318, 0.14696815609931946, -0.1522579938173294, 0.16552843153476715, 0.1965244710445404, 0.13301894068717957, 0.04889172315597534, 0.09413115680217743, 0.24478097259998322, -0.26508378982543945, 0.09962506592273712, -0.0011204822221770883, -0.1544078141450882, -0.012038374319672585], [-0.1184377372264862, -0.11200226843357086, 0.05995509400963783, -0.08991716802120209, 0.07517942041158676, 0.03387884050607681, 0.014904210343956947, 0.09930156171321869, -0.11578689515590668, 0.09153689444065094, 0.02407221309840679, -0.08376370370388031, 0.0145766856148839, -0.04694477096199989, -0.050173789262771606, -0.0264909490942955, -0.07436646521091461, 0.10930459201335907, 0.09106514602899551, -0.018377281725406647, -0.11084708571434021, -0.02361406944692135, -0.00401868624612689, 0.08355262875556946, -0.012011977843940258, 0.03638075292110443, 0.021197553724050522, -0.08719512820243835, -0.09284759312868118, -0.12402168661355972, -0.017429066821932793, 0.02643125131726265, -0.019508255645632744, 0.12133327126502991, -0.04019051790237427, -0.08156587183475494, 0.007545643486082554, -0.035201385617256165, -0.017136171460151672, 0.10509024560451508, -0.01839742437005043, 0.10919271409511566, 0.00043395662214607, -0.046502724289894104, 0.07882972061634064, -0.08750034123659134, 0.0041358619928359985, 0.01565498113632202, 0.040052950382232666, -0.12764015793800354, 0.006131961941719055, -0.04802091047167778, 0.06564507633447647, 0.029022200033068657, 0.03674906864762306, 0.06315121054649353, -0.04017339646816254, -0.024747341871261597, 0.0864776074886322, -0.11691146343946457, -0.10108017921447754, -0.005585480947047472, -0.06324328482151031, -0.007138473447412252], [-0.08442631363868713, -0.24177870154380798, 0.06826550513505936, 0.03239447623491287, 0.1623517870903015, -0.1979369968175888, -0.164871945977211, 0.23663556575775146, 0.22183853387832642, -0.11020994186401367, 0.29830074310302734, 0.07039059698581696, 0.1946517378091812, 0.31760939955711365, 0.06062552332878113, 0.032146669924259186, 0.013524797745049, 0.25999540090560913, 0.1664741486310959, -0.20158861577510834, -0.061790287494659424, 0.15357357263565063, 0.10980468988418579, 0.0983867198228836, 0.1087329164147377, 0.24425259232521057, -0.20069794356822968, -0.08159394562244415, 0.2255024015903473, -0.15347859263420105, -0.22997882962226868, -0.003610239364206791, 0.32859721779823303, 0.19281800091266632, 0.009082486853003502, 0.21918641030788422, 0.17372393608093262, -0.19569768011569977, -0.09266291558742523, 0.10500403493642807, -0.04842888563871384, 0.1009308248758316, 0.09896521270275116, 0.13597410917282104, 0.14960992336273193, 0.027164723724126816, 0.049402520060539246, 0.13172493875026703, 0.15170958638191223, -0.05768322944641113, -0.017682472243905067, 0.18995007872581482, 0.013916922733187675, -0.01691073551774025, 0.08360695093870163, 0.19566360116004944, -0.0633578673005104, 0.10250503569841385, 0.004786442033946514, 0.05229250714182854, -0.003994806669652462, 0.11115923523902893, 0.19892054796218872, 0.015217366628348827], [-0.0065520405769348145, 0.05845207720994949, 0.11370272934436798, 0.09653998166322708, 0.1135844886302948, -0.04972754046320915, -0.04266434907913208, -0.021318143233656883, 0.028994714841246605, 0.05059733986854553, -0.018702657893300056, -0.0807407796382904, -0.10186545550823212, 0.11260400712490082, -0.03360697627067566, -0.016896098852157593, -0.0841590017080307, -0.06196998059749603, 0.027454957365989685, 0.052648305892944336, -0.04941543936729431, -0.04600903391838074, 0.0914575383067131, -0.07185027003288269, -0.1008242592215538, -0.019501954317092896, 0.11894302070140839, 0.019656624644994736, 0.009678518399596214, -0.023139003664255142, 0.07811109721660614, -0.06951609253883362, 0.08475136756896973, 0.029530510306358337, 0.006339313928037882, 0.017208293080329895, -0.07709065079689026, 0.0928383469581604, 0.05820560082793236, -0.10534851998090744, -0.11638520658016205, -0.039712756872177124, 0.07549390196800232, -0.06154145300388336, 0.11585462093353271, -0.07040770351886749, -0.11291280388832092, 0.0474543496966362, -0.07554300129413605, -0.024800844490528107, -0.046574778854846954, -0.017494462430477142, -0.10892163217067719, -0.12217368185520172, 0.04617494344711304, -0.014164432883262634, -0.07540380954742432, -0.010747949592769146, -0.12163490802049637, 0.033180296421051025, 0.05181463062763214, 0.1136881485581398, -0.10183413326740265, -0.015157148241996765], [0.06783686578273773, 0.11455759406089783, -0.08893400430679321, 0.05312028527259827, 0.05160801112651825, 0.07535885274410248, -0.08617702126502991, 0.08920206129550934, -0.05444546043872833, -0.07694359123706818, 0.024819642305374146, 0.10589252412319183, -0.08277769386768341, 0.06673850119113922, -0.014315709471702576, 0.03990466892719269, 0.09750880300998688, 0.03394003212451935, -0.10376955568790436, -0.03763449192047119, 0.024809643626213074, -0.10544879734516144, 0.020781219005584717, -0.06712111830711365, -0.02484714984893799, 0.04471762478351593, -0.10060246288776398, -0.0802517980337143, 0.05701303482055664, -0.12363007664680481, 0.08602353930473328, -0.09638489782810211, -0.0020127296447753906, 0.025660470128059387, 0.049324050545692444, -0.07758346199989319, 0.01682160794734955, 0.05382341146469116, 0.10721369087696075, -0.09406867623329163, -0.06214649975299835, 0.036414533853530884, -0.004012838006019592, -0.08435338735580444, -0.10520634055137634, -0.11099116504192352, -0.08746851980686188, -0.05322107672691345, -0.08679993450641632, -0.10965588688850403, 0.009757369756698608, 0.07330703735351562, -0.05893586575984955, 0.012499719858169556, -0.0015409588813781738, 0.05842916667461395, -0.08668835461139679, 0.005934566259384155, 0.11667437851428986, 0.08923982083797455, -0.12388959527015686, -0.018817439675331116, 0.0011652112007141113, -0.04127451777458191], [-0.08962099999189377, -0.10065612941980362, 0.0830584168434143, -0.04805173724889755, -0.029477937147021294, 0.022503729909658432, -0.09788541495800018, 0.0032575069926679134, 0.07435156404972076, -0.07308602333068848, 0.014982855878770351, -0.004269510507583618, 0.048810649663209915, 0.06345809251070023, 0.03316320478916168, -0.014463412575423717, -0.12287702411413193, 0.041200190782547, 0.05634651333093643, -0.045403167605400085, -0.12411782145500183, 0.08089741319417953, -0.049319133162498474, 0.012888697907328606, -0.04368021339178085, 0.06065592169761658, 0.10402775555849075, 0.060666773468256, -0.05416613072156906, 0.07458484172821045, 0.039683181792497635, -0.006364497356116772, -0.10068508982658386, -0.07527171075344086, -0.14390040934085846, 0.08360420167446136, 0.10257353633642197, 0.06115400046110153, 0.028090186417102814, 0.029542669653892517, 0.09983064234256744, -0.07523728907108307, -0.06320066750049591, -0.11223480105400085, -0.03291643038392067, -0.013035997748374939, 0.034217506647109985, -0.096378855407238, -0.03519647195935249, -0.12304459512233734, -0.1016799658536911, -0.002562844892963767, -0.13373395800590515, 0.013125292956829071, -0.12435447424650192, -0.10094738006591797, -0.044057730585336685, -0.13485252857208252, 0.10095404088497162, 0.08111195266246796, -0.07462149858474731, 0.02618500590324402, 0.042033568024635315, 0.01907077431678772], [-0.14456380903720856, -0.13243554532527924, 0.23275797069072723, 0.033378977328538895, -0.027300585061311722, 0.008672354742884636, -0.13894839584827423, 0.09240563958883286, -0.014175421558320522, 0.00688740611076355, 0.11298344284296036, 0.10897530615329742, 0.045850660651922226, 0.07367497682571411, 0.17613662779331207, 0.03400652855634689, 0.07741698622703552, 0.2023562788963318, -0.01387505792081356, -0.05773383006453514, 0.03709663450717926, 0.02656194008886814, 0.14478622376918793, 0.1556781679391861, 0.23650634288787842, 0.12952110171318054, -0.0576782263815403, 0.18515269458293915, 0.23061640560626984, -0.12274996191263199, -0.04775701090693474, 0.11518322676420212, -0.004990963265299797, -0.10863414406776428, 0.166697695851326, 0.24004091322422028, 0.005129016470164061, -0.039731040596961975, 0.2100784182548523, -0.016351820901036263, -0.055900633335113525, 0.2581963539123535, 0.11880075931549072, 0.16274131834506989, 0.031535904854536057, 0.15445299446582794, 0.016898417845368385, 0.06046197935938835, -0.04966691881418228, 0.0681377723813057, 0.02232719399034977, 0.13950248062610626, 0.05119602382183075, 0.13062019646167755, 0.11126270890235901, 0.1703311800956726, -0.18483391404151917, 0.1032773107290268, 0.016676370054483414, 0.1845649927854538, -0.030196627601981163, 0.1287093162536621, -0.03074674680829048, -0.06770678609609604], [0.04659217596054077, -0.02923181653022766, 0.12134191393852234, 0.0003979206085205078, -0.06372876465320587, 0.03223322331905365, 0.0650079995393753, -0.00024834275245666504, 0.10693423449993134, -0.07911451160907745, 0.0533348023891449, 0.07097946107387543, 0.062086403369903564, -4.585087299346924e-05, 0.03568302094936371, -0.09806391596794128, -0.09809446334838867, -0.007769569754600525, -0.01566663384437561, 0.09281571209430695, 0.09076584875583649, 0.08475595712661743, -0.0572541207075119, -0.09812963008880615, -0.11724986135959625, 0.04523885250091553, -0.1126352846622467, -0.12478230893611908, -0.06317251920700073, -0.10553798079490662, -0.04926097393035889, -0.07869331538677216, -0.06412933766841888, 0.1188405454158783, -0.023555845022201538, 0.10369232296943665, 0.0027734339237213135, -0.01607421040534973, -0.03659777343273163, -0.08935339748859406, -0.10043099522590637, 0.08655272424221039, -0.03851994872093201, -0.12187245488166809, 0.11471620202064514, 0.0023186951875686646, -0.08364380896091461, -0.09825669229030609, -0.10497313737869263, -0.10960689187049866, 0.11311516165733337, 0.08618669211864471, 0.010223761200904846, -0.10653428733348846, -0.03269396722316742, -0.11742433905601501, 0.043077513575553894, -0.03318995237350464, -0.02674931287765503, -0.03900168836116791, 0.058606430888175964, 0.06766118109226227, 0.027382448315620422, -0.01565311849117279], [-0.1419863998889923, -0.07032958418130875, 0.054342858493328094, 0.2774695158004761, -0.03451867401599884, 0.07538624107837677, -0.12764687836170197, 0.1407519280910492, 0.17626751959323883, -0.11477255821228027, 0.19438354671001434, -0.0956805944442749, 0.09107983112335205, 0.14434051513671875, 0.23724715411663055, 0.21725645661354065, 0.10989827662706375, 0.24617475271224976, -0.0026733751874417067, 0.06576228141784668, -0.06016531586647034, 0.0926203578710556, 0.06345269829034805, 0.18303507566452026, 0.27419641613960266, 0.17827045917510986, -0.12525729835033417, 0.16279929876327515, -0.01248573511838913, 0.06640072166919708, -0.09805620461702347, 0.1621427834033966, 0.13653142750263214, 0.06810794025659561, 0.052583321928977966, 0.2088066190481186, 0.034465182572603226, -0.10815839469432831, 0.18369382619857788, 0.10484541207551956, -0.09455328434705734, 0.033091768622398376, 0.06531167030334473, 0.32904353737831116, -0.03671818599104881, 0.17426206171512604, 0.09489884972572327, 0.10209641605615616, 0.019631871953606606, -0.0633632242679596, 0.15049941837787628, 0.08244819194078445, 0.08526472747325897, 0.18014761805534363, 0.2001541554927826, 0.005274523515254259, -0.03402840346097946, 0.25135231018066406, 0.09261054545640945, 0.12226687371730804, 0.0567035935819149, 0.22451016306877136, 0.0799403190612793, 0.00400747824460268], [-0.11218908429145813, -0.09060852229595184, 0.003888338804244995, -0.0193316787481308, -0.06284748017787933, 0.06543132662773132, -0.011190712451934814, 0.043961018323898315, 0.10528329014778137, -0.05746836960315704, -0.06152153015136719, -0.025118395686149597, -0.010585129261016846, -0.06252032518386841, -0.030010521411895752, -0.0036029964685440063, 0.05607013404369354, 0.11564536392688751, 0.09256359934806824, 0.0132293701171875, -0.00787709653377533, 0.03201909363269806, -0.00510270893573761, -0.01640459895133972, 0.042983800172805786, -0.10170002281665802, -0.1063045859336853, 0.0005063265562057495, -0.03788726031780243, -0.06182767450809479, -0.11636784672737122, 0.0837324857711792, -0.004980489611625671, -0.06715939939022064, -0.050918012857437134, 0.032862886786460876, -0.09065435826778412, 0.00802825391292572, -0.0015414804220199585, 0.04258283972740173, 0.04958696663379669, -0.08167241513729095, 0.05397385358810425, 0.09438975155353546, 0.008047431707382202, 0.06368179619312286, -0.04732343554496765, 0.024828657507896423, 0.036524802446365356, -0.05773527920246124, 0.07717718183994293, -0.11818715929985046, -0.04695451259613037, -0.07354846596717834, -0.07420463860034943, -0.07574392855167389, -0.11778634786605835, 0.021452099084854126, -0.024727091193199158, -0.10525134205818176, -5.1409006118774414e-05, -0.020822674036026, 0.05156582593917847, -0.09791076183319092], [0.15232092142105103, 0.04086795076727867, -0.08521683514118195, 0.020896200090646744, -0.013810819946229458, 0.2666831314563751, -0.15893346071243286, 0.30980414152145386, 0.19211098551750183, -0.11057703197002411, -0.10527686774730682, 0.07080617547035217, 0.06399434804916382, -0.06987058371305466, -0.0824209675192833, 0.33977097272872925, -0.13346055150032043, -0.30256029963493347, -0.012608525343239307, 0.05458850413560867, 0.10634617507457733, 0.2714487910270691, -0.05103125423192978, 0.11811307072639465, 0.03323106840252876, 0.08311238139867783, 0.22512461245059967, -0.24879121780395508, -0.022223196923732758, 0.0608581081032753, 0.012774239294230938, -0.026427336037158966, 0.28482785820961, -0.33328860998153687, 0.08691415190696716, 0.17158326506614685, 0.008433598093688488, 0.37100231647491455, 0.141782745718956, -0.005904498044401407, 0.2750824987888336, -0.20166248083114624, 0.14194059371948242, -0.22980037331581116, -0.006695649586617947, -0.315082311630249, -0.03034193627536297, 0.37024301290512085, -0.04726743698120117, 0.04923557862639427, 0.14373229444026947, -0.07255696505308151, -0.14091645181179047, 0.12914516031742096, 0.14012521505355835, 0.11092172563076019, 0.3026306629180908, -0.06674156337976456, 0.2517709732055664, -0.16038422286510468, 0.0802350640296936, -0.026188243180513382, -0.18265517055988312, 0.1591612845659256], [-0.01974448561668396, 0.24648314714431763, 0.21307402849197388, 0.22255998849868774, 0.05526089668273926, 0.159425750374794, 0.061354778707027435, 0.014044385403394699, -0.08400359004735947, -0.09948979318141937, 0.19197429716587067, 0.08413198590278625, 0.14461307227611542, -0.2810538709163666, 0.29694095253944397, -0.10828110575675964, 0.3841114640235901, -0.09530557692050934, 0.008000879548490047, -0.11397382616996765, 0.05985933542251587, -0.15948671102523804, 0.33565452694892883, 0.10743249952793121, 0.10291630774736404, 0.028813626617193222, 0.030603181570768356, 0.36477670073509216, 0.08409940451383591, 0.23641562461853027, 0.079229936003685, 0.14279179275035858, -0.19343434274196625, -0.06938545405864716, 0.13114000856876373, 0.11384253203868866, 0.08111853897571564, -0.10203658789396286, 0.06477485597133636, -0.36354541778564453, -0.3147037625312805, 0.3220956027507782, -0.011080664582550526, 0.24665430188179016, 0.05280391871929169, 0.3650067150592804, 0.043973520398139954, -0.311859130859375, -0.13952013850212097, 0.14116977155208588, 0.14049917459487915, 0.056222956627607346, 0.20730990171432495, 0.02322024293243885, -0.22637680172920227, -0.07917153835296631, -0.12872743606567383, 0.08759432286024094, -0.14549219608306885, 0.2186410278081894, 0.16872760653495789, -0.0032127464655786753, 0.13211365044116974, -0.019924189895391464], [0.05055757984519005, 0.1591608226299286, 0.21411892771720886, 0.16381166875362396, -0.0196906179189682, 0.15261326730251312, -0.13564521074295044, 0.20937660336494446, 0.08563847094774246, -0.034128040075302124, 0.16415350139141083, 0.12465053796768188, 0.15487200021743774, -0.18255531787872314, 0.26229336857795715, 0.004457592964172363, 0.25674381852149963, -0.023952126502990723, 0.040217503905296326, -0.13611125946044922, 0.028575628995895386, -0.2692265808582306, 0.24078156054019928, 0.11024264991283417, 0.19533902406692505, 0.03209191560745239, -0.16504345834255219, 0.25805455446243286, 0.06772259622812271, 0.025981273502111435, 0.053206875920295715, 0.09275387227535248, -0.2947988212108612, -0.14423786103725433, 0.10691212862730026, 0.03937907889485359, 0.011846215464174747, -0.17504818737506866, 0.19883985817432404, -0.22436034679412842, -0.23011265695095062, 0.14121060073375702, 0.0704459547996521, 0.3231349587440491, 0.0116806635633111, 0.262411504983902, 0.09029119461774826, -0.16822585463523865, -0.13509775698184967, 0.2121518850326538, 0.07422560453414917, 0.15172772109508514, 0.13996966183185577, 0.05078049376606941, 0.010334951803088188, 0.02425079233944416, -0.1902281492948532, 0.21005548536777496, 0.09267057478427887, 0.02571258321404457, 0.13739953935146332, 0.14891202747821808, 0.15208227932453156, -0.019212303683161736], [0.11129307001829147, 0.1454564332962036, -0.1152333915233612, -0.10726147890090942, 0.22636905312538147, -0.025306062772870064, 0.17014499008655548, -0.1521221548318863, 0.03842759132385254, 0.06099256873130798, 0.11976738274097443, 0.09080447256565094, 0.04573845490813255, 0.29412591457366943, 0.00923310685902834, -0.06595751643180847, -0.05394517630338669, 0.2051314264535904, 0.13956907391548157, 0.11056926846504211, 0.07879206538200378, 0.09316883236169815, -0.12198400497436523, -0.026719551533460617, -0.08123669028282166, 0.018024982884526253, -0.014537649229168892, 0.15225301682949066, -0.05952778831124306, 0.018889904022216797, 0.13600067794322968, -0.01850983500480652, 0.08001996576786041, 0.12041400372982025, -0.0034427635837346315, 0.017648281529545784, 0.0631820559501648, 0.07368478178977966, -0.16548284888267517, 0.09426857531070709, 0.04287797957658768, -0.08314605057239532, 0.11336296796798706, -0.17770953476428986, 0.10166602581739426, 0.07390347123146057, 0.11789076030254364, 0.020458988845348358, 0.2876283824443817, -0.002515502506867051, -0.14220117032527924, -0.10436426103115082, 0.16849663853645325, -0.0694202110171318, 0.10763928294181824, 0.020511576905846596, 0.16599954664707184, 0.038626592606306076, -0.02691848948597908, 0.1582242101430893, 0.04819818213582039, -0.04398858919739723, 0.16724085807800293, 0.2166491448879242], [0.16263388097286224, 0.22195065021514893, -0.09557969123125076, -0.03320077434182167, 0.1098933070898056, 0.2791929841041565, 0.3095826804637909, -0.10540490597486496, -0.08663021773099899, -0.11736935377120972, -0.03881879523396492, 0.12153683602809906, -0.06240883842110634, 0.11668745428323746, 0.07111793756484985, 0.02767310105264187, -0.02111564576625824, -0.017724521458148956, 0.1747434437274933, 0.12676291167736053, 0.08708499372005463, 0.178614541888237, -0.1603509932756424, -0.20662851631641388, -0.015850480645895004, -0.07491221278905869, 0.06197715923190117, 0.11448584496974945, -0.015607661567628384, 0.2170642614364624, 0.21579094231128693, -0.07169763743877411, -0.10446751117706299, 0.2816969156265259, 0.06736308336257935, -0.10825229436159134, -0.030536629259586334, 0.05065296217799187, 0.07042092084884644, 0.05488676205277443, 0.1726771891117096, -0.04623023048043251, 0.06344543397426605, -0.058048468083143234, 0.12806914746761322, 0.15998120605945587, -0.05880126729607582, 0.04028600826859474, 0.2160707265138626, 0.29941123723983765, -0.09396541118621826, -0.07822804898023605, 0.19588008522987366, 0.05754463002085686, -0.03115260973572731, -0.2418014407157898, 0.2535259425640106, 0.218746155500412, 0.002197282388806343, 0.2869950532913208, 0.012008653953671455, 0.012918884865939617, 0.16712592542171478, 0.09912370890378952], [0.1287386119365692, 0.1276312917470932, -0.1425677239894867, -0.11036033183336258, 0.012563188560307026, 0.16060443222522736, 0.14495541155338287, -0.20621809363365173, -0.04380171746015549, 0.06806181371212006, 0.08387904614210129, 0.10520046949386597, -0.059287574142217636, 0.12275515496730804, -0.029987214133143425, 0.11250195652246475, 0.08665528893470764, 0.0354655496776104, 0.19572876393795013, 0.2676503658294678, -0.06709335744380951, 0.26193058490753174, 0.01780330389738083, -0.125440314412117, -0.18674427270889282, -0.1211567223072052, 0.1783551126718521, 0.06321769207715988, 0.08900288492441177, 0.2400233894586563, 0.2118312418460846, 0.015804598107933998, 0.19693782925605774, 0.12354887276887894, 0.1669740378856659, -0.10863620787858963, -0.06927119940519333, 0.3005146384239197, 0.21500219404697418, 0.10280999541282654, 0.1594935804605484, -0.1401178240776062, 0.06740903109312057, 0.20098602771759033, 0.07924779504537582, -0.12427817285060883, -0.06225315481424332, 0.19338765740394592, 0.1734769195318222, 0.22522930800914764, 0.03907616809010506, -0.11082183569669724, 0.10111778974533081, -0.020707985386252403, 0.05393681302666664, -0.04575552046298981, 0.16377626359462738, 0.08299028873443604, -0.06316979229450226, 0.09758517146110535, 0.1951189488172531, -0.08104845881462097, -0.06802210211753845, 0.10093074291944504], [0.34458619356155396, 0.28692832589149475, -0.2531386613845825, -0.05987633019685745, -0.015838827937841415, 0.23231492936611176, 0.10329677164554596, -0.06989060342311859, -0.07685229927301407, -0.10941773653030396, -0.23930257558822632, -0.09695358574390411, 0.0370200052857399, -0.21303412318229675, -0.019872575998306274, 0.1298561990261078, 0.15688616037368774, -0.17325618863105774, -0.06083768606185913, 0.22853398323059082, -0.0959608256816864, -0.027519525960087776, 0.010988136753439903, -0.15651491284370422, -0.10142060369253159, -0.1193394809961319, 0.2995729446411133, 0.19892236590385437, 0.012707489542663097, 0.27336278557777405, 0.3135334253311157, 0.14502613246440887, -0.19311878085136414, -0.17091421782970428, -0.01328891608864069, 0.00996370054781437, -0.11580261588096619, 0.23013567924499512, 0.10731124877929688, -0.21763195097446442, 0.13375024497509003, 0.07625742256641388, -0.13700665533542633, -0.017055485397577286, 0.0848551094532013, 0.1194005012512207, 0.005518806632608175, 0.08676395565271378, -0.09084536880254745, 0.29826992750167847, 0.10943692922592163, -0.12719744443893433, 0.0628601461648941, 0.12587642669677734, -0.015087610110640526, -0.13084639608860016, 0.2685825824737549, -0.10351772606372833, 0.054168302565813065, 0.15894815325737, 0.20762304961681366, -0.07242783159017563, -0.017981329932808876, 0.09852734208106995], [-0.10064851492643356, -0.09885892271995544, 0.04806810989975929, 0.08557251840829849, -0.0033374372869729996, -0.13896723091602325, -0.13123740255832672, -0.04102116823196411, 0.05735825002193451, -0.08329939842224121, 0.023524675518274307, -0.06832125782966614, 0.09193594753742218, -0.04269137606024742, -0.036176908761262894, -0.11906929314136505, -0.12204999476671219, 0.008448094129562378, 0.010493570938706398, 0.057425111532211304, -0.10930363833904266, 0.011904153041541576, -0.028544824570417404, 0.06315018236637115, -0.06795097142457962, 0.027079161256551743, 0.0503711998462677, 0.05229560285806656, -0.05293727293610573, 0.03085363283753395, -0.03315320611000061, 0.021383967250585556, -0.0768628865480423, -0.09932616353034973, -0.11283642798662186, -0.0785783976316452, -0.06820487976074219, 0.008642728440463543, -0.037505630403757095, -0.0795646458864212, 0.0010500699281692505, -0.04965461045503616, 0.06613817065954208, -0.10295067727565765, -0.04613858461380005, -0.09038885682821274, 0.015423864126205444, -0.010853399522602558, -0.0071907490491867065, 0.11386769264936447, -0.06111415475606918, -0.02758614532649517, 0.032294660806655884, 0.08692378550767899, 0.08329421281814575, 0.005245582666248083, -0.04729083180427551, 0.03214985877275467, 0.06870929151773453, -0.012805032543838024, 0.058704815804958344, 0.09230200201272964, -0.0669710636138916, -0.027634531259536743], [-0.28645530343055725, -0.15506607294082642, 0.26608002185821533, 0.015590366907417774, 0.14978612959384918, -0.10887055099010468, 0.06556989252567291, 0.2008051574230194, 0.22728316485881805, -0.12286821007728577, 0.11795347929000854, -0.1238456666469574, 0.06601998955011368, 0.3627881407737732, -0.025796731933951378, 0.05978883430361748, -0.10510626435279846, 0.3113241493701935, 0.3214033544063568, 0.032210823148489, -0.003987863659858704, 0.22946521639823914, -0.003839492565020919, 0.1975371390581131, 0.28950992226600647, 0.09648577868938446, -0.23598192632198334, 0.03417874872684479, 0.024472646415233612, -0.2571971118450165, -0.016609402373433113, -0.0859178900718689, 0.2875373959541321, 0.18903762102127075, 0.04628710448741913, 0.2409757673740387, 0.23475761711597443, -0.16952253878116608, -0.18422070145606995, 0.4004891514778137, -0.004778437316417694, 0.1322655975818634, 0.20565921068191528, -0.014020796865224838, 0.2659047842025757, 0.04105677083134651, -0.08331289887428284, 0.09026086330413818, 0.344376802444458, 0.032304488122463226, -0.02084820717573166, 0.03331838175654411, 0.10324455052614212, 0.07454974949359894, 0.25318002700805664, 0.07217635214328766, -0.15737643837928772, 0.2210760861635208, 0.061574872583150864, 0.036984480917453766, -0.14843356609344482, 0.1759994924068451, 0.2636105418205261, 0.09230280667543411], [-0.07241234183311462, -0.04797373712062836, -0.05558496713638306, -0.06053243577480316, -0.10528416931629181, 0.025587454438209534, -0.03635217249393463, -0.12031325697898865, -0.07298965752124786, -0.07506825029850006, -0.05392034351825714, -0.07723802328109741, -0.021677404642105103, 0.04479534924030304, -0.10116423666477203, -0.010708078742027283, -0.03597371280193329, -0.06390728056430817, -0.027756035327911377, -0.05297890305519104, 0.004018470644950867, -0.09023125469684601, 0.023704856634140015, 0.11476653814315796, 0.10357639193534851, -0.056044891476631165, 0.03852853178977966, -0.11815051734447479, 0.10524292290210724, -0.12457059323787689, -0.11170327663421631, -0.11220364272594452, -0.11608174443244934, 0.01692873239517212, -0.033054083585739136, 0.029918432235717773, -0.0077342689037323, -0.002685144543647766, -0.04516017436981201, -0.0741618424654007, -0.10465694963932037, 0.06307296454906464, -0.06444992125034332, -0.0254223495721817, 0.06071184575557709, -0.030957728624343872, -0.03151683509349823, -0.08333069086074829, -0.1069500744342804, 0.0599958598613739, -0.02820226550102234, 0.07860061526298523, 0.008227065205574036, -0.00015877187252044678, -0.1128501296043396, 0.0027597546577453613, -0.028249591588974, -0.07132929563522339, -0.028929725289344788, 0.006534844636917114, -0.09418529272079468, 0.02078545093536377, 0.08697687089443207, 0.024693399667739868], [0.3240203261375427, 0.29357391595840454, -0.21932250261306763, -0.007700640708208084, 0.07516364008188248, 0.2490340620279312, 0.15745863318443298, 0.018829314038157463, 0.02964259870350361, -0.0791638195514679, -0.12399235367774963, -0.10399514436721802, 0.04900535196065903, -0.054166510701179504, 0.032372038811445236, -0.014456606470048428, 0.061938945204019547, -0.18806375563144684, -0.04904055967926979, 0.027775174006819725, -0.07452686131000519, 0.2296236753463745, -0.049192652106285095, -0.1264350861310959, -0.21482732892036438, 0.032943274825811386, 0.16015566885471344, 0.11294466257095337, 0.0389292947947979, 0.2685016691684723, 0.2707490622997284, 0.06857916712760925, -0.026048418134450912, -0.0366128571331501, 0.033468980342149734, -0.10914897173643112, 0.026899907737970352, 0.1328873634338379, 0.08776172250509262, -0.17246340215206146, 0.13899526000022888, -0.13147605955600739, -0.09412609785795212, 0.1381378173828125, 0.052283402532339096, 0.1228642538189888, 0.03205498307943344, -0.09446980804204941, -0.05617573484778404, 0.08236470818519592, 0.019782274961471558, 0.021539082750678062, 0.11322740465402603, 0.20605485141277313, -0.14290931820869446, -0.16335415840148926, 0.3028952479362488, -0.02790815383195877, 0.12051966786384583, 0.1267470419406891, 0.055290576070547104, 0.10439973324537277, -0.06982403248548508, 0.10796195268630981], [-0.2980973422527313, -0.33685755729675293, 0.22953982651233673, -0.10153720527887344, 0.16116061806678772, -0.17831864953041077, 0.07290683686733246, 0.1548907309770584, 0.30826517939567566, -0.0034145116806030273, 0.24756312370300293, -0.05085538327693939, -0.032755766063928604, 0.31569766998291016, -0.07309655845165253, -0.07412252575159073, -0.2640705108642578, 0.23231065273284912, 0.11455876380205154, -0.005340706557035446, 0.09008106589317322, 0.24835988879203796, 0.1359289586544037, 0.23006904125213623, 0.1409921497106552, 0.19326400756835938, -0.14601606130599976, -0.1463807374238968, 0.07978059351444244, -0.2501485347747803, -0.12996390461921692, -0.004983864258974791, 0.18256758153438568, 0.3112899661064148, 0.1721223145723343, 0.2924967408180237, 0.18734018504619598, -0.13773100078105927, -0.12132914364337921, 0.18151581287384033, 0.19540691375732422, -0.08057916909456253, 0.16310511529445648, 0.08929801732301712, 0.05468526482582092, 0.06861573457717896, 0.026840943843126297, 0.27911993861198425, 0.3472425937652588, -0.10088450461626053, -0.0164478849619627, 0.023729519918560982, 0.021494394168257713, 0.02596317231655121, 0.20126570761203766, 0.06797292083501816, -0.04883163049817085, 0.14924953877925873, 0.14481931924819946, 0.20572404563426971, 0.059412091970443726, 0.09859952330589294, 0.23212094604969025, 0.03994116932153702], [-0.11466626077890396, 0.05929653346538544, 0.1696658879518509, 0.0485091395676136, 0.1511681079864502, 0.022656060755252838, -0.0882963165640831, 0.0619262233376503, 0.25804391503334045, 0.0021096616983413696, 0.2201528251171112, 0.08215351402759552, 0.01769658736884594, 0.22848288714885712, 0.08386100828647614, 0.18856129050254822, 0.010946393013000488, 0.3326028883457184, 0.12715277075767517, 0.14009042084217072, -0.08807122707366943, 0.09589048475027084, 0.17719052731990814, 0.07946187257766724, 0.19128292798995972, 0.1554863154888153, -0.18174955248832703, 0.07550495862960815, 0.14503194391727448, 0.039323415607213974, 0.07826674729585648, 0.0870169922709465, 0.2063242346048355, 0.09699228405952454, 0.11478076130151749, 0.0627705380320549, 0.1805381327867508, -0.035072293132543564, 0.1734456866979599, 0.19511348009109497, 0.0861985832452774, 0.1686231940984726, 0.12865421175956726, 0.14404252171516418, 0.08116775006055832, 0.08626972883939743, -0.09136957675218582, 0.289058119058609, 0.12280825525522232, -0.02205267734825611, 0.0007525210967287421, -0.024089690297842026, 0.1558094173669815, 0.0678812563419342, 0.10145246237516403, -0.06440666317939758, 0.11406790465116501, 0.24440224468708038, 0.16722513735294342, 0.2169182300567627, 0.021905168890953064, 0.2188795953989029, 0.07195520401000977, 0.19076697528362274], [0.2256932109594345, -0.12568937242031097, -0.09079813212156296, 0.058702755719423294, -0.09192238003015518, 0.21843166649341583, -0.1966763436794281, 0.16129039227962494, 0.30064675211906433, 0.12208090722560883, -0.043804969638586044, -0.07461827993392944, -0.037916380912065506, -0.22776587307453156, -0.12223754823207855, 0.2981899678707123, -0.11650856584310532, -0.1872868686914444, 0.03504987433552742, 0.06973127275705338, -0.05842277407646179, 0.1890193372964859, -0.10772732645273209, 0.0604434534907341, 0.03630910441279411, 0.16078390181064606, 0.2901346683502197, -0.18914276361465454, 0.054493971168994904, 0.10213346779346466, 0.07143959403038025, 0.1004868671298027, 0.1959790736436844, -0.21487420797348022, 0.07489180564880371, -0.021775566041469574, 0.1796337366104126, 0.17946606874465942, 0.28791117668151855, -0.007152236066758633, 0.18665508925914764, -0.08217211067676544, 0.021547716110944748, -0.14659078419208527, 0.04498660936951637, -0.2044140100479126, 0.019906042143702507, 0.2518356740474701, -0.1692337989807129, 0.08117266744375229, 0.1970818191766739, 0.08192606270313263, -0.16457968950271606, 0.0639125257730484, 0.18938390910625458, 0.19877088069915771, 0.3039591610431671, -0.2315864861011505, 0.13748233020305634, -0.18461468815803528, 0.05386730283498764, -0.13104736804962158, -0.10665491223335266, 0.12934790551662445], [-0.21504873037338257, 0.04657190293073654, 0.15079203248023987, 0.1028876006603241, -0.019882870838046074, 0.04457172751426697, -0.07023840397596359, 0.2726583778858185, -0.031393107026815414, -0.06862343847751617, 0.14421403408050537, -0.08704701066017151, 0.2534269094467163, -0.053941402584314346, 0.2791388928890228, 0.004801801405847073, 0.28189465403556824, 0.12071127444505692, -0.04732821509242058, -0.15288089215755463, 0.05956509709358215, -0.08904637396335602, 0.06345345079898834, 0.2854172885417938, 0.10869930684566498, 0.1850929856300354, -0.1528114527463913, 0.09359367191791534, 0.0886278823018074, 0.0958687961101532, -0.12308399379253387, 0.24125328660011292, -0.08130583167076111, -0.05652090162038803, 0.06451544165611267, 0.06845118850469589, 0.09092056751251221, -0.2533797323703766, 0.1743798404932022, -0.12387643754482269, -0.18917235732078552, 0.08066015690565109, 0.1297088861465454, 0.005255611147731543, 0.10736957937479019, 0.2605787217617035, -0.09827393293380737, -0.0584382563829422, -0.20410454273223877, -0.02791459672152996, 0.002592111239209771, 0.22932690382003784, -0.12313275039196014, 0.1708618700504303, 0.09193500131368637, 0.25401607155799866, -0.2153005450963974, 0.16507989168167114, -0.04628968983888626, 0.025155706331133842, 0.12967123091220856, 0.1415105164051056, 0.09447698295116425, -0.12215296924114227], [-0.1544927954673767, -0.05424068123102188, 0.11392462253570557, 0.25582069158554077, 0.008544069714844227, 0.08728382736444473, -0.14090301096439362, 0.2571815252304077, 0.08108941465616226, 0.042206600308418274, 0.12030483037233353, 0.019505739212036133, 0.13419847190380096, -0.06611384451389313, 0.25287872552871704, 0.12811504304409027, 0.17886164784431458, 0.043850816786289215, -0.0007356306305155158, 0.01437272410839796, 0.09433504939079285, -0.10588657855987549, 0.028978493064641953, 0.1300366222858429, 0.2089509665966034, 0.19792145490646362, 0.005839752499014139, 0.1760728508234024, 0.21407806873321533, 0.021899322047829628, 0.04416170343756676, 0.1981569081544876, 0.08757036179304123, -0.017358407378196716, -0.006983526982367039, 0.18741679191589355, 0.21202751994132996, -0.10217245668172836, 0.1575510948896408, -0.2196171134710312, -0.0701175183057785, 0.19510841369628906, 0.17434950172901154, 0.18415702879428864, -0.10671831667423248, 0.18332263827323914, 0.08126688003540039, 0.01700669340789318, -0.023161103948950768, 0.1643502563238144, 0.12701308727264404, 0.11761770397424698, 0.001381971058435738, 0.10210169106721878, 0.08324695378541946, 0.013485400006175041, -0.09574724733829498, 0.2398795336484909, 0.036399759352207184, -0.028234241530299187, 0.23069633543491364, 0.13584370911121368, 0.12327923625707626, 0.059642329812049866], [-0.017608776688575745, 0.018645495176315308, 0.11589239537715912, -0.08600439131259918, -0.03747841715812683, 0.017787322402000427, -0.008480384945869446, 0.03327977657318115, 0.06572848558425903, -0.05142731964588165, 0.009733110666275024, 0.11308929324150085, -0.07073163986206055, -0.08476588129997253, -0.09586271643638611, 0.07471984624862671, -0.11465398967266083, -0.0607876181602478, 0.08442428708076477, -0.07493509352207184, 0.10165181756019592, -0.058433011174201965, 0.019775018095970154, 0.016362711787223816, -0.0030660480260849, 0.07785554230213165, 0.10616523027420044, -0.07804529368877411, 0.07010416686534882, 0.03339836001396179, -0.002329319715499878, -0.08740098774433136, 0.03707978129386902, 0.09072968363761902, -0.10729239881038666, -0.11544425785541534, -0.12288549542427063, 0.028882652521133423, -0.03591683506965637, -0.038828447461128235, 0.11639480292797089, -0.031883180141448975, -0.07938092947006226, 0.01124390959739685, -0.06860767304897308, -0.03662429749965668, 0.0660286396741867, 0.028849229216575623, -0.08577758073806763, 0.11900478601455688, 0.08457033336162567, -0.08521060645580292, 0.054447829723358154, 0.051364898681640625, -0.08969387412071228, -0.08784918487071991, -0.10350301861763, 0.05568122863769531, 0.021778106689453125, 0.05282735824584961, -0.05490320920944214, 0.09399048984050751, 0.01596112549304962, -0.0997409075498581], [-0.2293834686279297, 0.11416704207658768, 0.20451393723487854, 0.1496105045080185, 0.04204169288277626, -0.1161152794957161, 0.252239853143692, -0.054168201982975006, 0.11628809571266174, -0.041839465498924255, 0.18918737769126892, -0.12172374129295349, 0.03366239741444588, 0.33901679515838623, 0.11269715428352356, -0.09965308010578156, 0.11707700043916702, 0.3079600930213928, 0.06669574230909348, -0.07422948628664017, -0.1009121984243393, -0.20580558478832245, 0.2025793492794037, -0.00693522859364748, 0.19612325727939606, 0.10191977024078369, -0.0846634954214096, 0.342116117477417, 0.20302851498126984, -0.05848082900047302, 0.05096425116062164, 0.21942661702632904, -0.021249881014227867, 0.20858941972255707, 0.24041205644607544, -0.037087999284267426, 0.1341286152601242, -0.14183256030082703, -0.17868220806121826, -0.031139494851231575, -0.06519854813814163, 0.35744261741638184, 0.12994810938835144, 0.302955687046051, 0.16935183107852936, 0.29133424162864685, -0.01934868097305298, -0.0022900046315044165, 0.28052690625190735, 0.12382104992866516, 0.10021654516458511, -0.021099423989653587, 0.16804097592830658, 0.028451336547732353, 0.055512528866529465, -0.1126171126961708, -0.08696694672107697, 0.3116002380847931, -0.14385546743869781, 0.2721850872039795, -0.049671344459056854, 0.058505039662122726, 0.2164611667394638, -0.040910504758358], [-0.2333972454071045, -0.21419720351696014, 0.24889972805976868, 0.05813419073820114, 0.014446442015469074, 0.03260001912713051, -0.13613349199295044, 0.07926294952630997, 0.02514217421412468, 0.020769193768501282, 0.06657382845878601, 0.009115740656852722, 0.1542493849992752, -0.14403226971626282, 0.22363343834877014, 0.10144701600074768, 0.04305562004446983, 0.02267756313085556, 0.014712133444845676, -0.22178246080875397, 0.02627606689929962, -0.12135086208581924, 0.21737095713615417, 0.07421831786632538, 0.09264537692070007, 0.11387448757886887, -0.22148311138153076, 0.1566673070192337, 0.08713709563016891, -0.023096926510334015, -0.05393068119883537, 0.19978947937488556, -0.03706866502761841, -0.04191039875149727, 0.0014403460081666708, -0.001787165878340602, 0.1363920271396637, -0.27024608850479126, -0.010660062544047832, -0.017868371680378914, 0.022818172350525856, 0.10059010237455368, 0.11858439445495605, -0.005996801424771547, 0.08883603662252426, 0.13961221277713776, -0.052541375160217285, 0.15941956639289856, -0.24845173954963684, -0.03715263307094574, 0.06976435333490372, 0.24208413064479828, -0.05130791664123535, 0.23116928339004517, 0.2509886920452118, 0.19445481896400452, -0.24219000339508057, -0.028099169954657555, 0.14172500371932983, -0.06619001924991608, 0.14774198830127716, 0.17529098689556122, 0.13276804983615875, -0.22634336352348328], [0.07267414778470993, -0.031481776386499405, -0.07066960632801056, 0.05270828306674957, -0.007676681037992239, -0.07386992871761322, 0.010983866639435291, -0.10073297470808029, 0.11617675423622131, 0.10956215858459473, 0.039419181644916534, 0.06612846255302429, -0.14250127971172333, -0.06948593258857727, -0.13634978234767914, -0.06515073776245117, -0.12189931422472, 0.09200893342494965, 0.04917926713824272, 0.055397745221853256, -0.055491864681243896, 0.09527339041233063, -0.03629595413804054, -0.03238607943058014, 0.06730405986309052, 0.0827789306640625, -0.10797940194606781, 0.10073339194059372, -0.030848544090986252, 0.015019482932984829, -0.1427350491285324, -0.004338053986430168, -0.06186452507972717, -0.07826758921146393, -0.07045476138591766, -0.0005822628736495972, -0.03561015427112579, -0.09759654849767685, 0.07129573076963425, 0.037187397480010986, -0.11633056402206421, 0.007981205359101295, 0.030706137418746948, 0.004593193531036377, 0.012169322930276394, -0.028731228783726692, 0.05466783046722412, -0.10619896650314331, -0.05329771339893341, 0.07538056373596191, -0.07744257152080536, 0.043155036866664886, 0.09742385149002075, -0.13234040141105652, -0.0729198083281517, 0.08879856020212173, -0.025698257610201836, 0.006702673155814409, -0.0004554931656457484, 0.033240411430597305, -0.0697735995054245, -0.001990166725590825, 0.0669219046831131, -0.02875489555299282], [-0.11468201875686646, 0.04320691525936127, -0.03191074728965759, -0.0263710618019104, 0.06519190967082977, 0.021906688809394836, -0.07561901211738586, -0.0576837956905365, -0.019001200795173645, -0.030883148312568665, -0.026462465524673462, -0.08543862402439117, 0.09055328369140625, 0.06482772529125214, 0.024668246507644653, 0.028302669525146484, 0.014633521437644958, 0.09346675872802734, 0.028285130858421326, 0.019041508436203003, -0.06871387362480164, 0.04169893264770508, -0.11694332957267761, 0.03942355513572693, -0.10834866762161255, -0.051733970642089844, 0.0659923255443573, -0.0744515061378479, 0.09953415393829346, -0.06906504929065704, 0.11839886009693146, 0.0385265052318573, -0.054169267416000366, 0.0762348622083664, -0.11069908738136292, -0.079186350107193, -0.07831373810768127, 0.016454994678497314, 0.012280374765396118, -0.10751339793205261, 0.12062008678913116, -0.00011946260929107666, -0.06674958765506744, 0.0029857754707336426, -0.05365666747093201, 0.03448650240898132, 0.045251160860061646, -0.03545764088630676, 0.007287263870239258, 0.07437600195407867, -0.0813039094209671, -0.027873501181602478, -0.018440574407577515, -0.08270160853862762, 0.01018090546131134, 0.004594072699546814, -0.10096608102321625, 0.025642111897468567, 0.11930830776691437, 0.06648671627044678, -0.06780475378036499, 0.1144208312034607, -0.08592425286769867, -0.06355571746826172], [0.05513663589954376, 0.09016630053520203, 0.10881730169057846, 0.0968431904911995, -0.07394196838140488, 0.017700571566820145, -0.08924133330583572, -0.006863115355372429, 0.10356311500072479, 0.06154896318912506, -0.12635564804077148, -0.05379657447338104, -0.1166050136089325, 0.05376289412379265, -0.01586812734603882, -0.10066990554332733, -0.05083862319588661, 0.04102054238319397, 0.0038856063038110733, 0.10576136410236359, -0.0016595572233200073, 0.028075167909264565, -0.04882818087935448, 0.014916002750396729, -0.006662808358669281, 0.10737265646457672, 0.052376314997673035, -0.08253946155309677, -0.1110696792602539, -0.12819433212280273, -0.05681414157152176, 0.006781246047466993, 0.11759576201438904, -0.012281820178031921, 0.037708599120378494, 0.0635281652212143, -0.09575004875659943, -0.11279638856649399, 0.03797726705670357, 0.05314095318317413, -0.06934801489114761, 0.0155109828338027, -0.1339140087366104, 0.0015755891799926758, 0.03064034879207611, -0.003940406255424023, -0.027528870850801468, 0.04084654152393341, -0.03948094695806503, 0.08201143145561218, -0.11502745002508163, -0.08234845101833344, -0.10435411334037781, -0.12388288974761963, 0.0814637541770935, -0.030934110283851624, -0.10764621943235397, 0.014758611097931862, -0.10303831845521927, 0.0013382823672145605, 0.04859998822212219, -0.03677181527018547, 0.06425949931144714, 0.013967571780085564], [-0.27384018898010254, -0.14452676475048065, 0.23009438812732697, 0.11353650689125061, 0.013010690920054913, -0.051967453211545944, -0.10123585164546967, 0.19218075275421143, 0.0577278770506382, 0.09483940899372101, 0.19303183257579803, 0.015436321496963501, 0.10208449512720108, 0.07811872661113739, 0.09976581484079361, 0.10904816538095474, 0.06562766432762146, 0.1844831258058548, 0.06494177132844925, -0.06952308118343353, 0.09098494052886963, -0.04670772701501846, 0.12308371812105179, 0.1998591423034668, 0.08489760756492615, 0.11822222173213959, -0.09040269255638123, 0.12673649191856384, 0.12221039086580276, -0.0723404660820961, -0.21449509263038635, 0.21013523638248444, 0.18616537749767303, 0.15984050929546356, 0.11970803886651993, 0.12622839212417603, 0.18574610352516174, 0.005422498565167189, 0.22615033388137817, 0.02216779626905918, 0.03185649216175079, 0.042706169188022614, 0.2105017751455307, 0.2211291790008545, -0.025579784065485, 0.07102449238300323, 0.0911637544631958, 0.2891060709953308, -0.033869531005620956, 0.039799727499485016, 0.10943975299596786, 0.0024684672243893147, -0.02757897414267063, 0.18039941787719727, 0.2493705004453659, 0.002623320557177067, -0.15923933684825897, 0.07437288016080856, 0.19677981734275818, -0.04918534308671951, 0.08971794694662094, 0.08886821568012238, 0.14074675738811493, 0.007025876082479954], [0.008463851176202297, -0.1343642771244049, 0.2812406122684479, 0.20511184632778168, -0.1738210916519165, 0.06158901005983353, -0.3007231056690216, 0.1847643107175827, 0.32264330983161926, -0.07789395749568939, 0.22186385095119476, 0.024263784289360046, 0.24972879886627197, -0.14140087366104126, 0.015102566219866276, 0.28183141350746155, -0.09516330808401108, -0.052663110196590424, -0.2412847876548767, 0.04345676302909851, 0.11312863230705261, 0.09250028431415558, 0.04302509129047394, 0.10948940366506577, 0.16088034212589264, 0.340733140707016, 0.16019922494888306, -0.03328728303313255, 0.1327822357416153, 0.0018799630925059319, -0.05195699259638786, 0.06292220950126648, 0.24279682338237762, -0.3179771304130554, 0.00848621129989624, 0.16617974638938904, 0.19588620960712433, 0.12728027999401093, 0.26933205127716064, 0.051293324679136276, 0.1336338371038437, 0.15430504083633423, 0.32367008924484253, 0.02412654273211956, -0.03345821052789688, -0.18023568391799927, -0.06781991571187973, 0.2542087733745575, -0.2773832678794861, -0.10889176279306412, 0.36370930075645447, 0.210915207862854, -0.17053081095218658, 0.28085431456565857, 0.23128733038902283, 0.17009860277175903, 0.15331792831420898, -0.037299588322639465, 0.3288009464740753, -0.14620272815227509, 0.1008911058306694, 0.0573386624455452, -0.2157747596502304, 0.05874386429786682], [0.2483494132757187, 0.2965403199195862, 0.01360235083848238, 0.10763982683420181, -0.07316137850284576, 0.10478731244802475, -0.011067509651184082, -0.05047677829861641, 0.0494144968688488, -0.11764940619468689, -0.05977979674935341, 0.08388753235340118, -0.01010690163820982, -0.21907132863998413, 0.2634989619255066, 0.24389466643333435, 0.2530946731567383, -0.16406600177288055, -0.014177210628986359, 0.04374607279896736, -0.038542523980140686, -0.03179439902305603, 0.1356794685125351, 0.08754555135965347, 0.10929498821496964, 0.07082502543926239, 0.12837141752243042, 0.13547518849372864, 0.1260831207036972, 0.23948319256305695, -0.00953324232250452, 0.1618564873933792, -0.13777799904346466, -0.22652389109134674, 0.15491947531700134, 0.06355438381433487, -0.009102802723646164, 0.11681906878948212, 0.26492178440093994, -0.114442840218544, 0.0373498909175396, 0.22896534204483032, -0.08978664129972458, 0.3652559816837311, -0.028371982276439667, 0.153455913066864, 0.04406139999628067, -0.04938717186450958, -0.19555304944515228, 0.2729600667953491, 0.2363406866788864, -0.010641874745488167, 0.1210552379488945, 0.23713946342468262, 0.03300453722476959, -0.12161549925804138, 0.13248883187770844, 0.16347691416740417, 0.10212620347738266, -0.09123758971691132, 0.19938147068023682, 0.04397260397672653, -0.04622935503721237, 0.14877727627754211], [0.15622183680534363, -0.1732441633939743, -0.15152393281459808, -0.09410908073186874, 0.046165741980075836, 0.13889901340007782, 0.032671041786670685, -0.020060323178768158, 0.15632642805576324, -0.12153849005699158, 0.05832384526729584, -0.01453089714050293, 0.04738118499517441, 0.32084909081459045, -0.13929767906665802, 0.15314024686813354, -0.24843044579029083, 0.10325879603624344, 0.1753147542476654, 0.14492544531822205, 0.048722147941589355, 0.2233569324016571, -0.05718604475259781, -0.07595185190439224, 0.11796988546848297, -0.12598839402198792, 0.25850728154182434, -0.11904674023389816, -0.036388497799634933, 0.052663348615169525, 0.1601782739162445, 0.03457651659846306, 0.22926880419254303, 0.04977874457836151, 0.15934261679649353, -0.07765107601881027, -0.07654815167188644, 0.30374401807785034, 0.1645752340555191, 0.2311430722475052, 0.18971484899520874, -0.22394928336143494, 0.15858325362205505, -0.09290426969528198, 0.08050663769245148, -0.07173604518175125, -0.036662857979536057, 0.2821539640426636, 0.10753685235977173, 0.06015333533287048, -0.13446451723575592, -0.21660001575946808, -0.10224243253469467, 0.12852180004119873, 0.18400037288665771, -0.011095724999904633, 0.18976838886737823, 0.05719708651304245, 0.09987868368625641, -0.10273155570030212, 0.07476557046175003, -0.08472590893507004, -0.11489938199520111, 0.25591719150543213], [-0.24423737823963165, 0.2256137728691101, 0.04482244327664375, 0.09960257261991501, 0.10087236762046814, 0.06364095211029053, 0.12705744802951813, 0.07858766615390778, -0.07949328422546387, -0.05169603228569031, 0.13597822189331055, -0.09372860193252563, 0.01149802003055811, -0.15440960228443146, 0.2364327609539032, -0.08329994231462479, 0.1474292129278183, 0.2561587989330292, 0.1647024303674698, -0.08979350328445435, -0.10724219679832458, -0.25869885087013245, 0.21771852672100067, 0.14584481716156006, 0.08362504839897156, -0.04124349355697632, -0.15626676380634308, 0.17931212484836578, 0.20647627115249634, 0.028788603842258453, 0.08345958590507507, 0.17307250201702118, -0.25012099742889404, -0.1149258241057396, 0.24329881370067596, 0.06433984637260437, 0.1421293169260025, -0.24524137377738953, -0.06080225855112076, -0.2660932242870331, -0.22604109346866608, 0.18303324282169342, 0.06849140673875809, 0.40598535537719727, -0.05216694250702858, 0.26062440872192383, 0.07023955881595612, -0.17279952764511108, -0.17918580770492554, 0.14548945426940918, 0.11788658797740936, 0.16596703231334686, 0.056712936609983444, 0.055230189114809036, -0.045536790043115616, -0.08459053933620453, -0.06660331040620804, 0.07975705713033676, -0.07523158192634583, 0.18575862050056458, 0.16284753382205963, 0.2204376608133316, 0.08687072992324829, 0.04672510549426079], [0.034051042050123215, -0.10949628055095673, 0.1474500149488449, 0.26141586899757385, -0.08635509759187698, -0.11881540715694427, -0.3163251578807831, 0.22515742480754852, 0.20311778783798218, -0.04116024076938629, 0.2161245495080948, 0.05819743871688843, 0.20913350582122803, -0.03226647153496742, 0.013967803679406643, 0.3062143325805664, -0.03886645287275314, 0.07702881842851639, -0.2080773264169693, -0.060938380658626556, -0.09231828153133392, 0.2495947927236557, 0.18722032010555267, 0.1866421401500702, 0.30104556679725647, 0.2680213749408722, -0.035309191793203354, -0.11924711614847183, 0.08124687522649765, -0.05265866219997406, -0.22919759154319763, 0.14362479746341705, 0.28562605381011963, -0.11894490569829941, 0.16202814877033234, 0.19554950296878815, 0.1857983022928238, 0.09672657400369644, 0.21591292321681976, -0.047681741416454315, 0.21538034081459045, 0.22963285446166992, 0.2232382893562317, 0.1727573126554489, 0.014540798030793667, -0.17433737218379974, 