{"algorithm": "dqn", "env": "snake", "checkpoint_pct": 50, "architecture": {"input_dim": 11, "hidden_layers": [64, 64], "output_dim": 4, "activation": "relu", "output_activation": "linear"}, "layers": [{"w": [[0.08733991533517838, 0.1693301796913147, -0.21483208239078522, -0.23979468643665314, -0.2168990671634674, 0.33729061484336853, 0.1065572127699852, 0.3037368059158325, 0.12452252954244614, 0.21163956820964813, 0.08143405616283417], [0.019989967346191406, -0.26581111550331116, -0.22422990202903748, -0.26905521750450134, -0.11503295600414276, 0.13014493882656097, 0.615803062915802, -0.051567357033491135, 0.06234676018357277, 0.22588127851486206, 0.30923834443092346], [0.25965264439582825, 0.05444388836622238, 0.060499414801597595, -0.0401126965880394, 0.4441237151622772, -0.40949323773384094, -0.3580087423324585, -0.15433934330940247, -0.005066405516117811, 0.2717548608779907, -0.18935704231262207], [-0.765911340713501, -0.15643088519573212, -0.2011638581752777, -0.3386588394641876, 0.4235786199569702, 0.15076522529125214, -0.06259150803089142, -0.0796131044626236, -0.07987557351589203, -0.026370558887720108, -0.23384971916675568], [-0.11788550019264221, -0.0993262231349945, 0.22594492137432098, 0.38864728808403015, -0.05201948806643486, -0.18837811052799225, 0.08295845985412598, 0.36147114634513855, 0.14554856717586517, 0.14333638548851013, 0.33091452717781067], [-0.08423717319965363, 0.11227398365736008, -0.36384034156799316, -0.40175536274909973, -0.1693972796201706, 0.3996433615684509, 0.260562926530838, -0.07727299630641937, 0.21707284450531006, 0.24183820188045502, 0.01822851039469242], [-0.15224437415599823, 0.10323816537857056, 0.17561084032058716, 0.4341082274913788, -0.3749597668647766, -0.19164210557937622, 0.420102596282959, 0.27170583605766296, 0.3033066689968109, 0.3101680278778076, 0.21535688638687134], [-0.810840368270874, 0.08625569939613342, -0.10245388746261597, -0.3790898025035858, 0.45702579617500305, 0.2876887023448944, -0.1765928715467453, 0.18009592592716217, 0.11063390970230103, 0.07479240000247955, 0.1485535353422165], [0.317348837852478, -0.1991499811410904, 0.21203818917274475, 0.3204185664653778, 0.3545382618904114, 0.2018096148967743, -0.21789078414440155, -0.27958181500434875, 0.26546376943588257, 0.21531909704208374, -0.19436345994472504], [-0.17361611127853394, 0.3781685531139374, 0.3128613233566284, -0.1849377155303955, -0.11006680130958557, -0.2872191369533539, 0.10443935543298721, -0.277172327041626, -0.3056643307209015, 0.06888094544410706, -0.004779117647558451], [0.09656019508838654, 0.15143276751041412, -0.19432824850082397, 0.39806607365608215, 0.3451998233795166, -0.4374474883079529, -0.2645998001098633, 0.05336625128984451, 0.040502846240997314, 0.09765133261680603, 0.19479824602603912], [0.01806056499481201, -0.1471160501241684, 0.1426718533039093, -0.28922441601753235, -0.1787077933549881, -0.07547728717327118, -0.1468702107667923, -0.10547873377799988, -0.24712523818016052, -0.06413602828979492, 0.06444999575614929], [-0.9096323847770691, -0.01799837127327919, 0.21305720508098602, -0.26587191224098206, 0.20464389026165009, -0.07728343456983566, 0.02203315868973732, 0.24671778082847595, 0.3608732223510742, 0.09636089950799942, 0.29814329743385315], [-0.7213029861450195, -0.15824876725673676, -0.24651268124580383, 0.40338996052742004, -0.10929084569215775, -0.26273611187934875, -0.18573717772960663, -0.2581837475299835, -0.1483907550573349, 0.07842230796813965, 0.2406417429447174], [0.7736217975616455, -0.10976098477840424, 0.30702224373817444, -0.1999780237674713, 0.0589260458946228, -0.14148572087287903, 0.00577196292579174, 0.10511203110218048, -0.21083925664424896, -0.21526513993740082, 0.07150013744831085], [-0.8095774054527283, -0.09496089816093445, 0.2235919088125229, -0.4454532265663147, 0.08505921810865402, 0.5602993965148926, -0.41943585872650146, 0.3125055432319641, 0.14934295415878296, -0.17365792393684387, 0.19396944344043732], [0.2036735713481903, -0.0513036772608757, 0.22989249229431152, -0.5008753538131714, 0.15068112313747406, -0.3659127950668335, 0.47782284021377563, 0.1412569284439087, 0.21093027293682098, 0.09193725138902664, -0.08924853056669235], [0.8876941800117493, -0.42669740319252014, 0.004627447109669447, 0.4906676411628723, 0.22740046679973602, -0.6603062152862549, -0.44153305888175964, -0.11198021471500397, -0.16807527840137482, -0.27358654141426086, 0.00036599196027964354], [-0.8281736373901367, 0.05031972751021385, 0.036557912826538086, 0.3975472152233124, -0.30332714319229126, -0.36860254406929016, 0.038718026131391525, 0.13709913194179535, 0.10874079167842865, 0.4131064713001251, 0.18482454121112823], [-0.20926198363304138, 0.026014018803834915, 0.05599100515246391, -0.12177920341491699, -0.030247706919908524, -0.03962385281920433, 0.037801407277584076, -0.24990548193454742, 0.20675210654735565, 0.30470407009124756, -0.24469053745269775], [-0.021650373935699463, 0.2872259318828583, 0.08380728214979172, -0.005958384834229946, -0.2612927258014679, 0.184324711561203, -0.26193967461586, -0.03606594726443291, -0.3095855414867401, 0.02175038866698742, -0.13856466114521027], [-0.4933578670024872, -0.02465648576617241, 0.3641010522842407, 0.38883641362190247, -0.2884126305580139, 0.4210323691368103, -0.34557104110717773, -0.13079845905303955, 0.14230388402938843, 0.214167982339859, 0.1310999095439911], [0.08223573118448257, 0.03886764869093895, 0.18929451704025269, -0.38186678290367126, 0.3257547914981842, -0.36558669805526733, -0.008121409453451633, -0.013892324641346931, -0.10326723009347916, 0.034086842089891434, 0.2979773283004761], [-0.4657045006752014, -0.3367491364479065, -0.10859441012144089, -0.2434624284505844, 0.30885443091392517, -0.29948633909225464, -0.2077670693397522, -0.2127479761838913, 0.3327193260192871, 0.21505309641361237, 0.2831529676914215], [0.3056173324584961, -0.06609853357076645, -0.02145473100244999, 0.04056665301322937, 0.4047161638736725, -0.09272173047065735, -0.37374478578567505, -0.15437619388103485, -0.29215049743652344, 0.05401008576154709, -0.22299723327159882], [-0.6928142309188843, 0.27412936091423035, -0.05370021238923073, -0.09092637151479721, 0.25298506021499634, 0.026381226256489754, -0.3961791396141052, -0.13756832480430603, 0.3293534219264984, 0.1324586421251297, 0.300809770822525], [0.2847414016723633, -0.06025557965040207, 0.03830849006772041, -0.17868338525295258, -0.22723019123077393, 0.3982837498188019, 0.04533680900931358, 0.10260435193777084, -0.038789063692092896, -0.15874749422073364, 0.2268592119216919], [-0.010734783485531807, 0.17905931174755096, -0.08824089169502258, -0.3076184391975403, 0.16459161043167114, -0.46335476636886597, 0.3316863179206848, 0.13101936876773834, -0.1086236760020256, 0.13021443784236908, 0.19961680471897125], [0.6442556977272034, 0.059221841394901276, -0.04487239196896553, -0.12070068717002869, 0.2099265158176422, -0.10519597679376602, 0.002385079860687256, 0.2824731767177582, -0.12129504978656769, 0.030241763219237328, 0.202567920088768], [0.11536786705255508, 0.07843673229217529, 0.055851586163043976, -0.4447612762451172, -0.10562891513109207, 0.41666996479034424, 0.5818132758140564, 0.25455349683761597, 0.2370019108057022, 0.1533021330833435, -0.05113835260272026], [-0.21764062345027924, -0.20902284979820251, 0.3025793135166168, 0.14618295431137085, -0.23461343348026276, 0.13490204513072968, 0.5427607297897339, 0.4118388593196869, 0.3815807104110718, 0.3302106559276581, 0.04911080375313759], [0.05408957973122597, 0.2828165292739868, 0.20634371042251587, -0.28238236904144287, 0.3767071068286896, 0.09230837225914001, 0.12275419384241104, -0.08367660641670227, 0.15478819608688354, -0.04184697940945625, 0.24961026012897491], [0.14985784888267517, 0.04865992069244385, -0.10294433683156967, 0.35846227407455444, -0.10307739675045013, 0.38776764273643494, -0.42011430859565735, 0.16983447968959808, -0.07647984474897385, -0.19329534471035004, -0.12155293673276901], [-0.39085572957992554, 0.013016190379858017, 0.20143647491931915, 0.46629399061203003, -0.38557589054107666, -0.33116161823272705, -0.10437159985303879, -0.2353837788105011, 0.3433300852775574, 0.017013652250170708, -0.18373414874076843], [0.6228495836257935, -0.07252909988164902, 0.32435059547424316, 0.3954693377017975, 0.2645198106765747, 0.22001975774765015, 0.2816571891307831, -0.0016442701453343034, 0.14098717272281647, 0.31456807255744934, 0.1234477087855339], [-0.26467165350914, 0.18567334115505219, 0.14926749467849731, -0.09097255021333694, 0.3337937891483307, 0.005729199852794409, -0.05629881098866463, 0.11166691780090332, -0.04146408662199974, -0.27969276905059814, 0.28570282459259033], [0.25431153178215027, -0.09905551373958588, -0.22728422284126282, 0.2611079514026642, 0.3517305850982666, -0.25412482023239136, -0.23124976456165314, 0.44747599959373474, 0.16367432475090027, -0.18528570234775543, 0.37014126777648926], [0.5217705368995667, -0.025799104943871498, 0.13117064535617828, -0.6526513695716858, -0.10019312798976898, 0.5461907982826233, -0.017317095771431923, -0.05977838858962059, -0.01566791906952858, -0.013692055828869343, 0.020582756027579308], [0.32070019841194153, 0.24143964052200317, -0.16387060284614563, -0.30700168013572693, 0.1422814428806305, 0.42247912287712097, -0.08464308828115463, -0.19688281416893005, 0.07271318882703781, -0.09461858868598938, -0.15524767339229584], [0.39767009019851685, -0.1793052852153778, 0.13865919411182404, 0.49270331859588623, -0.03639061748981476, -0.04850340262055397, -0.10598722100257874, 0.11385854333639145, -0.03438486158847809, 0.2729357182979584, -0.22587080299854279], [-0.7427077293395996, -0.2973257899284363, -0.09340386092662811, 0.41165801882743835, -0.4110769033432007, 0.5662776231765747, -0.31232884526252747, 0.15446524322032928, 0.03938421979546547, -0.002913679461926222, 0.25332167744636536], [0.2670239806175232, 0.3137989342212677, -0.08916393667459488, -0.1927773505449295, 0.4019615650177002, -0.2983812093734741, 0.16198210418224335, -0.2254408448934555, 0.018436439335346222, -0.1306382268667221, -0.23443299531936646], [0.26351553201675415, -0.2694675326347351, 0.1750716120004654, 0.15435956418514252, 0.20806534588336945, -0.16622334718704224, -0.5309637784957886, 0.010629369877278805, 0.152607262134552, 0.3669271469116211, 0.24511611461639404], [-0.12875834107398987, 0.054217997938394547, -0.41276538372039795, -0.25752124190330505, 0.17211298644542694, -0.17078061401844025, 0.25872156023979187, -0.436831533908844, -0.42459866404533386, -0.2483515739440918, 0.22364862263202667], [-0.49065589904785156, 0.31739020347595215, 0.1734313815832138, 0.40823930501937866, -0.19280162453651428, 0.06482210755348206, 0.1382351964712143, -0.03359565511345863, 0.1906697005033493, -0.005155995488166809, 0.21837621927261353], [0.39856618642807007, -0.20985575020313263, -0.10356637835502625, 0.17015960812568665, 0.3874071538448334, -0.49772411584854126, 0.465607613325119, 0.23729121685028076, 0.36325448751449585, 0.3532072901725769, -0.030788734555244446], [0.6437156796455383, 0.1163053810596466, -0.04727441817522049, 0.18192191421985626, -0.24990472197532654, 0.1310766488313675, 0.22172075510025024, -0.16688352823257446, 0.02847225032746792, 0.04441942274570465, -0.10132071375846863], [0.1571837067604065, 0.14188747107982635, 0.11556944996118546, 0.23856724798679352, 0.09764410555362701, 0.32759174704551697, -0.39734265208244324, 0.08346585184335709, 0.07364949584007263, 0.38579460978507996, 0.17263300716876984], [-0.5664881467819214, -0.05050211772322655, 0.11986889690160751, 0.47300493717193604, -0.35263004899024963, -0.23804441094398499, -0.19858787953853607, 0.08664524555206299, -0.14448346197605133, -0.25460341572761536, -0.1592504233121872], [0.35537615418434143, -0.0935848206281662, 0.11670571565628052, -0.14880868792533875, -0.1432787925004959, 0.2097797393798828, 0.5154417753219604, -0.10074764490127563, 0.13281555473804474, -0.013225683942437172, 0.3524552881717682], [-0.5602114796638489, -0.2803954482078552, 0.22068877518177032, -0.41510674357414246, 0.25013142824172974, 0.20803339779376984, -0.1787412315607071, -0.0342935211956501, 0.20040252804756165, -0.013212078250944614, -0.37484726309776306], [-0.9711902141571045, -0.17719393968582153, 0.18613150715827942, -0.3490932285785675, 0.4524800181388855, -0.11549202352762222, -0.1854030191898346, 0.2304457724094391, 0.26478415727615356, 0.15877746045589447, 0.2536304295063019], [-0.24338866770267487, -0.042822420597076416, -0.04554789140820503, 0.2878777086734772, -0.10414648801088333, -0.1227542981505394, 0.386064350605011, 0.3856607973575592, -0.1487940549850464, -0.1639133095741272, -0.0909467563033104], [0.6874920129776001, -0.026150597259402275, -0.1604561060667038, -0.031199723482131958, 0.2372816801071167, 0.4242421090602875, -0.06433235853910446, 0.05802127718925476, -0.22917772829532623, -0.3096471428871155, 0.317380428314209], [0.21907643973827362, 0.10607593506574631, -0.12247008830308914, 0.2921147644519806, 0.45380735397338867, 0.3360294997692108, -0.34050118923187256, 0.013484799303114414, -0.0052007338963449, 0.40771570801734924, -0.017229396849870682], [-0.6834893822669983, 0.035749442875385284, 0.0719195231795311, -0.27082985639572144, 0.12059131264686584, -0.21661275625228882, -0.22567740082740784, 0.33003753423690796, -0.22783009707927704, 0.23565801978111267, 0.3672402501106262], [0.058242086321115494, 0.12583568692207336, 0.2779916226863861, 0.09795138239860535, -0.14299191534519196, 0.5779426097869873, 0.09720802307128906, -0.11572524905204773, -0.027092663571238518, -0.0980238988995552, 0.2794269621372223], [0.8370584845542908, -0.06420072913169861, -0.26230689883232117, 0.18520361185073853, 0.1570497453212738, -0.041754141449928284, 0.08631958067417145, 0.10874690115451813, -0.11837350577116013, -0.21046587824821472, -0.2628925144672394], [-0.3577211797237396, 0.08465211093425751, -0.08630978316068649, 0.07219766825437546, 0.2674233913421631, 0.26651984453201294, -0.26059478521347046, 0.4397386610507965, 0.06283152848482132, 0.42495104670524597, -0.011197498068213463], [0.26800981163978577, 0.2077239751815796, -0.09798049926757812, 0.4563984274864197, -0.20383121073246002, -0.5549057126045227, 0.28105518221855164, 0.17959074676036835, 0.35569748282432556, 0.0402836836874485, 0.2505531907081604], [0.26933369040489197, -0.0248316191136837, 0.2938195466995239, -0.3548855483531952, 0.1344328075647354, 0.3856672942638397, 0.12338465452194214, 0.3272033631801605, 0.09066340327262878, 0.2749024033546448, -0.21125146746635437], [0.44880691170692444, -0.06379684805870056, 0.28904104232788086, 0.07047583162784576, 0.3668656647205353, -0.23875530064105988, -0.05910956487059593, 0.1829226315021515, 0.08734940737485886, 0.3023652136325836, -0.15637895464897156], [0.369113564491272, 0.04896210879087448, 0.18670815229415894, 0.4407472312450409, 0.10781999677419662, -0.30414339900016785, 0.11882585287094116, 0.18708552420139313, 0.18686342239379883, -0.06483703851699829, 0.33200308680534363], [0.5723662376403809, 0.17939017713069916, -0.17775261402130127, 0.34184008836746216, -0.2715862989425659, 0.3202474117279053, -0.011320770718157291, -0.026855679228901863, 0.13804063200950623, -0.14205701649188995, 0.11352749168872833]], "b": [-0.012971976771950722, 0.2042245864868164, 0.18996091187000275, 0.3635360300540924, 0.01813320815563202, 0.36677828431129456, 0.08547282218933105, 0.11590752750635147, -0.04200056195259094, -0.19262593984603882, 0.38986989855766296, -0.07519678771495819, 0.15673261880874634, 0.2248920500278473, 0.4172280728816986, 0.3756542205810547, 0.35768017172813416, -0.08102766424417496, 0.13941729068756104, -0.21637362241744995, -0.17121823132038116, 0.13456539809703827, 0.40885037183761597, -0.03288977965712547, 0.2942795753479004, 0.03321642428636551, 0.09874378889799118, 0.4134771525859833, 0.07693083584308624, 0.19223594665527344, -0.013181331567466259, 0.41958171129226685, 0.172321155667305, -0.09099707752466202, 0.2835118770599365, 0.0026664617471396923, -0.09015434235334396, 0.14762918651103973, 0.41148242354393005, 0.11524639278650284, 0.2566353678703308, 0.39482468366622925, 0.34430962800979614, -0.09185329079627991, 0.05592873692512512, 0.14815978705883026, -0.22915104031562805, 0.3127523362636566, 0.32496437430381775, 0.4540177285671234, 0.21779869496822357, 0.1569267213344574, 0.19816316664218903, 0.3462834358215332, 0.13978703320026398, -0.12228648364543915, 0.2575565576553345, 0.24163936078548431, 0.036189690232276917, 0.513917863368988, 0.33795467019081116, -0.07143069803714752, 0.19057980179786682, 0.41128385066986084]}, {"w": [[-0.20012614130973816, -0.15139265358448029, 0.09013403952121735, -0.35985252261161804, 0.24150139093399048, -0.04030076786875725, 0.21899466216564178, -0.27788135409355164, 0.19014430046081543, -0.1969497948884964, 0.2873145341873169, -0.11996130645275116, -0.12550179660320282, 0.39482206106185913, 0.021424705162644386, -0.1410449743270874, -0.18644987046718597, 0.34417256712913513, 0.2080574631690979, 0.002712339861318469, -0.03983365744352341, 0.2199283242225647, -0.06541065126657486, -0.019015002995729446, 0.17375381290912628, 0.01063170749694109, -0.10186067223548889, -0.0818522572517395, 0.012808996252715588, -0.22242748737335205, 0.056892745196819305, -0.1272750049829483, 0.15018492937088013, 0.18949903547763824, 0.1936081498861313, -0.12790006399154663, 0.1408655345439911, 0.009032171219587326, -0.0704113319516182, 0.22091516852378845, 0.16797026991844177, -0.14291492104530334, 0.07699652761220932, -0.1609792560338974, 0.22329851984977722, -0.0027066494803875685, -0.6403161287307739, 0.18510156869888306, 0.2049894481897354, 0.09889904409646988, -0.24839115142822266, -0.0711522102355957, 0.2105652540922165, -0.00662339199334383, 0.1728641390800476, -0.1856791228055954, -0.03626194968819618, 0.11266858130693436, 0.0809614434838295, 0.09858869016170502, -0.06052066385746002, 0.08691572397947311, 0.265029639005661, 0.0742238238453865], [-0.005459910724312067, -0.065204918384552, -0.13250836730003357, 0.0249483622610569, -0.008418764919042587, -0.06992333382368088, -0.06472126394510269, 0.004178880248218775, -0.03735612332820892, 0.08168448507785797, -0.018244989216327667, 0.04721708595752716, 0.030518561601638794, -0.024972328916192055, 0.024943698197603226, 0.06869233399629593, -0.01903330162167549, -0.006006813142448664, -0.014579470269382, 0.086545929312706, -0.05277441442012787, -0.06628615409135818, 0.029761983081698418, -0.12396964430809021, -0.025327714160084724, -0.07257387787103653, 0.06757088750600815, -0.14251942932605743, 0.04994548112154007, 0.09934987127780914, 0.0034350347705185413, -0.030725529417395592, 0.1253395527601242, -0.043456971645355225, -0.03427382558584213, -0.08246465772390366, -0.03912406414747238, 0.004552475176751614, 0.003976008389145136, -0.04039077088236809, -0.14465974271297455, -0.016203757375478745, -0.02914477325975895, 0.01880459487438202, 0.07662759721279144, 0.09527022391557693, -0.06475627422332764, -0.023442696779966354, -0.0340721532702446, -0.13430137932300568, -0.10649381577968597, 0.09206247329711914, 0.07835434377193451, 0.043876294046640396, 0.041541483253240585, -0.12194707989692688, -0.0009907321073114872, 0.09061914682388306, -0.09568241238594055, 0.09042800962924957, 0.006033678539097309, 0.060386840254068375, -0.07434625178575516, 0.04733661189675331], [0.006696262396872044, 0.16244067251682281, -0.059773609042167664, -0.08382964879274368, 0.2040935605764389, 0.2366098016500473, 0.23291179537773132, -0.06383886188268661, -0.009207512252032757, 0.08165528625249863, -0.11412806808948517, -0.046403393149375916, -0.021785635501146317, 0.08769961446523666, 0.10248972475528717, 0.04036508500576019, 0.10905771702528, -0.16236242651939392, 0.2266058623790741, 0.09593135863542557, -0.20437327027320862, -0.02156892418861389, 0.026638025417923927, -0.054363638162612915, -0.0376577191054821, -0.17019465565681458, 0.01703527756035328, 0.1243477389216423, 0.08326707035303116, 0.04152778908610344, 0.16351385414600372, -0.07151928544044495, 0.015694810077548027, 0.08536997437477112, 0.20446603000164032, -0.17662309110164642, -0.17148485779762268, 0.27180397510528564, 0.2000783085823059, 0.10873415321111679, 0.18073847889900208, -0.14241603016853333, 0.08883543312549591, 0.08561413735151291, 0.08686864376068115, -0.04325000196695328, -0.2602074146270752, -0.00877404399216175, 0.08581489324569702, 0.11675126105546951, -0.25151053071022034, -0.21290940046310425, 0.18991903960704803, 0.03149781376123428, -0.13334250450134277, -0.14461290836334229, 0.01115600485354662, -0.04726123809814453, 0.03946065902709961, 0.1758962720632553, 0.06603150069713593, -0.08509741723537445, 0.12262042611837387, 0.12976953387260437], [0.15552683174610138, 0.35574695467948914, -0.027694975957274437, -0.061710525304079056, 0.03948528319597244, 0.2677150368690491, 0.3151877224445343, -0.2679034173488617, -0.21597342193126678, 0.19401250779628754, -0.03198470175266266, 0.027051344513893127, 0.2183978259563446, -0.09439841657876968, 0.0726233422756195, 0.037719786167144775, 0.31934237480163574, -0.47293758392333984, -0.04869270324707031, 0.12759828567504883, -0.07509330660104752, -0.27069956064224243, 0.10412830114364624, -0.18386328220367432, -0.20830586552619934, -0.22571946680545807, 0.11963151395320892, 0.2006974220275879, 0.026955371722579002, 0.3664577901363373, 0.2614712715148926, 0.2036195993423462, -0.21128036081790924, -0.17780828475952148, 0.1865626722574234, -0.11335224658250809, -0.17041492462158203, 0.1504756212234497, 0.146281898021698, -0.24974162876605988, -0.027946140617132187, 0.024725349619984627, -0.10244192183017731, 0.274370014667511, -0.0697704404592514, 0.2311369925737381, 0.07834810018539429, -0.3618116080760956, -0.16298750042915344, 0.23656417429447174, 0.0020241541787981987, 0.03085373528301716, 0.28487998247146606, -0.024425867944955826, -0.24113725125789642, 0.08516891300678253, 0.2706202566623688, -0.004115592688322067, -0.18423143029212952, 0.18952427804470062, 0.18800131976604462, -0.10079679638147354, -0.011408875696361065, 0.2044016569852829], [0.1842181384563446, -0.015801817178726196, -0.20066486299037933, -0.13169515132904053, 0.03586114943027496, 0.19715352356433868, 0.1767420917749405, -0.11685774475336075, 0.0028934681322425604, 0.07103203237056732, -0.0634087398648262, 0.022752612829208374, -0.14941337704658508, 0.15477310121059418, 0.0702844113111496, 0.1650429368019104, -0.12202107906341553, 0.29983651638031006, 0.04549017548561096, 0.17490164935588837, -0.04249835014343262, 0.22431376576423645, -0.024811452254652977, -0.07565589994192123, -0.2145063430070877, 0.015838181599974632, 0.21355734765529633, -0.13306446373462677, 0.13191024959087372, 0.2153725028038025, -0.005680412985384464, -0.030875056982040405, 0.31316038966178894, 0.21989509463310242, 0.1825047880411148, -0.10304895043373108, -0.04059486836194992, 0.47863519191741943, 0.20958535373210907, 0.23338432610034943, 0.13092564046382904, -0.23922044038772583, -0.0018314679618924856, -0.0943211242556572, 0.0556529276072979, 0.028368869796395302, 0.06379391252994537, 0.14586511254310608, 0.2838374972343445, 0.03850952535867691, -0.07413181662559509, -0.26887091994285583, -0.040138985961675644, 0.15951618552207947, 0.1257251799106598, -0.05996813252568245, 0.22189314663410187, 0.1496133953332901, 0.049792855978012085, 0.037951670587062836, 0.16430044174194336, 0.0855453684926033, 0.06040097400546074, 0.1907462477684021], [-0.007699891924858093, -0.07839752733707428, -0.0452127605676651, 0.08122976124286652, -0.05012457072734833, 0.07762996852397919, -0.049566492438316345, -0.029112353920936584, 0.0026602745056152344, -0.11470818519592285, -0.0012481212615966797, -0.012599468231201172, -0.011229544878005981, -0.024988025426864624, 0.09854716062545776, 0.09224839508533478, -0.08471965789794922, 0.05806584656238556, -0.09804782271385193, -0.10641516745090485, 0.03821024298667908, 0.0018370598554611206, -0.05831329524517059, -0.12056297063827515, -0.04839201271533966, 0.04174993932247162, -0.11570018529891968, -0.12143318355083466, 0.01585906744003296, -0.09005051851272583, -0.10951003432273865, -0.04816077649593353, -0.02012510597705841, -0.11358815431594849, -0.08346596360206604, 0.00819598138332367, -0.11787146329879761, -0.017569303512573242, -0.08071283996105194, -0.0866546630859375, 0.04912887513637543, -0.09621120989322662, -0.09472927451133728, 0.0712851881980896, 0.023370787501335144, 0.11383910477161407, -0.03341193497180939, -0.060376882553100586, -0.011568307876586914, 0.0006324201822280884, 0.09533053636550903, -0.12450999021530151, -0.008900091052055359, 0.05529402196407318, -0.06883537769317627, -0.06351760029792786, 0.06040847301483154, -0.11977314949035645, 0.029619470238685608, -0.09677331149578094, 0.06213273108005524, -0.1068800538778305, 0.07685059309005737, -0.11832907795906067], [-0.10507084429264069, 0.001842111349105835, 0.09849855303764343, -0.10704945027828217, -0.05575746297836304, 0.10978531837463379, -0.020962178707122803, 0.05178557336330414, -0.12024977803230286, -0.039310112595558167, -0.06347902119159698, 0.10538265109062195, 0.05187998712062836, -0.09120945632457733, 0.02015337347984314, -0.001436680555343628, -0.05135872960090637, -0.07138457894325256, -0.04147982597351074, 0.09852831065654755, -0.08960653841495514, -0.08904291689395905, -0.03856489062309265, 0.0021745413541793823, 0.03402648866176605, 0.003751009702682495, -0.030090704560279846, -0.07579377293586731, -0.022429078817367554, -0.050319164991378784, 0.10099110007286072, -0.12167619168758392, -0.07973237335681915, -0.10169877111911774, -0.022844597697257996, 0.09740917384624481, 0.10956740379333496, -0.10881941020488739, -0.005415856838226318, 0.07337076961994171, 0.05509968101978302, 0.10238797962665558, -0.003467276692390442, -0.08398659527301788, 0.08269131183624268, -0.042864322662353516, 0.06472326815128326, -0.030804559588432312, 0.05313676595687866, 0.11242824792861938, 0.11623193323612213, -0.1137581318616867, -0.08268503844738007, -0.05168335139751434, -0.0797126293182373, 0.11993750929832458, -0.0110398530960083, -0.08291757106781006, -0.05562368035316467, -0.06904557347297668, 0.05099867284297943, -0.10903139412403107, -0.11655038595199585, -0.12322014570236206], [0.07456187903881073, -0.11121833324432373, 0.04625832289457321, 0.033073630183935165, 0.051534902304410934, -0.006506248842924833, -0.1386326402425766, 0.12327821552753448, 0.21663209795951843, -0.0026668452192097902, 0.01998920552432537, 0.06338781118392944, 0.06914479285478592, 0.02147623710334301, 0.3661612272262573, 0.22988596558570862, -0.11061303317546844, 0.6058388352394104, 0.04580371454358101, 0.1956975758075714, 0.13666917383670807, 0.2465156465768814, 0.10684186965227127, -0.06273827701807022, 0.07013257592916489, 0.1540396809577942, 0.1434488445520401, -0.16362601518630981, 0.08691360801458359, -0.18249759078025818, -0.1928250938653946, 0.010272566229104996, 0.3887750208377838, 0.19730129837989807, 0.17164981365203857, 0.23064278066158295, 0.2345316857099533, 0.11868450790643692, 0.2100435495376587, 0.20580746233463287, 0.23068761825561523, -0.12091261148452759, 0.2322090119123459, 0.06305667012929916, -0.13860507309436798, 0.02085983380675316, 0.47680920362472534, 0.15414200723171234, 0.20626504719257355, 0.0169367678463459, 0.006561312824487686, 0.15323364734649658, 0.02976519986987114, 0.3098534345626831, 0.1830163151025772, 0.04488362371921539, -0.03833054378628731, 0.34210094809532166, 0.0849340632557869, -0.03569957986474037, 0.25906649231910706, 0.21170565485954285, 0.09027763456106186, 0.2022773027420044], [-0.30677562952041626, -0.07490803301334381, 0.24942798912525177, 0.08697695285081863, 0.19978241622447968, -0.18092823028564453, 0.06942692399024963, 0.12406179308891296, 0.1138768196105957, 0.011129227466881275, 0.2881465554237366, 0.08464443683624268, 0.03513432294130325, 0.20531179010868073, 0.2054610252380371, -0.24683748185634613, 0.20595504343509674, 0.5042449831962585, 0.2746357321739197, 0.07842108607292175, -0.02259933017194271, 0.011079003103077412, 0.2658723294734955, 0.207183375954628, 0.3083764314651489, 0.10894815623760223, -0.17719902098178864, 0.1227279081940651, 0.08740470558404922, -0.10685543715953827, 0.08995935320854187, 0.07739503681659698, 0.1488780677318573, 0.1731482297182083, 0.17070652544498444, 0.16988280415534973, 0.043531082570552826, -0.2841772735118866, -0.029783373698592186, 0.21970713138580322, -0.09819581359624863, 0.23219919204711914, 0.1456598937511444, 0.3265884816646576, 0.047140929847955704, 0.2935292422771454, -0.1988491415977478, -0.04808708652853966, 0.23014384508132935, -0.02966034784913063, -0.10154031962156296, -0.032006047666072845, 0.3153397738933563, 0.157292440533638, 0.04466738551855087, -0.23220841586589813, -0.03715304657816887, 0.23765137791633606, 0.030720964074134827, 0.2474973499774933, -0.12877263128757477, 0.19137300550937653, 0.22178637981414795, 0.16025109589099884], [-0.053298790007829666, -0.09552683681249619, 0.21095164120197296, -0.01299208216369152, -0.06859958171844482, 0.1311512589454651, -0.226270392537117, 0.29471904039382935, 0.23637954890727997, 0.27486830949783325, 0.06871078908443451, 0.11307916045188904, 0.020458940416574478, -0.279680073261261, 0.30032023787498474, 0.1748645156621933, 0.12628714740276337, 0.44194552302360535, -0.2598041296005249, 0.16178852319717407, 0.09294754266738892, 0.07068660110235214, 0.14764127135276794, 0.054292090237140656, -0.0059518516063690186, 0.20551957190036774, -0.027066132053732872, 0.12993988394737244, 0.04389235004782677, -0.008656434714794159, -0.12387854605913162, 0.12273667007684708, 0.12891237437725067, -0.031573422253131866, 0.05348093807697296, 0.14748382568359375, 0.2673161029815674, -0.007050303276628256, 0.15894919633865356, -0.13609424233436584, 0.11177071183919907, 0.20480979979038239, 0.10053001344203949, -0.04899720847606659, -0.1441301554441452, 0.15532907843589783, 0.5016207098960876, 0.26488617062568665, -0.07281367480754852, 0.11875949054956436, 0.1669008731842041, 0.03427638113498688, -0.08585697412490845, 0.11177331954240799, 0.18747006356716156, 0.10738182067871094, 0.015784796327352524, 0.17525169253349304, -0.03342507407069206, 0.012985494919121265, 0.15222015976905823, 0.13805009424686432, 0.07655967026948929, -0.06560155749320984], [0.22285617887973785, 0.02287817932665348, -0.09012877196073532, -0.20855040848255157, 0.18110066652297974, 0.2270411252975464, 0.20800577104091644, -0.12090744823217392, 0.17076636850833893, -0.019449137151241302, -0.10132721811532974, 0.022340402007102966, -0.026700494810938835, 0.1256484091281891, 0.12038680911064148, 0.02992967702448368, -0.1516169160604477, 0.2266135960817337, 0.2127133458852768, 0.29539909958839417, -0.1677057147026062, 0.10395398736000061, -0.22141997516155243, -0.11549573391675949, 0.016232889145612717, -0.10079329460859299, 0.15925471484661102, -0.149095818400383, 0.035997506231069565, 0.019524525851011276, -0.0001949673460330814, 0.10952933877706528, 0.1603948324918747, 0.16395790874958038, 0.08309046924114227, -0.1926923245191574, 0.0008221343159675598, 0.3989798128604889, 0.10814571380615234, 0.16799263656139374, 0.19437949359416962, -0.27678513526916504, 0.14440153539180756, 0.07633913308382034, 0.10267078876495361, -0.08961509168148041, 0.009921086020767689, 0.08864841610193253, 0.2048790007829666, 0.09224385768175125, -0.17888329923152924, -0.09934380650520325, 0.02890678308904171, 0.17488974332809448, 0.03891460597515106, -0.19122214615345, 0.15576399862766266, 0.17066070437431335, 0.10006024688482285, 0.14362530410289764, 0.261981338262558, -0.029423674568533897, 0.0294350478798151, 0.2274666279554367], [0.2704043388366699, 0.3845389485359192, -0.18394212424755096, -0.2441059798002243, 0.04816301539540291, 0.12998762726783752, 0.3339310884475708, -0.2648409307003021, 0.048085812479257584, 0.19808048009872437, 0.039193280041217804, -0.07747192680835724, 0.13214345276355743, 0.2920122742652893, 0.2648386061191559, -0.2153356969356537, 0.3299318552017212, 0.23321513831615448, 0.27234265208244324, 0.3056052625179291, 0.006425171624869108, -0.03334733098745346, -0.09422346204519272, -0.0946722999215126, -0.20869038999080658, -0.2182588428258896, 0.2725895941257477, 0.1200919970870018, 0.1380074918270111, 0.14788150787353516, 0.24708521366119385, -0.02074969932436943, -0.10835500061511993, 0.21349221467971802, 0.12487705051898956, -0.09337004274129868, -0.14092591404914856, 0.23057648539543152, 0.06774812191724777, 0.05011869594454765, -0.023834647610783577, -0.1040286049246788, -0.022396612912416458, 0.3180675804615021, 0.013537405990064144, 0.20515599846839905, -0.06484595686197281, -0.17096753418445587, 0.36457639932632446, 0.3222602307796478, -0.1925182044506073, -0.2090212106704712, 0.3938533067703247, 0.22064097225666046, -0.27816876769065857, -0.3437499701976776, 0.14005669951438904, 0.2829132676124573, -0.06551530957221985, 0.23127983510494232, 0.1763419657945633, -0.0015499511500820518, 0.16416753828525543, 0.15731823444366455], [-0.03900540992617607, 0.03427613154053688, 0.04084668308496475, -0.019304431974887848, 0.09761756658554077, -0.09567892551422119, 0.029154034331440926, 0.1035858765244484, -0.030178410932421684, 0.09923863410949707, -0.01573271118104458, -0.09360560774803162, -0.08357535302639008, 0.0338648296892643, -0.048090748488903046, 0.013042924925684929, 0.10789762437343597, 0.04246005415916443, -0.034136053174734116, 0.026135193184018135, -0.07201796770095825, -0.12056468427181244, -0.10469852387905121, -0.10488781332969666, 0.008538801223039627, 0.01577405445277691, -0.06727334856987, -0.14189492166042328, 0.04961756244301796, -0.08509248495101929, -0.04163703694939613, -0.11527352780103683, -0.09192266315221786, 0.04403456673026085, -0.13269713521003723, -0.07127995789051056, 0.07594874501228333, -0.06410609185695648, -0.04618828371167183, -0.05790848657488823, 0.033662401139736176, -0.07599461823701859, -0.003418364329263568, 0.0510503351688385, -0.023306777700781822, 0.004564599599689245, -0.10226326435804367, 0.04005809873342514, 0.02558160200715065, -0.02835974469780922, -0.11261142790317535, 0.035904187709093094, 0.05547644942998886, -0.041623398661613464, 0.04169110953807831, 0.03507958725094795, -0.06025516986846924, -0.03163168579339981, 0.10545806586742401, -0.017630260437726974, -0.11782173067331314, -0.02833029255270958, 0.04404948651790619, -0.057548925280570984], [-0.072032131254673, 0.08746574074029922, 0.06612646579742432, -0.032000698149204254, -0.007340729236602783, -0.029845746234059334, 0.013321911916136742, -0.012647549621760845, -0.09556757658720016, 0.02315928041934967, -0.010529420338571072, 0.008081689476966858, -0.06224270910024643, 0.02828451804816723, -0.10352668911218643, 0.021685220301151276, 0.05213002860546112, -0.0137566477060318, -0.0968177542090416, -0.00045439600944519043, 0.0001774430274963379, -0.12355493009090424, -0.10161381959915161, 0.10169942677021027, 0.0866885706782341, 0.05507773905992508, 0.07072395831346512, 0.03546867147088051, 0.06698056310415268, 0.06555468589067459, -0.046210676431655884, -0.03069438599050045, 0.08244255185127258, -4.501640796661377e-05, -0.09727547317743301, -0.11056051403284073, 0.05597525089979172, 0.08675764501094818, 0.07921501994132996, 0.005376926623284817, 0.070768341422081, -0.13082155585289001, -0.10497882217168808, -0.12027880549430847, 0.08539540320634842, -0.0011310726404190063, -0.0575580894947052, 0.034453243017196655, -0.05293833836913109, -0.0955694392323494, 0.03161591291427612, 0.008996788412332535, -0.09802023321390152, -0.09764377027750015, 0.05075419321656227, 0.09486671537160873, -0.00540370075032115, -0.07347045093774796, 0.054718006402254105, 0.007360224612057209, -0.12627960741519928, -0.09569385647773743, 0.012981593608856201, 0.061317119747400284], [-0.08778201043605804, -0.0921831876039505, 0.10494710505008698, 0.36246564984321594, 0.05382293462753296, -0.0253167562186718, -0.079364113509655, 0.32715484499931335, 0.16615821421146393, -0.1066395491361618, 0.18058283627033234, -0.02821427583694458, 0.3174040615558624, -0.17378588020801544, -0.13864003121852875, 0.1753658801317215, -0.095588319003582, 0.06131649389863014, -0.11635424196720123, -0.202353373169899, 0.04804638400673866, -0.0842544436454773, 0.0663914754986763, 0.24956898391246796, 0.11842896789312363, 0.2799483835697174, -0.046153344213962555, 0.09552651643753052, 0.14434127509593964, -0.18694405257701874, -0.005159053951501846, 0.24460501968860626, 0.1219782754778862, -0.10143875330686569, -0.04769627004861832, 0.1681423932313919, 0.1920289248228073, -0.18904103338718414, 0.16717469692230225, -0.024923531338572502, -0.0015558147570118308, 0.004881610162556171, 0.21463149785995483, -0.2223433554172516, 0.07837708294391632, 0.10752373933792114, 0.17573373019695282, 0.2861102819442749, -0.2524590492248535, -0.1635170429944992, 0.35066884756088257, 0.2462518811225891, -0.0575043186545372, 0.10320655256509781, 0.32467982172966003, 0.18010534346103668, -0.001744534121826291, -0.09926261007785797, 0.22064267098903656, -0.06129737198352814, 0.1260198950767517, 0.16410775482654572, 0.12833772599697113, -0.2228691726922989], [0.10549189150333405, -0.21774208545684814, 0.07754453271627426, 0.08412858843803406, 0.14437128603458405, 0.1275167167186737, 0.07106701284646988, 0.17056916654109955, 0.24844683706760406, -0.15846677124500275, 0.18108877539634705, 0.06258809566497803, -0.06251192092895508, 0.3516329228878021, -0.10281240195035934, 0.13763602077960968, -0.1868857592344284, 0.35325658321380615, 0.09640046209096909, 0.10497009754180908, -0.12279842793941498, 0.21135476231575012, -0.10192199796438217, 0.17288047075271606, 0.26987946033477783, 0.10993188619613647, 0.058217402547597885, -0.17380940914154053, -0.08810529857873917, -0.10123442113399506, -0.019169680774211884, 0.06310476362705231, 0.2336909919977188, 0.22638621926307678, 0.010093056596815586, 0.11160559207201004, 0.2691660225391388, 0.12387145310640335, 0.13181522488594055, 0.3559038043022156, 0.2911166548728943, -0.22304339706897736, 0.06810380518436432, -0.4185064435005188, 0.10916595906019211, -0.036819688975811005, -0.24529929459095, 0.35875099897384644, 0.1700681746006012, -0.06791255623102188, 0.1327880173921585, 0.09258139878511429, 0.08491595089435577, 0.10988330841064453, 0.21042631566524506, 0.013581449165940285, 0.2256234735250473, 0.04495549947023392, 0.14259034395217896, -0.09838499873876572, -0.042890727519989014, 0.11197192966938019, 0.04034185782074928, 0.25252068042755127], [0.21212048828601837, 0.08447981625795364, 0.08549199253320694, 0.26374000310897827, -0.17249271273612976, 0.1941203624010086, -0.2643605172634125, 0.316290944814682, 0.1275724321603775, 0.031089628115296364, -0.14501382410526276, 0.029017329216003418, -0.02664531022310257, 0.013487056829035282, -0.170633926987648, 0.2256828397512436, -0.1599297970533371, -0.16363069415092468, -0.32068923115730286, -0.08191144466400146, 0.16112303733825684, 0.19514037668704987, 0.0744946077466011, 0.2170880287885666, 0.31358638405799866, 0.1804053783416748, 0.10953585803508759, -0.13098031282424927, -0.0962756797671318, 0.08421552926301956, -0.16953325271606445, 0.09043489396572113, 0.01582973822951317, -0.2451326847076416, 0.018024101853370667, 0.2564733028411865, -0.08577683568000793, 0.2993047833442688, 0.18225370347499847, -0.3369333744049072, 0.10466068983078003, 0.08716531097888947, 0.06112508475780487, 0.2511960566043854, 0.053655099123716354, -0.14723366498947144, -0.30261358618736267, 0.29728052020072937, -0.3323238492012024, -0.06842126697301865, 0.33071139454841614, 0.12999162077903748, -0.4837805926799774, 0.021590501070022583, 0.24721072614192963, 0.26565489172935486, 0.32077378034591675, -0.18632422387599945, 0.2222309559583664, -0.29892221093177795, 0.21385160088539124, -0.055229827761650085, -0.13948644697666168, 0.04424922913312912], [0.015110640786588192, 0.1006276085972786, 0.03860217332839966, -0.034338366240262985, 0.08121450245380402, 0.11038287729024887, 0.28242459893226624, -0.05085751786828041, 0.055247288197278976, -0.05209909752011299, 0.14111705124378204, 0.038924723863601685, 0.09113839268684387, 0.3567717373371124, 0.0662567988038063, -0.13660715520381927, -0.009193972684442997, 0.2161865234375, 0.27102625370025635, 0.0077445413917303085, -0.11406515538692474, 0.002704144921153784, -0.028581254184246063, -0.04800092801451683, 0.11847850680351257, -0.07761179655790329, -0.10151293873786926, -0.06469079852104187, 0.022807857021689415, -0.13073186576366425, 0.12348945438861847, -0.10883399844169617, -0.09103154391050339, 0.11020389199256897, 0.09919412434101105, 0.04307948797941208, 0.1600743532180786, -0.11238621920347214, -0.2301315814256668, 0.15649262070655823, 0.014423231594264507, -0.05029048025608063, 0.13645964860916138, 0.15387514233589172, 0.25632190704345703, 0.1404835432767868, -0.6497794985771179, 0.011004858650267124, 0.2517533302307129, 0.0026567240711301565, -0.11485140025615692, -0.08056291192770004, 0.03634117916226387, 0.08806584030389786, 0.0026024014223366976, -0.25775015354156494, 0.11044391989707947, -0.06939082592725754, 0.02787049673497677, 0.31036970019340515, -0.06793081015348434, 0.04906780645251274, 0.23972971737384796, 0.17531783878803253], [-0.0383528470993042, -0.0703398734331131, -0.009782105684280396, 0.09775638580322266, 0.010747730731964111, 0.08685141801834106, -0.0009293556213378906, 0.038352519273757935, 0.004346534609794617, 0.0033932477235794067, -0.1189524382352829, -0.10927927494049072, 0.010391265153884888, 0.06186671555042267, 0.08396907150745392, 0.005423650145530701, 0.052690207958221436, 0.05227963626384735, -0.1079065352678299, -0.1098666787147522, -0.0969182550907135, 0.0021490901708602905, -0.0790395587682724, -0.040001630783081055, -0.018701761960983276, 0.04877021908760071, 0.02898237109184265, 0.11595948040485382, 0.11274884641170502, -0.07974459230899811, -0.000393792986869812, 0.020641818642616272, 0.1091248095035553, -0.0387401282787323, -0.049125269055366516, -0.07918202877044678, 0.09210763871669769, -0.035413458943367004, -0.046815648674964905, 0.08454619348049164, 0.11502045392990112, -0.005267664790153503, -0.08811326324939728, 0.10184814035892487, -0.04275059700012207, -0.057603105902671814, -0.08787798881530762, -0.06011688709259033, -0.09789563715457916, -0.072151780128479, -0.11386975646018982, -0.025194093585014343, 0.05025939643383026, -0.09489068388938904, -0.0001745671033859253, -0.04609522223472595, 0.06046228110790253, 0.10826517641544342, -0.016570374369621277, -0.0629124641418457, -0.09604552388191223, -0.07344022393226624, 0.036090388894081116, 0.028680413961410522], [-0.09314131736755371, 0.11943621188402176, 0.21677419543266296, 0.08493233472108841, 0.0967235267162323, 0.12670941650867462, -0.1041054055094719, 0.025331314653158188, 0.06055047735571861, 0.0871310755610466, 0.0657760351896286, 0.07625807821750641, 0.13074840605258942, -0.1478671133518219, 0.16735051572322845, 0.08272870630025864, 0.30061912536621094, 0.15470565855503082, 0.04416623339056969, 0.04199640452861786, 0.1297321319580078, -0.2831878364086151, 0.15418598055839539, 0.15715362131595612, 0.06292742490768433, 0.15849129855632782, -0.23975518345832825, 0.27701476216316223, 0.027822908014059067, 0.11621396243572235, 0.07831895351409912, 0.16190139949321747, -0.20525293052196503, 0.03875584155321121, 0.004502157215029001, -0.007399697322398424, -0.04206569120287895, -0.3273923695087433, 0.012813243083655834, -0.23088981211185455, -0.20376801490783691, 0.2518843114376068, 0.1791321039199829, 0.3983480632305145, -0.004346239380538464, 0.28472405672073364, 0.10547520220279694, -0.08264437317848206, -0.17211222648620605, 0.11054389923810959, 0.10099906474351883, 0.1887713521718979, 0.16903123259544373, 0.0037373974919319153, 0.08941830694675446, 0.003455576254054904, -0.16826455295085907, 0.11777400970458984, 0.06431548297405243, 0.29948487877845764, 0.10341311246156693, 0.12442532181739807, 0.24801670014858246, -0.14180000126361847], [-0.08515448868274689, 0.11147984117269516, 0.029266126453876495, 0.2811022102832794, 0.05393484979867935, 0.06175242364406586, -0.016085036098957062, 0.15288926661014557, 0.09765057265758514, 0.22611017525196075, 0.031116683036088943, 0.04581210017204285, 0.19436484575271606, -0.14947013556957245, 0.1298581063747406, 0.16828104853630066, 0.22772783041000366, 0.05869679152965546, -0.1760898232460022, -0.16736571490764618, -0.04965957999229431, -0.24013745784759521, 0.16630347073078156, 0.1669427454471588, -0.004461408127099276, 0.16028349101543427, 0.07503966987133026, 0.11588402092456818, 0.11409051716327667, 0.07183347642421722, 0.05037204548716545, 0.09624909609556198, -0.1430962234735489, -0.17677460610866547, 0.006337722763419151, 0.19208034873008728, 0.030291246250271797, -0.13795366883277893, 0.0756976306438446, -0.11922650784254074, -0.20749668776988983, 0.15908114612102509, -0.014122617430984974, 0.2364116758108139, 0.1183839961886406, 0.0740543007850647, 0.47070398926734924, -0.13976043462753296, -0.07837788760662079, 0.16669747233390808, 0.08286293596029282, 0.27701449394226074, -0.031925830990076065, 0.11344867944717407, 0.028273167088627815, 0.15469950437545776, 0.0280674546957016, 0.26543185114860535, 0.04784587770700455, 0.07650375366210938, 0.20302660763263702, 0.1895056515932083, 0.11747898161411285, -0.04177754372358322], [0.19797289371490479, 0.30931025743484497, 0.07598265260457993, 0.20201779901981354, -0.13987985253334045, 0.12343811988830566, 0.03253733739256859, 0.19315822422504425, -0.04346596077084541, 0.1661587506532669, -0.06897184997797012, -0.008444085717201233, 0.07134523242712021, -0.16932974755764008, 0.23790490627288818, 0.26582714915275574, 0.27531054615974426, -0.24688905477523804, -0.20858056843280792, -0.11649373173713684, -0.0409172922372818, -0.09847970306873322, 0.03427957743406296, 0.1196594089269638, 0.18263950943946838, -0.07492157816886902, 0.23624995350837708, 0.20761831104755402, 0.00617987522855401, 0.3327288031578064, -0.05805252864956856, 0.06946353614330292, -0.08487649261951447, -0.16088107228279114, 0.12289869040250778, 0.04006897285580635, -0.15262998640537262, 0.16235825419425964, 0.33092063665390015, -0.14214910566806793, 0.0381886288523674, 0.21814985573291779, 0.043218944221735, 0.12936913967132568, -0.1158735379576683, -0.023428434506058693, 0.7000360488891602, -0.07737398892641068, -0.09495620429515839, 0.14882101118564606, 0.16139762103557587, 0.1663508117198944, -0.1210998073220253, 0.07608965784311295, 0.06421495229005814, 0.23387973010540009, 0.08113237470388412, 0.21447913348674774, -0.032709889113903046, -0.09932590276002884, 0.3027592897415161, 0.1348528116941452, -0.11373625695705414, 0.09963031858205795], [0.056017037481069565, 0.13406482338905334, -0.05292484909296036, -0.035517580807209015, 0.1520761102437973, 0.061916936188936234, 0.2147999256849289, -0.2224573791027069, -0.14864608645439148, 0.18506847321987152, 0.07362885773181915, 0.02517145872116089, 0.0936734601855278, 0.10117729753255844, -0.1027156338095665, -0.041724178940057755, 0.10448216646909714, -0.2759162187576294, 0.18983663618564606, -0.05039108917117119, -0.10187031328678131, -0.12172982096672058, 0.055317457765340805, -0.008257473818957806, 0.03249739855527878, -0.09933178871870041, 0.09391960501670837, 0.18665573000907898, -0.11669915914535522, 0.1852899193763733, -0.016431720927357674, 0.03592582792043686, -0.24762369692325592, -0.12954196333885193, 0.08822032064199448, -0.1168602705001831, 0.042012769728899, -0.1315305233001709, 0.06899390369653702, 0.04331319406628609, 0.08811328560113907, 0.04986866936087608, -0.05364058539271355, 0.1879461109638214, 0.2052513062953949, 0.0794512927532196, -0.3820939064025879, -0.10484025627374649, 0.08649731427431107, 0.018222326412796974, 0.09653124213218689, -0.09228849411010742, 0.22825977206230164, -0.07343454658985138, -0.11707834154367447, -0.07499852031469345, 0.0622868686914444, -0.14694346487522125, -0.1383611559867859, 0.23112134635448456, 0.1079530343413353, 0.08188917487859726, 0.2264121174812317, 0.07615143805742264], [0.053775109350681305, -0.14455582201480865, 0.02096281386911869, 0.15379534661769867, -0.15684384107589722, 0.1311778724193573, -0.24077185988426208, 0.2560240626335144, 0.11292074620723724, -0.176353320479393, 0.06976839900016785, 0.12069420516490936, 0.18035653233528137, -0.06855999678373337, 0.03988491743803024, 0.20984956622123718, 0.08114869147539139, -0.043911952525377274, -0.2436787188053131, -0.08743850886821747, 0.15641187131404877, -0.06917350739240646, 0.18135671317577362, 0.1282680332660675, 0.24342523515224457, 0.018345769494771957, 0.05133911594748497, 0.12818856537342072, 0.0502653643488884, -0.04112203046679497, -0.051629599183797836, 0.15107445418834686, 0.11515533924102783, -0.20405185222625732, 0.040925659239292145, 0.18839789927005768, 0.027357501909136772, 0.03455915302038193, 0.24699631333351135, -0.024366166442632675, 0.13686370849609375, 0.09309346228837967, 0.07365851104259491, -0.08976557105779648, -0.06972868740558624, -0.12309828400611877, 0.44481420516967773, 0.2309282124042511, -0.2039269357919693, -0.053076934069395065, 0.29079800844192505, 0.1676485389471054, -0.12404987215995789, 0.11287296563386917, 0.2126193791627884, 0.24548646807670593, 0.0461466908454895, 0.12620289623737335, 0.2638264298439026, -0.26406434178352356, 0.09836271405220032, -0.005524738691747189, -0.1726367473602295, 0.009969276376068592], [-0.14840960502624512, -0.11200226843357086, 0.03497913479804993, -0.08991716802120209, 0.05340990424156189, 0.003927765414118767, -0.0062159085646271706, 0.06966598331928253, -0.14565438032150269, 0.09153689444065094, 0.005145368631929159, -0.08376370370388031, 0.0051856618374586105, -0.07442675530910492, -0.050173789262771606, -0.0264909490942955, -0.07436646521091461, 0.10930459201335907, 0.0676627829670906, -0.04803577437996864, -0.11084708571434021, -0.046690281480550766, -0.018780488520860672, 0.08355262875556946, -0.029869278892874718, 0.006472917273640633, 0.021197553724050522, -0.10881160199642181, -0.11103660613298416, -0.1515546441078186, -0.03721334785223007, -0.00031702552223578095, -0.04879922419786453, 0.09136992692947388, -0.06296200305223465, -0.08156587183475494, -0.0032027163542807102, -0.035201385617256165, -0.046820852905511856, 0.08015157282352448, -0.03289249166846275, 0.0798659473657608, -0.016376102343201637, -0.046502724289894104, 0.05364736542105675, -0.10692449659109116, 0.0041358619928359985, -0.013581464067101479, 0.02265421487390995, -0.14132282137870789, 0.006131961941719055, -0.0493101105093956, 0.04294140264391899, 0.029022200033068657, 0.00926185492426157, 0.03539619967341423, -0.06971507519483566, -0.03455759957432747, 0.05835031345486641, -0.1401420384645462, -0.12430333346128464, -0.027241121977567673, -0.08800796419382095, -0.03143133223056793], [-0.09992045164108276, -0.230976402759552, 0.11266881227493286, 0.01043257862329483, 0.16317859292030334, -0.19962142407894135, -0.15025661885738373, 0.23161625862121582, 0.25147125124931335, -0.21787412464618683, 0.30769625306129456, 0.07039059698581696, 0.2079196274280548, 0.2862131893634796, 0.10265745967626572, 0.03294986113905907, 0.021013326942920685, 0.5814095139503479, 0.14884065091609955, -0.10170441120862961, -0.011909225024282932, 0.19406485557556152, 0.1246507465839386, 0.10255181044340134, 0.16462400555610657, 0.247968390583992, -0.24217361211776733, -0.07097314298152924, 0.2450445294380188, -0.1597689837217331, -0.22128622233867645, 0.003713748184964061, 0.34156689047813416, 0.26386234164237976, 0.01692531257867813, 0.22492355108261108, 0.2156246304512024, -0.22142957150936127, -0.09582632780075073, 0.14355085790157318, -0.03288770467042923, 0.11771179735660553, 0.1037389487028122, -0.019005535170435905, 0.20323841273784637, 0.03314909711480141, -0.16474692523479462, 0.13177229464054108, 0.1514568030834198, -0.052120573818683624, -0.016609692946076393, 0.18053722381591797, 0.045968007296323776, -0.007106313481926918, 0.09123276174068451, 0.06440626084804535, -0.07079711556434631, 0.16504856944084167, -0.004013845697045326, 0.06343456357717514, 0.000606121844612062, 0.09945479780435562, 0.22295555472373962, 0.011969008482992649], [-0.0065520405769348145, 0.05845207720994949, 0.11370272934436798, 0.09653998166322708, 0.1135844886302948, -0.04972754046320915, -0.04266434907913208, -0.021318143233656883, 0.028994714841246605, 0.05059733986854553, -0.018702657893300056, -0.0807407796382904, -0.10186545550823212, 0.11260400712490082, -0.03360697627067566, -0.016896098852157593, -0.0841590017080307, -0.06196998059749603, 0.027454957365989685, 0.052648305892944336, -0.04941543936729431, -0.04600903391838074, 0.0914575383067131, -0.07185027003288269, -0.1008242592215538, -0.019501954317092896, 0.11894302070140839, 0.019656624644994736, 0.009678518399596214, -0.023139003664255142, 0.07811109721660614, -0.06951609253883362, 0.08475136756896973, 0.029530510306358337, 0.006339313928037882, 0.017208293080329895, -0.07709065079689026, 0.0928383469581604, 0.05820560082793236, -0.10534851998090744, -0.11638520658016205, -0.039712756872177124, 0.07549390196800232, -0.06154145300388336, 0.11585462093353271, -0.07040770351886749, -0.11291280388832092, 0.0474543496966362, -0.07554300129413605, -0.024800844490528107, -0.046574778854846954, -0.017494462430477142, -0.10892163217067719, -0.12217368185520172, 0.04617494344711304, -0.014164432883262634, -0.07540380954742432, -0.010747949592769146, -0.12163490802049637, 0.033180296421051025, 0.05181463062763214, 0.1136881485581398, -0.10183413326740265, -0.015157148241996765], [0.06783686578273773, 0.11455759406089783, -0.08893400430679321, 0.05312028527259827, 0.05160801112651825, 0.07535885274410248, -0.08617702126502991, 0.08920206129550934, -0.05444546043872833, -0.07694359123706818, 0.024819642305374146, 0.10589252412319183, -0.08277769386768341, 0.06673850119113922, -0.014315709471702576, 0.03990466892719269, 0.09750880300998688, 0.03394003212451935, -0.10376955568790436, -0.03763449192047119, 0.024809643626213074, -0.10544879734516144, 0.020781219005584717, -0.06712111830711365, -0.02484714984893799, 0.04471762478351593, -0.10060246288776398, -0.0802517980337143, 0.05701303482055664, -0.12363007664680481, 0.08602353930473328, -0.09638489782810211, -0.0020127296447753906, 0.025660470128059387, 0.049324050545692444, -0.07758346199989319, 0.01682160794734955, 0.05382341146469116, 0.10721369087696075, -0.09406867623329163, -0.06214649975299835, 0.036414533853530884, -0.004012838006019592, -0.08435338735580444, -0.10520634055137634, -0.11099116504192352, -0.08746851980686188, -0.05322107672691345, -0.08679993450641632, -0.10965588688850403, 0.009757369756698608, 0.07330703735351562, -0.05893586575984955, 0.012499719858169556, -0.0015409588813781738, 0.05842916667461395, -0.08668835461139679, 0.005934566259384155, 0.11667437851428986, 0.08923982083797455, -0.12388959527015686, -0.018817439675331116, 0.0011652112007141113, -0.04127451777458191], [-0.08962099999189377, -0.10065612941980362, 0.0830584168434143, -0.04805173724889755, -0.029477937147021294, 0.022503729909658432, -0.09788541495800018, 0.0032575069926679134, 0.07435156404972076, -0.07308602333068848, 0.014982855878770351, -0.004269510507583618, 0.048810649663209915, 0.06345809251070023, 0.03316320478916168, -0.014463412575423717, -0.12287702411413193, 0.041200190782547, 0.05634651333093643, -0.045403167605400085, -0.12411782145500183, 0.08089741319417953, -0.049319133162498474, 0.012888697907328606, -0.04368021339178085, 0.06065592169761658, 0.10402775555849075, 0.060666773468256, -0.05416613072156906, 0.07458484172821045, 0.039683181792497635, -0.006364497356116772, -0.10068508982658386, -0.07527171075344086, -0.14390040934085846, 0.08360420167446136, 0.10257353633642197, 0.06115400046110153, 0.028090186417102814, 0.029542669653892517, 0.09983064234256744, -0.07523728907108307, -0.06320066750049591, -0.11223480105400085, -0.03291643038392067, -0.013035997748374939, 0.034217506647109985, -0.096378855407238, -0.03519647195935249, -0.12304459512233734, -0.1016799658536911, -0.002562844892963767, -0.13373395800590515, 0.013125292956829071, -0.12435447424650192, -0.10094738006591797, -0.044057730585336685, -0.13485252857208252, 0.10095404088497162, 0.08111195266246796, -0.07462149858474731, 0.02618500590324402, 0.042033568024635315, 0.01907077431678772], [-0.165812686085701, -0.16545535624027252, 0.23825372755527496, -0.030958065763115883, -0.045095864683389664, -0.04458470270037651, -0.16223004460334778, 0.09714189171791077, -0.012695097364485264, 0.13683384656906128, 0.09100957959890366, 0.10897530615329742, 0.05292690545320511, -0.050854042172431946, 0.268852561712265, 0.04025207459926605, 0.06480778008699417, 0.4959056079387665, -0.08728540688753128, 0.10129696130752563, 0.07132763415575027, 0.021292531862854958, 0.13231950998306274, 0.1635739505290985, 0.19615457952022552, 0.1257694810628891, -0.04061533138155937, 0.162689208984375, 0.2825178802013397, -0.14541693031787872, -0.08227759599685669, 0.09435107558965683, 0.034878481179475784, -0.06657388061285019, 0.1383689045906067, 0.2328307330608368, 0.057949382811784744, -0.08024045079946518, 0.1688043475151062, -0.02703234553337097, -0.11056473851203918, 0.2273309975862503, 0.10336019098758698, 0.07306131720542908, -0.01947912387549877, 0.1536969244480133, 0.31068599224090576, 0.03916315361857414, -0.06625407189130783, 0.046086929738521576, -0.06117234751582146, 0.14612026512622833, 0.04520798847079277, 0.16225582361221313, 0.08879121392965317, 0.12650445103645325, -0.2124447077512741, 0.1585446298122406, -0.023381102830171585, 0.16597093641757965, -0.04640766605734825, 0.13580766320228577, -0.030077798292040825, -0.07650963217020035], [0.04659217596054077, -0.02923181653022766, 0.12134191393852234, 0.0003979206085205078, -0.06372876465320587, 0.03223322331905365, 0.0650079995393753, -0.00024834275245666504, 0.10693423449993134, -0.07911451160907745, 0.0533348023891449, 0.07097946107387543, 0.062086403369903564, -4.585087299346924e-05, 0.03568302094936371, -0.09806391596794128, -0.09809446334838867, -0.007769569754600525, -0.01566663384437561, 0.09281571209430695, 0.09076584875583649, 0.08475595712661743, -0.0572541207075119, -0.09812963008880615, -0.11724986135959625, 0.04523885250091553, -0.1126352846622467, -0.12478230893611908, -0.06317251920700073, -0.10553798079490662, -0.04926097393035889, -0.07869331538677216, -0.06412933766841888, 0.1188405454158783, -0.023555845022201538, 0.10369232296943665, 0.0027734339237213135, -0.01607421040534973, -0.03659777343273163, -0.08935339748859406, -0.10043099522590637, 0.08655272424221039, -0.03851994872093201, -0.12187245488166809, 0.11471620202064514, 0.0023186951875686646, -0.08364380896091461, -0.09825669229030609, -0.10497313737869263, -0.10960689187049866, 0.11311516165733337, 0.08618669211864471, 0.010223761200904846, -0.10653428733348846, -0.03269396722316742, -0.11742433905601501, 0.043077513575553894, -0.03318995237350464, -0.02674931287765503, -0.03900168836116791, 0.058606430888175964, 0.06766118109226227, 0.027382448315620422, -0.01565311849117279], [-0.15629097819328308, -0.11647847294807434, 0.05604181066155434, 0.1272086203098297, -0.0703684389591217, 0.0003109736426267773, -0.17155936360359192, 0.1062859296798706, 0.1950480043888092, 0.021890580654144287, 0.16170701384544373, -0.0956805944442749, 0.05991142615675926, -0.021308768540620804, 0.4377827048301697, 0.1994226574897766, 0.09661109745502472, 0.7136418223381042, -0.10082589834928513, 0.30073484778404236, -0.033623144030570984, 0.09907393902540207, 0.051440052688121796, 0.1802821010351181, 0.2272363305091858, 0.15923134982585907, -0.0637722834944725, 0.12304425239562988, 0.10741566121578217, 0.044180113822221756, -0.15305066108703613, 0.1417972445487976, 0.20206598937511444, 0.1390928328037262, 0.023951740935444832, 0.1905483901500702, 0.1286381483078003, -0.07890743017196655, 0.15829791128635406, 0.09010250121355057, -0.15198178589344025, -0.012149461545050144, 0.05860805884003639, 0.1478509157896042, -0.12164732813835144, 0.1797061413526535, 0.45117369294166565, 0.08314211666584015, 0.017468731850385666, -0.08717161417007446, -0.02583885006606579, 0.05335681140422821, 0.05698251724243164, 0.26242220401763916, 0.17879946529865265, -0.0828680470585823, -0.06818457692861557, 0.3970760703086853, 0.03902207687497139, 0.09170050919055939, 0.0498054176568985, 0.25733640789985657, 0.089528888463974, 0.008125594817101955], [-0.11218908429145813, -0.09060852229595184, 0.003888338804244995, -0.0193316787481308, -0.06284748017787933, 0.06543132662773132, -0.011190712451934814, 0.043961018323898315, 0.10528329014778137, -0.05746836960315704, -0.06152153015136719, -0.025118395686149597, -0.010585129261016846, -0.06252032518386841, -0.030010521411895752, -0.0036029964685440063, 0.05607013404369354, 0.11564536392688751, 0.09256359934806824, 0.0132293701171875, -0.00787709653377533, 0.03201909363269806, -0.00510270893573761, -0.01640459895133972, 0.042983800172805786, -0.10170002281665802, -0.1063045859336853, 0.0005063265562057495, -0.03788726031780243, -0.06182767450809479, -0.11636784672737122, 0.0837324857711792, -0.004980489611625671, -0.06715939939022064, -0.050918012857437134, 0.032862886786460876, -0.09065435826778412, 0.00802825391292572, -0.0015414804220199585, 0.04258283972740173, 0.04958696663379669, -0.08167241513729095, 0.05397385358810425, 0.09438975155353546, 0.008047431707382202, 0.06368179619312286, -0.04732343554496765, 0.024828657507896423, 0.036524802446365356, -0.05773527920246124, 0.07717718183994293, -0.11818715929985046, -0.04695451259613037, -0.07354846596717834, -0.07420463860034943, -0.07574392855167389, -0.11778634786605835, 0.021452099084854126, -0.024727091193199158, -0.10525134205818176, -5.1409006118774414e-05, -0.020822674036026, 0.05156582593917847, -0.09791076183319092], [0.14323006570339203, 0.057846542447805405, -0.096429243683815, 0.10406223684549332, -0.003450098680332303, 0.2882917821407318, -0.160251185297966, 0.3329582214355469, 0.17493541538715363, -0.13565637171268463, -0.09420566260814667, 0.07080617547035217, 0.07252851873636246, -0.006226744968444109, -0.1176653727889061, 0.37086549401283264, -0.16125626862049103, -0.3238634765148163, 0.007652517408132553, -0.03021751530468464, 0.09706652164459229, 0.27280908823013306, -0.03900955617427826, 0.11673902720212936, 0.07693848013877869, 0.10700954496860504, 0.21224182844161987, -0.2279776781797409, -0.05929986387491226, 0.04199763387441635, 0.018677448853850365, -0.016660302877426147, 0.2518891394138336, -0.3431052267551422, 0.09259849786758423, 0.19477815926074982, -0.0008956529782153666, 0.3667313754558563, 0.16066113114356995, -0.014224008657038212, 0.33927053213119507, -0.20602700114250183, 0.13304099440574646, -0.277121901512146, 0.056455232203006744, -0.35506027936935425, -0.2829188406467438, 0.3748195469379425, -0.021537626162171364, 0.05913358926773071, 0.1780901998281479, -0.06624570488929749, -0.0936422049999237, 0.12428613752126694, 0.14443820714950562, 0.17510057985782623, 0.3404025137424469, -0.0826282873749733, 0.25967860221862793, -0.1629340797662735, 0.07206352055072784, -0.08176754415035248, -0.17502760887145996, 0.1626502275466919], [-0.026358896866440773, 0.2635207176208496, 0.2017328292131424, 0.283548504114151, 0.07523254305124283, 0.17696204781532288, 0.08607643097639084, 0.030073611065745354, -0.09777162224054337, 0.006390511058270931, 0.20247437059879303, 0.08413198590278625, 0.16953466832637787, -0.2435813993215561, 0.23627392947673798, -0.08966232091188431, 0.40278390049934387, -0.32867398858070374, 0.032279931008815765, -0.16856543719768524, 0.11948934197425842, -0.17994612455368042, 0.3343815207481384, 0.09626069664955139, 0.07961293309926987, 0.016171639785170555, 0.033908214420080185, 0.3863774240016937, 0.035586290061473846, 0.2549033761024475, 0.0942036509513855, 0.14660276472568512, -0.17669005692005157, -0.10712350904941559, 0.13263745605945587, 0.11792843043804169, 0.04237252101302147, -0.15616579353809357, 0.06116412952542305, -0.37538281083106995, -0.3464066982269287, 0.35569649934768677, -0.017681464552879333, 0.47162386775016785, 0.050360649824142456, 0.3768433928489685, 0.27921661734580994, -0.3187640607357025, -0.12598811089992523, 0.157712921500206, 0.19600990414619446, 0.07978994399309158, 0.26720553636550903, 4.883597284788266e-05, -0.2296813428401947, -0.034670550376176834, -0.11091943830251694, 0.019881105050444603, -0.14675234258174896, 0.24468515813350677, 0.16224344074726105, -0.013774262741208076, 0.12600652873516083, -0.005685902666300535], [0.030580928549170494, 0.154377281665802, 0.21269842982292175, 0.20074708759784698, -0.02845304273068905, 0.14789995551109314, -0.1354878842830658, 0.22474651038646698, 0.0722203329205513, 0.0748148113489151, 0.14954647421836853, 0.12465053796768188, 0.17075984179973602, -0.22481513023376465, 0.20628654956817627, 0.011912532150745392, 0.26503482460975647, -0.22752569615840912, 0.01988176815211773, -0.15233191847801208, 0.052766572684049606, -0.30964305996894836, 0.22371548414230347, 0.09503965079784393, 0.15859439969062805, 0.00832758005708456, -0.17124482989311218, 0.2596827447414398, 0.02650628052651882, 0.026832005009055138, 0.04871269315481186, 0.0768432766199112, -0.3082970976829529, -0.17219650745391846, 0.08776380866765976, 0.027112923562526703, -0.03926337510347366, -0.24329733848571777, 0.1772228181362152, -0.2466370165348053, -0.30574220418930054, 0.1578707993030548, 0.04890061542391777, 0.4885922372341156, -0.045378923416137695, 0.2690296769142151, 0.424572616815567, -0.19414034485816956, -0.18708257377147675, 0.20344533026218414, 0.10153931379318237, 0.1742854118347168, 0.1602982133626938, 0.00389962550252676, -0.007800478488206863, 0.07174088060855865, -0.21110375225543976, 0.15171727538108826, 0.07332774996757507, 0.0240459106862545, 0.117485910654068, 0.14266283810138702, 0.11966471374034882, -0.03649023175239563], [0.10075514018535614, 0.13614507019519806, -0.11868216097354889, -0.20119190216064453, 0.2145271897315979, -0.04393551126122475, 0.1612672507762909, -0.24968068301677704, 0.027190720662474632, 0.08157046884298325, 0.11238311976194382, 0.09080447256565094, -0.018939055502414703, 0.36736243963241577, 0.01213349774479866, -0.1284356266260147, -0.06854542344808578, 0.17253845930099487, 0.18616452813148499, 0.15172533690929413, -0.03461756184697151, 0.10778038203716278, -0.1279168426990509, -0.09160201251506805, -0.044153038412332535, -0.054191697388887405, -0.028143374249339104, 0.15301918983459473, -0.05866056680679321, 0.012205923907458782, 0.12360268831253052, -0.038104571402072906, 0.0900692492723465, 0.09954243898391724, -0.015511669218540192, -0.007323539815843105, 0.048077795654535294, 0.10334237664937973, -0.18447470664978027, 0.10385403782129288, 0.05329612269997597, -0.09706509858369827, 0.10377977788448334, 0.08258520811796188, 0.11854108422994614, 0.05396554246544838, -0.3931713104248047, 0.007300496567040682, 0.33286091685295105, -0.021092869341373444, -0.23695680499076843, -0.1923324167728424, 0.1830458790063858, -0.0672900602221489, 0.10756991803646088, -0.121584452688694, 0.15095272660255432, 0.04916926100850105, -0.03009851835668087, 0.14094573259353638, 0.04454917088150978, -0.04805806279182434, 0.14023162424564362, 0.19254864752292633], [0.1669192910194397, 0.21170692145824432, -0.11587142944335938, -0.15094877779483795, 0.08431828767061234, 0.2573193907737732, 0.28429290652275085, -0.19407393038272858, -0.081273153424263, -0.013904199935495853, -0.052602916955947876, 0.12153683602809906, -0.13154205679893494, 0.11980126798152924, 0.20354795455932617, -0.02877209149301052, -0.004168405197560787, 0.062410272657871246, 0.1779605597257614, 0.16126669943332672, 0.002947106258943677, 0.17125694453716278, -0.15924590826034546, -0.2317783534526825, -0.0418827049434185, -0.12284853309392929, 0.13324378430843353, 0.10348837077617645, 0.055056046694517136, 0.23457416892051697, 0.18938684463500977, -0.06913436204195023, -0.07189127057790756, 0.2734220325946808, 0.062321893870830536, -0.14208219945430756, -0.007491807918995619, 0.13543206453323364, 0.08864566683769226, 0.025483151897788048, 0.15042108297348022, -0.04715424403548241, 0.06573925167322159, 0.1270807385444641, 0.06999748200178146, 0.17436668276786804, -0.2042599767446518, 0.02781432680785656, 0.25705376267433167, 0.30535003542900085, -0.21106946468353271, -0.15380416810512543, 0.1870349794626236, 0.12411533296108246, -0.03760959580540657, -0.35216623544692993, 0.2506085932254791, 0.32422685623168945, -0.022580644115805626, 0.27964136004447937, 0.020495207980275154, 0.04655073955655098, 0.161329448223114, 0.11808725446462631], [0.14686669409275055, 0.11223413050174713, -0.1770821064710617, -0.24489586055278778, -0.019961532205343246, 0.13321177661418915, 0.11010099947452545, -0.27794963121414185, -0.04618482291698456, 0.17784005403518677, 0.05949153006076813, 0.10520046949386597, -0.12468920648097992, 0.08235082775354385, 0.13414554297924042, 0.06673537939786911, 0.10018587857484818, 0.17953680455684662, 0.1667456030845642, 0.318342387676239, -0.14137159287929535, 0.25029391050338745, 0.012642964720726013, -0.14411795139312744, -0.23912468552589417, -0.1539061963558197, 0.28266680240631104, 0.03794967010617256, 0.18477074801921844, 0.2594816982746124, 0.18027937412261963, 0.01752452179789543, 0.23452946543693542, 0.1403094232082367, 0.16212746500968933, -0.1410643607378006, -0.03901303559541702, 0.4222307801246643, 0.242263063788414, 0.059015750885009766, 0.13292047381401062, -0.16275380551815033, 0.07011795789003372, 0.2784573435783386, -0.0004164713900536299, -0.10725308954715729, 0.04255330190062523, 0.1837262064218521, 0.2027849406003952, 0.23200348019599915, -0.1133919432759285, -0.17371323704719543, 0.06866258382797241, 0.05650876834988594, 0.04224960878491402, -0.09149549901485443, 0.16058677434921265, 0.23584912717342377, -0.0935387909412384, 0.08420266956090927, 0.20810635387897491, -0.032655272632837296, -0.06667539477348328, 0.1318146288394928], [0.36369192600250244, 0.2984282374382019, -0.29843172430992126, -0.03515030816197395, -0.006450806278735399, 0.2553757429122925, 0.12483210861682892, -0.07372885197401047, -0.08754406869411469, -0.0021213251166045666, -0.23546338081359863, -0.09695358574390411, 0.025925489142537117, -0.15757976472377777, -0.051479771733284, 0.12672542035579681, 0.17365214228630066, -0.4117727279663086, -0.028315138071775436, 0.10487063974142075, -0.1572369784116745, -0.050392359495162964, -0.0036127425264567137, -0.17286960780620575, -0.1429612636566162, -0.13189789652824402, 0.33864203095436096, 0.1975668966770172, -0.010757670737802982, 0.299730122089386, 0.3308355510234833, 0.1480974555015564, -0.2003633826971054, -0.18912769854068756, 0.003976264037191868, -0.011627919040620327, -0.1716776043176651, 0.26430997252464294, 0.13492177426815033, -0.21926042437553406, 0.12323790788650513, 0.08844956010580063, -0.1317303627729416, 0.11453983187675476, 0.044742655009031296, 0.1392100602388382, 0.2212272435426712, 0.09589292109012604, -0.07431639730930328, 0.32258665561676025, 0.12835663557052612, -0.12777192890644073, 0.07139080762863159, 0.11179079860448837, -0.012170957401394844, -0.0033745155669748783, 0.2930302619934082, -0.10583316534757614, 0.06031161546707153, 0.18564796447753906, 0.21136356890201569, -0.05827326700091362, -0.010347578674554825, 0.14696472883224487], [-0.10064851492643356, -0.09885892271995544, 0.04806810989975929, 0.08557251840829849, -0.0033374372869729996, -0.13896723091602325, -0.13123740255832672, -0.04102116823196411, 0.05735825002193451, -0.08329939842224121, 0.023524675518274307, -0.06832125782966614, 0.09193594753742218, -0.04269137606024742, -0.036176908761262894, -0.11906929314136505, -0.12204999476671219, 0.008448094129562378, 0.010493570938706398, 0.057425111532211304, -0.10930363833904266, 0.011904153041541576, -0.028544824570417404, 0.06315018236637115, -0.06795097142457962, 0.027079161256551743, 0.0503711998462677, 0.05229560285806656, -0.05293727293610573, 0.03085363283753395, -0.03315320611000061, 0.021383967250585556, -0.0768628865480423, -0.09932616353034973, -0.11283642798662186, -0.0785783976316452, -0.06820487976074219, 0.008642728440463543, -0.037505630403757095, -0.0795646458864212, 0.0010500699281692505, -0.04965461045503616, 0.06613817065954208, -0.10295067727565765, -0.04613858461380005, -0.09038885682821274, 0.015423864126205444, -0.010853399522602558, -0.0071907490491867065, 0.11386769264936447, -0.06111415475606918, -0.02758614532649517, 0.032294660806655884, 0.08692378550767899, 0.08329421281814575, 0.005245582666248083, -0.04729083180427551, 0.03214985877275467, 0.06870929151773453, -0.012805032543838024, 0.058704815804958344, 0.09230200201272964, -0.0669710636138916, -0.027634531259536743], [-0.3079586923122406, -0.15427197515964508, 0.31764423847198486, -0.009256863966584206, 0.14566659927368164, -0.11614964157342911, 0.06903530657291412, 0.18543727695941925, 0.264608234167099, -0.23355959355831146, 0.12973327934741974, -0.1238456666469574, 0.0668557807803154, 0.3588615655899048, -0.005234998185187578, 0.049245089292526245, -0.11393308639526367, 0.5769253969192505, 0.3196165859699249, 0.1405835598707199, 0.02227640524506569, 0.27478906512260437, 0.00961754098534584, 0.2021549493074417, 0.3583436906337738, 0.09739816188812256, -0.28827229142189026, 0.04036948084831238, 0.0344318151473999, -0.2770674228668213, -0.02073405310511589, -0.0853654146194458, 0.2992182672023773, 0.23261839151382446, 0.05149687081575394, 0.2475682944059372, 0.26990315318107605, -0.19204957783222198, -0.19401085376739502, 0.4496123194694519, 0.01683107763528824, 0.1397697925567627, 0.21443723142147064, -0.11544901877641678, 0.31920909881591797, 0.034995950758457184, -0.4425376355648041, 0.09606396406888962, 0.3492490351200104, 0.024357782676815987, -0.023985210806131363, 0.015166688710451126, 0.10747704654932022, 0.08051402866840363, 0.2677502930164337, -0.08437786996364594, -0.16845785081386566, 0.2563021779060364, 0.05770125985145569, 0.03431286662817001, -0.14701411128044128, 0.16280518472194672, 0.27094072103500366, 0.07431395351886749], [-0.07241234183311462, -0.04797373712062836, -0.05558496713638306, -0.06053243577480316, -0.10528416931629181, 0.025587454438209534, -0.03635217249393463, -0.12031325697898865, -0.07298965752124786, -0.07506825029850006, -0.05392034351825714, -0.07723802328109741, -0.021677404642105103, 0.04479534924030304, -0.10116423666477203, -0.010708078742027283, -0.03597371280193329, -0.06390728056430817, -0.027756035327911377, -0.05297890305519104, 0.004018470644950867, -0.09023125469684601, 0.023704856634140015, 0.11476653814315796, 0.10357639193534851, -0.056044891476631165, 0.03852853178977966, -0.11815051734447479, 0.10524292290210724, -0.12457059323787689, -0.11170327663421631, -0.11220364272594452, -0.11608174443244934, 0.01692873239517212, -0.033054083585739136, 0.029918432235717773, -0.0077342689037323, -0.002685144543647766, -0.04516017436981201, -0.0741618424654007, -0.10465694963932037, 0.06307296454906464, -0.06444992125034332, -0.0254223495721817, 0.06071184575557709, -0.030957728624343872, -0.03151683509349823, -0.08333069086074829, -0.1069500744342804, 0.0599958598613739, -0.02820226550102234, 0.07860061526298523, 0.008227065205574036, -0.00015877187252044678, -0.1128501296043396, 0.0027597546577453613, -0.028249591588974, -0.07132929563522339, -0.028929725289344788, 0.006534844636917114, -0.09418529272079468, 0.02078545093536377, 0.08697687089443207, 0.024693399667739868], [0.3410743772983551, 0.297617107629776, -0.27067506313323975, -0.03485769033432007, 0.06431450694799423, 0.2570350468158722, 0.14925424754619598, -0.01364304218441248, 0.0033608614467084408, 0.027632474899291992, -0.1382720172405243, -0.10399514436721802, 0.015072737820446491, -0.03689984977245331, 0.0563184879720211, -0.03701223433017731, 0.08031489700078964, -0.3737451732158661, -0.041346997022628784, -0.051740095019340515, -0.14476731419563293, 0.19380612671375275, -0.060254473239183426, -0.14343811571598053, -0.2708079218864441, 0.010082761757075787, 0.21897916495800018, 0.10522986203432083, 0.0475463792681694, 0.29470548033714294, 0.26947543025016785, 0.07222295552492142, -0.033437345176935196, -0.07124332338571548, 0.03510892763733864, -0.13811640441417694, -0.008844058960676193, 0.1971791386604309, 0.11587800830602646, -0.21497158706188202, 0.12218675017356873, -0.1298631727695465, -0.1003822609782219, 0.27590426802635193, -0.0033610861282795668, 0.13439776003360748, 0.1476791948080063, -0.10461965948343277, -0.04670608788728714, 0.0973273515701294, -0.01842324249446392, -0.0045010740868747234, 0.10687077045440674, 0.21838438510894775, -0.15619619190692902, -0.10357756167650223, 0.3125258684158325, 0.0007584699196740985, 0.11275039613246918, 0.13023309409618378, 0.06047242879867554, 0.12299486249685287, -0.07754287123680115, 0.1341371387243271], [-0.29412445425987244, -0.2998388111591339, 0.2739383578300476, -0.12570731341838837, 0.17144675552845, -0.16251550614833832, 0.10373363643884659, 0.14374831318855286, 0.3399755358695984, -0.11236253380775452, 0.2623804211616516, -0.05085538327693939, -0.022211531177163124, 0.3059493899345398, -0.011594496667385101, -0.07815065234899521, -0.2422361522912979, 0.5549063682556152, 0.11913365125656128, 0.10428696870803833, 0.10857481509447098, 0.29119396209716797, 0.16131779551506042, 0.23678168654441833, 0.20296601951122284, 0.19836391508579254, -0.17732976377010345, -0.11976569145917892, 0.10986296087503433, -0.23708055913448334, -0.10132738202810287, 0.011937065050005913, 0.18918247520923615, 0.37875592708587646, 0.19456852972507477, 0.29899245500564575, 0.2287549376487732, -0.13451743125915527, -0.11338794976472855, 0.22684673964977264, 0.2293218970298767, -0.060506198555231094, 0.17447125911712646, -0.10951821506023407, 0.12395473569631577, 0.08553587645292282, -0.2954254448413849, 0.28658345341682434, 0.3540675938129425, -0.0772709771990776, -0.021964900195598602, 0.009639788419008255, 0.07824219018220901, 0.04388730227947235, 0.21431778371334076, -0.07043997198343277, -0.043463997542858124, 0.23243820667266846, 0.14571841061115265, 0.22768090665340424, 0.07886906713247299, 0.09347537904977798, 0.26543137431144714, 0.04619600623846054], [-0.12298694998025894, 0.013297561556100845, 0.18105095624923706, -0.12529516220092773, 0.1079840362071991, -0.055777713656425476, -0.14209306240081787, 0.0016480842605233192, 0.2897815704345703, 0.12997221946716309, 0.1908484846353531, 0.08215351402759552, -0.03488408774137497, 0.05488704890012741, 0.33829009532928467, 0.15372666716575623, 0.005519470199942589, 0.8765506148338318, 0.027222678065299988, 0.3981081545352936, -0.07706274837255478, 0.11346055567264557, 0.1748700737953186, 0.07059815526008606, 0.16178196668624878, 0.1276029795408249, -0.08925040811300278, 0.037382274866104126, 0.3023624122142792, 0.024193277582526207, 0.01355903223156929, 0.07473289221525192, 0.2944992780685425, 0.17330385744571686, 0.09222078323364258, 0.04338119551539421, 0.2947336435317993, 0.042146120220422745, 0.16358941793441772, 0.17925503849983215, 0.0294172465801239, 0.13131462037563324, 0.13358724117279053, 0.00983939878642559, -0.014293638058006763, 0.10070262849330902, 0.25580039620399475, 0.2758486568927765, 0.13477376103401184, -0.04051027446985245, -0.18600963056087494, -0.07645392417907715, 0.12099055200815201, 0.18342599272727966, 0.08964691311120987, -0.20642226934432983, 0.0808410719037056, 0.43378061056137085, 0.11082526296377182, 0.18608923256397247, 0.026294436305761337, 0.27141499519348145, 0.08744104951620102, 0.20450817048549652], [0.21490895748138428, -0.10234975069761276, -0.09759274125099182, 0.16025525331497192, -0.08084460347890854, 0.24513114988803864, -0.19976092875003815, 0.19445344805717468, 0.28830626606941223, 0.01633313298225403, -0.03149469569325447, -0.07461827993392944, -0.019849570468068123, -0.16167114675045013, -0.1750023365020752, 0.3347094655036926, -0.14052213728427887, -0.23493905365467072, 0.0552329383790493, -0.022810647264122963, -0.06226421892642975, 0.18359795212745667, -0.09054755419492722, 0.0638500303030014, 0.08190839737653732, 0.1889876425266266, 0.2747076451778412, -0.1634701043367386, 0.008988052606582642, 0.08338800072669983, 0.07731729000806808, 0.113437719643116, 0.1426599770784378, -0.2317182421684265, 0.08181490749120712, 0.0087692029774189, 0.16237758100032806, 0.16409149765968323, 0.3076184391975403, -0.02592107094824314, 0.24339132010936737, -0.07813245058059692, 0.013749766163527966, -0.18529336154460907, 0.10550176352262497, -0.2443038821220398, -0.19457727670669556, 0.2555065155029297, -0.1688971370458603, 0.09602735936641693, 0.24993467330932617, 0.09925202280282974, -0.12395860254764557, 0.057422883808612823, 0.19265107810497284, 0.2873431146144867, 0.34322747588157654, -0.27470675110816956, 0.1431751251220703, -0.18632471561431885, 0.04167848080396652, -0.18998141586780548, -0.09873653203248978, 0.1316421926021576], [-0.23378707468509674, 0.04725279659032822, 0.15754441916942596, 0.23278799653053284, -0.003582136705517769, 0.06580183655023575, -0.048330314457416534, 0.3334610164165497, -0.0608183927834034, -0.014749575406312943, 0.14288587868213654, -0.08704701066017151, 0.3069019615650177, -0.054452404379844666, 0.12225784361362457, 0.04806548357009888, 0.2781980335712433, -0.16223402321338654, -0.04359195753931999, -0.28009191155433655, 0.12565405666828156, -0.1365673989057541, 0.047497063875198364, 0.2868092656135559, 0.10575556010007858, 0.18789519369602203, -0.22791975736618042, 0.10566212981939316, -0.013546002097427845, 0.08893867582082748, -0.09688430279493332, 0.22778849303722382, -0.11282940953969955, -0.08928488940000534, 0.04985123872756958, 0.07532088458538055, 0.024183690547943115, -0.40457263588905334, 0.1463685780763626, -0.1184578388929367, -0.21992866694927216, 0.10396287590265274, 0.09986885637044907, 0.031184304505586624, 0.1265796720981598, 0.24750779569149017, 0.04753485694527626, -0.0788125991821289, -0.2619514763355255, -0.03995702415704727, 0.14006388187408447, 0.284326434135437, -0.0757107213139534, 0.08306609094142914, 0.07565407454967499, 0.336257666349411, -0.2277744710445404, 0.03028194233775139, -0.03472770005464554, 0.03215090557932854, 0.10758164525032043, 0.0964328795671463, 0.06878899782896042, -0.15369410812854767], [-0.16606372594833374, -0.08397766947746277, 0.0838313102722168, 0.21934989094734192, -0.008312593214213848, 0.046851713210344315, -0.16207711398601532, 0.27539700269699097, 0.05167253315448761, 0.16667766869068146, 0.08852528780698776, 0.019505739212036133, 0.14179009199142456, -0.19062496721744537, 0.3124118745326996, 0.14097420871257782, 0.16804978251457214, 0.20676189661026, -0.07731056213378906, 0.07970517873764038, 0.12302935868501663, -0.13422302901744843, 0.003026203252375126, 0.13154028356075287, 0.13132157921791077, 0.19230911135673523, 0.037625230848789215, 0.14588341116905212, 0.2457808256149292, 0.00898046139627695, 0.0167018324136734, 0.17386211454868317, 0.11033429205417633, 0.0030141491442918777, -0.03614601492881775, 0.17113624513149261, 0.23588965833187103, -0.13154730200767517, 0.12645366787910461, -0.25194090604782104, -0.13102947175502777, 0.15700644254684448, 0.15042255818843842, 0.08973279595375061, -0.181787371635437, 0.1813122034072876, 0.5319995284080505, -0.009515526704490185, -0.05028942972421646, 0.14851869642734528, 0.07505969703197479, 0.13633587956428528, -0.005438391584903002, 0.1150548905134201, 0.04911719635128975, 0.054392121732234955, -0.11591559648513794, 0.26805880665779114, -0.003939589951187372, -0.044288452714681625, 0.21062621474266052, 0.1352289766073227, 0.11962354183197021, 0.06146237999200821], [-0.017608776688575745, 0.018645495176315308, 0.11589239537715912, -0.08600439131259918, -0.03747841715812683, 0.017787322402000427, -0.008480384945869446, 0.03327977657318115, 0.06572848558425903, -0.05142731964588165, 0.009733110666275024, 0.11308929324150085, -0.07073163986206055, -0.08476588129997253, -0.09586271643638611, 0.07471984624862671, -0.11465398967266083, -0.0607876181602478, 0.08442428708076477, -0.07493509352207184, 0.10165181756019592, -0.058433011174201965, 0.019775018095970154, 0.016362711787223816, -0.0030660480260849, 0.07785554230213165, 0.10616523027420044, -0.07804529368877411, 0.07010416686534882, 0.03339836001396179, -0.002329319715499878, -0.08740098774433136, 0.03707978129386902, 0.09072968363761902, -0.10729239881038666, -0.11544425785541534, -0.12288549542427063, 0.028882652521133423, -0.03591683506965637, -0.038828447461128235, 0.11639480292797089, -0.031883180141448975, -0.07938092947006226, 0.01124390959739685, -0.06860767304897308, -0.03662429749965668, 0.0660286396741867, 0.028849229216575623, -0.08577758073806763, 0.11900478601455688, 0.08457033336162567, -0.08521060645580292, 0.054447829723358154, 0.051364898681640625, -0.08969387412071228, -0.08784918487071991, -0.10350301861763, 0.05568122863769531, 0.021778106689453125, 0.05282735824584961, -0.05490320920944214, 0.09399048984050751, 0.01596112549304962, -0.0997409075498581], [-0.2366211861371994, 0.11700236797332764, 0.2376932054758072, 0.08012835681438446, 0.02030019834637642, -0.13270516693592072, 0.23452900350093842, -0.09652187675237656, 0.16528503596782684, 0.06382691115140915, 0.18871772289276123, -0.12172374129295349, 0.014353147707879543, 0.2964330017566681, 0.24220095574855804, -0.11053723096847534, 0.1331755667924881, 0.582572877407074, 0.04150492325425148, 0.10384729504585266, -0.11833219975233078, -0.160293847322464, 0.21765801310539246, -0.02032599039375782, 0.21644359827041626, 0.07439972460269928, -0.026317356154322624, 0.34720855951309204, 0.26722994446754456, -0.0416831411421299, 0.01906168833374977, 0.2303747683763504, 0.07653944939374924, 0.22312432527542114, 0.23919875919818878, -0.042124029248952866, 0.18623681366443634, -0.1028750017285347, -0.16326557099819183, -0.02628420852124691, -0.10177815705537796, 0.37590491771698, 0.14336815476417542, 0.47887489199638367, 0.1424255669116974, 0.30504876375198364, -0.0005435226485133171, 0.00199515325948596, 0.3041496276855469, 0.1373787820339203, 0.030387885868549347, -0.056931380182504654, 0.18027853965759277, 0.107826367020607, 0.07362863421440125, -0.28997382521629333, -0.07001617550849915, 0.39888834953308105, -0.17183782160282135, 0.2689093351364136, -0.03338546305894852, 0.08188611268997192, 0.2137150764465332, -0.018685605376958847], [-0.24021084606647491, -0.22111313045024872, 0.2612761855125427, 0.14123399555683136, 0.02467004954814911, 0.04145776107907295, -0.13080324232578278, 0.1391584724187851, 0.04194054752588272, -0.08051976561546326, 0.07038616389036179, 0.009115740656852722, 0.1953217089176178, -0.16143707931041718, 0.1548403948545456, 0.14945165812969208, 0.011267622001469135, 0.014971811324357986, -0.008418383076786995, -0.2638997435569763, 0.12336690723896027, -0.1023985892534256, 0.20446713268756866, 0.08069968968629837, 0.10613629221916199, 0.14056216180324554, -0.24139609932899475, 0.14647012948989868, 0.040783096104860306, -0.046790432184934616, -0.05436963960528374, 0.19248312711715698, -0.026951566338539124, -0.028020981699228287, 0.003168438794091344, 0.013273203745484352, 0.11948768049478531, -0.3261057138442993, -0.016110118478536606, 0.013640550896525383, 0.0310941431671381, 0.09612797945737839, 0.11468025296926498, -0.11337792873382568, 0.12293385714292526, 0.1141558587551117, 0.25666940212249756, 0.1715240329504013, -0.2753332555294037, -0.040262073278427124, 0.15459281206130981, 0.28529518842697144, -0.050072215497493744, 0.21400897204875946, 0.2556937634944916, 0.24208298325538635, -0.2214638590812683, -0.09036771953105927, 0.14076147973537445, -0.06617911905050278, 0.13316340744495392, 0.13621897995471954, 0.1353469043970108, -0.21526969969272614], [0.07267414778470993, -0.031481776386499405, -0.07066960632801056, 0.05270828306674957, -0.007676681037992239, -0.07386992871761322, 0.010983866639435291, -0.10073297470808029, 0.11617675423622131, 0.10956215858459473, 0.039419181644916534, 0.06612846255302429, -0.14250127971172333, -0.06948593258857727, -0.13634978234767914, -0.06515073776245117, -0.12189931422472, 0.09200893342494965, 0.04917926713824272, 0.055397745221853256, -0.055491864681243896, 0.09527339041233063, -0.03629595413804054, -0.03238607943058014, 0.06730405986309052, 0.0827789306640625, -0.10797940194606781, 0.10073339194059372, -0.030848544090986252, 0.015019482932984829, -0.1427350491285324, -0.004338053986430168, -0.06186452507972717, -0.07826758921146393, -0.07045476138591766, -0.0005822628736495972, -0.03561015427112579, -0.09759654849767685, 0.07129573076963425, 0.037187397480010986, -0.11633056402206421, 0.007981205359101295, 0.030706137418746948, 0.004593193531036377, 0.012169322930276394, -0.028731228783726692, 0.05466783046722412, -0.10619896650314331, -0.05329771339893341, 0.07538056373596191, -0.07744257152080536, 0.043155036866664886, 0.09742385149002075, -0.13234040141105652, -0.0729198083281517, 0.08879856020212173, -0.025698257610201836, 0.006702673155814409, -0.0004554931656457484, 0.033240411430597305, -0.0697735995054245, -0.001990166725590825, 0.0669219046831131, -0.02875489555299282], [-0.11468201875686646, 0.04320691525936127, -0.03191074728965759, -0.0263710618019104, 0.06519190967082977, 0.021906688809394836, -0.07561901211738586, -0.0576837956905365, -0.019001200795173645, -0.030883148312568665, -0.026462465524673462, -0.08543862402439117, 0.09055328369140625, 0.06482772529125214, 0.024668246507644653, 0.028302669525146484, 0.014633521437644958, 0.09346675872802734, 0.028285130858421326, 0.019041508436203003, -0.06871387362480164, 0.04169893264770508, -0.11694332957267761, 0.03942355513572693, -0.10834866762161255, -0.051733970642089844, 0.0659923255443573, -0.0744515061378479, 0.09953415393829346, -0.06906504929065704, 0.11839886009693146, 0.0385265052318573, -0.054169267416000366, 0.0762348622083664, -0.11069908738136292, -0.079186350107193, -0.07831373810768127, 0.016454994678497314, 0.012280374765396118, -0.10751339793205261, 0.12062008678913116, -0.00011946260929107666, -0.06674958765506744, 0.0029857754707336426, -0.05365666747093201, 0.03448650240898132, 0.045251160860061646, -0.03545764088630676, 0.007287263870239258, 0.07437600195407867, -0.0813039094209671, -0.027873501181602478, -0.018440574407577515, -0.08270160853862762, 0.01018090546131134, 0.004594072699546814, -0.10096608102321625, 0.025642111897468567, 0.11930830776691437, 0.06648671627044678, -0.06780475378036499, 0.1144208312034607, -0.08592425286769867, -0.06355571746826172], [0.0310650747269392, 0.0766194686293602, 0.08238080888986588, 0.0968431904911995, -0.10048878937959671, 0.006044727750122547, -0.11573005467653275, -0.006863115355372429, 0.0770081952214241, 0.06154896318912506, -0.15277178585529327, -0.05379657447338104, -0.1166050136089325, 0.027211152017116547, -0.042352981865406036, -0.10066990554332733, -0.05163174867630005, 0.014488408342003822, -0.022652043029665947, 0.07941288501024246, -0.0016595572233200073, 0.002036074409261346, -0.06731077283620834, 0.014916002750396729, -0.0316784605383873, 0.10737265646457672, 0.052376314997673035, -0.08272822201251984, -0.13759416341781616, -0.13618752360343933, -0.08159404247999191, 0.006598485633730888, 0.0910470187664032, -0.03883712738752365, 0.013100980781018734, 0.0635281652212143, -0.12226112186908722, -0.13340578973293304, 0.02126578986644745, 0.02659069560468197, -0.09470130503177643, -0.010976596735417843, -0.15990881621837616, 0.0015755891799926758, 0.0041027064435184, -0.030468173325061798, -0.027528870850801468, 0.015147377736866474, -0.0660226047039032, 0.0565083771944046, -0.11502745002508163, -0.08234845101833344, -0.13088466227054596, -0.1460275799036026, 0.05593731626868248, -0.030934110283851624, -0.13362431526184082, -0.01079379953444004, -0.12957975268363953, -0.025207731872797012, 0.036653559654951096, -0.0632428526878357, 0.0377068929374218, -0.012547646649181843], [-0.2936607301235199, -0.18712368607521057, 0.2490207999944687, 0.017578987404704094, -0.014885226264595985, -0.1112135574221611, -0.1354735642671585, 0.18056842684745789, 0.0786425769329071, 0.00666703749448061, 0.170412078499794, 0.015436321496963501, 0.08639860153198242, -0.05195220932364464, 0.22355881333351135, 0.10078812390565872, 0.036555804312229156, 0.625098466873169, -0.012684889137744904, 0.11945611983537674, 0.183470219373703, -0.025204649195075035, 0.11221280694007874, 0.20261400938034058, 0.0772920772433281, 0.11700393259525299, -0.08168569207191467, 0.09223601967096329, 0.198313906788826, -0.10917701572179794, -0.2571749985218048, 0.1875765025615692, 0.22538544237613678, 0.23406115174293518, 0.09674940258264542, 0.11796604096889496, 0.25848427414894104, 0.0012860435526818037, 0.19349293410778046, 0.032983213663101196, 0.004283829592168331, -0.001547659165225923, 0.2052062600851059, -0.05972160026431084, -0.06622830033302307, 0.060797471553087234, 0.31289416551589966, 0.2803354561328888, -0.04697100818157196, 0.007537206169217825, 0.0025249042082577944, -0.014179074205458164, -0.0627279132604599, 0.2262171506881714, 0.23867399990558624, -0.07695751637220383, -0.1927894800901413, 0.16817505657672882, 0.16329969465732574, -0.08194779604673386, 0.0788724273443222, 0.10180263221263885, 0.1467246413230896, -0.007008890155702829], [0.03451983630657196, -0.1036115437746048, 0.26810839772224426, 0.2909156084060669, -0.1531471610069275, 0.08937299996614456, -0.27327829599380493, 0.24107879400253296, 0.30822306871414185, -0.18142947554588318, 0.21835888922214508, 0.024263784289360046, 0.27989116311073303, -0.1462244689464569, -0.018164722248911858, 0.3266458809375763, -0.09421811997890472, -0.13490498065948486, -0.25340205430984497, -0.027207955718040466, 0.1638694852590561, 0.09385870397090912, 0.041885729879140854, 0.11712323129177094, 0.16724807024002075, 0.3745458126068115, 0.147660031914711, -0.011207303032279015, 0.10978896170854568, 0.012490699999034405, -0.011639909818768501, 0.06317134201526642, 0.18817010521888733, -0.3154943585395813, 0.017009636387228966, 0.17329011857509613, 0.17262455821037292, 0.1090448647737503, 0.27362194657325745, 0.05605592578649521, 0.18191967904567719, 0.1490793228149414, 0.30703437328338623, -0.2511099576950073, 0.011732704937458038, -0.19302096962928772, 0.12252935767173767, 0.2515380382537842, -0.28861480951309204, -0.09132586419582367, 0.41672173142433167, 0.24709086120128632, -0.09649854153394699, 0.25207728147506714, 0.2204309105873108, 0.2664829194545746, 0.1695677936077118, -0.03270720690488815, 0.3400016725063324, -0.13390995562076569, 0.10780748724937439, 0.0188447255641222, -0.19474968314170837, 0.06577060371637344], [0.25970593094825745, 0.29392170906066895, -0.022881023585796356, 0.09781868010759354, -0.06757735460996628, 0.101495161652565, -0.00241548172198236, -0.04408295080065727, 0.026474233716726303, -0.0031592955347150564, -0.06859134137630463, 0.08388753235340118, -0.01775725930929184, -0.23941701650619507, 0.2994287312030792, 0.2502100169658661, 0.2624342143535614, -0.2118203490972519, -0.027420666068792343, 0.024542251601815224, -0.012895096093416214, -0.05230323225259781, 0.11756393313407898, 0.07056835293769836, 0.04562873765826225, 0.05547378957271576, 0.19296734035015106, 0.12360073626041412, 0.14341218769550323, 0.2555294334888458, -0.008380777202546597, 0.1551196128129959, -0.11277609318494797, -0.2154436707496643, 0.1582288295030594, 0.04335590451955795, -0.025789393112063408, 0.13575905561447144, 0.2679655849933624, -0.12856823205947876, 0.00032708459184505045, 0.2127724438905716, -0.09025416523218155, 0.39059728384017944, -0.09913931787014008, 0.17409668862819672, 0.6948632001876831, -0.05013810470700264, -0.177160382270813, 0.28619199991226196, 0.2080988585948944, -0.0017289601964876056, 0.13727222383022308, 0.24804915487766266, 0.02373347245156765, 0.0013580182567238808, 0.14382590353488922, 0.19748738408088684, 0.09039656817913055, -0.07668855786323547, 0.19746091961860657, 0.06933582574129105, -0.03850504010915756, 0.19056729972362518], [0.1704505980014801, -0.19527289271354675, -0.14170138537883759, -0.20677374303340912, 0.013988517224788666, 0.11329348385334015, -0.006979925557971001, -0.059626419097185135, 0.19963155686855316, -0.2166111320257187, 0.04967916011810303, -0.01453089714050293, 0.0004117460339330137, 0.27368074655532837, 0.0011762811336666346, 0.12340638786554337, -0.2480965107679367, 0.3456745445728302, 0.13831762969493866, 0.24988900125026703, 0.00726076727733016, 0.24121353030204773, -0.051334355026483536, -0.066098153591156, 0.12440124154090881, -0.1215604618191719, 0.32282519340515137, -0.145156130194664, 0.055147748440504074, 0.050965193659067154, 0.12865754961967468, 0.04289809241890907, 0.24749773740768433, 0.09772107750177383, 0.16652511060237885, -0.09078211337327957, -0.026426168158650398, 0.44580405950546265, 0.20245462656021118, 0.22305013239383698, 0.19904085993766785, -0.24291542172431946, 0.17931769788265228, -0.19292911887168884, 0.03684316202998161, -0.060380637645721436, -0.06422021985054016, 0.29419246315956116, 0.1218930259346962, 0.056043583899736404, -0.25120463967323303, -0.2574496269226074, -0.17010976374149323, 0.19526183605194092, 0.19460955262184143, -0.0712294727563858, 0.17691873013973236, 0.2228318303823471, 0.08912522345781326, -0.1221766397356987, 0.0970279723405838, -0.031645163893699646, -0.10220237821340561, 0.2741584777832031], [-0.24963130056858063, 0.23361028730869293, 0.05170118436217308, 0.11602026969194412, 0.09980811923742294, 0.06151682883501053, 0.12752126157283783, 0.08156345784664154, -0.07803425937891006, 0.05578403174877167, 0.13548928499221802, -0.09372860193252563, 0.025412118062376976, -0.18118491768836975, 0.26406192779541016, -0.06791035830974579, 0.16470827162265778, 0.2803418040275574, 0.1486186385154724, -0.03418032452464104, -0.10210728645324707, -0.2607346177101135, 0.2223665416240692, 0.13698111474514008, 0.07266026735305786, -0.061412300914525986, -0.12781402468681335, 0.1922081708908081, 0.21069861948490143, 0.046188533306121826, 0.07446150481700897, 0.1775640845298767, -0.198085755109787, -0.13008694350719452, 0.2359561026096344, 0.06684399396181107, 0.1508997231721878, -0.27183058857917786, -0.062150076031684875, -0.27998971939086914, -0.2697595953941345, 0.2067844569683075, 0.06433489918708801, 0.5788929462432861, -0.07594310492277145, 0.2706525921821594, 0.2583925127983093, -0.18047210574150085, -0.17733053863048553, 0.15724891424179077, 0.12442382425069809, 0.17503349483013153, 0.09648334980010986, 0.07913843542337418, -0.045401301234960556, -0.12517526745796204, -0.05249713361263275, 0.07172416150569916, -0.09119416028261185, 0.19287222623825073, 0.16485467553138733, 0.2203877717256546, 0.07934381067752838, 0.05803012475371361], [0.014801130630075932, -0.05965592712163925, 0.14375442266464233, 0.3265628218650818, -0.12056387215852737, -0.08593834191560745, -0.31201615929603577, 0.24629166722297668, 0.19266819953918457, -0.10277166217565536, 0.2001347690820694, 0.05819743871688843, 0.20428156852722168, -0.05153112858533859, 0.03687267005443573, 0.3173198997974396, -0.02495068870484829, 0.1802937090396881, -0.25906312465667725, 0.0005379205686040223, -0.026056425645947456, 0.25829312205314636, 0.18274250626564026, 0.18559491634368896, 0.2984839379787445, 0.2840507924556732, -0.0694270059466362, -0.1068783551454544, 0.0559471994638443, -0.04431084915995598, -0.22116407752037048, 0.1471409946680069, 0.2558561861515045, -0.08358792960643768, 0.17376525700092316, 0.1710810661315918, 0.1526678055524826, 0.10483233630657196, 0.2490231692790985, -0.04057671129703522, 0.22495600581169128, 0.26245445013046265, 0.20373718440532684, 0.227227583527565, 0.011128482408821583, -0.18172989785671234, 0.25278612971305847, 0.20062650740146637, -0.22125384211540222, 